~o
<STREAMINFO> 1 39
<VECSIZE> 39<NULLD><MFCC_D_A_0><DIAGC>
~s "silst"
<MEAN> 39
 -1.597792e+01 -7.666908e-01 -1.262014e+00 -4.055867e+00 2.614171e+00 1.104912e+00 7.042221e+00 4.933499e-01 4.711589e+00 -4.627877e+00 2.486736e+00 -7.028980e-01 6.944852e+01 -4.421351e-02 -4.856761e-02 -3.216666e-02 -7.374959e-02 -5.127128e-02 -2.791038e-02 5.436913e-02 8.644474e-02 6.541678e-02 4.225867e-02 6.185073e-02 8.931616e-02 -2.260457e-02 5.811502e-02 2.505336e-02 5.810820e-03 2.246775e-02 3.573933e-02 4.792894e-03 -2.414094e-02 -1.869923e-02 -4.992409e-02 -2.443729e-02 1.240128e-03 -5.431985e-02 -1.302741e-02
<VARIANCE> 39
 3.353927e+01 2.963695e+01 3.265933e+01 2.006703e+01 1.944696e+01 2.033048e+01 1.757869e+01 2.042286e+01 4.147458e+01 2.705069e+01 1.635800e+01 2.025959e+01 1.995949e+01 1.830266e+00 1.305771e+00 1.177042e+00 1.075435e+00 1.136863e+00 1.462014e+00 1.225767e+00 1.287051e+00 1.912805e+00 1.459455e+00 1.381209e+00 1.559186e+00 7.931362e-01 3.034135e-01 2.080778e-01 1.923990e-01 1.799342e-01 1.997686e-01 2.765767e-01 2.342435e-01 2.428398e-01 3.571642e-01 2.709100e-01 2.742196e-01 3.075027e-01 1.414235e-01
<GCONST> 9.772706e+01
~h "A"
<BEGINHMM>
<NUMSTATES> 5
<STATE> 2
<MEAN> 39
 -9.345525e+00 1.498397e+00 1.230161e+00 -1.109100e+00 5.053945e+00 4.276589e-01 3.884113e+00 -2.658357e+00 -1.756524e+00 -9.593063e+00 1.004989e+00 -3.261775e+00 7.273560e+01 3.613127e-01 -8.546399e-02 3.439068e-02 3.910082e-02 -1.339196e-01 -3.380772e-01 -1.116593e-01 -1.815758e-01 -4.942618e-01 -4.027142e-01 1.375957e-01 2.339511e-01 4.170209e-01 -5.592563e-02 -4.168157e-02 -5.072474e-02 4.382731e-03 -2.904703e-02 -7.874987e-02 -1.258304e-02 -3.776437e-02 6.788318e-02 6.317137e-02 2.960090e-02 1.491486e-02 -2.418884e-02
<VARIANCE> 39
 2.754729e+01 2.432548e+01 2.060564e+01 2.482505e+01 3.651106e+01 3.435028e+01 2.253887e+01 2.312954e+01 4.670882e+01 3.839043e+01 2.223017e+01 2.593395e+01 3.696441e+01 2.249376e+00 2.268581e+00 1.534678e+00 1.806666e+00 2.086175e+00 2.578828e+00 1.929248e+00 1.882070e+00 3.208068e+00 2.844953e+00 1.746826e+00 1.972093e+00 1.378797e+00 2.877107e-01 3.295518e-01 2.600379e-01 2.795469e-01 2.856009e-01 4.574925e-01 3.166320e-01 3.221809e-01 5.148464e-01 4.823585e-01 2.850027e-01 3.515788e-01 1.990963e-01
<GCONST> 1.100598e+02
<STATE> 3
<MEAN> 39
 -7.826603e+00 8.985775e-01 7.968537e-01 -1.087541e+00 4.561806e+00 -7.414716e-01 3.241248e+00 -2.940189e+00 -2.997950e+00 -1.063616e+01 1.675230e+00 -2.782200e+00 7.367889e+01 6.622854e-02 -3.778785e-02 -2.388692e-01 -5.080687e-02 -2.695543e-01 -3.692411e-01 1.189952e-02 -1.590481e-01 -2.338707e-02 4.017541e-02 1.720228e-01 2.855913e-01 1.607713e-02 -1.343219e-01 6.776699e-02 -1.841805e-03 2.353142e-02 8.396623e-02 1.470758e-01 5.181944e-02 1.969498e-02 2.067106e-01 1.264906e-01 -8.981115e-02 -1.257075e-01 -1.570846e-01
<VARIANCE> 39
 2.408448e+01 2.212103e+01 1.864986e+01 2.753925e+01 3.737259e+01 3.603216e+01 2.538883e+01 2.259234e+01 4.893544e+01 4.156623e+01 2.411630e+01 2.840469e+01 4.422594e+01 8.298615e-01 1.349701e+00 1.218734e+00 1.279069e+00 1.477533e+00 1.623686e+00 1.546914e+00 1.312024e+00 2.160672e+00 1.819733e+00 1.572927e+00 1.368969e+00 7.849888e-01 1.747659e-01 2.503255e-01 1.854564e-01 2.223316e-01 2.670666e-01 3.331006e-01 3.017763e-01 2.212274e-01 3.961775e-01 3.943762e-01 2.466076e-01 3.074666e-01 1.310524e-01
<GCONST> 1.018129e+02
<STATE> 4
<MEAN> 39
 -6.184669e+00 2.693928e-02 -5.274372e-01 -1.680102e+00 2.911947e+00 -2.461358e+00 3.372512e+00 -3.818573e+00 -4.668058e+00 -1.045501e+01 3.556637e+00 -2.037416e+00 7.507147e+01 -8.246944e-02 2.936279e-01 -2.291798e-02 1.175737e-01 1.270380e-01 1.550247e-01 6.764294e-02 -8.381825e-02 2.010670e-01 8.068182e-02 -1.498466e-01 -1.183543e-01 -3.163072e-01 -5.624188e-02 9.625069e-02 4.145071e-02 5.962983e-02 1.056304e-01 1.308064e-01 7.186825e-03 2.257550e-02 1.031252e-01 4.230434e-02 -1.016364e-01 -8.189156e-02 -9.827481e-02
<VARIANCE> 39
 1.836672e+01 2.091321e+01 1.903650e+01 2.254764e+01 3.531918e+01 2.768896e+01 2.514464e+01 2.631278e+01 4.555166e+01 3.375974e+01 2.665216e+01 3.029158e+01 2.680714e+01 4.331841e-01 1.058737e+00 8.755475e-01 9.746470e-01 1.221554e+00 1.403921e+00 1.241527e+00 1.069241e+00 1.482920e+00 1.399702e+00 1.181339e+00 1.236805e+00 5.916467e-01 6.248805e-02 1.519143e-01 1.378223e-01 1.472844e-01 1.794813e-01 2.340054e-01 2.101385e-01 1.842035e-01 2.681480e-01 2.504526e-01 1.981467e-01 2.259289e-01 8.064996e-02
<GCONST> 9.155919e+01
<TRANSP> 5
 0.000000e+00 1.000000e+00 0.000000e+00 0.000000e+00 0.000000e+00
 0.000000e+00 4.427144e-01 5.572857e-01 0.000000e+00 0.000000e+00
 0.000000e+00 0.000000e+00 1.234254e-01 8.765746e-01 0.000000e+00
 0.000000e+00 0.000000e+00 0.000000e+00 7.125444e-01 2.874555e-01
 0.000000e+00 0.000000e+00 0.000000e+00 0.000000e+00 0.000000e+00
<ENDHMM>
~h "D"
<BEGINHMM>
<NUMSTATES> 5
<STATE> 2
<MEAN> 39
 -1.046263e+01 1.192893e+00 6.305027e-01 -4.821957e-01 5.510118e+00 3.635251e-01 3.368382e+00 -2.087046e+00 1.058523e+00 -7.760965e+00 1.078395e+00 -3.910955e+00 7.106615e+01 -8.002754e-04 2.112335e-03 2.165078e-03 -1.564994e-03 -4.300685e-04 -6.324079e-04 -1.138046e-03 -8.787271e-04 1.271468e-03 1.846282e-03 -1.804322e-04 -1.278623e-03 8.343531e-04 -4.475967e-05 -7.284283e-05 6.230097e-05 -2.442853e-04 -2.338257e-04 -5.949535e-05 4.124621e-05 -3.071028e-04 -1.978394e-04 -1.140548e-04 -8.069598e-05 -8.477430e-05 4.232170e-05
<VARIANCE> 39
 3.765159e+01 3.402439e+01 3.148469e+01 4.143038e+01 4.410116e+01 3.300908e+01 3.624625e+01 2.761554e+01 4.947715e+01 4.012057e+01 2.551658e+01 3.113912e+01 4.344355e+01 1.430533e+00 1.639362e+00 1.207966e+00 1.426063e+00 1.597724e+00 1.687130e+00 1.852222e+00 1.504564e+00 2.150095e+00 1.829018e+00 1.449835e+00 1.662362e+00 8.789857e-01 2.020932e-01 2.530756e-01 1.999116e-01 2.097155e-01 2.506926e-01 2.923805e-01 3.142056e-01 2.754931e-01 3.601594e-01 3.260430e-01 2.625300e-01 2.975152e-01 1.394317e-01
<GCONST> 1.059066e+02
<STATE> 3
<MEAN> 39
 -1.046263e+01 1.192893e+00 6.305027e-01 -4.821957e-01 5.510118e+00 3.635251e-01 3.368382e+00 -2.087046e+00 1.058523e+00 -7.760965e+00 1.078395e+00 -3.910955e+00 7.106615e+01 -8.002754e-04 2.112335e-03 2.165078e-03 -1.564994e-03 -4.300685e-04 -6.324079e-04 -1.138046e-03 -8.787271e-04 1.271468e-03 1.846282e-03 -1.804322e-04 -1.278623e-03 8.343531e-04 -4.475967e-05 -7.284283e-05 6.230097e-05 -2.442853e-04 -2.338257e-04 -5.949535e-05 4.124621e-05 -3.071028e-04 -1.978394e-04 -1.140548e-04 -8.069598e-05 -8.477430e-05 4.232170e-05
<VARIANCE> 39
 3.765159e+01 3.402439e+01 3.148469e+01 4.143038e+01 4.410116e+01 3.300908e+01 3.624625e+01 2.761554e+01 4.947715e+01 4.012057e+01 2.551658e+01 3.113912e+01 4.344355e+01 1.430533e+00 1.639362e+00 1.207966e+00 1.426063e+00 1.597724e+00 1.687130e+00 1.852222e+00 1.504564e+00 2.150095e+00 1.829018e+00 1.449835e+00 1.662362e+00 8.789857e-01 2.020932e-01 2.530756e-01 1.999116e-01 2.097155e-01 2.506926e-01 2.923805e-01 3.142056e-01 2.754931e-01 3.601594e-01 3.260430e-01 2.625300e-01 2.975152e-01 1.394317e-01
<GCONST> 1.059066e+02
<STATE> 4
<MEAN> 39
 -1.046263e+01 1.192893e+00 6.305027e-01 -4.821957e-01 5.510118e+00 3.635251e-01 3.368382e+00 -2.087046e+00 1.058523e+00 -7.760965e+00 1.078395e+00 -3.910955e+00 7.106615e+01 -8.002754e-04 2.112335e-03 2.165078e-03 -1.564994e-03 -4.300685e-04 -6.324079e-04 -1.138046e-03 -8.787271e-04 1.271468e-03 1.846282e-03 -1.804322e-04 -1.278623e-03 8.343531e-04 -4.475967e-05 -7.284283e-05 6.230097e-05 -2.442853e-04 -2.338257e-04 -5.949535e-05 4.124621e-05 -3.071028e-04 -1.978394e-04 -1.140548e-04 -8.069598e-05 -8.477430e-05 4.232170e-05
<VARIANCE> 39
 3.765159e+01 3.402439e+01 3.148469e+01 4.143038e+01 4.410116e+01 3.300908e+01 3.624625e+01 2.761554e+01 4.947715e+01 4.012057e+01 2.551658e+01 3.113912e+01 4.344355e+01 1.430533e+00 1.639362e+00 1.207966e+00 1.426063e+00 1.597724e+00 1.687130e+00 1.852222e+00 1.504564e+00 2.150095e+00 1.829018e+00 1.449835e+00 1.662362e+00 8.789857e-01 2.020932e-01 2.530756e-01 1.999116e-01 2.097155e-01 2.506926e-01 2.923805e-01 3.142056e-01 2.754931e-01 3.601594e-01 3.260430e-01 2.625300e-01 2.975152e-01 1.394317e-01
<GCONST> 1.059066e+02
<TRANSP> 5
 0.000000e+00 1.000000e+00 0.000000e+00 0.000000e+00 0.000000e+00
 0.000000e+00 6.000000e-01 4.000000e-01 0.000000e+00 0.000000e+00
 0.000000e+00 0.000000e+00 6.000000e-01 4.000000e-01 0.000000e+00
 0.000000e+00 0.000000e+00 0.000000e+00 7.000000e-01 3.000000e-01
 0.000000e+00 0.000000e+00 0.000000e+00 0.000000e+00 0.000000e+00
<ENDHMM>
~h "E"
<BEGINHMM>
<NUMSTATES> 5
<STATE> 2
<MEAN> 39
 -6.229371e+00 -5.367039e-01 -4.482454e+00 -2.761458e+00 1.148968e+00 -4.610063e+00 6.680835e+00 -5.900593e-02 -1.968169e+00 -8.550139e+00 5.183690e+00 -1.579375e+00 7.554436e+01 2.298063e-01 -2.151748e-01 -9.077303e-01 -5.574008e-01 -9.745820e-01 -6.753237e-01 4.686731e-01 4.124069e-01 5.255715e-01 7.730124e-01 4.001281e-01 -3.133211e-01 2.544496e-02 -1.043970e-01 8.606225e-02 2.377482e-01 -1.493025e-02 1.802111e-01 2.247208e-01 4.464415e-02 7.142076e-02 1.124740e-02 2.404940e-02 -8.670613e-02 -6.127258e-02 -8.260515e-02
<VARIANCE> 39
 2.327262e+01 1.374159e+01 1.114669e+01 1.374413e+01 2.490832e+01 1.719247e+01 1.634659e+01 1.750609e+01 4.561769e+01 1.363102e+01 1.974902e+01 2.167896e+01 8.173243e+00 4.850839e-01 4.362975e-01 7.192445e-01 8.114012e-01 1.110525e+00 1.118296e+00 1.343946e+00 9.206443e-01 8.275879e-01 1.296758e+00 1.139849e+00 1.232868e+00 2.004327e-01 5.718522e-02 1.362740e-01 1.351435e-01 1.213155e-01 2.125740e-01 1.539313e-01 1.990635e-01 1.550670e-01 1.910795e-01 1.912560e-01 1.545227e-01 2.539888e-01 6.519969e-02
<GCONST> 8.078717e+01
<STATE> 3
<MEAN> 39
 -6.327624e+00 -9.234139e-01 -5.515007e+00 -4.960777e+00 -2.023536e+00 -6.549345e+00 9.789664e+00 2.775744e+00 1.043080e+00 -6.475404e+00 6.495204e+00 -2.700955e+00 7.644589e+01 2.250188e-02 1.275049e-01 3.046098e-01 -1.721481e-01 2.510098e-01 3.064764e-01 5.331098e-03 -2.582490e-01 -2.138243e-01 -1.903310e-01 1.537973e-01 1.139267e-01 1.391770e-02 -2.577095e-03 1.104710e-01 1.558783e-01 9.380754e-02 1.585980e-01 1.308368e-01 -1.931042e-01 -1.980544e-01 -9.172757e-02 -1.838643e-01 -8.884666e-02 2.399542e-02 -5.496778e-02
<VARIANCE> 39
 3.181021e+01 1.070013e+01 8.552743e+00 9.109584e+00 2.382952e+01 1.780876e+01 2.045311e+01 1.912961e+01 4.307928e+01 1.140047e+01 2.043127e+01 1.600066e+01 8.997165e+00 2.654762e-01 4.521300e-01 4.801157e-01 5.955560e-01 6.931368e-01 7.690824e-01 1.445479e+00 1.215840e+00 9.168348e-01 9.148679e-01 7.399635e-01 1.335218e+00 1.291226e-01 3.984060e-02 7.971960e-02 7.996712e-02 1.047442e-01 1.073476e-01 1.373437e-01 1.979115e-01 1.723945e-01 1.371253e-01 1.566255e-01 1.578274e-01 2.122096e-01 2.341835e-02
<GCONST> 7.327328e+01
<STATE> 4
<MEAN> 39
 -6.280163e+00 3.471976e+00 -2.055088e+00 -3.796189e+00 1.322579e-01 -4.291745e+00 6.700728e+00 -1.188175e+00 -9.247160e-01 -8.767442e+00 3.816386e+00 -5.092482e+00 7.263661e+01 -1.408112e-01 4.166956e-01 4.337951e-01 2.460856e-01 3.512124e-01 3.732125e-01 -4.795256e-01 -2.750855e-01 5.362316e-02 -6.841375e-02 -3.874627e-01 -2.106868e-01 -4.117747e-01 -4.398320e-02 -3.950555e-02 -8.897896e-03 4.277029e-03 -1.690051e-02 1.225874e-03 -2.922832e-02 5.961573e-03 6.818336e-02 2.230669e-02 -7.412402e-02 3.175095e-02 -8.741985e-03
<VARIANCE> 39
 2.408717e+01 1.949890e+01 1.038050e+01 1.806621e+01 2.543378e+01 2.361960e+01 2.158802e+01 1.650915e+01 2.355248e+01 2.021884e+01 2.100084e+01 2.953726e+01 1.557767e+01 8.047814e-01 1.312961e+00 1.016122e+00 1.386705e+00 1.576655e+00 1.513745e+00 1.209236e+00 1.277756e+00 1.449524e+00 1.513899e+00 1.872480e+00 1.381386e+00 7.235752e-01 8.107290e-02 2.036670e-01 1.351199e-01 1.625337e-01 1.652026e-01 2.010258e-01 1.996392e-01 2.279523e-01 2.169053e-01 2.695713e-01 2.956819e-01 2.635479e-01 9.328602e-02
<GCONST> 9.161486e+01
<TRANSP> 5
 0.000000e+00 1.000000e+00 0.000000e+00 0.000000e+00 0.000000e+00
 0.000000e+00 7.223306e-01 2.776694e-01 0.000000e+00 0.000000e+00
 0.000000e+00 0.000000e+00 8.386799e-01 1.613201e-01 0.000000e+00
 0.000000e+00 0.000000e+00 0.000000e+00 7.947570e-01 2.052430e-01
 0.000000e+00 0.000000e+00 0.000000e+00 0.000000e+00 0.000000e+00
<ENDHMM>
~h "H"
<BEGINHMM>
<NUMSTATES> 5
<STATE> 2
<MEAN> 39
 -5.788189e+00 2.354863e+00 -8.232148e-01 -5.151524e+00 2.390668e+00 -2.379887e+00 6.003207e+00 -3.344065e+00 -3.427506e+00 -7.084150e+00 2.797903e+00 -3.413781e+00 7.486673e+01 -1.636551e-01 -1.288270e+00 -9.132695e-01 -7.439242e-01 -5.591328e-01 2.961008e-01 1.278841e+00 1.643662e-01 -6.209001e-03 1.080545e+00 1.395784e+00 9.441489e-01 3.755163e-01 -2.795644e-01 -1.375005e-01 -1.091189e-01 3.071402e-01 3.383738e-01 2.295591e-01 -1.628414e-01 9.074906e-02 3.011703e-01 -7.385525e-02 4.969830e-02 1.088662e-01 -2.295614e-01
<VARIANCE> 39
 8.163423e+00 2.410879e+01 1.786973e+01 1.954723e+01 2.259694e+01 2.762183e+01 4.071058e+01 1.930041e+01 5.904449e+01 2.300280e+01 3.185650e+01 1.225733e+01 1.318814e+01 6.007321e-01 1.445322e+00 1.108561e+00 1.801901e+00 1.221632e+00 1.852737e+00 3.570125e+00 1.263043e+00 3.496336e+00 1.824760e+00 1.405608e+00 1.655402e+00 8.550172e-01 1.662985e-01 1.645840e-01 2.472430e-01 3.133025e-01 2.456203e-01 3.286978e-01 9.214849e-01 2.206961e-01 5.541235e-01 5.200790e-01 2.417667e-01 3.207346e-01 1.121499e-01
<GCONST> 1.008391e+02
<STATE> 3
<MEAN> 39
 -8.102339e+00 -3.594622e+00 -5.061201e+00 -5.663023e+00 4.787053e+00 -9.329519e-01 6.439846e+00 -2.280430e+00 -2.453259e+00 -6.219023e+00 7.716860e+00 9.574750e-01 7.495973e+01 -4.891163e-01 -1.298829e+00 -1.227280e+00 -3.682527e-02 4.098692e-01 2.681039e-01 -7.615066e-01 1.231391e-01 3.318870e-01 -3.515767e-01 2.524191e-01 6.716797e-01 -1.485300e-01 -1.250547e-02 6.783956e-02 5.267033e-02 3.533126e-03 -4.761757e-02 5.711080e-03 -2.214300e-01 -1.501778e-01 -1.036444e-01 -1.786149e-01 -2.564647e-01 -7.858784e-02 -3.083356e-02
<VARIANCE> 39
 1.108471e+01 2.945891e+01 2.056422e+01 1.195683e+01 1.725651e+01 2.249981e+01 2.345664e+01 2.571029e+01 4.273066e+01 2.397503e+01 1.672606e+01 1.383255e+01 6.810634e+00 5.340669e-01 1.330544e+00 8.505581e-01 6.958525e-01 1.035848e+00 1.657921e+00 2.769209e+00 8.039098e-01 1.775262e+00 1.975419e+00 1.796368e+00 7.533636e-01 2.588076e-01 4.788731e-02 1.759279e-01 1.304760e-01 1.413767e-01 1.572283e-01 2.655543e-01 5.691373e-01 1.867122e-01 2.332980e-01 3.161986e-01 2.814314e-01 1.238297e-01 4.971890e-02
<GCONST> 8.715714e+01
<STATE> 4
<MEAN> 39
 -1.083138e+01 -6.145885e+00 -8.627229e+00 -6.331464e+00 3.300422e+00 1.524352e-01 5.841681e+00 -1.728095e+00 1.199336e+00 -5.799647e+00 7.740366e+00 1.079126e+00 7.174317e+01 -2.385075e-01 3.240877e-01 1.464505e-01 1.061406e-01 -7.928503e-02 1.328850e-01 6.615248e-02 -5.410587e-02 3.044579e-01 2.952127e-01 -2.226493e-01 -1.533011e-01 -4.864520e-01 1.843401e-02 1.633868e-01 1.641188e-01 5.848017e-02 8.582480e-03 -3.238073e-02 8.275510e-02 1.989608e-02 8.224404e-03 2.586545e-02 -6.274801e-02 -1.137213e-01 2.940592e-02
<VARIANCE> 39
 6.215100e+00 3.547238e+01 1.695851e+01 8.985089e+00 1.186614e+01 1.864349e+01 3.493631e+01 1.720816e+01 2.101504e+01 2.534135e+01 1.898769e+01 1.800177e+01 1.519193e+01 4.143613e-01 2.154333e+00 1.427190e+00 8.334349e-01 7.877662e-01 1.557262e+00 1.809194e+00 1.140397e+00 1.642116e+00 1.522645e+00 1.430628e+00 1.337170e+00 5.246049e-01 8.631431e-02 2.508097e-01 2.056792e-01 1.770171e-01 1.712898e-01 2.877391e-01 3.309740e-01 1.816936e-01 2.554263e-01 3.175204e-01 2.606780e-01 2.383910e-01 8.803697e-02
<GCONST> 8.995131e+01
<TRANSP> 5
 0.000000e+00 1.000000e+00 0.000000e+00 0.000000e+00 0.000000e+00
 0.000000e+00 6.612030e-01 3.387969e-01 0.000000e+00 0.000000e+00
 0.000000e+00 0.000000e+00 7.554858e-01 2.445142e-01 0.000000e+00
 0.000000e+00 0.000000e+00 0.000000e+00 9.025229e-01 9.747707e-02
 0.000000e+00 0.000000e+00 0.000000e+00 0.000000e+00 0.000000e+00
<ENDHMM>
~h "K"
<BEGINHMM>
<NUMSTATES> 5
<STATE> 2
<MEAN> 39
 -8.109057e+00 2.924069e+00 2.835790e+00 3.562104e+00 9.102501e+00 3.020973e+00 4.530166e+00 -4.226923e+00 -5.898254e+00 -1.582125e+01 -1.707437e+00 -2.455679e+00 7.189665e+01 3.545940e-02 -4.121242e-02 3.672889e-02 9.724209e-02 -8.321537e-02 -1.145228e-01 3.015089e-01 3.414587e-01 2.399109e-02 -2.843173e-01 -2.226052e-01 1.419920e-01 4.254896e-02 -1.933709e-01 -8.121336e-02 -8.217317e-03 -1.447929e-01 -1.349527e-01 5.196603e-02 1.170420e-01 8.787343e-02 1.383172e-01 2.791365e-01 1.556199e-01 -5.119961e-02 2.816792e-02
<VARIANCE> 39
 6.070355e+00 1.057795e+01 5.290283e+00 9.342245e+00 8.460736e+00 9.435408e+00 1.443803e+01 1.412820e+01 1.074347e+01 2.276091e+01 2.634067e+01 2.885419e+01 9.425553e+00 1.220697e+00 4.429897e-01 1.875134e-01 4.582303e-01 8.324326e-01 8.992743e-01 9.809309e-01 8.397237e-01 1.127784e+00 3.248907e+00 1.147204e+00 1.021288e+00 4.467242e-01 2.735628e-01 1.049826e-01 4.568475e-02 1.070718e-01 1.580820e-01 2.040461e-01 2.151428e-01 1.902276e-01 2.525026e-01 8.161926e-01 2.066062e-01 2.330067e-01 1.021965e-01
<GCONST> 7.851807e+01
<STATE> 3
<MEAN> 39
 -9.958137e+00 -1.770394e+00 3.406614e+00 -1.785220e+00 5.650088e+00 2.038182e+00 4.394496e+00 -2.270889e+00 -5.983444e+00 -1.249699e+01 3.411411e+00 -1.083699e+00 7.639950e+01 -9.240541e-01 3.393669e-02 1.940757e-01 -1.022848e+00 -5.802991e-01 6.083269e-01 2.982656e-01 6.029841e-01 5.722014e-01 4.901490e-01 3.548432e-01 6.774515e-03 1.825145e-01 3.578183e-02 1.698314e-01 -4.485668e-02 1.406526e-01 6.734532e-02 1.615249e-01 4.909508e-02 7.784688e-02 2.717284e-01 9.235904e-02 -1.636286e-01 -1.503754e-01 -2.614600e-01
<VARIANCE> 39
 1.968458e+01 1.742981e+01 7.367348e+00 2.657568e+01 6.324082e+00 1.372757e+01 2.327135e+01 3.547383e+01 2.782874e+01 3.062522e+01 2.038012e+01 1.019500e+01 1.801035e+01 1.417562e+00 1.767545e+00 3.478129e-01 7.898081e-01 1.174749e+00 1.111433e+00 2.773940e+00 7.677194e-01 1.850382e+00 3.837413e+00 1.770270e+00 1.419395e+00 1.142720e+00 1.248569e-01 2.869688e-01 4.775611e-02 1.453070e-01 1.939441e-01 2.701096e-01 5.619023e-01 1.776434e-01 2.983168e-01 8.966033e-01 1.363958e-01 1.256299e-01 8.767176e-02
<GCONST> 9.123891e+01
<STATE> 4
<MEAN> 39
 -1.662391e+01 -9.616072e-01 9.163429e-03 -6.415341e+00 2.728909e+00 3.089158e+00 6.573085e+00 3.758549e+00 -1.675602e+00 -1.474214e+01 3.501549e+00 -1.024746e+00 7.296021e+01 -1.223800e-01 -1.500864e-03 1.374096e-02 9.399666e-02 -2.064625e-01 -4.098628e-01 6.157516e-01 4.825975e-01 8.092995e-01 8.089392e-01 -4.270989e-02 -1.087750e-01 -4.200867e-01 3.162032e-01 1.182857e-01 1.057665e-01 4.702954e-01 2.963341e-01 -1.041487e-01 -9.349253e-02 -1.454193e-01 1.994387e-02 2.627848e-01 -1.123424e-01 -1.412328e-01 -1.040095e-01
<VARIANCE> 39
 3.276710e+01 9.961224e+00 1.081518e+01 4.375024e+01 1.648311e+01 2.219033e+01 1.106939e+01 2.736482e+01 1.155089e+01 5.595325e+01 2.146261e+01 5.890895e+00 2.619340e+01 6.200314e-01 7.781606e-01 8.762842e-01 1.855132e+00 6.715432e-01 1.494958e+00 7.594624e-01 7.043171e-01 8.725259e-01 2.325336e+00 1.419193e+00 1.120682e+00 5.282745e-01 8.537913e-02 1.352528e-01 1.247815e-01 1.994305e-01 1.736870e-01 3.074542e-01 4.151521e-01 1.453646e-01 1.432078e-01 4.088880e-01 3.164021e-01 1.460621e-01 1.771400e-01
<GCONST> 8.795010e+01
<TRANSP> 5
 0.000000e+00 1.000000e+00 0.000000e+00 0.000000e+00 0.000000e+00
 0.000000e+00 8.205783e-01 1.794218e-01 0.000000e+00 0.000000e+00
 0.000000e+00 0.000000e+00 6.013107e-01 3.986893e-01 0.000000e+00
 0.000000e+00 0.000000e+00 0.000000e+00 6.085900e-01 3.914100e-01
 0.000000e+00 0.000000e+00 0.000000e+00 0.000000e+00 0.000000e+00
<ENDHMM>
~h "S"
<BEGINHMM>
<NUMSTATES> 5
<STATE> 2
<MEAN> 39
 -9.309308e+00 3.551353e+00 1.508126e+00 -2.679506e+00 8.749860e+00 2.060395e+00 1.197527e+00 6.613631e-01 4.735366e-01 -1.197378e+01 -1.603519e+00 -1.626589e-01 7.352850e+01 3.881145e-02 -3.636795e-02 1.631924e-01 -1.454852e-01 -5.807948e-01 -6.242260e-01 4.082741e-01 2.495050e-01 3.703802e-02 -4.303169e-02 -1.112496e-01 3.255825e-01 1.352613e-01 -8.212467e-02 -3.757090e-02 4.866158e-02 -9.952850e-03 -1.107211e-02 -8.613823e-03 7.649476e-02 1.416375e-02 -2.185958e-02 1.288010e-02 9.241763e-02 -2.921748e-03 2.277439e-03
<VARIANCE> 39
 3.716547e+01 2.301169e+01 8.242433e+00 1.870239e+01 4.655721e+01 4.009503e+01 5.406150e+01 1.876556e+01 2.787233e+01 3.616408e+01 2.833376e+01 3.245394e+01 1.477874e+01 2.470886e+00 2.091949e+00 7.994421e-01 2.217977e+00 3.661501e+00 5.040647e+00 3.948936e+00 1.570940e+00 2.357498e+00 2.342035e+00 2.407087e+00 2.365090e+00 1.760590e+00 3.736448e-01 2.988420e-01 1.097227e-01 3.378300e-01 3.581545e-01 9.232613e-01 4.086106e-01 2.920011e-01 4.196899e-01 4.625931e-01 3.590672e-01 3.975787e-01 3.028681e-01
<GCONST> 1.118227e+02
<STATE> 3
<MEAN> 39
 -2.081939e+01 -1.980847e+00 8.089555e+00 -6.470634e+00 3.953147e-02 -2.107157e+00 9.308952e+00 -4.432355e-01 1.348899e+00 -8.271652e+00 -1.281621e+00 -3.863689e-01 7.622414e+01 -1.691094e+00 -7.654763e-01 4.933015e-01 -8.290809e-01 -3.404954e-01 5.907734e-01 -3.596582e-02 -2.562707e-01 -1.533886e-01 4.996909e-01 1.598003e-01 2.738930e-02 3.467803e-01 2.625399e-01 8.248281e-02 -1.005336e-01 1.167497e-01 1.419842e-01 5.945779e-02 -1.805821e-01 2.209880e-02 1.149786e-01 1.619084e-01 1.195365e-02 -1.728362e-01 -1.499006e-01
<VARIANCE> 39
 6.824834e+01 2.886624e+01 2.663994e+01 4.009726e+01 7.203475e+00 4.201359e+01 2.187088e+01 3.637256e+01 2.956876e+01 2.208687e+01 1.297919e+01 1.396531e+01 4.577749e+00 3.575481e+00 1.124836e+00 2.566516e+00 1.774330e+00 1.708390e+00 4.279259e+00 2.482748e+00 2.736773e+00 1.349227e+00 2.190402e+00 1.595627e+00 1.661243e+00 7.047858e-01 4.395982e-01 2.914826e-01 2.914619e-01 4.080649e-01 1.549233e-01 7.357276e-01 3.437333e-01 4.003911e-01 2.153362e-01 4.835801e-01 4.296463e-01 3.491152e-01 1.367634e-01
<GCONST> 1.058654e+02
<STATE> 4
<MEAN> 39
 -2.304053e+01 -4.840557e+00 8.594217e+00 -7.250160e+00 -1.618009e+00 7.777079e-01 9.923308e+00 -9.015199e-02 1.949236e+00 -3.076226e+00 1.275308e+00 -1.483062e+00 7.364524e+01 1.183418e+00 3.458413e-01 -6.817834e-01 8.038777e-01 4.638221e-01 -8.771451e-03 7.327380e-02 2.650659e-01 3.321882e-01 -9.549227e-02 -8.732322e-02 -4.761719e-01 -6.030424e-01 2.109292e-01 1.520558e-01 1.715301e-02 1.165646e-01 1.724273e-01 -5.714351e-03 -1.296460e-01 -1.095587e-01 -8.249353e-02 -1.513625e-01 -6.004292e-02 -2.800168e-02 -2.989262e-04
<VARIANCE> 39
 4.042803e+01 2.108404e+01 3.153890e+01 3.553528e+01 1.349840e+01 1.221046e+01 1.771978e+01 1.749078e+01 2.745647e+01 2.482903e+01 1.043344e+01 1.479539e+01 1.791365e+01 1.441703e+00 2.077794e+00 1.753186e+00 1.405763e+00 1.144065e+00 1.356976e+00 9.920070e-01 1.351532e+00 2.505070e+00 2.960957e+00 1.140470e+00 1.168410e+00 6.170253e-01 1.454973e-01 3.476319e-01 5.144923e-01 1.502320e-01 1.878599e-01 2.362806e-01 2.291788e-01 2.639896e-01 4.907865e-01 4.875900e-01 2.246694e-01 1.926319e-01 9.860125e-02
<GCONST> 9.692695e+01
<TRANSP> 5
 0.000000e+00 1.000000e+00 0.000000e+00 0.000000e+00 0.000000e+00
 0.000000e+00 9.158329e-01 8.416700e-02 0.000000e+00 0.000000e+00
 0.000000e+00 0.000000e+00 8.312736e-01 1.687264e-01 0.000000e+00
 0.000000e+00 0.000000e+00 0.000000e+00 8.628229e-01 1.371772e-01
 0.000000e+00 0.000000e+00 0.000000e+00 0.000000e+00 0.000000e+00
<ENDHMM>
~h "T"
<BEGINHMM>
<NUMSTATES> 5
<STATE> 2
<MEAN> 39
 -9.140706e+00 5.176589e+00 4.373202e+00 4.204873e+00 7.970554e+00 2.804296e+00 4.841383e+00 -3.163516e+00 1.436412e+00 -6.867145e+00 -8.100152e-01 -7.431466e+00 6.975983e+01 1.716447e-01 4.270027e-02 1.450826e-01 1.780407e-01 -1.261476e-01 1.453296e-01 -1.382998e-01 -2.716537e-01 -1.096860e-01 6.876989e-02 3.138211e-02 -1.700848e-01 1.738116e-01 8.657642e-02 3.427046e-02 4.955682e-02 2.057963e-02 -4.856661e-02 -1.473220e-01 -5.816755e-03 1.050088e-02 -5.961248e-02 -3.616347e-02 -7.552256e-02 -3.118500e-02 1.410417e-02
<VARIANCE> 39
 2.578259e+01 5.443009e+01 2.117075e+01 2.749751e+01 2.545235e+01 2.342915e+01 2.780536e+01 4.660522e+01 1.752369e+01 2.627746e+01 1.600489e+01 1.813801e+01 1.629329e+01 2.940212e+00 4.118585e+00 1.668403e+00 1.733414e+00 1.751574e+00 1.992990e+00 2.706574e+00 2.839099e+00 1.763686e+00 1.858366e+00 1.908037e+00 1.719736e+00 1.670613e+00 4.613012e-01 5.463921e-01 2.946570e-01 2.074909e-01 2.025223e-01 3.528876e-01 4.801314e-01 4.949667e-01 3.475088e-01 4.247693e-01 3.928126e-01 2.565645e-01 2.553371e-01
<GCONST> 1.093547e+02
<STATE> 3
<MEAN> 39
 -7.641519e+00 2.772615e+00 4.225591e+00 2.256105e+00 2.627025e+00 -3.133875e+00 4.604733e+00 -1.816541e+00 6.673589e-01 -8.111159e+00 -4.259435e+00 -9.268312e+00 7.344715e+01 6.507875e-01 3.819658e-01 9.936028e-02 -7.985074e-02 -6.887994e-01 -1.617280e+00 -2.194632e-01 7.646411e-01 4.329148e-01 -9.315017e-02 -1.968173e-01 1.076783e-01 7.754306e-02 -1.836077e-01 -1.209125e-01 -1.505448e-01 -1.349350e-01 7.375701e-02 6.826460e-02 -2.124240e-01 -1.145753e-01 2.172290e-02 -2.729853e-02 2.013051e-01 1.941151e-01 1.560598e-02
<VARIANCE> 39
 3.567388e+01 1.703768e+01 1.401330e+01 3.761938e+01 4.651163e+01 4.744055e+01 1.046218e+01 2.347904e+01 1.085811e+01 1.836053e+01 5.872953e+00 2.280578e+01 6.839996e+00 4.156276e+00 2.378632e+00 2.299786e+00 1.638716e+00 1.404780e+00 1.720163e+00 1.389416e+00 6.395327e-01 9.112257e-01 2.167083e+00 1.110979e+00 1.271201e+00 6.480724e-01 4.717196e-01 4.727236e-01 4.393216e-01 2.083253e-01 2.642598e-01 2.792935e-01 1.889673e-01 1.276713e-01 2.538546e-01 2.993459e-01 1.318469e-01 2.739266e-01 1.226828e-01
<GCONST> 9.642790e+01
<STATE> 4
<MEAN> 39
 -3.866814e+00 5.204791e+00 4.377332e+00 1.002735e+00 -2.929087e+00 -1.002845e+01 4.254064e-01 -1.184880e+00 3.239538e+00 -6.816818e+00 -1.544993e+00 -5.221482e+00 7.307803e+01 -2.273575e-01 3.227003e-02 -6.696556e-03 -2.314565e-01 -2.270013e-02 9.255473e-02 -4.667267e-02 -1.108338e-01 5.161677e-02 -1.399621e-02 5.693110e-02 8.625352e-02 -1.065450e-01 -6.652632e-02 -4.059505e-02 -5.355331e-05 -1.395833e-02 4.603690e-02 1.054086e-01 3.705332e-02 -6.656270e-03 -4.641764e-03 -1.277992e-02 -2.540308e-02 -3.048045e-02 6.427043e-03
<VARIANCE> 39
 2.001828e+01 3.189098e+01 7.777352e+00 3.031941e+01 2.878314e+01 5.700432e+01 2.882612e+01 2.184513e+01 1.578603e+01 2.372651e+01 2.021856e+01 2.069517e+01 1.268386e+01 1.038479e+00 1.405804e+00 5.268741e-01 1.339417e+00 1.667642e+00 2.009900e+00 1.413866e+00 2.059265e+00 7.714124e-01 1.144813e+00 1.047790e+00 1.050073e+00 4.781183e-01 9.407789e-02 2.067126e-01 7.742924e-02 1.549343e-01 2.035155e-01 2.460255e-01 2.162059e-01 3.349556e-01 1.462410e-01 2.428695e-01 1.685671e-01 2.022626e-01 5.829928e-02
<GCONST> 8.994993e+01
<TRANSP> 5
 0.000000e+00 1.000000e+00 0.000000e+00 0.000000e+00 0.000000e+00
 0.000000e+00 9.396269e-01 6.037314e-02 0.000000e+00 0.000000e+00
 0.000000e+00 0.000000e+00 8.423876e-01 1.576124e-01 0.000000e+00
 0.000000e+00 0.000000e+00 0.000000e+00 9.615628e-01 3.843728e-02
 0.000000e+00 0.000000e+00 0.000000e+00 0.000000e+00 0.000000e+00
<ENDHMM>
~h "Z"
<BEGINHMM>
<NUMSTATES> 5
<STATE> 2
<MEAN> 39
 -1.046263e+01 1.192893e+00 6.305027e-01 -4.821957e-01 5.510118e+00 3.635251e-01 3.368382e+00 -2.087046e+00 1.058523e+00 -7.760965e+00 1.078395e+00 -3.910955e+00 7.106615e+01 -8.002754e-04 2.112335e-03 2.165078e-03 -1.564994e-03 -4.300685e-04 -6.324079e-04 -1.138046e-03 -8.787271e-04 1.271468e-03 1.846282e-03 -1.804322e-04 -1.278623e-03 8.343531e-04 -4.475967e-05 -7.284283e-05 6.230097e-05 -2.442853e-04 -2.338257e-04 -5.949535e-05 4.124621e-05 -3.071028e-04 -1.978394e-04 -1.140548e-04 -8.069598e-05 -8.477430e-05 4.232170e-05
<VARIANCE> 39
 3.765159e+01 3.402439e+01 3.148469e+01 4.143038e+01 4.410116e+01 3.300908e+01 3.624625e+01 2.761554e+01 4.947715e+01 4.012057e+01 2.551658e+01 3.113912e+01 4.344355e+01 1.430533e+00 1.639362e+00 1.207966e+00 1.426063e+00 1.597724e+00 1.687130e+00 1.852222e+00 1.504564e+00 2.150095e+00 1.829018e+00 1.449835e+00 1.662362e+00 8.789857e-01 2.020932e-01 2.530756e-01 1.999116e-01 2.097155e-01 2.506926e-01 2.923805e-01 3.142056e-01 2.754931e-01 3.601594e-01 3.260430e-01 2.625300e-01 2.975152e-01 1.394317e-01
<GCONST> 1.059066e+02
<STATE> 3
<MEAN> 39
 -1.046263e+01 1.192893e+00 6.305027e-01 -4.821957e-01 5.510118e+00 3.635251e-01 3.368382e+00 -2.087046e+00 1.058523e+00 -7.760965e+00 1.078395e+00 -3.910955e+00 7.106615e+01 -8.002754e-04 2.112335e-03 2.165078e-03 -1.564994e-03 -4.300685e-04 -6.324079e-04 -1.138046e-03 -8.787271e-04 1.271468e-03 1.846282e-03 -1.804322e-04 -1.278623e-03 8.343531e-04 -4.475967e-05 -7.284283e-05 6.230097e-05 -2.442853e-04 -2.338257e-04 -5.949535e-05 4.124621e-05 -3.071028e-04 -1.978394e-04 -1.140548e-04 -8.069598e-05 -8.477430e-05 4.232170e-05
<VARIANCE> 39
 3.765159e+01 3.402439e+01 3.148469e+01 4.143038e+01 4.410116e+01 3.300908e+01 3.624625e+01 2.761554e+01 4.947715e+01 4.012057e+01 2.551658e+01 3.113912e+01 4.344355e+01 1.430533e+00 1.639362e+00 1.207966e+00 1.426063e+00 1.597724e+00 1.687130e+00 1.852222e+00 1.504564e+00 2.150095e+00 1.829018e+00 1.449835e+00 1.662362e+00 8.789857e-01 2.020932e-01 2.530756e-01 1.999116e-01 2.097155e-01 2.506926e-01 2.923805e-01 3.142056e-01 2.754931e-01 3.601594e-01 3.260430e-01 2.625300e-01 2.975152e-01 1.394317e-01
<GCONST> 1.059066e+02
<STATE> 4
<MEAN> 39
 -1.046263e+01 1.192893e+00 6.305027e-01 -4.821957e-01 5.510118e+00 3.635251e-01 3.368382e+00 -2.087046e+00 1.058523e+00 -7.760965e+00 1.078395e+00 -3.910955e+00 7.106615e+01 -8.002754e-04 2.112335e-03 2.165078e-03 -1.564994e-03 -4.300685e-04 -6.324079e-04 -1.138046e-03 -8.787271e-04 1.271468e-03 1.846282e-03 -1.804322e-04 -1.278623e-03 8.343531e-04 -4.475967e-05 -7.284283e-05 6.230097e-05 -2.442853e-04 -2.338257e-04 -5.949535e-05 4.124621e-05 -3.071028e-04 -1.978394e-04 -1.140548e-04 -8.069598e-05 -8.477430e-05 4.232170e-05
<VARIANCE> 39
 3.765159e+01 3.402439e+01 3.148469e+01 4.143038e+01 4.410116e+01 3.300908e+01 3.624625e+01 2.761554e+01 4.947715e+01 4.012057e+01 2.551658e+01 3.113912e+01 4.344355e+01 1.430533e+00 1.639362e+00 1.207966e+00 1.426063e+00 1.597724e+00 1.687130e+00 1.852222e+00 1.504564e+00 2.150095e+00 1.829018e+00 1.449835e+00 1.662362e+00 8.789857e-01 2.020932e-01 2.530756e-01 1.999116e-01 2.097155e-01 2.506926e-01 2.923805e-01 3.142056e-01 2.754931e-01 3.601594e-01 3.260430e-01 2.625300e-01 2.975152e-01 1.394317e-01
<GCONST> 1.059066e+02
<TRANSP> 5
 0.000000e+00 1.000000e+00 0.000000e+00 0.000000e+00 0.000000e+00
 0.000000e+00 6.000000e-01 4.000000e-01 0.000000e+00 0.000000e+00
 0.000000e+00 0.000000e+00 6.000000e-01 4.000000e-01 0.000000e+00
 0.000000e+00 0.000000e+00 0.000000e+00 7.000000e-01 3.000000e-01
 0.000000e+00 0.000000e+00 0.000000e+00 0.000000e+00 0.000000e+00
<ENDHMM>
~h "_"
<BEGINHMM>
<NUMSTATES> 5
<STATE> 2
<MEAN> 39
 -1.046263e+01 1.192893e+00 6.305027e-01 -4.821957e-01 5.510118e+00 3.635251e-01 3.368382e+00 -2.087046e+00 1.058523e+00 -7.760965e+00 1.078395e+00 -3.910955e+00 7.106615e+01 -8.002754e-04 2.112335e-03 2.165078e-03 -1.564994e-03 -4.300685e-04 -6.324079e-04 -1.138046e-03 -8.787271e-04 1.271468e-03 1.846282e-03 -1.804322e-04 -1.278623e-03 8.343531e-04 -4.475967e-05 -7.284283e-05 6.230097e-05 -2.442853e-04 -2.338257e-04 -5.949535e-05 4.124621e-05 -3.071028e-04 -1.978394e-04 -1.140548e-04 -8.069598e-05 -8.477430e-05 4.232170e-05
<VARIANCE> 39
 3.765159e+01 3.402439e+01 3.148469e+01 4.143038e+01 4.410116e+01 3.300908e+01 3.624625e+01 2.761554e+01 4.947715e+01 4.012057e+01 2.551658e+01 3.113912e+01 4.344355e+01 1.430533e+00 1.639362e+00 1.207966e+00 1.426063e+00 1.597724e+00 1.687130e+00 1.852222e+00 1.504564e+00 2.150095e+00 1.829018e+00 1.449835e+00 1.662362e+00 8.789857e-01 2.020932e-01 2.530756e-01 1.999116e-01 2.097155e-01 2.506926e-01 2.923805e-01 3.142056e-01 2.754931e-01 3.601594e-01 3.260430e-01 2.625300e-01 2.975152e-01 1.394317e-01
<GCONST> 1.059066e+02
<STATE> 3
<MEAN> 39
 -1.046263e+01 1.192893e+00 6.305027e-01 -4.821957e-01 5.510118e+00 3.635251e-01 3.368382e+00 -2.087046e+00 1.058523e+00 -7.760965e+00 1.078395e+00 -3.910955e+00 7.106615e+01 -8.002754e-04 2.112335e-03 2.165078e-03 -1.564994e-03 -4.300685e-04 -6.324079e-04 -1.138046e-03 -8.787271e-04 1.271468e-03 1.846282e-03 -1.804322e-04 -1.278623e-03 8.343531e-04 -4.475967e-05 -7.284283e-05 6.230097e-05 -2.442853e-04 -2.338257e-04 -5.949535e-05 4.124621e-05 -3.071028e-04 -1.978394e-04 -1.140548e-04 -8.069598e-05 -8.477430e-05 4.232170e-05
<VARIANCE> 39
 3.765159e+01 3.402439e+01 3.148469e+01 4.143038e+01 4.410116e+01 3.300908e+01 3.624625e+01 2.761554e+01 4.947715e+01 4.012057e+01 2.551658e+01 3.113912e+01 4.344355e+01 1.430533e+00 1.639362e+00 1.207966e+00 1.426063e+00 1.597724e+00 1.687130e+00 1.852222e+00 1.504564e+00 2.150095e+00 1.829018e+00 1.449835e+00 1.662362e+00 8.789857e-01 2.020932e-01 2.530756e-01 1.999116e-01 2.097155e-01 2.506926e-01 2.923805e-01 3.142056e-01 2.754931e-01 3.601594e-01 3.260430e-01 2.625300e-01 2.975152e-01 1.394317e-01
<GCONST> 1.059066e+02
<STATE> 4
<MEAN> 39
 -1.046263e+01 1.192893e+00 6.305027e-01 -4.821957e-01 5.510118e+00 3.635251e-01 3.368382e+00 -2.087046e+00 1.058523e+00 -7.760965e+00 1.078395e+00 -3.910955e+00 7.106615e+01 -8.002754e-04 2.112335e-03 2.165078e-03 -1.564994e-03 -4.300685e-04 -6.324079e-04 -1.138046e-03 -8.787271e-04 1.271468e-03 1.846282e-03 -1.804322e-04 -1.278623e-03 8.343531e-04 -4.475967e-05 -7.284283e-05 6.230097e-05 -2.442853e-04 -2.338257e-04 -5.949535e-05 4.124621e-05 -3.071028e-04 -1.978394e-04 -1.140548e-04 -8.069598e-05 -8.477430e-05 4.232170e-05
<VARIANCE> 39
 3.765159e+01 3.402439e+01 3.148469e+01 4.143038e+01 4.410116e+01 3.300908e+01 3.624625e+01 2.761554e+01 4.947715e+01 4.012057e+01 2.551658e+01 3.113912e+01 4.344355e+01 1.430533e+00 1.639362e+00 1.207966e+00 1.426063e+00 1.597724e+00 1.687130e+00 1.852222e+00 1.504564e+00 2.150095e+00 1.829018e+00 1.449835e+00 1.662362e+00 8.789857e-01 2.020932e-01 2.530756e-01 1.999116e-01 2.097155e-01 2.506926e-01 2.923805e-01 3.142056e-01 2.754931e-01 3.601594e-01 3.260430e-01 2.625300e-01 2.975152e-01 1.394317e-01
<GCONST> 1.059066e+02
<TRANSP> 5
 0.000000e+00 1.000000e+00 0.000000e+00 0.000000e+00 0.000000e+00
 0.000000e+00 6.000000e-01 4.000000e-01 0.000000e+00 0.000000e+00
 0.000000e+00 0.000000e+00 6.000000e-01 4.000000e-01 0.000000e+00
 0.000000e+00 0.000000e+00 0.000000e+00 7.000000e-01 3.000000e-01
 0.000000e+00 0.000000e+00 0.000000e+00 0.000000e+00 0.000000e+00
<ENDHMM>
~h "a"
<BEGINHMM>
<NUMSTATES> 5
<STATE> 2
<MEAN> 39
 -1.479903e+01 -2.906264e-01 2.544027e+00 -4.798222e+00 3.509473e+00 1.201803e+00 5.334412e+00 -1.798298e+00 -4.543225e-01 -8.902861e+00 1.993474e+00 -9.474163e-01 7.247544e+01 3.363801e-01 -1.463555e-01 7.953083e-02 1.020128e-01 -1.346938e-01 -3.909192e-01 -1.661695e-01 1.601803e-02 -4.305146e-01 -5.719458e-01 -3.752450e-02 2.613358e-01 5.863113e-01 1.211074e-01 3.995984e-02 -9.285095e-02 1.183967e-01 -1.263546e-02 -1.733126e-01 7.268032e-02 6.871323e-02 3.969236e-02 1.551015e-02 1.077066e-02 -1.090862e-01 -1.976991e-02
<VARIANCE> 39
 5.020471e+01 1.812696e+01 3.801605e+01 2.858348e+01 1.946406e+01 2.940599e+01 2.094778e+01 2.587642e+01 6.178430e+01 3.823454e+01 1.433835e+01 1.967348e+01 2.074228e+01 4.749241e+00 1.415179e+00 2.410502e+00 2.065790e+00 1.848127e+00 3.405262e+00 1.924600e+00 2.157767e+00 4.124228e+00 2.919363e+00 1.184971e+00 1.506817e+00 1.712893e+00 5.381500e-01 2.700004e-01 3.512477e-01 3.426073e-01 4.335995e-01 5.579075e-01 3.885421e-01 3.258764e-01 7.494393e-01 4.668037e-01 2.133179e-01 2.993273e-01 2.861464e-01
<GCONST> 1.123636e+02
<STATE> 3
<MEAN> 39
 -7.902056e+00 -1.142765e+00 -1.138185e+00 -1.625416e+00 4.288158e+00 -3.592506e+00 3.190307e+00 -3.314958e+00 -5.269751e+00 -1.245699e+01 3.378749e+00 8.214135e-01 7.446945e+01 1.620912e-01 3.593427e-01 -2.233340e-01 -1.382842e-01 -4.372279e-01 -6.569593e-01 4.681664e-01 4.528808e-01 7.693896e-01 4.821545e-01 -5.751431e-02 -5.642275e-01 -2.167895e-01 -3.772693e-02 1.276177e-01 1.389069e-01 4.120009e-02 2.094151e-03 9.200999e-02 9.308897e-02 -5.822169e-03 2.217441e-01 2.348920e-01 -3.545788e-02 -2.985346e-01 -1.088772e-01
<VARIANCE> 39
 2.310877e+01 1.696994e+01 1.800415e+01 3.469291e+01 2.177537e+01 3.120670e+01 2.441213e+01 3.469671e+01 5.498695e+01 4.537173e+01 1.882399e+01 2.358533e+01 1.403225e+01 7.562290e-01 1.631289e+00 1.756042e+00 1.410447e+00 1.791517e+00 2.130363e+00 1.139605e+00 2.051834e+00 2.665467e+00 1.552084e+00 1.266244e+00 2.368624e+00 1.323047e+00 1.868739e-01 2.599942e-01 2.921195e-01 1.769837e-01 1.558518e-01 4.030548e-01 2.079199e-01 3.279174e-01 3.675556e-01 3.959900e-01 2.287981e-01 3.832562e-01 1.633058e-01
<GCONST> 1.023990e+02
<STATE> 4
<MEAN> 39
 -4.955401e+00 4.180486e+00 -7.548083e-01 -2.220434e+00 5.716737e-01 -7.684902e+00 3.265733e+00 -8.938392e-01 8.966298e-01 -9.014947e+00 1.003120e+00 -2.836524e+00 7.257990e+01 -8.319315e-03 3.640435e-01 1.564632e-01 8.019168e-02 3.000650e-02 2.914307e-02 -1.642029e-01 -1.855093e-01 1.395727e-01 -6.112785e-02 -1.666871e-01 -2.350193e-01 -1.462239e-01 -4.250484e-02 -6.388063e-02 7.505441e-02 2.996128e-03 9.525450e-02 1.360552e-01 -2.742017e-02 -4.056318e-02 -1.374417e-01 -1.034104e-01 -1.333148e-03 6.605614e-02 4.033148e-02
<VARIANCE> 39
 1.470878e+01 2.062200e+01 1.676858e+01 1.931603e+01 3.458966e+01 5.267739e+01 3.622735e+01 1.987918e+01 1.729357e+01 4.432383e+01 2.290313e+01 1.896855e+01 1.639994e+01 3.741020e-01 1.364979e+00 5.565634e-01 6.813539e-01 1.191671e+00 2.853673e+00 1.422909e+00 1.102018e+00 1.210337e+00 2.018229e+00 1.139982e+00 1.514577e+00 1.048151e+00 7.953248e-02 1.577903e-01 8.983435e-02 1.288565e-01 1.667008e-01 3.686665e-01 2.259438e-01 2.297228e-01 1.671532e-01 2.525923e-01 2.446925e-01 2.957838e-01 1.283195e-01
<GCONST> 9.186263e+01
<TRANSP> 5
 0.000000e+00 1.000000e+00 0.000000e+00 0.000000e+00 0.000000e+00
 0.000000e+00 7.236577e-01 2.763423e-01 0.000000e+00 0.000000e+00
 0.000000e+00 0.000000e+00 5.946045e-01 4.053955e-01 0.000000e+00
 0.000000e+00 0.000000e+00 0.000000e+00 8.072744e-01 1.927256e-01
 0.000000e+00 0.000000e+00 0.000000e+00 0.000000e+00 0.000000e+00
<ENDHMM>
~h "b"
<BEGINHMM>
<NUMSTATES> 5
<STATE> 2
<MEAN> 39
 -1.068283e+01 5.567756e+00 1.452553e+00 1.322626e+00 8.227696e+00 2.491245e+00 4.719404e+00 -1.050399e+00 2.839786e+00 -6.787360e+00 -3.881682e-01 -6.089637e+00 7.042231e+01 3.536715e-01 2.953533e-01 4.589915e-01 8.834909e-01 8.861210e-01 5.896235e-01 -3.280185e-01 -1.708793e-01 -6.211817e-02 -4.968444e-01 -7.439251e-01 -6.462649e-01 1.282046e-02 1.661562e-02 -1.698577e-01 4.785162e-02 2.456069e-02 1.639686e-01 -8.194921e-02 -3.405398e-01 -1.308388e-01 -1.697390e-01 -3.089618e-01 -7.821681e-02 -2.454760e-03 1.777708e-01
<VARIANCE> 39
 3.113539e+01 2.675963e+01 1.157058e+01 1.583745e+01 1.549698e+01 1.544101e+01 2.028311e+01 1.090751e+01 1.636846e+01 1.868426e+01 1.080546e+01 9.362873e+00 7.560262e+00 1.089988e+00 2.405400e+00 1.067792e+00 9.743329e-01 1.593566e+00 1.079090e+00 2.633052e+00 8.412511e-01 1.464174e+00 2.054707e+00 1.143905e+00 1.211826e+00 9.159302e-01 8.213490e-02 2.064945e-01 1.380503e-01 1.389308e-01 1.888828e-01 1.931208e-01 3.214809e-01 1.685961e-01 2.780375e-01 3.541912e-01 2.482332e-01 1.909452e-01 1.125043e-01
<GCONST> 8.872522e+01
<STATE> 3
<MEAN> 39
 -7.987373e+00 3.197472e+00 2.127309e+00 4.196024e+00 1.438078e+01 3.407530e+00 -1.987031e+00 -3.488729e+00 4.758434e-01 -1.230656e+01 -2.021831e+00 -9.001559e+00 7.206683e+01 2.379680e-01 1.811468e-01 4.030669e-01 4.936682e-01 5.889181e-01 -1.683781e-01 -7.034972e-01 2.647831e-02 2.302884e-01 -3.599316e-01 -3.937588e-01 -4.256279e-01 8.033890e-02 -1.894616e-01 -1.228981e-01 -8.667415e-02 -1.517742e-01 -4.852321e-01 -2.253866e-01 3.320596e-01 1.514273e-01 1.192797e-01 3.945979e-01 2.435453e-01 2.680959e-01 -6.513106e-02
<VARIANCE> 39
 9.718695e+00 2.006926e+01 1.523789e+01 2.414421e+01 3.890815e+01 1.507938e+01 3.391922e+01 1.434787e+01 2.954126e+01 2.556566e+01 1.539182e+01 8.107527e+00 9.976091e+00 4.142424e-01 2.787992e+00 1.032188e+00 6.927505e-01 3.715884e+00 1.341224e+00 2.985311e+00 1.200178e+00 2.393437e+00 3.370010e+00 1.230002e+00 1.268446e+00 1.463386e+00 1.098957e-01 3.150583e-01 2.417542e-01 1.573477e-01 2.532064e-01 3.181844e-01 3.852403e-01 1.631508e-01 2.835983e-01 4.090527e-01 2.266786e-01 1.971234e-01 1.962891e-01
<GCONST> 9.597003e+01
<STATE> 4
<MEAN> 39
 -9.111517e+00 4.686588e+00 3.353416e+00 5.982826e+00 1.255687e+01 2.219794e+00 -1.175375e-01 -2.207712e+00 3.730632e+00 -8.686234e+00 -2.024419e+00 -8.369863e+00 7.031765e+01 -1.502832e-01 -7.420439e-02 -2.096794e-01 -3.248853e-01 -2.349558e-01 5.342383e-03 1.534257e-01 -1.285561e-01 -2.391372e-01 3.344130e-02 1.520165e-01 6.044557e-02 -5.014377e-02 -3.393858e-02 -9.356391e-02 -6.175450e-02 -9.882395e-02 -3.478553e-02 1.493805e-02 4.468097e-02 -3.755800e-02 -1.074893e-01 -4.618306e-02 5.978179e-02 1.054156e-01 7.473999e-02
<VARIANCE> 39
 7.662275e+00 2.521737e+01 1.570745e+01 2.661332e+01 2.754438e+01 1.696410e+01 3.894504e+01 1.555142e+01 2.539458e+01 1.637549e+01 1.937855e+01 1.383431e+01 1.435626e+01 3.567843e-01 9.361651e-01 6.205320e-01 1.063791e+00 9.774826e-01 1.005855e+00 2.102552e+00 1.150299e+00 2.050569e+00 1.335994e+00 1.214050e+00 9.476510e-01 4.965020e-01 6.418123e-02 1.487942e-01 9.232187e-02 1.418155e-01 2.205750e-01 1.480621e-01 3.490433e-01 2.121898e-01 3.085721e-01 2.527363e-01 2.255423e-01 2.094969e-01 9.948563e-02
<GCONST> 8.669506e+01
<TRANSP> 5
 0.000000e+00 1.000000e+00 0.000000e+00 0.000000e+00 0.000000e+00
 0.000000e+00 7.081412e-01 2.918588e-01 0.000000e+00 0.000000e+00
 0.000000e+00 0.000000e+00 5.677940e-01 4.322060e-01 0.000000e+00
 0.000000e+00 0.000000e+00 0.000000e+00 8.781945e-01 1.218056e-01
 0.000000e+00 0.000000e+00 0.000000e+00 0.000000e+00 0.000000e+00
<ENDHMM>
~h "d"
<BEGINHMM>
<NUMSTATES> 5
<STATE> 2
<MEAN> 39
 -1.053776e+01 4.887920e+00 1.202289e+00 -1.487804e-01 6.866941e+00 4.257918e+00 3.897123e+00 -3.307494e+00 -1.745915e+00 -1.208477e+01 -1.971365e+00 -4.526430e+00 7.064517e+01 -4.251951e-01 -1.633057e-01 -3.824156e-01 -1.370043e-01 -8.835617e-01 -4.696118e-01 3.215201e-01 4.619047e-01 6.935886e-01 3.853943e-01 -1.980911e-01 -8.864732e-03 -2.846692e-01 -1.105184e-01 -3.620008e-01 1.728209e-01 9.449259e-02 8.594186e-03 -1.629410e-01 1.211941e-01 9.360413e-02 -9.281842e-02 1.550198e-02 2.307961e-01 6.895193e-02 2.333377e-01
<VARIANCE> 39
 1.528505e+01 1.329618e+01 7.474569e+00 1.075992e+01 2.219751e+01 1.122521e+01 1.970153e+01 1.194193e+01 4.708297e+01 3.966037e+01 7.016533e+00 1.287725e+01 2.250458e+01 9.219761e-01 2.412914e+00 1.227964e+00 9.504623e-01 1.447294e+00 8.951487e-01 1.492251e+00 1.094661e+00 2.927836e+00 3.775054e+00 1.225667e+00 1.362045e+00 1.881499e+00 2.400005e-01 3.907529e-01 2.488293e-01 2.129478e-01 2.901510e-01 2.129117e-01 3.156865e-01 2.282320e-01 7.414157e-01 9.354005e-01 1.983910e-01 2.960728e-01 3.817024e-01
<GCONST> 9.787568e+01
<STATE> 3
<MEAN> 39
 -1.498076e+01 1.572532e-01 5.029175e-01 -2.519146e+00 2.393858e+00 1.971879e+00 7.225921e+00 -1.802731e+00 6.254063e-01 -9.649891e+00 5.997225e-02 -2.377388e+00 7.144830e+01 -1.467960e-01 -1.197305e+00 4.086505e-01 6.116190e-02 5.592661e-03 -2.423935e-01 8.006638e-01 -5.119761e-03 -1.002242e+00 -8.432649e-01 7.024199e-01 8.758927e-01 8.621160e-01 3.475691e-01 2.384161e-01 6.907692e-02 1.728330e-01 4.331691e-01 4.732480e-02 -1.286746e-01 -6.407353e-02 -7.928743e-02 -1.394714e-01 -6.300418e-03 -1.184124e-01 -6.363127e-02
<VARIANCE> 39
 1.140444e+01 1.860204e+01 1.686216e+01 1.639386e+01 1.866408e+01 9.435814e+00 1.211225e+01 1.879718e+01 4.687494e+01 2.705271e+01 1.279798e+01 8.936570e+00 1.565267e+01 1.473752e+00 2.285968e+00 2.055220e+00 2.107690e+00 1.537384e+00 1.723886e+00 1.626105e+00 2.535483e+00 3.463058e+00 2.523828e+00 8.797892e-01 9.447460e-01 1.055216e+00 2.369900e-01 2.538589e-01 3.460481e-01 3.314404e-01 2.925797e-01 2.660405e-01 3.109268e-01 4.180314e-01 4.946141e-01 6.192999e-01 2.662379e-01 1.656077e-01 2.166495e-01
<GCONST> 9.959558e+01
<STATE> 4
<MEAN> 39
 -1.669257e+01 -2.065213e+00 3.836992e+00 3.682836e-01 4.544908e+00 -4.353927e-01 1.054067e+01 3.179759e+00 1.991052e+00 -1.017632e+01 2.273374e+00 5.524717e-01 7.530262e+01 7.968672e-01 -2.673144e-01 -2.632082e-02 7.484227e-01 6.278354e-01 -2.565685e-01 -1.745706e-01 1.296888e-01 -6.155597e-01 -5.865251e-01 -1.749543e-02 -1.848820e-01 2.866025e-01 3.147412e-01 2.582399e-01 -1.631490e-01 -1.076960e-01 1.156366e-02 7.162372e-02 -4.020893e-01 -2.375253e-01 -8.698575e-02 3.154209e-02 -1.422644e-01 -2.338058e-01 -1.761689e-01
<VARIANCE> 39
 3.192117e+01 2.171656e+01 3.624865e+01 3.949806e+01 3.980761e+01 2.174916e+01 2.187488e+01 5.916324e+01 5.500624e+01 4.227166e+01 1.655333e+01 2.115817e+01 2.330997e+01 3.176086e+00 2.374216e+00 1.809691e+00 2.022086e+00 1.903525e+00 2.162231e+00 1.888274e+00 4.292753e+00 3.955921e+00 4.183674e+00 1.566500e+00 1.963670e+00 1.254124e+00 2.922709e-01 3.876657e-01 2.227682e-01 4.275879e-01 3.232783e-01 3.527655e-01 2.573688e-01 8.246942e-01 5.662607e-01 4.206865e-01 2.632851e-01 2.525438e-01 1.882584e-01
<GCONST> 1.130898e+02
<TRANSP> 5
 0.000000e+00 1.000000e+00 0.000000e+00 0.000000e+00 0.000000e+00
 0.000000e+00 7.643667e-01 2.356333e-01 0.000000e+00 0.000000e+00
 0.000000e+00 0.000000e+00 5.436599e-01 4.563400e-01 0.000000e+00
 0.000000e+00 0.000000e+00 0.000000e+00 6.480684e-01 3.519316e-01
 0.000000e+00 0.000000e+00 0.000000e+00 0.000000e+00 0.000000e+00
<ENDHMM>
~h "e"
<BEGINHMM>
<NUMSTATES> 5
<STATE> 2
<MEAN> 39
 -1.555085e+01 2.053685e+00 4.724046e+00 -6.872724e+00 3.991314e+00 5.332188e+00 3.708074e+00 -6.867382e+00 3.464756e+00 -5.988357e+00 5.110024e-01 -3.214236e+00 7.091483e+01 -1.478776e+00 -4.092769e-01 -2.654741e-01 -9.718452e-01 -6.411306e-01 -7.071506e-01 -6.250636e-01 4.203590e-02 6.598366e-01 -5.544884e-02 7.944130e-02 2.874069e-01 4.394991e-01 1.799080e-03 -2.244984e-01 8.299007e-02 1.340209e-01 7.902420e-02 -1.762873e-01 -5.587700e-02 -1.145442e-01 -3.712548e-01 -2.507610e-01 8.309042e-02 8.300430e-02 2.634003e-01
<VARIANCE> 39
 4.652705e+01 1.084227e+01 3.873606e+01 4.213349e+01 1.795424e+01 1.258683e+01 1.413235e+01 1.416262e+01 1.668125e+01 8.907189e+00 5.173131e+00 8.910093e+00 2.980953e+01 2.123224e+00 7.483488e-01 2.077935e+00 1.089019e+00 1.741370e+00 1.854752e+00 1.391760e+00 1.100969e+00 2.290107e+00 1.011681e+00 4.754125e-01 6.354584e-01 1.451830e+00 5.019119e-01 1.264295e-01 5.455616e-01 5.213895e-01 2.664090e-01 3.717814e-01 3.757098e-01 1.653422e-01 1.183686e-01 3.372117e-01 1.299578e-01 1.460693e-01 3.207498e-01
<GCONST> 9.371169e+01
<STATE> 3
<MEAN> 39
 -1.645006e+01 -4.835237e-01 4.863508e+00 -2.892141e+00 4.865925e+00 2.057017e+00 2.381753e+00 -8.240433e+00 -2.898661e-01 -8.780543e+00 8.540915e-01 -3.382150e+00 7.250150e+01 1.582914e+00 3.353049e-01 9.728798e-01 1.841876e+00 1.559559e+00 1.196530e+00 4.838664e-01 -4.956422e-01 -1.338008e+00 -5.602210e-01 5.888779e-02 -6.172950e-01 -2.233876e-01 3.404657e-01 2.745153e-01 -5.497732e-02 -7.898578e-02 1.706749e-01 4.599328e-01 1.758707e-01 2.231686e-01 1.151144e-01 1.005080e-01 -1.156971e-01 -1.338770e-01 -2.679568e-01
<VARIANCE> 39
 4.201406e+01 1.224089e+01 1.716529e+01 4.464708e+01 3.464655e+01 1.868578e+01 1.037336e+01 7.273948e+00 1.710078e+01 4.621347e+00 1.056310e+01 1.742444e+01 7.676226e+00 3.174127e+00 1.603636e+00 1.572064e+00 1.696322e+00 1.341913e+00 3.134863e+00 1.435752e+00 1.472222e+00 8.112097e-01 1.188961e+00 1.686364e+00 1.438263e+00 1.985559e+00 6.868393e-01 2.239818e-01 3.946868e-01 6.670248e-01 6.875308e-01 5.034350e-01 2.816289e-01 1.328921e-01 8.565743e-02 2.292951e-01 3.985399e-01 2.395496e-01 2.264284e-01
<GCONST> 9.799323e+01
<STATE> 4
<MEAN> 39
 -6.518439e+00 6.155627e+00 7.827677e-01 5.410156e+00 1.281628e+01 7.460121e+00 6.427852e+00 -5.500653e+00 -5.121394e-01 -6.772969e+00 -2.611780e+00 -8.112768e+00 6.777847e+01 -4.157237e-02 1.063853e-01 -2.125772e-01 -1.291194e-02 -7.624649e-02 -2.646672e-01 -6.982568e-02 5.384388e-01 4.903917e-01 -6.293621e-02 -3.444504e-01 3.768562e-02 -2.103374e-01 -8.103534e-02 -7.339957e-02 -3.624693e-02 -6.323085e-02 -1.486829e-01 -2.181975e-01 -5.048805e-02 1.052077e-01 8.854365e-02 -1.053762e-02 1.271871e-02 4.757003e-02 1.432864e-02
<VARIANCE> 39
 1.699158e+00 4.302891e+00 9.983957e+00 7.709850e+00 4.105416e+00 8.432762e+00 5.781781e+00 1.183391e+01 2.269478e+01 3.661942e+01 8.413109e+00 4.153112e+00 3.261868e+00 1.551500e-01 3.162594e-01 5.613541e-01 3.561120e-01 4.676435e-01 9.070347e-01 4.692291e-01 1.215020e+00 1.663657e+00 8.351203e-01 8.965008e-01 6.075965e-01 1.212492e-01 4.864862e-02 4.973693e-02 8.122297e-02 6.781548e-02 1.387015e-01 1.836580e-01 6.614894e-02 2.815279e-01 3.919452e-01 1.254956e-01 1.711976e-01 1.243234e-01 2.386875e-02
<GCONST> 5.933009e+01
<TRANSP> 5
 0.000000e+00 1.000000e+00 0.000000e+00 0.000000e+00 0.000000e+00
 0.000000e+00 7.234157e-01 2.765844e-01 0.000000e+00 0.000000e+00
 0.000000e+00 0.000000e+00 6.924418e-01 3.075582e-01 0.000000e+00
 0.000000e+00 0.000000e+00 0.000000e+00 8.964669e-01 1.035331e-01
 0.000000e+00 0.000000e+00 0.000000e+00 0.000000e+00 0.000000e+00
<ENDHMM>
~h "f"
<BEGINHMM>
<NUMSTATES> 5
<STATE> 2
<MEAN> 39
 -1.266843e+01 4.229395e+00 1.954556e+00 -2.872006e+00 7.476674e+00 2.076158e+00 5.529027e+00 -3.757337e-01 4.731880e-01 -8.456754e+00 4.135485e-01 -3.192745e+00 7.081923e+01 -1.549258e+00 -2.651708e-01 2.925980e-01 -8.048548e-01 -3.876563e-01 -2.694979e-01 4.840010e-01 -4.713598e-01 1.058304e-01 3.724542e-02 3.359614e-01 6.096619e-01 3.172463e-01 -1.136966e-01 -1.982879e-01 2.883912e-02 9.301834e-02 5.802767e-02 -1.986656e-01 -1.005195e-01 -1.963371e-01 -3.800321e-02 -5.933886e-02 4.179368e-02 -4.790504e-02 8.010752e-02
<VARIANCE> 39
 2.597686e+01 1.309863e+01 1.574589e+01 2.403418e+01 2.063825e+01 2.179676e+01 1.929594e+01 1.373892e+01 2.741509e+01 2.431691e+01 9.618657e+00 1.726736e+01 1.866874e+01 2.205070e+00 1.842357e+00 1.405362e+00 2.231616e+00 1.447316e+00 2.217515e+00 2.004688e+00 1.069334e+00 4.334188e+00 3.349740e+00 9.644561e-01 1.783322e+00 1.312421e+00 3.182777e-01 1.992884e-01 2.144582e-01 2.193182e-01 2.312906e-01 3.962253e-01 1.988133e-01 3.108647e-01 7.374708e-01 7.538328e-01 1.881677e-01 3.640631e-01 1.447973e-01
<GCONST> 1.014479e+02
<STATE> 3
<MEAN> 39
 -2.215176e+01 2.182222e-01 2.876858e+00 -5.807019e+00 7.230429e+00 -1.061184e+00 6.345826e+00 -2.599046e+00 1.707610e+00 -8.194496e+00 2.015540e+00 -2.176865e+00 7.433088e+01 -7.412903e-01 -1.059492e+00 -4.888947e-01 -1.787166e-03 -2.483232e-01 -1.052793e-01 2.798281e-01 -7.522180e-02 3.814844e-01 2.122157e-01 2.956779e-01 1.873233e-01 1.559530e-01 6.175410e-01 -3.678441e-02 -1.077264e-01 2.870372e-01 -5.484164e-02 1.969337e-01 -1.437643e-01 -2.994590e-02 -5.272483e-02 -2.941441e-02 -9.716165e-02 -9.668561e-02 -1.383613e-01
<VARIANCE> 39
 1.819641e+01 2.147135e+01 3.198929e+01 1.665975e+01 2.077770e+01 2.238215e+01 1.004175e+01 1.603613e+01 2.086387e+01 1.228425e+01 8.677753e+00 1.159619e+01 4.133572e+00 1.627337e+00 8.342496e-01 1.077815e+00 1.053769e+00 7.720507e-01 1.174919e+00 7.688206e-01 1.791726e+00 1.925967e+00 1.372149e+00 8.970261e-01 1.207113e+00 8.412771e-01 1.727099e-01 1.959057e-01 2.311369e-01 2.183791e-01 2.113724e-01 2.286682e-01 1.557424e-01 3.692529e-01 4.279789e-01 3.573937e-01 1.660795e-01 2.775908e-01 9.366286e-02
<GCONST> 8.867801e+01
<STATE> 4
<MEAN> 39
 -1.913087e+01 -4.388819e+00 -7.097282e-01 -3.269387e+00 5.507341e+00 3.446231e-01 5.795167e+00 -2.445652e+00 2.955415e+00 -8.351508e+00 2.072383e+00 -1.869429e+00 7.323930e+01 2.192863e+00 3.302974e-01 4.685041e-01 8.432099e-01 3.306960e-01 5.274279e-01 -6.215004e-01 -4.432366e-01 -8.705130e-01 -3.527087e-01 -9.588787e-02 -7.526864e-01 -4.024544e-01 4.257281e-01 7.909741e-01 6.843953e-01 2.144442e-01 4.981196e-01 1.512197e-01 -2.566028e-01 -1.035060e-01 -3.215051e-01 4.819272e-02 -3.394332e-02 -3.901047e-01 1.660959e-02
<VARIANCE> 39
 2.371161e+01 1.583430e+01 3.500970e+01 2.276467e+01 2.558986e+01 2.197809e+01 2.060519e+01 1.760550e+01 1.796170e+01 1.403690e+01 8.296210e+00 1.269413e+01 7.628210e+00 1.542117e+00 2.877228e+00 3.402191e+00 1.116460e+00 1.867158e+00 1.969642e+00 1.195298e+00 1.786086e+00 3.131767e+00 1.762599e+00 7.584319e-01 1.026857e+00 1.002514e+00 2.771271e-01 2.791274e-01 5.105644e-01 1.920443e-01 2.127595e-01 3.123392e-01 1.557438e-01 2.308974e-01 2.888831e-01 2.622273e-01 1.453085e-01 2.790707e-01 1.975802e-01
<GCONST> 9.675175e+01
<TRANSP> 5
 0.000000e+00 1.000000e+00 0.000000e+00 0.000000e+00 0.000000e+00
 0.000000e+00 7.269937e-01 2.730063e-01 0.000000e+00 0.000000e+00
 0.000000e+00 0.000000e+00 7.260852e-01 2.739148e-01 0.000000e+00
 0.000000e+00 0.000000e+00 0.000000e+00 5.999922e-01 4.000078e-01
 0.000000e+00 0.000000e+00 0.000000e+00 0.000000e+00 0.000000e+00
<ENDHMM>
~h "h"
<BEGINHMM>
<NUMSTATES> 5
<STATE> 2
<MEAN> 39
 -1.308067e+01 -5.544663e-01 5.320858e+00 -2.995826e+00 7.304533e+00 5.151817e-01 5.010635e+00 -5.177993e-01 7.434937e-01 -4.868478e+00 3.978476e+00 -4.947756e+00 7.544720e+01 -6.827102e-01 -4.678830e-01 -3.582168e-01 -7.736331e-01 -1.418427e-01 2.020714e-01 8.512498e-01 -2.209247e-01 -7.041947e-01 3.140074e-01 7.017038e-01 1.207700e+00 5.138786e-01 2.326991e-01 1.079307e-01 -3.403306e-01 2.343413e-01 -1.787265e-01 -3.803729e-02 7.906343e-02 -1.464181e-01 1.049883e-01 -1.015284e-01 -4.172046e-02 6.668708e-02 -1.640776e-01
<VARIANCE> 39
 2.108809e+01 1.193313e+01 1.685535e+01 3.877864e+01 4.450422e+01 2.520820e+01 3.300447e+01 3.949333e+01 3.193949e+01 2.421907e+01 1.602805e+01 2.903302e+01 8.380068e+00 1.122904e+00 1.352372e+00 1.497538e+00 1.222887e+00 1.119651e+00 1.682217e+00 2.191552e+00 1.650404e+00 2.185445e+00 1.664251e+00 1.141145e+00 3.314390e+00 7.080427e-01 2.076411e-01 3.198092e-01 2.850626e-01 2.789692e-01 1.547927e-01 3.975867e-01 3.450987e-01 4.615754e-01 5.194550e-01 2.734364e-01 2.582396e-01 6.501297e-01 1.236638e-01
<GCONST> 1.023257e+02
<STATE> 3
<MEAN> 39
 -1.161722e+01 -1.555286e+00 1.985833e+00 -3.192444e+00 6.752528e+00 2.903880e+00 5.915842e+00 -2.759659e+00 -9.828103e-01 -3.446297e+00 6.357431e+00 -1.093727e+00 7.634032e+01 5.860167e-02 -1.256970e-01 -3.301571e-01 -1.295188e-01 -2.368415e-01 8.141508e-02 2.918973e-01 -7.458670e-02 -3.407415e-01 -2.100792e-02 3.053930e-01 6.035784e-01 1.246693e-01 1.320027e-01 1.892964e-01 9.824989e-02 1.059011e-01 1.457382e-02 -8.742617e-02 -9.808341e-02 1.281534e-01 1.188557e-01 -1.410311e-01 -1.915234e-01 -2.992422e-01 -1.012015e-01
<VARIANCE> 39
 1.165768e+01 9.128222e+00 9.833026e+00 1.346448e+01 2.075758e+01 2.531964e+01 4.420076e+01 2.732837e+01 2.618181e+01 2.123997e+01 1.736013e+01 2.096796e+01 1.421549e+01 6.170408e-01 6.039605e-01 1.087734e+00 1.589078e+00 1.742358e+00 1.211807e+00 2.100081e+00 1.584212e+00 1.064033e+00 1.302823e+00 9.781361e-01 1.649496e+00 4.652039e-01 6.210946e-02 1.491388e-01 1.547418e-01 1.482835e-01 1.877266e-01 1.991981e-01 5.243925e-01 1.833447e-01 2.838499e-01 3.199884e-01 1.883557e-01 2.968123e-01 6.009999e-02
<GCONST> 8.883416e+01
<STATE> 4
<MEAN> 39
 -8.831754e+00 -1.277965e-01 1.486941e+00 -2.699621e+00 4.387002e+00 8.193781e-01 7.058393e+00 -1.782688e+00 4.151630e-01 -6.580520e+00 6.730329e+00 -9.197550e-01 7.717239e+01 1.916368e-01 1.383321e-01 -7.610761e-02 1.307318e-01 5.964442e-02 -2.766593e-02 -2.584723e-01 -6.903616e-02 -1.042705e-01 -5.076416e-01 -1.801401e-01 -1.037325e-01 -1.589417e-01 1.521672e-02 2.494766e-02 8.245582e-03 -8.374051e-03 -1.041225e-02 -4.331513e-02 -1.228015e-01 -3.483332e-02 -1.760378e-02 -1.855322e-02 -1.400506e-01 -5.032327e-02 -1.519208e-02
<VARIANCE> 39
 8.075914e+00 9.402044e+00 8.941195e+00 2.565328e+01 3.436552e+01 1.819217e+01 7.299325e+01 3.842514e+01 3.305146e+01 1.941566e+01 1.420159e+01 1.832388e+01 1.526822e+01 4.546877e-01 8.658798e-01 6.218092e-01 9.609523e-01 1.044661e+00 1.004127e+00 1.878078e+00 1.062489e+00 1.629294e+00 1.546928e+00 1.389334e+00 1.101068e+00 3.350740e-01 7.067841e-02 1.421202e-01 1.174172e-01 9.829332e-02 1.353356e-01 1.337306e-01 1.974006e-01 1.563676e-01 2.464497e-01 2.466310e-01 2.441345e-01 1.482658e-01 6.920659e-02
<GCONST> 8.477623e+01
<TRANSP> 5
 0.000000e+00 1.000000e+00 0.000000e+00 0.000000e+00 0.000000e+00
 0.000000e+00 5.249072e-01 4.750928e-01 0.000000e+00 0.000000e+00
 0.000000e+00 0.000000e+00 6.224747e-01 3.775253e-01 0.000000e+00
 0.000000e+00 0.000000e+00 0.000000e+00 8.390098e-01 1.609902e-01
 0.000000e+00 0.000000e+00 0.000000e+00 0.000000e+00 0.000000e+00
<ENDHMM>
~h "i"
<BEGINHMM>
<NUMSTATES> 5
<STATE> 2
<MEAN> 39
 -1.406732e+01 -7.069872e+00 -3.031841e+00 -3.163560e+00 -1.040473e+00 2.307332e-01 6.357171e+00 2.234353e+00 2.814227e+00 -8.290332e+00 4.175440e+00 1.901735e+00 7.050856e+01 3.863280e-02 5.173722e-02 -8.317185e-02 -7.530183e-02 1.727093e-02 4.993038e-02 2.175293e-01 -4.569476e-03 7.155810e-02 1.103490e-01 6.918550e-02 1.348836e-01 -8.229600e-02 6.662645e-03 1.128507e-01 4.399875e-02 -7.766685e-03 1.423100e-02 3.668426e-02 -1.087508e-02 1.318381e-02 5.148021e-02 4.275502e-02 -4.313046e-02 -7.439519e-02 -2.759925e-02
<VARIANCE> 39
 3.897392e+01 3.205229e+01 7.576556e+00 1.642805e+01 1.375486e+01 3.662111e+01 1.128159e+01 2.960284e+01 9.098937e+00 1.603493e+01 1.407472e+01 2.884087e+01 9.511376e+00 1.215457e-01 6.637167e-01 2.786119e-01 3.867722e-01 4.675340e-01 6.347708e-01 5.883852e-01 1.127416e+00 1.127826e+00 8.162912e-01 8.547383e-01 1.081825e+00 1.553605e-01 2.181102e-02 5.288512e-02 4.915261e-02 8.734137e-02 9.259456e-02 1.479720e-01 1.022247e-01 2.377393e-01 2.218352e-01 1.355212e-01 1.816284e-01 2.102899e-01 1.241509e-02
<GCONST> 6.913123e+01
<STATE> 3
<MEAN> 39
 -1.510260e+01 2.136680e+00 -6.657660e+00 -5.312192e+00 1.080515e+00 3.454970e-01 7.231219e+00 1.245616e+00 8.205544e+00 -5.791948e-01 4.545363e+00 -2.747519e+00 6.349941e+01 -1.163810e-02 6.886256e-02 -1.745331e-02 -1.228414e-01 -2.982087e-02 1.373400e-02 -4.586633e-02 2.186819e-02 1.245002e-01 1.443112e-01 1.151419e-02 -1.219243e-01 -1.433560e-01 2.185757e-03 -5.442771e-02 3.969973e-02 4.981421e-02 -6.983344e-03 6.615940e-03 -1.029855e-02 -7.948318e-03 -6.338346e-02 -4.910922e-02 -2.829233e-02 -6.211831e-03 5.965115e-02
<VARIANCE> 39
 8.841512e+00 4.186665e+00 5.641928e+00 8.448628e+00 7.252861e+00 7.730926e+00 8.851652e+00 1.268680e+01 1.124070e+01 1.384808e+01 8.758556e+00 9.650880e+00 8.231648e+00 1.401252e-01 3.179535e-01 3.176794e-01 4.338795e-01 3.786293e-01 5.239481e-01 6.603750e-01 7.804694e-01 6.632960e-01 1.053493e+00 6.741440e-01 9.251484e-01 9.737118e-02 1.633114e-02 6.283306e-02 5.267934e-02 7.820104e-02 9.366238e-02 8.081060e-02 1.422140e-01 1.632323e-01 1.097766e-01 1.937977e-01 1.652184e-01 1.683145e-01 2.139521e-02
<GCONST> 5.666253e+01
<STATE> 4
<MEAN> 39
 -1.038758e+01 2.481480e+00 -1.788314e+00 -3.275468e+00 -1.001016e+00 -3.840697e+00 4.644423e+00 -1.988564e+00 3.772303e+00 -3.428149e+00 2.499440e+00 -4.793793e+00 6.864774e+01 -9.731995e-02 -6.411368e-02 1.601170e-01 5.776362e-02 1.070067e-01 7.988124e-02 -2.128508e-02 -1.098839e-01 -4.779752e-02 7.386272e-02 3.180450e-02 -2.721882e-02 1.092395e-01 -5.694868e-02 -7.028359e-02 3.814408e-02 1.580383e-02 1.307729e-02 -4.776515e-03 -7.336175e-05 4.003783e-03 -5.519325e-02 -2.572629e-02 2.017545e-02 8.060104e-02 8.423468e-02
<VARIANCE> 39
 2.799154e+01 2.539994e+01 1.688771e+01 8.427513e+00 2.840413e+01 3.922940e+01 2.222358e+01 1.224733e+01 2.366087e+01 2.345130e+01 1.605116e+01 1.573864e+01 2.683885e+01 4.910074e-01 1.426914e+00 1.397669e+00 9.890923e-01 1.815119e+00 1.358210e+00 1.273174e+00 1.134425e+00 1.332986e+00 1.514192e+00 1.272256e+00 9.549167e-01 7.179865e-01 7.681089e-02 2.279257e-01 2.339219e-01 1.690148e-01 3.102367e-01 2.490591e-01 2.609006e-01 1.741108e-01 3.001744e-01 2.658418e-01 2.136092e-01 1.691789e-01 1.184839e-01
<GCONST> 9.185905e+01
<TRANSP> 5
 0.000000e+00 1.000000e+00 0.000000e+00 0.000000e+00 0.000000e+00
 0.000000e+00 8.303514e-01 1.696486e-01 0.000000e+00 0.000000e+00
 0.000000e+00 0.000000e+00 8.893095e-01 1.106905e-01 0.000000e+00
 0.000000e+00 0.000000e+00 0.000000e+00 8.739117e-01 1.260883e-01
 0.000000e+00 0.000000e+00 0.000000e+00 0.000000e+00 0.000000e+00
<ENDHMM>
~h "j"
<BEGINHMM>
<NUMSTATES> 5
<STATE> 2
<MEAN> 39
 -6.858828e+00 1.721003e+00 2.569205e-01 7.745954e-01 8.291791e+00 2.044138e+00 1.689701e+00 -5.359527e+00 -8.245140e+00 -1.324645e+01 5.264366e+00 -4.125719e-01 7.488609e+01 -1.612110e-01 3.595557e-01 3.078346e-01 9.575636e-01 5.397936e-01 2.856229e-01 -7.850058e-02 -2.334459e-01 2.252892e-01 1.272342e-01 -1.590602e-01 -2.998756e-01 -4.311590e-01 -3.979493e-02 8.454182e-02 8.013833e-02 5.849582e-02 -2.646906e-02 -2.612753e-02 1.418566e-01 1.048227e-01 2.777421e-01 1.643111e-01 -2.263336e-01 -2.115749e-01 -1.374774e-01
<VARIANCE> 39
 8.394406e+00 7.670875e+00 5.842073e+00 1.616981e+01 9.449263e+00 2.030903e+01 3.653381e+01 2.813187e+01 1.522556e+01 1.861475e+01 2.029408e+01 2.036914e+01 1.255426e+01 4.971564e-01 8.172183e-01 6.919308e-01 7.110658e-01 5.736564e-01 1.109140e+00 1.510953e+00 8.182877e-01 2.151223e+00 9.079692e-01 1.710144e+00 1.319057e+00 3.815432e-01 7.753398e-02 1.135452e-01 8.080475e-02 1.674363e-01 1.112194e-01 2.752039e-01 2.796485e-01 1.285863e-01 2.610725e-01 2.116865e-01 2.107924e-01 2.171072e-01 6.471460e-02
<GCONST> 8.088850e+01
<STATE> 3
<MEAN> 39
 -7.761050e+00 3.753125e+00 3.161096e+00 4.738996e+00 1.184544e+01 6.269493e+00 1.989199e+00 -5.003522e+00 -3.162048e+00 -1.057629e+01 1.891634e+00 -4.950682e+00 7.064660e+01 -3.254979e-01 -4.523288e-01 4.824980e-01 2.097500e-01 -5.960638e-02 5.132094e-02 1.296423e-01 3.092828e-01 2.125110e-01 -3.225087e-02 -1.560262e-01 6.589703e-02 2.642604e-02 -7.980266e-02 -1.643440e-01 -2.103119e-02 -6.509095e-02 -1.208417e-01 -7.573380e-02 2.445845e-02 6.701377e-02 6.882423e-02 -6.687262e-03 4.790048e-02 9.822711e-02 7.471520e-02
<VARIANCE> 39
 6.087226e+00 1.749648e+01 1.553551e+01 8.773790e+00 1.420490e+01 1.570539e+01 1.988347e+01 1.370066e+01 2.375601e+01 4.097306e+01 1.257426e+01 1.240452e+01 1.266857e+01 3.730141e-01 1.213002e+00 8.144116e-01 6.722561e-01 1.904507e+00 8.352987e-01 1.588193e+00 8.179857e-01 2.014357e+00 2.075571e+00 1.392597e+00 1.258617e+00 5.588588e-01 5.419073e-02 1.725313e-01 1.284507e-01 1.569916e-01 3.540845e-01 1.557310e-01 2.726031e-01 1.406872e-01 4.123470e-01 4.189281e-01 2.724783e-01 2.284894e-01 7.480497e-02
<GCONST> 8.562491e+01
<STATE> 4
<MEAN> 39
 -1.260811e+01 -3.156649e+00 5.205450e+00 4.847326e+00 8.201430e+00 3.665917e+00 3.824974e+00 -2.701100e+00 1.867350e-02 -9.388275e+00 1.589385e+00 -2.223504e+00 7.294566e+01 6.392759e-02 5.203311e-02 -9.023917e-02 -9.847891e-02 -6.807287e-02 5.990613e-02 8.997846e-02 -1.419112e-01 -2.319814e-02 1.142963e-01 4.311753e-02 -7.027999e-02 1.162352e-02 4.735351e-02 7.151221e-02 -3.879978e-02 -1.376195e-02 3.588470e-02 8.102597e-03 -8.022374e-03 -4.298184e-02 -5.870770e-02 -2.152083e-02 1.542740e-02 -1.654048e-02 -1.280230e-02
<VARIANCE> 39
 2.189538e+01 4.217706e+01 1.856736e+01 2.207548e+01 1.626675e+01 1.805066e+01 1.472756e+01 2.280897e+01 3.276165e+01 1.787514e+01 1.658410e+01 1.921027e+01 7.646199e+00 1.113278e+00 2.327487e+00 7.472011e-01 1.132260e+00 1.089476e+00 1.123682e+00 1.308324e+00 1.580473e+00 2.408830e+00 1.515694e+00 1.157375e+00 1.570211e+00 4.322388e-01 1.347320e-01 2.909794e-01 1.128493e-01 1.767579e-01 1.783990e-01 1.994134e-01 2.256252e-01 2.310694e-01 3.478650e-01 3.027078e-01 2.119945e-01 2.945682e-01 6.690768e-02
<GCONST> 9.178596e+01
<TRANSP> 5
 0.000000e+00 1.000000e+00 0.000000e+00 0.000000e+00 0.000000e+00
 0.000000e+00 8.139100e-01 1.860900e-01 0.000000e+00 0.000000e+00
 0.000000e+00 0.000000e+00 8.835974e-01 1.164027e-01 0.000000e+00
 0.000000e+00 0.000000e+00 0.000000e+00 9.579986e-01 4.200137e-02
 0.000000e+00 0.000000e+00 0.000000e+00 0.000000e+00 0.000000e+00
<ENDHMM>
~h "k"
<BEGINHMM>
<NUMSTATES> 5
<STATE> 2
<MEAN> 39
 -1.766718e+01 -4.926641e+00 2.307069e+00 -1.102816e+00 4.715078e+00 1.272093e-01 3.404904e+00 -1.652304e+00 2.174594e+00 -8.634174e+00 5.728155e-01 -2.114936e+00 7.279296e+01 8.561958e-03 -2.866995e-02 -1.018275e-01 -1.540226e-01 7.049983e-03 -2.276355e-01 2.936581e-01 5.119058e-02 -4.813559e-01 -1.168223e-01 -1.094117e-02 -1.159526e-01 8.138064e-02 4.203205e-01 4.406384e-01 1.232634e-02 1.544325e-01 2.398838e-01 1.485401e-01 7.732474e-03 3.816153e-02 -1.752247e-01 -4.730352e-03 -1.788567e-03 -1.544029e-01 -9.823120e-02
<VARIANCE> 39
 2.393123e+01 4.987355e+01 1.282205e+01 2.862996e+01 3.984599e+01 3.321708e+01 2.256036e+01 1.516497e+01 1.915333e+01 2.016340e+01 1.528337e+01 2.318486e+01 8.906369e+00 2.577329e+00 3.402776e+00 2.076928e+00 1.172599e+00 2.889717e+00 1.292103e+00 1.493155e+00 1.287475e+00 2.871702e+00 2.312327e+00 1.348513e+00 1.138081e+00 8.295822e-01 1.707664e-01 3.117892e-01 3.418254e-01 1.176776e-01 3.657898e-01 3.594173e-01 1.839118e-01 1.724370e-01 5.944902e-01 3.139525e-01 2.621071e-01 2.448293e-01 1.518855e-01
<GCONST> 1.009358e+02
<STATE> 3
<MEAN> 39
 -9.795299e+00 1.052869e+00 3.285786e+00 6.174469e-02 6.567852e+00 -4.648470e-01 5.680390e+00 -2.526758e+00 -1.278425e+00 -1.006313e+01 -7.965428e-01 -4.924020e+00 7.347517e+01 1.526550e+00 1.525025e+00 3.445602e-01 2.372216e-01 3.268693e-01 8.404929e-01 2.869262e-01 -4.886454e-01 -1.225431e+00 5.064451e-02 -8.459459e-01 -2.633823e-01 2.063589e-02 -3.366371e-01 -2.414847e-01 -2.326357e-01 7.126915e-02 -4.188784e-01 -2.312457e-01 -2.106512e-01 -1.591866e-02 3.375226e-01 2.271163e-01 1.220282e-01 3.269686e-01 -3.723876e-02
<VARIANCE> 39
 1.927824e+01 2.454834e+01 6.840080e+00 3.091190e+01 1.313993e+01 4.044442e+01 8.459751e+00 4.584465e+01 2.852312e+01 2.589591e+01 1.126259e+01 2.000515e+01 8.908349e+00 2.706176e+00 3.257375e+00 9.350584e-01 8.996534e-01 2.135083e+00 1.702146e+00 2.430147e+00 2.168040e+00 5.001583e+00 3.454567e+00 8.176886e-01 3.228638e+00 1.169245e+00 3.305789e-01 6.159829e-01 2.174011e-01 1.686434e-01 3.588341e-01 2.441102e-01 1.724235e-01 5.815458e-01 9.164383e-01 4.516972e-01 2.423062e-01 4.416103e-01 2.057979e-01
<GCONST> 1.042385e+02
<STATE> 4
<MEAN> 39
 -8.629817e+00 4.245968e+00 1.359181e+00 2.157899e+00 9.793765e+00 1.951143e+00 2.931625e+00 -2.235102e+00 -4.410307e-01 -8.533916e+00 1.222884e-01 -5.345248e+00 7.085571e+01 -2.285360e-01 -1.366032e-01 -1.441701e-01 -6.872481e-02 -5.219962e-04 -2.943677e-02 -9.576098e-02 -2.794985e-02 4.396404e-02 5.274490e-02 4.484587e-02 1.508587e-01 -7.203661e-02 -9.480892e-02 -1.196337e-01 -2.574197e-03 -1.040119e-01 -8.921499e-02 -5.199792e-02 -1.399862e-02 4.142530e-02 2.772127e-02 5.674031e-02 4.315692e-02 5.645751e-03 1.891053e-02
<VARIANCE> 39
 1.682348e+01 9.223281e+00 9.497483e+00 8.078074e+00 2.039260e+01 1.639602e+01 2.626862e+01 1.745164e+01 3.512498e+01 3.750840e+01 1.590620e+01 2.433884e+01 7.136917e+00 3.418874e-01 8.678811e-01 7.463974e-01 8.975013e-01 1.584535e+00 8.372529e-01 1.763116e+00 1.332376e+00 1.624661e+00 2.430489e+00 1.312182e+00 1.356533e+00 4.828621e-01 6.074682e-02 1.359033e-01 1.230867e-01 9.535293e-02 2.481470e-01 1.307741e-01 3.794917e-01 2.886106e-01 3.237857e-01 4.319609e-01 2.405350e-01 2.295495e-01 1.041725e-01
<GCONST> 8.684572e+01
<TRANSP> 5
 0.000000e+00 1.000000e+00 0.000000e+00 0.000000e+00 0.000000e+00
 0.000000e+00 7.334077e-01 2.665923e-01 0.000000e+00 0.000000e+00
 0.000000e+00 0.000000e+00 5.955399e-01 4.044602e-01 0.000000e+00
 0.000000e+00 0.000000e+00 0.000000e+00 8.995897e-01 1.004103e-01
 0.000000e+00 0.000000e+00 0.000000e+00 0.000000e+00 0.000000e+00
<ENDHMM>
~h "l"
<BEGINHMM>
<NUMSTATES> 5
<STATE> 2
<MEAN> 39
 -6.675730e+00 2.569023e+00 2.235960e+00 2.837584e+00 7.527939e+00 1.421249e+00 2.746532e+00 -4.237118e+00 -3.182110e+00 -1.297225e+01 -1.518216e+00 -4.366377e+00 7.210862e+01 -5.047704e-02 3.822456e-01 -7.457374e-02 1.848681e-01 2.290952e-01 1.351925e-01 2.031015e-01 1.678166e-01 2.608632e-01 5.984546e-02 -4.916630e-01 -2.181340e-01 -4.334023e-01 -3.529116e-02 -5.509718e-02 -4.658090e-02 -9.403104e-02 -1.218531e-02 -5.301457e-02 -2.614781e-02 4.744724e-02 7.191886e-02 1.010806e-01 1.172724e-01 -6.618210e-04 1.964760e-02
<VARIANCE> 39
 1.347796e+01 2.086774e+01 1.779000e+01 2.633052e+01 2.708080e+01 2.738763e+01 2.780902e+01 2.586034e+01 3.466465e+01 3.747243e+01 2.451316e+01 2.844123e+01 2.302863e+01 3.303587e-01 1.152760e+00 7.985139e-01 1.065591e+00 1.254316e+00 1.208136e+00 1.716808e+00 1.422667e+00 2.064686e+00 2.158112e+00 1.765353e+00 1.382837e+00 7.334540e-01 5.168930e-02 1.619563e-01 1.329099e-01 1.547761e-01 2.031701e-01 1.863844e-01 2.668241e-01 2.825884e-01 3.394423e-01 3.844486e-01 3.314362e-01 2.616757e-01 9.575756e-02
<GCONST> 9.441176e+01
<STATE> 3
<MEAN> 39
 -7.652497e+00 4.870053e+00 7.606583e-01 2.210540e+00 7.600683e+00 1.453321e+00 4.512918e+00 -2.475344e+00 -7.318113e-01 -1.105319e+01 -2.513888e+00 -5.786816e+00 6.971663e+01 -2.342846e-01 1.068805e-01 -2.318999e-01 -2.468177e-01 4.891716e-02 -2.772353e-03 8.201428e-02 6.225894e-02 3.556058e-01 3.974090e-01 1.543945e-01 -6.421332e-02 -3.040455e-01 -3.938947e-02 -1.845158e-01 1.478496e-02 -1.283359e-01 -1.000925e-01 -4.604216e-02 -7.273237e-02 -1.199237e-02 -2.965790e-02 7.663494e-02 2.491443e-01 1.089902e-01 1.606140e-01
<VARIANCE> 39
 1.681863e+01 1.540013e+01 1.504902e+01 2.331388e+01 2.550465e+01 2.530531e+01 1.859347e+01 1.662658e+01 2.802316e+01 3.899330e+01 2.495363e+01 2.568368e+01 2.857328e+01 3.922462e-01 8.155098e-01 7.569515e-01 9.256002e-01 1.239174e+00 1.229189e+00 1.281035e+00 1.097496e+00 1.854165e+00 1.545956e+00 1.466877e+00 1.374411e+00 6.103001e-01 6.034530e-02 1.284521e-01 1.199785e-01 1.829728e-01 1.820524e-01 2.170065e-01 2.364329e-01 2.202597e-01 3.135215e-01 3.150471e-01 2.782857e-01 2.415005e-01 8.695141e-02
<GCONST> 9.031385e+01
<STATE> 4
<MEAN> 39
 -7.448985e+00 3.805736e+00 -1.548289e-01 6.403028e-01 6.116580e+00 -6.827364e-01 2.807606e+00 -3.446899e+00 -1.464744e+00 -1.031863e+01 -6.989009e-01 -5.119634e+00 7.053245e+01 -1.574552e-01 -2.122453e-01 -1.304269e-01 -3.279411e-01 -2.195688e-01 -1.352790e-01 2.516635e-02 1.139419e-01 1.241877e-01 3.318584e-01 3.755598e-01 1.464673e-01 6.505587e-02 -1.085208e-02 -6.208713e-02 4.718333e-02 8.735677e-03 -4.615422e-02 -1.664887e-02 -8.912067e-03 2.841288e-02 -4.154905e-02 -5.451749e-02 -1.577614e-02 4.687875e-02 7.229152e-02
<VARIANCE> 39
 1.662415e+01 2.180556e+01 1.806474e+01 2.134411e+01 3.552195e+01 3.393135e+01 2.782831e+01 2.141940e+01 3.590570e+01 4.421517e+01 2.218927e+01 3.287097e+01 2.807578e+01 4.980324e-01 1.238019e+00 1.087496e+00 1.272902e+00 2.180804e+00 1.831012e+00 1.923480e+00 1.475737e+00 2.613023e+00 2.374100e+00 1.928930e+00 1.659491e+00 7.712007e-01 9.551064e-02 1.962717e-01 1.876370e-01 1.674352e-01 3.499157e-01 3.034929e-01 3.212434e-01 2.805905e-01 4.177505e-01 3.764504e-01 3.457916e-01 2.944595e-01 1.308381e-01
<GCONST> 1.010509e+02
<TRANSP> 5
 0.000000e+00 1.000000e+00 0.000000e+00 0.000000e+00 0.000000e+00
 0.000000e+00 6.160177e-01 3.839824e-01 0.000000e+00 0.000000e+00
 0.000000e+00 0.000000e+00 4.529874e-01 5.470126e-01 0.000000e+00
 0.000000e+00 0.000000e+00 0.000000e+00 6.331201e-01 3.668800e-01
 0.000000e+00 0.000000e+00 0.000000e+00 0.000000e+00 0.000000e+00
<ENDHMM>
~h "m"
<BEGINHMM>
<NUMSTATES> 5
<STATE> 2
<MEAN> 39
 -9.554847e+00 5.942746e+00 -1.901781e-01 -1.369942e+00 4.495589e+00 1.045672e+00 5.169756e+00 -9.802278e-01 4.224400e+00 -5.064051e+00 3.729749e-01 -5.130105e+00 6.912788e+01 4.098368e-01 8.133389e-01 4.655977e-01 4.607544e-01 4.612539e-01 3.046147e-01 -5.943368e-02 -3.284905e-02 -1.327352e-01 1.287559e-01 -1.918923e-01 -1.713853e-01 -3.091469e-01 7.850029e-02 -1.566731e-01 8.507197e-02 6.528274e-02 1.256150e-01 -8.826177e-02 -1.465954e-01 -1.163648e-01 -3.121020e-01 -3.445465e-01 -4.704786e-02 1.641742e-01 2.058246e-01
<VARIANCE> 39
 2.715372e+01 1.920444e+01 1.888079e+01 1.879406e+01 1.992510e+01 2.259425e+01 1.724199e+01 1.979773e+01 2.626792e+01 3.008828e+01 1.507436e+01 1.181707e+01 1.296808e+01 1.223841e+00 5.426396e-01 5.218627e-01 1.191719e+00 1.145657e+00 2.098220e+00 1.685219e+00 1.317376e+00 1.552180e+00 1.464800e+00 1.189447e+00 1.064907e+00 9.307200e-01 1.611742e-01 1.888379e-01 2.462884e-01 2.154044e-01 1.312209e-01 1.648010e-01 2.655312e-01 3.412859e-01 2.014129e-01 1.812524e-01 2.140752e-01 1.482487e-01 5.309430e-02
<GCONST> 8.958213e+01
<STATE> 3
<MEAN> 39
 -7.727197e+00 8.206362e+00 1.717981e+00 -1.811281e-01 6.002418e+00 1.832364e+00 5.173638e+00 -9.747681e-01 3.518039e+00 -5.368916e+00 -2.417409e-03 -5.645229e+00 6.820924e+01 3.177442e-01 8.166214e-02 3.594610e-02 -8.883817e-03 3.660033e-01 -1.815568e-01 -4.750609e-01 -2.320694e-01 -5.865262e-01 -6.690527e-01 -1.344240e-01 1.508345e-01 1.715653e-01 -4.968704e-02 -2.649044e-01 -1.346567e-01 -1.284724e-01 -4.286026e-02 -8.731753e-02 -1.132989e-01 -1.039049e-01 -1.196825e-01 -2.200811e-01 1.437609e-03 7.307246e-02 1.598417e-01
<VARIANCE> 39
 9.561487e+00 9.265711e+00 1.697746e+01 1.022125e+01 2.200518e+01 2.308724e+01 1.714230e+01 2.187222e+01 1.768171e+01 2.572159e+01 1.208329e+01 9.928169e+00 7.173772e+00 1.130425e+00 5.202000e-01 6.360511e-01 1.040441e+00 7.557701e-01 1.295387e+00 2.043432e+00 1.546582e+00 1.626565e+00 1.881788e+00 1.220210e+00 7.204885e-01 6.342909e-01 8.891782e-02 7.781573e-02 9.033896e-02 1.414379e-01 1.551528e-01 2.455785e-01 3.193052e-01 2.224937e-01 2.552934e-01 2.102911e-01 2.285457e-01 1.248216e-01 5.489835e-02
<GCONST> 8.244353e+01
<STATE> 4
<MEAN> 39
 -4.798745e+00 6.418931e+00 7.415207e-01 1.844767e-01 7.854694e+00 9.842831e-01 1.261078e+00 -4.420364e+00 -8.999332e-01 -9.723673e+00 -1.930701e+00 -5.745653e+00 7.129574e+01 -1.345673e-02 -2.550239e-01 -6.717982e-02 1.543238e-01 1.701008e-01 3.175757e-01 1.332543e-01 -2.580027e-01 -3.534306e-01 -1.890901e-01 -9.334631e-02 2.882147e-02 1.040754e-01 -1.413073e-01 -4.407800e-02 2.996657e-02 -3.503785e-02 -1.329182e-01 2.962570e-02 1.367415e-01 4.902152e-02 1.286356e-01 1.426182e-01 7.056760e-02 -6.677429e-03 2.582227e-03
<VARIANCE> 39
 1.052872e+01 1.614643e+01 1.142235e+01 1.915894e+01 3.190616e+01 4.400689e+01 2.771394e+01 2.517199e+01 2.364797e+01 3.608616e+01 1.919399e+01 9.939347e+00 8.022259e+00 5.271978e-01 8.362063e-01 8.279565e-01 9.621696e-01 1.284658e+00 1.693268e+00 2.290341e+00 1.260214e+00 2.315398e+00 2.120760e+00 1.362970e+00 9.633737e-01 7.868928e-01 9.303369e-02 1.807293e-01 1.445249e-01 1.737323e-01 2.184776e-01 2.811612e-01 4.049981e-01 2.457553e-01 4.149948e-01 3.622128e-01 2.642554e-01 1.558585e-01 1.371203e-01
<GCONST> 9.255459e+01
<TRANSP> 5
 0.000000e+00 1.000000e+00 0.000000e+00 0.000000e+00 0.000000e+00
 0.000000e+00 4.327931e-01 5.672070e-01 0.000000e+00 0.000000e+00
 0.000000e+00 0.000000e+00 6.517742e-01 3.482258e-01 0.000000e+00
 0.000000e+00 0.000000e+00 0.000000e+00 7.483191e-01 2.516809e-01
 0.000000e+00 0.000000e+00 0.000000e+00 0.000000e+00 0.000000e+00
<ENDHMM>
~h "n"
<BEGINHMM>
<NUMSTATES> 5
<STATE> 2
<MEAN> 39
 -6.729441e+00 6.498265e+00 7.871755e-01 4.001641e+00 9.704052e+00 3.574526e+00 5.052354e+00 -3.398145e+00 1.021101e+00 -6.638172e+00 1.364480e-01 -5.892042e+00 6.874426e+01 -1.915934e-01 3.496227e-01 -4.690426e-02 -1.008868e-01 4.056734e-02 3.337927e-01 4.946621e-01 1.226688e-01 2.035119e-01 3.190024e-01 -7.602236e-02 -2.454607e-01 -3.822577e-01 -5.678683e-02 -9.779955e-02 -5.347088e-03 -6.781416e-02 -7.021033e-02 -7.446557e-02 -8.242068e-02 6.038307e-02 3.164287e-02 -4.733766e-02 1.091233e-02 4.479935e-02 4.658090e-02
<VARIANCE> 39
 6.681156e+00 2.333319e+01 1.439609e+01 1.493254e+01 1.235306e+01 2.258543e+01 2.154473e+01 1.883971e+01 3.078605e+01 2.259913e+01 1.157936e+01 1.866267e+01 8.704823e+00 2.352912e-01 9.398806e-01 7.463018e-01 9.326758e-01 1.001550e+00 8.836837e-01 1.055418e+00 9.894888e-01 1.095170e+00 1.027916e+00 6.966016e-01 9.316825e-01 2.779751e-01 3.293361e-02 1.460952e-01 1.193758e-01 1.110617e-01 1.640779e-01 1.360147e-01 1.680391e-01 1.871151e-01 1.653268e-01 1.791998e-01 1.019056e-01 1.534138e-01 4.390639e-02
<GCONST> 7.654970e+01
<STATE> 3
<MEAN> 39
 -8.166451e+00 4.504664e+00 -1.553190e-01 1.210650e+00 8.472303e+00 3.637456e+00 6.034513e+00 -3.964134e+00 -9.224495e-01 -8.114549e+00 2.922591e-01 -4.990376e+00 6.947057e+01 -4.249071e-01 -3.129146e-01 -3.724268e-02 -2.384182e-01 -1.143911e-02 -1.763735e-01 -1.552850e-01 5.819056e-01 2.732598e-01 -1.629565e-01 -1.705393e-01 2.298762e-02 -5.717463e-03 -1.168416e-01 -3.021864e-01 -4.784269e-02 -2.202193e-01 -1.523195e-01 -2.379728e-01 -2.026770e-01 3.502290e-02 -5.247498e-02 -1.139745e-01 8.567162e-02 2.580064e-01 2.346069e-01
<VARIANCE> 39
 1.013504e+01 1.573735e+01 9.909044e+00 1.738219e+01 1.866803e+01 1.503399e+01 1.552576e+01 2.006500e+01 3.174064e+01 2.499175e+01 1.699321e+01 1.721184e+01 1.108946e+01 6.282935e-01 1.149951e+00 1.351137e+00 1.803447e+00 1.463248e+00 1.215450e+00 1.581150e+00 1.089024e+00 2.107350e+00 1.901966e+00 1.456915e+00 1.542429e+00 7.647972e-01 8.103917e-02 2.204047e-01 2.182979e-01 4.014791e-01 1.974031e-01 2.534634e-01 2.716482e-01 2.362029e-01 3.621020e-01 3.549568e-01 2.890044e-01 2.744971e-01 1.347824e-01
<GCONST> 9.286121e+01
<STATE> 4
<MEAN> 39
 -1.498713e+01 -1.067969e+00 -3.318245e+00 -3.108994e+00 3.053932e+00 1.131754e+00 6.218495e+00 2.103203e-01 4.360112e+00 -4.408586e+00 3.313838e+00 -2.581422e+00 6.722805e+01 -2.004965e-01 -2.533516e-01 -1.874983e-01 -2.711436e-01 -1.660402e-01 -1.556866e-01 -1.129159e-01 9.488266e-02 8.371165e-02 7.458077e-03 1.063462e-01 2.128824e-01 4.032189e-02 1.278151e-02 -9.881687e-03 4.276763e-02 1.697700e-02 7.448358e-03 -1.704257e-04 -3.067075e-02 -5.964951e-02 -4.877525e-02 -3.195128e-02 -1.703884e-02 1.869818e-03 6.153771e-02
<VARIANCE> 39
 1.499052e+01 3.777790e+01 1.095722e+01 1.004286e+01 1.383825e+01 1.197400e+01 1.035097e+01 1.186602e+01 2.565860e+01 2.599852e+01 1.550981e+01 1.376798e+01 1.148894e+01 3.264408e-01 9.584996e-01 6.996139e-01 7.020591e-01 7.578517e-01 7.425447e-01 8.806744e-01 9.465355e-01 1.468750e+00 1.421530e+00 1.033831e+00 1.070577e+00 3.846719e-01 4.617909e-02 1.172986e-01 1.202281e-01 1.024066e-01 1.451257e-01 1.333035e-01 1.559106e-01 1.845062e-01 2.553978e-01 2.450466e-01 1.936952e-01 2.022979e-01 6.127883e-02
<GCONST> 7.828641e+01
<TRANSP> 5
 0.000000e+00 1.000000e+00 0.000000e+00 0.000000e+00 0.000000e+00
 0.000000e+00 8.221025e-01 1.778975e-01 0.000000e+00 0.000000e+00
 0.000000e+00 0.000000e+00 6.048917e-01 3.951084e-01 0.000000e+00
 0.000000e+00 0.000000e+00 0.000000e+00 8.457955e-01 1.542045e-01
 0.000000e+00 0.000000e+00 0.000000e+00 0.000000e+00 0.000000e+00
<ENDHMM>
~h "q"
<BEGINHMM>
<NUMSTATES> 5
<STATE> 2
<MEAN> 39
 -1.605680e+01 -1.119922e-01 5.409888e+00 -7.003067e+00 -2.645433e-01 -2.103833e+00 7.147818e+00 1.232063e+00 2.714839e+00 -6.034606e+00 1.839679e+00 -3.241124e+00 7.350734e+01 -1.258889e+00 -9.897656e-01 5.171993e-01 -7.846824e-01 -4.702991e-01 4.558425e-01 6.638106e-01 7.504409e-02 -1.610611e-01 -1.844463e-01 2.724902e-01 4.281996e-01 5.417297e-01 1.505139e-01 1.495943e-02 -1.690840e-01 1.246577e-01 1.027262e-01 4.172562e-02 -7.852543e-03 -5.388479e-02 4.133293e-02 2.907632e-02 -4.467624e-02 1.660681e-03 -1.040694e-01
<VARIANCE> 39
 4.873463e+01 2.102753e+01 2.629088e+01 3.991424e+01 2.267564e+01 2.821446e+01 3.664104e+01 3.724126e+01 3.412321e+01 2.277370e+01 2.428005e+01 2.633741e+01 1.109886e+01 2.649982e+00 2.104775e+00 2.616031e+00 1.678173e+00 2.652234e+00 3.264999e+00 3.623944e+00 5.370639e+00 2.792647e+00 3.284005e+00 2.171559e+00 2.274828e+00 1.283459e+00 5.642285e-01 3.783130e-01 5.400690e-01 4.121718e-01 5.481364e-01 6.027429e-01 6.395574e-01 1.042753e+00 5.051590e-01 6.525368e-01 4.793741e-01 4.404477e-01 2.400433e-01
<GCONST> 1.185052e+02
<STATE> 3
<MEAN> 39
 -1.847401e+01 -2.904230e+00 2.842376e+00 -8.096448e+00 7.126147e-02 7.747511e-02 8.054933e+00 4.025279e-01 2.147136e+00 -6.993567e+00 9.468657e-01 -1.875378e+00 7.324686e+01 7.977809e-01 -1.393917e-01 -7.193333e-01 1.041798e+00 4.612527e-01 1.957535e-01 -2.902374e-01 -1.927654e-01 -2.434061e-01 -2.292511e-02 3.183145e-02 -4.524272e-02 -4.413159e-01 3.582031e-01 2.368780e-01 1.561337e-01 3.079712e-01 2.587032e-01 -1.017060e-02 -1.836374e-01 -8.415871e-02 -1.130573e-01 -6.995197e-02 -6.669222e-02 -2.522145e-01 -8.015698e-03
<VARIANCE> 39
 3.038974e+01 3.373953e+01 2.644981e+01 2.295518e+01 1.931682e+01 3.146638e+01 2.770505e+01 4.533773e+01 2.092163e+01 2.592702e+01 1.720037e+01 1.772862e+01 1.028990e+01 3.334623e+00 2.200284e+00 1.384542e+00 2.574960e+00 2.067950e+00 2.416158e+00 3.323651e+00 2.804930e+00 2.537667e+00 2.469942e+00 1.344456e+00 2.172379e+00 8.791752e-01 6.609841e-01 5.185303e-01 3.384323e-01 4.255789e-01 4.595680e-01 4.486895e-01 8.565480e-01 6.079428e-01 4.936578e-01 3.992277e-01 3.138850e-01 5.655720e-01 1.911533e-01
<GCONST> 1.125482e+02
<STATE> 4
<MEAN> 39
 -1.025709e+01 -2.563911e+00 3.971093e+00 2.771381e+00 8.804088e+00 1.775250e+00 2.710771e+00 -1.652290e+00 -8.905499e-02 -8.508532e+00 -1.298446e+00 -6.646727e+00 7.301261e+01 2.275286e+00 1.138439e+00 4.460303e-01 1.829399e+00 2.166255e+00 -4.388509e-02 -1.792084e+00 -1.008962e+00 -1.056195e+00 -8.073319e-01 -7.725235e-01 -1.647144e+00 3.077209e-01 -3.336002e-01 -5.850830e-02 -1.213106e-01 -3.580133e-01 -2.063041e-01 -2.216234e-01 -2.269818e-01 -2.436599e-01 -6.559473e-02 -7.402889e-02 3.047034e-02 1.928711e-01 2.170014e-01
<VARIANCE> 39
 1.915296e+01 2.839599e+01 1.965241e+01 4.041368e+01 3.461812e+01 1.924648e+01 6.019134e+01 3.189055e+01 4.414388e+01 1.620060e+01 2.173122e+01 2.693591e+01 1.257724e+01 3.644204e+00 2.318115e+00 2.767514e+00 2.522659e+00 3.934645e+00 2.681746e+00 2.774547e+00 1.339504e+00 4.142529e+00 2.035664e+00 2.699566e+00 4.575956e+00 5.543070e-01 4.296962e-01 5.067061e-01 3.261911e-01 3.036247e-01 5.419676e-01 3.800321e-01 8.414633e-01 2.477053e-01 4.829907e-01 3.926631e-01 3.931434e-01 9.168387e-01 9.283383e-02
<GCONST> 1.139488e+02
<TRANSP> 5
 0.000000e+00 1.000000e+00 0.000000e+00 0.000000e+00 0.000000e+00
 0.000000e+00 8.708785e-01 1.291215e-01 0.000000e+00 0.000000e+00
 0.000000e+00 0.000000e+00 8.581041e-01 1.418959e-01 0.000000e+00
 0.000000e+00 0.000000e+00 0.000000e+00 7.008429e-01 2.991572e-01
 0.000000e+00 0.000000e+00 0.000000e+00 0.000000e+00 0.000000e+00
<ENDHMM>
~h "r"
<BEGINHMM>
<NUMSTATES> 5
<STATE> 2
<MEAN> 39
 -5.474183e+00 1.484991e+00 6.949843e-01 -2.735380e+00 5.848940e+00 1.233477e+00 -8.934050e-01 -3.581266e+00 -5.457777e+00 -1.428974e+01 1.180221e+00 -1.863914e+00 7.453437e+01 7.073286e-02 2.532049e-01 -2.694752e-01 -3.214146e-01 4.317977e-01 4.173249e-01 -3.031819e-01 -1.112250e-01 -2.327509e-01 -6.539591e-01 -1.771085e-01 2.942303e-01 -1.848559e-01 -1.813402e-01 1.264548e-01 -3.463480e-02 8.809810e-02 -6.230785e-02 -8.716112e-02 2.894757e-01 1.712912e-01 2.374727e-01 1.668505e-01 -1.123510e-01 -1.296016e-01 -2.056481e-01
<VARIANCE> 39
 5.922246e+00 1.521416e+01 1.070570e+01 4.068849e+01 2.766019e+01 2.262739e+01 1.419776e+01 1.451360e+01 3.371714e+01 3.813376e+01 2.086526e+01 2.323804e+01 4.349327e+00 5.069671e-01 1.576006e+00 8.667359e-01 9.604285e-01 1.490496e+00 1.738834e+00 1.638751e+00 2.139885e+00 1.942800e+00 2.331945e+00 2.277247e+00 1.461273e+00 8.509826e-01 1.072975e-01 2.418916e-01 1.354601e-01 2.457046e-01 3.208135e-01 3.382273e-01 2.327937e-01 4.482515e-01 4.758228e-01 4.950443e-01 3.911849e-01 2.053851e-01 1.362618e-01
<GCONST> 9.569067e+01
<STATE> 3
<MEAN> 39
 -6.514131e+00 5.046496e+00 -4.826443e-01 -3.064134e+00 7.268452e+00 9.038281e-01 8.537362e-01 -2.422732e+00 -2.740626e+00 -1.385355e+01 -1.821461e+00 -4.187640e+00 7.142562e+01 -4.412600e-01 1.921715e-01 5.619090e-02 6.909308e-01 2.076890e-01 2.621305e-02 5.467789e-01 1.786823e-01 3.419707e-01 1.019391e-01 -2.267640e-01 2.197357e-02 -6.091147e-01 -1.114698e-01 -1.900273e-01 1.806040e-01 1.762434e-02 -1.742453e-01 7.294708e-03 -8.154795e-03 -4.096979e-02 5.928892e-02 2.934465e-01 2.518126e-01 6.185682e-02 1.372774e-01
<VARIANCE> 39
 8.154309e+00 1.055830e+01 1.145410e+01 2.831092e+01 2.239026e+01 1.549573e+01 1.253343e+01 1.795262e+01 2.409836e+01 3.619281e+01 1.711338e+01 1.994162e+01 8.370522e+00 2.685455e-01 1.238373e+00 1.009298e+00 1.742360e+00 2.120952e+00 1.597526e+00 1.526913e+00 1.941807e+00 1.682767e+00 2.752395e+00 1.785101e+00 1.588165e+00 9.903120e-01 5.953498e-02 3.072168e-01 1.992037e-01 3.416244e-01 3.583482e-01 4.179737e-01 2.090582e-01 4.626047e-01 3.282051e-01 4.406368e-01 3.284154e-01 2.723276e-01 2.416119e-01
<GCONST> 9.555217e+01
<STATE> 4
<MEAN> 39
 -6.596628e+00 2.217034e+00 8.614985e-02 2.964163e+00 9.625855e+00 1.837476e+00 2.624303e+00 -1.143987e+00 -6.486016e+00 -1.769435e+01 -4.513626e-01 -3.303798e-01 7.100074e+01 -2.920423e-01 -2.416564e-01 2.882527e-01 2.873695e-02 -5.864394e-02 1.445646e-01 2.577200e-02 -7.746448e-02 6.127661e-02 3.719685e-01 2.815149e-01 -1.059668e-01 9.401853e-02 -5.767293e-02 -6.830143e-02 7.150640e-02 -8.463182e-03 -9.212793e-02 5.183676e-03 -4.309242e-02 -7.103921e-02 8.582994e-02 1.153155e-01 2.794757e-02 -3.286295e-02 6.776572e-02
<VARIANCE> 39
 5.680520e+00 1.709376e+01 1.516368e+01 1.768257e+01 1.916245e+01 1.943261e+01 2.712261e+01 2.762819e+01 4.062361e+01 5.475525e+01 1.803524e+01 2.908968e+01 9.495146e+00 5.020077e-01 1.716857e+00 1.260722e+00 1.395042e+00 1.695924e+00 2.021539e+00 1.984771e+00 2.499324e+00 3.034713e+00 3.594682e+00 1.924420e+00 2.480377e+00 8.832308e-01 7.310600e-02 2.756143e-01 2.594242e-01 2.291410e-01 3.314647e-01 3.068614e-01 3.986093e-01 5.176545e-01 4.749201e-01 6.694263e-01 3.597751e-01 4.259597e-01 1.625258e-01
<GCONST> 1.022526e+02
<TRANSP> 5
 0.000000e+00 1.000000e+00 0.000000e+00 0.000000e+00 0.000000e+00
 0.000000e+00 7.676092e-01 2.323908e-01 0.000000e+00 0.000000e+00
 0.000000e+00 0.000000e+00 6.864207e-01 3.135793e-01 0.000000e+00
 0.000000e+00 0.000000e+00 0.000000e+00 8.172351e-01 1.827649e-01
 0.000000e+00 0.000000e+00 0.000000e+00 0.000000e+00 0.000000e+00
<ENDHMM>
~h "s"
<BEGINHMM>
<NUMSTATES> 5
<STATE> 2
<MEAN> 39
 -1.868273e+01 -3.986349e+00 7.745523e+00 -3.234214e+00 3.121953e+00 1.184707e+00 8.357871e+00 -2.080665e+00 -6.594592e-01 -7.826359e+00 1.207643e+00 -1.121098e+00 7.361404e+01 -1.813012e+00 -7.000725e-01 7.814283e-01 -1.148668e+00 -8.906789e-01 -3.240690e-01 1.673120e-01 -1.465897e-01 4.851760e-01 4.064951e-01 -1.602340e-01 3.033697e-01 4.630549e-01 1.100511e-01 1.339036e-01 -1.014535e-01 -7.724521e-02 1.490025e-01 5.422349e-02 -2.092028e-01 3.835550e-02 4.012571e-02 -8.768629e-02 -6.635691e-02 -9.553889e-02 -5.877678e-02
<VARIANCE> 39
 4.816756e+01 2.690246e+01 5.114713e+01 2.593154e+01 1.886910e+01 3.567744e+01 1.978826e+01 4.353499e+01 2.566722e+01 1.849373e+01 1.915745e+01 1.128228e+01 6.565685e+01 2.066091e+00 7.094860e-01 2.021521e+00 1.459937e+00 1.676534e+00 1.494998e+00 1.354715e+00 1.672882e+00 1.550888e+00 1.557003e+00 8.886546e-01 1.048779e+00 4.965537e-01 2.357872e-01 1.212030e-01 1.995121e-01 1.971080e-01 1.913943e-01 3.110440e-01 2.349599e-01 2.682570e-01 2.305640e-01 2.763285e-01 1.938308e-01 1.955642e-01 6.678163e-02
<GCONST> 9.723205e+01
<STATE> 3
<MEAN> 39
 -2.254112e+01 -5.235993e+00 6.991185e+00 -8.403758e+00 1.462434e+00 1.486096e+00 7.881842e+00 -2.020426e+00 1.160038e+00 -5.534606e+00 1.776230e+00 -1.882547e-01 7.346824e+01 -3.936493e-01 -9.573147e-03 -2.608365e-01 -3.346469e-01 6.216839e-02 -2.908879e-02 -2.417454e-02 2.933113e-01 4.531789e-01 2.901583e-01 6.616085e-02 8.668808e-03 -1.690144e-01 2.783798e-01 5.392120e-02 -1.917604e-01 2.446565e-01 8.714587e-02 -1.198341e-01 2.898951e-02 1.203495e-01 8.062650e-03 -3.771879e-02 4.270180e-02 -5.333408e-02 -8.360482e-02
<VARIANCE> 39
 4.008681e+01 2.584661e+01 5.905729e+01 2.397472e+01 9.816760e+00 2.373076e+01 1.989749e+01 2.615369e+01 2.422678e+01 2.191061e+01 1.391725e+01 9.559153e+00 5.728886e+01 6.121759e-01 6.062307e-01 1.031450e+00 8.503673e-01 5.570733e-01 8.749762e-01 6.711035e-01 9.922127e-01 1.067430e+00 9.300739e-01 6.436741e-01 5.690896e-01 2.155380e-01 1.306348e-01 1.126132e-01 1.998293e-01 1.526531e-01 1.318891e-01 2.109181e-01 1.123437e-01 2.235613e-01 2.114463e-01 1.600241e-01 1.289947e-01 1.339554e-01 5.161690e-02
<GCONST> 8.261707e+01
<STATE> 4
<MEAN> 39
 -2.056479e+01 -4.132507e-01 8.706276e-01 -7.606246e+00 1.690619e+00 1.699962e+00 7.493506e+00 -7.933776e-01 6.360209e+00 -2.319525e+00 3.213670e+00 -1.120302e+00 6.901481e+01 5.392991e-01 5.052759e-02 -5.063757e-01 4.460293e-01 1.807284e-01 -2.684432e-01 -2.016238e-02 1.000039e-01 -1.014951e-01 -2.645682e-02 3.861066e-02 -1.206496e-01 -2.595795e-01 1.536202e-01 -1.270862e-03 5.417124e-02 1.256987e-01 2.688181e-02 -1.021818e-02 -3.829955e-02 -6.175603e-02 -1.603589e-01 -1.541578e-01 -6.004377e-02 -5.308769e-02 6.643888e-02
<VARIANCE> 39
 3.370986e+01 1.611217e+01 5.003370e+01 2.184440e+01 1.039638e+01 1.335365e+01 1.371655e+01 1.837815e+01 2.565005e+01 1.351443e+01 1.398702e+01 1.130704e+01 4.956623e+01 1.827693e+00 1.043380e+00 2.123663e+00 1.145076e+00 8.935922e-01 1.109040e+00 1.061521e+00 9.221665e-01 1.497650e+00 1.310594e+00 1.153796e+00 9.877576e-01 9.321949e-01 3.217794e-01 2.172130e-01 3.703072e-01 2.208215e-01 1.987885e-01 2.150723e-01 1.993342e-01 2.058382e-01 3.058751e-01 2.239246e-01 2.176685e-01 2.154115e-01 1.817483e-01
<GCONST> 9.353164e+01
<TRANSP> 5
 0.000000e+00 1.000000e+00 0.000000e+00 0.000000e+00 0.000000e+00
 0.000000e+00 7.234727e-01 2.765273e-01 0.000000e+00 0.000000e+00
 0.000000e+00 0.000000e+00 7.553920e-01 2.446079e-01 0.000000e+00
 0.000000e+00 0.000000e+00 0.000000e+00 8.269665e-01 1.730336e-01
 0.000000e+00 0.000000e+00 0.000000e+00 0.000000e+00 0.000000e+00
<ENDHMM>
~h "t"
<BEGINHMM>
<NUMSTATES> 5
<STATE> 2
<MEAN> 39
 -6.213140e+00 -3.651780e+00 -1.460190e+00 -3.246445e+00 1.073113e-01 -4.255594e+00 6.817889e+00 -4.533989e+00 -4.970672e+00 -1.043791e+01 3.857138e+00 -3.362150e+00 8.063775e+01 2.003468e-01 -1.373604e-01 -1.381962e-01 -1.719802e-01 -2.373090e-01 -9.237180e-02 -3.694579e-02 -2.579121e-01 -2.804267e-01 3.133951e-02 3.210325e-01 1.541404e-01 2.136835e-01 -4.959149e-02 1.279339e-01 6.158397e-02 4.982274e-02 1.004758e-01 1.634933e-01 -3.570038e-03 2.619377e-02 7.978346e-02 2.583434e-02 -1.228635e-01 -1.926662e-02 -1.466610e-01
<VARIANCE> 39
 1.804733e+01 1.313881e+01 1.487267e+01 1.941007e+01 2.704454e+01 1.816986e+01 4.277104e+01 2.322740e+01 4.606235e+01 3.173001e+01 2.365073e+01 1.973687e+01 2.361003e+01 4.186771e-01 7.806345e-01 7.872578e-01 8.998961e-01 1.147603e+00 8.926769e-01 1.280348e+00 1.230542e+00 1.128945e+00 1.374613e+00 1.223224e+00 9.201958e-01 5.719909e-01 9.832919e-02 1.415782e-01 1.140088e-01 1.366229e-01 1.617024e-01 1.498193e-01 2.186229e-01 2.479414e-01 1.876433e-01 2.517258e-01 1.648208e-01 1.847719e-01 8.897430e-02
<GCONST> 8.748402e+01
<STATE> 3
<MEAN> 39
 -6.780902e+00 -7.911200e-01 -7.680034e-01 -3.846534e+00 3.673155e+00 -1.509874e-01 3.367753e+00 -7.881386e+00 -7.820941e+00 -1.112647e+01 1.084059e+00 -3.438646e+00 7.937505e+01 1.825777e-01 2.343323e-01 2.582863e-01 1.222803e-01 9.067696e-02 4.715731e-01 3.551557e-02 -6.201906e-02 -3.350048e-01 2.729923e-02 -8.203153e-02 -1.201148e-01 -3.072465e-01 -4.430478e-02 1.492470e-01 -4.881003e-02 8.328286e-02 1.353496e-02 -1.042298e-03 5.207085e-02 1.015967e-01 3.159066e-01 5.655251e-02 -5.963323e-02 -2.463844e-02 -2.558182e-01
<VARIANCE> 39
 1.359126e+01 1.516577e+01 2.582339e+01 2.084055e+01 1.737638e+01 1.972860e+01 2.438772e+01 3.018996e+01 3.591878e+01 2.075656e+01 2.151460e+01 2.829914e+01 1.816247e+01 1.090624e+00 9.064229e-01 1.284169e+00 1.259380e+00 1.443402e+00 1.656258e+00 2.156801e+00 1.760306e+00 2.789058e+00 1.902707e+00 1.386831e+00 1.053334e+00 1.665426e+00 1.390461e-01 1.961361e-01 2.509038e-01 2.274274e-01 2.916071e-01 3.554100e-01 3.083917e-01 3.455763e-01 4.977089e-01 3.810038e-01 3.036985e-01 1.971475e-01 2.528412e-01
<GCONST> 1.000662e+02
<STATE> 4
<MEAN> 39
 -8.585469e+00 2.167399e+00 -6.148427e-01 -1.885306e+00 4.910479e+00 8.034899e-01 5.004469e+00 -4.831152e+00 -3.264975e+00 -1.019281e+01 1.890949e+00 -1.312604e+00 7.176933e+01 -2.988271e-01 2.461622e-01 -2.224354e-01 4.743690e-02 2.747454e-02 -2.491825e-02 1.134667e-01 3.996174e-01 7.970703e-01 3.011418e-01 -5.729488e-02 4.798628e-02 -5.104728e-01 -5.208096e-02 -1.199506e-01 9.098890e-03 -5.650260e-02 -1.926595e-02 -3.016904e-02 -3.025289e-02 1.032446e-02 -8.126660e-02 -3.138437e-02 -1.421523e-02 -5.754994e-02 1.785285e-01
<VARIANCE> 39
 1.645206e+01 2.268932e+01 1.438903e+01 1.810856e+01 1.341370e+01 1.298840e+01 1.516376e+01 1.855532e+01 2.235463e+01 2.717453e+01 1.896265e+01 2.217026e+01 1.832268e+01 1.052064e+00 1.324227e+00 1.243315e+00 1.311506e+00 1.193594e+00 1.264487e+00 1.337868e+00 1.679020e+00 2.043123e+00 1.829389e+00 1.173607e+00 1.291066e+00 1.501227e+00 1.595360e-01 2.582836e-01 2.373609e-01 1.937207e-01 2.390188e-01 2.786357e-01 2.715385e-01 3.761704e-01 3.361233e-01 3.484574e-01 2.231554e-01 2.703166e-01 2.110391e-01
<GCONST> 9.573545e+01
<TRANSP> 5
 0.000000e+00 1.000000e+00 0.000000e+00 0.000000e+00 0.000000e+00
 0.000000e+00 7.942682e-01 2.057318e-01 0.000000e+00 0.000000e+00
 0.000000e+00 0.000000e+00 7.560834e-01 2.439166e-01 0.000000e+00
 0.000000e+00 0.000000e+00 0.000000e+00 8.384410e-01 1.615590e-01
 0.000000e+00 0.000000e+00 0.000000e+00 0.000000e+00 0.000000e+00
<ENDHMM>
~h "u"
<BEGINHMM>
<NUMSTATES> 5
<STATE> 2
<MEAN> 39
 -6.496938e+00 7.390401e-01 4.069038e+00 8.322793e+00 1.396063e+01 3.938836e-01 -6.684078e+00 -4.707508e+00 -3.599341e-02 -1.153740e+01 -4.349039e+00 -8.263310e+00 7.200176e+01 4.040800e-01 7.650023e-01 -2.005865e-01 8.714910e-02 -2.390241e-01 -6.840099e-01 -2.717032e-01 -7.528333e-01 1.928591e-01 2.166949e-01 -2.290891e-01 -3.804301e-01 1.821468e-02 -1.597317e-01 7.279610e-02 -8.921004e-02 -3.496235e-01 -3.905639e-01 -1.820560e-01 2.220765e-01 5.292311e-03 1.322534e-01 4.027865e-01 2.243726e-01 1.113014e-01 -1.032534e-01
<VARIANCE> 39
 1.128239e+01 1.265424e+01 9.932590e+00 4.508758e+01 6.093575e+01 7.662154e+00 2.402765e+01 1.352194e+01 1.060994e+01 7.515731e+00 7.027991e+00 1.779528e+01 2.403377e+00 1.409819e+00 8.228513e-01 7.790781e-01 3.900325e+00 4.779003e+00 1.439297e+00 2.655461e+00 1.075195e+00 3.412996e+00 3.277141e+00 1.060804e+00 1.445206e+00 8.063330e-01 2.347161e-01 1.408498e-01 1.642094e-01 3.209231e-01 2.563084e-01 2.356713e-01 2.535608e-01 2.609256e-01 3.085285e-01 2.349376e-01 1.522124e-01 4.010464e-01 5.816253e-02
<GCONST> 9.148100e+01
<STATE> 3
<MEAN> 39
 -1.189986e+01 3.651739e+00 3.628781e+00 -6.436454e+00 1.631333e+00 -6.763710e+00 1.205247e+00 -8.708649e-01 4.509879e+00 -4.371844e+00 -6.660771e-01 -3.135073e+00 7.015652e+01 2.943538e-01 8.624094e-01 5.168232e-01 4.421482e-01 3.686703e-02 -7.129729e-01 -4.281178e-01 -2.904964e-01 -1.951701e-02 6.848128e-01 1.093664e-02 -1.179491e-02 -2.923117e-01 1.414639e-01 6.264109e-02 4.423238e-02 1.014345e-01 6.330940e-02 2.065448e-01 -1.678566e-01 -1.223279e-01 -2.115195e-01 -2.401017e-01 -7.180658e-02 4.749075e-02 1.466735e-02
<VARIANCE> 39
 3.823045e+01 1.641641e+01 3.089515e+01 5.189597e+01 1.193761e+01 2.841546e+01 2.930404e+01 2.139735e+01 4.564397e+01 2.817731e+01 8.687081e+00 1.141973e+01 4.866796e+00 3.684103e+00 2.562066e+00 1.597487e+00 5.177576e+00 8.860740e-01 2.612556e+00 3.109606e+00 3.129568e+00 4.626272e+00 3.491315e+00 1.043758e+00 1.348125e+00 6.507659e-01 3.947296e-01 3.346316e-01 3.092276e-01 6.256449e-01 1.464252e-01 5.485810e-01 7.187206e-01 6.115636e-01 9.418079e-01 7.036672e-01 1.608118e-01 2.984620e-01 6.684884e-02
<GCONST> 1.081079e+02
<STATE> 4
<MEAN> 39
 -5.111924e+00 1.074853e+01 4.026382e+00 1.214010e+00 3.928216e+00 -5.620401e+00 -1.703405e+00 -3.884894e+00 5.291604e+00 -5.548909e+00 -9.165657e-01 -3.985193e+00 6.862539e+01 -4.712971e-02 -3.010990e-01 -2.905600e-01 -2.023956e-01 -1.168702e-01 3.592009e-01 2.779599e-01 1.739142e-01 1.750021e-01 -1.109175e-01 -1.262970e-01 -1.599887e-01 1.439011e-02 -5.371717e-02 -2.131914e-01 -6.309842e-02 -3.454473e-02 7.897954e-02 7.213350e-02 6.272718e-02 1.408894e-01 -6.453897e-02 -1.254578e-01 1.214167e-02 -2.826865e-02 5.282132e-02
<VARIANCE> 39
 5.524699e+00 1.310942e+01 1.868110e+01 1.842207e+01 3.372151e+01 4.262752e+01 2.772107e+01 2.005986e+01 7.268981e+00 4.452800e+01 1.063050e+01 1.563520e+01 3.198852e+00 3.114453e-01 1.132714e+00 1.350763e+00 6.013744e-01 1.145132e+00 4.428095e+00 3.344275e+00 1.989685e+00 1.093211e+00 3.069944e+00 1.772930e+00 2.215843e+00 2.654722e-01 5.548215e-02 1.196404e-01 2.148066e-01 1.357415e-01 2.101118e-01 5.304874e-01 5.823933e-01 3.546271e-01 2.183171e-01 4.887162e-01 4.540703e-01 4.375845e-01 3.185821e-02
<GCONST> 9.134830e+01
<TRANSP> 5
 0.000000e+00 1.000000e+00 0.000000e+00 0.000000e+00 0.000000e+00
 0.000000e+00 7.947225e-01 2.052774e-01 0.000000e+00 0.000000e+00
 0.000000e+00 0.000000e+00 8.505865e-01 1.494135e-01 0.000000e+00
 0.000000e+00 0.000000e+00 0.000000e+00 9.297748e-01 7.022522e-02
 0.000000e+00 0.000000e+00 0.000000e+00 0.000000e+00 0.000000e+00
<ENDHMM>
~h "w"
<BEGINHMM>
<NUMSTATES> 5
<STATE> 2
<MEAN> 39
 -1.118923e+01 2.131387e+00 4.578016e+00 -5.707774e-02 5.300611e+00 -1.458665e+00 5.681383e+00 -1.221747e+00 -5.961837e-01 -9.238786e+00 -1.290066e+00 -4.604827e+00 7.258955e+01 1.867704e-01 4.374802e-01 4.194110e-01 1.161241e-01 -1.734536e-01 -6.513211e-01 -2.389664e-01 1.318500e-01 2.207539e-01 -1.812163e-01 -4.615949e-01 -2.957870e-01 3.781235e-01 -2.267294e-02 -1.231810e-02 -1.039352e-01 -1.044836e-01 -3.862127e-02 -1.460837e-01 -2.057781e-01 4.321077e-02 2.142164e-01 6.800279e-02 2.664404e-02 -1.756381e-02 2.915846e-02
<VARIANCE> 39
 4.059458e+01 4.759513e+01 6.742847e+01 2.101427e+01 3.517688e+01 2.508598e+01 5.044831e+01 2.595861e+01 3.572601e+01 3.248628e+01 1.684157e+01 1.983590e+01 2.446940e+01 4.307532e+00 3.166920e+00 2.498556e+00 1.502998e+00 2.084891e+00 2.502720e+00 2.921441e+00 1.884807e+00 3.334145e+00 2.937056e+00 1.399246e+00 2.276954e+00 1.224214e+00 3.944417e-01 3.376819e-01 3.347515e-01 2.675553e-01 2.983055e-01 3.498197e-01 4.114611e-01 2.804671e-01 4.741133e-01 5.035405e-01 2.692823e-01 3.264190e-01 1.874845e-01
<GCONST> 1.130764e+02
<STATE> 3
<MEAN> 39
 -9.884799e+00 4.304230e+00 2.870073e+00 -1.089366e+00 3.969346e+00 -4.580955e+00 4.017731e-01 -9.788582e-01 4.452097e+00 -7.808583e+00 -2.546427e+00 -5.468261e+00 7.259702e+01 1.589644e-01 3.065028e-01 1.427201e-03 -3.078004e-01 -2.893495e-01 -6.967671e-02 -3.937835e-01 4.831198e-04 4.868283e-01 3.231629e-01 -1.931866e-02 -3.176938e-01 7.651042e-02 -1.891251e-02 -1.102619e-01 -4.587666e-02 -5.594220e-03 1.221034e-01 1.978567e-01 2.038549e-01 -1.217077e-01 -2.806489e-01 -6.426938e-03 2.248169e-01 4.120745e-02 -1.020430e-01
<VARIANCE> 39
 4.574456e+01 6.845360e+01 2.157491e+01 3.449120e+01 3.806978e+01 4.759491e+01 2.409133e+01 2.538511e+01 2.920203e+01 3.306832e+01 2.747326e+01 3.218500e+01 1.403279e+01 2.577808e+00 2.678102e+00 1.976157e+00 2.713493e+00 1.863812e+00 3.148332e+00 3.137413e+00 2.784733e+00 2.843816e+00 2.740433e+00 1.520340e+00 1.648694e+00 8.815861e-01 3.578349e-01 4.927247e-01 3.252821e-01 3.839868e-01 2.840151e-01 4.827404e-01 4.899258e-01 5.175435e-01 4.339046e-01 4.242084e-01 3.408441e-01 4.247892e-01 1.086458e-01
<GCONST> 1.139309e+02
<STATE> 4
<MEAN> 39
 -6.880895e+00 7.131396e+00 1.452649e+00 -1.706520e+00 2.853525e+00 -5.330555e+00 -4.632112e-01 -2.296809e+00 5.362357e+00 -6.914199e+00 -1.361037e+00 -7.289410e+00 7.169623e+01 -2.580772e-01 -2.703894e-01 -9.420999e-02 -1.451202e-01 1.782834e-01 4.232260e-01 2.536006e-01 -5.991342e-02 -2.576555e-01 -1.206544e-01 2.265943e-01 2.178799e-01 -4.989018e-02 -5.650548e-02 -1.286111e-01 7.211606e-03 5.358050e-02 9.261889e-02 1.091490e-01 1.139026e-01 -1.831419e-02 -1.645174e-01 -8.313908e-02 1.151865e-02 8.449843e-02 2.629147e-02
<VARIANCE> 39
 2.283799e+01 3.055099e+01 1.674789e+01 2.136422e+01 2.696843e+01 3.009259e+01 1.847483e+01 2.509667e+01 2.161888e+01 2.636618e+01 1.842436e+01 2.053767e+01 8.960114e+00 1.060012e+00 1.481892e+00 1.075035e+00 1.406502e+00 1.519075e+00 1.682098e+00 1.859301e+00 2.109746e+00 1.895300e+00 2.022111e+00 1.228732e+00 1.592302e+00 5.466940e-01 1.411047e-01 2.018391e-01 1.925902e-01 2.196172e-01 2.228412e-01 2.775803e-01 2.764187e-01 3.854210e-01 3.144802e-01 3.938386e-01 2.316312e-01 3.008877e-01 6.808943e-02
<GCONST> 9.681523e+01
<TRANSP> 5
 0.000000e+00 1.000000e+00 0.000000e+00 0.000000e+00 0.000000e+00
 0.000000e+00 6.208085e-01 3.791915e-01 0.000000e+00 0.000000e+00
 0.000000e+00 0.000000e+00 5.129727e-01 4.870273e-01 0.000000e+00
 0.000000e+00 0.000000e+00 0.000000e+00 8.327221e-01 1.672780e-01
 0.000000e+00 0.000000e+00 0.000000e+00 0.000000e+00 0.000000e+00
<ENDHMM>
~h "y"
<BEGINHMM>
<NUMSTATES> 5
<STATE> 2
<MEAN> 39
