~o
<STREAMINFO> 1 39
<VECSIZE> 39<NULLD><MFCC_D_A_0><DIAGC>
~h "A"
<BEGINHMM>
<NUMSTATES> 5
<STATE> 2
<MEAN> 39
 -9.909329e+00 1.132092e+00 1.000268e+00 -7.888530e-01 5.609386e+00 1.056958e+00 3.974038e+00 -2.628609e+00 -7.889933e-01 -8.765478e+00 1.404015e+00 -3.844726e+00 7.189109e+01 2.353157e-01 -1.258810e-01 8.875960e-02 8.535922e-02 -1.362105e-01 -1.844868e-01 -8.484463e-02 -1.421670e-01 -3.449462e-01 -2.616185e-01 4.082909e-02 2.223215e-01 3.004721e-01 -6.632036e-02 -3.962097e-02 -1.041988e-02 -9.450893e-03 -3.505027e-02 -3.503793e-02 -6.435125e-03 -8.444632e-03 6.606204e-02 7.601713e-03 1.265913e-02 6.066194e-02 -1.074930e-02
<VARIANCE> 39
 3.315239e+01 2.990879e+01 2.560138e+01 2.950475e+01 3.845273e+01 3.248258e+01 2.862272e+01 2.336159e+01 5.041153e+01 4.182251e+01 2.333165e+01 2.670002e+01 3.764890e+01 1.782660e+00 2.122223e+00 1.621511e+00 1.650707e+00 1.943825e+00 2.215836e+00 1.954055e+00 1.716451e+00 3.154298e+00 2.371078e+00 1.586622e+00 1.880842e+00 1.256501e+00 2.270104e-01 3.169047e-01 2.566704e-01 2.284580e-01 2.804882e-01 3.489425e-01 3.537471e-01 3.060860e-01 5.054529e-01 3.938139e-01 2.449301e-01 3.076524e-01 1.711571e-01
<GCONST> 1.088946e+02
<STATE> 3
<MEAN> 39
 -8.742949e+00 8.901210e-01 8.106421e-01 -5.414528e-01 5.032066e+00 2.643742e-02 3.737725e+00 -2.840159e+00 -1.650816e+00 -9.471917e+00 1.694816e+00 -3.015035e+00 7.283778e+01 6.206438e-02 -8.074953e-02 -4.408016e-02 6.218304e-02 -1.694595e-01 -2.254463e-01 6.456949e-03 -7.722348e-02 -2.106867e-02 -1.212266e-01 9.206501e-02 2.423055e-01 5.342729e-02 -9.770001e-02 3.752267e-02 -9.768762e-03 -8.895994e-03 2.723624e-02 4.177509e-02 2.360448e-02 3.949821e-02 1.295810e-01 6.786601e-02 -4.334940e-02 -6.579291e-02 -9.363326e-02
<VARIANCE> 39
 3.095135e+01 2.792781e+01 2.151143e+01 2.897935e+01 3.609437e+01 3.311834e+01 2.836591e+01 2.518299e+01 5.460077e+01 3.841926e+01 2.273842e+01 2.656107e+01 4.285642e+01 1.084499e+00 1.515910e+00 1.156323e+00 1.331731e+00 1.529619e+00 1.801765e+00 1.646828e+00 1.332567e+00 2.299941e+00 1.717099e+00 1.401809e+00 1.449879e+00 9.018992e-01 1.865516e-01 2.707542e-01 2.125232e-01 2.236871e-01 2.475485e-01 3.393803e-01 2.959583e-01 2.521622e-01 4.186116e-01 3.033862e-01 2.261177e-01 3.048312e-01 1.302350e-01
<GCONST> 1.031696e+02
<STATE> 4
<MEAN> 39
 -7.275128e+00 5.183068e-01 1.066676e-01 -9.121102e-01 3.432982e+00 -1.280517e+00 4.311330e+00 -3.061836e+00 -2.961247e+00 -9.474470e+00 2.827471e+00 -2.510281e+00 7.365096e+01 -1.268687e-01 1.596859e-01 3.216689e-02 4.003220e-02 7.442502e-02 7.453001e-02 -3.036978e-02 -1.151596e-02 1.697731e-01 3.410071e-02 -9.622524e-02 -2.804343e-02 -2.001497e-01 -4.663565e-02 5.040444e-02 2.748231e-02 1.854629e-02 6.252765e-02 6.478262e-02 -1.051905e-02 9.764675e-03 5.624081e-02 2.431459e-02 -6.270872e-02 -6.226487e-02 -3.915117e-02
<VARIANCE> 39
 2.633843e+01 2.318477e+01 1.834803e+01 2.640030e+01 3.403637e+01 3.093398e+01 2.821379e+01 2.641693e+01 5.059433e+01 4.207187e+01 2.596585e+01 2.875703e+01 3.087053e+01 5.681685e-01 1.055494e+00 8.762351e-01 9.593062e-01 1.227409e+00 1.345346e+00 1.313920e+00 1.074718e+00 1.604339e+00 1.415752e+00 1.090381e+00 1.198527e+00 5.430133e-01 8.181550e-02 1.684822e-01 1.440571e-01 1.488917e-01 1.883957e-01 2.243809e-01 2.229210e-01 1.908009e-01 2.987699e-01 2.277210e-01 1.843976e-01 2.307519e-01 8.246315e-02
<GCONST> 9.340784e+01
<TRANSP> 5
 0.000000e+00 1.000000e+00 0.000000e+00 0.000000e+00 0.000000e+00
 0.000000e+00 4.275418e-01 5.724582e-01 0.000000e+00 0.000000e+00
 0.000000e+00 0.000000e+00 2.581109e-01 7.418891e-01 0.000000e+00
 0.000000e+00 0.000000e+00 0.000000e+00 6.817750e-01 3.182250e-01
 0.000000e+00 0.000000e+00 0.000000e+00 0.000000e+00 0.000000e+00
<ENDHMM>
~h "D"
<BEGINHMM>
<NUMSTATES> 5
<STATE> 2
<MEAN> 39
 -1.046263e+01 1.192893e+00 6.305027e-01 -4.821957e-01 5.510118e+00 3.635251e-01 3.368382e+00 -2.087046e+00 1.058523e+00 -7.760965e+00 1.078395e+00 -3.910955e+00 7.106615e+01 -8.002754e-04 2.112335e-03 2.165078e-03 -1.564994e-03 -4.300685e-04 -6.324079e-04 -1.138046e-03 -8.787271e-04 1.271468e-03 1.846282e-03 -1.804322e-04 -1.278623e-03 8.343531e-04 -4.475967e-05 -7.284283e-05 6.230097e-05 -2.442853e-04 -2.338257e-04 -5.949535e-05 4.124621e-05 -3.071028e-04 -1.978394e-04 -1.140548e-04 -8.069598e-05 -8.477430e-05 4.232170e-05
<VARIANCE> 39
 3.765159e+01 3.402439e+01 3.148469e+01 4.143038e+01 4.410116e+01 3.300908e+01 3.624625e+01 2.761554e+01 4.947715e+01 4.012057e+01 2.551658e+01 3.113912e+01 4.344355e+01 1.430533e+00 1.639362e+00 1.207966e+00 1.426063e+00 1.597724e+00 1.687130e+00 1.852222e+00 1.504564e+00 2.150095e+00 1.829018e+00 1.449835e+00 1.662362e+00 8.789857e-01 2.020932e-01 2.530756e-01 1.999116e-01 2.097155e-01 2.506926e-01 2.923805e-01 3.142056e-01 2.754931e-01 3.601594e-01 3.260430e-01 2.625300e-01 2.975152e-01 1.394317e-01
<GCONST> 1.059066e+02
<STATE> 3
<MEAN> 39
 -1.046263e+01 1.192893e+00 6.305027e-01 -4.821957e-01 5.510118e+00 3.635251e-01 3.368382e+00 -2.087046e+00 1.058523e+00 -7.760965e+00 1.078395e+00 -3.910955e+00 7.106615e+01 -8.002754e-04 2.112335e-03 2.165078e-03 -1.564994e-03 -4.300685e-04 -6.324079e-04 -1.138046e-03 -8.787271e-04 1.271468e-03 1.846282e-03 -1.804322e-04 -1.278623e-03 8.343531e-04 -4.475967e-05 -7.284283e-05 6.230097e-05 -2.442853e-04 -2.338257e-04 -5.949535e-05 4.124621e-05 -3.071028e-04 -1.978394e-04 -1.140548e-04 -8.069598e-05 -8.477430e-05 4.232170e-05
<VARIANCE> 39
 3.765159e+01 3.402439e+01 3.148469e+01 4.143038e+01 4.410116e+01 3.300908e+01 3.624625e+01 2.761554e+01 4.947715e+01 4.012057e+01 2.551658e+01 3.113912e+01 4.344355e+01 1.430533e+00 1.639362e+00 1.207966e+00 1.426063e+00 1.597724e+00 1.687130e+00 1.852222e+00 1.504564e+00 2.150095e+00 1.829018e+00 1.449835e+00 1.662362e+00 8.789857e-01 2.020932e-01 2.530756e-01 1.999116e-01 2.097155e-01 2.506926e-01 2.923805e-01 3.142056e-01 2.754931e-01 3.601594e-01 3.260430e-01 2.625300e-01 2.975152e-01 1.394317e-01
<GCONST> 1.059066e+02
<STATE> 4
<MEAN> 39
 -1.046263e+01 1.192893e+00 6.305027e-01 -4.821957e-01 5.510118e+00 3.635251e-01 3.368382e+00 -2.087046e+00 1.058523e+00 -7.760965e+00 1.078395e+00 -3.910955e+00 7.106615e+01 -8.002754e-04 2.112335e-03 2.165078e-03 -1.564994e-03 -4.300685e-04 -6.324079e-04 -1.138046e-03 -8.787271e-04 1.271468e-03 1.846282e-03 -1.804322e-04 -1.278623e-03 8.343531e-04 -4.475967e-05 -7.284283e-05 6.230097e-05 -2.442853e-04 -2.338257e-04 -5.949535e-05 4.124621e-05 -3.071028e-04 -1.978394e-04 -1.140548e-04 -8.069598e-05 -8.477430e-05 4.232170e-05
<VARIANCE> 39
 3.765159e+01 3.402439e+01 3.148469e+01 4.143038e+01 4.410116e+01 3.300908e+01 3.624625e+01 2.761554e+01 4.947715e+01 4.012057e+01 2.551658e+01 3.113912e+01 4.344355e+01 1.430533e+00 1.639362e+00 1.207966e+00 1.426063e+00 1.597724e+00 1.687130e+00 1.852222e+00 1.504564e+00 2.150095e+00 1.829018e+00 1.449835e+00 1.662362e+00 8.789857e-01 2.020932e-01 2.530756e-01 1.999116e-01 2.097155e-01 2.506926e-01 2.923805e-01 3.142056e-01 2.754931e-01 3.601594e-01 3.260430e-01 2.625300e-01 2.975152e-01 1.394317e-01
<GCONST> 1.059066e+02
<TRANSP> 5
 0.000000e+00 1.000000e+00 0.000000e+00 0.000000e+00 0.000000e+00
 0.000000e+00 6.000000e-01 4.000000e-01 0.000000e+00 0.000000e+00
 0.000000e+00 0.000000e+00 6.000000e-01 4.000000e-01 0.000000e+00
 0.000000e+00 0.000000e+00 0.000000e+00 7.000000e-01 3.000000e-01
 0.000000e+00 0.000000e+00 0.000000e+00 0.000000e+00 0.000000e+00
<ENDHMM>
~h "E"
<BEGINHMM>
<NUMSTATES> 5
<STATE> 2
<MEAN> 39
 -6.181528e+00 -1.089208e+00 -4.276180e+00 -3.539984e+00 -7.247026e-02 -3.831388e+00 1.006032e+01 6.485046e-01 -1.211066e+00 -7.932362e+00 6.101164e+00 -7.139612e-01 7.595084e+01 2.267715e-01 2.612411e-02 -3.627790e-01 -1.697567e-01 -4.088531e-01 -3.799881e-01 1.874597e-02 1.043354e-01 2.534242e-01 1.529899e-01 1.200649e-01 -1.331214e-01 5.785898e-03 -6.887471e-02 3.648759e-02 1.131102e-01 -7.237765e-03 1.067902e-01 1.249266e-01 -1.406254e-01 -3.145092e-02 2.468899e-03 -3.645197e-02 -5.121411e-02 -1.924266e-03 -4.534454e-02
<VARIANCE> 39
 2.298438e+01 9.494462e+00 1.291106e+01 1.082024e+01 2.614787e+01 2.079112e+01 1.847550e+01 2.469054e+01 4.933390e+01 1.826307e+01 1.779165e+01 1.738440e+01 1.548417e+01 2.906979e-01 3.943971e-01 8.342067e-01 5.256086e-01 1.146485e+00 1.022800e+00 1.158537e+00 8.014870e-01 1.167468e+00 1.315309e+00 7.070663e-01 1.075148e+00 1.828091e-01 6.146121e-02 8.232749e-02 9.382197e-02 9.664351e-02 1.588950e-01 1.770647e-01 1.586894e-01 1.502229e-01 1.747907e-01 2.085979e-01 1.270805e-01 1.957087e-01 3.392258e-02
<GCONST> 7.756529e+01
<STATE> 3
<MEAN> 39
 -9.953413e+00 1.340815e+00 -3.652982e+00 -3.878323e+00 1.562605e+00 -1.476956e+00 7.307584e+00 8.276443e-01 2.251715e+00 -5.772241e+00 4.762315e+00 -1.921857e+00 7.207234e+01 -1.117028e-01 2.037165e-01 2.402761e-01 8.670194e-02 4.461322e-01 3.063600e-01 -3.595837e-01 -1.552998e-01 -1.278103e-01 -9.591226e-02 -1.695851e-01 2.200625e-02 -1.507269e-01 -1.019264e-02 4.394189e-02 3.711705e-02 6.166884e-02 6.216495e-02 5.813038e-02 -2.636725e-02 -2.987033e-02 1.915210e-02 -2.179331e-02 -6.499342e-02 -2.884817e-02 -4.298198e-02
<VARIANCE> 39
 5.585518e+01 9.037766e+00 2.124109e+01 1.138875e+01 1.494337e+01 2.196268e+01 1.184293e+01 1.683865e+01 6.916867e+01 3.441341e+01 1.403870e+01 1.302323e+01 3.211229e+01 2.395130e-01 5.954119e-01 5.659119e-01 8.791028e-01 1.014176e+00 1.125138e+00 1.124849e+00 1.300350e+00 1.759611e+00 1.098399e+00 1.018274e+00 1.221913e+00 4.337494e-01 3.316941e-02 1.023991e-01 9.341456e-02 1.495290e-01 1.796753e-01 1.813412e-01 1.495822e-01 2.106635e-01 2.963423e-01 2.252974e-01 1.965123e-01 2.344132e-01 6.089483e-02
<GCONST> 8.342015e+01
<STATE> 4
<MEAN> 39
 -7.573499e+00 4.220009e+00 -4.322045e-01 -1.804522e+00 4.935145e+00 -7.037396e-01 4.289010e+00 -1.398920e+00 -1.103902e+00 -1.055994e+01 1.345767e+00 -3.459518e+00 7.190097e+01 -1.494549e-01 6.394997e-02 1.017980e-01 -3.186934e-02 1.139289e-01 1.088156e-01 -2.133965e-01 -2.878018e-02 8.277828e-02 -1.181404e-01 -1.672676e-01 -8.058493e-02 -1.474198e-01 5.398751e-04 -2.327033e-02 3.098961e-04 -5.878161e-03 -4.087178e-02 -2.845802e-02 4.046505e-02 -1.227577e-02 -1.342593e-02 -3.760846e-03 2.284101e-02 4.618227e-03 2.273241e-02
<VARIANCE> 39
 1.908199e+01 1.877072e+01 1.367684e+01 2.444641e+01 2.432727e+01 1.940243e+01 1.427729e+01 1.782364e+01 2.718575e+01 3.656290e+01 2.393202e+01 2.057417e+01 1.472006e+01 2.721107e-01 1.045070e+00 8.691027e-01 1.537975e+00 1.298105e+00 1.741980e+00 1.414336e+00 1.459834e+00 1.642372e+00 2.207091e+00 1.650034e+00 1.371334e+00 8.477824e-01 3.973077e-02 1.715116e-01 1.419344e-01 2.208021e-01 1.976929e-01 2.483504e-01 2.506804e-01 2.763121e-01 2.970324e-01 3.998330e-01 2.985758e-01 2.577070e-01 1.245720e-01
<GCONST> 9.245616e+01
<TRANSP> 5
 0.000000e+00 1.000000e+00 0.000000e+00 0.000000e+00 0.000000e+00
 0.000000e+00 8.650729e-01 1.349271e-01 0.000000e+00 0.000000e+00
 0.000000e+00 0.000000e+00 8.429887e-01 1.570113e-01 0.000000e+00
 0.000000e+00 0.000000e+00 0.000000e+00 8.824695e-01 1.175305e-01
 0.000000e+00 0.000000e+00 0.000000e+00 0.000000e+00 0.000000e+00
<ENDHMM>
~h "H"
<BEGINHMM>
<NUMSTATES> 5
<STATE> 2
<MEAN> 39
 -6.905480e+00 3.555526e+00 1.571653e+00 -9.767195e-01 7.271377e+00 4.442018e-01 3.645626e+00 -3.430315e+00 -1.520784e+00 -9.174846e+00 1.756149e+00 -2.018202e+00 7.265240e+01 7.768182e-02 -7.950127e-01 -4.676521e-01 -2.985499e-01 -2.326856e-01 2.254452e-01 2.653247e-01 -9.643120e-02 -4.304568e-01 -5.950358e-04 7.147820e-01 5.853058e-01 4.215787e-01 -1.563659e-01 -1.423595e-01 -6.613290e-02 7.379459e-02 9.696076e-02 1.329113e-01 4.533446e-02 7.545759e-02 1.309803e-01 9.708203e-02 1.372620e-01 5.218090e-02 -5.394990e-02
<VARIANCE> 39
 9.033053e+00 2.841355e+01 1.873295e+01 3.339779e+01 3.269772e+01 4.080510e+01 2.448252e+01 1.164864e+01 4.725397e+01 2.035360e+01 2.760311e+01 2.254956e+01 1.316980e+01 5.077431e-01 2.307345e+00 1.443086e+00 2.036900e+00 1.693886e+00 2.287861e+00 3.216641e+00 9.503518e-01 3.503654e+00 2.841773e+00 1.991768e+00 2.232054e+00 1.341272e+00 1.123984e-01 3.085829e-01 2.138582e-01 2.836745e-01 2.852566e-01 3.963614e-01 5.178573e-01 1.802095e-01 5.821258e-01 4.276222e-01 2.916506e-01 3.435355e-01 2.116878e-01
<GCONST> 1.042265e+02
<STATE> 3
<MEAN> 39
 -7.845573e+00 -1.000555e-01 -8.977730e-01 -1.848050e+00 8.370601e+00 2.399196e+00 5.176753e+00 -3.722224e+00 -2.864659e+00 -8.474905e+00 5.325333e+00 1.423132e-01 7.359875e+01 -2.568290e-01 -7.736925e-01 -7.738549e-01 -2.049814e-01 -9.561814e-02 1.382400e-02 -1.740823e-02 3.560992e-01 2.123332e-01 1.021835e-02 3.170863e-01 4.249558e-01 -6.084247e-03 -4.188848e-02 3.842685e-02 -5.215441e-02 -3.186106e-02 -7.622308e-04 -5.647485e-03 -2.119878e-01 -1.768596e-02 9.291812e-02 -6.483955e-02 -1.769403e-01 -1.020969e-01 -8.378251e-02
<VARIANCE> 39
 1.001914e+01 2.915458e+01 2.972409e+01 2.590974e+01 4.328413e+01 2.851310e+01 3.705996e+01 9.583079e+00 3.110534e+01 3.968522e+01 2.049336e+01 1.857869e+01 1.361039e+01 4.705773e-01 2.078537e+00 1.735214e+00 1.660963e+00 1.300111e+00 2.023710e+00 2.740143e+00 7.711267e-01 1.530453e+00 1.850321e+00 2.135993e+00 1.549899e+00 1.002961e+00 6.607310e-02 2.725259e-01 2.571042e-01 2.508516e-01 2.526678e-01 2.471288e-01 6.880333e-01 1.276305e-01 2.980410e-01 4.603522e-01 3.146431e-01 2.768655e-01 1.649212e-01
<GCONST> 9.946242e+01
<STATE> 4
<MEAN> 39
 -1.019060e+01 -6.761642e+00 -8.649285e+00 -6.362738e+00 2.688715e+00 -1.468046e-01 6.813050e+00 -2.141012e+00 -2.203174e-01 -6.637995e+00 8.165191e+00 1.379969e+00 7.308418e+01 -2.265019e-01 1.212363e-01 1.227955e-03 3.635420e-02 -4.821170e-02 1.538468e-01 4.170069e-02 -7.813614e-03 2.372466e-01 2.508650e-01 -3.356571e-02 -1.242628e-01 -3.053265e-01 1.532116e-02 1.880581e-01 1.824938e-01 7.069976e-02 2.666920e-02 5.622565e-03 6.061541e-02 -1.072174e-02 1.284235e-02 3.260251e-02 -1.173400e-01 -1.283486e-01 6.266909e-03
<VARIANCE> 39
 9.429596e+00 2.932143e+01 1.606069e+01 9.301788e+00 1.435841e+01 1.772243e+01 3.802150e+01 1.359804e+01 2.272780e+01 2.666446e+01 1.615121e+01 1.562080e+01 1.181510e+01 5.935605e-01 2.316293e+00 1.490028e+00 8.771139e-01 8.998222e-01 1.233168e+00 2.062615e+00 8.645876e-01 1.902760e+00 1.769172e+00 1.440176e+00 1.389541e+00 5.166785e-01 7.853555e-02 2.155395e-01 2.025825e-01 1.624254e-01 1.719799e-01 2.348082e-01 3.292174e-01 1.697508e-01 3.060669e-01 3.415556e-01 2.539143e-01 2.105333e-01 8.244637e-02
<GCONST> 8.974640e+01
<TRANSP> 5
 0.000000e+00 1.000000e+00 0.000000e+00 0.000000e+00 0.000000e+00
 0.000000e+00 8.000886e-01 1.999114e-01 0.000000e+00 0.000000e+00
 0.000000e+00 0.000000e+00 7.841629e-01 2.158371e-01 0.000000e+00
 0.000000e+00 0.000000e+00 0.000000e+00 9.218696e-01 7.813043e-02
 0.000000e+00 0.000000e+00 0.000000e+00 0.000000e+00 0.000000e+00
<ENDHMM>
~h "K"
<BEGINHMM>
<NUMSTATES> 5
<STATE> 2
<MEAN> 39
 -7.614284e+00 4.482036e-01 3.787676e+00 6.512976e+00 8.887872e+00 1.160593e+00 4.488001e-01 -8.087738e+00 -6.000242e+00 -1.101792e+01 1.378270e+00 -6.194347e+00 7.394733e+01 1.837793e-01 -2.913942e-02 1.786058e-01 5.817662e-02 1.130686e-01 4.732289e-03 -1.431328e-01 -4.258469e-01 -6.154195e-01 -3.846063e-01 1.912116e-01 5.896892e-02 2.377613e-01 2.605430e-02 1.745516e-02 -6.005295e-02 -9.931771e-02 -5.888662e-02 -2.889365e-03 1.274146e-01 1.708649e-01 1.229626e-01 6.502134e-02 2.891769e-04 5.799322e-02 -6.991573e-02
<VARIANCE> 39
 1.477390e+01 6.962672e+00 2.477247e+01 5.349874e+01 5.497514e+01 1.254367e+01 1.400871e+01 1.845254e+01 3.759485e+01 2.183291e+01 3.334761e+01 5.082485e+01 1.344950e+01 8.123882e-01 5.493770e-01 7.153147e-01 7.641755e-01 1.278824e+00 5.144672e-01 9.211927e-01 9.121311e-01 1.258540e+00 1.438108e+00 9.927592e-01 1.221883e+00 4.892406e-01 2.003660e-01 9.645384e-02 1.381770e-01 1.255440e-01 1.731371e-01 1.065665e-01 1.470196e-01 1.809186e-01 2.508467e-01 2.204292e-01 1.477768e-01 1.375903e-01 7.752283e-02
<GCONST> 8.543566e+01
<STATE> 3
<MEAN> 39
 -7.463594e+00 8.430281e-01 2.863710e+00 1.357258e+00 6.050166e+00 1.047361e+00 2.553468e+00 -6.087731e+00 -6.763929e+00 -1.331485e+01 2.809654e+00 -2.488563e+00 7.448408e+01 -5.964405e-02 -2.617518e-01 3.889844e-01 -5.190791e-01 -4.985620e-01 -1.721961e-01 1.926843e-01 6.995795e-01 2.799397e-01 6.586269e-01 3.541594e-01 3.418810e-01 2.696027e-01 -1.853895e-01 6.106455e-02 -4.245634e-02 -1.401787e-01 -3.538045e-02 2.586712e-02 1.560840e-01 1.731659e-01 2.064278e-01 3.513693e-01 5.272011e-02 -7.683581e-05 -4.937912e-02
<VARIANCE> 39
 1.313500e+01 2.058724e+01 8.312547e+00 2.029875e+01 2.251521e+01 1.486535e+01 1.044062e+01 2.530272e+01 3.283949e+01 3.137396e+01 2.878875e+01 1.372667e+01 2.161715e+01 1.713684e+00 1.466117e+00 4.031297e-01 1.049816e+00 9.900886e-01 1.262049e+00 1.836590e+00 1.172190e+00 2.337561e+00 4.029041e+00 2.325696e+00 1.241841e+00 1.472544e+00 3.933538e-01 2.264018e-01 6.077292e-02 1.630942e-01 2.439689e-01 2.379399e-01 3.622314e-01 2.002682e-01 3.604956e-01 8.188170e-01 4.173217e-01 1.926903e-01 2.395118e-01
<GCONST> 9.685447e+01
<STATE> 4
<MEAN> 39
 -1.387769e+01 -3.303704e-01 4.052864e+00 -2.969563e+00 2.835552e+00 -8.967801e-01 5.780239e+00 -2.016477e+00 -2.493301e+00 -7.971335e+00 2.460917e+00 -3.232515e+00 7.436234e+01 -1.589413e-01 1.012700e-01 -1.824392e-01 -2.043144e-01 1.217666e-01 1.220915e-01 2.146091e-01 2.254345e-01 2.517543e-01 1.793405e-01 1.167048e-02 -1.914500e-02 -2.889449e-01 6.302387e-02 3.995830e-02 -1.174323e-02 5.354801e-02 6.755558e-02 3.509954e-02 -3.847963e-02 -4.807748e-02 1.163115e-02 -1.782306e-02 -3.309639e-03 -5.016932e-02 -3.501056e-02
<VARIANCE> 39
 5.937907e+01 3.154532e+01 2.032251e+01 3.903365e+01 1.295860e+01 2.753903e+01 2.192510e+01 4.814743e+01 2.923298e+01 4.082154e+01 1.420152e+01 1.114856e+01 1.863788e+01 1.971776e+00 1.087683e+00 7.758164e-01 1.845853e+00 1.126255e+00 1.550797e+00 2.106401e+00 1.804566e+00 2.227466e+00 2.953240e+00 9.933190e-01 1.096761e+00 1.405326e+00 1.726988e-01 1.258344e-01 1.493518e-01 2.505846e-01 2.000603e-01 2.357202e-01 3.930639e-01 2.699866e-01 2.720495e-01 4.547862e-01 1.746915e-01 2.190710e-01 1.778369e-01
<GCONST> 9.963559e+01
<TRANSP> 5
 0.000000e+00 1.000000e+00 0.000000e+00 0.000000e+00 0.000000e+00
 0.000000e+00 8.470410e-01 1.529590e-01 0.000000e+00 0.000000e+00
 0.000000e+00 0.000000e+00 7.457678e-01 2.542322e-01 0.000000e+00
 0.000000e+00 0.000000e+00 0.000000e+00 9.295431e-01 7.045686e-02
 0.000000e+00 0.000000e+00 0.000000e+00 0.000000e+00 0.000000e+00
<ENDHMM>
~h "S"
<BEGINHMM>
<NUMSTATES> 5
<STATE> 2
<MEAN> 39
 -1.163017e+01 2.670834e+00 2.220253e+00 -3.178258e+00 5.837630e+00 1.286116e+00 4.063028e+00 3.156694e-01 1.189248e+00 -1.041029e+01 -1.544463e-01 6.100253e-01 7.342957e+01 -3.730481e-01 -5.269877e-01 3.881588e-01 -2.568009e-01 -1.593681e-01 -2.040447e-01 7.747105e-02 7.324298e-02 -3.809094e-03 -3.326137e-02 -1.039856e-02 1.365335e-01 3.720133e-01 2.045912e-02 1.848406e-02 4.444939e-02 3.812361e-02 1.372078e-01 4.237242e-02 -1.035287e-01 -5.956101e-02 -2.871832e-02 -1.781147e-02 -3.378677e-02 -8.624508e-02 1.261087e-02
<VARIANCE> 39
 5.914273e+01 3.120818e+01 1.988402e+01 2.224404e+01 3.272188e+01 4.461140e+01 5.286937e+01 2.393761e+01 3.063662e+01 3.887581e+01 1.387646e+01 1.704655e+01 1.617497e+01 3.185520e+00 2.510552e+00 1.255922e+00 2.621312e+00 2.304840e+00 5.269787e+00 2.410683e+00 2.404645e+00 1.953960e+00 2.030188e+00 1.300351e+00 1.734158e+00 1.806841e+00 4.043247e-01 3.867001e-01 1.842099e-01 3.731812e-01 3.471889e-01 9.045408e-01 3.696317e-01 3.834694e-01 3.373646e-01 3.597924e-01 2.619374e-01 3.297736e-01 2.792981e-01
<GCONST> 1.118807e+02
<STATE> 3
<MEAN> 39
 -2.070217e+01 -4.540859e+00 6.786369e+00 -3.675148e+00 2.905503e+00 1.485595e+00 6.465338e+00 -1.114988e+00 3.481450e+00 -6.733425e+00 -5.108621e-02 -2.748036e+00 7.487095e+01 1.043539e+00 4.856943e-01 -1.605795e-02 7.796431e-01 9.030019e-01 -1.038063e-01 -1.143120e+00 3.544114e-02 1.840934e-01 -5.469457e-02 -1.603722e-01 -9.012501e-01 -1.874975e-01 2.404406e-01 2.023393e-01 -1.632581e-02 4.238021e-02 -4.621376e-02 -1.648955e-01 -1.407413e-01 9.424830e-02 9.500309e-02 7.507087e-02 4.807985e-04 -1.302606e-01 -6.659494e-02
<VARIANCE> 39
 6.274149e+01 1.840715e+01 3.914833e+01 7.475129e+01 4.034031e+01 2.444614e+01 3.477850e+01 2.078796e+01 2.801206e+01 2.866179e+01 1.727124e+01 2.177132e+01 8.574875e+00 3.685400e+00 3.123068e+00 3.434418e+00 2.151814e+00 2.413250e+00 2.094999e+00 3.507968e+00 2.548918e+00 2.443138e+00 3.152663e+00 1.745832e+00 1.425819e+00 8.429049e-01 3.021504e-01 4.578572e-01 5.875983e-01 2.491536e-01 3.106625e-01 4.916354e-01 3.896667e-01 3.892374e-01 4.898125e-01 6.583657e-01 3.046855e-01 2.110259e-01 1.473712e-01
<GCONST> 1.125363e+02
<STATE> 4
<MEAN> 39
 -9.962867e+00 1.123722e+00 5.855937e+00 4.784579e+00 1.067088e+01 -1.828529e-01 1.258135e+00 1.209004e+00 3.497524e+00 -9.743328e+00 -2.188727e+00 -8.551054e+00 7.191155e+01 4.022206e-02 9.733198e-02 -5.018558e-02 -6.280335e-02 -1.038144e-01 -8.837471e-02 3.515934e-02 1.231119e-01 9.054356e-02 5.812095e-02 -3.227499e-02 -9.049274e-02 -6.967568e-02 -3.633784e-02 -2.840177e-02 -4.870641e-02 -4.983838e-02 -7.295942e-02 3.411137e-02 1.339745e-01 6.379327e-03 -1.135645e-02 2.781403e-04 3.454678e-02 7.848594e-02 -6.481458e-03
<VARIANCE> 39
 1.582391e+01 3.191392e+01 3.025150e+01 5.688692e+01 6.961224e+01 3.946635e+01 1.506174e+02 1.805752e+01 2.602398e+01 3.264731e+01 1.925511e+01 3.527857e+01 6.642422e+00 4.727862e-01 9.263679e-01 1.119209e+00 8.125710e-01 1.552268e+00 1.622273e+00 2.594819e+00 1.687296e+00 1.747582e+00 1.482886e+00 1.037464e+00 1.375818e+00 2.960063e-01 5.049594e-02 1.281490e-01 1.659819e-01 1.197378e-01 2.368154e-01 2.207313e-01 3.303411e-01 2.925081e-01 2.864344e-01 2.357981e-01 2.110011e-01 2.091487e-01 3.964090e-02
<GCONST> 9.461827e+01
<TRANSP> 5
 0.000000e+00 1.000000e+00 0.000000e+00 0.000000e+00 0.000000e+00
 0.000000e+00 9.316379e-01 6.836215e-02 0.000000e+00 0.000000e+00
 0.000000e+00 0.000000e+00 8.826225e-01 1.173774e-01 0.000000e+00
 0.000000e+00 0.000000e+00 0.000000e+00 9.588325e-01 4.116744e-02
 0.000000e+00 0.000000e+00 0.000000e+00 0.000000e+00 0.000000e+00
<ENDHMM>
~h "T"
<BEGINHMM>
<NUMSTATES> 5
<STATE> 2
<MEAN> 39
 -1.299426e+01 1.290412e+00 -5.044156e-01 -1.303901e+00 4.825020e+00 4.121659e+00 3.955375e+00 -3.098252e+00 2.107159e-01 -5.960656e+00 1.571850e+00 -5.160230e+00 7.031501e+01 -3.017768e-01 -4.901263e-01 1.010838e-01 1.276560e-01 -4.876726e-01 -1.199159e-01 -2.654172e-01 1.121591e-01 2.172111e-01 9.032303e-02 1.720717e-02 2.586441e-01 4.579155e-01 2.448597e-01 1.544666e-04 7.093225e-02 5.269305e-02 5.191141e-03 -2.390912e-01 -1.969549e-02 2.211111e-02 -2.163636e-02 -1.520471e-02 -1.109115e-01 -1.106646e-01 5.416895e-02
<VARIANCE> 39
 3.918815e+01 4.547837e+01 1.488335e+01 2.241523e+01 2.193629e+01 2.780233e+01 2.443621e+01 1.661842e+01 2.801145e+01 2.215789e+01 1.857641e+01 2.461441e+01 1.669148e+01 4.495627e+00 4.706996e+00 2.461248e+00 1.528200e+00 2.592761e+00 3.370108e+00 2.251522e+00 2.176341e+00 3.066465e+00 2.461800e+00 2.483167e+00 2.030015e+00 2.049712e+00 7.870782e-01 8.186598e-01 6.674667e-01 2.302444e-01 3.065845e-01 5.906263e-01 4.563086e-01 3.939691e-01 7.039292e-01 5.845683e-01 5.007045e-01 3.511317e-01 3.921452e-01
<GCONST> 1.159544e+02
<STATE> 3
<MEAN> 39
 -5.498257e+00 3.190397e+00 2.706565e+00 1.665831e+00 2.273086e+00 -3.556080e+00 3.265049e+00 -9.793499e-01 3.111138e+00 -5.934020e+00 -5.280379e+00 -1.231433e+01 7.319834e+01 2.681673e-01 1.816084e-01 4.311968e-01 4.879994e-02 -7.048954e-01 -1.590650e+00 -7.430360e-02 2.829777e-01 6.043804e-01 -2.408551e-02 -5.448999e-01 -4.348747e-02 -1.910493e-01 -2.472045e-01 -8.686902e-03 -6.459274e-02 -5.826225e-02 -3.011006e-02 1.856041e-01 -7.800912e-02 -2.001994e-01 -4.678217e-02 -1.717137e-01 1.500160e-01 2.086655e-01 -7.790115e-02
<VARIANCE> 39
 1.569704e+01 1.090406e+01 1.468902e+01 5.650469e+01 6.470586e+01 6.188644e+01 1.268362e+01 1.420101e+01 1.826633e+01 2.719327e+01 2.961139e+01 4.386987e+01 1.561189e+01 2.852949e+00 2.596847e+00 1.317050e+00 1.688305e+00 3.233761e+00 3.166369e+00 8.104188e-01 9.982518e-01 1.659044e+00 3.288090e+00 1.924686e+00 3.145063e+00 5.402508e-01 2.290357e-01 3.823883e-01 1.753192e-01 2.663275e-01 5.201203e-01 5.332538e-01 1.261311e-01 1.837625e-01 4.082013e-01 4.865479e-01 3.202029e-01 5.281680e-01 7.470501e-02
<GCONST> 1.044188e+02
<STATE> 4
<MEAN> 39
 -7.751605e+00 4.166345e+00 3.619068e+00 1.267102e+00 1.581879e+00 -5.151168e+00 2.056689e+00 -2.748823e+00 3.679270e+00 -6.084445e+00 -2.474369e+00 -6.442775e+00 7.078755e+01 -1.162258e-01 3.023333e-02 -4.757386e-02 -1.150296e-01 6.088135e-02 1.487499e-01 -3.259241e-02 -6.835978e-02 -5.395037e-02 -2.531778e-02 1.205007e-01 7.777971e-02 -8.806150e-02 -4.019247e-03 -1.869998e-02 -7.318177e-03 1.230511e-03 3.073766e-02 2.325621e-02 2.025396e-02 2.590890e-02 -8.746778e-03 3.843947e-05 -6.210492e-03 -1.601787e-02 1.489067e-02
<VARIANCE> 39
 4.113063e+01 3.011544e+01 2.061457e+01 3.420683e+01 6.429976e+01 7.095078e+01 3.702664e+01 1.723295e+01 1.224751e+01 1.739542e+01 1.825325e+01 2.826635e+01 1.263596e+01 1.505882e+00 1.691856e+00 1.088634e+00 1.510015e+00 1.897724e+00 1.861417e+00 2.009217e+00 1.784949e+00 1.132641e+00 1.145136e+00 1.509381e+00 1.318165e+00 6.777748e-01 1.493521e-01 2.707318e-01 1.640285e-01 1.796391e-01 2.408376e-01 2.981685e-01 3.339902e-01 3.736881e-01 2.118911e-01 2.308640e-01 2.830108e-01 2.270091e-01 1.002033e-01
<GCONST> 9.940547e+01
<TRANSP> 5
 0.000000e+00 1.000000e+00 0.000000e+00 0.000000e+00 0.000000e+00
 0.000000e+00 8.423479e-01 1.576522e-01 0.000000e+00 0.000000e+00
 0.000000e+00 0.000000e+00 8.385869e-01 1.614131e-01 0.000000e+00
 0.000000e+00 0.000000e+00 0.000000e+00 9.743476e-01 2.565242e-02
 0.000000e+00 0.000000e+00 0.000000e+00 0.000000e+00 0.000000e+00
<ENDHMM>
~h "Z"
<BEGINHMM>
<NUMSTATES> 5
<STATE> 2
<MEAN> 39
 -1.046263e+01 1.192893e+00 6.305027e-01 -4.821957e-01 5.510118e+00 3.635251e-01 3.368382e+00 -2.087046e+00 1.058523e+00 -7.760965e+00 1.078395e+00 -3.910955e+00 7.106615e+01 -8.002754e-04 2.112335e-03 2.165078e-03 -1.564994e-03 -4.300685e-04 -6.324079e-04 -1.138046e-03 -8.787271e-04 1.271468e-03 1.846282e-03 -1.804322e-04 -1.278623e-03 8.343531e-04 -4.475967e-05 -7.284283e-05 6.230097e-05 -2.442853e-04 -2.338257e-04 -5.949535e-05 4.124621e-05 -3.071028e-04 -1.978394e-04 -1.140548e-04 -8.069598e-05 -8.477430e-05 4.232170e-05
<VARIANCE> 39
 3.765159e+01 3.402439e+01 3.148469e+01 4.143038e+01 4.410116e+01 3.300908e+01 3.624625e+01 2.761554e+01 4.947715e+01 4.012057e+01 2.551658e+01 3.113912e+01 4.344355e+01 1.430533e+00 1.639362e+00 1.207966e+00 1.426063e+00 1.597724e+00 1.687130e+00 1.852222e+00 1.504564e+00 2.150095e+00 1.829018e+00 1.449835e+00 1.662362e+00 8.789857e-01 2.020932e-01 2.530756e-01 1.999116e-01 2.097155e-01 2.506926e-01 2.923805e-01 3.142056e-01 2.754931e-01 3.601594e-01 3.260430e-01 2.625300e-01 2.975152e-01 1.394317e-01
<GCONST> 1.059066e+02
<STATE> 3
<MEAN> 39
 -1.046263e+01 1.192893e+00 6.305027e-01 -4.821957e-01 5.510118e+00 3.635251e-01 3.368382e+00 -2.087046e+00 1.058523e+00 -7.760965e+00 1.078395e+00 -3.910955e+00 7.106615e+01 -8.002754e-04 2.112335e-03 2.165078e-03 -1.564994e-03 -4.300685e-04 -6.324079e-04 -1.138046e-03 -8.787271e-04 1.271468e-03 1.846282e-03 -1.804322e-04 -1.278623e-03 8.343531e-04 -4.475967e-05 -7.284283e-05 6.230097e-05 -2.442853e-04 -2.338257e-04 -5.949535e-05 4.124621e-05 -3.071028e-04 -1.978394e-04 -1.140548e-04 -8.069598e-05 -8.477430e-05 4.232170e-05
<VARIANCE> 39
 3.765159e+01 3.402439e+01 3.148469e+01 4.143038e+01 4.410116e+01 3.300908e+01 3.624625e+01 2.761554e+01 4.947715e+01 4.012057e+01 2.551658e+01 3.113912e+01 4.344355e+01 1.430533e+00 1.639362e+00 1.207966e+00 1.426063e+00 1.597724e+00 1.687130e+00 1.852222e+00 1.504564e+00 2.150095e+00 1.829018e+00 1.449835e+00 1.662362e+00 8.789857e-01 2.020932e-01 2.530756e-01 1.999116e-01 2.097155e-01 2.506926e-01 2.923805e-01 3.142056e-01 2.754931e-01 3.601594e-01 3.260430e-01 2.625300e-01 2.975152e-01 1.394317e-01
<GCONST> 1.059066e+02
<STATE> 4
<MEAN> 39
 -1.046263e+01 1.192893e+00 6.305027e-01 -4.821957e-01 5.510118e+00 3.635251e-01 3.368382e+00 -2.087046e+00 1.058523e+00 -7.760965e+00 1.078395e+00 -3.910955e+00 7.106615e+01 -8.002754e-04 2.112335e-03 2.165078e-03 -1.564994e-03 -4.300685e-04 -6.324079e-04 -1.138046e-03 -8.787271e-04 1.271468e-03 1.846282e-03 -1.804322e-04 -1.278623e-03 8.343531e-04 -4.475967e-05 -7.284283e-05 6.230097e-05 -2.442853e-04 -2.338257e-04 -5.949535e-05 4.124621e-05 -3.071028e-04 -1.978394e-04 -1.140548e-04 -8.069598e-05 -8.477430e-05 4.232170e-05
<VARIANCE> 39
 3.765159e+01 3.402439e+01 3.148469e+01 4.143038e+01 4.410116e+01 3.300908e+01 3.624625e+01 2.761554e+01 4.947715e+01 4.012057e+01 2.551658e+01 3.113912e+01 4.344355e+01 1.430533e+00 1.639362e+00 1.207966e+00 1.426063e+00 1.597724e+00 1.687130e+00 1.852222e+00 1.504564e+00 2.150095e+00 1.829018e+00 1.449835e+00 1.662362e+00 8.789857e-01 2.020932e-01 2.530756e-01 1.999116e-01 2.097155e-01 2.506926e-01 2.923805e-01 3.142056e-01 2.754931e-01 3.601594e-01 3.260430e-01 2.625300e-01 2.975152e-01 1.394317e-01
<GCONST> 1.059066e+02
<TRANSP> 5
 0.000000e+00 1.000000e+00 0.000000e+00 0.000000e+00 0.000000e+00
 0.000000e+00 6.000000e-01 4.000000e-01 0.000000e+00 0.000000e+00
 0.000000e+00 0.000000e+00 6.000000e-01 4.000000e-01 0.000000e+00
 0.000000e+00 0.000000e+00 0.000000e+00 7.000000e-01 3.000000e-01
 0.000000e+00 0.000000e+00 0.000000e+00 0.000000e+00 0.000000e+00
<ENDHMM>
~h "_"
<BEGINHMM>
<NUMSTATES> 5
<STATE> 2
<MEAN> 39
 -1.046263e+01 1.192893e+00 6.305027e-01 -4.821957e-01 5.510118e+00 3.635251e-01 3.368382e+00 -2.087046e+00 1.058523e+00 -7.760965e+00 1.078395e+00 -3.910955e+00 7.106615e+01 -8.002754e-04 2.112335e-03 2.165078e-03 -1.564994e-03 -4.300685e-04 -6.324079e-04 -1.138046e-03 -8.787271e-04 1.271468e-03 1.846282e-03 -1.804322e-04 -1.278623e-03 8.343531e-04 -4.475967e-05 -7.284283e-05 6.230097e-05 -2.442853e-04 -2.338257e-04 -5.949535e-05 4.124621e-05 -3.071028e-04 -1.978394e-04 -1.140548e-04 -8.069598e-05 -8.477430e-05 4.232170e-05
<VARIANCE> 39
 3.765159e+01 3.402439e+01 3.148469e+01 4.143038e+01 4.410116e+01 3.300908e+01 3.624625e+01 2.761554e+01 4.947715e+01 4.012057e+01 2.551658e+01 3.113912e+01 4.344355e+01 1.430533e+00 1.639362e+00 1.207966e+00 1.426063e+00 1.597724e+00 1.687130e+00 1.852222e+00 1.504564e+00 2.150095e+00 1.829018e+00 1.449835e+00 1.662362e+00 8.789857e-01 2.020932e-01 2.530756e-01 1.999116e-01 2.097155e-01 2.506926e-01 2.923805e-01 3.142056e-01 2.754931e-01 3.601594e-01 3.260430e-01 2.625300e-01 2.975152e-01 1.394317e-01
<GCONST> 1.059066e+02
<STATE> 3
<MEAN> 39
 -1.046263e+01 1.192893e+00 6.305027e-01 -4.821957e-01 5.510118e+00 3.635251e-01 3.368382e+00 -2.087046e+00 1.058523e+00 -7.760965e+00 1.078395e+00 -3.910955e+00 7.106615e+01 -8.002754e-04 2.112335e-03 2.165078e-03 -1.564994e-03 -4.300685e-04 -6.324079e-04 -1.138046e-03 -8.787271e-04 1.271468e-03 1.846282e-03 -1.804322e-04 -1.278623e-03 8.343531e-04 -4.475967e-05 -7.284283e-05 6.230097e-05 -2.442853e-04 -2.338257e-04 -5.949535e-05 4.124621e-05 -3.071028e-04 -1.978394e-04 -1.140548e-04 -8.069598e-05 -8.477430e-05 4.232170e-05
<VARIANCE> 39
 3.765159e+01 3.402439e+01 3.148469e+01 4.143038e+01 4.410116e+01 3.300908e+01 3.624625e+01 2.761554e+01 4.947715e+01 4.012057e+01 2.551658e+01 3.113912e+01 4.344355e+01 1.430533e+00 1.639362e+00 1.207966e+00 1.426063e+00 1.597724e+00 1.687130e+00 1.852222e+00 1.504564e+00 2.150095e+00 1.829018e+00 1.449835e+00 1.662362e+00 8.789857e-01 2.020932e-01 2.530756e-01 1.999116e-01 2.097155e-01 2.506926e-01 2.923805e-01 3.142056e-01 2.754931e-01 3.601594e-01 3.260430e-01 2.625300e-01 2.975152e-01 1.394317e-01
<GCONST> 1.059066e+02
<STATE> 4
<MEAN> 39
 -1.046263e+01 1.192893e+00 6.305027e-01 -4.821957e-01 5.510118e+00 3.635251e-01 3.368382e+00 -2.087046e+00 1.058523e+00 -7.760965e+00 1.078395e+00 -3.910955e+00 7.106615e+01 -8.002754e-04 2.112335e-03 2.165078e-03 -1.564994e-03 -4.300685e-04 -6.324079e-04 -1.138046e-03 -8.787271e-04 1.271468e-03 1.846282e-03 -1.804322e-04 -1.278623e-03 8.343531e-04 -4.475967e-05 -7.284283e-05 6.230097e-05 -2.442853e-04 -2.338257e-04 -5.949535e-05 4.124621e-05 -3.071028e-04 -1.978394e-04 -1.140548e-04 -8.069598e-05 -8.477430e-05 4.232170e-05
<VARIANCE> 39
 3.765159e+01 3.402439e+01 3.148469e+01 4.143038e+01 4.410116e+01 3.300908e+01 3.624625e+01 2.761554e+01 4.947715e+01 4.012057e+01 2.551658e+01 3.113912e+01 4.344355e+01 1.430533e+00 1.639362e+00 1.207966e+00 1.426063e+00 1.597724e+00 1.687130e+00 1.852222e+00 1.504564e+00 2.150095e+00 1.829018e+00 1.449835e+00 1.662362e+00 8.789857e-01 2.020932e-01 2.530756e-01 1.999116e-01 2.097155e-01 2.506926e-01 2.923805e-01 3.142056e-01 2.754931e-01 3.601594e-01 3.260430e-01 2.625300e-01 2.975152e-01 1.394317e-01
<GCONST> 1.059066e+02
<TRANSP> 5
 0.000000e+00 1.000000e+00 0.000000e+00 0.000000e+00 0.000000e+00
 0.000000e+00 6.000000e-01 4.000000e-01 0.000000e+00 0.000000e+00
 0.000000e+00 0.000000e+00 6.000000e-01 4.000000e-01 0.000000e+00
 0.000000e+00 0.000000e+00 0.000000e+00 7.000000e-01 3.000000e-01
 0.000000e+00 0.000000e+00 0.000000e+00 0.000000e+00 0.000000e+00
<ENDHMM>
~h "a"
<BEGINHMM>
<NUMSTATES> 5
<STATE> 2
<MEAN> 39
 -1.491610e+01 -1.981287e-02 2.116185e+00 -4.736242e+00 2.574898e+00 1.448665e+00 5.072538e+00 -1.244657e+00 -2.865944e-02 -9.551995e+00 1.412240e+00 -1.607070e+00 7.292728e+01 9.163319e-02 -4.175009e-01 2.266692e-01 -5.104831e-02 2.141286e-02 -1.568841e-01 -1.573248e-01 -8.540321e-02 -6.293681e-01 -5.044031e-01 -8.895113e-02 4.977370e-01 6.516076e-01 2.086152e-01 3.374660e-02 -4.571474e-02 1.328883e-01 9.453434e-02 -1.348679e-01 8.585253e-02 -1.312910e-02 -4.562759e-02 7.886923e-02 7.601313e-02 -7.374502e-02 -6.751347e-02
<VARIANCE> 39
 4.947702e+01 1.678280e+01 3.399199e+01 2.856446e+01 2.306416e+01 2.615758e+01 2.178416e+01 2.396845e+01 5.345504e+01 3.896836e+01 1.818684e+01 3.001472e+01 1.928205e+01 4.621948e+00 1.654468e+00 2.265366e+00 2.011556e+00 2.212630e+00 2.881836e+00 2.676803e+00 2.154593e+00 6.028302e+00 4.097612e+00 1.652760e+00 1.768238e+00 1.813692e+00 6.401775e-01 2.797197e-01 3.719203e-01 3.425423e-01 4.196247e-01 5.225889e-01 5.053477e-01 3.946219e-01 9.500277e-01 6.596671e-01 2.827822e-01 3.366419e-01 3.014454e-01
<GCONST> 1.159429e+02
<STATE> 3
<MEAN> 39
 -8.208479e+00 -1.068384e+00 -5.342141e-01 -1.779990e+00 4.953506e+00 -2.547363e+00 5.005648e+00 -2.306362e+00 -4.942411e+00 -1.143432e+01 2.930413e+00 9.915067e-01 7.503207e+01 4.293644e-01 3.201356e-02 -1.801306e-01 1.636461e-01 1.123439e-01 -6.501552e-01 1.040893e-01 4.843241e-02 2.700244e-01 3.913317e-01 5.476233e-02 -1.793687e-01 -9.428336e-02 -1.651608e-01 2.148362e-01 3.462617e-02 4.749334e-02 -6.293244e-02 1.453855e-01 1.444456e-02 7.930768e-02 4.115325e-01 1.816130e-01 -5.977736e-02 -2.676621e-01 -1.985233e-01
<VARIANCE> 39
 2.963070e+01 1.623032e+01 2.281173e+01 2.549796e+01 2.513610e+01 3.063966e+01 2.146174e+01 3.302887e+01 4.742544e+01 5.146293e+01 2.185406e+01 3.671760e+01 1.376239e+01 1.585044e+00 1.644772e+00 1.754046e+00 2.228928e+00 2.916096e+00 2.210752e+00 2.163839e+00 2.495207e+00 3.556379e+00 2.279109e+00 1.512244e+00 3.430788e+00 1.169411e+00 2.497674e-01 2.757181e-01 3.296063e-01 2.260804e-01 2.864233e-01 3.581155e-01 4.516044e-01 4.889680e-01 8.153456e-01 5.046626e-01 3.489377e-01 6.693926e-01 2.184323e-01
<GCONST> 1.113821e+02
<STATE> 4
<MEAN> 39
 -5.232164e+00 3.217117e+00 -2.645800e-01 -5.182870e-01 4.173817e+00 -3.945471e+00 4.071165e+00 -1.048433e+00 -1.387573e+00 -1.144148e+01 7.747408e-01 -2.211263e+00 7.265537e+01 -2.979434e-02 2.166565e-01 1.064293e-01 -4.986484e-02 5.151719e-02 1.381313e-01 -5.319301e-02 -4.884777e-02 1.583043e-01 -4.441499e-02 -2.251054e-02 -1.324606e-01 -1.077654e-01 -3.422363e-02 -3.594935e-03 4.369299e-02 2.048493e-03 4.146864e-02 8.957747e-02 -1.178724e-02 -3.097427e-02 -5.569240e-02 -1.653417e-02 1.884340e-04 7.915697e-03 -8.835199e-03
<VARIANCE> 39
 1.308733e+01 2.489477e+01 1.976447e+01 3.087065e+01 5.389459e+01 7.109218e+01 3.481662e+01 1.570584e+01 2.382616e+01 6.601955e+01 2.771209e+01 2.820498e+01 1.692108e+01 3.597308e-01 1.181038e+00 7.264782e-01 7.486970e-01 1.513598e+00 2.236784e+00 1.484184e+00 1.103131e+00 1.540136e+00 2.059984e+00 1.267380e+00 1.823059e+00 8.314911e-01 5.962808e-02 1.611475e-01 1.153705e-01 1.148622e-01 2.403947e-01 3.340811e-01 2.410614e-01 2.155526e-01 2.091500e-01 3.206365e-01 2.306723e-01 2.917771e-01 1.096995e-01
<GCONST> 9.527960e+01
<TRANSP> 5
 0.000000e+00 1.000000e+00 0.000000e+00 0.000000e+00 0.000000e+00
 0.000000e+00 7.715969e-01 2.284031e-01 0.000000e+00 0.000000e+00
 0.000000e+00 0.000000e+00 6.017933e-01 3.982067e-01 0.000000e+00
 0.000000e+00 0.000000e+00 0.000000e+00 8.782426e-01 1.217574e-01
 0.000000e+00 0.000000e+00 0.000000e+00 0.000000e+00 0.000000e+00
<ENDHMM>
~h "b"
<BEGINHMM>
<NUMSTATES> 5
<STATE> 2
<MEAN> 39
 -1.065149e+01 2.537765e+00 5.521801e-01 9.374094e-01 9.231849e+00 2.927989e+00 3.896838e+00 -2.840037e+00 -8.967987e-01 -9.749059e+00 3.776066e-02 -5.464049e+00 7.185825e+01 7.671747e-01 6.152779e-01 2.412132e-01 4.300948e-01 4.435547e-01 -1.369526e-01 -6.518389e-01 -3.544866e-01 -1.779446e-01 -3.907250e-01 -3.807253e-01 -6.521983e-01 2.485082e-01 -1.298805e-01 -1.210612e-01 1.062194e-01 -6.848224e-02 -3.583746e-02 -1.397991e-01 -1.913004e-01 8.502035e-03 7.900864e-02 3.813619e-02 4.100775e-02 -3.083311e-02 8.690118e-02
<VARIANCE> 39
 3.204113e+01 2.825318e+01 1.373434e+01 1.514134e+01 3.346019e+01 2.214133e+01 3.313582e+01 1.736128e+01 3.794963e+01 2.905878e+01 1.893119e+01 1.107250e+01 1.840608e+01 2.718549e+00 3.869564e+00 2.490467e+00 1.191370e+00 2.507967e+00 1.882951e+00 2.349718e+00 1.279413e+00 3.289219e+00 2.441366e+00 1.639643e+00 1.529785e+00 1.905234e+00 3.028088e-01 4.257147e-01 3.621348e-01 1.878785e-01 4.237169e-01 3.447412e-01 3.204521e-01 2.709051e-01 6.423690e-01 4.060023e-01 3.382012e-01 2.886481e-01 2.563186e-01
<GCONST> 1.076542e+02
<STATE> 3
<MEAN> 39
 -9.856294e+00 3.209945e+00 2.094913e+00 1.362614e+00 1.138020e+01 1.901726e+00 1.037236e+00 -3.709215e+00 -1.195359e+00 -1.059260e+01 -6.035285e-01 -7.245537e+00 7.271666e+01 2.149089e-01 6.382470e-01 2.679354e-01 -6.403435e-03 -2.016028e-01 -2.506755e-01 -1.843777e-01 2.296660e-01 7.828444e-01 2.634275e-01 -4.324585e-01 -4.002903e-01 -4.773401e-02 -5.643887e-02 -7.143930e-02 -7.261965e-02 -7.524622e-02 -2.987548e-01 -5.114473e-02 1.334082e-01 1.113621e-01 1.472961e-01 1.095600e-01 2.500028e-02 1.311666e-01 -6.577116e-02
<VARIANCE> 39
 2.758858e+01 2.678448e+01 1.426883e+01 1.612936e+01 5.348050e+01 3.160962e+01 3.399384e+01 1.786988e+01 4.644880e+01 2.937254e+01 1.897929e+01 1.688762e+01 1.461923e+01 2.755950e+00 2.986473e+00 1.853602e+00 1.014914e+00 3.474019e+00 2.950168e+00 2.172945e+00 1.610165e+00 3.298566e+00 1.818584e+00 1.395971e+00 1.631782e+00 2.097520e+00 5.976774e-01 4.610179e-01 3.576267e-01 1.711741e-01 5.107580e-01 6.566871e-01 4.301023e-01 2.402518e-01 7.564219e-01 4.390236e-01 2.057582e-01 3.398943e-01 3.218107e-01
<GCONST> 1.105679e+02
<STATE> 4
<MEAN> 39
 -8.155785e+00 6.831883e+00 2.286789e+00 2.295692e+00 8.945074e+00 5.337478e-01 1.181175e+00 -1.695856e+00 3.474941e+00 -9.471880e+00 -4.205758e+00 -9.306737e+00 7.122837e+01 -8.078384e-02 -2.090484e-01 -1.317547e-01 -1.480533e-01 -3.824442e-01 -3.189467e-01 1.563911e-01 5.984862e-02 -8.208444e-02 -7.991788e-03 7.313351e-02 2.131417e-01 5.333875e-02 -7.114380e-02 -1.876555e-01 -2.998952e-02 -3.626129e-02 -6.657859e-03 2.596301e-02 4.509023e-02 -1.157350e-02 -1.334409e-01 -6.495730e-02 1.228255e-01 1.536657e-01 7.836439e-02
<VARIANCE> 39
 1.719161e+01 1.690729e+01 1.766929e+01 1.636637e+01 2.600284e+01 3.044299e+01 2.833023e+01 1.595680e+01 2.151529e+01 2.468716e+01 2.200783e+01 2.020580e+01 1.402796e+01 1.225184e+00 1.377620e+00 7.708833e-01 9.224667e-01 1.657594e+00 2.220597e+00 2.149964e+00 1.328983e+00 2.668169e+00 2.463682e+00 1.475645e+00 1.342474e+00 1.052249e+00 1.965714e-01 1.723898e-01 1.548402e-01 1.553984e-01 2.667656e-01 3.498328e-01 3.963004e-01 2.600671e-01 3.471060e-01 4.205096e-01 2.941323e-01 2.363086e-01 1.311708e-01
<GCONST> 9.759294e+01
<TRANSP> 5
 0.000000e+00 1.000000e+00 0.000000e+00 0.000000e+00 0.000000e+00
 0.000000e+00 6.319366e-01 3.680635e-01 0.000000e+00 0.000000e+00
 0.000000e+00 0.000000e+00 6.042660e-01 3.957340e-01 0.000000e+00
 0.000000e+00 0.000000e+00 0.000000e+00 8.486512e-01 1.513489e-01
 0.000000e+00 0.000000e+00 0.000000e+00 0.000000e+00 0.000000e+00
<ENDHMM>
~h "d"
<BEGINHMM>
<NUMSTATES> 5
<STATE> 2
<MEAN> 39
 -1.314070e+01 3.352403e+00 -1.524649e+00 -2.423051e+00 4.812126e+00 2.124123e+00 6.173332e+00 -1.830940e+00 2.909071e+00 -5.687820e+00 1.013822e+00 -2.543309e+00 6.724111e+01 -2.712875e-01 -6.453065e-01 -5.118756e-02 -1.690249e-01 -5.769593e-01 -1.275987e-01 1.062809e-01 3.531471e-01 -7.971258e-02 4.694309e-02 2.466081e-01 2.270776e-01 2.314823e-01 7.909181e-03 -2.226335e-01 2.407907e-01 1.211765e-01 5.053445e-02 1.094599e-01 -1.188132e-01 -1.127206e-01 -3.729719e-01 -3.780913e-01 6.863073e-03 4.110545e-02 3.234106e-01
<VARIANCE> 39
 9.464892e+00 1.178504e+01 1.405955e+01 1.386285e+01 1.335252e+01 1.310273e+01 1.383064e+01 1.577178e+01 3.755875e+01 2.951122e+01 1.328378e+01 1.736653e+01 1.522836e+01 7.715386e-01 1.415551e+00 1.206146e+00 9.115405e-01 1.138189e+00 1.630403e+00 1.433299e+00 1.353202e+00 3.586074e+00 3.439663e+00 1.336895e+00 1.038095e+00 1.722061e+00 1.492097e-01 2.521369e-01 2.856045e-01 1.680396e-01 1.897911e-01 2.495703e-01 2.635668e-01 2.365190e-01 5.796626e-01 5.207873e-01 2.846149e-01 1.719132e-01 3.258819e-01
<GCONST> 9.475783e+01
<STATE> 3
<MEAN> 39
 -1.520905e+01 -7.612675e-01 -7.400039e-01 -1.969721e+00 1.893248e+00 2.529845e+00 5.147457e+00 -1.185018e+00 -6.205346e-01 -8.649858e+00 1.384794e+00 -3.784951e-01 7.106482e+01 1.459114e-01 -1.113719e+00 7.758119e-01 5.307319e-01 1.262382e-01 -1.259738e-01 -1.104547e-02 -9.372639e-02 -1.531339e+00 -1.006558e+00 3.454615e-01 3.308483e-01 9.368275e-01 3.851079e-01 2.165610e-01 -3.935181e-02 1.428937e-02 3.102072e-01 -5.808138e-02 4.242020e-02 5.426716e-03 1.271005e-01 1.154958e-01 1.748981e-03 -1.787959e-01 -2.731049e-01
<VARIANCE> 39
 1.851831e+01 1.671759e+01 1.197181e+01 1.772655e+01 1.164362e+01 2.687108e+01 1.939860e+01 2.073268e+01 5.250458e+01 3.775487e+01 1.300780e+01 1.858923e+01 1.958550e+01 1.637318e+00 1.663986e+00 1.593105e+00 1.753035e+00 1.599043e+00 2.463606e+00 1.566919e+00 2.597587e+00 4.537358e+00 3.289008e+00 1.376755e+00 1.783956e+00 2.264244e+00 3.205415e-01 3.746406e-01 1.943313e-01 3.937057e-01 2.641374e-01 4.717753e-01 3.217358e-01 4.684260e-01 7.809742e-01 6.362558e-01 2.461464e-01 3.646246e-01 3.171064e-01
<GCONST> 1.068671e+02
<STATE> 4
<MEAN> 39
 -1.707060e+01 -5.736763e-01 -2.972843e+00 -4.800205e+00 2.720963e+00 9.151649e-01 5.870402e+00 1.061927e+00 4.579817e+00 -4.256289e+00 4.220340e+00 -6.556737e-01 6.767789e+01 2.744263e-01 1.017498e-01 3.582348e-02 -2.777736e-02 1.541756e-01 -1.084336e-02 -3.055924e-02 5.969373e-02 -2.588903e-02 -9.664933e-02 1.945004e-02 -1.459565e-01 -8.365455e-02 5.607549e-02 1.122884e-01 -5.544721e-02 -3.815333e-02 1.971590e-02 1.065852e-02 -5.474235e-02 -6.423114e-02 2.037539e-02 3.642412e-02 -6.730795e-02 -5.990191e-02 -9.141621e-03
<VARIANCE> 39
 1.455962e+01 7.579095e+00 1.210281e+01 1.380959e+01 6.174834e+00 1.112091e+01 1.020758e+01 1.031987e+01 3.212758e+01 2.880988e+01 1.180139e+01 1.653530e+01 1.353510e+01 1.038012e+00 5.057321e-01 8.197119e-01 6.732336e-01 8.513273e-01 1.096414e+00 9.301063e-01 1.100952e+00 1.510575e+00 1.482196e+00 1.084548e+00 1.036774e+00 3.942804e-01 8.904132e-02 9.901407e-02 1.240059e-01 1.147277e-01 1.686632e-01 2.100858e-01 1.673698e-01 1.732671e-01 2.325344e-01 2.398602e-01 2.166772e-01 1.581693e-01 4.568397e-02
<GCONST> 7.859389e+01
<TRANSP> 5
 0.000000e+00 1.000000e+00 0.000000e+00 0.000000e+00 0.000000e+00
 0.000000e+00 7.345082e-01 2.654918e-01 0.000000e+00 0.000000e+00
 0.000000e+00 0.000000e+00 6.286921e-01 3.713079e-01 0.000000e+00
 0.000000e+00 0.000000e+00 0.000000e+00 8.158311e-01 1.841689e-01
 0.000000e+00 0.000000e+00 0.000000e+00 0.000000e+00 0.000000e+00
<ENDHMM>
~h "e"
<BEGINHMM>
<NUMSTATES> 5
<STATE> 2
<MEAN> 39
 -1.683789e+01 6.631737e-01 4.241726e+00 -5.274182e+00 3.460014e+00 2.983264e+00 2.522716e+00 -6.346118e+00 2.759708e+00 -7.763176e+00 1.458603e-01 -2.715488e+00 7.092930e+01 2.406201e-01 3.372752e-02 2.493176e-02 4.450548e-01 4.397097e-01 2.074070e-01 1.254805e-01 -6.217720e-02 -4.150202e-01 -4.849054e-02 1.407941e-02 -3.619525e-01 -7.172936e-02 2.221041e-01 3.582900e-02 -7.335550e-03 4.666679e-02 1.376360e-01 1.631070e-01 9.046055e-02 -7.169080e-02 -1.501305e-01 3.715378e-02 7.380227e-02 -9.814810e-02 -2.958339e-02
<VARIANCE> 39
 3.736725e+01 1.166242e+01 2.524244e+01 4.156063e+01 1.919387e+01 1.232144e+01 9.311096e+00 1.042282e+01 1.623298e+01 9.521821e+00 7.249815e+00 7.793152e+00 2.250830e+01 4.217576e+00 1.460079e+00 3.095971e+00 3.607699e+00 2.856527e+00 2.778508e+00 1.184216e+00 1.071056e+00 1.461497e+00 1.248551e+00 1.026815e+00 8.809940e-01 2.188128e+00 5.813031e-01 2.511833e-01 5.800539e-01 6.280688e-01 5.612754e-01 4.879163e-01 2.721872e-01 1.731148e-01 1.565661e-01 2.367736e-01 2.454149e-01 1.294054e-01 3.435598e-01
<GCONST> 9.966740e+01
<STATE> 3
<MEAN> 39
 -6.878191e+00 3.563307e+00 2.532666e+00 4.990612e+00 1.773496e+01 7.481704e+00 1.031914e+00 -1.017247e+01 -6.518954e+00 -1.135299e+01 -1.865119e+00 -8.441211e+00 7.015092e+01 3.757614e-01 3.305641e-01 -4.160624e-02 3.946506e-01 6.587677e-01 3.853081e-01 -3.262645e-01 -1.153346e-01 -2.159494e-01 -4.457772e-01 -3.701152e-01 -5.046009e-01 -3.884458e-02 -2.308925e-01 -1.599582e-01 -2.113422e-01 -2.031882e-01 -4.437270e-01 -3.500966e-01 -7.733040e-03 2.882958e-01 3.666834e-01 4.486449e-02 -1.254605e-02 2.903337e-01 -4.346308e-02
<VARIANCE> 39
 2.126604e+00 4.142558e+00 2.231725e+01 8.511634e+00 2.643979e+01 9.431170e+00 1.748082e+01 1.153983e+01 2.493303e+01 1.978901e+01 8.068360e+00 7.910800e+00 3.854296e+00 5.852029e-01 4.396487e-01 1.253785e+00 6.296280e-01 2.610149e+00 1.490088e+00 4.250889e-01 1.263548e+00 2.415236e+00 1.610663e+00 1.253370e+00 1.091584e+00 2.644921e-01 1.010263e-01 8.066843e-02 1.817477e-01 1.062676e-01 2.487362e-01 2.316672e-01 1.106528e-01 1.343118e-01 4.928510e-01 2.195067e-01 2.551368e-01 1.749416e-01 3.657787e-02
<GCONST> 7.665599e+01
<STATE> 4
<MEAN> 39
 -7.360559e+00 6.024655e+00 5.427715e-01 4.992839e+00 1.263872e+01 5.855072e+00 4.467402e+00 -3.259202e+00 7.235081e-01 -8.701854e+00 -1.850663e+00 -7.156622e+00 6.746825e+01 -9.786510e-02 -3.975806e-02 -3.320822e-02 -8.021501e-02 -3.834676e-02 -1.674477e-01 -5.025431e-02 1.558850e-01 1.014124e-01 1.856590e-02 4.193107e-03 2.474204e-02 -5.219806e-02 -5.839213e-03 -4.357062e-02 2.964819e-02 -5.991882e-03 -4.547472e-02 -4.990741e-02 -4.795361e-03 -9.170140e-03 -4.642720e-02 -1.267853e-02 1.501070e-02 3.980066e-02 2.839926e-02
<VARIANCE> 39
 2.149323e+00 8.586205e+00 4.448842e+00 8.475484e+00 7.042712e+00 8.844379e+00 1.398723e+01 1.504544e+01 9.826362e+00 2.897963e+01 9.360135e+00 1.262914e+01 2.781459e+00 1.506803e-01 5.184615e-01 4.613567e-01 5.682901e-01 5.543604e-01 7.791018e-01 8.424680e-01 1.219295e+00 1.212805e+00 7.457563e-01 7.075723e-01 9.156967e-01 1.370745e-01 3.052312e-02 9.209760e-02 7.362982e-02 8.207184e-02 1.182595e-01 1.345315e-01 1.323487e-01 2.042384e-01 2.019320e-01 1.103377e-01 1.362244e-01 1.531229e-01 1.776465e-02
<GCONST> 6.148870e+01
<TRANSP> 5
 0.000000e+00 1.000000e+00 0.000000e+00 0.000000e+00 0.000000e+00
 0.000000e+00 8.462593e-01 1.537407e-01 0.000000e+00 0.000000e+00
 0.000000e+00 0.000000e+00 7.468202e-01 2.531798e-01 0.000000e+00
 0.000000e+00 0.000000e+00 0.000000e+00 9.538482e-01 4.615176e-02
 0.000000e+00 0.000000e+00 0.000000e+00 0.000000e+00 0.000000e+00
<ENDHMM>
~h "f"
<BEGINHMM>
<NUMSTATES> 5
<STATE> 2
<MEAN> 39
 -1.640646e+01 2.638465e+00 3.764211e+00 -4.476821e+00 7.149472e+00 2.061962e+00 5.694000e+00 -2.659531e+00 5.468695e-01 -9.145901e+00 8.329858e-01 -2.223265e+00 7.295980e+01 -2.040416e+00 -4.033843e-01 3.182056e-01 -1.130485e+00 -4.844343e-01 -8.982480e-02 3.915033e-01 -1.769882e-01 7.418265e-01 4.009754e-01 1.639512e-01 4.298659e-01 3.606473e-01 2.985444e-02 -1.752556e-01 -6.963634e-02 1.205170e-01 4.043361e-02 -1.138033e-01 -1.139653e-01 -7.784656e-02 -1.289756e-02 1.827943e-02 9.226071e-02 1.478993e-02 3.025460e-02
<VARIANCE> 39
 4.022226e+01 1.998160e+01 2.020114e+01 3.307029e+01 2.104475e+01 2.866477e+01 1.853324e+01 1.604262e+01 2.362399e+01 1.644314e+01 7.708722e+00 1.501255e+01 1.121714e+01 2.099138e+00 1.887931e+00 1.435464e+00 2.338444e+00 1.195605e+00 2.069930e+00 2.118425e+00 1.577537e+00 3.360572e+00 1.869216e+00 1.010866e+00 1.364320e+00 8.517120e-01 4.526349e-01 1.771813e-01 2.171994e-01 4.080184e-01 1.835981e-01 3.954805e-01 2.695429e-01 3.373065e-01 5.320192e-01 3.561362e-01 1.837677e-01 3.206667e-01 1.321238e-01
<GCONST> 1.003120e+02
<STATE> 3
<MEAN> 39
 -2.186172e+01 -1.480421e+00 4.914028e+00 -7.349650e+00 4.038998e+00 8.456061e-01 6.342499e+00 -2.722136e+00 2.227148e+00 -6.414486e+00 1.712682e+00 -1.197787e+00 7.418712e+01 1.230991e-01 -5.421887e-01 -2.774321e-01 1.487754e-01 -1.602612e-01 8.719410e-02 1.154605e-02 -2.487435e-02 -2.972654e-01 -1.076379e-01 1.120071e-01 -5.201627e-02 4.897593e-02 4.985822e-01 1.056014e-01 -3.857397e-02 2.008347e-01 8.439926e-02 6.189974e-02 -6.140860e-03 -4.520258e-02 -2.527457e-01 -1.229675e-01 -6.120662e-02 -2.086046e-01 -8.124117e-02
<VARIANCE> 39
 3.071351e+01 1.587599e+01 2.971127e+01 1.930774e+01 2.736865e+01 3.079619e+01 1.103916e+01 1.935589e+01 2.402702e+01 1.922393e+01 1.212031e+01 1.552633e+01 6.791466e+00 3.935676e+00 1.727369e+00 1.909816e+00 1.952518e+00 1.305537e+00 2.001634e+00 1.482961e+00 1.823083e+00 3.346447e+00 2.256955e+00 1.064873e+00 1.977908e+00 1.074505e+00 4.644764e-01 3.576773e-01 3.497937e-01 2.901707e-01 3.106054e-01 3.055517e-01 3.565521e-01 3.229742e-01 5.817961e-01 4.236377e-01 1.951626e-01 3.989569e-01 1.888668e-01
<GCONST> 1.034160e+02
<STATE> 4
<MEAN> 39
 -1.551325e+01 9.697013e-01 2.485444e+00 -3.059880e+00 6.203036e+00 7.097276e-01 4.862084e+00 -1.740163e+00 1.191203e+00 -8.925050e+00 -2.787011e-01 -4.188416e+00 7.287796e+01 6.757033e-01 3.602396e-02 1.958674e-01 3.039957e-01 4.710553e-02 2.918667e-02 -2.607301e-01 -1.364031e-01 -1.446436e-01 -7.907473e-02 -6.370116e-02 -3.548434e-01 -1.407103e-01 7.388701e-02 1.437209e-01 1.623525e-01 5.219647e-02 1.100839e-01 -8.028648e-03 -1.095240e-01 -6.069621e-02 4.398420e-03 4.461693e-02 1.407146e-02 -5.103769e-02 3.105988e-02
<VARIANCE> 39
 3.375188e+01 3.320729e+01 2.828361e+01 2.072342e+01 2.067155e+01 1.481527e+01 1.578662e+01 2.124915e+01 3.144203e+01 1.910828e+01 1.188869e+01 1.695384e+01 6.546358e+00 3.366474e+00 2.661953e+00 2.644929e+00 1.995553e+00 1.351112e+00 1.579676e+00 1.370326e+00 2.059535e+00 2.750688e+00 1.942082e+00 9.076291e-01 1.977717e+00 6.615758e-01 3.419492e-01 4.614250e-01 5.515752e-01 2.389812e-01 2.051113e-01 2.907289e-01 2.267704e-01 3.140076e-01 3.243489e-01 3.442338e-01 1.526226e-01 3.923141e-01 1.269567e-01
<GCONST> 1.012890e+02
<TRANSP> 5
 0.000000e+00 1.000000e+00 0.000000e+00 0.000000e+00 0.000000e+00
 0.000000e+00 7.690296e-01 2.309704e-01 0.000000e+00 0.000000e+00
 0.000000e+00 0.000000e+00 7.926701e-01 2.073299e-01 0.000000e+00
 0.000000e+00 0.000000e+00 0.000000e+00 8.350282e-01 1.649717e-01
 0.000000e+00 0.000000e+00 0.000000e+00 0.000000e+00 0.000000e+00
<ENDHMM>
~h "h"
<BEGINHMM>
<NUMSTATES> 5
<STATE> 2
<MEAN> 39
 -1.208400e+01 -2.700902e-01 1.688179e+00 -2.796801e+00 4.667778e+00 2.302498e+00 5.105330e+00 -1.695987e+00 2.099625e+00 -4.502252e+00 4.751395e+00 -3.737063e+00 7.405169e+01 1.313764e-01 -1.273337e-01 -2.048974e-01 -1.606218e-01 -9.945445e-02 1.944691e-01 -1.042832e-02 -1.016980e-02 -1.474645e-01 -1.269892e-01 3.720368e-01 3.506357e-01 2.169945e-01 7.445106e-02 6.753779e-02 -5.319757e-02 1.294103e-01 8.003415e-02 -6.839089e-03 -4.822220e-02 6.017012e-02 1.109388e-01 -1.246465e-03 -1.261450e-01 -6.585038e-02 -1.253708e-01
<VARIANCE> 39
 1.501405e+01 7.326491e+00 1.309870e+01 1.271056e+01 2.588141e+01 1.962555e+01 2.711275e+01 1.626734e+01 5.232101e+01 1.974829e+01 2.292229e+01 1.593145e+01 2.176971e+01 7.205253e-01 7.931808e-01 9.417272e-01 1.320625e+00 2.401940e+00 1.047396e+00 2.111490e+00 1.160462e+00 1.638986e+00 1.181746e+00 1.460272e+00 1.492716e+00 1.136350e+00 1.020916e-01 2.213051e-01 1.526525e-01 1.087053e-01 1.585935e-01 2.283345e-01 3.249488e-01 1.709695e-01 3.747837e-01 2.081632e-01 1.787749e-01 2.752466e-01 1.218900e-01
<GCONST> 9.101434e+01
<STATE> 3
<MEAN> 39
 -1.268140e+01 1.689208e+00 -2.740162e-02 -3.226340e+00 5.132994e+00 3.369695e+00 3.783221e+00 -1.460494e+00 3.762696e+00 -6.179510e+00 2.533301e+00 -8.481312e-01 7.114129e+01 1.846579e-01 1.872402e-01 -1.702219e-02 3.685772e-02 6.830295e-02 -8.275308e-02 -2.416075e-01 2.211583e-02 -8.694537e-02 2.292474e-03 2.948721e-02 3.504461e-01 -3.600015e-02 -3.347341e-02 5.542884e-02 2.804624e-02 -3.714475e-02 -1.478451e-01 -5.315149e-02 1.119565e-01 6.186911e-02 1.029857e-01 1.443651e-01 2.621945e-02 -7.558180e-02 -1.022402e-01
<VARIANCE> 39
 3.464905e+01 1.315853e+01 1.659275e+01 3.380643e+01 3.461016e+01 1.150009e+01 2.645882e+01 1.591694e+01 6.383525e+01 2.498399e+01 1.507931e+01 1.650634e+01 2.940612e+01 1.708872e+00 1.073249e+00 9.313309e-01 8.627111e-01 1.149224e+00 7.997891e-01 1.769591e+00 9.903310e-01 1.937337e+00 1.612221e+00 1.092757e+00 1.373358e+00 1.053071e+00 3.197163e-01 2.075713e-01 1.838372e-01 1.298406e-01 2.688898e-01 1.520588e-01 4.154629e-01 2.360796e-01 3.924307e-01 3.618730e-01 1.798790e-01 3.203591e-01 2.851840e-01
<GCONST> 9.686557e+01
<STATE> 4
<MEAN> 39
 -7.959053e+00 1.726031e-01 9.122893e-01 -1.508847e+00 6.106844e+00 1.820934e-01 2.139971e+00 -4.826548e+00 -3.517716e+00 -9.675601e+00 3.115875e+00 -1.793486e+00 7.663775e+01 -1.151413e-01 -1.553383e-01 4.012987e-02 -6.439549e-02 -9.689721e-02 -5.449500e-02 2.352297e-02 -6.797522e-02 9.919992e-02 1.711423e-02 1.361790e-02 4.074071e-02 5.003536e-02 -1.641364e-02 -8.741361e-03 -9.957993e-03 -1.084336e-02 -1.969021e-02 -1.591166e-02 -1.799097e-02 -4.866442e-03 1.683867e-02 3.224247e-02 -3.269960e-02 -3.407649e-02 -1.834846e-03
<VARIANCE> 39
 2.427197e+01 2.974473e+01 1.486494e+01 3.182035e+01 3.462857e+01 2.259273e+01 3.713024e+01 3.003024e+01 4.206152e+01 2.427130e+01 1.913099e+01 1.251296e+01 2.361890e+01 8.575933e-01 2.017052e+00 6.238637e-01 9.320790e-01 9.820291e-01 1.219155e+00 2.541649e+00 1.237987e+00 2.341826e+00 2.091070e+00 1.200804e+00 1.199789e+00 1.129033e+00 1.202198e-01 3.000563e-01 1.010515e-01 1.029561e-01 1.566260e-01 2.115511e-01 3.595180e-01 2.341331e-01 4.017475e-01 3.565332e-01 2.385116e-01 2.020357e-01 1.754158e-01
<GCONST> 9.658674e+01
<TRANSP> 5
 0.000000e+00 1.000000e+00 0.000000e+00 0.000000e+00 0.000000e+00
 0.000000e+00 7.052100e-01 2.947901e-01 0.000000e+00 0.000000e+00
 0.000000e+00 0.000000e+00 6.836713e-01 3.163287e-01 0.000000e+00
 0.000000e+00 0.000000e+00 0.000000e+00 9.072813e-01 9.271868e-02
 0.000000e+00 0.000000e+00 0.000000e+00 0.000000e+00 0.000000e+00
<ENDHMM>
~h "i"
<BEGINHMM>
<NUMSTATES> 5
<STATE> 2
<MEAN> 39
 -1.345253e+01 -2.935936e+00 -5.236800e+00 -2.180438e+00 9.177694e-02 -1.404791e-01 7.139432e+00 1.044559e+00 3.131708e+00 -5.195220e+00 5.225877e+00 -8.555569e-01 6.833572e+01 -6.756998e-02 -6.442565e-01 -5.055933e-02 6.382193e-02 -2.093283e-01 9.744196e-02 3.798174e-01 8.924696e-02 -2.477264e-02 -3.157818e-01 1.280975e-01 3.182487e-01 1.815515e-01 2.243708e-02 -3.963526e-02 4.217754e-02 9.707893e-02 9.008772e-02 1.300872e-02 -8.592984e-02 -6.281700e-02 -1.272044e-02 -3.268881e-03 -2.240625e-02 1.938910e-02 9.264271e-03
<VARIANCE> 39
 2.941660e+01 2.820048e+01 1.616270e+01 5.665257e+00 1.814179e+01 1.642446e+01 8.545377e+00 1.730866e+01 3.249984e+01 1.948000e+01 1.401979e+01 2.439562e+01 2.655212e+01 1.306655e-01 9.014266e-01 5.868712e-01 4.959489e-01 5.176142e-01 8.626390e-01 6.567569e-01 8.392554e-01 1.340042e+00 1.008745e+00 8.811366e-01 1.049780e+00 1.657773e-01 2.086736e-02 1.008757e-01 6.869080e-02 8.682586e-02 9.750180e-02 1.284280e-01 1.318884e-01 1.745618e-01 1.665466e-01 1.737816e-01 2.263310e-01 1.936518e-01 1.502576e-02
<GCONST> 7.251978e+01
<STATE> 3
<MEAN> 39
 -1.582669e+01 -7.776657e+00 -4.588029e+00 -1.788139e+00 -2.450381e-01 9.621944e-01 6.949473e+00 1.360490e+00 3.771852e+00 -7.932920e+00 4.730203e+00 3.197585e+00 6.807497e+01 3.899766e-02 2.206599e-01 -2.320524e-01 -1.414275e-01 1.163973e-01 -3.521682e-03 2.457156e-02 -6.258879e-03 1.787730e-01 2.203383e-01 1.095666e-01 6.058408e-02 -1.694896e-01 -8.374112e-03 6.896695e-02 7.799703e-03 -2.828461e-02 5.381889e-03 1.144962e-02 1.130962e-02 4.775980e-02 6.190287e-02 7.404146e-02 -1.975676e-02 -6.327589e-02 -3.185401e-02
<VARIANCE> 39
 9.581748e+00 1.528609e+01 1.209242e+01 1.064301e+01 1.382540e+01 9.649122e+00 5.944515e+00 1.982611e+01 9.302297e+00 1.491452e+01 8.471768e+00 1.721401e+01 6.465997e+00 9.740216e-02 4.789485e-01 3.222278e-01 3.255072e-01 4.804294e-01 6.722213e-01 7.659001e-01 1.406145e+00 1.020212e+00 9.361229e-01 9.321551e-01 1.071223e+00 1.024511e-01 1.695604e-02 5.898212e-02 6.929468e-02 6.595620e-02 1.179907e-01 1.134604e-01 1.528585e-01 3.104961e-01 2.193322e-01 1.580347e-01 2.112187e-01 1.918328e-01 7.647467e-03
<GCONST> 6.316554e+01
<STATE> 4
<MEAN> 39
 -1.432104e+01 9.539961e-01 -5.323808e+00 -4.205156e+00 1.830784e-01 -7.316515e-01 7.385154e+00 3.151014e-02 6.117962e+00 -1.721839e+00 4.317076e+00 -2.927839e+00 6.552303e+01 5.203446e-02 1.110608e-02 4.670904e-02 -8.461022e-02 -7.234467e-02 -3.833053e-02 3.252961e-02 8.344010e-02 1.351359e-01 1.250303e-01 3.450156e-02 -3.627003e-02 1.078601e-02 8.654304e-04 -2.259458e-02 4.192274e-02 1.170004e-02 -8.521142e-03 1.115769e-02 -1.286405e-02 2.309570e-02 -3.427498e-02 -4.312665e-02 -1.520565e-02 -2.958864e-03 2.097455e-02
<VARIANCE> 39
 1.544436e+01 9.694687e+00 1.500556e+01 7.240151e+00 1.659860e+01 1.588232e+01 9.601251e+00 1.221537e+01 2.189969e+01 1.622597e+01 8.493651e+00 8.044114e+00 2.165138e+01 2.508022e-01 9.050674e-01 9.615707e-01 6.160700e-01 1.050607e+00 7.203491e-01 9.276828e-01 7.587304e-01 9.855312e-01 1.212286e+00 6.126426e-01 7.075456e-01 3.942107e-01 3.731472e-02 1.555285e-01 1.715139e-01 1.112176e-01 1.869027e-01 1.500120e-01 1.758333e-01 1.300514e-01 1.843737e-01 2.011004e-01 1.094692e-01 1.441845e-01 5.864182e-02
<GCONST> 7.391978e+01
<TRANSP> 5
 0.000000e+00 1.000000e+00 0.000000e+00 0.000000e+00 0.000000e+00
 0.000000e+00 7.565743e-01 2.434257e-01 0.000000e+00 0.000000e+00
 0.000000e+00 0.000000e+00 8.630828e-01 1.369172e-01 0.000000e+00
 0.000000e+00 0.000000e+00 0.000000e+00 9.129343e-01 8.706572e-02
 0.000000e+00 0.000000e+00 0.000000e+00 0.000000e+00 0.000000e+00
<ENDHMM>
~h "j"
<BEGINHMM>
<NUMSTATES> 5
<STATE> 2
<MEAN> 39
 -6.295893e+00 2.584452e+00 1.046162e+00 2.593931e-01 6.557927e+00 2.082802e+00 3.349328e+00 -3.795636e+00 -7.419200e+00 -1.384259e+01 3.894320e+00 -1.412455e+00 7.519250e+01 -1.542519e-02 -2.868949e-01 3.640395e-01 4.534014e-01 2.311667e-01 1.839694e-01 -5.226410e-01 -3.836696e-01 -5.804560e-01 -4.333139e-01 3.585472e-01 2.401641e-01 1.545036e-01 -7.854671e-02 1.047422e-01 4.415970e-02 1.348992e-01 4.684846e-02 6.666043e-02 1.000798e-01 3.558621e-02 3.255635e-01 2.564046e-01 -1.612001e-01 -1.858547e-01 -1.697724e-01
<VARIANCE> 39
 1.035841e+01 6.446509e+00 9.905004e+00 1.750747e+01 3.921879e+01 3.043114e+01 2.177239e+01 1.594975e+01 1.868166e+01 2.311191e+01 2.222498e+01 2.010169e+01 1.640972e+01 2.006193e-01 7.400436e-01 8.106916e-01 6.216445e-01 9.903510e-01 1.706420e+00 1.862998e+00 6.512631e-01 1.928581e+00 2.257755e+00 1.338987e+00 1.591606e+00 5.943975e-01 2.429479e-02 8.740108e-02 9.410407e-02 8.656889e-02 1.915407e-01 3.445431e-01 3.072178e-01 1.307294e-01 2.198051e-01 3.937916e-01 2.532888e-01 2.606231e-01 8.081900e-02
<GCONST> 8.419139e+01
<STATE> 3
<MEAN> 39
 -6.167980e+00 3.044767e+00 3.067887e+00 3.801091e+00 1.052479e+01 5.596765e+00 7.238321e-01 -5.893239e+00 -4.532350e+00 -1.241698e+01 1.171830e+00 -3.340281e+00 7.245309e+01 -3.002902e-01 -1.461801e-01 3.173829e-01 3.176457e-01 1.930136e-01 2.154526e-01 1.309793e-01 3.333478e-02 3.360546e-01 2.782112e-01 -4.174185e-01 -1.836106e-01 -2.007194e-01 -6.045838e-02 -4.421680e-02 2.677883e-04 -5.835392e-02 -1.338527e-01 -6.314012e-02 8.057248e-02 5.306422e-02 1.002168e-01 6.271887e-02 8.255620e-04 4.201496e-02 6.507352e-04
<VARIANCE> 39
 5.136324e+00 2.161396e+01 1.918828e+01 2.120998e+01 2.514897e+01 1.831594e+01 2.246938e+01 1.587127e+01 2.443732e+01 4.719106e+01 1.460264e+01 2.278802e+01 2.046165e+01 2.480249e-01 1.072425e+00 1.026316e+00 1.308160e+00 1.617395e+00 9.576159e-01 1.283468e+00 9.647337e-01 1.716415e+00 1.275698e+00 1.477648e+00 1.613231e+00 6.398943e-01 3.956555e-02 1.728650e-01 1.559267e-01 1.961545e-01 2.368133e-01 1.446012e-01 2.163174e-01 1.888541e-01 3.001203e-01 2.636433e-01 2.570780e-01 3.454408e-01 9.587190e-02
<GCONST> 8.876157e+01
<STATE> 4
<MEAN> 39
 -1.173919e+01 -1.513734e+00 3.766219e+00 3.560007e+00 7.642824e+00 2.971883e+00 3.577880e+00 -3.431802e+00 -1.443918e+00 -1.003974e+01 2.596572e+00 -2.240399e+00 7.276942e+01 -1.432204e-02 1.602129e-02 -4.412756e-02 -6.420033e-02 -4.835256e-02 -1.918543e-02 4.099837e-02 -2.694245e-02 1.928162e-02 5.232425e-02 2.457867e-02 -2.361311e-02 -2.588528e-02 1.404057e-02 1.635334e-02 -2.666873e-02 -1.720607e-04 1.340151e-02 -1.563582e-02 -1.491957e-02 -5.810111e-03 -1.642989e-02 -6.389727e-03 1.104491e-02 1.152757e-02 -3.590904e-03
<VARIANCE> 39
 2.162513e+01 3.979939e+01 1.892473e+01 2.062856e+01 1.586177e+01 1.832321e+01 1.486058e+01 2.106957e+01 3.325945e+01 1.889354e+01 1.557690e+01 1.818831e+01 9.253825e+00 1.076017e+00 2.219956e+00 8.740449e-01 1.068292e+00 1.278895e+00 1.230469e+00 1.229017e+00 1.392828e+00 2.271810e+00 1.688614e+00 1.143313e+00 1.641632e+00 5.894226e-01 1.363388e-01 2.960194e-01 1.412531e-01 1.740741e-01 2.320505e-01 2.313597e-01 2.210220e-01 2.232784e-01 3.522286e-01 3.384743e-01 2.142872e-01 3.215640e-01 8.774615e-02
<GCONST> 9.329017e+01
<TRANSP> 5
 0.000000e+00 1.000000e+00 0.000000e+00 0.000000e+00 0.000000e+00
 0.000000e+00 7.965202e-01 2.034798e-01 0.000000e+00 0.000000e+00
 0.000000e+00 0.000000e+00 8.761566e-01 1.238434e-01 0.000000e+00
 0.000000e+00 0.000000e+00 0.000000e+00 9.754648e-01 2.453524e-02
 0.000000e+00 0.000000e+00 0.000000e+00 0.000000e+00 0.000000e+00
<ENDHMM>
~h "k"
<BEGINHMM>
<NUMSTATES> 5
<STATE> 2
<MEAN> 39
 -1.599498e+01 -1.427027e+00 1.052150e+00 -2.184321e+00 5.152502e+00 1.772073e+00 6.203035e+00 -1.003104e+00 2.582046e+00 -7.429635e+00 2.563983e+00 -9.448615e-01 7.150214e+01 1.817383e+00 1.098618e+00 3.729892e-01 5.102878e-01 1.493761e+00 -1.342919e-01 1.594630e-01 -3.709647e-01 -1.724179e+00 -8.591668e-01 -6.122957e-01 -7.079917e-01 1.930031e-01 3.410777e-01 4.010969e-01 7.768974e-02 -8.396674e-02 1.678330e-01 -9.925544e-02 -3.867119e-02 -1.418998e-01 -3.005523e-01 -8.828053e-03 -3.102326e-01 -1.768917e-01 7.745496e-02
<VARIANCE> 39
 2.334922e+01 4.207895e+01 1.783883e+01 1.889643e+01 4.325491e+01 2.342947e+01 1.014431e+01 1.899770e+01 3.559898e+01 1.771117e+01 1.583393e+01 2.738503e+01 8.309131e+00 2.828261e+00 3.882381e+00 1.852647e+00 1.008976e+00 2.465817e+00 1.836797e+00 3.113013e+00 2.359303e+00 3.019547e+00 3.263989e+00 1.600553e+00 1.813507e+00 5.273081e-01 3.246429e-01 6.204290e-01 2.568473e-01 1.542258e-01 5.362248e-01 3.986721e-01 3.355799e-01 4.185818e-01 5.503234e-01 5.998117e-01 3.314813e-01 3.113370e-01 1.295460e-01
<GCONST> 1.066862e+02
<STATE> 3
<MEAN> 39
 -7.839469e+00 6.369013e+00 2.298568e+00 -1.777166e+00 6.450606e+00 -4.218544e+00 2.236629e+00 -4.310675e+00 -1.349937e+00 -7.942611e+00 2.884092e-01 -6.765065e+00 7.278315e+01 5.733827e-01 6.985494e-01 1.052565e-01 1.763906e-01 1.238592e-01 -5.599569e-01 -3.465614e-01 -5.982168e-01 -1.328105e-01 1.290613e-01 -1.348670e-01 -1.389690e-01 1.635020e-01 -3.943764e-01 -3.918822e-01 -1.747803e-01 -2.642891e-02 -4.187594e-01 2.063437e-02 1.656224e-01 1.688482e-01 4.848181e-01 1.773876e-01 1.601983e-01 1.999693e-01 -7.681495e-03
<VARIANCE> 39
 7.170927e+00 2.108611e+01 6.264198e+00 1.099411e+01 5.404897e+01 6.416799e+01 1.773273e+01 1.647513e+01 4.259629e+01 4.770887e+01 1.638465e+01 2.029574e+01 7.256931e+00 2.024338e+00 1.974031e+00 7.939791e-01 9.364847e-01 1.824566e+00 1.229970e+00 1.766161e+00 1.544168e+00 3.591460e+00 2.510622e+00 2.695164e+00 1.267010e+00 7.421225e-01 3.095517e-01 2.434843e-01 9.249929e-02 1.338226e-01 3.697126e-01 2.656312e-01 2.880768e-01 2.647377e-01 6.085699e-01 6.755637e-01 5.158207e-01 4.458840e-01 1.059071e-01
<GCONST> 9.971687e+01
<STATE> 4
<MEAN> 39
 -1.014462e+01 3.567113e+00 2.082506e+00 -7.242234e-01 9.761317e+00 -7.283256e-01 3.125647e+00 -3.126228e+00 -7.343876e-01 -7.107836e+00 1.454599e+00 -2.659316e+00 7.278065e+01 8.683109e-02 -1.694956e-01 -1.649833e-01 4.094778e-02 -2.179157e-01 -4.784985e-02 -8.325832e-02 -7.839999e-02 -6.741135e-02 -2.818740e-03 -6.037010e-02 -1.678066e-03 2.872382e-01 -4.564229e-02 -4.983042e-02 -8.369379e-03 -6.032917e-02 -3.523761e-02 4.615244e-02 8.269669e-02 6.009840e-02 -6.414131e-02 6.178934e-02 1.523731e-02 9.080657e-02 -6.291100e-03
<VARIANCE> 39
 3.435512e+01 4.023901e+01 8.508289e+00 1.033989e+01 2.375937e+01 3.067114e+01 2.572671e+01 1.851925e+01 4.432196e+01 3.542272e+01 1.482892e+01 2.467142e+01 1.531553e+01 3.266539e+00 2.735722e+00 9.592966e-01 1.354935e+00 1.204954e+00 1.677145e+00 2.232936e+00 2.270094e+00 4.942547e+00 2.889908e+00 1.344036e+00 2.039177e+00 1.379127e+00 4.672448e-01 4.310831e-01 1.885314e-01 2.064556e-01 2.921332e-01 2.708868e-01 4.202745e-01 4.706349e-01 8.652563e-01 5.302411e-01 2.003430e-01 3.617891e-01 2.071304e-01
<GCONST> 1.069176e+02
<TRANSP> 5
 0.000000e+00 1.000000e+00 0.000000e+00 0.000000e+00 0.000000e+00
 0.000000e+00 6.399770e-01 3.600230e-01 0.000000e+00 0.000000e+00
 0.000000e+00 0.000000e+00 6.677834e-01 3.322165e-01 0.000000e+00
 0.000000e+00 0.000000e+00 0.000000e+00 8.122000e-01 1.878000e-01
 0.000000e+00 0.000000e+00 0.000000e+00 0.000000e+00 0.000000e+00
<ENDHMM>
~h "l"
<BEGINHMM>
<NUMSTATES> 5
<STATE> 2
<MEAN> 39
 -7.321826e+00 1.377720e+00 1.644036e+00 2.690444e+00 6.897066e+00 2.793749e-01 2.216533e+00 -3.542186e+00 -3.389008e+00 -1.333171e+01 1.545363e-01 -3.293392e+00 7.224699e+01 -7.496519e-02 3.177111e-01 8.931345e-02 2.834945e-01 2.715383e-01 7.467733e-02 2.468579e-03 -3.585560e-02 1.904807e-01 -9.450693e-02 -4.550344e-01 -2.197301e-01 -2.291644e-01 -5.266089e-02 1.501814e-02 -5.465797e-02 -9.608619e-02 3.389347e-02 -6.018495e-03 1.618980e-02 6.228119e-02 1.176550e-01 1.814402e-01 -2.442189e-03 -5.225435e-02 -2.253482e-02
<VARIANCE> 39
 1.685082e+01 2.087270e+01 1.556265e+01 3.287551e+01 2.907688e+01 3.201614e+01 3.008093e+01 2.563009e+01 4.693269e+01 4.690276e+01 3.173085e+01 3.354950e+01 3.041954e+01 5.753303e-01 1.200599e+00 9.290482e-01 1.288219e+00 1.324390e+00 1.236992e+00 1.620501e+00 1.444746e+00 2.479698e+00 2.012733e+00 1.898688e+00 1.635902e+00 7.499793e-01 8.510990e-02 1.880443e-01 1.583166e-01 2.192401e-01 2.314629e-01 2.228791e-01 2.766520e-01 3.018315e-01 4.395089e-01 3.561167e-01 3.948683e-01 3.028812e-01 1.213793e-01
<GCONST> 9.992094e+01
<STATE> 3
<MEAN> 39
 -8.042469e+00 2.669465e+00 1.510706e+00 2.867460e+00 7.756693e+00 6.169784e-01 2.501681e+00 -3.552718e+00 -1.572566e+00 -1.163176e+01 -1.048115e+00 -5.034866e+00 7.115988e+01 -1.782598e-01 2.586139e-01 -6.363172e-02 -4.960243e-02 2.097001e-01 4.164436e-02 3.974010e-02 9.991293e-02 4.487259e-01 3.992068e-01 -1.690953e-01 -2.509826e-01 -2.508696e-01 -4.406645e-02 -7.547715e-02 -5.488660e-02 -1.447686e-01 -9.453782e-02 -1.926750e-02 2.949031e-02 2.033666e-02 1.217983e-02 1.362632e-01 1.679979e-01 7.239133e-02 3.555204e-02
<VARIANCE> 39
 2.115707e+01 2.230759e+01 1.834092e+01 3.600493e+01 3.706627e+01 3.242487e+01 3.124208e+01 2.725415e+01 4.048791e+01 4.542713e+01 2.843591e+01 2.825389e+01 3.187693e+01 5.939822e-01 1.359672e+00 1.014300e+00 1.500313e+00 1.443376e+00 1.493046e+00 1.801392e+00 1.494727e+00 2.436238e+00 2.012239e+00 1.813458e+00 1.832682e+00 8.401906e-01 1.164772e-01 1.975631e-01 1.824455e-01 2.736675e-01 2.722862e-01 2.894562e-01 3.204085e-01 2.652034e-01 4.091514e-01 3.517138e-01 3.870061e-01 3.143826e-01 1.377589e-01
<GCONST> 1.026122e+02
<STATE> 4
<MEAN> 39
 -7.496133e+00 3.137944e+00 8.760512e-01 1.893130e+00 7.379733e+00 8.616267e-01 2.891311e+00 -3.079105e+00 -9.375845e-01 -1.081820e+01 -1.183386e+00 -5.116449e+00 7.086365e+01 -1.777032e-01 6.778963e-03 -1.528191e-01 -3.882017e-01 -2.470561e-01 -5.022617e-02 1.405106e-01 1.401950e-01 1.683939e-01 3.571780e-01 2.087151e-01 7.037921e-02 -8.657198e-02 -1.693733e-02 -6.772275e-02 -1.820002e-03 -3.133453e-02 -5.096449e-02 -7.521336e-03 -1.148336e-02 -1.006810e-02 -5.963825e-02 -2.354823e-02 5.737771e-02 6.802388e-02 5.519935e-02
<VARIANCE> 39
 1.534820e+01 2.263785e+01 2.052829e+01 3.492236e+01 5.507285e+01 3.169178e+01 3.542105e+01 3.010233e+01 3.928220e+01 4.290467e+01 2.058173e+01 3.158284e+01 2.155291e+01 5.110368e-01 1.103897e+00 1.241249e+00 1.198975e+00 1.897954e+00 1.501199e+00 1.786937e+00 1.622580e+00 2.337986e+00 2.490448e+00 1.739832e+00 1.632415e+00 7.185772e-01 8.840366e-02 1.590354e-01 2.166927e-01 1.700738e-01 2.723432e-01 2.507150e-01 2.894570e-01 2.937743e-01 3.545570e-01 4.168993e-01 2.907559e-01 2.801272e-01 1.052357e-01
<GCONST> 1.005432e+02
<TRANSP> 5
 0.000000e+00 1.000000e+00 0.000000e+00 0.000000e+00 0.000000e+00
 0.000000e+00 4.879176e-01 5.120825e-01 0.000000e+00 0.000000e+00
 0.000000e+00 0.000000e+00 3.672104e-01 6.327896e-01 0.000000e+00
 0.000000e+00 0.000000e+00 0.000000e+00 7.595203e-01 2.404797e-01
 0.000000e+00 0.000000e+00 0.000000e+00 0.000000e+00 0.000000e+00
<ENDHMM>
~h "m"
<BEGINHMM>
<NUMSTATES> 5
<STATE> 2
<MEAN> 39
 -1.275888e+01 3.322310e+00 -3.278707e+00 -3.464590e+00 2.022975e+00 -7.315435e-01 5.953544e+00 1.328930e+00 7.790807e+00 -1.113072e+00 3.621404e+00 -2.952274e+00 6.529119e+01 -1.302941e-01 7.579193e-03 -6.681533e-02 -7.802217e-02 3.655379e-02 1.274326e-01 1.152230e-01 7.376502e-02 9.502265e-02 1.868795e-01 1.223227e-01 -3.442980e-02 -1.442465e-01 1.015534e-02 7.000964e-03 6.713231e-02 4.422592e-02 5.638456e-02 2.092866e-02 -1.457391e-02 -4.557311e-02 -9.310135e-02 -8.007341e-02 -5.858862e-02 -2.273106e-02 4.290617e-02
<VARIANCE> 39
 1.580743e+01 1.208425e+01 2.722636e+01 1.459393e+01 1.013109e+01 1.374411e+01 8.982230e+00 1.156960e+01 1.640047e+01 1.903886e+01 1.434600e+01 1.040417e+01 1.290461e+01 2.017630e-01 2.819575e-01 5.244561e-01 4.958430e-01 6.955286e-01 8.641429e-01 7.276631e-01 9.751869e-01 1.003369e+00 8.007358e-01 8.652258e-01 7.444198e-01 1.877094e-01 3.621280e-02 6.623799e-02 9.856413e-02 9.990808e-02 1.212715e-01 1.591763e-01 1.478491e-01 1.946282e-01 1.774675e-01 1.344576e-01 1.779393e-01 1.544156e-01 3.054618e-02
<GCONST> 6.943646e+01
<STATE> 3
<MEAN> 39
 -1.073179e+01 4.639692e+00 -6.191477e-01 -1.059773e-01 6.526461e+00 2.174723e+00 5.772021e+00 -1.533005e+00 3.873119e+00 -4.877967e+00 1.167232e+00 -4.024625e+00 6.775044e+01 -6.406393e-02 1.229972e-01 1.361604e-01 -3.769218e-02 2.454720e-01 2.006110e-01 1.232750e-01 7.279701e-02 -1.633307e-01 -7.344888e-02 -1.677502e-01 -1.175235e-01 -4.089712e-02 1.160265e-02 -6.257878e-02 -5.214499e-02 -1.857952e-02 -1.521856e-03 -1.007759e-01 -1.215657e-01 5.516305e-02 1.646570e-03 -1.025266e-01 -6.020731e-02 5.580654e-02 7.294226e-02
<VARIANCE> 39
 2.302918e+01 1.851270e+01 1.213492e+01 1.768137e+01 1.285987e+01 1.693392e+01 1.319644e+01 1.244284e+01 2.583480e+01 2.340416e+01 1.206225e+01 1.384812e+01 1.303719e+01 3.971291e-01 6.158666e-01 5.805183e-01 7.818313e-01 4.761946e-01 9.878453e-01 9.319800e-01 1.202440e+00 1.725703e+00 1.325723e+00 1.113443e+00 1.131559e+00 2.964671e-01 5.546574e-02 8.296920e-02 1.039841e-01 1.396724e-01 8.558772e-02 1.467244e-01 2.565914e-01 2.507121e-01 2.817881e-01 2.448665e-01 1.924523e-01 2.035506e-01 4.619037e-02
<GCONST> 7.895789e+01
<STATE> 4
<MEAN> 39
 -6.924299e+00 6.239527e+00 1.159784e-01 -5.048527e-01 5.822146e+00 4.455001e-01 4.311614e+00 -1.509849e+00 1.207857e+00 -9.677818e+00 -9.515697e-01 -5.394646e+00 7.114446e+01 -6.911869e-02 -8.326874e-02 -7.513953e-02 -4.491179e-02 9.610341e-02 9.293962e-02 2.728543e-02 4.658181e-02 -1.284147e-01 -1.353093e-01 -6.082198e-03 2.839606e-02 2.584317e-02 -1.676702e-02 -3.239901e-02 2.441545e-03 -2.370057e-03 -2.752523e-02 -4.798857e-02 -6.419953e-03 1.330138e-02 2.336797e-02 -4.291989e-03 2.089887e-02 4.717909e-02 2.113919e-02
<VARIANCE> 39
 1.471008e+01 1.788822e+01 1.352914e+01 2.950530e+01 3.424768e+01 2.786189e+01 1.739947e+01 1.749736e+01 3.602112e+01 4.274559e+01 2.296995e+01 1.609611e+01 2.164956e+01 2.494644e-01 6.513483e-01 6.093063e-01 1.083228e+00 1.443429e+00 2.111711e+00 1.204890e+00 1.157678e+00 1.555989e+00 1.770815e+00 1.408141e+00 1.168392e+00 4.368075e-01 3.807755e-02 1.126140e-01 1.192346e-01 1.475012e-01 1.889836e-01 3.576849e-01 2.067625e-01 1.889315e-01 2.695023e-01 2.986711e-01 2.261948e-01 2.042536e-01 6.836431e-02
<GCONST> 8.833713e+01
<TRANSP> 5
 0.000000e+00 1.000000e+00 0.000000e+00 0.000000e+00 0.000000e+00
 0.000000e+00 8.297779e-01 1.702221e-01 0.000000e+00 0.000000e+00
 0.000000e+00 0.000000e+00 6.317328e-01 3.682671e-01 0.000000e+00
 0.000000e+00 0.000000e+00 0.000000e+00 8.900384e-01 1.099616e-01
 0.000000e+00 0.000000e+00 0.000000e+00 0.000000e+00 0.000000e+00
<ENDHMM>
~h "n"
<BEGINHMM>
<NUMSTATES> 5
<STATE> 2
<MEAN> 39
 -1.007788e+01 3.719718e+00 9.663296e-01 2.484104e+00 7.818596e+00 1.561174e+00 4.128029e+00 -1.935861e+00 1.775535e+00 -6.978615e+00 2.352966e-01 -5.580870e+00 6.942207e+01 -1.265664e-01 8.481186e-03 -1.007252e-01 -1.354494e-01 -1.897605e-01 -4.865561e-02 1.967766e-01 2.120873e-02 9.738771e-02 1.120110e-01 3.133653e-02 -4.214673e-02 -1.316907e-01 4.629129e-04 -3.215896e-02 -2.994638e-02 -1.168791e-02 1.821877e-02 1.745083e-02 -2.004682e-02 -1.278656e-02 -3.190523e-02 -6.408658e-03 4.338297e-02 7.389016e-02 2.970005e-02
<VARIANCE> 39
 1.946436e+01 2.796211e+01 1.574852e+01 2.970427e+01 2.141145e+01 1.357376e+01 2.042867e+01 1.592302e+01 3.330195e+01 2.219218e+01 1.385291e+01 1.513919e+01 1.539295e+01 3.677559e-01 9.416953e-01 6.516829e-01 1.121703e+00 1.258501e+00 8.712870e-01 1.322993e+00 1.054807e+00 1.529933e+00 1.148187e+00 9.718083e-01 9.229422e-01 2.697503e-01 5.314025e-02 1.318735e-01 1.038091e-01 1.383004e-01 1.849339e-01 1.320370e-01 2.245302e-01 1.810817e-01 2.235474e-01 2.095158e-01 1.783812e-01 1.617671e-01 3.549828e-02
<GCONST> 8.239846e+01
<STATE> 3
<MEAN> 39
 -8.587807e+00 2.233791e+00 -1.100464e+00 1.259795e+00 6.344191e+00 2.129210e+00 5.117967e+00 -3.692307e+00 -1.802419e+00 -8.523409e+00 1.035009e+00 -3.853116e+00 6.989860e+01 -4.087355e-02 1.464562e-01 -9.426574e-02 -5.747315e-02 5.791773e-02 9.902354e-02 2.211917e-01 1.565693e-01 5.281403e-02 -3.678275e-02 -3.309138e-02 1.539981e-01 -1.062217e-01 -3.177428e-02 -3.365686e-03 4.517338e-02 -6.757172e-02 -1.015745e-02 -7.923474e-03 -3.379027e-02 9.670065e-02 1.203412e-01 2.353794e-02 -5.449579e-02 3.838684e-03 2.077709e-02
<VARIANCE> 39
 1.984162e+01 3.241496e+01 1.366164e+01 2.844946e+01 2.051464e+01 2.256035e+01 1.860513e+01 1.737601e+01 4.009529e+01 3.297042e+01 1.431749e+01 2.206795e+01 1.709178e+01 3.408580e-01 8.737180e-01 8.288830e-01 1.311052e+00 1.242207e+00 9.844502e-01 1.339365e+00 1.202018e+00 1.564893e+00 1.323582e+00 1.381817e+00 1.438946e+00 3.383699e-01 5.334577e-02 1.543057e-01 1.362381e-01 1.871785e-01 2.112590e-01 1.894158e-01 2.338155e-01 2.354750e-01 2.653495e-01 2.920172e-01 2.528036e-01 2.544069e-01 7.467238e-02
<GCONST> 8.920149e+01
<STATE> 4
<MEAN> 39
 -1.390835e+01 -3.421450e+00 -1.406497e+00 -3.969558e+00 2.199008e+00 9.962172e-01 6.783786e+00 1.145015e+00 2.696303e+00 -7.570974e+00 2.605416e+00 -7.563949e-01 6.995741e+01 -1.720540e-01 -6.092397e-02 -9.877574e-02 -2.077685e-01 -2.347112e-03 -3.923061e-02 3.309113e-03 2.116216e-01 2.250184e-01 8.857965e-02 -5.666986e-02 1.947525e-02 -8.707788e-02 8.018753e-03 -4.047300e-02 2.686160e-02 3.791038e-03 2.785251e-03 -2.168426e-02 -5.630252e-02 -3.314874e-02 -2.943359e-02 -8.940807e-03 -4.804918e-03 -6.414169e-03 4.887634e-02
<VARIANCE> 39
 3.928162e+01 5.824733e+01 1.870146e+01 2.311105e+01 2.250962e+01 1.662971e+01 1.182383e+01 1.976364e+01 2.651009e+01 3.029416e+01 1.590339e+01 1.964513e+01 1.480419e+01 5.187001e-01 1.156043e+00 6.157160e-01 8.594852e-01 7.006068e-01 9.888163e-01 1.117967e+00 8.950700e-01 1.369694e+00 1.543526e+00 1.062337e+00 1.424133e+00 4.749734e-01 7.605781e-02 1.669220e-01 1.003082e-01 1.673112e-01 1.352949e-01 1.784083e-01 1.995846e-01 1.581996e-01 2.645736e-01 2.566647e-01 1.994197e-01 2.723868e-01 8.036601e-02
<GCONST> 8.713544e+01
<TRANSP> 5
 0.000000e+00 1.000000e+00 0.000000e+00 0.000000e+00 0.000000e+00
 0.000000e+00 7.780018e-01 2.219982e-01 0.000000e+00 0.000000e+00
 0.000000e+00 0.000000e+00 6.543580e-01 3.456419e-01 0.000000e+00
 0.000000e+00 0.000000e+00 0.000000e+00 7.914316e-01 2.085684e-01
 0.000000e+00 0.000000e+00 0.000000e+00 0.000000e+00 0.000000e+00
<ENDHMM>
~h "q"
<BEGINHMM>
<NUMSTATES> 5
<STATE> 2
<MEAN> 39
 -1.495548e+01 4.064835e-03 5.050231e+00 -6.752605e+00 3.476065e-02 -2.336237e+00 5.018748e+00 -1.021091e-01 2.601959e+00 -5.694435e+00 7.614787e-01 -4.890475e+00 7.380653e+01 -1.381905e+00 -5.057084e-01 8.040987e-01 -9.197541e-01 2.454463e-01 4.525659e-01 1.911867e-01 2.121102e-01 2.901001e-01 -8.933889e-02 2.940608e-01 5.760821e-01 2.972178e-01 1.128994e-01 4.853731e-02 -1.469830e-01 1.192449e-01 -6.464529e-03 -2.812678e-02 1.416791e-01 4.157212e-03 1.247898e-01 9.658317e-02 3.242531e-02 5.879312e-02 -1.072445e-01
<VARIANCE> 39
 5.108136e+01 2.039104e+01 2.602192e+01 3.274691e+01 3.444633e+01 4.215089e+01 3.028191e+01 3.088978e+01 2.001803e+01 1.843657e+01 3.297115e+01 2.245984e+01 9.958915e+00 3.522059e+00 2.084337e+00 2.098213e+00 1.778412e+00 1.303648e+00 2.895917e+00 2.760854e+00 2.505694e+00 1.360639e+00 2.190797e+00 1.733846e+00 2.226730e+00 1.089183e+00 6.553641e-01 3.892181e-01 3.690608e-01 3.804256e-01 2.608557e-01 5.387304e-01 4.483716e-01 4.912476e-01 2.353711e-01 3.587911e-01 3.975312e-01 4.186085e-01 1.381548e-01
<GCONST> 1.103643e+02
<STATE> 3
<MEAN> 39
 -1.996698e+01 -1.128646e+00 2.015222e+00 -9.575305e+00 3.655298e-01 1.828547e+00 8.247763e+00 1.641757e+00 7.028949e+00 -4.763364e+00 2.244731e+00 1.773518e-01 7.089952e+01 2.751292e-01 -1.789107e-02 -5.729472e-01 5.523718e-01 2.522751e-01 -3.929488e-02 8.447962e-02 -1.692109e-01 -8.855545e-02 1.214211e-02 6.165288e-02 1.669105e-01 -1.934779e-01 2.037337e-01 5.318347e-02 1.621130e-02 2.433418e-01 3.226918e-02 -4.207553e-02 -9.882390e-02 -9.989114e-02 -2.197138e-01 -1.083714e-01 6.118270e-03 -1.649520e-01 1.483281e-02
<VARIANCE> 39
 3.037385e+01 2.072992e+01 3.547806e+01 3.087378e+01 2.513969e+01 2.084963e+01 2.960920e+01 2.868479e+01 1.823171e+01 2.319892e+01 1.510269e+01 1.208355e+01 1.671292e+01 2.525591e+00 2.372707e+00 1.144545e+00 1.692404e+00 1.255328e+00 2.033288e+00 3.306864e+00 3.188698e+00 1.712502e+00 1.715014e+00 1.397309e+00 1.353412e+00 1.174597e+00 6.244597e-01 4.295160e-01 2.697222e-01 3.259152e-01 2.767044e-01 4.185883e-01 6.734918e-01 6.795654e-01 3.822365e-01 3.199952e-01 3.399511e-01 3.561657e-01 2.308989e-01
<GCONST> 1.074545e+02
<STATE> 4
<MEAN> 39
 -1.217137e+01 -5.335742e-01 2.538249e+00 -1.671382e+00 4.635530e+00 6.262312e-02 4.215967e+00 -1.009813e+00 2.230005e+00 -8.479108e+00 -5.413204e-01 -5.624993e+00 7.329397e+01 1.152511e+00 1.437854e-01 1.049536e-01 1.117383e+00 7.251702e-01 1.887296e-01 -6.461869e-01 -3.157601e-01 -6.949795e-01 -2.994479e-01 -1.302394e-01 -7.659367e-01 1.318363e-01 -7.472178e-02 1.446861e-02 1.152184e-02 -1.044795e-01 8.854397e-02 3.947958e-02 -1.577045e-01 -5.660798e-02 2.447309e-05 2.168679e-02 -1.256461e-02 2.230697e-02 2.002847e-02
<VARIANCE> 39
 3.279853e+01 3.930309e+01 2.028762e+01 5.996235e+01 4.180983e+01 2.112088e+01 4.990854e+01 3.819893e+01 3.670747e+01 2.495229e+01 2.236827e+01 3.168949e+01 1.657825e+01 4.668148e+00 2.786226e+00 2.081230e+00 3.673691e+00 4.415068e+00 2.249913e+00 3.619811e+00 3.433330e+00 4.906827e+00 3.584559e+00 2.735176e+00 4.414377e+00 9.970455e-01 7.842271e-01 5.345950e-01 3.623940e-01 5.288076e-01 6.681312e-01 4.302509e-01 7.240700e-01 6.674649e-01 7.413458e-01 7.219493e-01 4.966472e-01 8.738257e-01 1.739115e-01
<GCONST> 1.235372e+02
<TRANSP> 5
 0.000000e+00 1.000000e+00 0.000000e+00 0.000000e+00 0.000000e+00
 0.000000e+00 8.198287e-01 1.801713e-01 0.000000e+00 0.000000e+00
 0.000000e+00 0.000000e+00 8.643061e-01 1.356939e-01 0.000000e+00
 0.000000e+00 0.000000e+00 0.000000e+00 8.439634e-01 1.560366e-01
 0.000000e+00 0.000000e+00 0.000000e+00 0.000000e+00 0.000000e+00
<ENDHMM>
~h "r"
<BEGINHMM>
<NUMSTATES> 5
<STATE> 2
<MEAN> 39
 -6.863389e+00 2.834992e+00 3.789584e-01 -1.413007e+00 5.885742e+00 7.046371e-02 2.527494e+00 -1.962458e+00 -3.905238e+00 -1.315362e+01 -4.503758e-01 -3.152838e+00 7.173641e+01 -1.510787e-01 2.530501e-01 -1.733036e-01 -1.593393e-01 2.615668e-01 2.817251e-01 3.055797e-02 -1.504052e-01 7.349510e-02 -4.858719e-03 -8.963085e-02 1.894731e-01 -2.660145e-01 -1.342579e-01 -1.096488e-01 8.217464e-02 -3.957662e-02 -1.490397e-01 -3.990651e-02 -6.789819e-04 1.727748e-02 9.004840e-02 1.560778e-01 8.416642e-02 5.995892e-03 6.195583e-02
<VARIANCE> 39
 1.326927e+01 1.815609e+01 1.334359e+01 2.218895e+01 2.404379e+01 2.535480e+01 2.031489e+01 1.763947e+01 3.687200e+01 4.113520e+01 2.506034e+01 2.254787e+01 1.463367e+01 1.378934e+00 2.234379e+00 1.134259e+00 1.191146e+00 1.809263e+00 2.704862e+00 1.648583e+00 1.735279e+00 2.530492e+00 2.771641e+00 2.411576e+00 1.915324e+00 1.436808e+00 1.370166e-01 3.711726e-01 2.489408e-01 2.341120e-01 3.356872e-01 5.375583e-01 2.906810e-01 3.918479e-01 4.215283e-01 4.979255e-01 3.491881e-01 2.681446e-01 2.364441e-01
<GCONST> 1.043193e+02
<STATE> 3
<MEAN> 39
 -1.066849e+01 2.243778e+00 4.136301e-01 -3.008096e+00 4.877071e+00 1.234676e+00 2.540258e+00 -2.143597e+00 -1.652349e+00 -9.939238e+00 6.431311e-01 -2.042521e+00 7.053939e+01 -1.016976e+00 -7.468405e-01 6.947511e-01 -2.467278e-01 -4.574632e-01 6.994542e-03 -1.485822e-01 3.850226e-01 9.272359e-02 3.544058e-01 2.556463e-01 1.882916e-01 5.203405e-01 3.009024e-03 -1.116443e-01 1.583335e-01 1.294172e-01 1.279284e-02 -9.606657e-02 -1.755434e-03 2.656495e-02 -6.996914e-02 5.600607e-02 -7.590186e-03 -1.210250e-01 1.125487e-01
<VARIANCE> 39
 3.715553e+01 1.968733e+01 2.033442e+01 1.634041e+01 2.387337e+01 1.974178e+01 1.648112e+01 1.643609e+01 3.781395e+01 4.374660e+01 2.478948e+01 1.977615e+01 1.668345e+01 1.931977e+00 2.087802e+00 1.463960e+00 1.232171e+00 1.321778e+00 2.048697e+00 1.732053e+00 1.630971e+00 2.943524e+00 2.032328e+00 1.883898e+00 1.835748e+00 1.244534e+00 1.810849e-01 3.161340e-01 3.190486e-01 2.261760e-01 3.691053e-01 3.970441e-01 2.729477e-01 3.425573e-01 4.517445e-01 4.342024e-01 4.139059e-01 3.684311e-01 2.049934e-01
<GCONST> 1.046497e+02
<STATE> 4
<MEAN> 39
 -1.505850e+01 -1.900611e+00 3.261515e+00 -2.998829e+00 4.070061e+00 -9.435426e-02 2.571879e+00 -3.345314e-01 -1.329896e+00 -8.828539e+00 1.121105e+00 -2.340228e+00 7.240610e+01 -2.389628e-01 -6.072513e-01 3.715210e-01 3.386036e-01 4.374431e-02 -2.747612e-02 8.094506e-02 -1.205121e-01 5.190805e-02 2.881980e-01 4.249703e-01 -1.586083e-01 1.457667e-01 2.456811e-01 1.288727e-01 -6.128145e-02 1.405258e-01 4.542917e-02 5.571784e-02 7.299741e-02 -1.505021e-01 7.967474e-02 3.506456e-02 -7.874204e-03 -1.396701e-01 -1.564409e-01
<VARIANCE> 39
 5.217834e+01 3.118468e+01 2.136430e+01 1.903182e+01 2.244457e+01 2.271821e+01 1.512278e+01 1.911656e+01 4.338268e+01 5.133223e+01 2.228757e+01 2.125000e+01 1.214686e+01 1.264865e+00 1.869278e+00 1.600664e+00 1.090633e+00 1.906624e+00 2.126887e+00 1.342646e+00 1.603552e+00 2.946494e+00 2.247549e+00 1.583221e+00 1.524398e+00 8.095897e-01 2.595205e-01 2.377946e-01 2.918391e-01 1.521954e-01 2.624578e-01 3.386549e-01 2.614413e-01 2.780661e-01 7.098479e-01 5.357724e-01 4.514708e-01 3.391498e-01 1.756388e-01
<GCONST> 1.039673e+02
<TRANSP> 5
 0.000000e+00 1.000000e+00 0.000000e+00 0.000000e+00 0.000000e+00
 0.000000e+00 8.003584e-01 1.996416e-01 0.000000e+00 0.000000e+00
 0.000000e+00 0.000000e+00 5.430024e-01 4.569976e-01 0.000000e+00
 0.000000e+00 0.000000e+00 0.000000e+00 5.695457e-01 4.304543e-01
 0.000000e+00 0.000000e+00 0.000000e+00 0.000000e+00 0.000000e+00
<ENDHMM>
~h "s"
<BEGINHMM>
<NUMSTATES> 5
<STATE> 2
<MEAN> 39
 -1.810240e+01 -2.644025e+00 5.941149e+00 -3.268231e+00 4.195496e+00 3.235099e+00 8.149353e+00 -2.550636e+00 2.837986e+00 -5.561947e+00 2.795389e+00 -6.109441e-01 7.146590e+01 -1.666493e+00 -5.378458e-01 4.570660e-01 -1.235292e+00 -9.909327e-01 -4.547703e-01 1.752437e-01 3.302873e-02 5.825586e-01 6.158855e-01 -1.137815e-01 2.573136e-01 3.431655e-01 1.998694e-01 1.468196e-01 -2.207044e-01 -1.383790e-01 1.169238e-01 8.458548e-02 -2.233193e-01 -2.138698e-02 -1.269542e-01 -9.630685e-02 -1.726924e-02 -1.870631e-01 -1.209924e-01
<VARIANCE> 39
 3.355703e+01 1.210477e+01 5.280766e+01 3.624054e+01 1.399481e+01 2.410593e+01 2.551602e+01 3.462090e+01 2.450858e+01 1.910626e+01 1.985232e+01 1.517127e+01 8.930227e+01 2.121886e+00 6.428112e-01 1.328037e+00 1.171776e+00 1.315443e+00 1.286692e+00 1.200802e+00 1.482182e+00 1.597201e+00 1.722035e+00 1.093940e+00 1.501393e+00 3.850679e-01 2.393367e-01 1.059903e-01 1.278476e-01 1.755386e-01 1.584034e-01 2.754464e-01 2.263222e-01 2.050118e-01 2.313858e-01 3.019637e-01 1.735856e-01 1.632156e-01 6.050169e-02
<GCONST> 9.390004e+01
<STATE> 3
<MEAN> 39
 -2.124549e+01 -7.155559e+00 4.538608e+00 -6.913157e+00 1.652757e+00 1.458550e+00 8.403123e+00 -5.872415e-01 1.844055e+00 -4.792721e+00 2.459810e+00 -1.771281e-02 7.214265e+01 -1.492460e-01 -6.715332e-02 -3.403428e-01 -3.467636e-01 -1.400610e-01 -1.066807e-01 -4.269642e-02 5.034308e-02 1.261269e-01 2.275263e-01 1.269466e-01 -3.871099e-02 -1.678404e-01 1.752785e-01 8.840042e-02 -6.230414e-02 1.424916e-01 7.942397e-02 4.185842e-02 3.154541e-02 -1.048966e-02 -3.993022e-02 1.139101e-03 4.858933e-02 1.097869e-02 -6.046690e-02
<VARIANCE> 39
 3.845218e+01 2.295747e+01 6.426435e+01 2.290436e+01 8.850200e+00 1.482004e+01 1.821770e+01 1.948242e+01 2.678944e+01 2.324377e+01 1.352460e+01 1.003357e+01 5.258168e+01 4.019211e-01 4.605660e-01 5.246733e-01 7.699589e-01 4.124289e-01 6.524265e-01 6.710703e-01 9.260656e-01 1.028195e+00 1.061610e+00 6.821927e-01 5.576674e-01 1.473039e-01 7.279192e-02 6.511765e-02 1.195561e-01 1.126344e-01 9.963483e-02 1.352953e-01 1.175107e-01 2.164143e-01 2.261898e-01 1.666619e-01 1.425716e-01 1.155629e-01 2.463675e-02
<GCONST> 7.590887e+01
<STATE> 4
<MEAN> 39
 -1.642922e+01 5.697710e-01 -6.060463e+00 -5.164146e+00 2.183912e+00 1.572618e+00 7.215204e+00 7.731051e-01 7.692478e+00 -5.559085e-01 4.771216e+00 -1.284953e+00 6.472542e+01 8.677689e-03 7.499072e-02 -2.136484e-02 -2.807171e-02 -1.060578e-03 3.250042e-02 5.053321e-02 3.524113e-03 1.538231e-02 1.005944e-01 5.597045e-02 -3.569675e-02 -5.006009e-02 2.399772e-02 -5.368554e-03 1.906069e-02 2.946177e-02 6.202666e-03 -4.602931e-03 -1.363617e-02 -3.481707e-03 -1.466189e-02 -2.339655e-02 -1.559677e-02 -1.277523e-02 7.312618e-03
<VARIANCE> 39
 1.033815e+01 8.876431e+00 1.370762e+01 8.233312e+00 5.454971e+00 6.509880e+00 8.903772e+00 8.159547e+00 9.207388e+00 1.048571e+01 7.697439e+00 1.003529e+01 1.833140e+01 2.073396e-01 2.187576e-01 3.625832e-01 4.402059e-01 4.665172e-01 5.145746e-01 7.028237e-01 6.940437e-01 7.763938e-01 8.044960e-01 7.395306e-01 8.306351e-01 1.112500e-01 3.703050e-02 4.227226e-02 6.962233e-02 9.022431e-02 9.642545e-02 1.028099e-01 1.508058e-01 1.483114e-01 1.605090e-01 1.624044e-01 1.399210e-01 1.681027e-01 1.712830e-02
<GCONST> 5.896910e+01
<TRANSP> 5
 0.000000e+00 1.000000e+00 0.000000e+00 0.000000e+00 0.000000e+00
 0.000000e+00 5.784799e-01 4.215201e-01 0.000000e+00 0.000000e+00
 0.000000e+00 0.000000e+00 7.733785e-01 2.266215e-01 0.000000e+00
 0.000000e+00 0.000000e+00 0.000000e+00 9.368956e-01 6.310435e-02
 0.000000e+00 0.000000e+00 0.000000e+00 0.000000e+00 0.000000e+00
<ENDHMM>
~h "t"
<BEGINHMM>
<NUMSTATES> 5
<STATE> 2
<MEAN> 39
 -1.303099e+01 9.304856e-01 -5.034318e+00 -4.543051e+00 1.852153e+00 6.802601e-03 6.698628e+00 7.812253e-02 5.619596e+00 -2.562244e+00 4.058970e+00 -2.099325e+00 6.686651e+01 7.262877e-02 7.682186e-03 -1.276689e-01 -4.698715e-02 -1.200178e-01 -4.837282e-02 1.154758e-01 -1.153280e-01 -1.283111e-01 -3.067723e-02 1.519685e-01 8.293761e-02 9.317117e-02 -3.425990e-02 -1.579066e-02 4.117137e-02 2.085109e-02 -9.772221e-03 3.116196e-02 -5.582678e-02 -3.875720e-02 -2.828058e-02 -3.964236e-02 -4.146838e-03 1.331498e-02 3.441939e-02
<VARIANCE> 39
 9.813175e+00 1.021889e+01 1.925059e+01 1.271504e+01 1.078880e+01 9.095468e+00 1.253180e+01 1.446589e+01 3.121416e+01 2.355773e+01 9.083949e+00 8.330025e+00 4.008395e+01 3.458012e-01 3.004829e-01 4.165394e-01 5.239592e-01 5.784307e-01 6.447403e-01 7.378861e-01 9.398958e-01 9.186158e-01 1.110833e+00 8.418773e-01 7.167353e-01 4.339394e-01 5.854119e-02 7.241908e-02 8.093505e-02 8.314031e-02 1.009739e-01 1.155633e-01 1.350926e-01 1.928633e-01 1.875179e-01 2.220960e-01 1.547900e-01 1.409852e-01 1.013382e-01
<GCONST> 7.187543e+01
<STATE> 3
<MEAN> 39
 -9.863451e+00 3.698444e-01 -6.277297e-01 -2.294940e+00 3.618064e+00 -5.181378e-01 6.119293e+00 -4.381825e+00 -2.302694e+00 -9.137545e+00 1.659465e+00 -3.198531e+00 7.598151e+01 4.909281e-01 -4.274782e-01 -1.532183e-02 -2.733750e-02 -4.503403e-01 -1.888024e-01 -8.879307e-02 -3.063835e-01 -9.459069e-01 -3.493059e-01 2.268718e-01 3.772692e-02 6.256339e-01 3.313372e-02 5.262192e-02 1.880697e-02 -9.299829e-03 1.583878e-02 2.223075e-02 3.375535e-02 8.920996e-02 7.250701e-02 6.766295e-02 -2.316212e-02 1.205336e-02 -1.092371e-01
<VARIANCE> 39
 2.088620e+01 2.930526e+01 1.978694e+01 1.374518e+01 2.561398e+01 2.518102e+01 2.916511e+01 3.014821e+01 5.615430e+01 2.569410e+01 1.598458e+01 1.626073e+01 4.077618e+01 1.797119e+00 1.693254e+00 1.471604e+00 1.257775e+00 1.537660e+00 1.538419e+00 1.811220e+00 2.196639e+00 3.424938e+00 2.305244e+00 1.348867e+00 1.412009e+00 1.959006e+00 3.562806e-01 2.926993e-01 2.809158e-01 1.816413e-01 3.326827e-01 2.797720e-01 3.295932e-01 4.006134e-01 5.850835e-01 4.588983e-01 2.168037e-01 2.692509e-01 3.338341e-01
<GCONST> 1.059564e+02
<STATE> 4
<MEAN> 39
 -6.397050e+00 -3.822035e-01 -1.703134e+00 -3.485804e+00 2.623109e+00 -1.156444e+00 5.127504e+00 -6.136363e+00 -5.729834e+00 -1.120618e+01 2.623358e+00 -2.718671e+00 7.747888e+01 -6.136114e-02 1.788236e-01 -2.749362e-02 5.601839e-02 4.904730e-02 9.335537e-02 -2.967171e-02 6.993826e-02 1.843625e-01 6.098242e-02 -3.009847e-02 2.344741e-02 -2.924407e-01 -3.405381e-02 -1.063433e-03 1.288913e-02 2.662278e-02 4.440094e-02 1.224773e-02 -3.448341e-03 4.472401e-02 5.871460e-02 4.071328e-03 -4.198141e-02 -2.599148e-02 -3.658905e-03
<VARIANCE> 39
 1.311464e+01 2.123602e+01 1.463121e+01 2.155597e+01 2.405381e+01 1.719980e+01 2.648886e+01 2.667976e+01 3.021612e+01 2.289556e+01 2.545934e+01 2.116267e+01 3.371053e+01 7.155023e-01 9.891226e-01 8.900809e-01 1.324282e+00 1.270937e+00 1.484715e+00 1.589519e+00 1.432609e+00 1.922102e+00 1.589683e+00 1.164489e+00 1.027595e+00 1.222482e+00 1.113222e-01 1.885263e-01 1.534933e-01 2.135241e-01 2.267641e-01 3.057172e-01 2.587814e-01 2.831403e-01 3.392490e-01 2.969775e-01 2.299927e-01 1.839875e-01 1.928596e-01
<GCONST> 9.509870e+01
<TRANSP> 5
 0.000000e+00 1.000000e+00 0.000000e+00 0.000000e+00 0.000000e+00
 0.000000e+00 7.874488e-01 2.125512e-01 0.000000e+00 0.000000e+00
 0.000000e+00 0.000000e+00 6.812876e-01 3.187124e-01 0.000000e+00
 0.000000e+00 0.000000e+00 0.000000e+00 9.088578e-01 9.114221e-02
 0.000000e+00 0.000000e+00 0.000000e+00 0.000000e+00 0.000000e+00
<ENDHMM>
~h "u"
<BEGINHMM>
<NUMSTATES> 5
<STATE> 2
<MEAN> 39
 -6.770006e+00 1.557323e+00 3.523135e+00 3.543885e+00 8.454281e+00 -2.173742e+00 -4.969407e+00 -4.505493e+00 4.891788e-01 -1.008924e+01 -4.669414e+00 -7.195460e+00 7.186294e+01 -8.530448e-02 -3.740353e-01 1.249439e-01 1.233808e-01 -7.714821e-02 -3.247511e-01 6.490421e-02 -7.650978e-02 -1.114030e-01 -4.547502e-01 -2.816368e-01 3.552473e-01 3.512678e-01 -7.542561e-02 -1.525941e-02 -7.523946e-02 -6.368303e-02 -6.025139e-02 -3.983629e-02 1.259979e-01 1.666362e-02 8.606438e-02 1.435188e-01 4.535190e-02 5.880840e-02 -3.353630e-02
<VARIANCE> 39
 1.838260e+01 4.021203e+01 8.529999e+00 5.364621e+01 6.173787e+01 2.055324e+01 2.215489e+01 2.000329e+01 1.772826e+01 1.982664e+01 1.549563e+01 3.376515e+01 4.529095e+00 1.578176e+00 2.665679e+00 1.113034e+00 3.794075e+00 3.137916e+00 2.367910e+00 2.124393e+00 1.379945e+00 4.435163e+00 3.308741e+00 2.081035e+00 2.633281e+00 8.779016e-01 2.331799e-01 2.293451e-01 1.813442e-01 4.823811e-01 2.959222e-01 4.818016e-01 3.032432e-01 2.010564e-01 5.650945e-01 5.451347e-01 4.571953e-01 4.375289e-01 7.177309e-02
<GCONST> 1.059656e+02
<STATE> 3
<MEAN> 39
 -1.151132e+01 -1.916924e+00 2.655219e+00 -3.100395e+00 2.826372e+00 -4.074375e+00 -1.139194e-02 -1.435274e+00 2.601513e+00 -7.895157e+00 -2.969576e+00 -2.451861e+00 7.380131e+01 2.001525e-01 6.253259e-01 1.079963e-01 -1.309175e-01 -1.302601e-01 -1.553127e-01 -1.317121e-01 -1.181140e-01 2.768075e-01 5.308037e-01 4.794041e-02 -2.326588e-01 -1.570380e-01 -7.987272e-04 7.353550e-02 -3.578870e-02 -4.382667e-02 -1.342027e-02 8.483551e-02 -4.417145e-02 -3.494260e-02 1.123150e-02 -1.023643e-02 2.337337e-02 3.671467e-02 -7.781003e-02
<VARIANCE> 39
 3.243041e+01 6.123770e+01 2.211384e+01 4.251973e+01 1.203212e+01 2.484523e+01 1.502252e+01 1.646799e+01 3.446348e+01 2.398828e+01 1.070285e+01 1.652751e+01 1.344998e+01 3.894346e+00 2.993954e+00 1.798594e+00 3.039036e+00 7.733981e-01 3.009529e+00 2.008347e+00 2.059582e+00 3.618114e+00 2.411633e+00 5.642552e-01 2.081912e+00 8.847216e-01 5.574002e-01 4.074802e-01 3.441750e-01 3.668338e-01 1.372431e-01 5.199249e-01 4.369493e-01 3.924690e-01 6.468770e-01 5.125982e-01 9.694402e-02 4.662501e-01 1.438294e-01
<GCONST> 1.063499e+02
<STATE> 4
<MEAN> 39
 -7.040974e+00 5.334747e+00 1.507960e+00 -1.309191e+00 2.624087e+00 -3.879992e+00 8.518812e-01 -1.350256e+00 5.292394e+00 -5.717758e+00 7.190919e-01 -2.760045e+00 6.965885e+01 -9.871288e-02 -3.249649e-01 -3.430788e-01 -5.525237e-02 7.632168e-02 4.982158e-01 2.471895e-01 1.215627e-01 -1.583870e-02 -1.661076e-01 1.914497e-01 1.100391e-03 -1.097865e-01 -1.204062e-02 -6.703145e-02 7.281906e-03 -2.078118e-02 1.243080e-02 2.495812e-02 9.085468e-02 -2.695865e-02 -5.895602e-02 2.849227e-02 1.284485e-03 -4.335276e-02 2.296568e-02
<VARIANCE> 39
 1.419126e+01 9.022611e+01 3.690029e+01 2.903154e+01 3.258963e+01 5.117388e+01 3.764465e+01 2.223869e+01 1.157809e+01 3.889602e+01 1.825674e+01 1.101640e+01 5.362066e+00 4.150149e-01 1.519445e+00 1.341269e+00 8.620296e-01 1.230026e+00 3.844816e+00 3.077386e+00 1.488808e+00 1.311996e+00 3.098383e+00 1.673213e+00 1.948146e+00 3.601814e-01 7.919619e-02 1.596146e-01 2.447496e-01 1.917009e-01 2.058503e-01 5.412701e-01 5.326994e-01 2.775611e-01 2.634206e-01 5.513579e-01 3.728204e-01 3.613756e-01 3.161463e-02
<GCONST> 9.844996e+01
<TRANSP> 5
 0.000000e+00 1.000000e+00 0.000000e+00 0.000000e+00 0.000000e+00
 0.000000e+00 9.031541e-01 9.684598e-02 0.000000e+00 0.000000e+00
 0.000000e+00 0.000000e+00 9.356687e-01 6.433132e-02 0.000000e+00
 0.000000e+00 0.000000e+00 0.000000e+00 9.432219e-01 5.677807e-02
 0.000000e+00 0.000000e+00 0.000000e+00 0.000000e+00 0.000000e+00
<ENDHMM>
~h "w"
<BEGINHMM>
<NUMSTATES> 5
<STATE> 2
<MEAN> 39
 -8.517336e+00 5.845611e+00 1.433446e+00 -1.026510e+00 5.579239e+00 -1.268055e+00 2.015641e+00 -2.739223e+00 1.843595e+00 -8.356909e+00 -1.873777e+00 -5.984913e+00 7.121466e+01 -4.016337e-03 2.406733e-01 2.978053e-01 -1.573218e-03 -2.944936e-01 -4.354970e-01 -2.781087e-01 1.499598e-01 3.237211e-01 -6.932458e-02 -3.627204e-01 -9.170721e-03 2.689457e-01 -2.209115e-01 -2.058673e-01 4.520836e-02 -3.636239e-02 -3.135028e-02 -4.879354e-02 -2.763813e-02 4.500842e-02 -8.052895e-03 2.096650e-02 7.151437e-02 1.141786e-01 1.289929e-01
<VARIANCE> 39
 2.387344e+01 2.894372e+01 1.640421e+01 2.179018e+01 3.219672e+01 3.289125e+01 2.602395e+01 2.470794e+01 4.064643e+01 3.188150e+01 1.855737e+01 3.265068e+01 2.327178e+01 2.893152e+00 2.762246e+00 1.517932e+00 1.740438e+00 1.951469e+00 2.546208e+00 2.834927e+00 2.117203e+00 2.614266e+00 2.854010e+00 1.450227e+00 2.535507e+00 1.213315e+00 2.771810e-01 3.445194e-01 2.567086e-01 2.635134e-01 2.760424e-01 3.685303e-01 3.872041e-01 3.324169e-01 4.165794e-01 4.493497e-01 2.968453e-01 4.400295e-01 1.825365e-01
<GCONST> 1.094072e+02
<STATE> 3
<MEAN> 39
 -1.253663e+01 3.830867e+00 3.042395e+00 -3.250886e+00 4.059381e+00 -2.002494e+00 1.328865e+00 -7.404687e-01 4.757512e+00 -6.765235e+00 -1.242900e+00 -4.682241e+00 7.195021e+01 -4.561838e-01 -6.438156e-01 1.821076e-01 -9.275003e-02 -8.861287e-02 7.549544e-02 -8.221762e-02 6.052945e-02 -1.246749e-01 -6.525009e-02 1.017470e-01 1.957795e-01 3.313718e-01 1.153711e-01 9.315071e-03 -1.907142e-02 3.831492e-02 3.494700e-02 3.371526e-02 1.200830e-01 -1.570141e-01 -1.725375e-01 -1.806130e-02 8.690676e-02 1.547717e-02 -4.322973e-02
<VARIANCE> 39
 4.378333e+01 4.307922e+01 1.975349e+01 4.120883e+01 3.945712e+01 2.913534e+01 2.799729e+01 3.188731e+01 3.179508e+01 3.269321e+01 1.659027e+01 2.435437e+01 1.570382e+01 3.797048e+00 2.649285e+00 1.905692e+00 3.041358e+00 2.086664e+00 2.587641e+00 3.190039e+00 3.418116e+00 2.625950e+00 2.173763e+00 1.058383e+00 1.878690e+00 9.072478e-01 4.714863e-01 4.832842e-01 3.615499e-01 4.500913e-01 3.586670e-01 4.372545e-01 4.421659e-01 6.474153e-01 4.588610e-01 4.120753e-01 2.185283e-01 3.382272e-01 1.692048e-01
<GCONST> 1.134927e+02
<STATE> 4
<MEAN> 39
 -9.488832e+00 2.839603e+00 2.822286e+00 -8.561035e-02 4.939033e+00 -2.758753e+00 1.974312e+00 -2.650959e+00 1.080721e+00 -7.890191e+00 -4.588288e-01 -5.324827e+00 7.212698e+01 -1.005358e-01 -1.370345e-01 -2.268318e-02 6.275442e-03 1.207594e-01 1.538574e-01 1.093692e-01 -8.572029e-02 -8.883923e-02 -2.819208e-03 6.564452e-02 8.494288e-02 -1.994481e-02 1.124290e-03 -8.776502e-03 -5.607962e-03 8.797843e-03 1.929004e-02 2.327240e-02 4.006846e-02 1.515996e-02 -3.646475e-03 -1.803446e-03 -1.678629e-02 -9.880934e-03 -9.689914e-03
<VARIANCE> 39
 5.987259e+01 3.869613e+01 2.236187e+01 4.930980e+01 5.832799e+01 4.580383e+01 4.058345e+01 2.335304e+01 3.772325e+01 2.868450e+01 1.853501e+01 2.629737e+01 1.106889e+01 1.485613e+00 1.234398e+00 1.023741e+00 1.528363e+00 1.707480e+00 1.492285e+00 1.596204e+00 1.463421e+00 1.715371e+00 1.790509e+00 1.169668e+00 1.619096e+00 6.349223e-01 1.731574e-01 1.779493e-01 1.715692e-01 1.771776e-01 2.388467e-01 2.142361e-01 2.531708e-01 2.541589e-01 3.005900e-01 3.278460e-01 1.967741e-01 2.912297e-01 1.001460e-01
<GCONST> 1.007324e+02
<TRANSP> 5
 0.000000e+00 1.000000e+00 0.000000e+00 0.000000e+00 0.000000e+00
 0.000000e+00 6.241646e-01 3.758354e-01 0.000000e+00 0.000000e+00
 0.000000e+00 0.000000e+00 6.211262e-01 3.788738e-01 0.000000e+00
 0.000000e+00 0.000000e+00 0.000000e+00 9.086735e-01 9.132656e-02
 0.000000e+00 0.000000e+00 0.000000e+00 0.000000e+00 0.000000e+00
<ENDHMM>
~h "y"
<BEGINHMM>
<NUMSTATES> 5
<STATE> 2
<MEAN> 39
 -1.258453e+01 -1.282501e+00 4.079731e+00 2.026276e+00 8.024398e+00 2.182163e+00 8.549969e-01 -3.074466e+00 1.576194e-01 -9.120493e+00 6.723990e-02 -4.478104e+00 7.261650e+01 8.491805e-02 -1.119895e-01 3.155951e-01 3.537732e-01 3.723083e-01 1.113922e-01 -4.943107e-01 -2.170570e-01 -1.282009e-01 -2.058227e-01 -1.676004e-01 -1.754697e-01 2.636352e-01 1.152568e-02 -2.720845e-02 -8.165026e-02 -1.533768e-02 -6.465038e-02 -6.644039e-02 -1.517616e-03 -6.143781e-02 -2.498630e-02 4.339494e-03 9.993813e-03 2.790315e-02 1.499884e-02
<VARIANCE> 39
 4.047339e+01 3.818695e+01 2.278160e+01 4.514056e+01 5.073370e+01 2.555338e+01 3.563078e+01 2.600563e+01 3.965168e+01 2.918238e+01 1.602143e+01 3.212901e+01 2.537556e+01 4.109280e+00 3.611346e+00 2.004505e+00 2.983382e+00 2.894844e+00 2.026702e+00 3.525000e+00 2.246029e+00 2.710993e+00 2.175240e+00 1.804167e+00 3.096490e+00 1.099435e+00 5.343379e-01 5.876113e-01 3.720599e-01 3.949210e-01 4.139681e-01 3.885914e-01 5.541824e-01 3.981260e-01 4.201741e-01 4.089074e-01 3.200904e-01 5.376763e-01 2.540843e-01
<GCONST> 1.170942e+02
<STATE> 3
<MEAN> 39
