~o
<STREAMINFO> 1 39
<VECSIZE> 39<NULLD><MFCC_D_A_0><DIAGC>
~s "silst"
<MEAN> 39
 -1.662631e+01 -1.043777e+00 -2.120219e+00 -4.288342e+00 1.993340e+00 8.168309e-01 7.252687e+00 1.369800e+00 5.872422e+00 -3.891798e+00 2.692722e+00 -5.789444e-01 6.848294e+01 -5.176845e-02 -7.167765e-02 -9.594126e-02 -8.955794e-02 -5.498655e-02 -4.511668e-02 5.023360e-02 9.683041e-02 1.111941e-01 8.956191e-02 9.999208e-02 8.429646e-02 -6.339233e-02 8.475175e-02 3.204577e-02 5.863423e-03 3.540744e-02 3.513587e-02 1.128202e-02 -1.818997e-02 -3.670235e-02 -7.216091e-02 -4.246374e-02 1.362927e-03 -5.645882e-02 -6.783779e-03
<VARIANCE> 39
 2.461144e+01 3.026248e+01 3.348627e+01 1.820130e+01 1.360734e+01 1.915094e+01 1.394130e+01 1.950952e+01 2.828908e+01 2.499897e+01 1.401331e+01 1.693346e+01 1.589024e+01 1.342046e+00 1.080096e+00 1.088350e+00 1.000018e+00 9.749221e-01 1.337605e+00 1.083619e+00 1.191334e+00 1.585137e+00 1.421017e+00 1.260810e+00 1.284754e+00 6.248326e-01 2.139335e-01 1.763655e-01 1.804348e-01 1.653488e-01 1.667616e-01 2.578981e-01 2.105857e-01 2.347683e-01 3.096095e-01 2.615145e-01 2.479564e-01 2.573942e-01 1.102591e-01
<GCONST> 9.205582e+01
~h "A"
<BEGINHMM>
<NUMSTATES> 5
<STATE> 2
<MEAN> 39
 -9.166224e+00 1.295857e+00 1.358223e+00 -8.433208e-01 5.256259e+00 5.311767e-01 4.084539e+00 -2.450985e+00 -2.137313e+00 -1.021309e+01 5.465024e-01 -3.567055e+00 7.316299e+01 5.900501e-01 -4.702991e-02 6.376437e-02 6.951271e-02 -2.248307e-03 -2.653192e-01 -2.912090e-01 -2.624913e-01 -7.779585e-01 -6.763454e-01 8.129945e-02 1.505241e-01 5.622860e-01 -6.439424e-02 -6.163306e-02 -5.361776e-02 -2.119615e-02 -4.998942e-02 -8.944690e-02 -9.665122e-03 -6.656537e-02 4.867212e-02 8.897080e-02 9.626971e-02 8.577035e-02 -2.915713e-02
<VARIANCE> 39
 2.418483e+01 2.577011e+01 1.947338e+01 2.469307e+01 3.636154e+01 3.540636e+01 2.346773e+01 2.393512e+01 4.296255e+01 3.945344e+01 2.352515e+01 2.647359e+01 2.103734e+01 2.326725e+00 2.822992e+00 1.595930e+00 2.232804e+00 2.010038e+00 2.844340e+00 1.925721e+00 2.085368e+00 3.284629e+00 2.824557e+00 1.954956e+00 2.484679e+00 1.385009e+00 3.143416e-01 3.664790e-01 2.642297e-01 3.287307e-01 2.985799e-01 4.894365e-01 3.288194e-01 3.354320e-01 5.250202e-01 5.316604e-01 3.018753e-01 3.834800e-01 2.130256e-01
<GCONST> 1.114046e+02
<STATE> 3
<MEAN> 39
 -7.168810e+00 3.475939e-01 7.844101e-01 -1.135259e+00 4.735400e+00 -1.172825e+00 2.868639e+00 -2.661195e+00 -4.140565e+00 -1.180118e+01 1.694672e+00 -2.754382e+00 7.471192e+01 1.443637e-01 -9.426757e-02 -2.294761e-01 -1.278770e-01 -2.850806e-01 -3.549449e-01 -6.442051e-02 -2.489815e-01 -1.939227e-01 7.934441e-02 3.341071e-01 4.704386e-01 6.487621e-02 -1.843196e-01 1.207165e-01 4.845568e-03 5.097681e-02 3.402057e-02 1.719698e-01 1.282597e-01 1.540603e-03 3.271286e-01 2.405508e-01 -8.883654e-02 -9.433334e-02 -2.456266e-01
<VARIANCE> 39
 1.781075e+01 2.008273e+01 1.846545e+01 2.867043e+01 3.978729e+01 3.676605e+01 2.809144e+01 2.556017e+01 4.725394e+01 4.486541e+01 2.634586e+01 3.162833e+01 1.938090e+01 5.601766e-01 1.367470e+00 1.108197e+00 1.292058e+00 1.420271e+00 1.715090e+00 1.699527e+00 1.276474e+00 2.138059e+00 1.584474e+00 1.534040e+00 1.223309e+00 7.422044e-01 1.585582e-01 2.578228e-01 1.977523e-01 2.509241e-01 2.837461e-01 3.469010e-01 3.070484e-01 2.312548e-01 4.199980e-01 4.240327e-01 3.013101e-01 3.470758e-01 1.236235e-01
<GCONST> 1.011131e+02
<STATE> 4
<MEAN> 39
 -5.747005e+00 -8.383816e-01 -2.035765e-01 -1.652335e+00 3.107031e+00 -2.340647e+00 3.208388e+00 -4.073101e+00 -5.792567e+00 -1.146411e+01 3.577909e+00 -1.658105e+00 7.589292e+01 -5.790323e-02 3.284780e-01 -9.292494e-03 1.934011e-01 1.008708e-01 1.183788e-01 6.030205e-02 -1.400592e-01 2.372202e-01 8.031902e-02 -1.037952e-01 -6.863041e-02 -3.591716e-01 -6.991433e-02 1.224869e-01 3.605611e-02 7.515972e-02 9.266850e-02 1.131850e-01 2.729456e-02 3.623161e-02 1.449714e-01 6.453284e-02 -1.231312e-01 -1.034210e-01 -1.308652e-01
<VARIANCE> 39
 1.253612e+01 1.766259e+01 1.681006e+01 2.510193e+01 3.675426e+01 2.744900e+01 2.638385e+01 2.689521e+01 3.919855e+01 3.270446e+01 2.748997e+01 3.191167e+01 1.476608e+01 3.201446e-01 1.020571e+00 8.162513e-01 1.008288e+00 1.122513e+00 1.299011e+00 1.307430e+00 1.010223e+00 1.424508e+00 1.445731e+00 1.227136e+00 1.167287e+00 5.721644e-01 5.071557e-02 1.453473e-01 1.288940e-01 1.521559e-01 1.689566e-01 2.118371e-01 2.118536e-01 1.800584e-01 2.485005e-01 2.579339e-01 1.961450e-01 2.130663e-01 6.833360e-02
<GCONST> 8.905033e+01
<TRANSP> 5
 0.000000e+00 1.000000e+00 0.000000e+00 0.000000e+00 0.000000e+00
 0.000000e+00 5.254597e-01 4.745404e-01 0.000000e+00 0.000000e+00
 0.000000e+00 0.000000e+00 1.266887e-01 8.733113e-01 0.000000e+00
 0.000000e+00 0.000000e+00 0.000000e+00 7.490996e-01 2.509004e-01
 0.000000e+00 0.000000e+00 0.000000e+00 0.000000e+00 0.000000e+00
<ENDHMM>
~h "D"
<BEGINHMM>
<NUMSTATES> 5
<STATE> 2
<MEAN> 39
 -1.046263e+01 1.192893e+00 6.305027e-01 -4.821957e-01 5.510118e+00 3.635251e-01 3.368382e+00 -2.087046e+00 1.058523e+00 -7.760965e+00 1.078395e+00 -3.910955e+00 7.106615e+01 -8.002754e-04 2.112335e-03 2.165078e-03 -1.564994e-03 -4.300685e-04 -6.324079e-04 -1.138046e-03 -8.787271e-04 1.271468e-03 1.846282e-03 -1.804322e-04 -1.278623e-03 8.343531e-04 -4.475967e-05 -7.284283e-05 6.230097e-05 -2.442853e-04 -2.338257e-04 -5.949535e-05 4.124621e-05 -3.071028e-04 -1.978394e-04 -1.140548e-04 -8.069598e-05 -8.477430e-05 4.232170e-05
<VARIANCE> 39
 3.765159e+01 3.402439e+01 3.148469e+01 4.143038e+01 4.410116e+01 3.300908e+01 3.624625e+01 2.761554e+01 4.947715e+01 4.012057e+01 2.551658e+01 3.113912e+01 4.344355e+01 1.430533e+00 1.639362e+00 1.207966e+00 1.426063e+00 1.597724e+00 1.687130e+00 1.852222e+00 1.504564e+00 2.150095e+00 1.829018e+00 1.449835e+00 1.662362e+00 8.789857e-01 2.020932e-01 2.530756e-01 1.999116e-01 2.097155e-01 2.506926e-01 2.923805e-01 3.142056e-01 2.754931e-01 3.601594e-01 3.260430e-01 2.625300e-01 2.975152e-01 1.394317e-01
<GCONST> 1.059066e+02
<STATE> 3
<MEAN> 39
 -1.046263e+01 1.192893e+00 6.305027e-01 -4.821957e-01 5.510118e+00 3.635251e-01 3.368382e+00 -2.087046e+00 1.058523e+00 -7.760965e+00 1.078395e+00 -3.910955e+00 7.106615e+01 -8.002754e-04 2.112335e-03 2.165078e-03 -1.564994e-03 -4.300685e-04 -6.324079e-04 -1.138046e-03 -8.787271e-04 1.271468e-03 1.846282e-03 -1.804322e-04 -1.278623e-03 8.343531e-04 -4.475967e-05 -7.284283e-05 6.230097e-05 -2.442853e-04 -2.338257e-04 -5.949535e-05 4.124621e-05 -3.071028e-04 -1.978394e-04 -1.140548e-04 -8.069598e-05 -8.477430e-05 4.232170e-05
<VARIANCE> 39
 3.765159e+01 3.402439e+01 3.148469e+01 4.143038e+01 4.410116e+01 3.300908e+01 3.624625e+01 2.761554e+01 4.947715e+01 4.012057e+01 2.551658e+01 3.113912e+01 4.344355e+01 1.430533e+00 1.639362e+00 1.207966e+00 1.426063e+00 1.597724e+00 1.687130e+00 1.852222e+00 1.504564e+00 2.150095e+00 1.829018e+00 1.449835e+00 1.662362e+00 8.789857e-01 2.020932e-01 2.530756e-01 1.999116e-01 2.097155e-01 2.506926e-01 2.923805e-01 3.142056e-01 2.754931e-01 3.601594e-01 3.260430e-01 2.625300e-01 2.975152e-01 1.394317e-01
<GCONST> 1.059066e+02
<STATE> 4
<MEAN> 39
 -1.046263e+01 1.192893e+00 6.305027e-01 -4.821957e-01 5.510118e+00 3.635251e-01 3.368382e+00 -2.087046e+00 1.058523e+00 -7.760965e+00 1.078395e+00 -3.910955e+00 7.106615e+01 -8.002754e-04 2.112335e-03 2.165078e-03 -1.564994e-03 -4.300685e-04 -6.324079e-04 -1.138046e-03 -8.787271e-04 1.271468e-03 1.846282e-03 -1.804322e-04 -1.278623e-03 8.343531e-04 -4.475967e-05 -7.284283e-05 6.230097e-05 -2.442853e-04 -2.338257e-04 -5.949535e-05 4.124621e-05 -3.071028e-04 -1.978394e-04 -1.140548e-04 -8.069598e-05 -8.477430e-05 4.232170e-05
<VARIANCE> 39
 3.765159e+01 3.402439e+01 3.148469e+01 4.143038e+01 4.410116e+01 3.300908e+01 3.624625e+01 2.761554e+01 4.947715e+01 4.012057e+01 2.551658e+01 3.113912e+01 4.344355e+01 1.430533e+00 1.639362e+00 1.207966e+00 1.426063e+00 1.597724e+00 1.687130e+00 1.852222e+00 1.504564e+00 2.150095e+00 1.829018e+00 1.449835e+00 1.662362e+00 8.789857e-01 2.020932e-01 2.530756e-01 1.999116e-01 2.097155e-01 2.506926e-01 2.923805e-01 3.142056e-01 2.754931e-01 3.601594e-01 3.260430e-01 2.625300e-01 2.975152e-01 1.394317e-01
<GCONST> 1.059066e+02
<TRANSP> 5
 0.000000e+00 1.000000e+00 0.000000e+00 0.000000e+00 0.000000e+00
 0.000000e+00 6.000000e-01 4.000000e-01 0.000000e+00 0.000000e+00
 0.000000e+00 0.000000e+00 6.000000e-01 4.000000e-01 0.000000e+00
 0.000000e+00 0.000000e+00 0.000000e+00 7.000000e-01 3.000000e-01
 0.000000e+00 0.000000e+00 0.000000e+00 0.000000e+00 0.000000e+00
<ENDHMM>
~h "E"
<BEGINHMM>
<NUMSTATES> 5
<STATE> 2
<MEAN> 39
 -5.219966e+00 -2.370926e-01 -3.883000e+00 -2.365049e+00 8.944995e-01 -4.844868e+00 7.959236e+00 2.974878e-01 -2.272743e+00 -9.683526e+00 4.410282e+00 -1.137909e+00 7.618989e+01 3.365047e-01 -2.253544e-01 -8.238109e-01 -4.482095e-01 -1.188292e+00 -8.844480e-01 4.951770e-01 3.228580e-01 5.845636e-01 6.463317e-01 5.767319e-01 -3.325330e-01 1.722006e-01 -1.247665e-01 2.083929e-02 1.443255e-01 -1.700223e-02 1.263156e-01 2.545903e-01 -2.876545e-02 2.685994e-02 1.004908e-02 4.550920e-02 -3.487856e-03 -9.027883e-02 -9.759931e-02
<VARIANCE> 39
 1.220798e+01 1.136834e+01 9.444480e+00 1.291557e+01 2.683289e+01 2.167309e+01 1.651141e+01 1.760792e+01 4.538759e+01 1.398710e+01 2.126253e+01 1.721637e+01 5.291707e+00 3.504426e-01 5.359812e-01 6.593298e-01 8.930607e-01 1.090732e+00 1.184469e+00 1.480444e+00 1.024026e+00 1.049818e+00 1.421983e+00 1.193681e+00 1.375412e+00 2.844022e-01 8.429585e-02 1.027218e-01 1.003445e-01 1.189745e-01 2.121777e-01 2.449769e-01 2.277693e-01 1.806073e-01 2.151681e-01 2.067321e-01 1.611919e-01 2.310290e-01 5.819283e-02
<GCONST> 8.101193e+01
<STATE> 3
<MEAN> 39
 -4.988999e+00 -4.762399e-01 -4.848068e+00 -4.304365e+00 -3.196041e+00 -5.921585e+00 1.114738e+01 2.662362e+00 1.899751e+00 -6.735723e+00 6.958660e+00 -3.703990e+00 7.686944e+01 -8.336249e-02 2.330378e-03 2.549089e-01 -2.497701e-01 2.231566e-01 3.260366e-01 -3.686582e-02 -2.652221e-01 -1.933965e-01 -1.455436e-01 1.938241e-01 1.606496e-01 3.891389e-02 -3.327085e-02 8.723003e-02 1.159184e-01 3.132192e-02 1.937174e-01 1.130186e-01 -1.974458e-01 -1.471286e-01 -1.011657e-01 -1.430445e-01 -1.021391e-01 8.982399e-02 -4.498684e-02
<VARIANCE> 39
 1.178470e+01 8.283124e+00 8.097404e+00 6.566137e+00 1.646148e+01 2.019636e+01 2.547219e+01 1.879708e+01 3.808799e+01 1.390691e+01 1.449608e+01 1.284724e+01 6.111174e+00 1.847644e-01 3.649565e-01 4.230252e-01 4.582824e-01 8.293452e-01 7.661654e-01 1.393792e+00 1.262572e+00 1.137807e+00 8.817263e-01 6.976566e-01 1.120914e+00 7.625477e-02 2.396460e-02 6.271824e-02 6.825364e-02 9.225196e-02 1.141543e-01 1.311182e-01 2.035956e-01 1.691870e-01 1.530064e-01 1.631348e-01 1.485767e-01 1.606072e-01 1.980701e-02
<GCONST> 6.799117e+01
<STATE> 4
<MEAN> 39
 -5.256905e+00 4.542213e+00 -2.580905e+00 -4.789021e+00 1.240742e+00 -2.930404e+00 6.608695e+00 -1.953879e+00 -1.147475e+00 -8.576436e+00 4.366669e+00 -4.499612e+00 7.321392e+01 -3.037114e-01 4.014814e-01 6.156311e-01 1.109136e-01 6.900797e-01 6.644039e-01 -6.991082e-01 -2.531778e-01 -1.987867e-01 -3.134611e-01 -6.781294e-01 -4.933892e-02 -4.597353e-01 -2.400344e-02 -8.141641e-02 1.551003e-02 2.628989e-02 -4.740736e-02 -3.122049e-02 2.850085e-03 8.747027e-02 5.224351e-02 1.515211e-02 -1.508064e-01 -5.569975e-03 -5.564821e-03
<VARIANCE> 39
 1.810892e+01 2.031472e+01 9.515054e+00 2.144952e+01 2.393289e+01 2.075047e+01 2.662242e+01 1.799011e+01 2.833821e+01 2.006341e+01 2.519691e+01 3.460759e+01 1.455667e+01 2.012054e-01 9.964045e-01 8.248022e-01 1.578084e+00 1.646416e+00 1.532795e+00 1.275374e+00 1.327777e+00 1.860741e+00 1.495035e+00 1.740767e+00 1.252858e+00 6.966011e-01 3.468728e-02 1.450096e-01 1.087873e-01 1.946262e-01 1.998438e-01 2.084935e-01 1.914617e-01 2.566945e-01 2.897816e-01 2.573551e-01 2.688412e-01 2.987235e-01 1.063362e-01
<GCONST> 8.992793e+01
<TRANSP> 5
 0.000000e+00 1.000000e+00 0.000000e+00 0.000000e+00 0.000000e+00
 0.000000e+00 7.675114e-01 2.324886e-01 0.000000e+00 0.000000e+00
 0.000000e+00 0.000000e+00 8.702341e-01 1.297659e-01 0.000000e+00
 0.000000e+00 0.000000e+00 0.000000e+00 7.352496e-01 2.647504e-01
 0.000000e+00 0.000000e+00 0.000000e+00 0.000000e+00 0.000000e+00
<ENDHMM>
~h "H"
<BEGINHMM>
<NUMSTATES> 5
<STATE> 2
<MEAN> 39
 -5.722970e+00 2.920662e+00 -9.085627e-01 -5.204959e+00 2.249393e+00 -2.801747e+00 5.761260e+00 -3.259938e+00 -2.746935e+00 -7.241033e+00 2.631035e+00 -3.364910e+00 7.473066e+01 -6.981334e-02 -1.270187e+00 -9.659666e-01 -7.728647e-01 -7.112426e-01 2.074602e-01 1.278957e+00 2.031762e-01 6.740875e-02 1.012854e+00 1.358080e+00 9.588845e-01 3.972247e-01 -2.775563e-01 -2.162892e-01 -1.430985e-01 3.151914e-01 3.602056e-01 2.688202e-01 -1.126583e-01 7.947998e-02 2.528471e-01 -4.190897e-02 4.148474e-02 1.250317e-01 -2.009542e-01
<VARIANCE> 39
 8.058267e+00 2.683954e+01 1.891271e+01 1.549346e+01 2.043642e+01 2.592888e+01 4.254569e+01 2.049428e+01 6.241668e+01 2.450557e+01 3.347883e+01 1.315212e+01 1.294584e+01 6.878214e-01 1.320900e+00 1.074282e+00 1.688725e+00 1.498669e+00 2.095714e+00 3.542149e+00 1.258543e+00 3.142862e+00 1.931892e+00 1.291288e+00 1.592171e+00 8.860490e-01 1.631961e-01 1.877281e-01 2.751686e-01 2.777694e-01 2.261266e-01 3.435652e-01 9.948671e-01 2.262583e-01 5.724635e-01 5.222234e-01 3.003888e-01 3.094654e-01 1.278500e-01
<GCONST> 1.015576e+02
<STATE> 3
<MEAN> 39
 -8.522323e+00 -3.976043e+00 -5.398306e+00 -5.358063e+00 4.204888e+00 -1.910858e-02 6.618773e+00 -1.932846e+00 -2.018247e+00 -5.892803e+00 7.524663e+00 8.976772e-01 7.466544e+01 -5.512130e-01 -1.458636e+00 -1.274005e+00 -7.852145e-02 4.834419e-01 3.866755e-01 -9.621112e-01 -1.051951e-02 6.407147e-02 -4.102409e-01 2.527270e-01 7.375740e-01 -1.878561e-01 7.376641e-03 9.916810e-02 8.007561e-02 -1.466742e-02 -4.690620e-02 -8.677823e-02 -2.222687e-01 -1.695511e-01 -1.544681e-01 -1.432576e-01 -1.866390e-01 -1.013824e-01 -1.772197e-02
<VARIANCE> 39
 1.134941e+01 2.789785e+01 1.910857e+01 7.975638e+00 1.706860e+01 1.992562e+01 2.341629e+01 3.000507e+01 4.487333e+01 2.449133e+01 1.879389e+01 1.365627e+01 4.468501e+00 5.404122e-01 1.332857e+00 8.169495e-01 6.400292e-01 1.108029e+00 1.824396e+00 2.670304e+00 9.563913e-01 2.014649e+00 1.928178e+00 1.930871e+00 7.650556e-01 3.171578e-01 5.930972e-02 1.922948e-01 1.376953e-01 1.324600e-01 1.666581e-01 2.968869e-01 5.961440e-01 1.863437e-01 2.104424e-01 3.478632e-01 3.304154e-01 1.406432e-01 3.919914e-02
<GCONST> 8.755214e+01
<STATE> 4
<MEAN> 39
 -1.088735e+01 -5.973528e+00 -8.881325e+00 -6.280249e+00 3.174738e+00 5.692764e-02 5.335171e+00 -1.971944e+00 9.571380e-01 -5.461659e+00 7.667757e+00 8.434802e-01 7.137960e+01 -1.870370e-01 4.200626e-01 2.201224e-01 1.336219e-01 -5.646348e-02 9.892382e-02 6.374218e-02 -5.474255e-02 3.296250e-01 3.851669e-01 -1.781836e-01 -1.523838e-01 -4.580160e-01 2.049499e-02 1.637343e-01 1.883168e-01 8.142280e-02 2.809959e-02 -1.027292e-02 9.837324e-02 2.680347e-02 3.992569e-02 3.039869e-02 -7.728239e-02 -1.289199e-01 5.083574e-02
<VARIANCE> 39
 5.368619e+00 3.595144e+01 1.516391e+01 9.038668e+00 1.295237e+01 1.755827e+01 3.609431e+01 1.616788e+01 2.378023e+01 2.075140e+01 2.041569e+01 1.704457e+01 1.325990e+01 4.685985e-01 2.136724e+00 1.433001e+00 8.601345e-01 8.392548e-01 1.528805e+00 1.816917e+00 1.174011e+00 1.738567e+00 1.568573e+00 1.650315e+00 1.275571e+00 6.532928e-01 1.011766e-01 2.549519e-01 2.082452e-01 1.784765e-01 1.752263e-01 3.007887e-01 3.236242e-01 1.789706e-01 2.680889e-01 3.231655e-01 2.738436e-01 2.267626e-01 1.126853e-01
<GCONST> 9.068387e+01
<TRANSP> 5
 0.000000e+00 1.000000e+00 0.000000e+00 0.000000e+00 0.000000e+00
 0.000000e+00 6.778673e-01 3.221326e-01 0.000000e+00 0.000000e+00
 0.000000e+00 0.000000e+00 7.577288e-01 2.422713e-01 0.000000e+00
 0.000000e+00 0.000000e+00 0.000000e+00 8.974921e-01 1.025079e-01
 0.000000e+00 0.000000e+00 0.000000e+00 0.000000e+00 0.000000e+00
<ENDHMM>
~h "K"
<BEGINHMM>
<NUMSTATES> 5
<STATE> 2
<MEAN> 39
 -7.320381e+00 3.910295e+00 2.689246e+00 4.622267e+00 9.928642e+00 4.712919e+00 3.942479e+00 -3.763883e+00 -4.336113e+00 -1.441531e+01 -1.479652e+00 -3.240502e+00 7.099525e+01 -1.510519e-01 -2.226211e-02 -6.871881e-02 -3.371364e-01 -1.813684e-01 -2.342229e-01 1.968575e-01 3.303469e-01 1.327962e-02 -2.389301e-01 -5.203822e-02 3.139992e-01 1.176775e-03 -1.697752e-01 -2.240719e-01 2.212425e-02 -1.373535e-01 -1.739844e-01 1.960850e-03 5.059205e-02 5.260850e-03 1.374153e-01 1.956093e-01 1.552808e-01 -6.672102e-02 9.678462e-02
<VARIANCE> 39
 3.089255e+00 9.975079e+00 4.481482e+00 4.842350e+00 3.716243e+00 3.753074e+00 1.266996e+01 8.164558e+00 7.580168e+00 2.279261e+01 2.633841e+01 3.629285e+01 7.073503e+00 6.422412e-01 6.609936e-01 2.829642e-01 4.373244e-01 7.298940e-01 7.223862e-01 4.999490e-01 7.144078e-01 1.340131e+00 2.505231e+00 1.062540e+00 9.873744e-01 4.388700e-01 1.346410e-01 1.076954e-01 4.091052e-02 9.194119e-02 1.871515e-01 1.252367e-01 1.678526e-01 1.603681e-01 1.849851e-01 6.374161e-01 1.761289e-01 2.482105e-01 7.487007e-02
<GCONST> 7.020277e+01
<STATE> 3
<MEAN> 39
 -9.357046e+00 -1.654443e-01 2.981114e+00 -2.370449e+00 6.166207e+00 1.105437e+00 4.829473e+00 -1.623566e+00 -4.063216e+00 -1.024164e+01 3.137155e+00 -8.098963e-01 7.536701e+01 -1.232895e+00 -3.583658e-01 1.132980e-01 -1.321900e+00 -6.016117e-01 1.074687e-01 8.273641e-01 9.525156e-01 7.289066e-01 6.799570e-01 3.313819e-01 1.248271e-01 3.175475e-01 -1.613010e-01 1.501528e-01 4.884869e-03 6.842534e-02 3.778857e-02 2.008285e-01 7.278647e-02 4.240070e-02 2.008754e-01 -5.818267e-02 -2.047025e-01 -1.914842e-01 -2.020724e-01
<VARIANCE> 39
 1.852231e+01 2.769606e+01 5.802469e+00 1.602647e+01 4.296563e+00 1.617122e+01 1.584126e+01 2.360602e+01 3.779250e+01 4.393008e+01 1.798111e+01 5.856309e+00 2.246823e+01 1.578150e+00 2.193820e+00 2.597377e-01 1.062205e+00 1.298338e+00 2.044380e+00 2.957955e+00 7.629897e-01 1.924599e+00 4.524762e+00 1.537439e+00 1.190531e+00 9.860591e-01 4.051412e-01 3.086110e-01 7.125814e-02 2.016316e-01 1.722363e-01 2.282852e-01 5.392001e-01 1.522810e-01 3.143026e-01 8.686779e-01 1.754512e-01 9.998885e-02 8.410621e-02
<GCONST> 9.242326e+01
<STATE> 4
<MEAN> 39
 -1.701474e+01 -1.675427e+00 5.895622e-01 -8.253551e+00 2.447933e+00 -2.394037e-01 7.034950e+00 4.676483e+00 1.045332e+00 -1.232248e+01 1.421612e+00 -1.215735e+00 7.389390e+01 -2.738488e-01 -2.058761e-01 -3.219810e-01 -1.561595e-01 -5.618731e-01 1.199050e-02 4.511329e-01 4.581471e-01 6.919849e-01 5.632811e-01 3.374577e-01 1.004486e-01 -3.648609e-01 3.175779e-01 3.587851e-01 5.634977e-03 4.060469e-01 2.599580e-01 6.226575e-02 -2.234342e-02 -2.108666e-01 7.910834e-04 3.865949e-01 5.987545e-02 -7.213211e-02 -2.686502e-01
<VARIANCE> 39
 1.907294e+01 8.401235e+00 9.050783e+00 2.031421e+01 1.255296e+01 4.777956e+01 8.720284e+00 1.417443e+01 2.212367e+01 4.922886e+01 2.315192e+01 9.084373e+00 1.747057e+01 7.134874e-01 1.174617e+00 6.407917e-01 1.515718e+00 1.658768e+00 2.277752e+00 8.759610e-01 1.149888e+00 1.205864e+00 1.913161e+00 1.083754e+00 1.549001e+00 4.855159e-01 1.154567e-01 1.078280e-01 1.461174e-01 1.216428e-01 2.538981e-01 3.625979e-01 2.714186e-01 1.704860e-01 2.334269e-01 2.135349e-01 2.610668e-01 2.727028e-01 8.708695e-02
<GCONST> 8.818948e+01
<TRANSP> 5
 0.000000e+00 1.000000e+00 0.000000e+00 0.000000e+00 0.000000e+00
 0.000000e+00 8.019989e-01 1.980011e-01 0.000000e+00 0.000000e+00
 0.000000e+00 0.000000e+00 6.735870e-01 3.264130e-01 0.000000e+00
 0.000000e+00 0.000000e+00 0.000000e+00 7.103016e-01 2.896985e-01
 0.000000e+00 0.000000e+00 0.000000e+00 0.000000e+00 0.000000e+00
<ENDHMM>
~h "S"
<BEGINHMM>
<NUMSTATES> 5
<STATE> 2
<MEAN> 39
 -1.038665e+01 3.340344e+00 1.574474e+00 -3.003466e+00 8.097372e+00 2.088773e+00 1.659080e+00 7.487377e-01 4.692257e-01 -1.129880e+01 -4.300049e-01 2.794602e-01 7.408563e+01 -1.797055e-01 -5.157450e-02 1.924082e-01 1.365838e-02 -5.374822e-01 -4.679021e-01 3.799357e-01 1.778858e-01 1.626614e-01 1.124592e-01 -1.144539e-01 2.137212e-01 -9.102720e-03 -1.169935e-01 -6.959347e-02 3.891947e-02 -1.097702e-02 3.585867e-03 1.556377e-02 6.938362e-02 -3.139180e-02 -3.612730e-02 -3.195163e-04 1.123371e-01 3.927384e-02 1.052013e-02
<VARIANCE> 39
 4.685631e+01 2.083584e+01 7.160237e+00 1.691559e+01 3.960934e+01 3.692567e+01 4.624839e+01 2.093651e+01 2.917162e+01 3.841814e+01 3.374745e+01 3.135360e+01 1.436137e+01 2.486150e+00 1.836361e+00 6.926463e-01 1.930288e+00 3.262941e+00 4.598250e+00 3.201257e+00 1.640142e+00 2.945971e+00 2.312496e+00 1.971031e+00 2.103973e+00 1.529783e+00 3.707616e-01 3.005416e-01 1.050629e-01 2.904423e-01 3.712198e-01 8.258692e-01 4.262106e-01 3.383908e-01 4.760556e-01 4.329984e-01 3.208069e-01 3.694601e-01 2.571983e-01
<GCONST> 1.102413e+02
<STATE> 3
<MEAN> 39
 -2.048404e+01 -9.910007e-01 9.176886e+00 -7.629780e+00 3.261001e-01 -6.447461e-01 9.448606e+00 -1.719027e+00 1.181985e+00 -8.148328e+00 -6.953698e-01 -7.922089e-01 7.521217e+01 -2.194676e+00 -9.215581e-01 8.732976e-01 -8.944077e-01 -5.499789e-01 4.735417e-01 4.497179e-02 -4.948010e-01 9.175408e-02 5.996472e-01 3.399506e-01 2.166296e-01 4.935445e-01 2.590534e-01 2.432815e-02 -1.926428e-01 1.359932e-01 1.952280e-01 -3.950286e-02 -2.729160e-01 8.295940e-02 -2.493341e-02 1.723242e-02 -6.047240e-02 -9.317856e-02 -3.031487e-02
<VARIANCE> 39
 5.607045e+01 2.115530e+01 1.368901e+01 4.430061e+01 6.053034e+00 3.643277e+01 1.644483e+01 3.794409e+01 3.248309e+01 1.850033e+01 9.664220e+00 1.348537e+01 5.672221e+00 2.068754e+00 7.949051e-01 1.434376e+00 1.694514e+00 9.499044e-01 4.348675e+00 1.998466e+00 2.905531e+00 2.373235e+00 1.639169e+00 1.224617e+00 1.441913e+00 5.665501e-01 4.485960e-01 1.886137e-01 1.806236e-01 4.251776e-01 1.703317e-01 6.571014e-01 2.269031e-01 3.878408e-01 2.754308e-01 3.300816e-01 3.215450e-01 2.710619e-01 1.192857e-01
<GCONST> 9.930077e+01
<STATE> 4
<MEAN> 39
 -2.425546e+01 -5.360302e+00 9.905045e+00 -7.596893e+00 -1.894240e+00 7.629874e-01 1.017905e+01 -4.011068e-01 1.700102e+00 -3.175029e+00 1.579598e+00 -1.190276e+00 7.413313e+01 1.024370e+00 6.650682e-02 -8.576389e-01 8.601270e-01 4.276712e-01 -1.718231e-01 -1.077016e-01 2.527495e-01 2.555590e-01 -2.440843e-01 -1.114004e-01 -4.062890e-01 -4.844848e-01 2.596554e-01 1.381094e-01 -1.420994e-01 8.272495e-02 2.054759e-01 6.213077e-02 -1.348206e-01 -1.136446e-01 -7.390808e-02 -1.629671e-01 -1.107407e-01 -4.194583e-02 -3.543802e-02
<VARIANCE> 39
 3.025009e+01 1.432143e+01 1.931399e+01 3.665933e+01 1.229370e+01 1.408242e+01 1.541230e+01 2.085283e+01 2.804758e+01 2.419611e+01 8.864388e+00 1.359789e+01 1.617081e+01 1.213485e+00 1.715894e+00 1.785924e+00 1.393969e+00 1.052909e+00 1.215898e+00 1.084953e+00 1.376198e+00 2.480027e+00 3.002656e+00 1.265688e+00 1.021285e+00 6.046143e-01 1.606864e-01 2.782732e-01 3.945840e-01 1.193384e-01 1.702308e-01 2.307321e-01 2.020432e-01 3.072456e-01 5.535635e-01 5.110334e-01 2.341786e-01 2.310354e-01 1.037116e-01
<GCONST> 9.476227e+01
<TRANSP> 5
 0.000000e+00 1.000000e+00 0.000000e+00 0.000000e+00 0.000000e+00
 0.000000e+00 9.258787e-01 7.412126e-02 0.000000e+00 0.000000e+00
 0.000000e+00 0.000000e+00 8.381425e-01 1.618575e-01 0.000000e+00
 0.000000e+00 0.000000e+00 0.000000e+00 8.579686e-01 1.420314e-01
 0.000000e+00 0.000000e+00 0.000000e+00 0.000000e+00 0.000000e+00
<ENDHMM>
~h "T"
<BEGINHMM>
<NUMSTATES> 5
<STATE> 2
<MEAN> 39
 -9.259268e+00 5.099521e+00 4.250248e+00 4.058979e+00 7.904882e+00 2.800981e+00 4.915302e+00 -3.012818e+00 1.454798e+00 -6.771599e+00 -7.138637e-01 -7.377826e+00 6.966133e+01 2.049327e-01 8.331994e-02 1.004915e-01 1.703393e-01 -7.424738e-02 1.660241e-01 -1.449202e-01 -2.472578e-01 -5.887283e-02 6.773439e-02 2.616388e-02 -1.626943e-01 1.449739e-01 8.776498e-02 3.107679e-02 5.865733e-02 2.935859e-02 -3.819462e-02 -1.406718e-01 3.092192e-03 1.546358e-02 -6.462864e-02 -4.256074e-02 -7.934523e-02 -3.740742e-02 1.958379e-02
<VARIANCE> 39
 2.547443e+01 5.336032e+01 2.234910e+01 2.895782e+01 2.608177e+01 2.210076e+01 2.736879e+01 4.563906e+01 1.684608e+01 2.589968e+01 1.606136e+01 1.810379e+01 1.634225e+01 2.944046e+00 4.174627e+00 1.748640e+00 1.742607e+00 1.801936e+00 2.055770e+00 2.667620e+00 2.863404e+00 1.859774e+00 1.836657e+00 1.888136e+00 1.710253e+00 1.718616e+00 4.574493e-01 5.377633e-01 3.030836e-01 2.067956e-01 2.089543e-01 3.575620e-01 4.865873e-01 5.001991e-01 3.432084e-01 4.223384e-01 3.906409e-01 2.525583e-01 2.554825e-01
<GCONST> 1.095127e+02
<STATE> 3
<MEAN> 39
 -7.630011e+00 2.366650e+00 4.287258e+00 2.381670e+00 2.704443e+00 -2.764165e+00 4.549774e+00 -1.938625e+00 3.996361e-01 -8.402787e+00 -4.447112e+00 -9.276891e+00 7.361706e+01 6.481779e-01 3.728921e-01 6.929325e-02 -5.336520e-02 -7.555869e-01 -1.629373e+00 -1.696865e-01 7.960984e-01 4.650598e-01 -7.338748e-02 -2.223065e-01 1.179383e-01 8.538181e-02 -1.941021e-01 -1.230086e-01 -1.485507e-01 -1.356942e-01 7.632238e-02 7.491662e-02 -2.146839e-01 -1.098009e-01 9.556530e-03 -2.888489e-02 2.102593e-01 1.960926e-01 1.741933e-02
<VARIANCE> 39
 3.691758e+01 1.377552e+01 1.435003e+01 3.857831e+01 4.693211e+01 4.877100e+01 1.128619e+01 2.569238e+01 1.161505e+01 1.871387e+01 5.452342e+00 2.340811e+01 6.014190e+00 4.240310e+00 2.359484e+00 2.307192e+00 1.631902e+00 1.374466e+00 1.728993e+00 1.484183e+00 6.432062e-01 9.191285e-01 2.260688e+00 1.091692e+00 1.231653e+00 6.502639e-01 4.773950e-01 4.865111e-01 4.530566e-01 2.150701e-01 2.674185e-01 2.534370e-01 1.877108e-01 1.249225e-01 2.480352e-01 2.787132e-01 1.332365e-01 2.770870e-01 1.229691e-01
<GCONST> 9.640116e+01
<STATE> 4
<MEAN> 39
 -3.700868e+00 4.669839e+00 4.452235e+00 1.103340e+00 -3.239721e+00 -9.985094e+00 3.923610e-01 -1.053480e+00 2.959316e+00 -7.052728e+00 -1.447814e+00 -4.959295e+00 7.341380e+01 -2.390274e-01 5.949170e-02 -1.659929e-02 -2.221472e-01 -3.991071e-02 9.005716e-02 -1.532824e-02 -1.885412e-01 -1.859253e-02 -7.369790e-02 7.471532e-02 1.105434e-01 -1.173151e-01 -7.288556e-02 -1.693729e-02 4.455833e-03 -4.474515e-03 4.512580e-02 9.749913e-02 2.617583e-02 -3.680566e-02 2.845946e-03 -7.120328e-03 -2.076455e-02 -2.169667e-02 -1.117554e-02
<VARIANCE> 39
 2.063173e+01 3.013001e+01 8.149185e+00 3.203541e+01 2.929615e+01 6.048626e+01 3.000023e+01 2.250903e+01 1.519568e+01 2.313151e+01 2.036647e+01 2.036504e+01 1.205762e+01 1.105164e+00 1.489050e+00 5.607336e-01 1.396376e+00 1.742691e+00 2.021340e+00 1.433497e+00 2.017507e+00 7.231618e-01 1.096702e+00 1.076827e+00 9.511885e-01 4.921266e-01 1.009306e-01 2.130458e-01 8.310872e-02 1.572836e-01 2.070572e-01 2.282019e-01 2.171436e-01 3.348202e-01 1.363663e-01 2.210845e-01 1.693646e-01 1.647137e-01 5.876406e-02
<GCONST> 8.994113e+01
<TRANSP> 5
 0.000000e+00 1.000000e+00 0.000000e+00 0.000000e+00 0.000000e+00
 0.000000e+00 9.501162e-01 4.988385e-02 0.000000e+00 0.000000e+00
 0.000000e+00 0.000000e+00 8.632346e-01 1.367654e-01 0.000000e+00
 0.000000e+00 0.000000e+00 0.000000e+00 9.656269e-01 3.437309e-02
 0.000000e+00 0.000000e+00 0.000000e+00 0.000000e+00 0.000000e+00
<ENDHMM>
~h "Z"
<BEGINHMM>
<NUMSTATES> 5
<STATE> 2
<MEAN> 39
 -1.046263e+01 1.192893e+00 6.305027e-01 -4.821957e-01 5.510118e+00 3.635251e-01 3.368382e+00 -2.087046e+00 1.058523e+00 -7.760965e+00 1.078395e+00 -3.910955e+00 7.106615e+01 -8.002754e-04 2.112335e-03 2.165078e-03 -1.564994e-03 -4.300685e-04 -6.324079e-04 -1.138046e-03 -8.787271e-04 1.271468e-03 1.846282e-03 -1.804322e-04 -1.278623e-03 8.343531e-04 -4.475967e-05 -7.284283e-05 6.230097e-05 -2.442853e-04 -2.338257e-04 -5.949535e-05 4.124621e-05 -3.071028e-04 -1.978394e-04 -1.140548e-04 -8.069598e-05 -8.477430e-05 4.232170e-05
<VARIANCE> 39
 3.765159e+01 3.402439e+01 3.148469e+01 4.143038e+01 4.410116e+01 3.300908e+01 3.624625e+01 2.761554e+01 4.947715e+01 4.012057e+01 2.551658e+01 3.113912e+01 4.344355e+01 1.430533e+00 1.639362e+00 1.207966e+00 1.426063e+00 1.597724e+00 1.687130e+00 1.852222e+00 1.504564e+00 2.150095e+00 1.829018e+00 1.449835e+00 1.662362e+00 8.789857e-01 2.020932e-01 2.530756e-01 1.999116e-01 2.097155e-01 2.506926e-01 2.923805e-01 3.142056e-01 2.754931e-01 3.601594e-01 3.260430e-01 2.625300e-01 2.975152e-01 1.394317e-01
<GCONST> 1.059066e+02
<STATE> 3
<MEAN> 39
 -1.046263e+01 1.192893e+00 6.305027e-01 -4.821957e-01 5.510118e+00 3.635251e-01 3.368382e+00 -2.087046e+00 1.058523e+00 -7.760965e+00 1.078395e+00 -3.910955e+00 7.106615e+01 -8.002754e-04 2.112335e-03 2.165078e-03 -1.564994e-03 -4.300685e-04 -6.324079e-04 -1.138046e-03 -8.787271e-04 1.271468e-03 1.846282e-03 -1.804322e-04 -1.278623e-03 8.343531e-04 -4.475967e-05 -7.284283e-05 6.230097e-05 -2.442853e-04 -2.338257e-04 -5.949535e-05 4.124621e-05 -3.071028e-04 -1.978394e-04 -1.140548e-04 -8.069598e-05 -8.477430e-05 4.232170e-05
<VARIANCE> 39
 3.765159e+01 3.402439e+01 3.148469e+01 4.143038e+01 4.410116e+01 3.300908e+01 3.624625e+01 2.761554e+01 4.947715e+01 4.012057e+01 2.551658e+01 3.113912e+01 4.344355e+01 1.430533e+00 1.639362e+00 1.207966e+00 1.426063e+00 1.597724e+00 1.687130e+00 1.852222e+00 1.504564e+00 2.150095e+00 1.829018e+00 1.449835e+00 1.662362e+00 8.789857e-01 2.020932e-01 2.530756e-01 1.999116e-01 2.097155e-01 2.506926e-01 2.923805e-01 3.142056e-01 2.754931e-01 3.601594e-01 3.260430e-01 2.625300e-01 2.975152e-01 1.394317e-01
<GCONST> 1.059066e+02
<STATE> 4
<MEAN> 39
 -1.046263e+01 1.192893e+00 6.305027e-01 -4.821957e-01 5.510118e+00 3.635251e-01 3.368382e+00 -2.087046e+00 1.058523e+00 -7.760965e+00 1.078395e+00 -3.910955e+00 7.106615e+01 -8.002754e-04 2.112335e-03 2.165078e-03 -1.564994e-03 -4.300685e-04 -6.324079e-04 -1.138046e-03 -8.787271e-04 1.271468e-03 1.846282e-03 -1.804322e-04 -1.278623e-03 8.343531e-04 -4.475967e-05 -7.284283e-05 6.230097e-05 -2.442853e-04 -2.338257e-04 -5.949535e-05 4.124621e-05 -3.071028e-04 -1.978394e-04 -1.140548e-04 -8.069598e-05 -8.477430e-05 4.232170e-05
<VARIANCE> 39
 3.765159e+01 3.402439e+01 3.148469e+01 4.143038e+01 4.410116e+01 3.300908e+01 3.624625e+01 2.761554e+01 4.947715e+01 4.012057e+01 2.551658e+01 3.113912e+01 4.344355e+01 1.430533e+00 1.639362e+00 1.207966e+00 1.426063e+00 1.597724e+00 1.687130e+00 1.852222e+00 1.504564e+00 2.150095e+00 1.829018e+00 1.449835e+00 1.662362e+00 8.789857e-01 2.020932e-01 2.530756e-01 1.999116e-01 2.097155e-01 2.506926e-01 2.923805e-01 3.142056e-01 2.754931e-01 3.601594e-01 3.260430e-01 2.625300e-01 2.975152e-01 1.394317e-01
<GCONST> 1.059066e+02
<TRANSP> 5
 0.000000e+00 1.000000e+00 0.000000e+00 0.000000e+00 0.000000e+00
 0.000000e+00 6.000000e-01 4.000000e-01 0.000000e+00 0.000000e+00
 0.000000e+00 0.000000e+00 6.000000e-01 4.000000e-01 0.000000e+00
 0.000000e+00 0.000000e+00 0.000000e+00 7.000000e-01 3.000000e-01
 0.000000e+00 0.000000e+00 0.000000e+00 0.000000e+00 0.000000e+00
<ENDHMM>
~h "_"
<BEGINHMM>
<NUMSTATES> 5
<STATE> 2
<MEAN> 39
 -1.046263e+01 1.192893e+00 6.305027e-01 -4.821957e-01 5.510118e+00 3.635251e-01 3.368382e+00 -2.087046e+00 1.058523e+00 -7.760965e+00 1.078395e+00 -3.910955e+00 7.106615e+01 -8.002754e-04 2.112335e-03 2.165078e-03 -1.564994e-03 -4.300685e-04 -6.324079e-04 -1.138046e-03 -8.787271e-04 1.271468e-03 1.846282e-03 -1.804322e-04 -1.278623e-03 8.343531e-04 -4.475967e-05 -7.284283e-05 6.230097e-05 -2.442853e-04 -2.338257e-04 -5.949535e-05 4.124621e-05 -3.071028e-04 -1.978394e-04 -1.140548e-04 -8.069598e-05 -8.477430e-05 4.232170e-05
<VARIANCE> 39
 3.765159e+01 3.402439e+01 3.148469e+01 4.143038e+01 4.410116e+01 3.300908e+01 3.624625e+01 2.761554e+01 4.947715e+01 4.012057e+01 2.551658e+01 3.113912e+01 4.344355e+01 1.430533e+00 1.639362e+00 1.207966e+00 1.426063e+00 1.597724e+00 1.687130e+00 1.852222e+00 1.504564e+00 2.150095e+00 1.829018e+00 1.449835e+00 1.662362e+00 8.789857e-01 2.020932e-01 2.530756e-01 1.999116e-01 2.097155e-01 2.506926e-01 2.923805e-01 3.142056e-01 2.754931e-01 3.601594e-01 3.260430e-01 2.625300e-01 2.975152e-01 1.394317e-01
<GCONST> 1.059066e+02
<STATE> 3
<MEAN> 39
 -1.046263e+01 1.192893e+00 6.305027e-01 -4.821957e-01 5.510118e+00 3.635251e-01 3.368382e+00 -2.087046e+00 1.058523e+00 -7.760965e+00 1.078395e+00 -3.910955e+00 7.106615e+01 -8.002754e-04 2.112335e-03 2.165078e-03 -1.564994e-03 -4.300685e-04 -6.324079e-04 -1.138046e-03 -8.787271e-04 1.271468e-03 1.846282e-03 -1.804322e-04 -1.278623e-03 8.343531e-04 -4.475967e-05 -7.284283e-05 6.230097e-05 -2.442853e-04 -2.338257e-04 -5.949535e-05 4.124621e-05 -3.071028e-04 -1.978394e-04 -1.140548e-04 -8.069598e-05 -8.477430e-05 4.232170e-05
<VARIANCE> 39
 3.765159e+01 3.402439e+01 3.148469e+01 4.143038e+01 4.410116e+01 3.300908e+01 3.624625e+01 2.761554e+01 4.947715e+01 4.012057e+01 2.551658e+01 3.113912e+01 4.344355e+01 1.430533e+00 1.639362e+00 1.207966e+00 1.426063e+00 1.597724e+00 1.687130e+00 1.852222e+00 1.504564e+00 2.150095e+00 1.829018e+00 1.449835e+00 1.662362e+00 8.789857e-01 2.020932e-01 2.530756e-01 1.999116e-01 2.097155e-01 2.506926e-01 2.923805e-01 3.142056e-01 2.754931e-01 3.601594e-01 3.260430e-01 2.625300e-01 2.975152e-01 1.394317e-01
<GCONST> 1.059066e+02
<STATE> 4
<MEAN> 39
 -1.046263e+01 1.192893e+00 6.305027e-01 -4.821957e-01 5.510118e+00 3.635251e-01 3.368382e+00 -2.087046e+00 1.058523e+00 -7.760965e+00 1.078395e+00 -3.910955e+00 7.106615e+01 -8.002754e-04 2.112335e-03 2.165078e-03 -1.564994e-03 -4.300685e-04 -6.324079e-04 -1.138046e-03 -8.787271e-04 1.271468e-03 1.846282e-03 -1.804322e-04 -1.278623e-03 8.343531e-04 -4.475967e-05 -7.284283e-05 6.230097e-05 -2.442853e-04 -2.338257e-04 -5.949535e-05 4.124621e-05 -3.071028e-04 -1.978394e-04 -1.140548e-04 -8.069598e-05 -8.477430e-05 4.232170e-05
<VARIANCE> 39
 3.765159e+01 3.402439e+01 3.148469e+01 4.143038e+01 4.410116e+01 3.300908e+01 3.624625e+01 2.761554e+01 4.947715e+01 4.012057e+01 2.551658e+01 3.113912e+01 4.344355e+01 1.430533e+00 1.639362e+00 1.207966e+00 1.426063e+00 1.597724e+00 1.687130e+00 1.852222e+00 1.504564e+00 2.150095e+00 1.829018e+00 1.449835e+00 1.662362e+00 8.789857e-01 2.020932e-01 2.530756e-01 1.999116e-01 2.097155e-01 2.506926e-01 2.923805e-01 3.142056e-01 2.754931e-01 3.601594e-01 3.260430e-01 2.625300e-01 2.975152e-01 1.394317e-01
<GCONST> 1.059066e+02
<TRANSP> 5
 0.000000e+00 1.000000e+00 0.000000e+00 0.000000e+00 0.000000e+00
 0.000000e+00 6.000000e-01 4.000000e-01 0.000000e+00 0.000000e+00
 0.000000e+00 0.000000e+00 6.000000e-01 4.000000e-01 0.000000e+00
 0.000000e+00 0.000000e+00 0.000000e+00 7.000000e-01 3.000000e-01
 0.000000e+00 0.000000e+00 0.000000e+00 0.000000e+00 0.000000e+00
<ENDHMM>
~h "a"
<BEGINHMM>
<NUMSTATES> 5
<STATE> 2
<MEAN> 39
 -1.530371e+01 7.294219e-02 1.256203e+00 -3.493783e+00 3.253290e+00 1.638334e+00 5.041856e+00 -1.314564e+00 1.408069e+00 -8.268469e+00 1.682350e+00 -1.523942e+00 7.203401e+01 3.884940e-01 -3.717506e-01 6.979005e-02 4.825345e-02 -2.062393e-01 -6.659889e-01 -3.114378e-01 1.747546e-01 -5.552431e-01 -6.973754e-01 1.201757e-01 2.136438e-01 9.079686e-01 1.609299e-01 -4.050118e-02 -7.013512e-02 1.315822e-01 -3.358740e-02 -1.775340e-01 7.323650e-02 7.028214e-02 -2.285347e-02 7.971242e-02 1.142639e-01 -4.353989e-02 -4.046974e-03
<VARIANCE> 39
 5.556924e+01 2.121670e+01 3.936558e+01 2.607802e+01 2.895160e+01 3.545452e+01 2.345680e+01 2.958604e+01 5.383049e+01 3.634177e+01 1.539794e+01 2.452405e+01 2.242740e+01 5.598993e+00 1.808187e+00 2.542149e+00 2.196926e+00 2.044538e+00 4.185442e+00 1.948583e+00 1.928352e+00 2.858181e+00 3.143739e+00 1.644153e+00 2.309834e+00 2.006361e+00 6.444510e-01 2.532855e-01 3.623030e-01 3.907003e-01 4.824764e-01 6.412711e-01 3.830917e-01 3.456000e-01 4.412435e-01 4.530712e-01 2.291503e-01 3.477131e-01 3.037010e-01
<GCONST> 1.152207e+02
<STATE> 3
<MEAN> 39
 -7.629461e+00 -2.221862e+00 -2.367611e-01 -7.877514e-01 5.152184e+00 -4.103920e+00 2.572513e+00 -3.280616e+00 -6.159226e+00 -1.341310e+01 3.814062e+00 1.299336e+00 7.528970e+01 1.832405e-01 4.528606e-02 -2.644958e-01 -2.199570e-01 -5.537281e-01 -8.342695e-01 3.477856e-01 4.523925e-01 3.735321e-01 4.302006e-01 2.707959e-01 -2.211811e-01 -3.775518e-02 -1.928921e-03 2.306855e-01 2.286484e-02 4.121317e-02 -3.235186e-03 1.937701e-01 1.170203e-01 3.543754e-03 2.857723e-01 1.941687e-01 -1.224634e-01 -2.741216e-01 -1.840822e-01
<VARIANCE> 39
 1.900873e+01 1.333439e+01 2.108706e+01 4.557933e+01 2.071035e+01 2.653739e+01 1.973445e+01 3.424727e+01 5.290502e+01 4.093644e+01 1.921590e+01 2.695539e+01 1.572512e+01 5.206846e-01 1.722066e+00 1.433182e+00 1.537976e+00 1.838005e+00 1.429832e+00 1.130000e+00 1.673915e+00 2.560878e+00 1.703573e+00 1.325276e+00 2.575362e+00 1.248277e+00 1.622560e-01 2.421551e-01 2.744270e-01 1.902674e-01 1.627327e-01 2.433753e-01 2.363731e-01 3.081353e-01 3.346835e-01 3.794773e-01 2.030273e-01 4.369847e-01 1.802656e-01
<GCONST> 1.005622e+02
<STATE> 4
<MEAN> 39
 -4.764099e+00 3.356961e+00 -1.278603e+00 -2.729114e+00 -1.701736e+00 -8.982312e+00 2.964358e+00 -6.960323e-01 7.616316e-01 -7.618806e+00 2.264152e+00 -3.018999e+00 7.296043e+01 2.024401e-02 4.327932e-01 1.557834e-01 6.702975e-03 -9.277268e-02 2.931829e-02 -1.842949e-01 -1.853967e-01 2.097577e-01 1.156015e-01 -1.701936e-01 -2.765208e-01 -1.611666e-01 -5.335265e-02 -1.604726e-02 6.386403e-02 2.535580e-02 1.448820e-01 1.982576e-01 -4.567769e-02 -1.081559e-01 -6.694078e-02 -1.219728e-01 -8.323633e-02 2.301006e-02 1.067267e-02
<VARIANCE> 39
 2.098591e+01 1.912804e+01 2.353294e+01 2.288005e+01 3.341592e+01 4.295039e+01 4.110328e+01 2.523497e+01 1.874667e+01 4.317652e+01 1.967658e+01 2.026342e+01 1.476216e+01 3.629470e-01 1.011127e+00 6.569768e-01 6.511703e-01 1.322420e+00 9.764218e-01 1.392944e+00 1.050882e+00 1.061575e+00 1.533460e+00 8.788105e-01 1.222952e+00 5.528563e-01 7.161133e-02 1.285303e-01 9.293192e-02 1.249083e-01 1.696948e-01 1.445748e-01 1.945587e-01 2.353531e-01 1.552970e-01 1.752433e-01 1.699941e-01 2.154515e-01 7.489965e-02
<GCONST> 8.686458e+01
<TRANSP> 5
 0.000000e+00 1.000000e+00 0.000000e+00 0.000000e+00 0.000000e+00
 0.000000e+00 6.672640e-01 3.327360e-01 0.000000e+00 0.000000e+00
 0.000000e+00 0.000000e+00 6.757967e-01 3.242033e-01 0.000000e+00
 0.000000e+00 0.000000e+00 0.000000e+00 7.246041e-01 2.753960e-01
 0.000000e+00 0.000000e+00 0.000000e+00 0.000000e+00 0.000000e+00
<ENDHMM>
~h "b"
<BEGINHMM>
<NUMSTATES> 5
<STATE> 2
<MEAN> 39
 -1.087215e+01 5.912707e+00 1.215465e+00 8.659521e-01 7.773957e+00 2.579162e+00 5.345654e+00 -1.244859e+00 2.876556e+00 -6.273668e+00 -1.602573e-01 -5.769496e+00 7.012424e+01 2.636643e-01 1.594549e-01 4.626704e-01 8.351813e-01 7.652634e-01 5.817189e-01 -2.393302e-01 -1.567063e-01 -1.214444e-01 -4.455951e-01 -7.236393e-01 -6.061090e-01 4.167571e-02 5.839152e-02 -1.808140e-01 5.492738e-02 4.474895e-02 2.025735e-01 -1.179667e-01 -3.729134e-01 -1.056338e-01 -1.950530e-01 -3.828634e-01 -9.630468e-02 -2.772516e-02 2.283693e-01
<VARIANCE> 39
 3.292781e+01 2.019711e+01 1.119187e+01 1.232956e+01 1.245907e+01 1.357972e+01 1.650800e+01 1.078384e+01 1.433474e+01 1.552776e+01 1.021804e+01 7.653202e+00 7.422020e+00 1.007278e+00 2.227906e+00 9.538857e-01 8.862416e-01 1.478714e+00 9.921205e-01 2.512186e+00 1.049915e+00 1.791883e+00 2.025723e+00 1.102210e+00 1.125545e+00 1.056761e+00 5.232579e-02 1.861719e-01 1.301624e-01 1.081212e-01 1.702656e-01 1.977230e-01 3.220612e-01 1.738056e-01 2.475201e-01 3.261898e-01 2.532079e-01 1.754306e-01 1.151573e-01
<GCONST> 8.577870e+01
<STATE> 3
<MEAN> 39
 -8.375834e+00 2.445186e+00 2.602191e+00 5.036933e+00 1.464937e+01 4.150071e+00 -1.738362e+00 -3.128533e+00 -4.205742e-01 -1.362473e+01 -2.033619e+00 -8.402333e+00 7.227090e+01 5.347996e-01 2.517413e-01 4.916349e-01 6.418442e-01 8.677808e-01 -5.836420e-02 -9.340133e-01 -1.982180e-01 -5.043894e-02 -6.465254e-01 -4.538135e-01 -5.068863e-01 2.445426e-01 -2.153959e-01 -1.176155e-01 -1.601003e-01 -1.952561e-01 -5.275470e-01 -2.451286e-01 3.472579e-01 1.450877e-01 2.239947e-01 4.984249e-01 2.572677e-01 2.734529e-01 -9.411116e-02
<VARIANCE> 39
 7.950076e+00 1.840938e+01 1.272255e+01 2.447894e+01 4.142979e+01 2.028440e+01 3.127948e+01 1.368538e+01 3.118370e+01 2.762045e+01 1.585923e+01 1.070562e+01 8.605545e+00 8.099278e-01 3.428685e+00 1.067131e+00 8.973730e-01 3.547396e+00 1.435683e+00 2.591610e+00 1.314497e+00 2.217231e+00 3.060189e+00 1.412070e+00 1.667058e+00 1.246737e+00 1.135378e-01 3.453007e-01 2.543693e-01 1.457282e-01 2.190113e-01 2.927702e-01 3.414882e-01 2.152646e-01 2.703741e-01 2.945728e-01 2.217876e-01 2.182134e-01 1.566222e-01
<GCONST> 9.676228e+01
<STATE> 4
<MEAN> 39
 -9.393478e+00 3.883419e+00 3.096205e+00 6.667676e+00 1.310885e+01 2.274679e+00 2.542593e-02 -2.522102e+00 3.388312e+00 -8.963722e+00 -1.909377e+00 -7.756690e+00 7.068443e+01 -1.126844e-01 -2.452676e-03 -2.661180e-01 -3.143356e-01 -2.748184e-01 -7.418365e-02 9.369054e-02 -9.451962e-02 -1.452846e-01 3.993149e-02 1.204054e-01 1.828761e-02 -8.201218e-02 -4.081748e-02 -9.847517e-02 -7.671754e-02 -1.210664e-01 -1.362761e-02 3.248547e-02 2.137116e-02 -3.682363e-02 -1.203368e-01 -6.503063e-02 6.261581e-02 8.151628e-02 6.612562e-02
<VARIANCE> 39
 7.288873e+00 1.967784e+01 1.647070e+01 2.582037e+01 2.272564e+01 1.351371e+01 4.100321e+01 1.603834e+01 2.713669e+01 1.485914e+01 2.190117e+01 1.353800e+01 1.427811e+01 3.734713e-01 9.537123e-01 6.226254e-01 1.122773e+00 1.034145e+00 9.850388e-01 2.383847e+00 1.089664e+00 1.997558e+00 1.229869e+00 1.371512e+00 1.000704e+00 5.242069e-01 7.905485e-02 1.815906e-01 9.975330e-02 1.587101e-01 2.324044e-01 1.528524e-01 4.043416e-01 2.206346e-01 3.315158e-01 2.494568e-01 2.501108e-01 2.168907e-01 1.132495e-01
<GCONST> 8.768569e+01
<TRANSP> 5
 0.000000e+00 1.000000e+00 0.000000e+00 0.000000e+00 0.000000e+00
 0.000000e+00 7.065614e-01 2.934386e-01 0.000000e+00 0.000000e+00
 0.000000e+00 0.000000e+00 5.781426e-01 4.218574e-01 0.000000e+00
 0.000000e+00 0.000000e+00 0.000000e+00 8.480312e-01 1.519687e-01
 0.000000e+00 0.000000e+00 0.000000e+00 0.000000e+00 0.000000e+00
<ENDHMM>
~h "d"
<BEGINHMM>
<NUMSTATES> 5
<STATE> 2
<MEAN> 39
 -1.046229e+01 5.670738e+00 1.346258e+00 1.031105e-01 7.330194e+00 4.193494e+00 3.492084e+00 -4.116076e+00 -1.513005e+00 -1.241329e+01 -1.932310e+00 -4.267616e+00 7.067151e+01 -4.891609e-01 -1.490076e-02 -3.096802e-01 -1.726454e-01 -7.960645e-01 -5.038654e-01 2.293206e-01 5.584275e-01 8.489746e-01 4.634769e-01 -2.651125e-01 7.630679e-04 -4.162210e-01 -1.247352e-01 -4.539037e-01 1.497258e-01 7.756518e-02 -1.209820e-02 -2.080927e-01 1.514370e-01 1.715328e-01 -8.002701e-02 1.071464e-01 2.436582e-01 5.199189e-02 2.571160e-01
<VARIANCE> 39
 1.311346e+01 9.023863e+00 7.392879e+00 9.979825e+00 2.313749e+01 2.017597e+01 1.987935e+01 1.254242e+01 2.960001e+01 3.778308e+01 6.933640e+00 1.350061e+01 2.079449e+01 9.780504e-01 2.203904e+00 1.401301e+00 9.749785e-01 1.329593e+00 9.422242e-01 1.642015e+00 1.032662e+00 2.516432e+00 3.707307e+00 1.231740e+00 1.365123e+00 1.676786e+00 2.545261e-01 3.177106e-01 2.557001e-01 2.270738e-01 2.920143e-01 2.333888e-01 3.459063e-01 2.125732e-01 5.389510e-01 8.541382e-01 1.804758e-01 3.114051e-01 3.857953e-01
<GCONST> 9.684892e+01
<STATE> 3
<MEAN> 39
 -1.470428e+01 6.870857e-01 7.758151e-01 -1.893889e+00 2.354833e+00 8.882906e-01 6.802076e+00 -1.695964e+00 4.929718e-01 -9.703671e+00 -3.640959e-01 -2.607731e+00 7.111581e+01 -6.325461e-01 -1.665278e+00 6.744655e-01 1.079594e-01 -2.052712e-01 -4.553213e-01 8.457286e-01 1.263164e-01 -6.668693e-01 -8.010738e-01 6.585554e-01 7.402623e-01 1.146989e+00 3.325307e-01 1.208147e-01 4.280683e-02 1.977949e-01 4.951303e-01 1.600909e-01 -6.841048e-02 -7.179039e-02 -1.185936e-01 -1.856972e-01 -1.390995e-02 -1.229919e-01 -1.429402e-02
<VARIANCE> 39
 9.533783e+00 1.625150e+01 1.775317e+01 1.519649e+01 1.928312e+01 1.576110e+01 1.301767e+01 1.931777e+01 3.962772e+01 2.538471e+01 1.300636e+01 9.598527e+00 1.744911e+01 1.456957e+00 1.472296e+00 2.054698e+00 2.218587e+00 1.748374e+00 1.730355e+00 1.892006e+00 2.796016e+00 3.108922e+00 1.803807e+00 8.839692e-01 1.545806e+00 8.873963e-01 2.158030e-01 2.784449e-01 3.583745e-01 3.452319e-01 2.668586e-01 2.323579e-01 3.063554e-01 4.898278e-01 5.906143e-01 6.969039e-01 2.494861e-01 2.008445e-01 2.434098e-01
<GCONST> 1.002588e+02
<STATE> 4
<MEAN> 39
 -1.653121e+01 -3.140293e+00 3.115396e+00 -2.469571e-02 4.163492e+00 -1.869009e+00 1.012102e+01 2.649306e+00 2.045337e+00 -1.065408e+01 1.168422e+00 -3.104739e-01 7.544193e+01 8.853796e-01 -2.649451e-02 -1.639157e-01 6.247834e-01 7.523827e-01 2.240332e-01 -1.866789e-01 1.784599e-01 -4.545887e-01 -4.458660e-01 -1.510596e-01 -2.487017e-01 7.741337e-02 3.321651e-01 4.147651e-01 -1.213015e-01 -8.124558e-02 4.295264e-02 1.536225e-01 -3.678841e-01 -2.085115e-01 -1.414491e-01 3.487132e-02 -1.207972e-01 -1.647011e-01 -2.391899e-01
<VARIANCE> 39
 4.003469e+01 2.543809e+01 3.657154e+01 3.874258e+01 4.533257e+01 2.563210e+01 2.177766e+01 5.551237e+01 4.813214e+01 4.183202e+01 1.991563e+01 2.994178e+01 1.957800e+01 2.879888e+00 3.220950e+00 1.864165e+00 1.922844e+00 1.887759e+00 2.348680e+00 1.670199e+00 3.553216e+00 3.557408e+00 3.805325e+00 1.349170e+00 2.179719e+00 1.212371e+00 3.393079e-01 3.748700e-01 3.286013e-01 3.862679e-01 3.507901e-01 4.057834e-01 3.101233e-01 6.838132e-01 5.614187e-01 4.193542e-01 2.292889e-01 3.512103e-01 1.940513e-01
<GCONST> 1.144067e+02
<TRANSP> 5
 0.000000e+00 1.000000e+00 0.000000e+00 0.000000e+00 0.000000e+00
 0.000000e+00 7.571565e-01 2.428435e-01 0.000000e+00 0.000000e+00
 0.000000e+00 0.000000e+00 5.958219e-01 4.041781e-01 0.000000e+00
 0.000000e+00 0.000000e+00 0.000000e+00 7.130919e-01 2.869081e-01
 0.000000e+00 0.000000e+00 0.000000e+00 0.000000e+00 0.000000e+00
<ENDHMM>
~h "e"
<BEGINHMM>
<NUMSTATES> 5
<STATE> 2
<MEAN> 39
 -1.524594e+01 2.014675e+00 4.988028e+00 -6.709436e+00 3.913752e+00 5.380173e+00 3.924253e+00 -7.030483e+00 3.102504e+00 -6.112679e+00 6.175542e-01 -3.119079e+00 7.109223e+01 -1.444098e+00 -2.434723e-01 -1.649735e-01 -9.450343e-01 -6.719408e-01 -5.930839e-01 -5.920399e-01 8.406570e-02 7.764156e-01 3.601119e-02 -1.422888e-02 2.531058e-01 3.408440e-01 -2.465948e-02 -2.416475e-01 5.853335e-02 1.072147e-01 8.324615e-02 -2.014835e-01 -1.312736e-01 -1.089233e-01 -3.185979e-01 -2.375912e-01 9.739404e-02 7.176949e-02 2.669606e-01
<VARIANCE> 39
 4.788580e+01 1.107675e+01 3.632508e+01 4.352896e+01 1.566473e+01 1.410812e+01 1.460105e+01 1.354988e+01 1.948217e+01 1.057862e+01 4.887196e+00 9.105553e+00 2.909448e+01 2.086659e+00 1.145614e+00 2.207480e+00 1.066034e+00 1.843068e+00 2.080373e+00 1.391801e+00 9.329292e-01 2.351451e+00 1.169579e+00 3.924724e-01 7.373901e-01 1.593142e+00 4.920291e-01 1.376967e-01 5.330388e-01 5.132257e-01 2.550440e-01 4.077431e-01 4.305221e-01 1.557019e-01 1.590796e-01 3.620522e-01 1.237814e-01 1.818563e-01 3.115541e-01
<GCONST> 9.529833e+01
<STATE> 3
<MEAN> 39
 -1.516882e+01 -3.391574e-01 5.417725e+00 -1.958331e+00 6.077971e+00 3.254731e+00 2.691997e+00 -8.499236e+00 -1.725996e+00 -9.665058e+00 9.210427e-01 -4.062553e+00 7.260009e+01 1.491634e+00 3.725788e-01 6.475027e-01 1.726249e+00 1.464407e+00 1.165387e+00 4.198306e-01 -4.321408e-01 -1.362405e+00 -6.769873e-01 -2.063804e-01 -5.396499e-01 -2.627756e-01 1.976599e-01 2.125187e-01 -1.251542e-01 -9.209371e-02 4.366815e-02 2.627288e-01 1.218124e-01 2.506604e-01 2.540511e-01 1.030028e-01 -1.645189e-01 -1.215025e-02 -2.583064e-01
<VARIANCE> 39
 4.752912e+01 1.065018e+01 1.513021e+01 4.443661e+01 4.018666e+01 2.631887e+01 9.625706e+00 9.185928e+00 2.716868e+01 7.415557e+00 1.034085e+01 1.899084e+01 6.341105e+00 2.842988e+00 1.420573e+00 2.086668e+00 1.513248e+00 1.223997e+00 2.799329e+00 1.280118e+00 1.259510e+00 9.438610e-01 1.639463e+00 1.804444e+00 1.607169e+00 1.755989e+00 7.210960e-01 2.494173e-01 3.614847e-01 5.744720e-01 7.042923e-01 6.890157e-01 2.582781e-01 1.474014e-01 2.078760e-01 2.058620e-01 4.055094e-01 3.199127e-01 2.144460e-01
<GCONST> 1.006006e+02
<STATE> 4
<MEAN> 39
 -6.480479e+00 6.750035e+00 2.541511e-01 5.158951e+00 1.250675e+01 7.035864e+00 6.349637e+00 -5.166021e+00 5.135423e-02 -6.364404e+00 -2.776147e+00 -8.502285e+00 6.738196e+01 -1.055811e-01 1.254993e-01 -1.397214e-01 -9.388769e-02 -4.479864e-02 -1.976206e-01 -2.598223e-02 4.315412e-01 4.465116e-01 1.963974e-02 -1.319014e-01 5.288237e-02 -1.996295e-01 -4.118901e-02 -6.700824e-02 -8.156044e-03 -5.228680e-02 -8.412568e-02 -1.101819e-01 -1.047370e-02 5.351241e-02 5.107044e-03 -1.577765e-02 8.350036e-02 9.700523e-02 2.930173e-02
<VARIANCE> 39
 1.734179e+00 2.769964e+00 6.505856e+00 7.331225e+00 3.590963e+00 6.978530e+00 5.532529e+00 8.935849e+00 1.532905e+01 3.020090e+01 6.801497e+00 6.450552e+00 1.822292e+00 9.350374e-02 2.025011e-01 4.218422e-01 3.312415e-01 3.035789e-01 8.455878e-01 4.697683e-01 1.178788e+00 1.343668e+00 6.262485e-01 9.043965e-01 7.349157e-01 9.941385e-02 2.513440e-02 4.366120e-02 6.332917e-02 7.101165e-02 1.028377e-01 1.635586e-01 6.877413e-02 2.525069e-01 2.944845e-01 1.062568e-01 1.440293e-01 1.244924e-01 1.304410e-02
<GCONST> 5.179457e+01
<TRANSP> 5
 0.000000e+00 1.000000e+00 0.000000e+00 0.000000e+00 0.000000e+00
 0.000000e+00 7.332866e-01 2.667134e-01 0.000000e+00 0.000000e+00
 0.000000e+00 0.000000e+00 7.333058e-01 2.666943e-01 0.000000e+00
 0.000000e+00 0.000000e+00 0.000000e+00 9.097383e-01 9.026172e-02
 0.000000e+00 0.000000e+00 0.000000e+00 0.000000e+00 0.000000e+00
<ENDHMM>
~h "f"
<BEGINHMM>
<NUMSTATES> 5
<STATE> 2
<MEAN> 39
 -1.234160e+01 4.881780e+00 2.257025e+00 -2.191887e+00 7.669808e+00 1.911916e+00 5.737219e+00 -4.246647e-01 1.257172e+00 -7.560578e+00 7.360849e-01 -3.079721e+00 7.065785e+01 -1.567789e+00 -3.602239e-01 2.389009e-01 -7.342800e-01 -1.901653e-01 -1.023666e-01 4.053876e-01 -2.220898e-01 9.431545e-02 -8.745420e-02 2.855208e-01 6.015421e-01 2.328203e-01 -1.372350e-01 -2.558692e-01 5.994001e-02 6.215870e-03 9.273106e-02 -1.972917e-01 -1.381586e-01 -1.589750e-01 -1.102619e-01 -1.274119e-01 4.814158e-02 -5.358023e-02 1.247856e-01
<VARIANCE> 39
 2.650717e+01 1.217804e+01 1.487491e+01 2.491632e+01 1.518702e+01 1.995621e+01 1.788366e+01 1.344955e+01 2.730908e+01 2.359162e+01 8.924404e+00 1.711496e+01 1.611823e+01 2.056989e+00 1.856952e+00 1.379256e+00 2.301290e+00 1.483090e+00 2.211491e+00 2.067640e+00 1.403103e+00 3.981644e+00 3.149781e+00 8.219805e-01 1.813121e+00 9.360191e-01 2.510104e-01 2.096274e-01 2.389488e-01 2.125535e-01 2.276831e-01 3.773828e-01 2.027637e-01 3.005396e-01 6.881973e-01 6.496463e-01 1.830204e-01 3.781559e-01 1.378916e-01
<GCONST> 9.981923e+01
<STATE> 3
<MEAN> 39
 -2.262670e+01 1.536021e-01 3.285962e+00 -6.106216e+00 7.949321e+00 -8.678316e-01 6.056256e+00 -2.185401e+00 2.439476e+00 -8.185997e+00 1.967523e+00 -2.318652e+00 7.413303e+01 -7.786761e-01 -1.136673e+00 -5.374361e-01 2.350756e-03 -2.528373e-01 -1.970408e-01 1.002387e-01 -8.901615e-02 3.135551e-01 9.605002e-02 2.401828e-01 1.678867e-01 1.718369e-01 6.715123e-01 -1.336081e-02 -1.453518e-01 3.839032e-01 -5.688239e-02 1.701911e-01 -1.206334e-01 -1.589202e-02 -4.245970e-02 -1.635191e-03 -8.633397e-02 -9.688571e-02 -1.497403e-01
<VARIANCE> 39
 1.144741e+01 1.977556e+01 2.838008e+01 1.663118e+01 2.068861e+01 2.566420e+01 7.943236e+00 1.830835e+01 1.824129e+01 1.189980e+01 8.460571e+00 9.967017e+00 4.588847e+00 1.605938e+00 6.245687e-01 1.386594e+00 1.265269e+00 8.481560e-01 1.031907e+00 9.113776e-01 1.464731e+00 1.734266e+00 1.282655e+00 8.239771e-01 1.073036e+00 4.236378e-01 1.629413e-01 1.862762e-01 2.455163e-01 2.236305e-01 1.764393e-01 2.400631e-01 1.672174e-01 3.557678e-01 3.971221e-01 3.329949e-01 1.640831e-01 2.500829e-01 7.324962e-02
<GCONST> 8.617655e+01
<STATE> 4
<MEAN> 39
 -1.952083e+01 -4.234560e+00 -7.814492e-01 -3.069748e+00 5.858994e+00 -4.407715e-01 5.300610e+00 -1.813768e+00 3.378120e+00 -8.716747e+00 1.799148e+00 -1.640178e+00 7.286394e+01 2.389221e+00 3.990407e-01 5.758348e-01 1.213598e+00 4.471079e-01 5.675392e-01 -7.200279e-01 -2.277843e-01 -8.457633e-01 -6.125131e-01 -3.233168e-01 -7.410710e-01 -4.812481e-01 4.667955e-01 8.051277e-01 7.666221e-01 1.869272e-01 5.516002e-01 2.588556e-01 -2.188805e-01 -1.176317e-01 -3.684427e-01 -6.690162e-03 -8.330370e-02 -4.381204e-01 5.009084e-02
<VARIANCE> 39
 1.634011e+01 1.546187e+01 3.457666e+01 2.064738e+01 2.257211e+01 2.144512e+01 1.651433e+01 1.547407e+01 1.787107e+01 1.468431e+01 5.816999e+00 1.369645e+01 5.614332e+00 1.566117e+00 2.855914e+00 2.913824e+00 2.204119e+00 1.853705e+00 2.059083e+00 1.080034e+00 1.545835e+00 2.877660e+00 1.991885e+00 9.182742e-01 9.152005e-01 7.480403e-01 2.534363e-01 2.452136e-01 4.823144e-01 1.906626e-01 1.837339e-01 2.119443e-01 1.745790e-01 2.169748e-01 2.618407e-01 3.069428e-01 1.735060e-01 2.486115e-01 1.364274e-01
<GCONST> 9.433028e+01
<TRANSP> 5
 0.000000e+00 1.000000e+00 0.000000e+00 0.000000e+00 0.000000e+00
 0.000000e+00 7.519010e-01 2.480989e-01 0.000000e+00 0.000000e+00
 0.000000e+00 0.000000e+00 7.680646e-01 2.319355e-01 0.000000e+00
 0.000000e+00 0.000000e+00 0.000000e+00 6.071644e-01 3.928355e-01
 0.000000e+00 0.000000e+00 0.000000e+00 0.000000e+00 0.000000e+00
<ENDHMM>
~h "h"
<BEGINHMM>
<NUMSTATES> 5
<STATE> 2
<MEAN> 39
 -1.431021e+01 -8.846386e-01 6.146085e+00 -1.228998e+00 8.900417e+00 2.895033e+00 4.033587e+00 -2.482190e+00 1.130109e+00 -6.503268e+00 3.106458e+00 -6.301502e+00 7.512576e+01 -5.104734e-01 -4.973390e-01 -2.550429e-01 -7.565972e-01 -2.794232e-01 4.702677e-01 8.007548e-01 -1.765566e-01 -8.115979e-01 1.740300e-01 7.321980e-01 1.155017e+00 4.945878e-01 1.618711e-01 3.641221e-02 -1.997567e-01 1.359725e-01 -1.320585e-01 -4.230967e-02 1.000718e-01 -5.925943e-02 -2.729983e-02 -6.459481e-02 -2.838962e-02 7.748730e-02 -1.204231e-01
<VARIANCE> 39
 3.050507e+01 1.497843e+01 2.084230e+01 4.404467e+01 4.033581e+01 3.677773e+01 3.329082e+01 2.931058e+01 2.755280e+01 2.372291e+01 1.355946e+01 2.587192e+01 8.903692e+00 1.432771e+00 1.167849e+00 1.873862e+00 1.834816e+00 1.233938e+00 1.902777e+00 2.342753e+00 1.250341e+00 2.825754e+00 1.937684e+00 1.120727e+00 2.350922e+00 5.609752e-01 2.764518e-01 2.450161e-01 3.494324e-01 3.685233e-01 1.516674e-01 2.955978e-01 4.405557e-01 3.264421e-01 6.108991e-01 2.976097e-01 2.972365e-01 5.267562e-01 9.853296e-02
<GCONST> 1.034452e+02
<STATE> 3
<MEAN> 39
 -1.123301e+01 -1.558161e+00 1.718332e+00 -3.526199e+00 6.350234e+00 2.671041e+00 5.791206e+00 -2.964347e+00 -1.167791e+00 -3.775421e+00 6.389576e+00 -5.954913e-01 7.674209e+01 1.745289e-01 -1.130368e-01 -1.088762e-01 -2.833554e-02 -1.919292e-01 -5.494586e-02 2.944468e-01 -3.317556e-02 -3.694357e-01 -5.652669e-02 2.127912e-01 5.165414e-01 2.305456e-01 9.264535e-02 2.365447e-01 1.693958e-01 1.582831e-01 9.196535e-02 -6.431794e-02 -4.622605e-02 1.070693e-01 1.632798e-01 -1.004134e-01 -2.724009e-01 -3.971639e-01 -9.582353e-02
<VARIANCE> 39
 1.254344e+01 1.157338e+01 9.633397e+00 1.137152e+01 2.060364e+01 2.608515e+01 4.630273e+01 2.466219e+01 2.491346e+01 2.803838e+01 1.724857e+01 1.940716e+01 1.304376e+01 1.061009e+00 7.892081e-01 8.917292e-01 1.762728e+00 1.476941e+00 1.054300e+00 2.074975e+00 1.504968e+00 1.094163e+00 1.596290e+00 1.016899e+00 1.925148e+00 4.432468e-01 4.960334e-02 1.193094e-01 1.864850e-01 1.512388e-01 1.879870e-01 2.535722e-01 5.611527e-01 1.730228e-01 2.380259e-01 2.982711e-01 1.849317e-01 1.975652e-01 7.109808e-02
<GCONST> 8.920968e+01
<STATE> 4
<MEAN> 39
 -8.885300e+00 2.450295e-01 1.612061e+00 -3.215233e+00 3.795539e+00 8.245742e-01 8.349210e+00 -9.128994e-01 7.001398e-01 -6.646109e+00 6.256533e+00 -9.461213e-01 7.683896e+01 1.997420e-01 1.206932e-01 2.344944e-02 1.343390e-01 9.701211e-02 4.892206e-03 -2.416561e-01 6.174733e-03 -1.838271e-01 -5.726698e-01 -1.735093e-01 -1.366730e-01 -1.163764e-01 4.346167e-03 2.041137e-02 2.280422e-03 -1.345052e-03 -1.245641e-02 -4.606155e-02 -1.583977e-01 -4.358845e-02 1.207913e-02 -1.258500e-02 -1.104817e-01 -3.737475e-02 -1.499669e-02
<VARIANCE> 39
 6.109147e+00 1.001086e+01 8.708317e+00 1.913604e+01 3.396724e+01 1.939922e+01 5.069142e+01 3.206291e+01 3.468703e+01 2.469645e+01 1.533951e+01 1.869799e+01 1.483859e+01 5.201964e-01 8.345891e-01 6.010016e-01 9.257430e-01 9.755079e-01 1.048298e+00 1.833732e+00 9.770181e-01 1.459205e+00 1.554505e+00 1.309297e+00 1.042878e+00 3.035091e-01 6.363806e-02 1.333068e-01 9.277311e-02 9.520575e-02 1.292609e-01 1.283336e-01 1.711993e-01 1.401116e-01 2.284132e-01 2.375029e-01 1.859040e-01 1.502453e-01 7.330860e-02
<GCONST> 8.258916e+01
<TRANSP> 5
 0.000000e+00 1.000000e+00 0.000000e+00 0.000000e+00 0.000000e+00
 0.000000e+00 6.682205e-01 3.317795e-01 0.000000e+00 0.000000e+00
 0.000000e+00 0.000000e+00 6.325219e-01 3.674781e-01 0.000000e+00
 0.000000e+00 0.000000e+00 0.000000e+00 8.350778e-01 1.649223e-01
 0.000000e+00 0.000000e+00 0.000000e+00 0.000000e+00 0.000000e+00
<ENDHMM>
~h "i"
<BEGINHMM>
<NUMSTATES> 5
<STATE> 2
<MEAN> 39
 -1.426422e+01 -4.192398e+00 -3.944166e+00 -3.378164e+00 5.095742e-01 9.519569e-01 6.094085e+00 2.663714e-01 3.467145e+00 -7.488754e+00 3.167287e+00 1.525549e+00 6.795171e+01 -3.692317e-02 -1.987899e-01 -1.511760e-01 -1.503662e-01 -1.852936e-02 1.948818e-01 1.834740e-01 1.382185e-01 1.113445e-01 1.823158e-01 2.043516e-01 3.002586e-01 -6.062692e-02 1.690162e-02 2.894842e-02 2.890410e-02 4.917788e-02 8.480630e-02 5.728621e-02 -2.419536e-02 -2.369102e-02 8.169798e-03 2.014045e-03 -3.643852e-02 -1.678809e-02 5.629929e-03
<VARIANCE> 39
 7.019619e+00 4.840693e+01 8.735258e+00 7.485018e+00 1.281791e+01 7.111318e+00 8.819453e+00 2.016177e+01 1.034826e+01 2.161210e+01 1.181351e+01 3.887653e+01 1.211281e+01 1.942389e-01 1.084192e+00 3.938273e-01 4.930933e-01 6.993806e-01 6.780184e-01 4.004538e-01 1.418017e+00 9.073570e-01 9.803056e-01 1.258222e+00 1.241008e+00 2.798534e-01 3.231585e-02 7.596187e-02 5.700586e-02 9.283565e-02 1.533863e-01 1.455481e-01 7.404316e-02 3.165332e-01 1.281123e-01 1.311598e-01 2.808156e-01 1.970549e-01 1.858848e-02
<GCONST> 7.018688e+01
<STATE> 3
<MEAN> 39
 -1.465061e+01 2.406482e+00 -6.645028e+00 -6.111214e+00 1.333993e+00 3.890316e-01 6.517696e+00 1.380809e+00 8.103106e+00 -3.145040e-01 4.039455e+00 -2.941301e+00 6.275651e+01 -5.424082e-02 -2.761863e-02 -5.134420e-02 -8.005128e-02 -2.758171e-02 2.919819e-02 9.269588e-03 3.526919e-02 1.491612e-01 1.416937e-01 5.821788e-02 -1.770925e-02 -5.330891e-02 9.347003e-03 -3.499924e-02 5.087400e-02 4.318718e-02 -2.052311e-02 -1.245049e-02 -2.279889e-03 8.708785e-03 -4.268299e-02 -5.480876e-02 -3.710055e-02 -5.453020e-03 4.988743e-02
<VARIANCE> 39
 2.971745e+00 3.826729e+00 5.543973e+00 3.898309e+00 6.735440e+00 4.359161e+00 6.849238e+00 1.121600e+01 1.192071e+01 1.369793e+01 7.171163e+00 8.914553e+00 5.034634e+00 9.990422e-02 2.456361e-01 2.594873e-01 3.163463e-01 3.813719e-01 4.108305e-01 6.146114e-01 8.125712e-01 7.716050e-01 9.360523e-01 7.573326e-01 9.927766e-01 5.072916e-02 1.284271e-02 5.117943e-02 4.934096e-02 5.389426e-02 9.359700e-02 5.834545e-02 1.314743e-01 1.823636e-01 1.365994e-01 1.913527e-01 1.856127e-01 1.992978e-01 1.654079e-02
<GCONST> 5.018401e+01
<STATE> 4
<MEAN> 39
 -6.828142e+00 4.380126e+00 -1.066865e+00 -3.575685e+00 -2.160705e-01 -5.593963e-01 4.490054e+00 -8.598996e-01 4.756140e+00 -8.189374e+00 2.385907e+00 -5.542419e+00 7.338331e+01 1.913774e-01 -2.533005e-02 1.997974e-01 1.893932e-01 1.892033e-01 -1.260654e-03 -1.098636e-02 2.891969e-02 -8.661890e-02 -1.793565e-01 -2.217513e-01 3.740427e-02 3.403195e-01 -8.695702e-02 -7.040309e-02 8.504399e-02 1.103026e-01 7.031792e-03 1.180052e-02 -2.531612e-02 -7.813434e-02 -5.371237e-02 1.549722e-02 6.398236e-02 1.577604e-01 5.656672e-02
<VARIANCE> 39
 2.004588e+01 8.698921e+00 1.432676e+01 6.954795e+00 3.517870e+01 3.812255e+01 1.289776e+01 2.385152e+01 2.068946e+01 3.762451e+01 2.454375e+01 1.110662e+01 3.675099e+01 6.162655e-01 1.357551e+00 8.727128e-01 9.171606e-01 1.812050e+00 3.589406e+00 9.871389e-01 2.137316e+00 1.854713e+00 2.055348e+00 1.887753e+00 1.014211e+00 8.108631e-01 7.159750e-02 2.236400e-01 1.963961e-01 1.539247e-01 2.330024e-01 7.819979e-01 1.928772e-01 2.400540e-01 4.361871e-01 2.641021e-01 2.272128e-01 2.423992e-01 1.708106e-01
<GCONST> 9.499977e+01
<TRANSP> 5
 0.000000e+00 1.000000e+00 0.000000e+00 0.000000e+00 0.000000e+00
 0.000000e+00 7.628880e-01 2.371120e-01 0.000000e+00 0.000000e+00
 0.000000e+00 0.000000e+00 8.984721e-01 1.015278e-01 0.000000e+00
 0.000000e+00 0.000000e+00 0.000000e+00 7.740812e-01 2.259188e-01
 0.000000e+00 0.000000e+00 0.000000e+00 0.000000e+00 0.000000e+00
<ENDHMM>
~h "j"
<BEGINHMM>
<NUMSTATES> 5
<STATE> 2
<MEAN> 39
 -6.942331e+00 1.159421e+00 3.684105e-01 5.476511e-01 8.188900e+00 1.599521e+00 1.054788e+00 -5.688537e+00 -8.862850e+00 -1.339037e+01 5.614107e+00 1.286753e-01 7.551960e+01 -1.331704e-01 3.938023e-01 2.956397e-01 1.007640e+00 5.891618e-01 3.508021e-01 -8.054570e-02 -3.081143e-01 1.904404e-01 1.255589e-01 -1.668301e-01 -2.091159e-01 -4.586017e-01 -4.331375e-02 1.295388e-01 6.128548e-02 6.004177e-02 -1.207466e-02 6.574038e-03 1.700413e-01 1.068476e-01 3.373429e-01 1.803482e-01 -2.315659e-01 -2.427851e-01 -1.622164e-01
<VARIANCE> 39
 8.122042e+00 6.975974e+00 6.579109e+00 1.666646e+01 1.007741e+01 1.849220e+01 3.717422e+01 2.691367e+01 1.296945e+01 1.594372e+01 2.044373e+01 1.971417e+01 1.110012e+01 5.168827e-01 8.430288e-01 8.021938e-01 6.028538e-01 5.833433e-01 1.237654e+00 1.675637e+00 9.294562e-01 2.257684e+00 7.891399e-01 1.699396e+00 1.332826e+00 3.665078e-01 9.224536e-02 1.228528e-01 8.061335e-02 1.696964e-01 1.169734e-01 2.622890e-01 2.958894e-01 1.253258e-01 3.051448e-01 2.018709e-01 2.325408e-01 1.997509e-01 5.623607e-02
<GCONST> 8.095127e+01
<STATE> 3
<MEAN> 39
 -7.668324e+00 3.722107e+00 3.079398e+00 4.628308e+00 1.165444e+01 6.351657e+00 2.280259e+00 -4.662626e+00 -3.095321e+00 -1.076031e+01 1.873585e+00 -4.919427e+00 7.054573e+01 -3.455853e-01 -4.477201e-01 4.770352e-01 2.271119e-01 -6.908216e-02 5.579175e-02 6.106194e-02 2.753200e-01 2.830966e-01 1.294316e-03 -1.580676e-01 2.744953e-02 2.958492e-02 -8.817237e-02 -1.666805e-01 -9.117925e-03 -5.427202e-02 -1.389407e-01 -9.961001e-02 3.633425e-02 6.629964e-02 6.673721e-02 8.192268e-03 3.124952e-02 9.230271e-02 7.232022e-02
<VARIANCE> 39
 6.463476e+00 1.706377e+01 1.675118e+01 8.601994e+00 1.357858e+01 1.531997e+01 1.991301e+01 1.445017e+01 2.353210e+01 4.073506e+01 1.275861e+01 1.128717e+01 1.165345e+01 3.658791e-01 1.242230e+00 8.114400e-01 7.047306e-01 1.814334e+00 8.521703e-01 1.443743e+00 8.528308e-01 2.045045e+00 2.100819e+00 1.376228e+00 1.216663e+00 5.428551e-01 5.154358e-02 1.700387e-01 1.388192e-01 1.527948e-01 3.395255e-01 1.630456e-01 2.686830e-01 1.418603e-01 3.954474e-01 4.119319e-01 2.641999e-01 2.243722e-01 7.521737e-02
<GCONST> 8.532124e+01
<STATE> 4
<MEAN> 39
 -1.367010e+01 -3.225053e+00 5.410683e+00 4.865795e+00 8.274620e+00 3.149378e+00 3.627463e+00 -2.627381e+00 7.794405e-01 -9.008288e+00 1.375535e+00 -2.009437e+00 7.270364e+01 3.322006e-02 1.119277e-01 -5.812887e-02 -4.761799e-02 -2.204531e-02 4.199309e-02 1.172800e-01 -1.216361e-01 1.629991e-02 1.077177e-01 -2.153547e-02 -7.930355e-02 -4.646342e-02 7.313051e-02 9.102321e-02 -4.640789e-02 -2.189868e-02 5.061546e-02 3.109161e-02 -2.167798e-02 -6.633262e-02 -9.054056e-02 -4.729399e-02 2.566494e-02 -3.690882e-02 -7.984273e-03
<VARIANCE> 39
 1.515857e+01 4.628043e+01 1.860040e+01 2.347552e+01 1.804613e+01 1.424085e+01 1.509289e+01 2.461349e+01 3.081707e+01 1.792180e+01 1.735012e+01 2.108568e+01 6.801302e+00 1.194458e+00 2.386009e+00 7.761355e-01 1.202946e+00 1.171419e+00 1.179663e+00 1.376176e+00 1.660394e+00 2.539888e+00 1.571789e+00 1.183071e+00 1.741539e+00 3.854380e-01 1.458070e-01 2.719219e-01 1.223082e-01 1.827112e-01 1.888847e-01 2.014450e-01 2.229681e-01 2.481215e-01 3.624212e-01 3.023675e-01 2.191323e-01 3.183996e-01 5.519434e-02
<GCONST> 9.222923e+01
<TRANSP> 5
 0.000000e+00 1.000000e+00 0.000000e+00 0.000000e+00 0.000000e+00
 0.000000e+00 7.999827e-01 2.000173e-01 0.000000e+00 0.000000e+00
 0.000000e+00 0.000000e+00 8.925893e-01 1.074107e-01 0.000000e+00
 0.000000e+00 0.000000e+00 0.000000e+00 9.517517e-01 4.824826e-02
 0.000000e+00 0.000000e+00 0.000000e+00 0.000000e+00 0.000000e+00
<ENDHMM>
~h "k"
<BEGINHMM>
<NUMSTATES> 5
<STATE> 2
<MEAN> 39
 -1.900705e+01 -6.627016e+00 3.118480e+00 -3.092997e-01 4.218147e+00 1.728860e-01 2.252409e+00 -1.384259e+00 1.942147e+00 -7.427604e+00 8.341251e-01 -6.483836e-01 7.337028e+01 -3.485957e-02 -4.711520e-01 9.947632e-02 7.588897e-02 2.594902e-01 2.259319e-02 -2.212342e-01 2.228572e-01 -3.867266e-01 -1.611534e-01 9.941993e-02 -2.534615e-01 2.598290e-01 5.132763e-01 5.693299e-01 -4.596053e-02 1.452825e-01 3.052356e-01 1.370762e-01 3.349051e-02 -1.277808e-01 -1.341767e-01 -2.320714e-02 5.722948e-03 -2.588751e-01 -1.494446e-01
<VARIANCE> 39
 2.123800e+01 4.436772e+01 1.059728e+01 3.035454e+01 2.792356e+01 2.179308e+01 2.490935e+01 1.403123e+01 1.951339e+01 2.902532e+01 1.483272e+01 2.192007e+01 1.113057e+01 3.114637e+00 4.410045e+00 1.737810e+00 1.563349e+00 3.267637e+00 1.306965e+00 2.230047e+00 1.309459e+00 3.278510e+00 2.191988e+00 1.340747e+00 1.488164e+00 1.194114e+00 2.382817e-01 4.204374e-01 3.142509e-01 2.036183e-01 3.424869e-01 3.046095e-01 2.531704e-01 2.300972e-01 6.272579e-01 3.626590e-01 2.070774e-01 3.626872e-01 1.528492e-01
<GCONST> 1.039822e+02
<STATE> 3
<MEAN> 39
 -1.000244e+01 6.321216e-01 4.583812e+00 2.579644e+00 8.938639e+00 2.679988e+00 3.736869e+00 -2.649990e+00 -2.244044e+00 -1.030403e+01 5.835275e-02 -5.368922e+00 7.307705e+01 1.845229e+00 1.779566e+00 4.659003e-01 1.655329e-01 2.655267e-01 4.341827e-01 -1.347602e-01 -8.791738e-01 -1.005985e+00 2.456700e-01 -6.670530e-01 -8.685206e-01 1.186974e-01 -4.892723e-01 -4.442023e-01 -3.203332e-01 -2.050448e-01 -6.236088e-01 -5.423732e-01 1.909623e-02 6.412014e-02 1.915656e-01 2.678495e-01 1.746596e-01 3.108042e-01 7.544281e-02
<VARIANCE> 39
 1.353555e+01 2.157125e+01 6.516355e+00 1.026604e+01 1.480764e+01 2.338749e+01 2.129424e+01 2.613433e+01 3.046691e+01 2.812666e+01 1.731437e+01 1.493245e+01 9.963912e+00 2.866193e+00 2.590316e+00 1.011592e+00 5.236990e-01 1.061388e+00 1.369061e+00 1.222479e+00 1.485565e+00 6.264354e+00 2.678536e+00 1.449312e+00 1.565282e+00 7.212019e-01 1.990895e-01 3.309483e-01 1.898025e-01 1.662758e-01 2.105643e-01 9.438285e-02 2.413649e-01 3.550737e-01 5.441505e-01 4.318108e-01 2.850596e-01 2.509145e-01 1.149669e-01
<GCONST> 9.518576e+01
<STATE> 4
<MEAN> 39
 -7.996255e+00 5.324998e+00 1.905899e+00 2.912194e+00 9.031431e+00 1.841494e+00 4.282189e+00 -1.418905e+00 1.201777e+00 -6.643279e+00 -8.555166e-01 -5.921249e+00 7.041093e+01 -1.260988e-01 -8.811299e-02 -2.269174e-01 -1.942104e-01 -2.107914e-01 -1.341930e-01 -5.875222e-02 -1.923527e-02 -9.564364e-02 -9.748386e-02 -7.659298e-03 1.872226e-01 -5.426343e-02 -7.931640e-02 -1.329633e-01 -4.749694e-02 -9.156647e-02 -9.681776e-02 -2.267280e-02 -4.692376e-02 2.731639e-02 4.003686e-02 -2.713441e-02 3.426868e-02 6.440353e-02 2.142109e-02
<VARIANCE> 39
 1.624506e+01 6.174114e+00 6.432230e+00 7.434793e+00 7.382617e+00 1.898695e+01 1.923550e+01 1.444830e+01 2.125526e+01 2.315069e+01 1.222877e+01 9.542719e+00 7.120807e+00 3.525684e-01 6.736729e-01 5.607071e-01 8.262065e-01 6.774729e-01 8.417013e-01 1.439926e+00 1.112030e+00 1.154404e+00 1.951426e+00 1.052502e+00 9.821350e-01 3.902662e-01 5.710976e-02 9.651224e-02 1.080558e-01 9.189421e-02 7.327246e-02 1.378438e-01 2.735460e-01 2.540168e-01 2.556790e-01 2.911623e-01 2.289890e-01 1.753458e-01 6.290158e-02
<GCONST> 7.559681e+01
<TRANSP> 5
 0.000000e+00 1.000000e+00 0.000000e+00 0.000000e+00 0.000000e+00
 0.000000e+00 7.780448e-01 2.219552e-01 0.000000e+00 0.000000e+00
 0.000000e+00 0.000000e+00 5.403222e-01 4.596778e-01 0.000000e+00
 0.000000e+00 0.000000e+00 0.000000e+00 8.744361e-01 1.255639e-01
 0.000000e+00 0.000000e+00 0.000000e+00 0.000000e+00 0.000000e+00
<ENDHMM>
~h "l"
<BEGINHMM>
<NUMSTATES> 5
<STATE> 2
<MEAN> 39
 -6.698908e+00 2.584771e+00 1.901599e+00 3.280243e+00 8.502500e+00 1.130109e+00 1.588385e+00 -4.887888e+00 -3.421451e+00 -1.279830e+01 -3.290335e-01 -4.701165e+00 7.230587e+01 -5.408446e-02 5.553190e-01 -5.529904e-02 1.934844e-01 1.855353e-01 2.895644e-01 2.776475e-01 1.522001e-01 4.496301e-01 2.961346e-01 -5.102228e-01 -3.257236e-01 -5.770174e-01 -4.136145e-02 -3.619146e-02 -6.544638e-02 -1.095907e-01 -5.924401e-02 -5.100502e-02 3.808034e-02 8.349054e-02 8.146229e-02 1.173937e-01 9.220353e-02 -1.188140e-02 2.024093e-03
<VARIANCE> 39
 8.896141e+00 1.661844e+01 1.800179e+01 2.636545e+01 2.890910e+01 2.384147e+01 2.992289e+01 2.372216e+01 3.230877e+01 3.291078e+01 2.457015e+01 3.511478e+01 1.083386e+01 2.686369e-01 1.229011e+00 9.191407e-01 1.225161e+00 1.543311e+00 1.193825e+00 1.902172e+00 1.413801e+00 2.324798e+00 2.204595e+00 2.290644e+00 1.597686e+00 7.788821e-01 3.885010e-02 1.724710e-01 1.412033e-01 1.611597e-01 2.124734e-01 1.825806e-01 3.010587e-01 2.600081e-01 3.721714e-01 3.447124e-01 3.770608e-01 2.981050e-01 9.236462e-02
<GCONST> 9.413448e+01
<STATE> 3
<MEAN> 39
 -7.666551e+00 6.775790e+00 2.922764e-01 1.891739e+00 7.887786e+00 2.464103e+00 5.030313e+00 -2.417899e+00 8.916009e-01 -8.982924e+00 -1.681389e+00 -6.494939e+00 6.802273e+01 -2.422865e-01 1.196699e-01 -1.864503e-01 -1.374941e-01 -8.504819e-02 -3.190861e-03 1.570704e-01 1.699491e-01 4.235171e-01 3.833338e-01 8.514814e-03 -1.006316e-01 -3.279283e-01 -2.936402e-02 -2.069642e-01 3.865744e-02 -5.765736e-02 -4.970761e-02 -7.330307e-02 -9.969573e-02 -7.166041e-03 -1.104340e-01 -8.445434e-02 1.396414e-01 9.256221e-02 1.861259e-01
<VARIANCE> 39
 1.141034e+01 1.136998e+01 1.032867e+01 1.770282e+01 2.072252e+01 2.247233e+01 1.680769e+01 1.456055e+01 2.118662e+01 3.098145e+01 1.564838e+01 1.615747e+01 1.053161e+01 2.285938e-01 5.977263e-01 6.537523e-01 7.555407e-01 9.821042e-01 1.059258e+00 1.104366e+00 9.476685e-01 1.459329e+00 1.431613e+00 1.104558e+00 1.053654e+00 3.563396e-01 4.081665e-02 1.062197e-01 1.002368e-01 1.442569e-01 1.655135e-01 1.838221e-01 2.044844e-01 1.806982e-01 2.512710e-01 2.839361e-01 2.259314e-01 2.016462e-01 6.464889e-02
<GCONST> 8.007901e+01
<STATE> 4
<MEAN> 39
 -7.334006e+00 4.058019e+00 5.785963e-01 5.859522e-01 6.165397e+00 1.747534e-01 3.473017e+00 -3.261343e+00 -1.657035e+00 -1.121467e+01 -9.390037e-01 -4.866148e+00 7.084418e+01 -2.053704e-01 -2.634617e-01 -5.268639e-02 -2.814816e-01 -1.267798e-01 -2.686820e-01 -1.304219e-01 3.860396e-02 6.061893e-02 1.964483e-01 3.532241e-01 1.127112e-01 2.167156e-01 -1.161893e-02 -7.536119e-02 2.868809e-02 -1.309779e-02 -2.278731e-02 -6.172439e-02 -6.556465e-02 1.755641e-02 -4.838448e-02 -3.836418e-02 1.748722e-02 2.675559e-02 9.189957e-02
<VARIANCE> 39
 1.281670e+01 1.992782e+01 2.361255e+01 1.866553e+01 3.434625e+01 3.309761e+01 2.362576e+01 2.186691e+01 3.142978e+01 4.834558e+01 2.487712e+01 3.620773e+01 1.614892e+01 6.499923e-01 1.122410e+00 1.217924e+00 1.333781e+00 2.208771e+00 1.756243e+00 1.845848e+00 1.595551e+00 2.734732e+00 2.670588e+00 1.997594e+00 1.776713e+00 7.888613e-01 1.221771e-01 1.983713e-01 2.059646e-01 2.078865e-01 3.517810e-01 3.014166e-01 3.177409e-01 3.216591e-01 4.556058e-01 4.486054e-01 4.106590e-01 2.788476e-01 1.636098e-01
<GCONST> 1.021659e+02
<TRANSP> 5
 0.000000e+00 1.000000e+00 0.000000e+00 0.000000e+00 0.000000e+00
 0.000000e+00 6.604769e-01 3.395231e-01 0.000000e+00 0.000000e+00
 0.000000e+00 0.000000e+00 7.167137e-01 2.832863e-01 0.000000e+00
 0.000000e+00 0.000000e+00 0.000000e+00 6.306812e-01 3.693189e-01
 0.000000e+00 0.000000e+00 0.000000e+00 0.000000e+00 0.000000e+00
<ENDHMM>
~h "m"
<BEGINHMM>
<NUMSTATES> 5
<STATE> 2
<MEAN> 39
 -8.366220e+00 6.502324e+00 -1.044118e+00 -1.048631e+00 4.858426e+00 -5.910383e-01 4.195661e+00 -9.752896e-01 4.501169e+00 -4.957026e+00 4.305331e-01 -4.526787e+00 7.007544e+01 7.775033e-02 5.453374e-01 4.149549e-01 4.833049e-01 3.346762e-01 6.482108e-01 2.644329e-01 -4.646836e-01 -1.054428e-01 6.294308e-01 -1.355426e-01 -2.998608e-01 -5.073394e-01 3.238129e-02 -1.829715e-01 1.388703e-01 1.082359e-01 1.198171e-01 6.221502e-02 -1.835024e-02 -1.358351e-01 -3.255183e-01 -2.961282e-01 -1.025554e-01 9.810364e-02 1.032830e-01
<VARIANCE> 39
 3.029331e+01 1.885790e+01 2.616746e+01 1.379688e+01 1.982918e+01 4.044213e+01 1.675162e+01 2.192764e+01 3.195657e+01 2.974163e+01 1.879862e+01 9.931942e+00 1.150014e+01 6.727722e-01 3.917275e-01 5.863081e-01 1.165132e+00 9.232847e-01 1.593909e+00 1.201315e+00 1.574861e+00 2.006351e+00 1.824202e+00 9.453456e-01 1.145005e+00 7.054875e-01 1.415154e-01 1.132333e-01 1.858211e-01 1.726570e-01 1.196922e-01 1.988228e-01 1.853508e-01 3.237209e-01 2.190496e-01 2.448681e-01 1.884020e-01 1.801731e-01 5.273274e-02
<GCONST> 8.799762e+01
<STATE> 3
<MEAN> 39
 -6.854074e+00 8.776990e+00 1.451107e+00 1.220243e+00 6.824764e+00 1.372341e+00 5.094537e+00 -2.337649e+00 3.352206e+00 -4.828564e+00 -2.357780e-01 -5.557857e+00 6.858187e+01 -9.396659e-02 -1.346375e-02 1.252722e-01 -5.834690e-02 2.871020e-01 1.995959e-01 9.195760e-02 2.975549e-02 -2.362962e-01 -3.053812e-01 -2.873147e-01 -1.208108e-02 -4.486719e-02 -6.316934e-02 -2.087651e-01 -6.723182e-02 -1.730331e-01 -3.684605e-02 -1.456555e-01 -1.334162e-01 4.902085e-02 -9.710120e-02 -2.311485e-01 1.170823e-02 9.750107e-02 1.675291e-01
<VARIANCE> 39
 1.061991e+01 9.118422e+00 1.405813e+01 9.034384e+00 1.742724e+01 2.101584e+01 1.344590e+01 1.571118e+01 1.260757e+01 2.168206e+01 1.097293e+01 1.019419e+01 6.535858e+00 6.591070e-01 3.263673e-01 5.429412e-01 8.441696e-01 5.649487e-01 1.298123e+00 1.523120e+00 1.384498e+00 1.248526e+00 1.566997e+00 9.772665e-01 8.690232e-01 3.940496e-01 6.358459e-02 6.799382e-02 8.132874e-02 1.311440e-01 1.278989e-01 1.890750e-01 2.803410e-01 2.882140e-01 1.827116e-01 2.472102e-01 1.810749e-01 1.629947e-01 4.583909e-02
<GCONST> 7.632662e+01
<STATE> 4
<MEAN> 39
 -7.704230e+00 4.225461e+00 2.264719e+00 2.909003e+00 1.068838e+01 2.164444e+00 2.615866e+00 -4.430892e+00 -2.920476e+00 -1.342872e+01 -2.254544e+00 -4.587400e+00 7.213860e+01 -1.157447e-01 -3.425681e-01 1.380447e-02 -2.212355e-02 -7.459080e-02 -3.524658e-02 -2.048495e-01 -1.190711e-01 -3.800846e-01 -3.009404e-01 8.042207e-02 1.323731e-01 1.825985e-01 -8.066843e-02 -4.506292e-02 -1.498598e-02 -3.713728e-02 -1.709709e-01 -7.157262e-02 5.896020e-02 5.114786e-02 9.325029e-02 1.039686e-01 9.180130e-02 1.228474e-02 4.089772e-02
<VARIANCE> 39
 1.513762e+01 1.773447e+01 1.087464e+01 2.598243e+01 2.480541e+01 1.185736e+01 3.351458e+01 2.004444e+01 2.373505e+01 4.194202e+01 2.112809e+01 8.474916e+00 8.390705e+00 5.036228e-01 7.945843e-01 7.113298e-01 1.050665e+00 1.489857e+00 1.365572e+00 2.384248e+00 1.463776e+00 1.946093e+00 1.909605e+00 1.091340e+00 1.016478e+00 5.930733e-01 8.817841e-02 1.591513e-01 1.193904e-01 1.782621e-01 1.734695e-01 2.141483e-01 3.986178e-01 2.346470e-01 3.310424e-01 3.589705e-01 2.290764e-01 1.576889e-01 1.344942e-01
<GCONST> 8.973741e+01
<TRANSP> 5
 0.000000e+00 1.000000e+00 0.000000e+00 0.000000e+00 0.000000e+00
 0.000000e+00 4.944147e-01 5.055854e-01 0.000000e+00 0.000000e+00
 0.000000e+00 0.000000e+00 7.636280e-01 2.363720e-01 0.000000e+00
 0.000000e+00 0.000000e+00 0.000000e+00 7.869834e-01 2.130166e-01
 0.000000e+00 0.000000e+00 0.000000e+00 0.000000e+00 0.000000e+00
<ENDHMM>
~h "n"
<BEGINHMM>
<NUMSTATES> 5
<STATE> 2
<MEAN> 39
 -7.460800e+00 5.906858e+00 2.364228e+00 5.130459e+00 9.696614e+00 3.412565e+00 4.334651e+00 -3.354868e+00 1.804851e+00 -6.213218e+00 -6.705785e-01 -7.905675e+00 6.883028e+01 -2.066596e-01 2.934983e-01 -5.184789e-02 -1.412747e-01 4.079513e-02 3.097607e-01 3.748010e-01 8.306496e-02 2.044633e-01 3.071963e-01 -4.606655e-03 -1.559867e-01 -3.697016e-01 -4.566786e-02 -1.049465e-01 -4.397273e-02 -8.951449e-02 -6.454245e-02 -7.275497e-02 -5.489390e-02 6.579453e-02 -4.846007e-03 -6.108771e-02 2.312561e-02 8.260959e-02 4.049809e-02
<VARIANCE> 39
 7.355631e+00 2.653152e+01 1.790523e+01 2.862885e+01 1.145027e+01 2.207453e+01 2.015489e+01 1.821955e+01 2.540582e+01 1.548226e+01 1.105264e+01 2.128718e+01 7.913775e+00 1.966501e-01 7.284611e-01 7.261617e-01 9.472105e-01 1.010007e+00 8.715408e-01 8.792344e-01 9.091018e-01 9.336054e-01 9.990842e-01 6.494041e-01 9.008025e-01 2.648284e-01 2.365686e-02 9.709676e-02 1.002234e-01 9.549721e-02 1.503266e-01 1.331419e-01 1.646583e-01 1.800506e-01 1.499826e-01 1.779972e-01 9.833362e-02 1.225559e-01 3.229814e-02
<GCONST> 7.390019e+01
<STATE> 3
<MEAN> 39
 -8.673462e+00 4.003208e+00 -2.098497e-01 8.893707e-01 8.314313e+00 2.866568e+00 5.646333e+00 -3.949716e+00 -9.682822e-01 -8.475973e+00 -1.536799e-01 -5.183878e+00 6.973373e+01 -5.026938e-01 -4.517569e-01 -1.387141e-01 -4.667572e-01 -1.028673e-01 -2.017433e-01 -1.951368e-01 5.939648e-01 2.850257e-01 -6.824377e-02 -3.412400e-02 2.164977e-01 4.020680e-02 -6.641297e-02 -2.580044e-01 -2.017193e-02 -2.089590e-01 -1.959534e-01 -1.636247e-01 -1.454055e-01 4.608064e-03 -9.338646e-02 -8.990657e-02 8.233930e-02 2.100733e-01 2.263089e-01
<VARIANCE> 39
 1.212091e+01 1.730394e+01 9.699883e+00 1.636637e+01 1.921894e+01 1.595538e+01 1.708627e+01 2.027174e+01 3.689561e+01 2.453062e+01 1.818349e+01 1.631235e+01 1.193100e+01 4.636528e-01 1.310894e+00 1.208932e+00 1.948457e+00 1.412631e+00 1.099887e+00 1.507391e+00 1.120396e+00 2.153455e+00 2.036428e+00 1.701691e+00 1.701649e+00 8.780541e-01 7.834058e-02 2.156518e-01 1.819543e-01 4.167466e-01 2.203788e-01 2.555124e-01 3.232146e-01 2.249780e-01 3.771077e-01 3.953196e-01 3.314514e-01 2.850233e-01 1.387130e-01
<GCONST> 9.398200e+01
<STATE> 4
<MEAN> 39
 -1.598143e+01 -2.882737e+00 -3.855702e+00 -3.751729e+00 2.070578e+00 3.093261e-01 5.847342e+00 8.079158e-01 5.084635e+00 -4.123117e+00 3.920891e+00 -1.337100e+00 6.694961e+01 -8.490049e-02 -1.244883e-01 -1.159058e-01 -1.584973e-01 -1.018156e-01 -4.940552e-02 -2.762611e-02 6.167858e-02 1.360980e-02 1.338775e-02 9.021339e-02 1.311764e-01 -5.490696e-03 1.352524e-02 2.071684e-03 3.169523e-02 2.934481e-02 1.466545e-02 9.438111e-03 -5.830959e-03 -3.054282e-02 -3.552319e-02 -3.593971e-02 -2.742867e-02 -1.182249e-02 3.226677e-02
<VARIANCE> 39
 1.033750e+01 3.556613e+01 8.284920e+00 8.936148e+00 1.028529e+01 9.934503e+00 9.269605e+00 1.203078e+01 1.762733e+01 2.338775e+01 1.268500e+01 1.651569e+01 1.007365e+01 1.360327e-01 6.924705e-01 4.011595e-01 5.412130e-01 4.763478e-01 5.903733e-01 7.440998e-01 8.339254e-01 1.081521e+00 1.098334e+00 9.018513e-01 1.060862e+00 1.720761e-01 2.453512e-02 7.762811e-02 6.923495e-02 8.486746e-02 8.526864e-02 1.136024e-01 1.401576e-01 1.728936e-01 2.017224e-01 1.982632e-01 1.792964e-01 2.107570e-01 2.420052e-02
<GCONST> 6.766518e+01
<TRANSP> 5
 0.000000e+00 1.000000e+00 0.000000e+00 0.000000e+00 0.000000e+00
 0.000000e+00 8.387706e-01 1.612294e-01 0.000000e+00 0.000000e+00
 0.000000e+00 0.000000e+00 6.476560e-01 3.523440e-01 0.000000e+00
 0.000000e+00 0.000000e+00 0.000000e+00 9.080546e-01 9.194535e-02
 0.000000e+00 0.000000e+00 0.000000e+00 0.000000e+00 0.000000e+00
<ENDHMM>
~h "q"
<BEGINHMM>
<NUMSTATES> 5
<STATE> 2
<MEAN> 39
 -1.321150e+01 2.307175e+00 3.632910e+00 -6.799611e+00 -2.396654e+00 -3.964440e+00 5.452437e+00 1.214112e+00 2.678848e+00 -6.681998e+00 8.819215e-01 -4.384972e+00 7.394744e+01 -1.029883e+00 -5.232416e-01 3.237189e-01 -1.071329e+00 -4.692134e-01 5.709212e-01 2.077224e-01 4.383169e-01 1.595687e-01 -2.528035e-01 1.325795e-01 3.188100e-01 1.472659e-01 5.086008e-02 -1.618781e-01 -1.306053e-01 1.608265e-03 1.145333e-01 9.156314e-02 5.986422e-02 2.449718e-02 -3.062788e-03 -2.815506e-02 6.022497e-03 -1.872981e-02 -2.915556e-02
<VARIANCE> 39
 3.393785e+01 2.195985e+01 2.153667e+01 2.994000e+01 2.127770e+01 2.974883e+01 3.229381e+01 3.261183e+01 2.859467e+01 2.203161e+01 2.417958e+01 2.904188e+01 8.269018e+00 2.393563e+00 2.280274e+00 2.307958e+00 1.452822e+00 3.228889e+00 3.323563e+00 2.893597e+00 5.502348e+00 2.642163e+00 3.827606e+00 1.981267e+00 2.523791e+00 1.192026e+00 5.941410e-01 4.393599e-01 4.393655e-01 4.116105e-01 5.788398e-01 4.891382e-01 5.778024e-01 1.038179e+00 4.461237e-01 6.784618e-01 4.493663e-01 5.388426e-01 1.774477e-01
<GCONST> 1.162607e+02
<STATE> 3
<MEAN> 39
 -1.711894e+01 -4.763585e+00 3.839512e-01 -9.394464e+00 -2.518320e+00 2.609296e-01 7.601476e+00 4.075099e+00 3.206315e+00 -8.596448e+00 1.435629e+00 -2.437378e+00 7.358657e+01 9.733218e-01 -5.366917e-01 -5.358772e-01 1.545029e+00 7.818668e-01 3.411409e-01 1.141066e-01 -2.829065e-01 -2.238495e-01 5.976726e-01 4.447538e-03 3.405826e-02 -5.444601e-01 4.007454e-01 5.771976e-01 3.332385e-01 5.598579e-01 3.546236e-01 -1.520287e-01 -4.273319e-01 -3.292326e-01 -8.313598e-03 -4.055768e-02 -1.856414e-01 -1.836409e-01 -7.789158e-02
<VARIANCE> 39
 9.615318e+00 3.513494e+01 1.665862e+01 1.860837e+01 1.543817e+01 3.157006e+01 3.727545e+01 4.032008e+01 1.827436e+01 3.197598e+01 1.488675e+01 1.658514e+01 7.798090e+00 2.214448e+00 2.851950e+00 1.807342e+00 1.573077e+00 1.781545e+00 1.449980e+00 6.489973e+00 2.675074e+00 1.878402e+00 1.984414e+00 1.529387e+00 1.700204e+00 7.484825e-01 4.702531e-01 4.793383e-01 3.314786e-01 2.705733e-01 3.016955e-01 3.658852e-01 1.310472e+00 5.625567e-01 5.324569e-01 5.428749e-01 3.215415e-01 4.778743e-01 1.965300e-01
<GCONST> 1.081957e+02
<STATE> 4
<MEAN> 39
 -9.672646e+00 -2.277578e+00 4.562082e+00 2.778252e+00 7.063939e+00 1.565850e+00 4.041327e+00 1.946837e+00 3.058143e+00 -7.042974e+00 -1.393247e+00 -7.824606e+00 7.165053e+01 2.286994e+00 1.964848e+00 1.154977e+00 2.733044e+00 1.754118e+00 -3.014535e-01 -2.412858e+00 -1.019357e+00 -5.815294e-02 -7.703632e-01 -1.149141e+00 -1.895036e+00 9.273595e-02 -4.346555e-01 -2.054321e-01 -3.211019e-01 -5.861426e-01 -3.553058e-01 -2.507707e-01 -4.391926e-01 -2.306031e-01 -1.340827e-01 -2.102278e-01 1.181732e-01 3.862703e-01 2.332840e-01
<VARIANCE> 39
 1.351280e+01 3.335218e+01 1.663724e+01 4.350042e+01 4.191758e+01 2.042000e+01 6.900043e+01 1.653541e+01 2.566678e+01 1.605549e+01 2.301141e+01 2.249508e+01 4.617936e+00 2.028209e+00 1.027151e+00 2.078322e+00 1.628164e+00 3.465101e+00 1.903022e+00 3.000958e+00 1.371349e+00 2.938747e+00 1.515555e+00 1.847765e+00 3.075227e+00 5.495915e-01 2.881018e-01 4.113800e-01 2.745007e-01 2.989382e-01 2.748823e-01 4.402984e-01 1.159519e+00 1.487100e-01 2.745165e-01 3.795235e-01 4.384087e-01 6.214352e-01 9.010512e-02
<GCONST> 1.053800e+02
<TRANSP> 5
 0.000000e+00 1.000000e+00 0.000000e+00 0.000000e+00 0.000000e+00
 0.000000e+00 8.864365e-01 1.135635e-01 0.000000e+00 0.000000e+00
 0.000000e+00 0.000000e+00 8.030877e-01 1.969123e-01 0.000000e+00
 0.000000e+00 0.000000e+00 0.000000e+00 5.669693e-01 4.330308e-01
 0.000000e+00 0.000000e+00 0.000000e+00 0.000000e+00 0.000000e+00
<ENDHMM>
~h "r"
<BEGINHMM>
<NUMSTATES> 5
<STATE> 2
<MEAN> 39
 -5.604469e+00 1.412484e+00 4.724059e-01 -3.398851e+00 5.973321e+00 9.691581e-01 -1.197085e+00 -3.351004e+00 -5.427496e+00 -1.432489e+01 1.393195e+00 -1.626436e+00 7.476965e+01 4.391567e-02 2.821435e-01 -2.773213e-01 -3.180927e-01 3.811215e-01 3.229341e-01 -3.058243e-01 -1.772707e-01 -1.692352e-01 -5.241318e-01 -1.548356e-01 1.477931e-01 -1.680852e-01 -1.535067e-01 1.882791e-01 -2.279382e-02 1.492951e-01 -6.515668e-02 -3.818033e-02 2.988175e-01 1.156105e-01 2.495950e-01 1.618869e-01 -1.602375e-01 -1.835399e-01 -2.512106e-01
<VARIANCE> 39
 6.137146e+00 1.428794e+01 1.086049e+01 4.405432e+01 2.628045e+01 2.471641e+01 1.361088e+01 1.344485e+01 3.282492e+01 3.901473e+01 1.981980e+01 2.421077e+01 3.719360e+00 4.475490e-01 1.460043e+00 6.850762e-01 9.290328e-01 1.518762e+00 1.722060e+00 1.568510e+00 2.047314e+00 1.845844e+00 2.426950e+00 1.892356e+00 1.342813e+00 8.123824e-01 9.002879e-02 1.903482e-01 1.174305e-01 2.549062e-01 3.178924e-01 3.241251e-01 2.189836e-01 4.358607e-01 4.151542e-01 4.585588e-01 3.668928e-01 1.771481e-01 1.021294e-01
<GCONST> 9.325368e+01
<STATE> 3
<MEAN> 39
 -6.262652e+00 5.789537e+00 -8.688160e-01 -2.943280e+00 6.528949e+00 9.748610e-01 5.988039e-01 -3.764566e+00 -2.336655e+00 -1.296107e+01 -2.007350e+00 -5.092007e+00 7.085643e+01 -3.776788e-01 3.135232e-01 -7.662794e-02 7.995450e-01 2.694691e-01 -4.292115e-03 5.591251e-01 3.463577e-01 5.350359e-01 -7.924438e-02 -5.128923e-01 1.987543e-02 -7.823036e-01 -1.414567e-01 -4.126692e-01 2.281445e-01 3.160271e-02 -1.757456e-02 -1.934680e-02 -5.965185e-02 2.163092e-01 -4.062236e-02 7.884885e-02 2.630345e-01 1.967829e-01 2.958715e-01
<VARIANCE> 39
 9.261718e+00 7.736791e+00 1.003718e+01 1.985703e+01 2.344543e+01 1.909190e+01 8.308872e+00 2.053256e+01 2.250026e+01 3.335137e+01 1.679220e+01 2.136468e+01 6.788498e+00 2.397006e-01 1.262422e+00 7.870421e-01 1.714898e+00 2.027112e+00 1.212515e+00 1.491137e+00 2.285253e+00 1.710711e+00 3.191704e+00 1.643402e+00 1.713301e+00 7.533121e-01 5.920302e-02 2.265319e-01 1.567444e-01 2.798302e-01 3.187954e-01 3.980573e-01 2.004834e-01 4.131961e-01 3.057612e-01 4.792019e-01 2.645044e-01 2.250099e-01 1.722087e-01
<GCONST> 9.209023e+01
<STATE> 4
<MEAN> 39
 -6.619239e+00 1.843052e+00 -1.859925e-01 3.238976e+00 9.558970e+00 1.543986e+00 2.446383e+00 -9.466271e-01 -6.277519e+00 -1.813515e+01 -9.240289e-01 -5.143998e-01 7.110426e+01 -3.039612e-01 -1.519104e-01 2.827803e-01 -6.666826e-02 1.392088e-02 2.787403e-01 3.682818e-02 -4.628968e-02 6.905729e-02 2.736060e-01 2.047438e-01 -1.760912e-01 3.151261e-02 -4.997085e-02 -1.666801e-02 5.090794e-02 -5.755092e-02 -1.474117e-01 4.422443e-02 -1.145718e-02 -1.764781e-01 8.786957e-02 2.303312e-01 8.901744e-02 -4.573188e-02 2.769501e-02
<VARIANCE> 39
 5.651802e+00 1.452491e+01 1.469719e+01 1.764655e+01 1.923045e+01 2.043278e+01 2.920393e+01 2.478499e+01 4.034612e+01 5.010011e+01 1.892300e+01 2.827669e+01 8.560104e+00 4.675527e-01 1.669876e+00 1.339332e+00 1.385366e+00 1.653788e+00 2.015810e+00 2.113191e+00 2.371552e+00 2.591319e+00 3.548840e+00 2.240870e+00 2.330055e+00 9.433103e-01 7.045263e-02 2.657557e-01 2.778998e-01 2.484097e-01 3.496377e-01 2.799847e-01 4.233796e-01 5.408526e-01 3.939721e-01 7.119999e-01 4.014323e-01 4.076944e-01 1.733350e-01
<GCONST> 1.019593e+02
<TRANSP> 5
 0.000000e+00 1.000000e+00 0.000000e+00 0.000000e+00 0.000000e+00
 0.000000e+00 7.592244e-01 2.407756e-01 0.000000e+00 0.000000e+00
 0.000000e+00 0.000000e+00 6.441067e-01 3.558933e-01 0.000000e+00
 0.000000e+00 0.000000e+00 0.000000e+00 7.964224e-01 2.035776e-01
 0.000000e+00 0.000000e+00 0.000000e+00 0.000000e+00 0.000000e+00
<ENDHMM>
~h "s"
<BEGINHMM>
<NUMSTATES> 5
<STATE> 2
<MEAN> 39
 -1.703587e+01 -1.313574e+00 8.089709e+00 -3.853999e+00 4.250834e+00 3.010671e+00 7.802897e+00 -3.828626e+00 -6.851698e-01 -7.977279e+00 2.732595e-01 -2.301792e+00 7.373430e+01 -2.524894e+00 -9.743764e-01 1.433272e+00 -1.273609e+00 -1.064307e+00 -1.611619e-01 4.146962e-01 -3.231868e-01 5.429934e-01 5.730498e-01 -1.046204e-01 5.187634e-01 8.107055e-01 -2.590609e-02 1.378803e-01 -1.833244e-01 -1.912616e-01 2.298085e-02 -6.186547e-02 -2.030500e-01 1.917431e-02 9.496700e-02 4.875963e-02 -1.712276e-02 -1.538700e-01 -5.950709e-02
<VARIANCE> 39
 3.660485e+01 1.383784e+01 3.017678e+01 3.306832e+01 2.331751e+01 2.516567e+01 2.231899e+01 2.858162e+01 2.721115e+01 2.940066e+01 1.450211e+01 1.178440e+01 1.811618e+01 1.505379e+00 1.208245e+00 1.724748e+00 1.642255e+00 1.551579e+00 2.029284e+00 2.455389e+00 1.395799e+00 2.043710e+00 1.860866e+00 1.506888e+00 1.414353e+00 7.198143e-01 4.046142e-01 1.814065e-01 3.408406e-01 2.322998e-01 2.994144e-01 3.727212e-01 3.262936e-01 2.351919e-01 3.853363e-01 4.369614e-01 2.617786e-01 2.421606e-01 1.311559e-01
<GCONST> 1.016683e+02
<STATE> 3
<MEAN> 39
 -2.476162e+01 -6.374189e+00 9.465574e+00 -8.407476e+00 1.040113e+00 6.091101e-01 8.504180e+00 -1.275852e+00 3.185605e-01 -5.843666e+00 1.374529e+00 -6.139801e-01 7.518035e+01 -3.149360e-01 -1.745417e-01 -4.393103e-01 -2.952917e-01 -3.840125e-02 -1.979993e-01 -7.218301e-02 1.980692e-01 3.808018e-01 1.761550e-01 1.195352e-01 5.611100e-02 -1.204260e-01 3.718345e-01 4.032982e-02 -2.870629e-01 3.001267e-01 1.113464e-01 -4.442449e-02 3.713401e-02 4.470771e-02 -3.414111e-02 -5.362810e-02 6.253107e-02 -2.021747e-02 -1.127576e-01
<VARIANCE> 39
 2.666785e+01 2.540742e+01 4.641535e+01 2.508061e+01 8.733797e+00 2.892792e+01 1.967147e+01 3.600302e+01 2.545383e+01 2.346065e+01 1.515479e+01 9.860597e+00 9.356564e+00 6.277946e-01 6.557412e-01 1.045769e+00 8.338540e-01 5.980517e-01 9.939943e-01 7.697229e-01 1.287881e+00 1.203430e+00 1.048234e+00 8.432781e-01 7.452211e-01 2.212423e-01 1.296500e-01 9.950721e-02 2.032667e-01 1.629440e-01 1.482565e-01 2.110887e-01 1.310813e-01 2.817314e-01 2.497465e-01 1.783070e-01 1.596934e-01 1.732888e-01 5.464570e-02
<GCONST> 8.356449e+01
<STATE> 4
<MEAN> 39
 -2.198063e+01 -1.956184e+00 3.107555e+00 -8.544662e+00 2.271950e+00 2.621494e+00 7.346221e+00 -2.883979e+00 5.412626e+00 -3.516350e+00 2.350711e+00 -1.769376e+00 7.119636e+01 1.199221e+00 4.301130e-01 -8.878444e-01 8.383280e-01 2.913953e-01 -2.378276e-01 -2.252075e-02 1.701920e-01 -1.162428e-01 -3.058813e-01 -7.074448e-02 -1.403845e-01 -4.886374e-01 2.149088e-01 7.335862e-02 2.035928e-01 1.336636e-01 4.799093e-02 -8.469749e-02 -7.607523e-02 -5.694458e-02 -2.673471e-01 -2.411055e-01 -1.383425e-01 -1.300559e-01 1.318750e-01
<VARIANCE> 39
 3.155489e+01 2.190353e+01 3.359891e+01 2.649334e+01 9.956711e+00 1.823354e+01 1.320142e+01 2.052356e+01 2.457235e+01 1.761157e+01 1.571942e+01 1.244111e+01 2.335363e+01 2.726058e+00 1.944944e+00 2.641670e+00 1.580046e+00 1.206423e+00 1.778239e+00 1.203822e+00 1.662201e+00 2.396930e+00 2.000451e+00 1.039232e+00 1.203052e+00 1.591433e+00 4.612626e-01 3.890527e-01 4.455737e-01 2.923749e-01 2.542109e-01 3.026491e-01 2.423202e-01 3.336607e-01 3.824181e-01 2.981258e-01 2.106387e-01 2.360583e-01 2.795621e-01
<GCONST> 1.018335e+02
<TRANSP> 5
 0.000000e+00 1.000000e+00 0.000000e+00 0.000000e+00 0.000000e+00
 0.000000e+00 7.710081e-01 2.289919e-01 0.000000e+00 0.000000e+00
 0.000000e+00 0.000000e+00 8.290458e-01 1.709541e-01 0.000000e+00
 0.000000e+00 0.000000e+00 0.000000e+00 7.770345e-01 2.229655e-01
 0.000000e+00 0.000000e+00 0.000000e+00 0.000000e+00 0.000000e+00
<ENDHMM>
~h "t"
<BEGINHMM>
<NUMSTATES> 5
<STATE> 2
<MEAN> 39
 -6.537663e+00 -3.582816e+00 -1.312190e+00 -3.386560e+00 5.122334e-01 -4.202579e+00 6.253257e+00 -4.870200e+00 -5.525348e+00 -1.139569e+01 3.758598e+00 -2.981775e+00 8.036103e+01 1.193122e-01 -1.159564e-01 -9.340711e-02 -1.811989e-01 -1.384583e-01 -8.676046e-02 -6.485832e-02 -1.703368e-01 -2.507687e-01 -3.430898e-03 2.509384e-01 1.081559e-01 1.678267e-01 -3.704165e-03 1.277594e-01 6.003872e-02 6.592614e-02 1.039096e-01 1.407403e-01 3.256448e-03 2.983612e-02 8.546168e-02 2.509979e-02 -1.294691e-01 -4.216000e-02 -1.505354e-01
<VARIANCE> 39
 1.868096e+01 1.254079e+01 1.383800e+01 1.857393e+01 3.180315e+01 2.031385e+01 4.526281e+01 2.739578e+01 5.251759e+01 2.687259e+01 2.422160e+01 2.411624e+01 2.306871e+01 3.817744e-01 6.618970e-01 7.545485e-01 8.533043e-01 1.087465e+00 8.983330e-01 1.279309e+00 1.152066e+00 1.062113e+00 1.393589e+00 1.059185e+00 9.566630e-01 5.250885e-01 8.989283e-02 1.391305e-01 1.002693e-01 1.306035e-01 1.671900e-01 1.686977e-01 2.364420e-01 2.557790e-01 2.017649e-01 2.542389e-01 1.779772e-01 2.078335e-01 9.152492e-02
<GCONST> 8.759816e+01
<STATE> 3
<MEAN> 39
 -7.069392e+00 -6.911284e-01 1.419716e-01 -4.374590e+00 3.951965e+00 3.715951e-01 3.892672e+00 -7.496098e+00 -8.757478e+00 -1.199588e+01 2.142488e+00 -2.651543e+00 7.854016e+01 2.082074e-01 5.829300e-01 2.484665e-01 3.247894e-01 9.662157e-02 4.766584e-01 -4.823846e-02 -8.053555e-02 3.428609e-02 2.207445e-01 -1.212457e-01 -6.350641e-03 -6.476446e-01 -1.881405e-02 1.876201e-01 -1.650660e-01 1.244756e-01 -2.801120e-03 -7.554328e-02 1.895054e-02 1.230701e-01 4.099559e-01 1.209007e-01 -7.193010e-02 -1.585066e-02 -3.009308e-01
<VARIANCE> 39
 1.586339e+01 1.424059e+01 2.834256e+01 2.297540e+01 1.751414e+01 2.195535e+01 2.581030e+01 3.335035e+01 3.860046e+01 2.106812e+01 1.608792e+01 3.051480e+01 1.987533e+01 9.406891e-01 1.049712e+00 1.120826e+00 1.457845e+00 1.631480e+00 1.726740e+00 2.374972e+00 1.926321e+00 3.943262e+00 2.322827e+00 1.218490e+00 1.548171e+00 2.055018e+00 1.194635e-01 1.997377e-01 2.732292e-01 2.218685e-01 3.360790e-01 3.821382e-01 3.269782e-01 3.567310e-01 5.219337e-01 3.911557e-01 2.388215e-01 2.343048e-01 2.376064e-01
<GCONST> 1.021284e+02
<STATE> 4
<MEAN> 39
 -9.113613e+00 2.897496e+00 -1.008031e+00 -2.004042e+00 4.723732e+00 2.088760e-01 5.034153e+00 -4.344637e+00 -2.267757e+00 -9.987134e+00 1.973295e+00 -1.239731e+00 7.092369e+01 -3.068895e-01 1.030884e-01 -2.354179e-01 2.617802e-02 -1.143815e-02 -3.603316e-02 1.161110e-01 4.503049e-01 6.869457e-01 2.774962e-01 -7.659528e-02 -3.927471e-02 -3.511043e-01 -6.164069e-02 -1.874543e-01 7.764193e-02 -7.746424e-02 -1.724483e-02 4.702419e-02 -9.886339e-03 3.236733e-03 -1.665674e-01 -6.638327e-02 -1.281618e-02 -4.182342e-02 2.540159e-01
<VARIANCE> 39
 1.476302e+01 2.060396e+01 1.001720e+01 1.512469e+01 1.379723e+01 1.270749e+01 1.794600e+01 1.999356e+01 1.765063e+01 2.445601e+01 1.700916e+01 1.876693e+01 1.584736e+01 1.315354e+00 1.302267e+00 1.298268e+00 1.302839e+00 1.276504e+00 1.377946e+00 1.453469e+00 1.683645e+00 2.006590e+00 1.860358e+00 1.253115e+00 1.492423e+00 1.393515e+00 1.759524e-01 2.643692e-01 2.297373e-01 2.051929e-01 2.605603e-01 2.517493e-01 3.105144e-01 3.642676e-01 3.009844e-01 3.666453e-01 2.380838e-01 2.669235e-01 2.248738e-01
<GCONST> 9.538148e+01
<TRANSP> 5
 0.000000e+00 1.000000e+00 0.000000e+00 0.000000e+00 0.000000e+00
 0.000000e+00 7.984346e-01 2.015654e-01 0.000000e+00 0.000000e+00
 0.000000e+00 0.000000e+00 7.207892e-01 2.792108e-01 0.000000e+00
 0.000000e+00 0.000000e+00 0.000000e+00 8.338075e-01 1.661926e-01
 0.000000e+00 0.000000e+00 0.000000e+00 0.000000e+00 0.000000e+00
<ENDHMM>
~h "u"
<BEGINHMM>
<NUMSTATES> 5
<STATE> 2
<MEAN> 39
 -6.021172e+00 1.022958e+00 4.172857e+00 9.173881e+00 1.536082e+01 6.950485e-01 -7.327469e+00 -5.031389e+00 1.188921e-01 -1.194876e+01 -5.082954e+00 -8.738715e+00 7.194154e+01 2.365635e-01 7.983809e-01 -3.296911e-01 -7.723380e-03 -1.114051e-01 -6.575195e-01 -4.012136e-01 -7.951933e-01 3.881265e-01 2.960969e-01 -2.607764e-01 -4.709315e-01 -1.194559e-01 -2.442381e-01 9.797907e-03 2.657758e-03 -4.231037e-01 -5.282566e-01 -2.171139e-01 2.384447e-01 5.618477e-02 1.470321e-01 4.368512e-01 2.566368e-01 1.276577e-01 -6.708281e-02
<VARIANCE> 39
 4.738086e+00 8.229917e+00 1.127607e+01 4.189779e+01 4.830302e+01 6.428476e+00 1.863502e+01 1.199574e+01 1.015498e+01 4.914331e+00 3.015486e+00 1.173218e+01 2.162885e+00 1.172392e+00 4.666239e-01 5.056366e-01 3.972373e+00 4.881763e+00 1.447659e+00 2.724970e+00 1.313915e+00 2.410300e+00 2.330577e+00 1.094594e+00 1.286264e+00 3.456685e-01 1.343464e-01 9.764411e-02 1.218266e-01 2.838223e-01 1.429071e-01 2.047057e-01 2.055590e-01 2.950037e-01 2.577232e-01 1.430711e-01 1.286586e-01 3.468082e-01 3.697161e-02
<GCONST> 8.148460e+01
<STATE> 3
<MEAN> 39
 -1.282616e+01 3.882791e+00 4.500325e+00 -7.375664e+00 2.123744e+00 -6.676366e+00 1.160292e+00 -9.302653e-01 5.345508e+00 -3.423112e+00 -7.534575e-01 -2.805132e+00 6.987218e+01 4.825431e-01 8.532157e-01 6.365783e-01 6.853687e-01 1.654558e-03 -8.737813e-01 -4.011177e-01 -1.596448e-01 -1.987829e-01 8.075956e-01 8.358550e-02 -6.238551e-02 -2.170743e-01 2.519922e-01 1.136323e-01 3.863451e-02 1.606469e-01 8.302481e-02 2.161855e-01 -1.972859e-01 -1.489681e-01 -2.960193e-01 -2.694784e-01 -5.207271e-02 3.195932e-02 2.071972e-02
<VARIANCE> 39
 3.720885e+01 1.576216e+01 2.997592e+01 5.177651e+01 1.269169e+01 3.035196e+01 3.388987e+01 2.007141e+01 4.187487e+01 2.143853e+01 9.287946e+00 8.299750e+00 3.079211e+00 3.493940e+00 2.969723e+00 1.463019e+00 5.494531e+00 1.106891e+00 2.226375e+00 3.559931e+00 2.883595e+00 4.863983e+00 3.867779e+00 1.133364e+00 3.932464e-01 6.494663e-01 3.301500e-01 3.480735e-01 2.761338e-01 6.747265e-01 1.215679e-01 5.151236e-01 8.294539e-01 6.181383e-01 9.696089e-01 6.447111e-01 1.732308e-01 1.255431e-01 4.993723e-02
<GCONST> 1.049161e+02
<STATE> 4
<MEAN> 39
 -4.998874e+00 1.121084e+01 4.233935e+00 1.692871e+00 4.405730e+00 -5.472864e+00 -2.352350e+00 -4.504297e+00 5.097088e+00 -5.849303e+00 -1.214382e+00 -4.539261e+00 6.849196e+01 -1.496875e-02 -1.585709e-01 -2.445769e-01 -2.273143e-01 -1.945946e-01 2.084774e-01 2.983725e-01 1.153051e-01 1.799374e-01 2.233510e-02 -1.897004e-01 -2.698522e-01 -7.040746e-04 -5.174075e-02 -2.405667e-01 -6.933853e-02 -7.505342e-02 9.104887e-02 1.027051e-01 9.718437e-02 1.919907e-01 -7.556141e-02 -1.383421e-01 -7.197157e-03 1.202960e-02 7.377309e-02
<VARIANCE> 39
 5.285258e+00 7.009856e+00 1.615214e+01 1.357108e+01 2.764216e+01 4.180005e+01 2.367901e+01 1.622890e+01 5.893002e+00 4.115360e+01 1.264961e+01 1.884795e+01 2.997635e+00 2.850621e-01 6.521124e-01 1.275931e+00 5.999562e-01 1.102103e+00 3.803809e+00 3.245508e+00 1.992962e+00 1.092211e+00 2.399639e+00 1.856634e+00 2.054611e+00 2.715165e-01 5.561643e-02 1.234428e-01 2.098172e-01 1.028546e-01 2.162794e-01 5.331080e-01 5.555291e-01 3.356448e-01 2.440473e-01 4.825254e-01 4.335810e-01 4.485831e-01 3.731511e-02
<GCONST> 8.837317e+01
<TRANSP> 5
 0.000000e+00 1.000000e+00 0.000000e+00 0.000000e+00 0.000000e+00
 0.000000e+00 7.692229e-01 2.307772e-01 0.000000e+00 0.000000e+00
 0.000000e+00 0.000000e+00 8.235447e-01 1.764554e-01 0.000000e+00
 0.000000e+00 0.000000e+00 0.000000e+00 9.317366e-01 6.826340e-02
 0.000000e+00 0.000000e+00 0.000000e+00 0.000000e+00 0.000000e+00
<ENDHMM>
~h "w"
<BEGINHMM>
<NUMSTATES> 5
<STATE> 2
<MEAN> 39
 -1.149409e+01 1.461298e+00 4.891316e+00 -4.669259e-01 4.322801e+00 -1.909776e+00 6.376790e+00 -3.427907e-01 -4.567087e-01 -9.326357e+00 -1.591375e+00 -4.618603e+00 7.236070e+01 4.223634e-01 5.163761e-01 3.372560e-01 2.349594e-01 -1.414347e-01 -7.093096e-01 -3.182722e-01 7.397401e-02 1.747197e-01 -1.345511e-01 -4.324544e-01 -4.237602e-01 3.509266e-01 -3.395482e-02 4.242749e-03 -8.501490e-02 -7.705172e-02 -6.172043e-02 -1.413734e-01 -2.092481e-01 2.583000e-03 2.409594e-01 1.349761e-01 1.175917e-01 2.195327e-02 -3.509461e-04
<VARIANCE> 39
 4.533063e+01 4.862292e+01 6.799830e+01 2.018816e+01 2.813325e+01 2.316789e+01 4.665412e+01 1.959054e+01 3.463720e+01 3.521803e+01 1.713737e+01 2.106490e+01 2.191645e+01 4.461193e+00 3.342337e+00 2.966713e+00 1.352427e+00 2.068320e+00 2.769364e+00 3.184350e+00 1.813058e+00 3.462317e+00 3.214643e+00 1.508923e+00 2.503447e+00 1.464330e+00 4.115481e-01 3.714591e-01 4.191254e-01 2.571600e-01 3.063146e-01 3.528633e-01 4.107396e-01 3.153839e-01 5.216081e-01 5.649222e-01 3.006988e-01 3.782164e-01 2.082470e-01
<GCONST> 1.143509e+02
<STATE> 3
<MEAN> 39
 -9.774756e+00 3.612456e+00 2.954721e+00 -1.154583e+00 4.027500e+00 -4.177063e+00 9.787361e-01 -6.066625e-01 4.221087e+00 -8.434003e+00 -2.585036e+00 -5.272258e+00 7.228040e+01 1.387513e-01 2.867433e-01 5.246175e-03 -2.343895e-01 -1.605536e-01 -1.689658e-01 -4.724620e-01 -1.834898e-01 5.087908e-01 3.346228e-01 1.387076e-01 -2.299537e-01 -4.226953e-02 -3.329177e-02 -2.986052e-02 -3.000714e-02 1.364535e-02 1.074081e-01 1.896611e-01 1.386129e-01 -1.451128e-01 -2.371384e-01 5.765626e-02 2.296784e-01 3.768664e-02 -1.158907e-01
<VARIANCE> 39
 4.740706e+01 6.956806e+01 2.240038e+01 3.549376e+01 4.039733e+01 4.599810e+01 2.370497e+01 2.719473e+01 2.885308e+01 2.581326e+01 2.168109e+01 3.359417e+01 1.465876e+01 2.497239e+00 2.651862e+00 2.024708e+00 3.020231e+00 1.602462e+00 3.815696e+00 3.648340e+00 2.961999e+00 2.924324e+00 2.445315e+00 1.223913e+00 1.808922e+00 9.666841e-01 3.794032e-01 3.995655e-01 3.593923e-01 4.160302e-01 2.610450e-01 5.586952e-01 4.705422e-01 5.753596e-01 4.046123e-01 3.754713e-01 3.097188e-01 4.409877e-01 1.186276e-01
<GCONST> 1.139362e+02
<STATE> 4
<MEAN> 39
 -6.588842e+00 7.876100e+00 2.380271e+00 -2.019867e+00 2.070352e+00 -6.848526e+00 -1.271350e+00 -2.060098e+00 5.226433e+00 -5.524985e+00 -1.392374e+00 -7.950628e+00 7.088081e+01 -1.901810e-01 -1.508616e-01 -6.465629e-02 -1.123743e-01 1.350951e-01 2.515775e-01 1.148487e-01 -3.897209e-02 -1.735281e-01 -8.684966e-02 1.877516e-01 2.154209e-01 8.823164e-03 -8.264547e-02 -1.510796e-01 -2.376751e-02 -4.282708e-03 8.397489e-02 1.384666e-01 1.149523e-01 -3.464113e-03 -1.513000e-01 -8.932499e-02 -4.639529e-03 7.821948e-02 3.575857e-02
<VARIANCE> 39
 2.262749e+01 2.360188e+01 1.724398e+01 2.403348e+01 2.029278e+01 2.637120e+01 1.759554e+01 2.347713e+01 1.753114e+01 3.036795e+01 1.630717e+01 2.114775e+01 8.067732e+00 1.112534e+00 1.373554e+00 1.066855e+00 1.382345e+00 1.376573e+00 1.701033e+00 1.784539e+00 2.046513e+00 1.644972e+00 2.015354e+00 1.159418e+00 1.344127e+00 4.349357e-01 1.235344e-01 1.828576e-01 1.767442e-01 1.906312e-01 2.017330e-01 2.686041e-01 2.667956e-01 3.489411e-01 2.748756e-01 3.348897e-01 1.971965e-01 2.399692e-01 5.418542e-02
<GCONST> 9.344576e+01
<TRANSP> 5
 0.000000e+00 1.000000e+00 0.000000e+00 0.000000e+00 0.000000e+00
 0.000000e+00 6.378183e-01 3.621817e-01 0.000000e+00 0.000000e+00
 0.000000e+00 0.000000e+00 4.833477e-01 5.166523e-01 0.000000e+00
 0.000000e+00 0.000000e+00 0.000000e+00 8.576719e-01 1.423282e-01
 0.000000e+00 0.000000e+00 0.000000e+00 0.000000e+00 0.000000e+00
<ENDHMM>
~h "y"
<BEGINHMM>
<NUMSTATES> 5
<STATE> 2
<MEAN> 39
