~o
<STREAMINFO> 1 39
<VECSIZE> 39<NULLD><MFCC_D_A_0><DIAGC>
~h "A"
<BEGINHMM>
<NUMSTATES> 5
<STATE> 2
<MEAN> 39
 -9.389090e+00 1.344486e+00 1.247045e+00 -1.409056e+00 4.959569e+00 2.970481e-01 3.759329e+00 -2.770974e+00 -1.746393e+00 -9.367623e+00 1.172006e+00 -3.423205e+00 7.254859e+01 2.310431e-01 -1.280888e-02 -7.894971e-02 3.001565e-02 -1.383063e-01 -2.540142e-01 1.584311e-02 -1.243794e-01 -2.900092e-01 -1.835832e-01 1.244645e-01 2.748929e-01 2.087952e-01 -6.570701e-02 -1.922346e-02 -2.471696e-02 2.548543e-02 -1.847324e-02 -3.818687e-02 -6.707322e-03 -1.328026e-02 7.162195e-02 2.100166e-02 -2.129519e-02 -1.521297e-02 -2.125871e-02
<VARIANCE> 39
 3.234698e+01 2.376895e+01 2.393994e+01 2.829678e+01 3.359410e+01 3.233641e+01 2.405668e+01 2.189976e+01 4.619812e+01 3.815417e+01 2.386421e+01 2.808600e+01 3.857317e+01 1.822964e+00 1.713123e+00 1.466780e+00 1.548992e+00 1.829062e+00 2.149775e+00 1.788177e+00 1.548806e+00 2.773533e+00 2.401466e+00 1.577293e+00 1.600784e+00 1.193374e+00 2.441816e-01 2.880489e-01 2.336520e-01 2.423076e-01 2.480480e-01 3.579876e-01 3.016074e-01 2.725812e-01 4.420655e-01 4.246077e-01 2.436649e-01 3.326220e-01 1.683425e-01
<GCONST> 1.066660e+02
<STATE> 3
<MEAN> 39
 -8.183808e+00 1.089224e+00 7.521993e-01 -9.776705e-01 4.739573e+00 -5.481825e-01 3.412242e+00 -2.962188e+00 -2.606239e+00 -1.014266e+01 1.853402e+00 -2.585797e+00 7.339640e+01 3.265779e-02 3.155173e-02 -1.981074e-01 -4.313240e-03 -1.730351e-01 -2.804691e-01 5.132571e-02 -8.478151e-02 2.125733e-02 -3.686358e-02 5.582785e-02 1.394171e-01 -2.685755e-02 -8.351167e-02 3.493869e-02 1.970697e-02 1.682346e-03 5.139905e-02 8.134294e-02 1.451567e-02 1.254727e-02 1.168293e-01 6.388306e-02 -8.286630e-02 -1.201479e-01 -8.771300e-02
<VARIANCE> 39
 2.659451e+01 2.564542e+01 1.909043e+01 2.672635e+01 3.451666e+01 3.347866e+01 2.500929e+01 2.206493e+01 4.788867e+01 3.697923e+01 2.464984e+01 2.868190e+01 4.209274e+01 1.099815e+00 1.342648e+00 1.173088e+00 1.258277e+00 1.512868e+00 1.636594e+00 1.541195e+00 1.297692e+00 2.181434e+00 1.847420e+00 1.459570e+00 1.392975e+00 8.654282e-01 1.710130e-01 2.441774e-01 1.939927e-01 2.049175e-01 2.494673e-01 3.102033e-01 2.896574e-01 2.254118e-01 3.672726e-01 3.471161e-01 2.238108e-01 2.775968e-01 1.289549e-01
<GCONST> 1.013453e+02
<STATE> 4
<MEAN> 39
 -6.964633e+00 2.734164e-01 -5.892679e-01 -1.738715e+00 3.183923e+00 -2.051274e+00 3.508826e+00 -3.376127e+00 -3.886063e+00 -9.983938e+00 3.057068e+00 -2.182425e+00 7.416043e+01 -7.997610e-02 2.411047e-01 1.529808e-02 1.000127e-01 1.325987e-01 1.402147e-01 2.715437e-02 -3.656291e-02 1.796775e-01 4.024346e-02 -1.673662e-01 -1.176462e-01 -2.665055e-01 -4.879491e-02 6.751286e-02 5.209721e-02 3.849170e-02 8.510885e-02 1.131344e-01 -1.056731e-02 5.110949e-03 7.885683e-02 3.901907e-02 -7.405692e-02 -6.659888e-02 -6.471563e-02
<VARIANCE> 39
 2.439539e+01 2.268549e+01 2.064035e+01 2.336188e+01 3.420594e+01 2.809893e+01 2.629816e+01 2.486524e+01 4.989611e+01 3.555999e+01 2.564568e+01 3.040003e+01 3.314457e+01 6.037060e-01 1.133146e+00 9.472111e-01 1.033232e+00 1.289734e+00 1.425859e+00 1.255232e+00 1.121969e+00 1.612945e+00 1.422989e+00 1.149095e+00 1.291053e+00 6.268721e-01 8.313786e-02 1.668599e-01 1.475244e-01 1.530652e-01 1.967093e-01 2.365634e-01 2.103994e-01 1.993305e-01 2.845699e-01 2.515929e-01 2.055131e-01 2.378789e-01 9.421559e-02
<GCONST> 9.414754e+01
<TRANSP> 5
 0.000000e+00 1.000000e+00 0.000000e+00 0.000000e+00 0.000000e+00
 0.000000e+00 3.560744e-01 6.439256e-01 0.000000e+00 0.000000e+00
 0.000000e+00 0.000000e+00 2.329026e-01 7.670975e-01 0.000000e+00
 0.000000e+00 0.000000e+00 0.000000e+00 6.382813e-01 3.617187e-01
 0.000000e+00 0.000000e+00 0.000000e+00 0.000000e+00 0.000000e+00
<ENDHMM>
~h "D"
<BEGINHMM>
<NUMSTATES> 5
<STATE> 2
<MEAN> 39
 -1.046263e+01 1.192893e+00 6.305027e-01 -4.821957e-01 5.510118e+00 3.635251e-01 3.368382e+00 -2.087046e+00 1.058523e+00 -7.760965e+00 1.078395e+00 -3.910955e+00 7.106615e+01 -8.002754e-04 2.112335e-03 2.165078e-03 -1.564994e-03 -4.300685e-04 -6.324079e-04 -1.138046e-03 -8.787271e-04 1.271468e-03 1.846282e-03 -1.804322e-04 -1.278623e-03 8.343531e-04 -4.475967e-05 -7.284283e-05 6.230097e-05 -2.442853e-04 -2.338257e-04 -5.949535e-05 4.124621e-05 -3.071028e-04 -1.978394e-04 -1.140548e-04 -8.069598e-05 -8.477430e-05 4.232170e-05
<VARIANCE> 39
 3.765159e+01 3.402439e+01 3.148469e+01 4.143038e+01 4.410116e+01 3.300908e+01 3.624625e+01 2.761554e+01 4.947715e+01 4.012057e+01 2.551658e+01 3.113912e+01 4.344355e+01 1.430533e+00 1.639362e+00 1.207966e+00 1.426063e+00 1.597724e+00 1.687130e+00 1.852222e+00 1.504564e+00 2.150095e+00 1.829018e+00 1.449835e+00 1.662362e+00 8.789857e-01 2.020932e-01 2.530756e-01 1.999116e-01 2.097155e-01 2.506926e-01 2.923805e-01 3.142056e-01 2.754931e-01 3.601594e-01 3.260430e-01 2.625300e-01 2.975152e-01 1.394317e-01
<GCONST> 1.059066e+02
<STATE> 3
<MEAN> 39
 -1.046263e+01 1.192893e+00 6.305027e-01 -4.821957e-01 5.510118e+00 3.635251e-01 3.368382e+00 -2.087046e+00 1.058523e+00 -7.760965e+00 1.078395e+00 -3.910955e+00 7.106615e+01 -8.002754e-04 2.112335e-03 2.165078e-03 -1.564994e-03 -4.300685e-04 -6.324079e-04 -1.138046e-03 -8.787271e-04 1.271468e-03 1.846282e-03 -1.804322e-04 -1.278623e-03 8.343531e-04 -4.475967e-05 -7.284283e-05 6.230097e-05 -2.442853e-04 -2.338257e-04 -5.949535e-05 4.124621e-05 -3.071028e-04 -1.978394e-04 -1.140548e-04 -8.069598e-05 -8.477430e-05 4.232170e-05
<VARIANCE> 39
 3.765159e+01 3.402439e+01 3.148469e+01 4.143038e+01 4.410116e+01 3.300908e+01 3.624625e+01 2.761554e+01 4.947715e+01 4.012057e+01 2.551658e+01 3.113912e+01 4.344355e+01 1.430533e+00 1.639362e+00 1.207966e+00 1.426063e+00 1.597724e+00 1.687130e+00 1.852222e+00 1.504564e+00 2.150095e+00 1.829018e+00 1.449835e+00 1.662362e+00 8.789857e-01 2.020932e-01 2.530756e-01 1.999116e-01 2.097155e-01 2.506926e-01 2.923805e-01 3.142056e-01 2.754931e-01 3.601594e-01 3.260430e-01 2.625300e-01 2.975152e-01 1.394317e-01
<GCONST> 1.059066e+02
<STATE> 4
<MEAN> 39
 -1.046263e+01 1.192893e+00 6.305027e-01 -4.821957e-01 5.510118e+00 3.635251e-01 3.368382e+00 -2.087046e+00 1.058523e+00 -7.760965e+00 1.078395e+00 -3.910955e+00 7.106615e+01 -8.002754e-04 2.112335e-03 2.165078e-03 -1.564994e-03 -4.300685e-04 -6.324079e-04 -1.138046e-03 -8.787271e-04 1.271468e-03 1.846282e-03 -1.804322e-04 -1.278623e-03 8.343531e-04 -4.475967e-05 -7.284283e-05 6.230097e-05 -2.442853e-04 -2.338257e-04 -5.949535e-05 4.124621e-05 -3.071028e-04 -1.978394e-04 -1.140548e-04 -8.069598e-05 -8.477430e-05 4.232170e-05
<VARIANCE> 39
 3.765159e+01 3.402439e+01 3.148469e+01 4.143038e+01 4.410116e+01 3.300908e+01 3.624625e+01 2.761554e+01 4.947715e+01 4.012057e+01 2.551658e+01 3.113912e+01 4.344355e+01 1.430533e+00 1.639362e+00 1.207966e+00 1.426063e+00 1.597724e+00 1.687130e+00 1.852222e+00 1.504564e+00 2.150095e+00 1.829018e+00 1.449835e+00 1.662362e+00 8.789857e-01 2.020932e-01 2.530756e-01 1.999116e-01 2.097155e-01 2.506926e-01 2.923805e-01 3.142056e-01 2.754931e-01 3.601594e-01 3.260430e-01 2.625300e-01 2.975152e-01 1.394317e-01
<GCONST> 1.059066e+02
<TRANSP> 5
 0.000000e+00 1.000000e+00 0.000000e+00 0.000000e+00 0.000000e+00
 0.000000e+00 6.000000e-01 4.000000e-01 0.000000e+00 0.000000e+00
 0.000000e+00 0.000000e+00 6.000000e-01 4.000000e-01 0.000000e+00
 0.000000e+00 0.000000e+00 0.000000e+00 7.000000e-01 3.000000e-01
 0.000000e+00 0.000000e+00 0.000000e+00 0.000000e+00 0.000000e+00
<ENDHMM>
~h "E"
<BEGINHMM>
<NUMSTATES> 5
<STATE> 2
<MEAN> 39
 -7.917328e+00 -3.783455e-01 -4.136669e+00 -3.166210e+00 1.650925e+00 -3.731020e+00 7.093837e+00 2.385132e-01 -1.266664e+00 -7.566186e+00 5.466609e+00 -2.130421e+00 7.443841e+01 1.325673e-01 -2.352694e-01 -7.334216e-01 -3.968117e-01 -7.033153e-01 -4.098267e-01 4.239114e-01 2.797000e-01 3.054172e-01 5.333657e-01 4.025531e-01 -2.439228e-01 8.415936e-03 -6.275798e-02 8.584654e-02 1.908028e-01 -1.385466e-02 8.310058e-02 1.573190e-01 -3.481782e-02 1.825215e-02 2.501916e-02 -1.840101e-02 -7.031809e-02 -1.294535e-02 -3.522005e-02
<VARIANCE> 39
 3.646521e+01 1.328224e+01 1.167363e+01 1.687771e+01 2.616567e+01 1.634563e+01 1.931321e+01 1.547282e+01 3.944776e+01 1.196440e+01 1.862940e+01 1.817291e+01 9.694547e+00 4.574730e-01 5.119408e-01 9.017594e-01 9.360901e-01 1.350873e+00 1.158672e+00 1.535054e+00 1.012171e+00 1.274083e+00 1.380426e+00 1.003192e+00 1.076115e+00 2.170729e-01 6.351655e-02 1.157552e-01 1.278005e-01 1.270587e-01 2.187520e-01 1.637623e-01 2.287141e-01 1.698559e-01 2.044000e-01 1.923535e-01 1.674368e-01 2.093198e-01 4.516695e-02
<GCONST> 8.224118e+01
<STATE> 3
<MEAN> 39
 -6.710963e+00 -1.060973e+00 -5.424375e+00 -4.995896e+00 -5.088478e-01 -5.015832e+00 8.735626e+00 1.482005e+00 -5.555079e-01 -6.806673e+00 6.457023e+00 -2.102660e+00 7.517368e+01 3.930704e-02 1.732670e-01 2.849298e-01 -1.688909e-01 1.462027e-01 1.889494e-01 -1.855588e-01 -1.551184e-01 -8.541359e-02 -1.466664e-01 1.221869e-01 6.859937e-02 9.409828e-04 1.263527e-02 1.102553e-01 1.514063e-01 1.006059e-01 1.396681e-01 1.316821e-01 -1.422951e-01 -1.633034e-01 -9.547234e-02 -1.592327e-01 -1.196241e-01 1.670001e-03 -3.754915e-02
<VARIANCE> 39
 4.100610e+01 1.330434e+01 1.308520e+01 1.181110e+01 2.550803e+01 1.771586e+01 2.109359e+01 1.717025e+01 4.505331e+01 1.100580e+01 2.360848e+01 1.851894e+01 1.387217e+01 3.293242e-01 5.986754e-01 6.587751e-01 8.981239e-01 8.985416e-01 7.905443e-01 1.238336e+00 1.001331e+00 1.183527e+00 1.115843e+00 7.683306e-01 1.350238e+00 2.930782e-01 4.710583e-02 1.118231e-01 9.471524e-02 1.223136e-01 1.376313e-01 1.531557e-01 1.891271e-01 1.804099e-01 1.862984e-01 1.755571e-01 1.674259e-01 2.261604e-01 3.593473e-02
<GCONST> 7.979219e+01
<STATE> 4
<MEAN> 39
 -7.286840e+00 2.780516e+00 -2.686844e+00 -4.048697e+00 -7.751075e-02 -4.119408e+00 7.395392e+00 -5.160528e-01 8.376179e-01 -7.636274e+00 4.166359e+00 -4.626175e+00 7.186037e+01 -9.190750e-02 2.926069e-01 3.876315e-01 1.643817e-01 3.325665e-01 3.528371e-01 -3.033536e-01 -2.789775e-01 -9.439328e-02 -1.598160e-01 -2.583602e-01 -1.183072e-01 -2.433589e-01 -3.314909e-02 -5.431998e-03 -9.565401e-03 1.064924e-02 4.252486e-02 3.800483e-02 -3.338189e-02 -1.596102e-02 2.317717e-02 -2.399395e-02 -8.262282e-02 3.687462e-02 -1.556672e-02
<VARIANCE> 39
 2.791570e+01 1.796129e+01 1.280251e+01 1.389557e+01 2.295086e+01 2.998956e+01 2.723302e+01 1.637322e+01 3.652056e+01 2.779295e+01 1.858390e+01 2.374462e+01 2.648601e+01 6.801082e-01 9.798319e-01 8.150743e-01 1.070756e+00 1.315832e+00 1.358921e+00 1.221154e+00 1.342955e+00 1.231290e+00 1.571140e+00 1.562662e+00 1.265456e+00 5.125019e-01 6.343118e-02 1.858873e-01 1.180631e-01 1.703821e-01 1.703237e-01 1.887063e-01 2.010176e-01 2.323315e-01 1.963163e-01 2.628010e-01 2.707475e-01 2.334367e-01 7.570031e-02
<GCONST> 9.005112e+01
<TRANSP> 5
 0.000000e+00 1.000000e+00 0.000000e+00 0.000000e+00 0.000000e+00
 0.000000e+00 7.307779e-01 2.692222e-01 0.000000e+00 0.000000e+00
 0.000000e+00 0.000000e+00 7.928172e-01 2.071829e-01 0.000000e+00
 0.000000e+00 0.000000e+00 0.000000e+00 8.413602e-01 1.586399e-01
 0.000000e+00 0.000000e+00 0.000000e+00 0.000000e+00 0.000000e+00
<ENDHMM>
~h "H"
<BEGINHMM>
<NUMSTATES> 5
<STATE> 2
<MEAN> 39
 -5.851523e+00 1.339883e+00 -1.247774e+00 -5.043394e+00 2.875700e+00 -1.975587e+00 6.207679e+00 -3.434564e+00 -3.835541e+00 -7.186329e+00 3.744094e+00 -2.524107e+00 7.504218e+01 -2.466160e-01 -1.316932e+00 -8.155919e-01 -8.015938e-01 -3.289600e-01 2.160687e-01 8.568312e-01 2.185692e-01 -1.372046e-01 8.496770e-01 1.388061e+00 9.614571e-01 3.944070e-01 -2.493941e-01 -7.224359e-02 -9.609174e-02 2.375782e-01 3.022225e-01 1.791485e-01 -1.798843e-01 8.342653e-02 3.032898e-01 -5.322947e-02 4.239582e-03 3.420894e-02 -2.194961e-01
<VARIANCE> 39
 8.277807e+00 2.451518e+01 1.580002e+01 1.973117e+01 2.543645e+01 2.665689e+01 3.610646e+01 1.753731e+01 5.303255e+01 2.651727e+01 3.207149e+01 1.509111e+01 1.177513e+01 5.581334e-01 1.537229e+00 1.102771e+00 2.131552e+00 1.251443e+00 1.805878e+00 4.420276e+00 1.205829e+00 3.262636e+00 2.256778e+00 1.532437e+00 1.516559e+00 9.884024e-01 1.431714e-01 1.889002e-01 2.133225e-01 3.330730e-01 2.424075e-01 2.833757e-01 8.393753e-01 1.983577e-01 4.973811e-01 5.489661e-01 2.496609e-01 3.176280e-01 1.148942e-01
<GCONST> 1.008955e+02
<STATE> 3
<MEAN> 39
 -8.019211e+00 -2.954525e+00 -4.936373e+00 -5.663988e+00 5.267718e+00 -1.282165e+00 6.216551e+00 -2.766875e+00 -2.954563e+00 -6.486825e+00 7.415409e+00 7.490172e-01 7.485825e+01 -4.462280e-01 -1.168391e+00 -1.164804e+00 -4.550890e-02 3.496831e-01 2.379981e-01 -5.743408e-01 1.710319e-01 4.543605e-01 -2.730854e-01 3.098671e-01 6.537488e-01 -1.630975e-01 -1.828361e-02 4.863716e-02 2.037906e-02 3.697062e-02 -7.199220e-02 3.695004e-02 -2.192865e-01 -1.159085e-01 -2.491892e-02 -1.677573e-01 -2.524029e-01 -3.010581e-02 -6.862211e-02
<VARIANCE> 39
 1.117451e+01 3.205726e+01 2.243504e+01 1.448089e+01 1.827276e+01 2.327920e+01 2.463485e+01 1.752460e+01 4.113295e+01 2.547635e+01 1.725969e+01 1.583121e+01 7.701272e+00 5.067616e-01 1.518177e+00 9.735840e-01 7.020922e-01 9.576033e-01 1.663558e+00 2.749831e+00 8.697416e-01 1.822816e+00 1.909128e+00 1.857545e+00 7.350816e-01 3.496153e-01 4.626269e-02 1.845240e-01 1.397627e-01 1.543672e-01 1.650161e-01 2.631342e-01 6.266500e-01 1.711714e-01 2.370256e-01 3.341674e-01 2.769306e-01 1.279430e-01 6.545244e-02
<GCONST> 8.870021e+01
<STATE> 4
<MEAN> 39
 -1.066785e+01 -6.159375e+00 -8.448441e+00 -6.309494e+00 3.311983e+00 1.394012e-01 5.924735e+00 -1.548627e+00 1.186870e+00 -5.885884e+00 7.742144e+00 1.210402e+00 7.195503e+01 -2.624789e-01 2.047657e-01 5.444684e-02 9.583978e-02 -6.101326e-02 1.517635e-01 -4.831394e-02 -6.353477e-02 2.746530e-01 2.578956e-01 -2.109186e-01 -1.210332e-01 -4.568412e-01 1.370628e-02 1.666885e-01 1.715856e-01 4.674544e-02 4.328184e-03 -4.062930e-02 6.570441e-02 -6.962327e-03 -2.112832e-02 2.561153e-02 -6.135493e-02 -1.285625e-01 2.763342e-02
<VARIANCE> 39
 6.578088e+00 3.411887e+01 1.743014e+01 9.097217e+00 1.113794e+01 1.876427e+01 3.417568e+01 1.984892e+01 2.186790e+01 2.497341e+01 1.892325e+01 1.678522e+01 1.549169e+01 4.321665e-01 2.314319e+00 1.464754e+00 8.554306e-01 8.263429e-01 1.564418e+00 1.998050e+00 1.124043e+00 1.661406e+00 1.590660e+00 1.435963e+00 1.357004e+00 5.069402e-01 7.660207e-02 2.404030e-01 2.001099e-01 1.709863e-01 1.672602e-01 2.860007e-01 3.544968e-01 1.946735e-01 2.523032e-01 3.064743e-01 2.698618e-01 2.268603e-01 7.785768e-02
<GCONST> 9.008517e+01
<TRANSP> 5
 0.000000e+00 1.000000e+00 0.000000e+00 0.000000e+00 0.000000e+00
 0.000000e+00 6.849892e-01 3.150108e-01 0.000000e+00 0.000000e+00
 0.000000e+00 0.000000e+00 6.915619e-01 3.084382e-01 0.000000e+00
 0.000000e+00 0.000000e+00 0.000000e+00 9.084002e-01 9.159976e-02
 0.000000e+00 0.000000e+00 0.000000e+00 0.000000e+00 0.000000e+00
<ENDHMM>
~h "K"
<BEGINHMM>
<NUMSTATES> 5
<STATE> 2
<MEAN> 39
 -8.339771e+00 3.352151e+00 2.763433e+00 3.210983e+00 9.157745e+00 2.313206e+00 5.270200e+00 -5.335950e+00 -6.371803e+00 -1.522412e+01 -2.875674e+00 -4.572381e+00 7.198412e+01 1.077097e-01 6.701193e-03 -1.818976e-02 7.481853e-02 -9.565098e-02 -1.703514e-01 1.549364e-01 3.395731e-01 8.756092e-02 -3.734048e-01 -1.649621e-01 2.212773e-01 6.048990e-02 -2.238396e-01 -9.900036e-02 7.607206e-03 -1.842554e-01 -1.558978e-01 2.601166e-02 1.258022e-01 1.324821e-01 1.460980e-01 2.865065e-01 2.209944e-01 1.062168e-03 3.137968e-02
<VARIANCE> 39
 7.587306e+00 1.228466e+01 6.901093e+00 1.269129e+01 1.047043e+01 1.213812e+01 1.418414e+01 1.588892e+01 1.585082e+01 2.942348e+01 2.304901e+01 1.368332e+01 1.298448e+01 1.399780e+00 4.858186e-01 2.205689e-01 5.014119e-01 9.174032e-01 8.724486e-01 1.015169e+00 7.440027e-01 1.368952e+00 3.051526e+00 1.176349e+00 1.013872e+00 4.790750e-01 3.195460e-01 1.317227e-01 5.341463e-02 1.020465e-01 1.800447e-01 2.124469e-01 2.462569e-01 1.951801e-01 3.165419e-01 8.471844e-01 2.016741e-01 2.326259e-01 1.263165e-01
<GCONST> 8.206578e+01
<STATE> 3
<MEAN> 39
 -8.265515e+00 -1.704712e+00 1.251213e+00 -2.663990e+00 4.880835e+00 -5.325365e-01 2.370704e+00 -5.928829e+00 -8.466608e+00 -9.932464e+00 7.813700e+00 -2.933369e+00 7.627437e+01 -6.232483e-01 5.239110e-02 5.956070e-02 -5.706547e-01 -5.097651e-01 2.735453e-01 -8.479464e-02 3.153169e-01 1.579463e-01 2.331026e-01 1.598892e-01 3.111095e-02 -2.040363e-01 4.071977e-03 6.360768e-02 -1.754823e-02 8.736213e-02 4.618130e-02 7.662829e-02 7.117558e-02 2.683285e-02 1.216950e-01 4.228953e-02 -1.587169e-01 -8.116293e-02 -1.570895e-01
<VARIANCE> 39
 1.898658e+01 1.364164e+01 1.082845e+01 1.595997e+01 8.941027e+00 1.631915e+01 1.946749e+01 4.120162e+01 2.703505e+01 3.524257e+01 4.122294e+01 1.260152e+01 1.842783e+01 9.569600e-01 1.426988e+00 4.778433e-01 1.046984e+00 8.619884e-01 9.696037e-01 1.771596e+00 1.006662e+00 1.477240e+00 2.468699e+00 1.539701e+00 1.293201e+00 1.262332e+00 9.158742e-02 2.338603e-01 7.497250e-02 1.708275e-01 2.325295e-01 2.016005e-01 3.706824e-01 1.769542e-01 2.814573e-01 5.774091e-01 1.426952e-01 2.279660e-01 1.116998e-01
<GCONST> 9.089605e+01
<STATE> 4
<MEAN> 39
 -1.555630e+01 -4.860315e-01 -2.019192e-01 -6.541605e+00 2.884366e+00 1.848878e+00 5.926096e+00 1.444132e+00 -2.663476e+00 -1.237372e+01 4.666450e+00 -1.805560e+00 7.249139e+01 -1.037683e-01 2.112688e-01 1.147201e-01 2.834177e-01 -5.646359e-02 -4.718155e-01 6.373519e-01 5.088570e-01 8.976537e-01 7.191147e-01 -2.572202e-01 -2.378051e-02 -5.234655e-01 2.851769e-01 1.266628e-02 1.307335e-01 5.140684e-01 2.877475e-01 -6.124920e-03 -1.561828e-01 -5.002261e-02 -9.352207e-03 1.241664e-01 -1.369869e-01 -1.746753e-01 -1.811655e-02
<VARIANCE> 39
 3.546124e+01 1.065439e+01 1.154393e+01 3.681204e+01 1.457545e+01 2.408473e+01 2.016655e+01 6.001582e+01 2.145757e+01 6.811886e+01 2.158656e+01 9.721976e+00 2.525351e+01 6.975216e-01 9.205850e-01 8.084152e-01 1.721707e+00 5.719723e-01 1.197939e+00 8.890076e-01 9.067250e-01 9.903497e-01 2.326645e+00 1.658617e+00 6.539075e-01 6.461731e-01 8.092213e-02 1.243061e-01 1.159629e-01 2.375386e-01 1.785239e-01 2.701363e-01 4.055705e-01 2.157382e-01 1.850037e-01 4.162173e-01 2.715676e-01 1.632822e-01 1.779320e-01
<GCONST> 9.119390e+01
<TRANSP> 5
 0.000000e+00 1.000000e+00 0.000000e+00 0.000000e+00 0.000000e+00
 0.000000e+00 7.838084e-01 2.161917e-01 0.000000e+00 0.000000e+00
 0.000000e+00 0.000000e+00 7.684743e-01 2.315257e-01 0.000000e+00
 0.000000e+00 0.000000e+00 0.000000e+00 6.470464e-01 3.529536e-01
 0.000000e+00 0.000000e+00 0.000000e+00 0.000000e+00 0.000000e+00
<ENDHMM>
~h "S"
<BEGINHMM>
<NUMSTATES> 5
<STATE> 2
<MEAN> 39
 -9.618251e+00 3.444243e+00 1.695755e+00 -2.766296e+00 8.703031e+00 1.924755e+00 1.422616e+00 5.679820e-01 5.726580e-01 -1.178407e+01 -1.357064e+00 -1.673128e-01 7.354389e+01 -6.528320e-02 -1.095584e-01 2.177886e-01 -1.607688e-01 -5.705532e-01 -5.160824e-01 4.037537e-01 2.369004e-01 -3.264054e-02 -1.181172e-01 -1.141799e-01 2.878845e-01 1.667687e-01 -8.009996e-02 -3.691091e-02 4.953105e-02 -1.239588e-02 -2.558110e-02 1.191985e-02 5.906721e-02 1.556254e-02 -1.606122e-02 2.293838e-02 4.675677e-02 -3.370143e-02 5.893860e-03
<VARIANCE> 39
 3.788995e+01 2.417813e+01 9.319995e+00 1.879972e+01 5.038264e+01 4.037451e+01 5.821078e+01 1.668921e+01 2.888826e+01 3.622422e+01 2.779044e+01 3.153716e+01 1.409310e+01 2.720009e+00 2.049993e+00 8.555750e-01 2.151385e+00 3.499666e+00 5.104194e+00 3.876643e+00 1.536154e+00 2.481669e+00 2.312634e+00 2.449004e+00 2.406383e+00 1.742337e+00 3.706758e-01 2.846133e-01 1.128763e-01 3.377886e-01 3.573371e-01 9.206476e-01 4.194999e-01 2.809536e-01 4.115828e-01 4.532302e-01 3.757811e-01 4.062658e-01 2.890752e-01
<GCONST> 1.120411e+02
<STATE> 3
<MEAN> 39
 -2.118072e+01 -2.479521e+00 7.980060e+00 -6.835960e+00 1.272879e-01 -2.060627e+00 8.590508e+00 -2.764429e-01 1.357280e+00 -8.269046e+00 -1.568143e+00 -5.233513e-01 7.646783e+01 -1.309736e+00 -5.614381e-01 2.554563e-01 -7.572706e-01 -2.831700e-01 4.635526e-01 -2.108081e-02 -1.879182e-01 4.214494e-03 6.068854e-01 8.232630e-02 -9.574860e-02 1.945619e-01 3.135929e-01 1.290541e-01 -8.671924e-02 1.721269e-01 1.341024e-01 1.849310e-02 -1.123917e-01 2.121332e-02 1.071564e-01 1.205488e-01 4.500568e-02 -1.393417e-01 -1.673599e-01
<VARIANCE> 39
 7.374628e+01 2.551226e+01 3.429596e+01 4.181443e+01 9.708202e+00 4.193821e+01 2.504942e+01 3.808033e+01 2.613700e+01 2.451064e+01 1.353787e+01 1.474846e+01 3.867093e+00 4.265624e+00 1.601806e+00 2.760347e+00 1.933888e+00 1.730519e+00 4.246495e+00 2.432985e+00 2.818346e+00 1.078111e+00 2.139793e+00 1.559939e+00 1.597646e+00 7.784101e-01 4.186437e-01 3.534349e-01 4.159402e-01 3.783230e-01 1.996910e-01 6.826318e-01 3.729679e-01 4.045059e-01 2.171756e-01 5.134436e-01 4.034526e-01 3.213306e-01 1.433878e-01
<GCONST> 1.076586e+02
<STATE> 4
<MEAN> 39
 -2.255686e+01 -4.913555e+00 8.616812e+00 -6.510611e+00 -1.345812e+00 7.483842e-01 1.000142e+01 1.128529e-01 1.771012e+00 -3.648039e+00 1.040704e+00 -1.473337e+00 7.370380e+01 1.263624e+00 4.523642e-01 -6.158988e-01 7.823019e-01 4.617055e-01 2.647793e-02 -7.724246e-02 9.522941e-02 2.529227e-01 -1.147581e-01 -7.389093e-02 -4.589012e-01 -5.819705e-01 1.697305e-01 1.376635e-01 4.892239e-03 7.409874e-02 1.680703e-01 -5.777961e-04 -1.793606e-01 -1.281715e-01 -6.426182e-02 -9.342438e-02 -1.193220e-02 -2.428708e-02 -3.250417e-03
<VARIANCE> 39
 4.366140e+01 1.949380e+01 2.655305e+01 4.372795e+01 1.558959e+01 1.145153e+01 1.666411e+01 1.784296e+01 2.887870e+01 3.004945e+01 1.114137e+01 1.472283e+01 1.580296e+01 1.626834e+00 2.305844e+00 1.909765e+00 1.394646e+00 1.420221e+00 1.314911e+00 1.585371e+00 1.888169e+00 2.780736e+00 3.320135e+00 1.114210e+00 1.178868e+00 6.342293e-01 1.525051e-01 3.164501e-01 4.301255e-01 1.747364e-01 1.691509e-01 2.969050e-01 2.152499e-01 2.748598e-01 5.121780e-01 5.441366e-01 2.452776e-01 1.952000e-01 1.055949e-01
<GCONST> 9.904656e+01
<TRANSP> 5
 0.000000e+00 1.000000e+00 0.000000e+00 0.000000e+00 0.000000e+00
 0.000000e+00 9.187102e-01 8.128981e-02 0.000000e+00 0.000000e+00
 0.000000e+00 0.000000e+00 8.299583e-01 1.700417e-01 0.000000e+00
 0.000000e+00 0.000000e+00 0.000000e+00 8.610477e-01 1.389523e-01
 0.000000e+00 0.000000e+00 0.000000e+00 0.000000e+00 0.000000e+00
<ENDHMM>
~h "T"
<BEGINHMM>
<NUMSTATES> 5
<STATE> 2
<MEAN> 39
 -9.188264e+00 4.994484e+00 4.353826e+00 4.155362e+00 7.940901e+00 2.711083e+00 4.831124e+00 -3.138907e+00 1.375912e+00 -7.052390e+00 -9.032869e-01 -7.318528e+00 6.986026e+01 1.361344e-01 3.573639e-03 1.289869e-01 1.849803e-01 -1.457876e-01 1.598746e-01 -1.243083e-01 -2.962170e-01 -1.005058e-01 9.977534e-02 4.727950e-02 -1.617748e-01 1.706605e-01 8.532853e-02 3.910539e-02 4.918640e-02 1.906929e-02 -4.074775e-02 -1.260043e-01 -8.738442e-03 1.734561e-02 -5.826905e-02 -2.800364e-02 -6.813046e-02 -3.577429e-02 8.935485e-03
<VARIANCE> 39
 2.811798e+01 5.648854e+01 2.099428e+01 2.727352e+01 2.538081e+01 2.596512e+01 2.814590e+01 4.728403e+01 1.789126e+01 2.612186e+01 1.664954e+01 1.951675e+01 1.659237e+01 2.888394e+00 4.035490e+00 1.633080e+00 1.669447e+00 1.720754e+00 1.965706e+00 2.783401e+00 2.816332e+00 1.730043e+00 1.906445e+00 1.984709e+00 1.665663e+00 1.692026e+00 4.727486e-01 5.601279e-01 2.876666e-01 2.056637e-01 2.030664e-01 3.594792e-01 4.858359e-01 4.856224e-01 3.469580e-01 4.121882e-01 4.024568e-01 2.676684e-01 2.557542e-01
<GCONST> 1.097190e+02
<STATE> 3
<MEAN> 39
 -7.696379e+00 3.056722e+00 4.245314e+00 2.324276e+00 2.891299e+00 -3.133381e+00 4.546348e+00 -1.859633e+00 7.807996e-01 -7.716902e+00 -4.032745e+00 -9.270119e+00 7.324570e+01 6.959507e-01 4.455318e-01 1.307388e-01 -8.807477e-02 -6.595236e-01 -1.575800e+00 -2.473207e-01 7.247593e-01 3.435570e-01 -1.749126e-01 -2.037822e-01 1.177069e-01 5.299586e-02 -1.667672e-01 -1.279227e-01 -1.454390e-01 -1.269303e-01 3.841101e-02 5.718214e-02 -1.992216e-01 -1.328926e-01 1.960173e-02 -5.911906e-02 1.865755e-01 1.653727e-01 2.929225e-02
<VARIANCE> 39
 3.499360e+01 1.876817e+01 1.374983e+01 3.726731e+01 4.949749e+01 4.590073e+01 1.049828e+01 2.293623e+01 1.046248e+01 1.917955e+01 6.175434e+00 2.327928e+01 7.762278e+00 4.195932e+00 2.591005e+00 2.396183e+00 1.711470e+00 1.464112e+00 1.880567e+00 1.332739e+00 6.752148e-01 1.021130e+00 2.092352e+00 1.163674e+00 1.400256e+00 6.794344e-01 4.715126e-01 4.604283e-01 4.261562e-01 2.153860e-01 2.709817e-01 3.144898e-01 1.964912e-01 1.379286e-01 2.557301e-01 3.248881e-01 1.360471e-01 2.646127e-01 1.310752e-01
<GCONST> 9.767027e+01
<STATE> 4
<MEAN> 39
 -3.994414e+00 5.274251e+00 4.358024e+00 9.448994e-01 -2.864349e+00 -9.951605e+00 4.769315e-01 -1.243653e+00 3.314639e+00 -6.802186e+00 -1.525145e+00 -5.255628e+00 7.300723e+01 -2.443949e-01 1.298605e-02 -2.067441e-03 -2.356954e-01 -1.244100e-02 1.263319e-01 -3.044351e-02 -1.017469e-01 4.700844e-02 -2.840329e-02 4.307894e-02 5.200783e-02 -9.667989e-02 -6.518332e-02 -4.958397e-02 -2.396872e-03 -1.531096e-02 4.733707e-02 1.008544e-01 4.229539e-02 4.898369e-03 -1.160745e-02 -1.462210e-02 -2.314266e-02 -2.435060e-02 1.235911e-02
<VARIANCE> 39
 2.088663e+01 3.181586e+01 7.782616e+00 3.003817e+01 2.844023e+01 5.639789e+01 2.862802e+01 2.208677e+01 1.613032e+01 2.391137e+01 2.032728e+01 2.058241e+01 1.272306e+01 1.056878e+00 1.383364e+00 5.226702e-01 1.325885e+00 1.651723e+00 2.048499e+00 1.397313e+00 2.094796e+00 7.664794e-01 1.147011e+00 1.041874e+00 1.151205e+00 4.716421e-01 9.307593e-02 2.097303e-01 7.752532e-02 1.572161e-01 2.045696e-01 2.461573e-01 2.195002e-01 3.504109e-01 1.562658e-01 2.505063e-01 1.683378e-01 2.025739e-01 5.977319e-02
<GCONST> 9.026933e+01
<TRANSP> 5
 0.000000e+00 1.000000e+00 0.000000e+00 0.000000e+00 0.000000e+00
 0.000000e+00 9.397397e-01 6.026032e-02 0.000000e+00 0.000000e+00
 0.000000e+00 0.000000e+00 8.471948e-01 1.528052e-01 0.000000e+00
 0.000000e+00 0.000000e+00 0.000000e+00 9.623388e-01 3.766120e-02
 0.000000e+00 0.000000e+00 0.000000e+00 0.000000e+00 0.000000e+00
<ENDHMM>
~h "Z"
<BEGINHMM>
<NUMSTATES> 5
<STATE> 2
<MEAN> 39
 -1.046263e+01 1.192893e+00 6.305027e-01 -4.821957e-01 5.510118e+00 3.635251e-01 3.368382e+00 -2.087046e+00 1.058523e+00 -7.760965e+00 1.078395e+00 -3.910955e+00 7.106615e+01 -8.002754e-04 2.112335e-03 2.165078e-03 -1.564994e-03 -4.300685e-04 -6.324079e-04 -1.138046e-03 -8.787271e-04 1.271468e-03 1.846282e-03 -1.804322e-04 -1.278623e-03 8.343531e-04 -4.475967e-05 -7.284283e-05 6.230097e-05 -2.442853e-04 -2.338257e-04 -5.949535e-05 4.124621e-05 -3.071028e-04 -1.978394e-04 -1.140548e-04 -8.069598e-05 -8.477430e-05 4.232170e-05
<VARIANCE> 39
 3.765159e+01 3.402439e+01 3.148469e+01 4.143038e+01 4.410116e+01 3.300908e+01 3.624625e+01 2.761554e+01 4.947715e+01 4.012057e+01 2.551658e+01 3.113912e+01 4.344355e+01 1.430533e+00 1.639362e+00 1.207966e+00 1.426063e+00 1.597724e+00 1.687130e+00 1.852222e+00 1.504564e+00 2.150095e+00 1.829018e+00 1.449835e+00 1.662362e+00 8.789857e-01 2.020932e-01 2.530756e-01 1.999116e-01 2.097155e-01 2.506926e-01 2.923805e-01 3.142056e-01 2.754931e-01 3.601594e-01 3.260430e-01 2.625300e-01 2.975152e-01 1.394317e-01
<GCONST> 1.059066e+02
<STATE> 3
<MEAN> 39
 -1.046263e+01 1.192893e+00 6.305027e-01 -4.821957e-01 5.510118e+00 3.635251e-01 3.368382e+00 -2.087046e+00 1.058523e+00 -7.760965e+00 1.078395e+00 -3.910955e+00 7.106615e+01 -8.002754e-04 2.112335e-03 2.165078e-03 -1.564994e-03 -4.300685e-04 -6.324079e-04 -1.138046e-03 -8.787271e-04 1.271468e-03 1.846282e-03 -1.804322e-04 -1.278623e-03 8.343531e-04 -4.475967e-05 -7.284283e-05 6.230097e-05 -2.442853e-04 -2.338257e-04 -5.949535e-05 4.124621e-05 -3.071028e-04 -1.978394e-04 -1.140548e-04 -8.069598e-05 -8.477430e-05 4.232170e-05
<VARIANCE> 39
 3.765159e+01 3.402439e+01 3.148469e+01 4.143038e+01 4.410116e+01 3.300908e+01 3.624625e+01 2.761554e+01 4.947715e+01 4.012057e+01 2.551658e+01 3.113912e+01 4.344355e+01 1.430533e+00 1.639362e+00 1.207966e+00 1.426063e+00 1.597724e+00 1.687130e+00 1.852222e+00 1.504564e+00 2.150095e+00 1.829018e+00 1.449835e+00 1.662362e+00 8.789857e-01 2.020932e-01 2.530756e-01 1.999116e-01 2.097155e-01 2.506926e-01 2.923805e-01 3.142056e-01 2.754931e-01 3.601594e-01 3.260430e-01 2.625300e-01 2.975152e-01 1.394317e-01
<GCONST> 1.059066e+02
<STATE> 4
<MEAN> 39
 -1.046263e+01 1.192893e+00 6.305027e-01 -4.821957e-01 5.510118e+00 3.635251e-01 3.368382e+00 -2.087046e+00 1.058523e+00 -7.760965e+00 1.078395e+00 -3.910955e+00 7.106615e+01 -8.002754e-04 2.112335e-03 2.165078e-03 -1.564994e-03 -4.300685e-04 -6.324079e-04 -1.138046e-03 -8.787271e-04 1.271468e-03 1.846282e-03 -1.804322e-04 -1.278623e-03 8.343531e-04 -4.475967e-05 -7.284283e-05 6.230097e-05 -2.442853e-04 -2.338257e-04 -5.949535e-05 4.124621e-05 -3.071028e-04 -1.978394e-04 -1.140548e-04 -8.069598e-05 -8.477430e-05 4.232170e-05
<VARIANCE> 39
 3.765159e+01 3.402439e+01 3.148469e+01 4.143038e+01 4.410116e+01 3.300908e+01 3.624625e+01 2.761554e+01 4.947715e+01 4.012057e+01 2.551658e+01 3.113912e+01 4.344355e+01 1.430533e+00 1.639362e+00 1.207966e+00 1.426063e+00 1.597724e+00 1.687130e+00 1.852222e+00 1.504564e+00 2.150095e+00 1.829018e+00 1.449835e+00 1.662362e+00 8.789857e-01 2.020932e-01 2.530756e-01 1.999116e-01 2.097155e-01 2.506926e-01 2.923805e-01 3.142056e-01 2.754931e-01 3.601594e-01 3.260430e-01 2.625300e-01 2.975152e-01 1.394317e-01
<GCONST> 1.059066e+02
<TRANSP> 5
 0.000000e+00 1.000000e+00 0.000000e+00 0.000000e+00 0.000000e+00
 0.000000e+00 6.000000e-01 4.000000e-01 0.000000e+00 0.000000e+00
 0.000000e+00 0.000000e+00 6.000000e-01 4.000000e-01 0.000000e+00
 0.000000e+00 0.000000e+00 0.000000e+00 7.000000e-01 3.000000e-01
 0.000000e+00 0.000000e+00 0.000000e+00 0.000000e+00 0.000000e+00
<ENDHMM>
~h "_"
<BEGINHMM>
<NUMSTATES> 5
<STATE> 2
<MEAN> 39
 -1.046263e+01 1.192893e+00 6.305027e-01 -4.821957e-01 5.510118e+00 3.635251e-01 3.368382e+00 -2.087046e+00 1.058523e+00 -7.760965e+00 1.078395e+00 -3.910955e+00 7.106615e+01 -8.002754e-04 2.112335e-03 2.165078e-03 -1.564994e-03 -4.300685e-04 -6.324079e-04 -1.138046e-03 -8.787271e-04 1.271468e-03 1.846282e-03 -1.804322e-04 -1.278623e-03 8.343531e-04 -4.475967e-05 -7.284283e-05 6.230097e-05 -2.442853e-04 -2.338257e-04 -5.949535e-05 4.124621e-05 -3.071028e-04 -1.978394e-04 -1.140548e-04 -8.069598e-05 -8.477430e-05 4.232170e-05
<VARIANCE> 39
 3.765159e+01 3.402439e+01 3.148469e+01 4.143038e+01 4.410116e+01 3.300908e+01 3.624625e+01 2.761554e+01 4.947715e+01 4.012057e+01 2.551658e+01 3.113912e+01 4.344355e+01 1.430533e+00 1.639362e+00 1.207966e+00 1.426063e+00 1.597724e+00 1.687130e+00 1.852222e+00 1.504564e+00 2.150095e+00 1.829018e+00 1.449835e+00 1.662362e+00 8.789857e-01 2.020932e-01 2.530756e-01 1.999116e-01 2.097155e-01 2.506926e-01 2.923805e-01 3.142056e-01 2.754931e-01 3.601594e-01 3.260430e-01 2.625300e-01 2.975152e-01 1.394317e-01
<GCONST> 1.059066e+02
<STATE> 3
<MEAN> 39
 -1.046263e+01 1.192893e+00 6.305027e-01 -4.821957e-01 5.510118e+00 3.635251e-01 3.368382e+00 -2.087046e+00 1.058523e+00 -7.760965e+00 1.078395e+00 -3.910955e+00 7.106615e+01 -8.002754e-04 2.112335e-03 2.165078e-03 -1.564994e-03 -4.300685e-04 -6.324079e-04 -1.138046e-03 -8.787271e-04 1.271468e-03 1.846282e-03 -1.804322e-04 -1.278623e-03 8.343531e-04 -4.475967e-05 -7.284283e-05 6.230097e-05 -2.442853e-04 -2.338257e-04 -5.949535e-05 4.124621e-05 -3.071028e-04 -1.978394e-04 -1.140548e-04 -8.069598e-05 -8.477430e-05 4.232170e-05
<VARIANCE> 39
 3.765159e+01 3.402439e+01 3.148469e+01 4.143038e+01 4.410116e+01 3.300908e+01 3.624625e+01 2.761554e+01 4.947715e+01 4.012057e+01 2.551658e+01 3.113912e+01 4.344355e+01 1.430533e+00 1.639362e+00 1.207966e+00 1.426063e+00 1.597724e+00 1.687130e+00 1.852222e+00 1.504564e+00 2.150095e+00 1.829018e+00 1.449835e+00 1.662362e+00 8.789857e-01 2.020932e-01 2.530756e-01 1.999116e-01 2.097155e-01 2.506926e-01 2.923805e-01 3.142056e-01 2.754931e-01 3.601594e-01 3.260430e-01 2.625300e-01 2.975152e-01 1.394317e-01
<GCONST> 1.059066e+02
<STATE> 4
<MEAN> 39
 -1.046263e+01 1.192893e+00 6.305027e-01 -4.821957e-01 5.510118e+00 3.635251e-01 3.368382e+00 -2.087046e+00 1.058523e+00 -7.760965e+00 1.078395e+00 -3.910955e+00 7.106615e+01 -8.002754e-04 2.112335e-03 2.165078e-03 -1.564994e-03 -4.300685e-04 -6.324079e-04 -1.138046e-03 -8.787271e-04 1.271468e-03 1.846282e-03 -1.804322e-04 -1.278623e-03 8.343531e-04 -4.475967e-05 -7.284283e-05 6.230097e-05 -2.442853e-04 -2.338257e-04 -5.949535e-05 4.124621e-05 -3.071028e-04 -1.978394e-04 -1.140548e-04 -8.069598e-05 -8.477430e-05 4.232170e-05
<VARIANCE> 39
 3.765159e+01 3.402439e+01 3.148469e+01 4.143038e+01 4.410116e+01 3.300908e+01 3.624625e+01 2.761554e+01 4.947715e+01 4.012057e+01 2.551658e+01 3.113912e+01 4.344355e+01 1.430533e+00 1.639362e+00 1.207966e+00 1.426063e+00 1.597724e+00 1.687130e+00 1.852222e+00 1.504564e+00 2.150095e+00 1.829018e+00 1.449835e+00 1.662362e+00 8.789857e-01 2.020932e-01 2.530756e-01 1.999116e-01 2.097155e-01 2.506926e-01 2.923805e-01 3.142056e-01 2.754931e-01 3.601594e-01 3.260430e-01 2.625300e-01 2.975152e-01 1.394317e-01
<GCONST> 1.059066e+02
<TRANSP> 5
 0.000000e+00 1.000000e+00 0.000000e+00 0.000000e+00 0.000000e+00
 0.000000e+00 6.000000e-01 4.000000e-01 0.000000e+00 0.000000e+00
 0.000000e+00 0.000000e+00 6.000000e-01 4.000000e-01 0.000000e+00
 0.000000e+00 0.000000e+00 0.000000e+00 7.000000e-01 3.000000e-01
 0.000000e+00 0.000000e+00 0.000000e+00 0.000000e+00 0.000000e+00
<ENDHMM>
~h "a"
<BEGINHMM>
<NUMSTATES> 5
<STATE> 2
<MEAN> 39
 -1.501572e+01 -4.498536e-01 2.029444e+00 -4.785217e+00 4.099628e+00 1.091624e+00 5.208296e+00 -1.603282e+00 -3.410788e-01 -8.660994e+00 2.131018e+00 -6.826332e-01 7.208385e+01 2.804303e-01 -8.109185e-02 1.227871e-01 1.355207e-01 -4.768722e-02 -1.705747e-01 -5.889664e-02 -2.375228e-02 -4.261075e-01 -4.330974e-01 7.143819e-02 2.702477e-01 3.866505e-01 6.712530e-02 4.486892e-02 -6.368472e-02 7.876457e-02 -3.636868e-02 -1.019758e-01 8.099143e-02 2.971330e-03 4.725594e-02 1.954703e-02 -2.365480e-02 -9.966399e-02 -3.608846e-02
<VARIANCE> 39
 4.993966e+01 1.714190e+01 3.484552e+01 3.119295e+01 1.960132e+01 2.637473e+01 2.229753e+01 1.930158e+01 5.379409e+01 3.773359e+01 1.459311e+01 2.124287e+01 2.028951e+01 3.999187e+00 1.362222e+00 1.894286e+00 2.000992e+00 1.775733e+00 2.657178e+00 1.919814e+00 1.759017e+00 3.886591e+00 2.504350e+00 1.358649e+00 1.578191e+00 1.579815e+00 5.253826e-01 2.565520e-01 2.839905e-01 3.184843e-01 3.620032e-01 4.954050e-01 3.946697e-01 2.860514e-01 7.006675e-01 4.120961e-01 2.478682e-01 3.316326e-01 2.747602e-01
<GCONST> 1.100480e+02
<STATE> 3
<MEAN> 39
 -9.511873e+00 5.631744e-01 -1.197338e+00 -3.010399e+00 4.844662e+00 -2.176319e+00 4.988757e+00 -1.590296e+00 -2.043099e+00 -1.013247e+01 2.491703e+00 -6.157874e-02 7.315664e+01 7.952565e-02 3.008258e-01 -2.873524e-01 -1.238817e-01 -5.233231e-01 -5.950718e-01 5.372856e-01 2.384677e-01 6.934918e-01 3.755488e-01 -1.369244e-01 -4.971553e-01 -1.744107e-01 1.105656e-02 6.073845e-04 1.408738e-01 6.697265e-02 1.066349e-02 6.474453e-03 4.936441e-02 -8.379032e-02 1.108324e-01 1.216048e-01 -3.523552e-02 -2.390111e-01 -4.005469e-02
<VARIANCE> 39
 3.834687e+01 1.915901e+01 1.817114e+01 2.860104e+01 2.555026e+01 4.254729e+01 2.073256e+01 2.935502e+01 4.144783e+01 3.894485e+01 1.693955e+01 2.597957e+01 1.439244e+01 9.610874e-01 1.384228e+00 1.591892e+00 1.290040e+00 1.468603e+00 2.574324e+00 1.333320e+00 2.326533e+00 2.489173e+00 1.567900e+00 1.452833e+00 2.382616e+00 1.124382e+00 2.482817e-01 2.333235e-01 2.760913e-01 1.991086e-01 1.416816e-01 5.256585e-01 2.464106e-01 3.889573e-01 4.325411e-01 3.573765e-01 2.922316e-01 3.592688e-01 1.598287e-01
<GCONST> 1.036139e+02
<STATE> 4
<MEAN> 39
 -5.270982e+00 3.882452e+00 -7.421593e-01 -2.031600e+00 1.413836e+00 -6.850814e+00 3.670970e+00 -7.868817e-01 6.165269e-01 -9.340412e+00 1.012791e+00 -2.625525e+00 7.249318e+01 1.751038e-02 2.764690e-01 1.325881e-01 3.857028e-02 -3.256454e-02 -7.429816e-02 -1.649104e-01 -2.155845e-01 1.240057e-01 -1.141687e-01 -1.700938e-01 -2.204589e-01 -9.274264e-02 -2.223576e-02 -3.811425e-02 5.934838e-02 7.429089e-03 9.093336e-02 1.102560e-01 -3.880056e-02 -3.235027e-02 -1.090242e-01 -8.494446e-02 -1.238061e-02 4.158615e-02 1.753172e-02
<VARIANCE> 39
 1.704295e+01 2.229110e+01 1.547543e+01 2.457276e+01 4.237532e+01 5.953465e+01 3.637296e+01 1.669931e+01 1.859247e+01 4.585246e+01 2.280767e+01 2.139005e+01 1.694115e+01 3.941033e-01 1.406370e+00 5.869785e-01 6.942149e-01 1.237178e+00 2.778291e+00 1.501138e+00 1.212666e+00 1.291819e+00 1.981324e+00 1.090577e+00 1.632758e+00 9.595519e-01 7.337195e-02 1.770194e-01 8.862025e-02 1.361258e-01 1.587073e-01 3.705686e-01 2.332019e-01 2.181125e-01 1.738926e-01 2.823270e-01 2.308884e-01 3.273377e-01 1.285127e-01
<GCONST> 9.316805e+01
<TRANSP> 5
 0.000000e+00 1.000000e+00 0.000000e+00 0.000000e+00 0.000000e+00
 0.000000e+00 7.605036e-01 2.394964e-01 0.000000e+00 0.000000e+00
 0.000000e+00 0.000000e+00 4.499918e-01 5.500082e-01 0.000000e+00
 0.000000e+00 0.000000e+00 0.000000e+00 8.205331e-01 1.794669e-01
 0.000000e+00 0.000000e+00 0.000000e+00 0.000000e+00 0.000000e+00
<ENDHMM>
~h "b"
<BEGINHMM>
<NUMSTATES> 5
<STATE> 2
<MEAN> 39
 -1.024621e+01 4.993934e+00 1.560536e+00 1.276421e+00 8.853247e+00 2.426883e+00 3.892553e+00 -1.157817e+00 1.989519e+00 -8.199733e+00 -9.488323e-01 -6.666969e+00 7.122014e+01 4.513662e-01 4.673111e-01 4.680703e-01 7.923402e-01 8.083276e-01 4.000964e-01 -4.415442e-01 -1.557089e-01 1.642183e-02 -3.742091e-01 -5.326689e-01 -7.219332e-01 4.511318e-03 -5.925338e-02 -1.518167e-01 3.670827e-03 6.635829e-04 5.132971e-02 -1.268600e-01 -2.349793e-01 -1.111874e-01 -8.765025e-02 -1.047188e-01 2.286029e-02 6.161542e-02 4.741209e-02
<VARIANCE> 39
 3.172750e+01 2.340938e+01 1.361160e+01 1.886762e+01 1.963160e+01 2.149696e+01 3.039941e+01 1.244763e+01 2.405864e+01 2.628215e+01 1.331027e+01 1.543722e+01 9.413424e+00 1.020497e+00 2.265202e+00 1.132007e+00 9.161608e-01 1.931940e+00 1.237615e+00 2.500842e+00 7.496178e-01 1.565226e+00 2.045121e+00 1.321402e+00 1.368813e+00 9.217402e-01 1.417950e-01 1.998038e-01 1.848840e-01 1.918485e-01 2.469131e-01 2.499919e-01 3.099565e-01 1.502687e-01 2.766696e-01 4.182106e-01 2.836537e-01 2.248604e-01 1.121995e-01
<GCONST> 9.403187e+01
<STATE> 3
<MEAN> 39
 -7.927596e+00 4.428514e+00 2.116124e+00 3.580988e+00 1.252831e+01 2.702614e+00 -6.339214e-01 -2.994333e+00 1.486804e+00 -1.068182e+01 -1.801170e+00 -8.988700e+00 7.150455e+01 1.308246e-01 3.096684e-01 3.078938e-01 5.053567e-01 4.277438e-01 1.305325e-02 -5.198425e-01 -1.325191e-01 3.155436e-01 -5.789656e-02 -1.739702e-01 -3.313217e-01 -2.147314e-01 -1.393359e-01 -1.346152e-01 -8.934124e-02 -1.476081e-01 -3.074092e-01 -1.420221e-01 2.016745e-01 8.529086e-02 -1.023856e-02 1.386523e-01 1.657382e-01 2.033312e-01 -1.884678e-02
<VARIANCE> 39
 1.233016e+01 2.444375e+01 1.576088e+01 2.248346e+01 4.498375e+01 1.976049e+01 3.894338e+01 1.293258e+01 2.983013e+01 2.398028e+01 1.472924e+01 1.418918e+01 9.981888e+00 4.763703e-01 2.186630e+00 1.084957e+00 6.925955e-01 3.210357e+00 1.450202e+00 2.833817e+00 9.664640e-01 1.930723e+00 2.445028e+00 1.435845e+00 1.197782e+00 1.269359e+00 1.079746e-01 2.382970e-01 2.268178e-01 1.494247e-01 3.119802e-01 3.025683e-01 3.756448e-01 1.323804e-01 2.872904e-01 3.699974e-01 2.268633e-01 2.001678e-01 1.715550e-01
<GCONST> 9.561444e+01
<STATE> 4
<MEAN> 39
 -8.876035e+00 5.038025e+00 2.801799e+00 4.951363e+00 1.256090e+01 2.943969e+00 7.924424e-01 -2.176284e+00 3.096652e+00 -8.715517e+00 -2.213276e+00 -8.798028e+00 7.006427e+01 -1.916481e-01 -1.607438e-01 -1.331315e-01 -3.372071e-01 -1.575922e-01 1.341111e-02 1.887705e-01 -3.645783e-02 -2.673409e-01 3.347244e-02 2.101817e-01 1.491433e-01 2.448050e-02 -4.451073e-02 -9.548540e-02 -5.149681e-02 -8.898164e-02 -9.325257e-02 -1.437931e-02 7.042824e-02 -6.417756e-03 -7.272260e-02 -2.069104e-02 6.383407e-02 1.194650e-01 7.001733e-02
<VARIANCE> 39
 8.840920e+00 2.519510e+01 1.579189e+01 2.508045e+01 3.261846e+01 1.868045e+01 3.749597e+01 1.450032e+01 2.367396e+01 1.855630e+01 1.779189e+01 1.469287e+01 1.246641e+01 4.677814e-01 1.050531e+00 7.767699e-01 1.085131e+00 1.469477e+00 1.166245e+00 2.495664e+00 1.365833e+00 2.510710e+00 1.710686e+00 1.148599e+00 1.018991e+00 6.797016e-01 7.770989e-02 1.446346e-01 1.240718e-01 1.480067e-01 2.762989e-01 1.822270e-01 4.467137e-01 2.475969e-01 4.048931e-01 3.252344e-01 2.235533e-01 2.054856e-01 1.165902e-01
<GCONST> 9.112910e+01
<TRANSP> 5
 0.000000e+00 1.000000e+00 0.000000e+00 0.000000e+00 0.000000e+00
 0.000000e+00 6.654082e-01 3.345919e-01 0.000000e+00 0.000000e+00
 0.000000e+00 0.000000e+00 5.648360e-01 4.351640e-01 0.000000e+00
 0.000000e+00 0.000000e+00 0.000000e+00 8.766937e-01 1.233063e-01
 0.000000e+00 0.000000e+00 0.000000e+00 0.000000e+00 0.000000e+00
<ENDHMM>
~h "d"
<BEGINHMM>
<NUMSTATES> 5
<STATE> 2
<MEAN> 39
 -1.235793e+01 3.859201e+00 3.535737e-01 -1.317100e+00 5.556283e+00 3.665606e+00 4.734195e+00 -2.211588e+00 -1.962525e-01 -1.094995e+01 -1.709677e+00 -3.957390e+00 7.059236e+01 -3.375134e-01 -4.376155e-01 -3.813370e-01 -2.136403e-01 -7.223094e-01 -4.411480e-01 1.865728e-01 2.623247e-01 3.134730e-01 1.416768e-01 -3.047778e-03 6.311157e-02 -6.530926e-02 4.735285e-02 -2.340178e-01 1.810453e-01 1.021528e-01 4.937550e-02 -9.184922e-02 5.992609e-02 1.722145e-02 -1.640640e-01 -5.369129e-02 2.042581e-01 2.931219e-02 1.265790e-01
<VARIANCE> 39
 2.625501e+01 1.286275e+01 7.871329e+00 1.376696e+01 1.917098e+01 1.108230e+01 1.659273e+01 1.219897e+01 6.067893e+01 4.568003e+01 6.951128e+00 2.119072e+01 2.145553e+01 1.220365e+00 2.519284e+00 1.201797e+00 1.103820e+00 1.322087e+00 1.138297e+00 1.603230e+00 1.251561e+00 3.354173e+00 3.885065e+00 1.335153e+00 1.466264e+00 1.857149e+00 2.634249e-01 4.244380e-01 2.545847e-01 1.764897e-01 2.374125e-01 2.333596e-01 3.247787e-01 2.748689e-01 6.792678e-01 8.049977e-01 2.094229e-01 2.855641e-01 3.638436e-01
<GCONST> 1.001745e+02
<STATE> 3
<MEAN> 39
 -1.552166e+01 3.580999e-01 -7.227924e-01 -3.707333e+00 2.845097e+00 2.617829e+00 6.985714e+00 -6.291044e-01 3.003985e+00 -8.309970e+00 6.719638e-01 -1.210424e+00 7.003505e+01 2.937385e-02 -6.088922e-01 2.118763e-01 7.634418e-02 4.091728e-02 -7.448052e-03 6.163017e-01 1.058984e-01 -6.034696e-01 -3.879230e-01 5.397636e-01 5.398151e-01 3.232765e-01 1.353566e-01 2.377141e-01 1.348168e-01 1.191309e-01 2.380434e-01 6.924737e-02 -7.475660e-02 -4.008511e-02 -5.769179e-03 -1.679800e-02 -1.451951e-02 -3.833149e-02 1.694018e-02
<VARIANCE> 39
 1.897201e+01 1.335091e+01 1.302178e+01 1.874878e+01 1.368870e+01 1.231698e+01 1.548337e+01 1.983511e+01 6.078617e+01 3.914023e+01 1.119994e+01 1.375586e+01 2.007199e+01 1.796645e+00 2.332987e+00 1.737510e+00 1.409192e+00 1.195762e+00 1.929554e+00 1.863731e+00 1.934211e+00 2.762181e+00 2.300468e+00 9.983552e-01 1.615125e+00 1.263949e+00 3.791172e-01 2.286323e-01 2.558373e-01 2.739837e-01 2.524351e-01 3.403951e-01 3.308309e-01 3.554457e-01 3.837842e-01 4.363205e-01 2.432902e-01 2.306975e-01 2.293301e-01
<GCONST> 1.005455e+02
<STATE> 4
<MEAN> 39
 -1.810469e+01 -1.996981e+00 2.717980e+00 -1.637514e+00 4.012307e+00 1.431915e+00 9.740470e+00 3.178504e+00 3.222518e+00 -8.698586e+00 2.490746e+00 1.230534e+00 7.379991e+01 4.967644e-01 -2.131062e-01 1.576100e-01 5.683655e-01 5.673320e-01 -1.861638e-01 -2.052398e-01 2.133159e-01 -4.569545e-01 -1.181232e-01 7.141340e-02 -1.415708e-01 2.633882e-01 3.294895e-01 2.043066e-01 -1.162686e-01 5.027478e-02 2.017325e-02 -5.437071e-02 -3.573150e-01 -2.221695e-01 -7.052970e-02 -2.648138e-02 -9.082135e-02 -2.362032e-01 -6.809183e-02
<VARIANCE> 39
 2.622271e+01 2.352784e+01 3.675341e+01 3.163204e+01 2.437132e+01 3.146624e+01 2.257505e+01 5.223516e+01 6.645750e+01 4.507286e+01 1.305462e+01 1.613123e+01 3.143953e+01 3.133975e+00 1.754925e+00 1.468322e+00 1.851933e+00 1.553514e+00 2.351106e+00 2.120916e+00 3.856276e+00 3.798731e+00 3.215299e+00 1.682927e+00 1.777664e+00 1.086391e+00 2.188176e-01 3.648439e-01 1.966858e-01 3.219380e-01 2.980918e-01 3.979047e-01 3.004683e-01 6.914762e-01 5.721084e-01 3.628939e-01 2.561316e-01 2.547559e-01 1.865032e-01
<GCONST> 1.104900e+02
<TRANSP> 5
 0.000000e+00 1.000000e+00 0.000000e+00 0.000000e+00 0.000000e+00
 0.000000e+00 7.762762e-01 2.237238e-01 0.000000e+00 0.000000e+00
 0.000000e+00 0.000000e+00 6.289566e-01 3.710433e-01 0.000000e+00
 0.000000e+00 0.000000e+00 0.000000e+00 6.773219e-01 3.226781e-01
 0.000000e+00 0.000000e+00 0.000000e+00 0.000000e+00 0.000000e+00
<ENDHMM>
~h "e"
<BEGINHMM>
<NUMSTATES> 5
<STATE> 2
<MEAN> 39
 -1.444363e+01 2.738895e+00 3.440003e+00 -6.218123e+00 4.272684e+00 4.457523e+00 3.331529e+00 -6.149364e+00 2.980853e+00 -6.591077e+00 4.658418e-01 -3.101375e+00 7.047089e+01 -1.415923e+00 -4.486430e-01 -2.933411e-01 -8.744485e-01 -3.359423e-01 -5.011575e-01 -6.103615e-01 -4.879063e-02 5.978127e-01 1.276395e-01 1.600350e-01 9.724396e-02 3.772638e-01 9.727512e-02 -2.170449e-01 1.560088e-01 2.208024e-01 6.951912e-02 -1.855393e-01 -2.103586e-02 -9.376233e-02 -3.415622e-01 -2.972709e-01 3.512324e-02 5.340477e-02 2.895007e-01
<VARIANCE> 39
 5.513384e+01 1.179599e+01 4.099173e+01 3.895293e+01 1.967031e+01 1.303174e+01 1.171456e+01 1.482863e+01 1.631210e+01 8.781808e+00 5.844287e+00 6.259587e+00 2.763099e+01 1.946272e+00 5.394612e-01 1.732027e+00 1.332316e+00 1.630488e+00 2.026590e+00 1.262614e+00 1.149228e+00 1.899307e+00 1.404743e+00 5.770372e-01 8.879583e-01 1.449991e+00 4.563388e-01 1.343302e-01 4.579197e-01 4.267917e-01 2.707203e-01 3.603218e-01 3.043455e-01 1.918775e-01 1.195049e-01 2.506841e-01 1.075163e-01 9.525897e-02 2.986304e-01
<GCONST> 9.236395e+01
<STATE> 3
<MEAN> 39
 -1.646358e+01 -1.839781e-01 4.629422e+00 -3.662283e+00 4.177112e+00 1.677974e+00 2.216419e+00 -7.750631e+00 1.624269e-01 -8.508507e+00 1.338234e+00 -3.032053e+00 7.204328e+01 1.619503e+00 3.485261e-01 9.655804e-01 1.819529e+00 1.421118e+00 9.968516e-01 4.708785e-01 -1.968894e-01 -1.057031e+00 -5.916658e-01 -3.514306e-02 -6.175874e-01 -2.152249e-01 3.745646e-01 3.016938e-01 1.499127e-02 -6.090316e-03 1.340901e-01 3.084548e-01 1.060230e-01 2.721351e-01 8.557076e-02 -7.036971e-02 -1.816158e-01 -1.649914e-01 -1.948821e-01
<VARIANCE> 39
 3.934238e+01 1.621052e+01 1.986170e+01 3.149611e+01 2.858518e+01 1.830410e+01 8.765915e+00 1.030872e+01 2.046502e+01 6.569949e+00 7.523957e+00 1.315254e+01 1.268386e+01 2.930366e+00 1.472957e+00 1.583155e+00 1.783494e+00 1.914956e+00 3.371481e+00 1.311075e+00 1.762512e+00 1.373376e+00 9.929614e-01 1.603043e+00 1.265379e+00 1.843195e+00 6.585199e-01 1.895523e-01 4.149430e-01 6.282908e-01 6.626783e-01 7.785842e-01 3.377386e-01 1.569963e-01 9.744104e-02 3.723417e-01 3.743154e-01 2.219948e-01 2.829776e-01
<GCONST> 1.001154e+02
<STATE> 4
<MEAN> 39
 -6.951803e+00 6.051438e+00 1.351398e+00 3.768237e+00 1.192261e+01 6.184660e+00 5.517242e+00 -4.847252e+00 -1.511406e+00 -9.602942e+00 -2.891950e+00 -7.351752e+00 6.794044e+01 7.871845e-02 1.379343e-01 -2.243970e-01 3.569338e-01 -1.064795e-01 -5.178308e-01 -7.117911e-02 9.285707e-01 8.058105e-01 -3.198840e-01 -6.969627e-01 1.128170e-01 -2.272198e-01 -1.204807e-01 -1.507986e-01 -7.429875e-02 -7.491853e-02 -2.480179e-01 -3.411575e-01 -7.303782e-02 1.655768e-01 1.599322e-01 -6.141173e-03 7.194617e-02 1.270919e-01 6.011292e-02
<VARIANCE> 39
 2.690294e+00 6.451110e+00 1.561511e+01 4.526820e+00 8.056873e+00 1.210788e+01 4.361424e+00 1.501743e+01 3.426040e+01 2.723713e+01 9.901121e+00 3.574207e+00 5.721031e+00 3.311999e-01 4.651330e-01 9.336777e-01 3.489605e-01 5.637202e-01 1.415994e+00 6.124551e-01 1.116756e+00 2.165540e+00 1.320487e+00 1.014666e+00 6.723680e-01 3.737810e-01 8.248689e-02 5.820365e-02 1.348099e-01 8.746053e-02 1.890884e-01 2.562785e-01 1.043414e-01 2.326819e-01 4.779392e-01 2.752124e-01 2.140463e-01 1.244458e-01 4.236265e-02
<GCONST> 7.044793e+01
<TRANSP> 5
 0.000000e+00 1.000000e+00 0.000000e+00 0.000000e+00 0.000000e+00
 0.000000e+00 7.515872e-01 2.484128e-01 0.000000e+00 0.000000e+00
 0.000000e+00 0.000000e+00 6.941047e-01 3.058953e-01 0.000000e+00
 0.000000e+00 0.000000e+00 0.000000e+00 8.192354e-01 1.807646e-01
 0.000000e+00 0.000000e+00 0.000000e+00 0.000000e+00 0.000000e+00
<ENDHMM>
~h "f"
<BEGINHMM>
<NUMSTATES> 5
<STATE> 2
<MEAN> 39
 -1.371419e+01 3.857323e+00 1.842271e+00 -3.710812e+00 7.405075e+00 1.026015e+00 5.173987e+00 -9.020320e-01 3.655070e-01 -8.367328e+00 5.613314e-01 -3.100407e+00 7.163424e+01 -1.569513e+00 -3.583511e-01 1.266997e-01 -6.276345e-01 -2.459761e-01 -2.527644e-01 4.777210e-01 -4.202529e-01 -3.305219e-02 6.725683e-02 2.961459e-01 5.495538e-01 2.515125e-01 -5.985495e-02 -1.894478e-01 3.162081e-02 1.475816e-01 5.446694e-02 -1.189626e-01 -7.190094e-02 -1.309338e-01 5.809088e-03 -1.023479e-01 -1.972817e-02 -6.009480e-02 6.545079e-02
<VARIANCE> 39
 3.359813e+01 1.245291e+01 1.579761e+01 2.654227e+01 2.140487e+01 2.457438e+01 1.821371e+01 1.551816e+01 2.641039e+01 2.199660e+01 1.120800e+01 2.029012e+01 1.676291e+01 2.122550e+00 1.821830e+00 1.578949e+00 2.212582e+00 1.379206e+00 2.308482e+00 1.969607e+00 1.173609e+00 3.977001e+00 2.984789e+00 1.034157e+00 1.580666e+00 8.779750e-01 3.349839e-01 1.937374e-01 2.244630e-01 2.719234e-01 2.283847e-01 4.160475e-01 2.187389e-01 3.267646e-01 6.830426e-01 6.876593e-01 1.889518e-01 3.603216e-01 1.566914e-01
<GCONST> 1.018876e+02
<STATE> 3
<MEAN> 39
 -2.143608e+01 4.695786e-01 1.986104e+00 -5.297304e+00 7.208000e+00 -1.609972e+00 6.123243e+00 -2.416004e+00 1.648878e+00 -8.405177e+00 1.689573e+00 -1.715877e+00 7.403439e+01 -7.753080e-01 -1.108555e+00 -4.192377e-01 1.256699e-01 -2.117421e-01 -1.100636e-01 2.987585e-01 -9.641493e-02 4.076510e-01 1.227645e-02 1.604343e-01 1.490095e-01 1.620807e-01 5.910851e-01 -2.585491e-02 -4.121460e-02 2.111346e-01 -1.965583e-03 2.564179e-01 -7.608443e-02 -5.747919e-02 -8.474391e-02 -1.564439e-02 -6.375612e-02 -1.453254e-01 -1.152582e-01
<VARIANCE> 39
 2.515020e+01 2.223749e+01 2.978345e+01 1.448365e+01 1.935431e+01 2.157704e+01 1.086211e+01 1.751821e+01 2.365023e+01 1.065152e+01 9.762301e+00 1.774380e+01 4.233435e+00 1.739213e+00 1.138006e+00 1.172505e+00 1.046197e+00 8.608606e-01 1.245960e+00 7.578313e-01 1.566987e+00 2.118126e+00 1.627095e+00 9.478305e-01 1.434080e+00 6.835114e-01 2.084378e-01 2.527658e-01 2.679211e-01 2.082796e-01 2.355096e-01 3.373674e-01 2.156464e-01 3.891939e-01 5.510893e-01 3.258202e-01 1.711607e-01 3.602644e-01 9.765778e-02
<GCONST> 9.210393e+01
<STATE> 4
<MEAN> 39
 -1.915653e+01 -4.120878e+00 -1.008494e+00 -2.897155e+00 6.270385e+00 -3.371896e-02 5.554456e+00 -2.614812e+00 2.688423e+00 -8.664695e+00 1.801312e+00 -1.931789e+00 7.335169e+01 1.974190e+00 1.039713e-01 4.398794e-01 7.572932e-01 3.142877e-01 6.759549e-01 -5.208609e-01 -3.135421e-01 -6.953550e-01 -2.551828e-01 -1.077153e-01 -7.026686e-01 -4.429736e-01 4.422374e-01 7.171630e-01 6.425318e-01 1.809156e-01 3.930255e-01 1.336985e-01 -2.362458e-01 -1.074934e-01 -2.968155e-01 2.051691e-02 -3.257760e-02 -3.887166e-01 1.892924e-02
<VARIANCE> 39
 2.846237e+01 1.926135e+01 2.988099e+01 2.056803e+01 2.451617e+01 2.169399e+01 2.001881e+01 1.716686e+01 1.966027e+01 1.302343e+01 8.092308e+00 1.767191e+01 6.560283e+00 2.146640e+00 3.256253e+00 3.642074e+00 1.099571e+00 1.787374e+00 2.055366e+00 1.228621e+00 1.706644e+00 3.500397e+00 1.464702e+00 6.493892e-01 1.243620e+00 7.668126e-01 3.334821e-01 3.164251e-01 5.438185e-01 1.554630e-01 2.284396e-01 3.802973e-01 1.735664e-01 2.413240e-01 3.359354e-01 3.154475e-01 1.559119e-01 3.491215e-01 1.587337e-01
<GCONST> 9.810768e+01
<TRANSP> 5
 0.000000e+00 1.000000e+00 0.000000e+00 0.000000e+00 0.000000e+00
 0.000000e+00 7.236277e-01 2.763722e-01 0.000000e+00 0.000000e+00
 0.000000e+00 0.000000e+00 6.500300e-01 3.499701e-01 0.000000e+00
 0.000000e+00 0.000000e+00 0.000000e+00 6.155089e-01 3.844911e-01
 0.000000e+00 0.000000e+00 0.000000e+00 0.000000e+00 0.000000e+00
<ENDHMM>
~h "h"
<BEGINHMM>
<NUMSTATES> 5
<STATE> 2
<MEAN> 39
 -1.258236e+01 -8.267445e-01 4.724208e+00 -3.176987e+00 6.808450e+00 9.687616e-01 5.300382e+00 -9.583535e-01 3.739153e-01 -4.930930e+00 4.162267e+00 -4.424920e+00 7.581424e+01 -5.460131e-01 -3.976049e-01 -3.559840e-01 -8.255868e-01 -1.448089e-01 1.640213e-01 7.018120e-01 -3.277647e-01 -5.948407e-01 3.810876e-01 7.050002e-01 1.216345e+00 5.732049e-01 2.005434e-01 1.311658e-01 -3.006221e-01 2.534957e-01 -1.442618e-01 -7.238483e-02 3.221883e-02 -1.021447e-01 1.135700e-01 -7.736830e-02 -7.040209e-02 4.177580e-02 -1.853395e-01
<VARIANCE> 39
 2.130945e+01 9.570892e+00 1.598624e+01 3.373034e+01 4.193279e+01 2.244805e+01 3.272953e+01 3.658821e+01 2.909455e+01 2.833064e+01 1.814323e+01 2.784115e+01 9.347372e+00 1.216128e+00 1.409802e+00 1.398454e+00 1.272421e+00 1.317039e+00 1.779882e+00 2.404439e+00 1.579109e+00 1.922539e+00 1.802946e+00 1.136019e+00 3.094879e+00 7.487524e-01 2.039063e-01 3.303665e-01 2.766927e-01 2.574597e-01 1.658985e-01 3.795919e-01 3.708248e-01 4.395285e-01 5.261974e-01 3.301393e-01 2.541627e-01 5.625941e-01 1.285129e-01
<GCONST> 1.022419e+02
<STATE> 3
<MEAN> 39
 -1.152247e+01 -1.619095e+00 2.151941e+00 -3.125160e+00 6.784046e+00 2.652486e+00 5.843589e+00 -2.584847e+00 -8.814401e-01 -4.147173e+00 6.048534e+00 -9.966670e-01 7.633011e+01 9.823429e-02 -1.157807e-01 -3.315839e-01 -7.792321e-03 -1.179564e-01 7.150236e-02 1.290767e-01 -1.118165e-01 -3.594516e-01 -9.704404e-02 3.176592e-01 6.286008e-01 2.606154e-02 1.279549e-01 1.564184e-01 9.188281e-02 1.232022e-01 -4.659706e-03 -6.664230e-02 -1.161646e-01 1.139546e-01 8.174174e-02 -1.154805e-01 -1.656530e-01 -3.040821e-01 -9.979142e-02
<VARIANCE> 39
 1.464462e+01 7.322441e+00 1.074128e+01 1.792350e+01 2.678592e+01 2.270424e+01 4.365823e+01 2.749720e+01 2.708919e+01 2.206300e+01 1.646371e+01 2.241572e+01 1.412730e+01 6.588408e-01 6.842821e-01 1.173314e+00 1.733604e+00 1.783589e+00 1.174077e+00 2.108909e+00 1.437895e+00 1.233471e+00 1.401697e+00 1.074643e+00 1.652970e+00 4.563141e-01 8.462536e-02 1.551710e-01 1.727346e-01 1.757582e-01 1.917343e-01 1.843929e-01 4.993937e-01 1.786601e-01 2.564288e-01 3.081938e-01 1.904588e-01 2.947377e-01 6.420671e-02
<GCONST> 9.041484e+01
<STATE> 4
<MEAN> 39
 -9.057334e+00 -5.099757e-01 1.333266e+00 -2.758012e+00 5.058955e+00 1.173309e+00 7.090699e+00 -2.388987e+00 -3.362478e-01 -6.499088e+00 7.090659e+00 -9.809532e-01 7.703178e+01 1.250673e-01 2.354321e-01 -9.647546e-02 1.366320e-01 1.137749e-01 -7.414553e-02 -2.998543e-01 -4.105394e-02 2.498318e-02 -3.267690e-01 -1.903979e-01 -2.151548e-01 -2.331133e-01 6.643138e-03 2.304932e-03 2.627196e-02 -1.644500e-02 -6.014737e-04 -2.408940e-02 -9.061003e-02 -6.812557e-03 -1.433621e-02 -3.045709e-02 -1.553871e-01 -6.035460e-02 1.379791e-03
<VARIANCE> 39
 1.007671e+01 8.555672e+00 1.006203e+01 2.640887e+01 2.936151e+01 1.965646e+01 7.851011e+01 3.700526e+01 2.981246e+01 1.980093e+01 1.468793e+01 1.797042e+01 1.989857e+01 4.882814e-01 9.124333e-01 8.143856e-01 9.297339e-01 1.072721e+00 9.966379e-01 1.936432e+00 1.148980e+00 1.944463e+00 1.734971e+00 1.437055e+00 1.000918e+00 3.624688e-01 7.292063e-02 1.832117e-01 1.586340e-01 1.067528e-01 1.451239e-01 1.407170e-01 2.210381e-01 1.972566e-01 3.173968e-01 2.845738e-01 2.632860e-01 1.686694e-01 9.562100e-02
<GCONST> 8.805669e+01
<TRANSP> 5
 0.000000e+00 1.000000e+00 0.000000e+00 0.000000e+00 0.000000e+00
 0.000000e+00 5.247793e-01 4.752207e-01 0.000000e+00 0.000000e+00
 0.000000e+00 0.000000e+00 5.941975e-01 4.058025e-01 0.000000e+00
 0.000000e+00 0.000000e+00 0.000000e+00 8.297350e-01 1.702649e-01
 0.000000e+00 0.000000e+00 0.000000e+00 0.000000e+00 0.000000e+00
<ENDHMM>
~h "i"
<BEGINHMM>
<NUMSTATES> 5
<STATE> 2
<MEAN> 39
 -9.098581e+00 -3.953013e+00 -2.675141e+00 -2.875154e+00 -2.045613e+00 -4.899110e-01 7.215038e+00 2.172600e+00 1.442458e+00 -6.281633e+00 6.006477e+00 -2.113150e+00 7.254836e+01 9.032804e-02 6.059086e-02 -2.155831e-01 -1.284311e-01 -1.309012e-01 -1.098487e-01 2.028935e-01 -9.958962e-03 7.151706e-02 8.329710e-02 -2.030220e-02 9.090805e-02 -7.250146e-02 -9.238049e-03 4.287499e-02 5.186608e-02 2.049512e-02 -7.599462e-03 1.958317e-02 -1.120585e-02 1.100433e-03 3.605134e-02 4.504012e-02 -3.097851e-02 -3.425714e-02 -1.761271e-02
<VARIANCE> 39
 6.438768e+01 2.626449e+01 1.791668e+01 1.626527e+01 2.613280e+01 5.603914e+01 1.350822e+01 2.421842e+01 1.429940e+01 1.865745e+01 1.824615e+01 1.989604e+01 1.063811e+01 2.088452e-01 3.618562e-01 2.980481e-01 3.917029e-01 3.691612e-01 8.338143e-01 6.334144e-01 7.385157e-01 1.024820e+00 9.713446e-01 5.403407e-01 7.454486e-01 1.573956e-01 2.323123e-02 4.845832e-02 4.928845e-02 7.703493e-02 6.889663e-02 1.394589e-01 1.219232e-01 1.374909e-01 2.004660e-01 1.879902e-01 9.690346e-02 1.557375e-01 1.968854e-02
<GCONST> 6.978246e+01
<STATE> 3
<MEAN> 39
 -1.437012e+01 2.525973e+00 -6.373287e+00 -5.111867e+00 9.583098e-01 1.037979e-01 7.026310e+00 1.042743e+00 7.766177e+00 -7.023424e-01 4.307475e+00 -3.206540e+00 6.368507e+01 -5.651454e-02 7.914313e-02 2.275899e-03 -1.646434e-01 -3.329546e-02 4.473203e-02 -6.914058e-02 9.081640e-02 2.099343e-01 2.016188e-01 2.575680e-02 -1.519308e-03 -1.815116e-01 -3.198246e-02 -4.486480e-02 3.030241e-02 3.325668e-02 1.844644e-02 -2.273400e-03 -3.084369e-02 3.319774e-03 -3.267889e-02 -5.103298e-02 -4.945673e-02 -2.587520e-02 4.684673e-02
<VARIANCE> 39
 1.360000e+01 4.605710e+00 8.160565e+00 1.033738e+01 1.065592e+01 8.609310e+00 1.242158e+01 1.571806e+01 1.571401e+01 1.498796e+01 9.140911e+00 9.907804e+00 1.052251e+01 1.968559e-01 3.879669e-01 3.919085e-01 4.859381e-01 4.398230e-01 5.013617e-01 7.243893e-01 8.435742e-01 6.426322e-01 1.124097e+00 7.394260e-01 1.056055e+00 1.811317e-01 2.481990e-02 7.243086e-02 4.871657e-02 9.153730e-02 1.010770e-01 8.828462e-02 1.663336e-01 1.889237e-01 1.251127e-01 1.983199e-01 1.549370e-01 1.845602e-01 2.389024e-02
<GCONST> 6.294991e+01
<STATE> 4
<MEAN> 39
 -1.059545e+01 2.557306e+00 -2.414850e+00 -3.900188e+00 -1.090881e+00 -3.435384e+00 4.859474e+00 -2.021071e+00 3.772506e+00 -3.303846e+00 2.586100e+00 -4.242455e+00 6.822588e+01 -2.186443e-01 -1.119556e-01 1.854919e-01 1.070157e-01 1.405425e-01 5.289432e-02 4.783923e-02 -6.505638e-02 1.167134e-02 8.754658e-02 4.193346e-02 8.738191e-03 3.828500e-02 -2.643390e-02 -6.159325e-02 3.984850e-02 2.807821e-02 -1.168366e-02 5.433570e-03 4.451105e-02 2.620233e-02 -4.815606e-02 -2.863848e-02 8.816876e-03 3.341354e-02 7.782843e-02
<VARIANCE> 39
 2.497265e+01 2.249918e+01 2.044050e+01 1.188672e+01 2.623299e+01 3.538821e+01 2.013857e+01 1.279548e+01 2.207113e+01 2.175579e+01 1.568367e+01 1.528357e+01 2.552716e+01 5.818008e-01 1.336846e+00 1.518144e+00 9.522938e-01 1.747998e+00 1.318215e+00 1.482075e+00 1.264468e+00 1.263127e+00 1.426509e+00 1.207995e+00 9.404917e-01 6.827117e-01 8.326313e-02 2.062647e-01 2.450396e-01 1.638383e-01 2.603106e-01 2.295385e-01 2.770464e-01 2.235526e-01 2.576462e-01 2.483554e-01 2.689079e-01 1.819092e-01 1.033558e-01
<GCONST> 9.177964e+01
<TRANSP> 5
 0.000000e+00 1.000000e+00 0.000000e+00 0.000000e+00 0.000000e+00
 0.000000e+00 8.758454e-01 1.241545e-01 0.000000e+00 0.000000e+00
 0.000000e+00 0.000000e+00 8.787020e-01 1.212980e-01 0.000000e+00
 0.000000e+00 0.000000e+00 0.000000e+00 8.881777e-01 1.118223e-01
 0.000000e+00 0.000000e+00 0.000000e+00 0.000000e+00 0.000000e+00
<ENDHMM>
~h "j"
<BEGINHMM>
<NUMSTATES> 5
<STATE> 2
<MEAN> 39
 -6.514183e+00 2.617974e+00 7.119566e-01 1.491698e+00 8.387072e+00 2.388991e+00 2.201025e+00 -5.028028e+00 -6.861598e+00 -1.286997e+01 4.368451e+00 -1.127501e+00 7.450240e+01 -1.450300e-01 1.027399e-01 3.254318e-01 7.381445e-01 4.239852e-01 1.316268e-01 -3.240660e-01 -2.855258e-01 8.284193e-02 -1.486748e-01 -8.619043e-02 -2.372635e-02 -1.884788e-01 -4.481326e-02 6.481346e-02 6.396201e-02 4.611076e-02 -3.137977e-02 -2.126408e-02 1.184328e-01 9.041428e-02 2.538631e-01 1.872070e-01 -1.681679e-01 -1.976670e-01 -1.215628e-01
<VARIANCE> 39
 9.466375e+00 1.088961e+01 8.451852e+00 1.635588e+01 1.048508e+01 2.044218e+01 3.292670e+01 2.136440e+01 1.903633e+01 2.571194e+01 2.262714e+01 1.950048e+01 1.285319e+01 4.513589e-01 1.152782e+00 6.532471e-01 9.395201e-01 6.222311e-01 1.352297e+00 1.865973e+00 7.610675e-01 2.325985e+00 2.132344e+00 1.603269e+00 1.635240e+00 7.390367e-01 6.785360e-02 1.327622e-01 8.003654e-02 1.615106e-01 1.203080e-01 2.980325e-01 3.189941e-01 1.284768e-01 2.840749e-01 3.885404e-01 2.246958e-01 2.502804e-01 8.852360e-02
<GCONST> 8.621377e+01
<STATE> 3
<MEAN> 39
 -7.475484e+00 3.049470e+00 3.334615e+00 5.159853e+00 1.098445e+01 4.764418e+00 7.039560e-01 -5.274611e+00 -2.829972e+00 -1.163438e+01 1.333237e+00 -4.097695e+00 7.214417e+01 -1.669747e-01 -2.635491e-01 2.274379e-01 1.212727e-01 -7.200750e-03 8.405294e-02 1.394998e-01 1.932468e-01 1.255886e-01 -4.490719e-03 -9.538596e-02 1.998967e-02 -3.848938e-02 -5.313835e-02 -1.051346e-01 -1.733930e-02 -2.995054e-02 -6.228592e-02 -4.014831e-02 1.584683e-02 3.978919e-02 2.203601e-02 -2.334723e-02 3.180539e-02 6.927323e-02 5.310315e-02
<VARIANCE> 39
 9.784501e+00 1.924374e+01 1.332565e+01 1.345955e+01 2.255568e+01 1.655581e+01 2.106096e+01 1.445735e+01 3.421455e+01 4.303593e+01 1.292808e+01 1.696211e+01 1.524310e+01 3.727192e-01 1.429336e+00 9.303299e-01 1.045133e+00 1.906867e+00 9.168640e-01 1.752396e+00 1.065435e+00 2.082315e+00 2.146663e+00 1.272389e+00 1.412886e+00 8.308449e-01 5.489125e-02 2.160535e-01 1.203749e-01 1.834935e-01 3.214542e-01 1.762908e-01 2.936629e-01 1.897194e-01 3.852518e-01 3.987901e-01 2.304093e-01 2.542269e-01 1.220972e-01
<GCONST> 9.076004e+01
<STATE> 4
<MEAN> 39
 -1.192673e+01 -2.731199e+00 4.620354e+00 4.293726e+00 8.128258e+00 3.635887e+00 3.950482e+00 -3.159311e+00 -8.717405e-01 -9.389368e+00 2.276016e+00 -2.216638e+00 7.295029e+01 2.810369e-02 6.125350e-02 -6.540872e-02 -1.099057e-01 -6.903996e-02 2.353653e-02 7.053123e-02 -1.286289e-01 -2.489430e-02 8.207295e-02 5.073612e-02 -4.908090e-02 -2.949107e-03 3.340780e-02 5.446234e-02 -2.803930e-02 -5.331382e-03 1.800487e-02 -5.585822e-03 -1.304185e-02 -1.926808e-02 -2.703136e-02 -1.265707e-02 3.309889e-03 -8.611429e-03 -1.272029e-02
<VARIANCE> 39
 2.384533e+01 3.812589e+01 2.148960e+01 2.173212e+01 1.657717e+01 1.843007e+01 1.506391e+01 2.262146e+01 3.369717e+01 1.699535e+01 1.883319e+01 1.720775e+01 7.474066e+00 9.886754e-01 2.139600e+00 7.537576e-01 1.148024e+00 1.137545e+00 1.212292e+00 1.262914e+00 1.504424e+00 2.182453e+00 1.440523e+00 1.144183e+00 1.438000e+00 4.326856e-01 1.229715e-01 2.767829e-01 1.117239e-01 1.791830e-01 1.985281e-01 2.200156e-01 2.192878e-01 2.383922e-01 3.292757e-01 2.974153e-01 2.025322e-01 2.732937e-01 6.863189e-02
<GCONST> 9.143545e+01
<TRANSP> 5
 0.000000e+00 1.000000e+00 0.000000e+00 0.000000e+00 0.000000e+00
 0.000000e+00 8.319557e-01 1.680443e-01 0.000000e+00 0.000000e+00
 0.000000e+00 0.000000e+00 9.295840e-01 7.041605e-02 0.000000e+00
 0.000000e+00 0.000000e+00 0.000000e+00 9.654645e-01 3.453545e-02
 0.000000e+00 0.000000e+00 0.000000e+00 0.000000e+00 0.000000e+00
<ENDHMM>
~h "k"
<BEGINHMM>
<NUMSTATES> 5
<STATE> 2
<MEAN> 39
 -1.656064e+01 -2.172450e+00 2.009338e+00 -2.209238e+00 5.104602e+00 -7.087827e-01 3.551454e+00 -1.653578e+00 2.340747e+00 -8.090673e+00 1.524862e-01 -3.752291e+00 7.209312e+01 2.093831e-01 5.689111e-02 5.905196e-02 1.297460e-02 1.456396e-01 -1.215758e-01 4.597651e-01 6.954259e-02 -5.985463e-01 -1.410739e-01 -1.191956e-01 -1.830822e-01 1.676574e-01 3.676784e-01 2.617599e-01 -4.248196e-04 1.640698e-01 1.326967e-01 1.118343e-01 -1.939630e-02 5.305874e-02 -1.955817e-01 -5.603132e-02 -1.318141e-02 -6.357440e-02 -2.786398e-02
<VARIANCE> 39
 3.096580e+01 3.424354e+01 1.255196e+01 2.179344e+01 4.363960e+01 3.944210e+01 2.329630e+01 2.133233e+01 2.128297e+01 2.417756e+01 1.488209e+01 1.664845e+01 6.752425e+00 3.136868e+00 3.643033e+00 2.071416e+00 1.030441e+00 2.672619e+00 1.438655e+00 1.283110e+00 1.492994e+00 3.636939e+00 2.420567e+00 1.666260e+00 1.291687e+00 8.265080e-01 2.095887e-01 3.106200e-01 3.531415e-01 1.318865e-01 3.983563e-01 3.091728e-01 1.613908e-01 2.121580e-01 6.068939e-01 4.197697e-01 2.774303e-01 2.697069e-01 1.670399e-01
<GCONST> 1.025057e+02
<STATE> 3
<MEAN> 39
 -9.923108e+00 1.076727e+00 3.115185e+00 -2.581324e-01 5.862086e+00 -1.224584e+00 5.734972e+00 -2.582972e+00 -1.119270e+00 -9.553051e+00 -9.228171e-01 -5.189841e+00 7.357991e+01 1.370801e+00 1.187870e+00 2.165163e-01 2.158664e-01 3.808535e-01 7.582428e-01 3.593144e-01 -2.783252e-01 -1.120941e+00 -5.556203e-02 -8.354664e-01 -1.760787e-01 1.273654e-01 -3.173206e-01 -2.136464e-01 -1.978515e-01 4.956179e-02 -3.010913e-01 -1.242453e-01 -2.220727e-01 3.003660e-02 2.995097e-01 1.904148e-01 1.359076e-01 3.184000e-01 -8.513870e-02
<VARIANCE> 39
 2.505145e+01 2.811667e+01 7.531938e+00 2.879830e+01 1.867102e+01 4.798369e+01 1.144326e+01 4.514027e+01 3.335389e+01 2.711994e+01 1.208474e+01 1.937751e+01 8.712662e+00 2.672484e+00 3.732172e+00 1.080678e+00 1.030477e+00 2.432430e+00 1.646458e+00 2.429863e+00 2.440425e+00 4.919905e+00 4.226559e+00 1.029256e+00 3.291185e+00 1.142911e+00 3.706947e-01 6.241527e-01 2.327071e-01 1.784473e-01 4.540644e-01 3.519590e-01 1.970242e-01 5.954000e-01 1.082395e+00 4.508991e-01 2.583360e-01 4.339728e-01 2.043007e-01
<GCONST> 1.079351e+02
<STATE> 4
<MEAN> 39
 -1.045712e+01 2.909867e+00 1.488428e+00 1.411571e+00 1.024554e+01 2.101671e+00 2.609979e+00 -2.703475e+00 -1.739307e+00 -1.035975e+01 7.403163e-01 -4.811158e+00 7.169568e+01 -1.679744e-01 -2.007017e-01 -5.255638e-02 5.544001e-02 1.545920e-01 7.323829e-02 -1.406419e-01 5.327732e-02 5.152114e-02 1.939889e-01 1.463203e-01 1.683315e-01 -5.542080e-03 -1.121978e-01 -1.214579e-01 9.453882e-03 -9.934074e-02 -9.922006e-02 -9.398922e-02 5.765130e-03 6.780475e-02 7.065426e-02 1.131540e-01 9.768403e-02 1.315727e-02 1.387878e-02
<VARIANCE> 39
 1.708657e+01 1.108091e+01 1.152160e+01 1.011326e+01 2.864115e+01 1.832954e+01 3.068771e+01 2.004143e+01 4.341175e+01 3.627328e+01 1.867372e+01 3.280457e+01 6.787902e+00 5.087058e-01 1.098744e+00 8.947559e-01 1.011586e+00 2.069074e+00 8.836499e-01 1.791542e+00 1.617264e+00 2.317242e+00 2.652054e+00 1.657737e+00 1.617792e+00 5.830005e-01 8.887605e-02 1.807796e-01 1.339337e-01 9.657924e-02 3.716246e-01 1.615417e-01 3.992845e-01 3.422526e-01 4.750328e-01 4.485171e-01 3.148834e-01 2.388197e-01 1.165654e-01
<GCONST> 9.374191e+01
<TRANSP> 5
 0.000000e+00 1.000000e+00 0.000000e+00 0.000000e+00 0.000000e+00
 0.000000e+00 6.788403e-01 3.211596e-01 0.000000e+00 0.000000e+00
 0.000000e+00 0.000000e+00 5.603487e-01 4.396513e-01 0.000000e+00
 0.000000e+00 0.000000e+00 0.000000e+00 8.411896e-01 1.588104e-01
 0.000000e+00 0.000000e+00 0.000000e+00 0.000000e+00 0.000000e+00
<ENDHMM>
~h "l"
<BEGINHMM>
<NUMSTATES> 5
<STATE> 2
<MEAN> 39
 -6.645048e+00 2.674234e+00 1.434945e+00 2.110879e+00 6.921589e+00 9.712431e-01 2.755115e+00 -3.874326e+00 -3.150673e+00 -1.309052e+01 -1.374202e+00 -4.194015e+00 7.194763e+01 -5.595371e-02 2.678853e-01 -9.042724e-02 4.059846e-02 1.179872e-01 5.080632e-02 1.610525e-01 9.261054e-02 1.909295e-01 -2.686483e-02 -3.556847e-01 -1.085740e-01 -3.162728e-01 -2.720894e-02 -5.832285e-02 -1.083877e-02 -7.230704e-02 -5.026754e-03 -2.087193e-02 -1.692233e-02 3.560970e-02 4.804282e-02 1.162231e-01 1.039355e-01 1.990190e-02 2.855788e-02
<VARIANCE> 39
 1.570513e+01 2.338774e+01 1.620097e+01 2.613948e+01 2.900608e+01 2.886275e+01 2.832641e+01 2.485564e+01 3.811436e+01 3.788939e+01 2.595399e+01 2.740330e+01 2.658035e+01 3.767879e-01 1.165081e+00 8.552221e-01 1.139708e+00 1.333472e+00 1.394665e+00 1.785333e+00 1.458631e+00 2.208495e+00 2.204695e+00 1.628568e+00 1.514082e+00 7.579326e-01 6.095513e-02 1.550629e-01 1.411464e-01 1.585707e-01 2.269524e-01 2.297172e-01 2.800327e-01 2.886135e-01 3.524921e-01 3.739084e-01 3.099918e-01 2.743162e-01 1.009944e-01
<GCONST> 9.626385e+01
<STATE> 3
<MEAN> 39
 -7.474434e+00 3.680143e+00 8.045185e-01 1.521549e+00 7.029436e+00 7.626789e-01 3.519335e+00 -2.934141e+00 -1.644714e+00 -1.186546e+01 -1.609684e+00 -4.708952e+00 7.085177e+01 -1.557022e-01 8.243747e-02 -1.185005e-01 -1.724598e-01 4.491731e-02 -1.354723e-02 9.503952e-02 6.931841e-02 2.679254e-01 3.776497e-01 1.107091e-01 -7.138017e-02 -1.987213e-01 -2.961560e-02 -1.101185e-01 1.002419e-02 -7.101768e-02 -4.641647e-02 -4.502460e-03 -3.234543e-02 -3.542188e-04 -2.324685e-03 1.069890e-01 1.790517e-01 5.252685e-02 9.362395e-02
<VARIANCE> 39
 1.965893e+01 2.124812e+01 1.700210e+01 2.704210e+01 2.791024e+01 2.606423e+01 2.335269e+01 2.009340e+01 3.415977e+01 4.029766e+01 2.698664e+01 2.758111e+01 3.147739e+01 4.322707e-01 1.000613e+00 8.406280e-01 1.132797e+00 1.432167e+00 1.470212e+00 1.576807e+00 1.333961e+00 2.218709e+00 1.809811e+00 1.874269e+00 1.470899e+00 7.649346e-01 6.617904e-02 1.571698e-01 1.326608e-01 1.925075e-01 2.206199e-01 2.343726e-01 2.649757e-01 2.487851e-01 3.504831e-01 3.360164e-01 3.358080e-01 2.591709e-01 1.059541e-01
<GCONST> 9.586978e+01
<STATE> 4
<MEAN> 39
 -7.376061e+00 3.614022e+00 2.173977e-03 8.839213e-01 6.120049e+00 -5.729208e-01 2.696025e+00 -3.323171e+00 -1.490622e+00 -1.048291e+01 -7.092521e-01 -5.162579e+00 7.072876e+01 -1.710143e-01 -1.310756e-01 -1.181325e-01 -3.346376e-01 -2.347788e-01 -1.427600e-01 3.405208e-02 1.179144e-01 1.675377e-01 3.794554e-01 3.587833e-01 6.923927e-02 1.979747e-03 -2.377032e-02 -4.702003e-02 1.998921e-02 -8.434610e-03 -2.285459e-02 1.745355e-02 -1.452630e-02 2.001560e-02 -1.759527e-02 -1.890059e-02 1.007949e-02 4.387787e-02 4.978086e-02
<VARIANCE> 39
 1.724405e+01 2.200030e+01 1.892937e+01 2.605665e+01 3.583111e+01 3.428597e+01 2.988071e+01 2.250366e+01 3.600929e+01 4.102878e+01 2.265436e+01 3.314176e+01 2.784066e+01 4.589627e-01 1.143276e+00 1.024384e+00 1.188058e+00 2.035487e+00 1.854724e+00 1.944994e+00 1.539800e+00 2.337175e+00 2.209126e+00 1.909893e+00 1.509755e+00 7.809349e-01 8.222502e-02 1.700493e-01 1.729755e-01 1.691343e-01 3.103597e-01 3.047905e-01 3.290924e-01 2.787409e-01 3.873245e-01 3.695909e-01 3.452790e-01 2.855173e-01 1.201662e-01
<GCONST> 1.001888e+02
<TRANSP> 5
 0.000000e+00 1.000000e+00 0.000000e+00 0.000000e+00 0.000000e+00
 0.000000e+00 5.673953e-01 4.326047e-01 0.000000e+00 0.000000e+00
 0.000000e+00 0.000000e+00 4.249829e-01 5.750171e-01 0.000000e+00
 0.000000e+00 0.000000e+00 0.000000e+00 6.787000e-01 3.213000e-01
 0.000000e+00 0.000000e+00 0.000000e+00 0.000000e+00 0.000000e+00
<ENDHMM>
~h "m"
<BEGINHMM>
<NUMSTATES> 5
<STATE> 2
<MEAN> 39
 -8.896091e+00 6.371780e+00 4.416460e-02 -1.084647e+00 4.831533e+00 9.138617e-01 5.010030e+00 -1.092901e+00 4.102973e+00 -5.427020e+00 1.699890e-01 -5.376148e+00 6.918696e+01 3.917187e-01 6.921675e-01 4.478522e-01 3.172080e-01 3.249552e-01 2.323798e-01 9.704944e-02 4.355970e-02 -1.530850e-02 2.116400e-01 -1.339807e-01 -1.952909e-01 -2.559633e-01 3.533020e-02 -2.070392e-01 2.953997e-02 8.969036e-03 6.792443e-02 -7.815620e-02 -8.511987e-02 -7.736897e-02 -2.735616e-01 -2.846470e-01 -2.567184e-02 1.549598e-01 1.635666e-01
<VARIANCE> 39
 2.226357e+01 1.828868e+01 1.934670e+01 1.802335e+01 2.209491e+01 2.533347e+01 2.065044e+01 2.128909e+01 2.420676e+01 2.555872e+01 1.297565e+01 1.349745e+01 1.538885e+01 9.787821e-01 6.316950e-01 6.186909e-01 1.251349e+00 1.202541e+00 1.917609e+00 1.597630e+00 1.198594e+00 1.380148e+00 1.423176e+00 1.310319e+00 9.898715e-01 7.967351e-01 1.528197e-01 1.866295e-01 2.173119e-01 2.379874e-01 1.340874e-01 1.756616e-01 2.688384e-01 2.925107e-01 2.172530e-01 2.057327e-01 2.187653e-01 1.787096e-01 7.337464e-02
<GCONST> 8.996504e+01
<STATE> 3
<MEAN> 39
 -7.622275e+00 8.071524e+00 1.580309e+00 -4.643306e-01 6.015872e+00 1.584338e+00 5.121077e+00 -9.011385e-01 3.614460e+00 -5.553084e+00 -1.940709e-01 -5.584874e+00 6.871813e+01 3.559669e-01 9.505806e-02 9.112388e-02 -1.671387e-02 3.133572e-01 -9.505563e-02 -4.224572e-01 -2.646730e-01 -5.654063e-01 -6.191182e-01 -1.575956e-01 1.873347e-01 1.190514e-01 -3.226245e-02 -2.406285e-01 -1.166909e-01 -7.477596e-02 -3.507661e-02 -9.511293e-02 -1.159649e-01 -1.110662e-01 -1.608466e-01 -2.521232e-01 8.582215e-03 1.056174e-01 1.458096e-01
<VARIANCE> 39
 1.200180e+01 1.132136e+01 1.904126e+01 1.428190e+01 2.142308e+01 2.597032e+01 2.007837e+01 2.243735e+01 2.066826e+01 2.681895e+01 1.399060e+01 1.001025e+01 8.725986e+00 1.116956e+00 5.010629e-01 7.326478e-01 1.256980e+00 7.880488e-01 1.285295e+00 2.017759e+00 1.624267e+00 1.709412e+00 1.997978e+00 1.216159e+00 6.941776e-01 5.872929e-01 9.673179e-02 8.473913e-02 1.169011e-01 1.657791e-01 1.670716e-01 2.582802e-01 3.549751e-01 2.461195e-01 2.860062e-01 2.179209e-01 2.191543e-01 1.278099e-01 5.815560e-02
<GCONST> 8.559274e+01
<STATE> 4
<MEAN> 39
 -4.946353e+00 6.301473e+00 1.020992e+00 7.795258e-01 7.933453e+00 1.014672e+00 1.351728e+00 -4.344048e+00 -7.946677e-01 -9.827997e+00 -2.012152e+00 -5.759674e+00 7.114671e+01 -1.940406e-02 -2.061553e-01 -7.727788e-02 2.030586e-01 2.152890e-01 2.060975e-01 1.844321e-01 -2.124907e-01 -4.127596e-01 -1.950670e-01 -7.477135e-02 4.641417e-02 7.665169e-02 -1.203992e-01 -6.547996e-02 9.900102e-03 -4.346746e-02 -1.010627e-01 1.614863e-02 1.127950e-01 6.984329e-02 1.149894e-01 1.191851e-01 6.354016e-02 -1.328895e-02 1.675873e-02
<VARIANCE> 39
 1.010190e+01 1.695863e+01 1.192060e+01 1.901357e+01 3.225479e+01 4.145567e+01 3.046676e+01 2.845610e+01 2.488116e+01 3.814182e+01 1.938989e+01 1.006487e+01 8.425776e+00 5.493200e-01 8.178726e-01 8.274068e-01 1.060012e+00 1.199785e+00 1.426373e+00 2.484087e+00 1.241308e+00 2.352181e+00 2.264126e+00 1.253841e+00 9.609374e-01 8.006507e-01 7.638644e-02 1.591325e-01 1.367764e-01 1.620933e-01 2.011585e-01 2.363685e-01 4.086519e-01 2.393129e-01 3.582730e-01 3.379950e-01 2.483152e-01 1.540707e-01 1.139871e-01
<GCONST> 9.170044e+01
<TRANSP> 5
 0.000000e+00 1.000000e+00 0.000000e+00 0.000000e+00 0.000000e+00
 0.000000e+00 5.011852e-01 4.988148e-01 0.000000e+00 0.000000e+00
 0.000000e+00 0.000000e+00 5.962026e-01 4.037975e-01 0.000000e+00
 0.000000e+00 0.000000e+00 0.000000e+00 7.646489e-01 2.353512e-01
 0.000000e+00 0.000000e+00 0.000000e+00 0.000000e+00 0.000000e+00
<ENDHMM>
~h "n"
<BEGINHMM>
<NUMSTATES> 5
<STATE> 2
<MEAN> 39
 -6.760633e+00 5.563090e+00 1.422642e-01 3.547327e+00 9.423656e+00 3.661261e+00 5.342366e+00 -3.585820e+00 9.582331e-02 -6.994247e+00 7.712288e-01 -5.057643e+00 6.890836e+01 -1.426197e-01 3.681737e-01 -6.789309e-02 -1.459425e-01 -5.784167e-02 2.652775e-01 4.586529e-01 1.176276e-01 2.327214e-01 3.018420e-01 -1.122172e-01 -2.226157e-01 -3.381589e-01 -4.762524e-02 -7.534857e-02 2.024263e-02 -3.258891e-02 -2.625383e-02 -5.077538e-02 -9.448793e-02 2.817388e-02 1.588367e-02 -3.193585e-02 7.653727e-03 3.285732e-02 3.333290e-02
<VARIANCE> 39
 6.573160e+00 2.778811e+01 1.312817e+01 1.775527e+01 1.282584e+01 1.922574e+01 1.985811e+01 1.894609e+01 3.304057e+01 2.760701e+01 1.047717e+01 1.778734e+01 1.132899e+01 2.806127e-01 1.033334e+00 8.171132e-01 9.665146e-01 9.924688e-01 8.784476e-01 1.142548e+00 1.047951e+00 1.239393e+00 1.141866e+00 7.734978e-01 1.051113e+00 3.322380e-01 3.649865e-02 1.661162e-01 1.356283e-01 1.199727e-01 1.647269e-01 1.319762e-01 1.964678e-01 1.914814e-01 1.832660e-01 1.940139e-01 1.190339e-01 1.749679e-01 5.327863e-02
<GCONST> 7.937929e+01
<STATE> 3
<MEAN> 39
 -8.089378e+00 4.635641e+00 -1.637217e-01 1.013083e+00 8.632066e+00 3.612140e+00 6.171306e+00 -3.792228e+00 -7.427887e-01 -7.942550e+00 4.449926e-01 -4.843550e+00 6.955324e+01 -3.085248e-01 -1.908170e-01 1.578146e-02 -1.220914e-01 6.524867e-02 -9.690975e-02 -1.679391e-01 3.624945e-01 2.095230e-01 -9.127931e-02 -1.502315e-01 -1.140153e-02 -5.742200e-02 -1.091092e-01 -2.428484e-01 -1.473633e-02 -1.618200e-01 -9.404325e-02 -1.755604e-01 -1.950710e-01 3.832714e-02 -4.141438e-02 -6.734221e-02 7.536620e-02 1.705724e-01 1.710709e-01
<VARIANCE> 39
 9.868685e+00 2.146750e+01 1.057613e+01 1.746700e+01 1.921743e+01 1.670782e+01 1.352245e+01 1.998837e+01 3.267690e+01 2.403483e+01 1.684172e+01 1.709674e+01 1.491575e+01 5.954915e-01 1.429535e+00 1.301753e+00 1.657330e+00 1.277839e+00 1.153652e+00 1.528075e+00 1.165692e+00 1.753225e+00 1.743267e+00 1.398065e+00 1.552833e+00 6.960649e-01 7.589886e-02 2.044606e-01 1.983188e-01 3.107456e-01 1.932406e-01 2.287533e-01 2.251664e-01 2.070544e-01 3.237811e-01 3.176625e-01 2.493644e-01 2.701757e-01 1.271126e-01
<GCONST> 9.158629e+01
<STATE> 4
<MEAN> 39
 -1.326702e+01 -1.273927e+00 -2.506404e+00 -2.554763e+00 3.642906e+00 1.772718e+00 6.622120e+00 -1.060555e-01 2.741311e+00 -6.425055e+00 2.600138e+00 -2.602483e+00 6.822860e+01 -2.735295e-01 -2.466740e-01 -1.957927e-01 -3.711236e-01 -1.955173e-01 -2.359951e-01 -1.780206e-01 1.604425e-01 1.730693e-01 3.519752e-02 2.434807e-02 1.883123e-01 1.222300e-02 2.784440e-03 -1.563858e-02 3.450808e-02 -9.385617e-03 -2.904717e-02 -9.231538e-03 -3.994001e-02 -5.248542e-02 -2.337234e-02 -7.922045e-03 6.064191e-03 6.614965e-03 5.535371e-02
<VARIANCE> 39
 1.677159e+01 5.476038e+01 1.363644e+01 1.464991e+01 2.009877e+01 1.378138e+01 1.145309e+01 1.508565e+01 3.237676e+01 2.822969e+01 1.483274e+01 1.640618e+01 1.807551e+01 5.089641e-01 1.234372e+00 9.292870e-01 1.015150e+00 9.802045e-01 8.613104e-01 1.095466e+00 9.165503e-01 1.780452e+00 1.509561e+00 1.251500e+00 1.280914e+00 6.430265e-01 7.028954e-02 1.579922e-01 1.548734e-01 1.483454e-01 1.785939e-01 1.747568e-01 1.784758e-01 1.749942e-01 3.360104e-01 2.734785e-01 2.292249e-01 2.535920e-01 9.745844e-02
<GCONST> 8.734300e+01
<TRANSP> 5
 0.000000e+00 1.000000e+00 0.000000e+00 0.000000e+00 0.000000e+00
 0.000000e+00 7.986414e-01 2.013586e-01 0.000000e+00 0.000000e+00
 0.000000e+00 0.000000e+00 5.482303e-01 4.517696e-01 0.000000e+00
 0.000000e+00 0.000000e+00 0.000000e+00 7.810854e-01 2.189147e-01
 0.000000e+00 0.000000e+00 0.000000e+00 0.000000e+00 0.000000e+00
<ENDHMM>
~h "q"
<BEGINHMM>
<NUMSTATES> 5
<STATE> 2
<MEAN> 39
 -1.707079e+01 -4.591092e-01 5.075744e+00 -7.701385e+00 1.834841e-01 -1.799120e+00 6.951656e+00 9.152226e-01 2.793667e+00 -6.007295e+00 1.968166e+00 -2.526950e+00 7.325200e+01 -1.081094e+00 -8.783297e-01 4.041901e-01 -5.438185e-01 -3.610457e-01 2.325752e-01 6.189157e-01 -1.643303e-01 -3.029598e-01 -1.628066e-01 2.909129e-01 3.676589e-01 5.052481e-01 2.236549e-01 7.357484e-02 -9.986804e-02 1.959163e-01 3.050687e-02 7.087855e-03 -1.628524e-03 -6.128756e-02 1.409275e-02 6.739800e-02 -9.061649e-03 -3.589978e-02 -8.753532e-02
<VARIANCE> 39
 4.427511e+01 2.006554e+01 2.893974e+01 4.008002e+01 2.673801e+01 2.797538e+01 3.835349e+01 3.721631e+01 3.305915e+01 2.295328e+01 2.229139e+01 1.936494e+01 1.208047e+01 2.708203e+00 2.169237e+00 2.749602e+00 1.804652e+00 2.655577e+00 3.244280e+00 3.839452e+00 5.165535e+00 2.778425e+00 2.843544e+00 1.951552e+00 1.974866e+00 1.613154e+00 5.360833e-01 4.004967e-01 5.348524e-01 3.924523e-01 5.292338e-01 5.751646e-01 7.167320e-01 9.833263e-01 4.866611e-01 5.159888e-01 4.260239e-01 3.761750e-01 2.791866e-01
<GCONST> 1.178748e+02
<STATE> 3
<MEAN> 39
 -1.775843e+01 -1.488695e+00 2.336345e+00 -7.353078e+00 5.538158e-01 -2.182222e-01 8.046958e+00 6.385908e-03 2.255690e+00 -7.257760e+00 8.711494e-01 -1.704433e+00 7.280571e+01 6.792567e-01 1.604102e-01 -5.017902e-01 8.575258e-01 2.578035e-01 2.076881e-01 -1.489379e-01 -1.544054e-01 -1.415126e-01 -6.594176e-02 -3.920881e-02 -7.911419e-02 -2.994626e-01 2.903078e-01 1.466120e-01 7.381050e-02 1.721633e-01 1.808592e-01 5.023617e-02 -1.005821e-01 -2.165070e-04 -6.199447e-02 -3.477381e-03 -3.229308e-02 -1.967843e-01 -4.002897e-02
<VARIANCE> 39
 3.803654e+01 3.017567e+01 2.766122e+01 2.443535e+01 2.059195e+01 2.942344e+01 2.378812e+01 4.174896e+01 2.528065e+01 2.357982e+01 1.737514e+01 1.737352e+01 1.341765e+01 4.509661e+00 2.300273e+00 1.396418e+00 2.826949e+00 2.030633e+00 2.415911e+00 3.056464e+00 2.970126e+00 2.636739e+00 2.192871e+00 1.328808e+00 1.977434e+00 8.674966e-01 8.754604e-01 4.862951e-01 2.982110e-01 4.598405e-01 4.715677e-01 4.214456e-01 6.918028e-01 6.932735e-01 4.748380e-01 3.972045e-01 3.017203e-01 5.218411e-01 1.946821e-01
<GCONST> 1.129863e+02
<STATE> 4
<MEAN> 39
 -1.077132e+01 -2.418808e+00 3.583130e+00 1.145723e+00 6.606156e+00 1.870954e+00 3.434819e+00 -8.607051e-01 4.089386e-01 -8.354910e+00 -8.837559e-01 -6.881955e+00 7.340253e+01 1.555466e+00 3.530987e-01 3.697948e-01 1.344348e+00 1.515235e+00 1.214109e-01 -1.301554e+00 -5.476104e-01 -9.393741e-01 -4.575973e-01 -2.648613e-01 -1.082343e+00 2.635722e-01 -2.056970e-01 -1.181467e-02 -5.351950e-02 -1.756771e-01 -2.299489e-02 -1.217210e-01 -2.002422e-01 -1.177728e-01 -6.331282e-03 -6.366145e-02 -1.442307e-02 8.802851e-02 1.014633e-01
<VARIANCE> 39
 2.369400e+01 3.541862e+01 1.949739e+01 5.430117e+01 4.896062e+01 2.435234e+01 5.974483e+01 3.838369e+01 4.573347e+01 2.523203e+01 2.267995e+01 3.109087e+01 1.296918e+01 4.107589e+00 3.004236e+00 2.394358e+00 3.176944e+00 4.777763e+00 2.350115e+00 3.647783e+00 2.300127e+00 4.362303e+00 3.828873e+00 2.897275e+00 5.397709e+00 7.116804e-01 5.376616e-01 5.465357e-01 3.889207e-01 4.076480e-01 6.204531e-01 4.300183e-01 8.185030e-01 3.639736e-01 7.318866e-01 7.023834e-01 4.671174e-01 9.324134e-01 1.326924e-01
<GCONST> 1.215655e+02
<TRANSP> 5
 0.000000e+00 1.000000e+00 0.000000e+00 0.000000e+00 0.000000e+00
 0.000000e+00 8.741721e-01 1.258279e-01 0.000000e+00 0.000000e+00
 0.000000e+00 0.000000e+00 8.652876e-01 1.347124e-01 0.000000e+00
 0.000000e+00 0.000000e+00 0.000000e+00 8.080478e-01 1.919522e-01
 0.000000e+00 0.000000e+00 0.000000e+00 0.000000e+00 0.000000e+00
<ENDHMM>
~h "r"
<BEGINHMM>
<NUMSTATES> 5
<STATE> 2
<MEAN> 39
 -5.910071e+00 2.255987e+00 6.916525e-01 -2.105280e+00 6.545168e+00 1.631486e+00 -6.744419e-01 -3.395093e+00 -4.333157e+00 -1.462327e+01 4.448776e-01 -2.505681e+00 7.371246e+01 1.264007e-01 3.064899e-01 -2.917175e-01 -1.717022e-01 4.672997e-01 3.538985e-01 -1.555777e-01 -7.371758e-02 -1.905445e-01 -7.754468e-01 -4.134229e-01 2.841300e-01 -2.183743e-01 -1.648071e-01 -9.212925e-03 -4.033742e-02 -1.913682e-03 -1.162872e-01 -1.217177e-01 2.405030e-01 1.803800e-01 1.815659e-01 2.181241e-01 2.003037e-02 -6.676202e-02 -9.804646e-02
<VARIANCE> 39
 7.631831e+00 1.629047e+01 1.128358e+01 4.163893e+01 2.273702e+01 2.277843e+01 1.448881e+01 1.711789e+01 3.149112e+01 3.945097e+01 2.309169e+01 2.101799e+01 6.033322e+00 8.457888e-01 1.509833e+00 8.851180e-01 1.235428e+00 1.797491e+00 1.938792e+00 1.711159e+00 2.129864e+00 1.941626e+00 2.571567e+00 1.943904e+00 1.368212e+00 8.179116e-01 1.257860e-01 2.868831e-01 1.700751e-01 2.783000e-01 3.406950e-01 3.826583e-01 2.186237e-01 4.467469e-01 4.741825e-01 4.879990e-01 3.678294e-01 1.793344e-01 1.871226e-01
<GCONST> 9.818935e+01
<STATE> 3
<MEAN> 39
 -6.965696e+00 3.669705e+00 -4.944361e-03 -2.327528e+00 7.827672e+00 1.547718e+00 8.106118e-01 -2.090820e+00 -3.256711e+00 -1.463070e+01 -1.293223e+00 -2.814309e+00 7.200523e+01 -3.560424e-01 3.729947e-02 4.054606e-02 2.670555e-01 2.605325e-01 7.012611e-02 3.678842e-01 1.382470e-01 9.733148e-02 1.024608e-01 -6.867996e-02 1.367240e-04 -3.120265e-01 -9.759411e-02 -7.713611e-02 1.123553e-01 2.044736e-02 -1.900366e-01 -7.778620e-03 1.725536e-02 -1.148714e-01 8.383907e-02 2.858259e-01 1.656886e-01 -6.313492e-02 5.618571e-02
<VARIANCE> 39
 1.026304e+01 1.344608e+01 1.163251e+01 3.723606e+01 2.158301e+01 1.905433e+01 1.634840e+01 1.812934e+01 2.932951e+01 4.157807e+01 1.846839e+01 1.849973e+01 8.451945e+00 4.970599e-01 1.473292e+00 1.214349e+00 1.776093e+00 1.955979e+00 2.086623e+00 1.460472e+00 1.845791e+00 1.902337e+00 2.536905e+00 1.903343e+00 1.547476e+00 9.755993e-01 9.107241e-02 2.971337e-01 2.329465e-01 3.515255e-01 3.502893e-01 4.525393e-01 2.275682e-01 4.009344e-01 3.557347e-01 4.775628e-01 3.634660e-01 2.644624e-01 1.938469e-01
<GCONST> 9.884185e+01
<STATE> 4
<MEAN> 39
 -6.884363e+00 2.251493e+00 -6.523490e-02 2.060233e+00 9.153746e+00 2.144725e+00 2.327657e+00 -1.509164e+00 -5.805494e+00 -1.699701e+01 -3.657758e-01 -7.717151e-01 7.111293e+01 -2.431819e-01 -1.558091e-01 2.103080e-01 1.025377e-01 -1.145770e-01 9.459791e-02 7.801160e-02 -1.596766e-01 1.616676e-01 4.802014e-01 2.727043e-01 -1.420968e-01 1.405541e-02 -4.429302e-02 -6.738074e-02 6.423627e-02 -2.279863e-05 -5.767313e-02 -4.036611e-02 -1.686376e-02 -1.415089e-02 6.401175e-02 7.887286e-02 1.540318e-02 -2.101148e-02 7.204410e-02
<VARIANCE> 39
 7.756536e+00 1.789366e+01 1.288080e+01 2.311608e+01 2.153314e+01 1.901629e+01 2.464185e+01 2.658823e+01 3.740317e+01 5.413029e+01 1.849749e+01 2.979985e+01 1.001233e+01 5.942739e-01 1.532129e+00 1.238796e+00 1.379364e+00 1.785737e+00 1.958560e+00 1.791041e+00 2.253816e+00 2.821981e+00 3.235209e+00 1.826995e+00 2.053055e+00 7.816843e-01 8.689811e-02 2.656282e-01 2.413042e-01 2.211676e-01 3.135250e-01 3.192339e-01 3.370036e-01 4.632135e-01 4.228714e-01 5.574698e-01 3.752771e-01 3.367741e-01 1.365488e-01
<GCONST> 1.010494e+02
<TRANSP> 5
 0.000000e+00 1.000000e+00 0.000000e+00 0.000000e+00 0.000000e+00
 0.000000e+00 7.546157e-01 2.453843e-01 0.000000e+00 0.000000e+00
 0.000000e+00 0.000000e+00 6.322583e-01 3.677417e-01 0.000000e+00
 0.000000e+00 0.000000e+00 0.000000e+00 8.424197e-01 1.575802e-01
 0.000000e+00 0.000000e+00 0.000000e+00 0.000000e+00 0.000000e+00
<ENDHMM>
~h "s"
<BEGINHMM>
<NUMSTATES> 5
<STATE> 2
<MEAN> 39
 -1.906182e+01 -5.404315e+00 6.229857e+00 -4.079161e+00 2.074126e+00 1.187130e+00 8.489329e+00 -1.316743e+00 -3.085214e-01 -7.426802e+00 1.959705e+00 -5.210183e-01 7.335051e+01 -1.260088e+00 -4.925571e-01 3.636210e-01 -8.627889e-01 -5.635918e-01 -2.395449e-01 1.526964e-02 1.104201e-02 2.913979e-01 2.964908e-01 -4.018020e-02 2.489608e-01 2.541610e-01 1.478608e-01 9.232064e-02 -9.337391e-02 1.948756e-02 1.575486e-01 5.492580e-02 -1.468091e-01 3.353782e-02 3.188990e-02 -7.086993e-02 -6.774434e-03 -9.343540e-02 -6.732605e-02
<VARIANCE> 39
 4.059280e+01 3.141506e+01 6.438549e+01 2.063119e+01 1.368984e+01 2.562786e+01 1.855410e+01 3.517840e+01 2.345169e+01 1.801584e+01 2.068328e+01 1.098879e+01 5.998255e+01 1.687726e+00 5.649437e-01 1.485830e+00 1.199428e+00 1.371014e+00 1.125238e+00 7.731371e-01 1.459623e+00 1.274454e+00 1.201396e+00 8.756418e-01 9.151497e-01 3.990797e-01 1.566811e-01 9.056615e-02 1.467189e-01 1.482137e-01 1.442417e-01 2.616880e-01 1.823237e-01 2.118470e-01 2.016181e-01 2.446685e-01 1.802894e-01 1.528638e-01 4.576473e-02
<GCONST> 8.999908e+01
<STATE> 3
<MEAN> 39
 -2.237688e+01 -4.371765e+00 6.427584e+00 -8.084939e+00 1.515254e+00 1.223142e+00 7.922969e+00 -2.165492e+00 1.763094e+00 -4.091246e+00 1.823041e+00 -5.626888e-01 7.228913e+01 -4.343965e-01 -5.720313e-02 -9.410930e-02 -3.712195e-01 7.668276e-02 -5.290783e-02 -5.969477e-02 2.897131e-01 4.666853e-01 3.060804e-01 -2.208570e-03 -1.783675e-02 -8.165669e-02 2.425629e-01 6.543317e-02 -1.429657e-01 1.984842e-01 8.074631e-02 -8.761287e-02 2.488219e-02 1.061148e-01 4.666745e-02 -3.973383e-02 4.094438e-03 -3.351835e-02 -8.337837e-02
<VARIANCE> 39
 4.053437e+01 2.209858e+01 5.886172e+01 2.309759e+01 1.046984e+01 2.409940e+01 2.000116e+01 2.940910e+01 2.388558e+01 2.266435e+01 1.371420e+01 9.814123e+00 7.476935e+01 7.183299e-01 6.000127e-01 1.107520e+00 8.351715e-01 6.003568e-01 8.022468e-01 7.049151e-01 1.204930e+00 1.079221e+00 8.257612e-01 6.334681e-01 6.753981e-01 2.754132e-01 1.173301e-01 1.096484e-01 1.953355e-01 1.332030e-01 1.208978e-01 1.608153e-01 1.280212e-01 2.810888e-01 2.336870e-01 1.494411e-01 1.512430e-01 1.423357e-01 5.204924e-02
<GCONST> 8.362541e+01
<STATE> 4
<MEAN> 39
 -2.108800e+01 -8.547456e-01 1.392740e+00 -7.828176e+00 1.407835e+00 1.698307e+00 7.639847e+00 -8.976271e-01 6.223326e+00 -2.029695e+00 3.048146e+00 -1.029739e+00 6.922546e+01 3.872099e-01 1.912476e-02 -4.381278e-01 3.444214e-01 1.383492e-01 -1.116326e-01 3.071117e-02 1.258554e-01 -2.582620e-02 1.241962e-02 7.532392e-02 -8.717179e-02 -2.369273e-01 1.593853e-01 6.707181e-03 1.539553e-02 1.245310e-01 1.438802e-02 -3.079027e-02 -5.192676e-02 -6.340620e-02 -1.151734e-01 -1.241411e-01 -2.811948e-02 -4.130838e-02 2.893114e-02
<VARIANCE> 39
 3.173889e+01 1.879449e+01 5.337651e+01 2.037690e+01 1.066040e+01 1.456243e+01 1.634131e+01 1.821804e+01 2.868970e+01 1.400318e+01 1.245834e+01 9.840434e+00 4.848874e+01 1.503447e+00 8.831505e-01 2.089318e+00 1.045414e+00 8.448227e-01 9.603288e-01 9.560150e-01 8.620520e-01 1.347266e+00 1.130915e+00 1.149062e+00 9.692110e-01 8.323881e-01 2.783970e-01 1.743542e-01 3.531970e-01 1.901391e-01 1.888367e-01 2.161225e-01 2.057099e-01 1.634677e-01 2.808278e-01 2.031999e-01 2.118468e-01 2.217715e-01 1.605152e-01
<GCONST> 9.142650e+01
<TRANSP> 5
 0.000000e+00 1.000000e+00 0.000000e+00 0.000000e+00 0.000000e+00
 0.000000e+00 7.485761e-01 2.514239e-01 0.000000e+00 0.000000e+00
 0.000000e+00 0.000000e+00 6.870136e-01 3.129864e-01 0.000000e+00
 0.000000e+00 0.000000e+00 0.000000e+00 8.350337e-01 1.649663e-01
 0.000000e+00 0.000000e+00 0.000000e+00 0.000000e+00 0.000000e+00
<ENDHMM>
~h "t"
<BEGINHMM>
<NUMSTATES> 5
<STATE> 2
<MEAN> 39
 -6.582270e+00 -3.564066e+00 -1.671245e+00 -3.178329e+00 4.465836e-01 -3.824117e+00 7.180779e+00 -4.416749e+00 -4.736724e+00 -1.015937e+01 4.042605e+00 -3.577149e+00 8.056379e+01 3.111992e-01 -1.300190e-01 -1.828537e-01 -1.329218e-01 -2.590404e-01 -1.592497e-01 -1.384145e-01 -3.280989e-01 -3.314192e-01 -5.853281e-03 3.232163e-01 1.704979e-01 2.682712e-01 -4.408329e-02 9.471297e-02 6.847370e-02 3.581228e-02 7.763445e-02 1.515373e-01 -1.085834e-02 2.437420e-02 6.559639e-02 2.666739e-02 -1.020542e-01 5.423726e-03 -1.121375e-01
<VARIANCE> 39
 2.299014e+01 1.364752e+01 1.510275e+01 2.246842e+01 2.932912e+01 1.769108e+01 3.777192e+01 2.519892e+01 4.677451e+01 3.252126e+01 2.316113e+01 1.859567e+01 2.769149e+01 5.651141e-01 9.143709e-01 8.568819e-01 1.042096e+00 1.273478e+00 9.985737e-01 1.501400e+00 1.396219e+00 1.203631e+00 1.556922e+00 1.250934e+00 9.890903e-01 6.884195e-01 1.279717e-01 1.583092e-01 1.400116e-01 1.698588e-01 1.922872e-01 1.651525e-01 2.204207e-01 2.660311e-01 2.191687e-01 2.820546e-01 1.595529e-01 1.909593e-01 1.090723e-01
<GCONST> 9.133686e+01
<STATE> 3
<MEAN> 39
 -6.642354e+00 -1.216837e+00 -1.412369e+00 -3.540161e+00 3.169384e+00 -8.332933e-01 3.125487e+00 -8.096950e+00 -7.100557e+00 -1.118935e+01 1.624480e+00 -2.899894e+00 7.917088e+01 2.391173e-01 8.021868e-02 1.370195e-01 8.330992e-02 1.010578e-01 3.089985e-01 -1.882848e-02 -1.823420e-01 -4.759812e-01 3.208390e-03 -1.614467e-02 -3.880787e-02 -7.092142e-02 -7.050312e-02 1.297995e-01 6.934681e-03 3.516247e-02 5.846827e-02 4.922022e-02 6.720603e-02 9.351739e-02 2.219291e-01 3.711998e-02 -8.829898e-02 -4.007150e-02 -1.992093e-01
<VARIANCE> 39
 1.578153e+01 1.426589e+01 2.184001e+01 2.134795e+01 1.708866e+01 1.794753e+01 2.222730e+01 3.106229e+01 3.689077e+01 2.325322e+01 2.237295e+01 2.552290e+01 2.141778e+01 1.118286e+00 1.028446e+00 1.261573e+00 1.239251e+00 1.390030e+00 1.626670e+00 1.776122e+00 1.589534e+00 2.636542e+00 1.943965e+00 1.325487e+00 1.084396e+00 1.554727e+00 1.611754e-01 2.060326e-01 2.363994e-01 2.176771e-01 3.071351e-01 3.157254e-01 2.851655e-01 3.411950e-01 4.885277e-01 3.795954e-01 2.907884e-01 1.991796e-01 2.491537e-01
<GCONST> 9.958790e+01
<STATE> 4
<MEAN> 39
 -8.630727e+00 1.037302e+00 -5.096061e-01 -2.194085e+00 4.821270e+00 2.448046e-01 4.201478e+00 -4.959086e+00 -4.330310e+00 -1.092588e+01 2.293679e+00 -1.000625e+00 7.315303e+01 -2.693576e-01 2.371361e-01 -6.265660e-02 7.350457e-02 9.622026e-02 7.648364e-02 7.598969e-02 3.091732e-01 6.371270e-01 2.317516e-01 -6.282504e-02 -2.004126e-02 -4.665163e-01 -3.060223e-02 -4.043254e-02 -1.024449e-02 -2.010486e-02 -7.784727e-03 -3.637355e-02 1.593143e-02 3.016760e-02 1.223083e-02 -6.000089e-03 -5.061985e-03 -5.410632e-02 6.889614e-02
<VARIANCE> 39
 1.875537e+01 2.126551e+01 1.503034e+01 1.990879e+01 1.388424e+01 1.224673e+01 1.885872e+01 2.191540e+01 2.802914e+01 2.651650e+01 1.960653e+01 2.239182e+01 2.303962e+01 1.055729e+00 1.369748e+00 1.218967e+00 1.305980e+00 1.223659e+00 1.173356e+00 1.375042e+00 1.755389e+00 2.074826e+00 1.868741e+00 1.132245e+00 1.235851e+00 1.450433e+00 1.442855e-01 2.422811e-01 2.255983e-01 1.951158e-01 2.372341e-01 2.661994e-01 2.491279e-01 3.914881e-01 3.792021e-01 3.395222e-01 2.151817e-01 2.434534e-01 1.959631e-01
<GCONST> 9.630423e+01
<TRANSP> 5
 0.000000e+00 1.000000e+00 0.000000e+00 0.000000e+00 0.000000e+00
 0.000000e+00 7.860694e-01 2.139307e-01 0.000000e+00 0.000000e+00
 0.000000e+00 0.000000e+00 7.293438e-01 2.706562e-01 0.000000e+00
 0.000000e+00 0.000000e+00 0.000000e+00 8.512404e-01 1.487596e-01
 0.000000e+00 0.000000e+00 0.000000e+00 0.000000e+00 0.000000e+00
<ENDHMM>
~h "u"
<BEGINHMM>
<NUMSTATES> 5
<STATE> 2
<MEAN> 39
 -7.254210e+00 1.097994e+00 3.504145e+00 6.243336e+00 1.021266e+01 -8.037946e-01 -5.045392e+00 -4.505954e+00 2.368181e-02 -1.022152e+01 -3.087051e+00 -7.286116e+00 7.179187e+01 7.038057e-01 5.280990e-01 -3.288866e-02 2.965074e-01 -3.465492e-01 -7.320452e-01 -1.447639e-01 -5.221762e-01 -2.782941e-01 -2.090853e-01 -3.583981e-01 -2.879217e-01 3.241224e-01 -3.257983e-02 9.840024e-02 -1.742124e-01 -2.404142e-01 -1.454869e-01 -1.088063e-01 1.788701e-01 5.844862e-02 1.234849e-01 2.667198e-01 8.041348e-02 7.189409e-03 -1.180090e-01
<VARIANCE> 39
 2.057212e+01 2.663493e+01 1.042701e+01 4.284142e+01 7.456822e+01 1.383186e+01 3.312148e+01 2.016072e+01 1.523320e+01 1.751139e+01 1.263892e+01 2.726766e+01 4.744346e+00 1.775260e+00 1.497607e+00 1.212164e+00 3.436726e+00 3.837753e+00 1.235954e+00 2.363103e+00 1.154697e+00 4.278150e+00 3.960210e+00 1.157949e+00 2.137037e+00 1.384741e+00 3.613560e-01 2.266915e-01 2.170811e-01 3.160369e-01 3.313797e-01 2.331556e-01 3.395882e-01 2.516373e-01 3.991264e-01 4.777462e-01 2.443568e-01 4.992030e-01 1.060799e-01
<GCONST> 1.033340e+02
<STATE> 3
<MEAN> 39
 -9.710329e+00 3.584973e+00 2.537539e+00 -4.483687e+00 1.373736e+00 -6.361977e+00 4.137921e-02 -1.692058e+00 2.762680e+00 -6.536991e+00 -1.764616e+00 -4.213624e+00 7.050559e+01 -5.715446e-02 3.015060e-01 3.362946e-01 7.927655e-03 1.629959e-01 -3.173726e-01 -2.352533e-01 -8.802652e-02 1.095516e-01 2.971321e-01 -3.359531e-02 2.386138e-01 -1.526057e-01 -2.815665e-02 -1.335976e-02 2.728300e-02 4.115944e-02 4.613476e-02 1.084293e-01 -5.619983e-02 -6.177180e-02 -5.564564e-03 -6.029756e-02 1.151665e-02 1.047322e-01 6.004323e-04
<VARIANCE> 39
 3.514309e+01 2.474557e+01 2.440597e+01 4.371645e+01 1.151253e+01 2.525043e+01 2.120465e+01 2.330787e+01 4.073164e+01 3.004250e+01 1.657450e+01 2.027196e+01 7.883468e+00 3.189633e+00 2.632096e+00 1.703729e+00 4.335600e+00 8.305895e-01 3.457207e+00 2.492786e+00 2.887873e+00 4.471163e+00 3.472578e+00 1.564470e+00 2.773241e+00 6.484395e-01 3.635418e-01 2.853214e-01 3.572591e-01 5.500851e-01 1.559819e-01 6.473761e-01 5.042723e-01 5.476902e-01 8.231637e-01 6.832651e-01 3.217625e-01 5.421135e-01 7.404777e-02
<GCONST> 1.108204e+02
<STATE> 4
<MEAN> 39
 -5.654784e+00 8.262016e+00 3.378412e+00 6.399452e-01 3.810852e+00 -5.179683e+00 -6.141537e-01 -2.131439e+00 5.472787e+00 -6.134844e+00 -6.097836e-01 -2.866904e+00 6.945799e+01 -1.158682e-01 -4.768854e-01 -3.445026e-01 -8.690995e-02 5.545193e-02 5.999139e-01 2.928326e-01 2.773352e-01 8.083249e-02 -1.810872e-01 1.120931e-01 -1.579545e-01 -4.519708e-03 -5.383565e-02 -9.906339e-02 -2.523589e-02 -3.943034e-02 3.312517e-02 4.533743e-02 8.690298e-02 8.338855e-03 -9.932368e-02 3.443873e-03 1.835574e-02 -5.446021e-02 5.923796e-03
<VARIANCE> 39
 1.089180e+01 6.362986e+01 2.735652e+01 2.505323e+01 3.758905e+01 4.737829e+01 3.327094e+01 1.906555e+01 1.007631e+01 4.843572e+01 1.260806e+01 1.304691e+01 4.968626e+00 3.992553e-01 1.833668e+00 1.371347e+00 8.904445e-01 1.384184e+00 4.674029e+00 3.580957e+00 1.654678e+00 1.345952e+00 3.489677e+00 1.890251e+00 2.190883e+00 3.182342e-01 7.104796e-02 1.948946e-01 1.954014e-01 1.737009e-01 2.146231e-01 6.306525e-01 6.270375e-01 2.985234e-01 2.636546e-01 5.926483e-01 4.320826e-01 4.145701e-01 3.097942e-02
<GCONST> 9.855070e+01
<TRANSP> 5
 0.000000e+00 1.000000e+00 0.000000e+00 0.000000e+00 0.000000e+00
 0.000000e+00 8.593457e-01 1.406543e-01 0.000000e+00 0.000000e+00
 0.000000e+00 0.000000e+00 9.113940e-01 8.860601e-02 0.000000e+00
 0.000000e+00 0.000000e+00 0.000000e+00 9.236871e-01 7.631294e-02
 0.000000e+00 0.000000e+00 0.000000e+00 0.000000e+00 0.000000e+00
<ENDHMM>
~h "w"
<BEGINHMM>
<NUMSTATES> 5
<STATE> 2
<MEAN> 39
 -1.044106e+01 3.652730e+00 3.765132e+00 9.765178e-02 5.820982e+00 -9.159486e-01 4.289945e+00 -1.824799e+00 4.340847e-01 -9.161137e+00 -1.426017e+00 -4.865551e+00 7.214376e+01 5.185414e-02 4.217641e-01 4.333133e-01 9.594639e-02 -1.005125e-01 -4.120702e-01 -2.364449e-01 5.069212e-02 2.410764e-01 -1.217398e-01 -4.060594e-01 -2.228096e-01 3.762234e-01 -5.169930e-02 -4.711432e-02 -6.621244e-02 -9.885853e-02 -2.881529e-02 -1.339857e-01 -1.774689e-01 3.550961e-02 1.178140e-01 2.366936e-02 1.859259e-02 1.931299e-02 4.380254e-02
<VARIANCE> 39
 3.995840e+01 4.368182e+01 5.372835e+01 2.407765e+01 3.361493e+01 2.958845e+01 4.567031e+01 2.395794e+01 3.826066e+01 2.836729e+01 1.622914e+01 2.253993e+01 2.356425e+01 4.356472e+00 2.989143e+00 2.341686e+00 1.734631e+00 2.105648e+00 2.803693e+00 3.004472e+00 1.695693e+00 3.083695e+00 2.952190e+00 1.526023e+00 2.299877e+00 1.096236e+00 4.311928e-01 3.210068e-01 3.075954e-01 2.777881e-01 3.094501e-01 3.822617e-01 4.353447e-01 2.872471e-01 4.558701e-01 4.392614e-01 2.685673e-01 3.649737e-01 1.889606e-01
<GCONST> 1.129389e+02
<STATE> 3
<MEAN> 39
 -9.766289e+00 4.728105e+00 2.786591e+00 7.848705e-02 5.399473e+00 -3.367110e+00 4.196289e-01 -1.093239e+00 4.310846e+00 -7.939349e+00 -2.660087e+00 -6.278213e+00 7.265301e+01 9.658581e-02 3.492514e-01 1.939969e-03 -2.468965e-01 -1.403031e-01 -2.314669e-01 -5.749350e-01 1.566309e-01 5.723057e-01 1.471555e-01 -1.560121e-01 -2.434973e-01 1.636417e-01 -4.833128e-02 -1.347225e-01 -7.968429e-02 -6.131038e-02 5.482911e-02 1.641892e-01 2.538599e-01 -8.710825e-02 -2.427155e-01 2.797901e-02 1.938845e-01 2.998532e-02 -9.880204e-02
<VARIANCE> 39
 4.542829e+01 5.247489e+01 2.264108e+01 2.849619e+01 3.990342e+01 4.472016e+01 2.874197e+01 2.472962e+01 3.130492e+01 3.487926e+01 2.533941e+01 2.759719e+01 1.571070e+01 2.551950e+00 2.479975e+00 1.909418e+00 1.908004e+00 2.004673e+00 2.451919e+00 2.864010e+00 1.767894e+00 2.516023e+00 2.421411e+00 1.868675e+00 1.962143e+00 7.569947e-01 3.451792e-01 4.862089e-01 2.864304e-01 3.380434e-01 3.435497e-01 3.979956e-01 4.752531e-01 3.342217e-01 4.758858e-01 4.341679e-01 3.612912e-01 4.053081e-01 1.264389e-01
<GCONST> 1.119415e+02
<STATE> 4
<MEAN> 39
 -7.680418e+00 6.163993e+00 1.615777e+00 -2.043676e+00 3.582160e+00 -4.703885e+00 -2.364118e-01 -1.930557e+00 5.070774e+00 -7.036354e+00 -1.643304e+00 -6.922935e+00 7.173140e+01 -2.480873e-01 -2.921624e-01 -9.277435e-02 -1.384835e-01 1.816984e-01 4.531480e-01 2.848188e-01 -1.061000e-01 -2.810800e-01 -1.140677e-01 1.524946e-01 1.484693e-01 -4.862653e-02 -2.924739e-02 -9.570736e-02 9.270741e-03 5.123330e-02 7.767744e-02 9.026811e-02 9.928386e-02 -3.538068e-02 -1.508473e-01 -6.144024e-02 1.795042e-02 7.922877e-02 1.153306e-02
<VARIANCE> 39
 3.100124e+01 4.068043e+01 1.889921e+01 2.475104e+01 2.877559e+01 3.511663e+01 2.058732e+01 2.515213e+01 2.177668e+01 2.918190e+01 1.761951e+01 2.425683e+01 1.018566e+01 1.321554e+00 1.550246e+00 1.290895e+00 1.706084e+00 1.566882e+00 1.729454e+00 1.918876e+00 2.292233e+00 1.761316e+00 2.096502e+00 1.168871e+00 1.509473e+00 5.544752e-01 1.673628e-01 2.312779e-01 2.218916e-01 2.354824e-01 2.125866e-01 2.962040e-01 2.997907e-01 4.158942e-01 2.894225e-01 4.311197e-01 2.229739e-01 2.816987e-01 7.624287e-02
<GCONST> 9.976199e+01
<TRANSP> 5
 0.000000e+00 1.000000e+00 0.000000e+00 0.000000e+00 0.000000e+00
 0.000000e+00 6.144158e-01 3.855842e-01 0.000000e+00 0.000000e+00
 0.000000e+00 0.000000e+00 4.377881e-01 5.622119e-01 0.000000e+00
 0.000000e+00 0.000000e+00 0.000000e+00 8.290529e-01 1.709471e-01
 0.000000e+00 0.000000e+00 0.000000e+00 0.000000e+00 0.000000e+00
<ENDHMM>
~h "y"
<BEGINHMM>
<NUMSTATES> 5
<STATE> 2
<MEAN> 39
 -1.247090e+01 -5.250755e-01 4.689659e+00 2.293644e+00 8.522786e+00 2.195031e+00 3.661692e-01 -3.807376e+00 6.908594e-01 -8.935287e+00 -6.003304e-01 -5.562510e+00 7.215041e+01 1.625603e-01 2.096053e-02 3.594379e-01 4.644372e-01 5.280711e-01 1.677302e-01 -6.207948e-01 -2.243453e-01 -5.499884e-02 -1.310621e-01 -1.616841e-01 -2.945637e-01 2.196332e-01 -3.702286e-02 -3.965435e-02 -7.528804e-02 -7.866473e-02 -6.725222e-02 -5.891025e-02 2.198012e-02 1.505321e-02 -2.097915e-02 5.296237e-03 5.751414e-02 6.916974e-02 1.854059e-02
<VARIANCE> 39
 4.441607e+01 2.763579e+01 2.134771e+01 6.026034e+01 5.920835e+01 1.833809e+01 4.147146e+01 2.321335e+01 3.673106e+01 2.416027e+01 1.917162e+01 2.972409e+01 2.662334e+01 3.919711e+00 3.467320e+00 1.969034e+00 3.151052e+00 2.877354e+00 1.603876e+00 3.220195e+00 1.972311e+00 2.591302e+00 1.955029e+00 2.029567e+00 2.635217e+00 1.204651e+00 5.271472e-01 5.887606e-01 3.188383e-01 3.985083e-01 4.043559e-01 3.149006e-01 5.695977e-01 3.367349e-01 4.182252e-01 3.471203e-01 3.732179e-01 4.696304e-01 2.514405e-01
<GCONST> 1.155259e+02
<STATE> 3
<MEAN> 39
