~o
<STREAMINFO> 1 39
<VECSIZE> 39<NULLD><MFCC_D_A_0><DIAGC>
~s "silst"
<MEAN> 39
 -1.639326e+01 -1.155933e+00 -2.723804e+00 -4.114532e+00 1.919581e+00 9.356951e-01 7.351380e+00 1.648044e+00 6.021078e+00 -3.857111e+00 3.005910e+00 -4.314965e-01 6.804194e+01 -5.796551e-02 -4.815633e-02 -1.086255e-01 -9.107659e-02 -5.253921e-02 -2.928482e-02 4.336735e-02 8.041406e-02 1.214410e-01 9.867393e-02 8.889151e-02 6.736936e-02 -7.557199e-02 6.845301e-02 2.256786e-02 1.430877e-02 3.090215e-02 3.660077e-02 1.726884e-02 -1.881441e-02 -2.961192e-02 -7.119384e-02 -4.473620e-02 -3.545939e-03 -5.100825e-02 2.517419e-03
<VARIANCE> 39
 2.126152e+01 3.197233e+01 2.816110e+01 1.667426e+01 1.327252e+01 1.694381e+01 1.307435e+01 1.875016e+01 2.605904e+01 2.572643e+01 1.395304e+01 1.650513e+01 1.375392e+01 1.085942e+00 9.705685e-01 1.008692e+00 8.849499e-01 8.964304e-01 1.208959e+00 1.001618e+00 1.141867e+00 1.442052e+00 1.357397e+00 1.190715e+00 1.191300e+00 5.555075e-01 1.856997e-01 1.575364e-01 1.683352e-01 1.468483e-01 1.566504e-01 2.352055e-01 1.962076e-01 2.256352e-01 2.853928e-01 2.499899e-01 2.342040e-01 2.415814e-01 9.890194e-02
<GCONST> 8.894760e+01
~h "A"
<BEGINHMM>
<NUMSTATES> 5
<STATE> 2
<MEAN> 39
 -9.410035e+00 1.173359e+00 1.357078e+00 -9.309475e-01 5.069494e+00 4.055559e-01 4.120016e+00 -2.285759e+00 -1.936220e+00 -1.022510e+01 4.581574e-01 -3.500353e+00 7.327255e+01 6.044138e-01 -5.768713e-02 4.743636e-02 8.895651e-02 -2.553575e-02 -3.157319e-01 -3.053025e-01 -2.236424e-01 -7.608164e-01 -7.174646e-01 3.259258e-02 1.344505e-01 5.631387e-01 -4.337562e-02 -5.604883e-02 -4.767330e-02 -1.852890e-02 -4.327173e-02 -8.000617e-02 -1.978788e-02 -8.027924e-02 2.599286e-02 7.480234e-02 8.987152e-02 7.065763e-02 -2.549555e-02
<VARIANCE> 39
 2.680228e+01 2.736134e+01 1.953228e+01 2.492116e+01 3.460932e+01 3.615995e+01 2.363484e+01 2.447407e+01 4.314724e+01 3.945826e+01 2.382266e+01 2.764884e+01 2.090923e+01 2.455091e+00 2.795321e+00 1.546690e+00 2.241166e+00 2.011823e+00 3.078033e+00 1.979839e+00 2.126182e+00 3.131383e+00 2.754493e+00 1.964365e+00 2.545316e+00 1.358700e+00 3.369389e-01 3.598568e-01 2.527813e-01 3.301918e-01 2.957932e-01 5.142759e-01 3.317891e-01 3.248572e-01 4.833513e-01 5.266457e-01 2.991333e-01 4.036657e-01 2.072639e-01
<GCONST> 1.116659e+02
<STATE> 3
<MEAN> 39
 -7.013868e+00 2.166163e-01 7.750959e-01 -1.113681e+00 4.703947e+00 -1.385334e+00 2.617253e+00 -2.657274e+00 -4.404269e+00 -1.211267e+01 1.529586e+00 -2.864967e+00 7.497165e+01 1.789328e-01 -1.182027e-01 -2.003169e-01 -1.140540e-01 -2.730271e-01 -3.451951e-01 -9.589186e-02 -2.639476e-01 -2.757346e-01 4.501523e-02 3.578912e-01 5.014794e-01 8.798281e-02 -1.945558e-01 1.399226e-01 1.700255e-03 4.413773e-02 2.584646e-02 1.899792e-01 1.504044e-01 -8.006145e-03 3.600388e-01 2.780750e-01 -6.875439e-02 -7.213061e-02 -2.664435e-01
<VARIANCE> 39
 1.755220e+01 1.865542e+01 1.813140e+01 2.863935e+01 4.051316e+01 3.817254e+01 2.917935e+01 2.549291e+01 4.786486e+01 4.414998e+01 2.689759e+01 3.260560e+01 1.859092e+01 5.159889e-01 1.414598e+00 1.077601e+00 1.277372e+00 1.419148e+00 1.729820e+00 1.760131e+00 1.301850e+00 2.067058e+00 1.572936e+00 1.533649e+00 1.205958e+00 7.353335e-01 1.597433e-01 2.424200e-01 1.919258e-01 2.411105e-01 2.862129e-01 3.656018e-01 3.183724e-01 2.315822e-01 4.120288e-01 4.070567e-01 3.037255e-01 3.464203e-01 1.122224e-01
<GCONST> 1.008368e+02
<STATE> 4
<MEAN> 39
 -5.702753e+00 -8.664179e-01 -1.252633e-01 -1.731453e+00 3.163671e+00 -2.268194e+00 3.056663e+00 -4.104419e+00 -5.825284e+00 -1.165767e+01 3.446898e+00 -1.571859e+00 7.609825e+01 -5.699023e-02 3.430220e-01 -1.498050e-03 1.989676e-01 1.014939e-01 1.325206e-01 7.347678e-02 -1.630878e-01 2.420200e-01 8.656403e-02 -8.902777e-02 -6.535371e-02 -3.727096e-01 -6.836892e-02 1.281966e-01 2.856051e-02 7.673939e-02 8.543955e-02 1.029754e-01 3.174428e-02 3.846866e-02 1.574653e-01 6.953941e-02 -1.255379e-01 -1.071380e-01 -1.374243e-01
<VARIANCE> 39
 1.204282e+01 1.698977e+01 1.614558e+01 2.453648e+01 3.633945e+01 2.797873e+01 2.607321e+01 2.675749e+01 3.870961e+01 3.199844e+01 2.765965e+01 3.066162e+01 1.423372e+01 3.122522e-01 1.016372e+00 7.924133e-01 9.951573e-01 1.094835e+00 1.301253e+00 1.315142e+00 1.009218e+00 1.418423e+00 1.430759e+00 1.223290e+00 1.157473e+00 5.694695e-01 4.915270e-02 1.412473e-01 1.273367e-01 1.499739e-01 1.698975e-01 2.154559e-01 2.107224e-01 1.794665e-01 2.516158e-01 2.612053e-01 1.941805e-01 2.158035e-01 6.547088e-02
<GCONST> 8.858524e+01
<TRANSP> 5
 0.000000e+00 1.000000e+00 0.000000e+00 0.000000e+00 0.000000e+00
 0.000000e+00 5.316573e-01 4.683426e-01 0.000000e+00 0.000000e+00
 0.000000e+00 0.000000e+00 1.581599e-01 8.418401e-01 0.000000e+00
 0.000000e+00 0.000000e+00 0.000000e+00 7.511038e-01 2.488962e-01
 0.000000e+00 0.000000e+00 0.000000e+00 0.000000e+00 0.000000e+00
<ENDHMM>
~h "D"
<BEGINHMM>
<NUMSTATES> 5
<STATE> 2
<MEAN> 39
 -1.046263e+01 1.192893e+00 6.305027e-01 -4.821957e-01 5.510118e+00 3.635251e-01 3.368382e+00 -2.087046e+00 1.058523e+00 -7.760965e+00 1.078395e+00 -3.910955e+00 7.106615e+01 -8.002754e-04 2.112335e-03 2.165078e-03 -1.564994e-03 -4.300685e-04 -6.324079e-04 -1.138046e-03 -8.787271e-04 1.271468e-03 1.846282e-03 -1.804322e-04 -1.278623e-03 8.343531e-04 -4.475967e-05 -7.284283e-05 6.230097e-05 -2.442853e-04 -2.338257e-04 -5.949535e-05 4.124621e-05 -3.071028e-04 -1.978394e-04 -1.140548e-04 -8.069598e-05 -8.477430e-05 4.232170e-05
<VARIANCE> 39
 3.765159e+01 3.402439e+01 3.148469e+01 4.143038e+01 4.410116e+01 3.300908e+01 3.624625e+01 2.761554e+01 4.947715e+01 4.012057e+01 2.551658e+01 3.113912e+01 4.344355e+01 1.430533e+00 1.639362e+00 1.207966e+00 1.426063e+00 1.597724e+00 1.687130e+00 1.852222e+00 1.504564e+00 2.150095e+00 1.829018e+00 1.449835e+00 1.662362e+00 8.789857e-01 2.020932e-01 2.530756e-01 1.999116e-01 2.097155e-01 2.506926e-01 2.923805e-01 3.142056e-01 2.754931e-01 3.601594e-01 3.260430e-01 2.625300e-01 2.975152e-01 1.394317e-01
<GCONST> 1.059066e+02
<STATE> 3
<MEAN> 39
 -1.046263e+01 1.192893e+00 6.305027e-01 -4.821957e-01 5.510118e+00 3.635251e-01 3.368382e+00 -2.087046e+00 1.058523e+00 -7.760965e+00 1.078395e+00 -3.910955e+00 7.106615e+01 -8.002754e-04 2.112335e-03 2.165078e-03 -1.564994e-03 -4.300685e-04 -6.324079e-04 -1.138046e-03 -8.787271e-04 1.271468e-03 1.846282e-03 -1.804322e-04 -1.278623e-03 8.343531e-04 -4.475967e-05 -7.284283e-05 6.230097e-05 -2.442853e-04 -2.338257e-04 -5.949535e-05 4.124621e-05 -3.071028e-04 -1.978394e-04 -1.140548e-04 -8.069598e-05 -8.477430e-05 4.232170e-05
<VARIANCE> 39
 3.765159e+01 3.402439e+01 3.148469e+01 4.143038e+01 4.410116e+01 3.300908e+01 3.624625e+01 2.761554e+01 4.947715e+01 4.012057e+01 2.551658e+01 3.113912e+01 4.344355e+01 1.430533e+00 1.639362e+00 1.207966e+00 1.426063e+00 1.597724e+00 1.687130e+00 1.852222e+00 1.504564e+00 2.150095e+00 1.829018e+00 1.449835e+00 1.662362e+00 8.789857e-01 2.020932e-01 2.530756e-01 1.999116e-01 2.097155e-01 2.506926e-01 2.923805e-01 3.142056e-01 2.754931e-01 3.601594e-01 3.260430e-01 2.625300e-01 2.975152e-01 1.394317e-01
<GCONST> 1.059066e+02
<STATE> 4
<MEAN> 39
 -1.046263e+01 1.192893e+00 6.305027e-01 -4.821957e-01 5.510118e+00 3.635251e-01 3.368382e+00 -2.087046e+00 1.058523e+00 -7.760965e+00 1.078395e+00 -3.910955e+00 7.106615e+01 -8.002754e-04 2.112335e-03 2.165078e-03 -1.564994e-03 -4.300685e-04 -6.324079e-04 -1.138046e-03 -8.787271e-04 1.271468e-03 1.846282e-03 -1.804322e-04 -1.278623e-03 8.343531e-04 -4.475967e-05 -7.284283e-05 6.230097e-05 -2.442853e-04 -2.338257e-04 -5.949535e-05 4.124621e-05 -3.071028e-04 -1.978394e-04 -1.140548e-04 -8.069598e-05 -8.477430e-05 4.232170e-05
<VARIANCE> 39
 3.765159e+01 3.402439e+01 3.148469e+01 4.143038e+01 4.410116e+01 3.300908e+01 3.624625e+01 2.761554e+01 4.947715e+01 4.012057e+01 2.551658e+01 3.113912e+01 4.344355e+01 1.430533e+00 1.639362e+00 1.207966e+00 1.426063e+00 1.597724e+00 1.687130e+00 1.852222e+00 1.504564e+00 2.150095e+00 1.829018e+00 1.449835e+00 1.662362e+00 8.789857e-01 2.020932e-01 2.530756e-01 1.999116e-01 2.097155e-01 2.506926e-01 2.923805e-01 3.142056e-01 2.754931e-01 3.601594e-01 3.260430e-01 2.625300e-01 2.975152e-01 1.394317e-01
<GCONST> 1.059066e+02
<TRANSP> 5
 0.000000e+00 1.000000e+00 0.000000e+00 0.000000e+00 0.000000e+00
 0.000000e+00 6.000000e-01 4.000000e-01 0.000000e+00 0.000000e+00
 0.000000e+00 0.000000e+00 6.000000e-01 4.000000e-01 0.000000e+00
 0.000000e+00 0.000000e+00 0.000000e+00 7.000000e-01 3.000000e-01
 0.000000e+00 0.000000e+00 0.000000e+00 0.000000e+00 0.000000e+00
<ENDHMM>
~h "E"
<BEGINHMM>
<NUMSTATES> 5
<STATE> 2
<MEAN> 39
 -5.054780e+00 -4.759220e-01 -3.897383e+00 -2.517321e+00 7.943922e-01 -4.907954e+00 8.029528e+00 6.323553e-01 -2.080610e+00 -9.896746e+00 4.191367e+00 -1.182032e+00 7.628334e+01 3.769197e-01 -2.428137e-01 -7.728301e-01 -3.962282e-01 -1.198661e+00 -8.978004e-01 5.234306e-01 3.675439e-01 5.804260e-01 6.206526e-01 5.933476e-01 -3.921713e-01 2.054910e-01 -1.356666e-01 3.584151e-02 1.323372e-01 -1.624629e-02 1.038416e-01 2.515505e-01 -2.929790e-02 -5.803796e-03 1.723762e-02 8.748782e-02 7.691849e-03 -9.688891e-02 -1.097974e-01
<VARIANCE> 39
 1.218248e+01 1.213926e+01 9.828915e+00 1.335974e+01 2.871319e+01 2.284545e+01 1.624732e+01 1.733491e+01 4.400379e+01 1.337996e+01 2.191050e+01 1.729836e+01 5.404052e+00 3.625912e-01 5.487562e-01 7.763682e-01 8.779920e-01 1.072293e+00 1.201701e+00 1.527592e+00 1.049073e+00 1.119536e+00 1.466289e+00 1.222520e+00 1.382989e+00 3.045099e-01 8.632313e-02 1.086319e-01 1.067532e-01 1.297472e-01 2.183381e-01 2.491982e-01 2.302336e-01 1.959100e-01 2.194736e-01 2.187787e-01 1.838981e-01 2.319383e-01 5.848785e-02
<GCONST> 8.225119e+01
<STATE> 3
<MEAN> 39
 -5.061189e+00 -3.151696e-01 -4.770860e+00 -4.200951e+00 -3.084532e+00 -5.828980e+00 1.112766e+01 2.464655e+00 1.792639e+00 -6.698988e+00 7.067773e+00 -3.724141e+00 7.676766e+01 -9.649277e-02 1.599073e-03 2.193707e-01 -2.669420e-01 2.229987e-01 3.232308e-01 -5.812838e-02 -2.736563e-01 -1.915565e-01 -1.269335e-01 1.914452e-01 1.813940e-01 2.628588e-02 -3.188656e-02 7.698295e-02 1.206794e-01 2.736768e-02 1.954528e-01 1.099275e-01 -2.061040e-01 -1.333738e-01 -1.038838e-01 -1.516080e-01 -1.069623e-01 9.727217e-02 -3.588040e-02
<VARIANCE> 39
 1.169985e+01 7.889251e+00 7.753731e+00 6.823730e+00 1.618407e+01 1.964955e+01 2.583725e+01 1.899620e+01 3.891822e+01 1.441894e+01 1.364800e+01 1.283359e+01 5.721449e+00 1.717649e-01 3.536260e-01 4.313596e-01 4.480959e-01 8.278996e-01 7.753427e-01 1.354714e+00 1.246046e+00 1.161281e+00 8.717793e-01 6.867322e-01 1.081535e+00 6.131676e-02 2.134287e-02 5.962117e-02 6.520016e-02 8.584595e-02 1.189297e-01 1.318373e-01 2.000652e-01 1.672201e-01 1.529340e-01 1.536791e-01 1.419009e-01 1.495694e-01 1.765262e-02
<GCONST> 6.688223e+01
<STATE> 4
<MEAN> 39
 -5.166723e+00 4.599936e+00 -2.514206e+00 -5.045224e+00 1.499445e+00 -2.785272e+00 5.983795e+00 -2.022784e+00 -1.126776e+00 -8.656567e+00 4.162935e+00 -4.513940e+00 7.324358e+01 -2.799770e-01 4.148980e-01 5.790439e-01 2.976195e-02 7.039784e-01 7.402686e-01 -6.565288e-01 -3.278707e-01 -2.980142e-01 -4.051828e-01 -7.322037e-01 5.318674e-03 -4.556255e-01 -2.797469e-02 -9.609327e-02 1.235753e-02 3.002989e-02 -4.925831e-02 -2.008949e-02 3.290588e-02 9.793713e-02 2.914214e-02 -1.201861e-02 -1.118500e-01 -9.120855e-03 1.516761e-03
<VARIANCE> 39
 1.649389e+01 1.951685e+01 9.127489e+00 2.185537e+01 2.414509e+01 2.017459e+01 3.048697e+01 1.731642e+01 2.779309e+01 1.925850e+01 2.490179e+01 3.216034e+01 1.404605e+01 1.912821e-01 9.930177e-01 8.216609e-01 1.568920e+00 1.623699e+00 1.516799e+00 1.292308e+00 1.345327e+00 1.901500e+00 1.550862e+00 1.763735e+00 1.265536e+00 7.055755e-01 3.120013e-02 1.505663e-01 1.050817e-01 1.866255e-01 1.987782e-01 2.059731e-01 2.020095e-01 2.471767e-01 2.975765e-01 2.562053e-01 2.938947e-01 2.992584e-01 1.110171e-01
<GCONST> 8.971047e+01
<TRANSP> 5
 0.000000e+00 1.000000e+00 0.000000e+00 0.000000e+00 0.000000e+00
 0.000000e+00 7.703558e-01 2.296441e-01 0.000000e+00 0.000000e+00
 0.000000e+00 0.000000e+00 8.693277e-01 1.306724e-01 0.000000e+00
 0.000000e+00 0.000000e+00 0.000000e+00 7.532423e-01 2.467577e-01
 0.000000e+00 0.000000e+00 0.000000e+00 0.000000e+00 0.000000e+00
<ENDHMM>
~h "H"
<BEGINHMM>
<NUMSTATES> 5
<STATE> 2
<MEAN> 39
 -5.853761e+00 2.838911e+00 -7.830402e-01 -5.220336e+00 2.221954e+00 -2.808681e+00 5.744364e+00 -3.322035e+00 -2.858543e+00 -7.067972e+00 2.939139e+00 -3.269647e+00 7.479886e+01 -1.077072e-01 -1.245822e+00 -9.528444e-01 -7.464097e-01 -6.472145e-01 2.379277e-01 1.277033e+00 1.998014e-01 9.333434e-02 1.063280e+00 1.351490e+00 9.382523e-01 3.701485e-01 -2.687218e-01 -2.076635e-01 -1.531666e-01 3.138843e-01 3.732866e-01 2.662572e-01 -1.167066e-01 8.436850e-02 2.553825e-01 -7.139192e-02 -4.424196e-05 1.222042e-01 -1.992078e-01
<VARIANCE> 39
 8.739039e+00 2.784398e+01 1.883906e+01 1.559682e+01 2.031847e+01 2.597350e+01 4.349643e+01 2.024765e+01 6.348434e+01 2.457141e+01 3.412930e+01 1.332470e+01 1.302777e+01 6.749794e-01 1.317154e+00 1.063809e+00 1.647040e+00 1.428338e+00 2.031194e+00 3.494212e+00 1.262519e+00 3.224526e+00 1.933238e+00 1.289508e+00 1.590701e+00 8.683785e-01 1.576417e-01 1.880773e-01 2.731417e-01 2.782682e-01 2.208565e-01 3.268748e-01 1.010117e+00 2.178635e-01 5.628915e-01 5.143422e-01 3.277374e-01 3.118173e-01 1.275225e-01
<GCONST> 1.015257e+02
<STATE> 3
<MEAN> 39
 -8.612998e+00 -4.248335e+00 -5.623693e+00 -5.410318e+00 4.161902e+00 2.161752e-01 6.693863e+00 -1.844794e+00 -1.815268e+00 -6.038887e+00 7.333768e+00 1.099093e+00 7.466878e+01 -5.463723e-01 -1.480972e+00 -1.266420e+00 -4.350058e-02 4.733276e-01 4.006872e-01 -9.905937e-01 -5.769522e-02 -2.448860e-03 -4.755612e-01 2.491727e-01 7.497231e-01 -1.979976e-01 2.128446e-02 1.142701e-01 9.822661e-02 -1.966260e-02 -5.968000e-02 -1.255939e-01 -2.311512e-01 -1.657499e-01 -1.618518e-01 -1.236095e-01 -1.433541e-01 -1.145668e-01 -1.846375e-02
<VARIANCE> 39
 1.167022e+01 2.752559e+01 1.821474e+01 7.665199e+00 1.698496e+01 2.060023e+01 2.265874e+01 2.945417e+01 4.324051e+01 2.484096e+01 1.925901e+01 1.509373e+01 4.183590e+00 5.367172e-01 1.310960e+00 8.113597e-01 6.821525e-01 1.099951e+00 1.809816e+00 2.611472e+00 1.004313e+00 1.954296e+00 1.791135e+00 2.004276e+00 7.611648e-01 3.110037e-01 6.319916e-02 1.950799e-01 1.367009e-01 1.294852e-01 1.593094e-01 3.187236e-01 5.721661e-01 1.887676e-01 2.075360e-01 3.496756e-01 3.172949e-01 1.470766e-01 3.833500e-02
<GCONST> 8.746375e+01
<STATE> 4
<MEAN> 39
 -1.085820e+01 -5.949125e+00 -8.894548e+00 -6.269071e+00 3.189091e+00 -2.523924e-02 5.278096e+00 -2.024107e+00 9.081738e-01 -5.438954e+00 7.710842e+00 7.663526e-01 7.133807e+01 -1.886804e-01 4.479016e-01 2.417953e-01 1.282672e-01 -5.860335e-02 8.866528e-02 7.304242e-02 -3.342113e-02 3.532852e-01 4.000106e-01 -1.928244e-01 -1.702967e-01 -4.539577e-01 1.423099e-02 1.610668e-01 1.901325e-01 8.295556e-02 3.023679e-02 3.644917e-03 1.002739e-01 2.775787e-02 4.243501e-02 2.855544e-02 -8.704337e-02 -1.257940e-01 5.607650e-02
<VARIANCE> 39
 5.259258e+00 3.572034e+01 1.508559e+01 9.150969e+00 1.300172e+01 1.712753e+01 3.618771e+01 1.621753e+01 2.386062e+01 2.029508e+01 2.041701e+01 1.656145e+01 1.285308e+01 4.844882e-01 2.120656e+00 1.465542e+00 8.634128e-01 8.425826e-01 1.535620e+00 1.818688e+00 1.178330e+00 1.759172e+00 1.549820e+00 1.641545e+00 1.287872e+00 6.670874e-01 1.039059e-01 2.548768e-01 2.083692e-01 1.800975e-01 1.766657e-01 2.917640e-01 3.214586e-01 1.783465e-01 2.691963e-01 3.275078e-01 2.772247e-01 2.249924e-01 1.156187e-01
<GCONST> 9.071099e+01
<TRANSP> 5
 0.000000e+00 1.000000e+00 0.000000e+00 0.000000e+00 0.000000e+00
 0.000000e+00 6.814250e-01 3.185750e-01 0.000000e+00 0.000000e+00
 0.000000e+00 0.000000e+00 7.612406e-01 2.387595e-01 0.000000e+00
 0.000000e+00 0.000000e+00 0.000000e+00 8.960235e-01 1.039765e-01
 0.000000e+00 0.000000e+00 0.000000e+00 0.000000e+00 0.000000e+00
<ENDHMM>
~h "K"
<BEGINHMM>
<NUMSTATES> 5
<STATE> 2
<MEAN> 39
 -7.244723e+00 3.931153e+00 2.770181e+00 4.669050e+00 9.874836e+00 4.752713e+00 4.045379e+00 -3.791326e+00 -4.428067e+00 -1.442268e+01 -1.412270e+00 -3.234870e+00 7.106750e+01 -1.616187e-01 -1.933705e-02 -5.454114e-02 -3.343584e-01 -1.993918e-01 -2.470915e-01 1.845544e-01 2.971359e-01 9.728890e-03 -2.184827e-01 -2.487330e-02 3.423310e-01 -6.395055e-03 -1.626119e-01 -2.237206e-01 3.132369e-02 -1.207027e-01 -1.537717e-01 5.701797e-03 2.839940e-02 -8.348564e-03 1.297018e-01 1.759131e-01 1.404687e-01 -7.940343e-02 1.076447e-01
<VARIANCE> 39
 3.025515e+00 9.786450e+00 4.117397e+00 4.772258e+00 3.428384e+00 3.689888e+00 1.235065e+01 8.162523e+00 7.294572e+00 2.208796e+01 2.619438e+01 3.626781e+01 6.722139e+00 6.330906e-01 6.898993e-01 2.781419e-01 4.193076e-01 6.663557e-01 6.514063e-01 5.112758e-01 7.028037e-01 1.301750e+00 2.519884e+00 1.086562e+00 9.610736e-01 4.659684e-01 1.320888e-01 1.032794e-01 3.855080e-02 7.803309e-02 1.701500e-01 1.320392e-01 1.553821e-01 1.494662e-01 1.786273e-01 6.177570e-01 1.510168e-01 2.325554e-01 7.346600e-02
<GCONST> 6.884740e+01
<STATE> 3
<MEAN> 39
 -9.220223e+00 2.790069e-01 2.885620e+00 -2.365942e+00 6.313349e+00 9.794564e-01 4.748736e+00 -1.989954e+00 -3.838094e+00 -9.737795e+00 3.108823e+00 -8.482499e-01 7.502325e+01 -1.234889e+00 -3.567558e-01 1.322510e-01 -1.359388e+00 -5.762876e-01 -2.815740e-03 8.516482e-01 9.751127e-01 7.521998e-01 7.206642e-01 2.441494e-01 9.822135e-02 3.196372e-01 -1.684186e-01 1.241482e-01 7.096507e-03 7.274499e-02 2.981494e-02 1.879132e-01 8.025913e-02 7.646568e-02 2.063846e-01 -7.908712e-02 -2.057889e-01 -1.872225e-01 -1.917223e-01
<VARIANCE> 39
 1.807892e+01 3.088210e+01 5.847201e+00 1.722921e+01 4.395753e+00 1.635339e+01 1.640635e+01 2.352213e+01 3.807243e+01 4.559034e+01 1.749691e+01 5.663311e+00 2.358818e+01 1.541074e+00 2.159731e+00 2.464408e-01 1.060783e+00 1.211670e+00 2.171973e+00 2.808345e+00 7.466190e-01 1.862392e+00 4.351849e+00 1.628289e+00 1.193774e+00 9.440426e-01 4.140843e-01 3.289114e-01 6.751444e-02 2.073660e-01 1.735159e-01 2.328657e-01 5.297791e-01 1.589784e-01 3.124266e-01 8.524361e-01 1.755754e-01 8.635662e-02 8.656842e-02
<GCONST> 9.242551e+01
<STATE> 4
<MEAN> 39
 -1.709300e+01 -1.827028e+00 7.817714e-01 -8.093963e+00 2.332835e+00 -1.607463e-01 7.021491e+00 4.852123e+00 1.212637e+00 -1.233882e+01 1.268485e+00 -1.321005e+00 7.415009e+01 -2.427032e-01 -1.264151e-01 -3.465983e-01 -8.301467e-02 -5.468834e-01 9.103850e-02 4.970903e-01 3.836480e-01 7.185422e-01 6.538591e-01 4.240918e-01 1.271201e-01 -4.521281e-01 3.223920e-01 3.475336e-01 -2.528277e-02 3.758863e-01 2.689716e-01 5.155143e-02 -1.747173e-02 -2.140791e-01 -3.241538e-03 3.800491e-01 6.463178e-02 -6.220803e-02 -2.857754e-01
<VARIANCE> 39
 1.827081e+01 8.092525e+00 9.027217e+00 1.968925e+01 1.190975e+01 4.532120e+01 8.936134e+00 1.281217e+01 2.214737e+01 4.765429e+01 2.290090e+01 9.410083e+00 1.757117e+01 6.900849e-01 1.187011e+00 6.005440e-01 1.516192e+00 1.726561e+00 2.207211e+00 1.011102e+00 1.220492e+00 1.177944e+00 2.049500e+00 9.000465e-01 1.461552e+00 5.736447e-01 1.087112e-01 1.093792e-01 1.508423e-01 1.294919e-01 2.402419e-01 3.551797e-01 2.705033e-01 1.617128e-01 2.199207e-01 2.060331e-01 2.462408e-01 2.886124e-01 9.090538e-02
<GCONST> 8.784651e+01
<TRANSP> 5
 0.000000e+00 1.000000e+00 0.000000e+00 0.000000e+00 0.000000e+00
 0.000000e+00 8.002383e-01 1.997617e-01 0.000000e+00 0.000000e+00
 0.000000e+00 0.000000e+00 6.822321e-01 3.177679e-01 0.000000e+00
 0.000000e+00 0.000000e+00 0.000000e+00 7.239975e-01 2.760024e-01
 0.000000e+00 0.000000e+00 0.000000e+00 0.000000e+00 0.000000e+00
<ENDHMM>
~h "S"
<BEGINHMM>
<NUMSTATES> 5
<STATE> 2
<MEAN> 39
 -1.037965e+01 3.327014e+00 1.575204e+00 -3.038984e+00 8.018753e+00 2.016012e+00 1.709550e+00 7.857082e-01 4.591477e-01 -1.129442e+01 -4.099070e-01 3.271096e-01 7.411057e+01 -1.845835e-01 -5.202121e-02 1.978312e-01 2.050305e-02 -5.297302e-01 -4.540145e-01 3.802918e-01 1.784971e-01 1.672881e-01 1.186718e-01 -1.102285e-01 2.090831e-01 -1.225296e-02 -1.186458e-01 -7.025349e-02 3.915719e-02 -8.757981e-03 9.859090e-03 2.719746e-02 6.356800e-02 -3.771798e-02 -3.538087e-02 -1.386083e-03 1.123383e-01 3.684427e-02 9.055193e-03
<VARIANCE> 39
 4.685276e+01 2.088833e+01 7.148098e+00 1.691619e+01 3.938293e+01 3.766599e+01 4.606379e+01 2.090842e+01 2.931598e+01 3.845370e+01 3.387615e+01 3.120748e+01 1.432059e+01 2.482126e+00 1.836674e+00 6.921669e-01 1.917284e+00 3.251653e+00 4.583938e+00 3.180792e+00 1.649657e+00 2.958407e+00 2.305553e+00 1.954566e+00 2.099524e+00 1.527642e+00 3.723025e-01 3.018675e-01 1.047076e-01 2.915027e-01 3.702721e-01 8.340638e-01 4.270692e-01 3.400730e-01 4.757626e-01 4.322790e-01 3.203802e-01 3.692628e-01 2.572408e-01
<GCONST> 1.102453e+02
<STATE> 3
<MEAN> 39
 -1.997326e+01 -5.277664e-01 9.188329e+00 -8.051543e+00 4.500314e-01 -3.514171e-02 8.906408e+00 -1.932385e+00 1.440539e+00 -8.430284e+00 -9.040498e-01 -8.285759e-01 7.507935e+01 -2.375740e+00 -9.290717e-01 1.065947e+00 -1.035175e+00 -6.303794e-01 6.480564e-01 1.132387e-01 -6.293480e-01 7.944626e-02 7.128176e-01 3.190075e-01 7.149958e-02 5.072647e-01 2.358343e-01 1.832103e-02 -1.637823e-01 1.390704e-01 1.716738e-01 -1.006385e-01 -2.325846e-01 1.306552e-01 -5.433963e-02 9.550040e-02 -2.627131e-03 -6.392090e-02 -2.610348e-02
<VARIANCE> 39
 5.359285e+01 1.887073e+01 1.424028e+01 4.613275e+01 6.324746e+00 3.327962e+01 1.319977e+01 3.981651e+01 3.362204e+01 1.831752e+01 9.732262e+00 1.371865e+01 5.850076e+00 1.775116e+00 8.464049e-01 8.583944e-01 1.525637e+00 7.876971e-01 4.106595e+00 1.942834e+00 2.836435e+00 2.545475e+00 1.186783e+00 1.130037e+00 1.130799e+00 5.994818e-01 4.643620e-01 1.997378e-01 1.721378e-01 4.513353e-01 1.801444e-01 6.260986e-01 2.212395e-01 3.907144e-01 2.916368e-01 2.399883e-01 2.759648e-01 2.470509e-01 1.262969e-01
<GCONST> 9.720041e+01
<STATE> 4
<MEAN> 39
 -2.527365e+01 -5.886777e+00 1.073080e+01 -7.580251e+00 -2.089143e+00 4.241864e-01 1.082207e+01 -3.625115e-01 1.257126e+00 -3.208117e+00 1.821264e+00 -6.669821e-01 7.478676e+01 8.760635e-01 -6.281991e-02 -7.610763e-01 8.575280e-01 4.155348e-01 -3.620930e-01 -8.734852e-02 3.133152e-01 2.012641e-01 -2.604091e-01 -1.620994e-02 -2.548333e-01 -4.075025e-01 3.083955e-01 1.131482e-01 -2.685072e-01 1.080305e-01 2.215355e-01 7.447322e-02 -2.082828e-01 -1.334448e-01 -5.578617e-02 -2.785106e-01 -1.823875e-01 -9.605795e-02 -5.004580e-02
<VARIANCE> 39
 2.340045e+01 1.028160e+01 1.146757e+01 3.737128e+01 1.168332e+01 1.615748e+01 1.625863e+01 2.111772e+01 2.893020e+01 2.106296e+01 7.676718e+00 1.119764e+01 1.101171e+01 1.073338e+00 1.697744e+00 1.607103e+00 1.395297e+00 9.826030e-01 1.437342e+00 9.800964e-01 1.490721e+00 2.458732e+00 3.308712e+00 1.227574e+00 1.464778e+00 6.128157e-01 1.493598e-01 2.377681e-01 2.806392e-01 1.114741e-01 1.621983e-01 2.406529e-01 2.084273e-01 3.156829e-01 5.712200e-01 5.087026e-01 2.743048e-01 2.368430e-01 9.334935e-02
<GCONST> 9.278236e+01
<TRANSP> 5
 0.000000e+00 1.000000e+00 0.000000e+00 0.000000e+00 0.000000e+00
 0.000000e+00 9.259068e-01 7.409322e-02 0.000000e+00 0.000000e+00
 0.000000e+00 0.000000e+00 8.250129e-01 1.749871e-01 0.000000e+00
 0.000000e+00 0.000000e+00 0.000000e+00 8.525105e-01 1.474895e-01
 0.000000e+00 0.000000e+00 0.000000e+00 0.000000e+00 0.000000e+00
<ENDHMM>
~h "T"
<BEGINHMM>
<NUMSTATES> 5
<STATE> 2
<MEAN> 39
 -9.162151e+00 5.280591e+00 4.268970e+00 4.100626e+00 7.896677e+00 2.915243e+00 4.938792e+00 -3.111588e+00 1.455254e+00 -6.679008e+00 -6.989753e-01 -7.477213e+00 6.958872e+01 1.544387e-01 5.440078e-02 1.083640e-01 1.604186e-01 -8.097479e-02 1.415163e-01 -1.595021e-01 -2.553975e-01 -5.084792e-02 7.984035e-02 4.320279e-02 -1.433816e-01 1.626016e-01 7.832355e-02 1.277806e-02 4.548626e-02 2.223241e-02 -3.558747e-02 -1.484012e-01 -7.568078e-04 2.029483e-02 -5.859783e-02 -4.428042e-02 -7.349272e-02 -3.004821e-02 2.132175e-02
<VARIANCE> 39
 2.388630e+01 5.030439e+01 2.242045e+01 2.883659e+01 2.646592e+01 2.033255e+01 2.761789e+01 4.418600e+01 1.681852e+01 2.553888e+01 1.614410e+01 1.677034e+01 1.617089e+01 2.736343e+00 4.138493e+00 1.759451e+00 1.749437e+00 1.805305e+00 1.988999e+00 2.672093e+00 2.881156e+00 1.877692e+00 1.853919e+00 1.929916e+00 1.714133e+00 1.709692e+00 4.494762e-01 5.135840e-01 2.932822e-01 2.052127e-01 2.109763e-01 3.556592e-01 4.952158e-01 5.032952e-01 3.456421e-01 4.248658e-01 3.900507e-01 2.436854e-01 2.587363e-01
<GCONST> 1.090538e+02
<STATE> 3
<MEAN> 39
 -7.635208e+00 2.320029e+00 4.285618e+00 2.395283e+00 2.735222e+00 -2.667157e+00 4.532834e+00 -2.012640e+00 3.472651e-01 -8.456963e+00 -4.461123e+00 -9.274933e+00 7.362848e+01 6.459540e-01 3.739291e-01 6.916428e-02 -4.312203e-02 -7.674991e-01 -1.622860e+00 -1.503802e-01 8.044829e-01 4.735600e-01 -6.458870e-02 -2.375020e-01 1.012033e-01 8.337501e-02 -1.932375e-01 -1.243656e-01 -1.477460e-01 -1.353463e-01 7.687048e-02 7.253825e-02 -2.123773e-01 -1.058447e-01 9.935406e-03 -2.554534e-02 2.109007e-01 1.985019e-01 1.914528e-02
<VARIANCE> 39
 3.704906e+01 1.357676e+01 1.440064e+01 3.859152e+01 4.687309e+01 4.906116e+01 1.146925e+01 2.635253e+01 1.190271e+01 1.897016e+01 5.444858e+00 2.346764e+01 5.870168e+00 4.254375e+00 2.345359e+00 2.315246e+00 1.616124e+00 1.369844e+00 1.746560e+00 1.491800e+00 6.323450e-01 9.128827e-01 2.271516e+00 1.088388e+00 1.239369e+00 6.480404e-01 4.777282e-01 4.869119e-01 4.525896e-01 2.162320e-01 2.674382e-01 2.474150e-01 1.864724e-01 1.256762e-01 2.469858e-01 2.772597e-01 1.331341e-01 2.776195e-01 1.220663e-01
<GCONST> 9.640446e+01
<STATE> 4
<MEAN> 39
 -3.692214e+00 4.639854e+00 4.451420e+00 1.106060e+00 -3.249404e+00 -9.988075e+00 3.882787e-01 -1.035837e+00 2.966527e+00 -7.051991e+00 -1.440087e+00 -4.951724e+00 7.343111e+01 -2.370827e-01 5.703331e-02 -1.565795e-02 -2.258261e-01 -4.399462e-02 8.319664e-02 -1.564978e-02 -1.878135e-01 -2.166767e-02 -6.943607e-02 7.690659e-02 1.140790e-01 -1.142433e-01 -7.408582e-02 -1.438145e-02 4.554601e-03 -4.721776e-03 4.669457e-02 9.926277e-02 2.733190e-02 -3.848490e-02 9.749348e-04 -9.514299e-03 -2.151895e-02 -2.150217e-02 -1.308992e-02
<VARIANCE> 39
 2.061384e+01 3.000312e+01 8.153343e+00 3.210922e+01 2.931807e+01 6.060588e+01 3.004560e+01 2.253533e+01 1.521011e+01 2.317962e+01 2.033364e+01 2.036921e+01 1.203651e+01 1.108767e+00 1.495609e+00 5.614567e-01 1.396393e+00 1.737443e+00 2.022000e+00 1.442668e+00 2.021717e+00 7.236716e-01 1.092322e+00 1.079572e+00 9.498667e-01 4.912699e-01 1.013706e-01 2.122404e-01 8.379661e-02 1.575689e-01 2.071000e-01 2.294025e-01 2.167477e-01 3.349509e-01 1.357536e-01 2.213237e-01 1.693511e-01 1.651547e-01 5.871216e-02
<GCONST> 8.996790e+01
<TRANSP> 5
 0.000000e+00 1.000000e+00 0.000000e+00 0.000000e+00 0.000000e+00
 0.000000e+00 9.498428e-01 5.015723e-02 0.000000e+00 0.000000e+00
 0.000000e+00 0.000000e+00 8.627163e-01 1.372837e-01 0.000000e+00
 0.000000e+00 0.000000e+00 0.000000e+00 9.655514e-01 3.444853e-02
 0.000000e+00 0.000000e+00 0.000000e+00 0.000000e+00 0.000000e+00
<ENDHMM>
~h "Z"
<BEGINHMM>
<NUMSTATES> 5
<STATE> 2
<MEAN> 39
 -1.046263e+01 1.192893e+00 6.305027e-01 -4.821957e-01 5.510118e+00 3.635251e-01 3.368382e+00 -2.087046e+00 1.058523e+00 -7.760965e+00 1.078395e+00 -3.910955e+00 7.106615e+01 -8.002754e-04 2.112335e-03 2.165078e-03 -1.564994e-03 -4.300685e-04 -6.324079e-04 -1.138046e-03 -8.787271e-04 1.271468e-03 1.846282e-03 -1.804322e-04 -1.278623e-03 8.343531e-04 -4.475967e-05 -7.284283e-05 6.230097e-05 -2.442853e-04 -2.338257e-04 -5.949535e-05 4.124621e-05 -3.071028e-04 -1.978394e-04 -1.140548e-04 -8.069598e-05 -8.477430e-05 4.232170e-05
<VARIANCE> 39
 3.765159e+01 3.402439e+01 3.148469e+01 4.143038e+01 4.410116e+01 3.300908e+01 3.624625e+01 2.761554e+01 4.947715e+01 4.012057e+01 2.551658e+01 3.113912e+01 4.344355e+01 1.430533e+00 1.639362e+00 1.207966e+00 1.426063e+00 1.597724e+00 1.687130e+00 1.852222e+00 1.504564e+00 2.150095e+00 1.829018e+00 1.449835e+00 1.662362e+00 8.789857e-01 2.020932e-01 2.530756e-01 1.999116e-01 2.097155e-01 2.506926e-01 2.923805e-01 3.142056e-01 2.754931e-01 3.601594e-01 3.260430e-01 2.625300e-01 2.975152e-01 1.394317e-01
<GCONST> 1.059066e+02
<STATE> 3
<MEAN> 39
 -1.046263e+01 1.192893e+00 6.305027e-01 -4.821957e-01 5.510118e+00 3.635251e-01 3.368382e+00 -2.087046e+00 1.058523e+00 -7.760965e+00 1.078395e+00 -3.910955e+00 7.106615e+01 -8.002754e-04 2.112335e-03 2.165078e-03 -1.564994e-03 -4.300685e-04 -6.324079e-04 -1.138046e-03 -8.787271e-04 1.271468e-03 1.846282e-03 -1.804322e-04 -1.278623e-03 8.343531e-04 -4.475967e-05 -7.284283e-05 6.230097e-05 -2.442853e-04 -2.338257e-04 -5.949535e-05 4.124621e-05 -3.071028e-04 -1.978394e-04 -1.140548e-04 -8.069598e-05 -8.477430e-05 4.232170e-05
<VARIANCE> 39
 3.765159e+01 3.402439e+01 3.148469e+01 4.143038e+01 4.410116e+01 3.300908e+01 3.624625e+01 2.761554e+01 4.947715e+01 4.012057e+01 2.551658e+01 3.113912e+01 4.344355e+01 1.430533e+00 1.639362e+00 1.207966e+00 1.426063e+00 1.597724e+00 1.687130e+00 1.852222e+00 1.504564e+00 2.150095e+00 1.829018e+00 1.449835e+00 1.662362e+00 8.789857e-01 2.020932e-01 2.530756e-01 1.999116e-01 2.097155e-01 2.506926e-01 2.923805e-01 3.142056e-01 2.754931e-01 3.601594e-01 3.260430e-01 2.625300e-01 2.975152e-01 1.394317e-01
<GCONST> 1.059066e+02
<STATE> 4
<MEAN> 39
 -1.046263e+01 1.192893e+00 6.305027e-01 -4.821957e-01 5.510118e+00 3.635251e-01 3.368382e+00 -2.087046e+00 1.058523e+00 -7.760965e+00 1.078395e+00 -3.910955e+00 7.106615e+01 -8.002754e-04 2.112335e-03 2.165078e-03 -1.564994e-03 -4.300685e-04 -6.324079e-04 -1.138046e-03 -8.787271e-04 1.271468e-03 1.846282e-03 -1.804322e-04 -1.278623e-03 8.343531e-04 -4.475967e-05 -7.284283e-05 6.230097e-05 -2.442853e-04 -2.338257e-04 -5.949535e-05 4.124621e-05 -3.071028e-04 -1.978394e-04 -1.140548e-04 -8.069598e-05 -8.477430e-05 4.232170e-05
<VARIANCE> 39
 3.765159e+01 3.402439e+01 3.148469e+01 4.143038e+01 4.410116e+01 3.300908e+01 3.624625e+01 2.761554e+01 4.947715e+01 4.012057e+01 2.551658e+01 3.113912e+01 4.344355e+01 1.430533e+00 1.639362e+00 1.207966e+00 1.426063e+00 1.597724e+00 1.687130e+00 1.852222e+00 1.504564e+00 2.150095e+00 1.829018e+00 1.449835e+00 1.662362e+00 8.789857e-01 2.020932e-01 2.530756e-01 1.999116e-01 2.097155e-01 2.506926e-01 2.923805e-01 3.142056e-01 2.754931e-01 3.601594e-01 3.260430e-01 2.625300e-01 2.975152e-01 1.394317e-01
<GCONST> 1.059066e+02
<TRANSP> 5
 0.000000e+00 1.000000e+00 0.000000e+00 0.000000e+00 0.000000e+00
 0.000000e+00 6.000000e-01 4.000000e-01 0.000000e+00 0.000000e+00
 0.000000e+00 0.000000e+00 6.000000e-01 4.000000e-01 0.000000e+00
 0.000000e+00 0.000000e+00 0.000000e+00 7.000000e-01 3.000000e-01
 0.000000e+00 0.000000e+00 0.000000e+00 0.000000e+00 0.000000e+00
<ENDHMM>
~h "_"
<BEGINHMM>
<NUMSTATES> 5
<STATE> 2
<MEAN> 39
 -1.046263e+01 1.192893e+00 6.305027e-01 -4.821957e-01 5.510118e+00 3.635251e-01 3.368382e+00 -2.087046e+00 1.058523e+00 -7.760965e+00 1.078395e+00 -3.910955e+00 7.106615e+01 -8.002754e-04 2.112335e-03 2.165078e-03 -1.564994e-03 -4.300685e-04 -6.324079e-04 -1.138046e-03 -8.787271e-04 1.271468e-03 1.846282e-03 -1.804322e-04 -1.278623e-03 8.343531e-04 -4.475967e-05 -7.284283e-05 6.230097e-05 -2.442853e-04 -2.338257e-04 -5.949535e-05 4.124621e-05 -3.071028e-04 -1.978394e-04 -1.140548e-04 -8.069598e-05 -8.477430e-05 4.232170e-05
<VARIANCE> 39
 3.765159e+01 3.402439e+01 3.148469e+01 4.143038e+01 4.410116e+01 3.300908e+01 3.624625e+01 2.761554e+01 4.947715e+01 4.012057e+01 2.551658e+01 3.113912e+01 4.344355e+01 1.430533e+00 1.639362e+00 1.207966e+00 1.426063e+00 1.597724e+00 1.687130e+00 1.852222e+00 1.504564e+00 2.150095e+00 1.829018e+00 1.449835e+00 1.662362e+00 8.789857e-01 2.020932e-01 2.530756e-01 1.999116e-01 2.097155e-01 2.506926e-01 2.923805e-01 3.142056e-01 2.754931e-01 3.601594e-01 3.260430e-01 2.625300e-01 2.975152e-01 1.394317e-01
<GCONST> 1.059066e+02
<STATE> 3
<MEAN> 39
 -1.046263e+01 1.192893e+00 6.305027e-01 -4.821957e-01 5.510118e+00 3.635251e-01 3.368382e+00 -2.087046e+00 1.058523e+00 -7.760965e+00 1.078395e+00 -3.910955e+00 7.106615e+01 -8.002754e-04 2.112335e-03 2.165078e-03 -1.564994e-03 -4.300685e-04 -6.324079e-04 -1.138046e-03 -8.787271e-04 1.271468e-03 1.846282e-03 -1.804322e-04 -1.278623e-03 8.343531e-04 -4.475967e-05 -7.284283e-05 6.230097e-05 -2.442853e-04 -2.338257e-04 -5.949535e-05 4.124621e-05 -3.071028e-04 -1.978394e-04 -1.140548e-04 -8.069598e-05 -8.477430e-05 4.232170e-05
<VARIANCE> 39
 3.765159e+01 3.402439e+01 3.148469e+01 4.143038e+01 4.410116e+01 3.300908e+01 3.624625e+01 2.761554e+01 4.947715e+01 4.012057e+01 2.551658e+01 3.113912e+01 4.344355e+01 1.430533e+00 1.639362e+00 1.207966e+00 1.426063e+00 1.597724e+00 1.687130e+00 1.852222e+00 1.504564e+00 2.150095e+00 1.829018e+00 1.449835e+00 1.662362e+00 8.789857e-01 2.020932e-01 2.530756e-01 1.999116e-01 2.097155e-01 2.506926e-01 2.923805e-01 3.142056e-01 2.754931e-01 3.601594e-01 3.260430e-01 2.625300e-01 2.975152e-01 1.394317e-01
<GCONST> 1.059066e+02
<STATE> 4
<MEAN> 39
 -1.046263e+01 1.192893e+00 6.305027e-01 -4.821957e-01 5.510118e+00 3.635251e-01 3.368382e+00 -2.087046e+00 1.058523e+00 -7.760965e+00 1.078395e+00 -3.910955e+00 7.106615e+01 -8.002754e-04 2.112335e-03 2.165078e-03 -1.564994e-03 -4.300685e-04 -6.324079e-04 -1.138046e-03 -8.787271e-04 1.271468e-03 1.846282e-03 -1.804322e-04 -1.278623e-03 8.343531e-04 -4.475967e-05 -7.284283e-05 6.230097e-05 -2.442853e-04 -2.338257e-04 -5.949535e-05 4.124621e-05 -3.071028e-04 -1.978394e-04 -1.140548e-04 -8.069598e-05 -8.477430e-05 4.232170e-05
<VARIANCE> 39
 3.765159e+01 3.402439e+01 3.148469e+01 4.143038e+01 4.410116e+01 3.300908e+01 3.624625e+01 2.761554e+01 4.947715e+01 4.012057e+01 2.551658e+01 3.113912e+01 4.344355e+01 1.430533e+00 1.639362e+00 1.207966e+00 1.426063e+00 1.597724e+00 1.687130e+00 1.852222e+00 1.504564e+00 2.150095e+00 1.829018e+00 1.449835e+00 1.662362e+00 8.789857e-01 2.020932e-01 2.530756e-01 1.999116e-01 2.097155e-01 2.506926e-01 2.923805e-01 3.142056e-01 2.754931e-01 3.601594e-01 3.260430e-01 2.625300e-01 2.975152e-01 1.394317e-01
<GCONST> 1.059066e+02
<TRANSP> 5
 0.000000e+00 1.000000e+00 0.000000e+00 0.000000e+00 0.000000e+00
 0.000000e+00 6.000000e-01 4.000000e-01 0.000000e+00 0.000000e+00
 0.000000e+00 0.000000e+00 6.000000e-01 4.000000e-01 0.000000e+00
 0.000000e+00 0.000000e+00 0.000000e+00 7.000000e-01 3.000000e-01
 0.000000e+00 0.000000e+00 0.000000e+00 0.000000e+00 0.000000e+00
<ENDHMM>
~h "a"
<BEGINHMM>
<NUMSTATES> 5
<STATE> 2
<MEAN> 39
 -1.527942e+01 1.590979e-01 1.229081e+00 -3.481723e+00 3.251122e+00 1.671169e+00 5.203760e+00 -1.145310e+00 1.629243e+00 -8.178436e+00 1.566427e+00 -1.457953e+00 7.188818e+01 3.218791e-01 -3.357845e-01 7.051577e-02 -5.748420e-03 -2.360210e-01 -5.984061e-01 -2.966398e-01 1.967194e-01 -4.958836e-01 -6.600139e-01 5.995077e-02 1.489788e-01 9.233228e-01 1.788793e-01 -5.400465e-02 -9.712800e-02 1.126289e-01 -4.042590e-02 -1.910077e-01 7.417300e-02 6.662053e-02 -4.749246e-02 5.153836e-02 1.181535e-01 -5.252320e-02 2.012013e-02
<VARIANCE> 39
 5.259521e+01 1.937291e+01 3.923898e+01 2.553956e+01 2.934741e+01 3.564494e+01 2.150789e+01 3.077649e+01 5.235831e+01 3.406564e+01 1.535510e+01 2.506764e+01 2.292830e+01 5.565635e+00 1.884515e+00 2.458696e+00 2.252508e+00 2.019615e+00 4.175993e+00 2.013070e+00 1.914987e+00 3.058712e+00 3.312934e+00 1.662986e+00 2.274540e+00 1.989860e+00 6.343191e-01 2.503927e-01 3.586436e-01 3.842218e-01 4.690235e-01 6.401664e-01 3.794426e-01 3.485075e-01 4.368936e-01 4.261194e-01 2.228004e-01 3.828858e-01 2.993834e-01
<GCONST> 1.150144e+02
<STATE> 3
<MEAN> 39
 -7.601224e+00 -2.355027e+00 -3.324408e-02 -8.328720e-01 5.220513e+00 -4.091583e+00 2.483114e+00 -3.153260e+00 -6.308015e+00 -1.353924e+01 3.712427e+00 1.327338e+00 7.558807e+01 2.302301e-01 4.944157e-02 -3.183734e-01 -1.967780e-01 -5.785347e-01 -8.977385e-01 2.775334e-01 4.035685e-01 3.259410e-01 4.124987e-01 3.025604e-01 -1.385231e-01 -4.235890e-02 -5.787618e-03 2.503240e-01 1.734958e-02 5.045940e-02 -1.284825e-02 2.094746e-01 1.120178e-01 -3.210676e-02 2.841798e-01 2.062172e-01 -1.213689e-01 -2.668316e-01 -2.247133e-01
<VARIANCE> 39
 1.951992e+01 1.186907e+01 2.197998e+01 4.534541e+01 2.125838e+01 2.752321e+01 1.959333e+01 3.773124e+01 5.483228e+01 4.277962e+01 1.910684e+01 2.689927e+01 1.329388e+01 4.691274e-01 1.888641e+00 1.399272e+00 1.609549e+00 1.892989e+00 1.424065e+00 1.156544e+00 1.485023e+00 2.669119e+00 1.749608e+00 1.332608e+00 2.667973e+00 1.331488e+00 1.633219e-01 2.435222e-01 2.679906e-01 1.997554e-01 1.661276e-01 2.470408e-01 2.411407e-01 3.313193e-01 3.584954e-01 3.848945e-01 2.080276e-01 4.393817e-01 1.599116e-01
<GCONST> 1.008351e+02
<STATE> 4
<MEAN> 39
 -4.841297e+00 3.103869e+00 -1.390841e+00 -2.856193e+00 -1.714649e+00 -8.826552e+00 3.226670e+00 -5.922208e-01 6.918910e-01 -7.521535e+00 2.510682e+00 -2.919797e+00 7.321385e+01 1.829714e-02 4.475783e-01 1.303707e-01 -2.591427e-02 -1.009960e-01 3.767911e-02 -1.683374e-01 -2.207125e-01 2.000056e-01 1.241974e-01 -1.676340e-01 -2.645913e-01 -1.719464e-01 -4.628800e-02 -6.640375e-03 7.058789e-02 2.979221e-02 1.536520e-01 1.765048e-01 -4.466017e-02 -1.104046e-01 -5.878913e-02 -1.361625e-01 -9.855478e-02 7.577626e-03 4.883106e-03
<VARIANCE> 39
 2.137526e+01 1.946661e+01 2.471268e+01 2.372755e+01 3.512956e+01 4.309450e+01 3.981050e+01 2.634906e+01 1.853962e+01 4.112043e+01 1.972599e+01 2.036248e+01 1.638239e+01 3.609227e-01 9.848000e-01 7.082015e-01 7.062111e-01 1.281090e+00 8.691614e-01 1.402282e+00 1.106661e+00 1.081388e+00 1.447149e+00 8.833482e-01 1.324728e+00 5.649992e-01 7.625409e-02 1.306905e-01 9.504528e-02 1.286281e-01 1.656414e-01 1.383456e-01 1.949252e-01 2.309026e-01 1.514959e-01 1.681214e-01 1.670419e-01 2.081753e-01 7.567395e-02
<GCONST> 8.714194e+01
<TRANSP> 5
 0.000000e+00 1.000000e+00 0.000000e+00 0.000000e+00 0.000000e+00
 0.000000e+00 6.835750e-01 3.164250e-01 0.000000e+00 0.000000e+00
 0.000000e+00 0.000000e+00 6.671653e-01 3.328346e-01 0.000000e+00
 0.000000e+00 0.000000e+00 0.000000e+00 7.245888e-01 2.754113e-01
 0.000000e+00 0.000000e+00 0.000000e+00 0.000000e+00 0.000000e+00
<ENDHMM>
~h "b"
<BEGINHMM>
<NUMSTATES> 5
<STATE> 2
<MEAN> 39
 -1.165150e+01 5.805474e+00 1.323752e+00 1.133601e+00 7.639627e+00 2.529621e+00 5.355429e+00 -1.403368e+00 3.187980e+00 -6.175029e+00 -9.295966e-02 -5.904807e+00 7.002711e+01 2.901897e-01 7.962058e-02 5.391095e-01 8.018169e-01 7.872556e-01 5.932698e-01 -3.883399e-01 -9.581292e-02 -8.127469e-02 -5.131443e-01 -7.576685e-01 -6.653587e-01 1.443941e-01 8.544132e-02 -2.130232e-01 4.154123e-02 5.796855e-02 2.471186e-01 -1.229439e-01 -3.938880e-01 -1.108914e-01 -2.088984e-01 -4.258036e-01 -1.170118e-01 -3.313474e-02 2.612226e-01
<VARIANCE> 39
 2.937313e+01 2.163609e+01 1.343924e+01 1.160652e+01 1.217626e+01 1.217608e+01 1.464368e+01 1.164494e+01 1.346264e+01 1.613220e+01 1.123769e+01 7.635569e+00 8.801006e+00 1.084763e+00 2.505007e+00 9.300611e-01 9.270980e-01 2.049476e+00 1.036161e+00 2.468144e+00 1.240272e+00 2.031686e+00 2.275375e+00 1.178204e+00 1.134439e+00 1.102233e+00 5.556341e-02 2.295818e-01 1.584570e-01 1.058258e-01 1.669789e-01 2.090149e-01 3.143673e-01 1.807895e-01 2.429763e-01 3.140428e-01 2.692385e-01 1.851515e-01 1.280384e-01
<GCONST> 8.766875e+01
<STATE> 3
<MEAN> 39
 -8.347219e+00 2.191509e+00 2.725499e+00 5.118558e+00 1.487711e+01 4.293566e+00 -2.155252e+00 -3.433370e+00 -7.588534e-01 -1.374626e+01 -1.907815e+00 -8.469323e+00 7.274648e+01 6.404830e-01 3.200438e-01 4.322873e-01 6.732727e-01 9.167302e-01 -4.823566e-02 -8.462812e-01 -2.051329e-01 -3.651243e-02 -6.813503e-01 -4.319660e-01 -5.202481e-01 2.399624e-01 -2.284261e-01 -6.220349e-02 -1.696361e-01 -2.228294e-01 -5.954072e-01 -2.672235e-01 4.016062e-01 1.641995e-01 2.393325e-01 5.320264e-01 2.411753e-01 2.958066e-01 -1.537221e-01
<VARIANCE> 39
 7.473682e+00 1.854533e+01 1.164329e+01 2.312915e+01 4.073300e+01 2.114834e+01 2.610272e+01 1.405390e+01 3.280250e+01 2.741057e+01 1.536870e+01 1.069123e+01 7.830006e+00 9.657186e-01 3.774155e+00 1.173304e+00 8.847384e-01 4.007567e+00 1.398907e+00 2.822830e+00 1.316789e+00 2.314043e+00 3.128641e+00 1.413385e+00 1.779774e+00 1.373418e+00 1.310374e-01 3.488580e-01 2.750603e-01 1.322468e-01 3.548002e-01 2.851991e-01 3.489234e-01 2.351571e-01 2.681816e-01 2.783839e-01 2.223478e-01 2.175358e-01 1.093906e-01
<GCONST> 9.738919e+01
<STATE> 4
<MEAN> 39
 -9.391047e+00 3.694687e+00 3.159704e+00 6.760846e+00 1.322684e+01 2.137931e+00 -2.783434e-01 -2.614387e+00 3.344811e+00 -9.158494e+00 -1.993469e+00 -7.829888e+00 7.096378e+01 -8.374365e-02 3.429333e-02 -2.760664e-01 -3.321353e-01 -3.054384e-01 -9.710125e-02 1.373586e-01 -1.074946e-01 -1.651637e-01 5.629610e-02 1.048428e-01 3.388285e-02 -1.005862e-01 -4.996784e-02 -8.761897e-02 -7.315170e-02 -1.288602e-01 -2.199367e-02 2.371015e-02 1.075871e-02 -3.613928e-02 -9.813832e-02 -5.634409e-02 6.651191e-02 8.919065e-02 5.190896e-02
<VARIANCE> 39
 7.754671e+00 1.941651e+01 1.679954e+01 2.679652e+01 2.270207e+01 1.351389e+01 3.965641e+01 1.691362e+01 2.849143e+01 1.556934e+01 2.267039e+01 1.334739e+01 1.371251e+01 3.998142e-01 9.025153e-01 6.598334e-01 1.126896e+00 1.134642e+00 1.015072e+00 2.498594e+00 1.132473e+00 1.939007e+00 1.214566e+00 1.418245e+00 1.006946e+00 5.350325e-01 8.128522e-02 1.900600e-01 1.035252e-01 1.641022e-01 2.383221e-01 1.589673e-01 4.185455e-01 2.248525e-01 3.151551e-01 2.550479e-01 2.589296e-01 2.281994e-01 1.021739e-01
<GCONST> 8.840196e+01
<TRANSP> 5
 0.000000e+00 1.000000e+00 0.000000e+00 0.000000e+00 0.000000e+00
 0.000000e+00 6.814816e-01 3.185184e-01 0.000000e+00 0.000000e+00
 0.000000e+00 0.000000e+00 6.044438e-01 3.955561e-01 0.000000e+00
 0.000000e+00 0.000000e+00 0.000000e+00 8.394380e-01 1.605620e-01
 0.000000e+00 0.000000e+00 0.000000e+00 0.000000e+00 0.000000e+00
<ENDHMM>
~h "d"
<BEGINHMM>
<NUMSTATES> 5
<STATE> 2
<MEAN> 39
 -1.034755e+01 5.748500e+00 1.286370e+00 2.132003e-01 7.504518e+00 4.282801e+00 3.520760e+00 -4.202417e+00 -1.492234e+00 -1.239558e+01 -1.879061e+00 -4.256711e+00 7.065960e+01 -5.253757e-01 1.131513e-02 -2.955108e-01 -2.095104e-01 -8.061890e-01 -4.862688e-01 1.986016e-01 5.422986e-01 8.693510e-01 4.453665e-01 -2.816385e-01 2.127747e-02 -4.000319e-01 -1.298010e-01 -4.491505e-01 1.494835e-01 6.808124e-02 -2.495810e-02 -2.112214e-01 1.344989e-01 1.746553e-01 -7.659471e-02 1.087350e-01 2.418855e-01 6.229325e-02 2.540454e-01
<VARIANCE> 39
 1.367941e+01 8.487553e+00 7.693275e+00 1.070145e+01 2.323769e+01 2.045750e+01 1.990159e+01 1.272171e+01 2.806336e+01 3.706724e+01 7.018784e+00 1.359808e+01 2.008574e+01 1.080858e+00 2.153462e+00 1.429730e+00 9.874708e-01 1.320327e+00 1.050166e+00 1.647511e+00 1.039595e+00 2.502697e+00 3.740541e+00 1.229937e+00 1.395582e+00 1.654054e+00 2.554462e-01 3.184777e-01 2.507753e-01 2.251675e-01 2.911354e-01 2.284757e-01 3.401878e-01 2.139418e-01 5.366403e-01 8.446634e-01 1.794195e-01 3.043216e-01 3.831637e-01
<GCONST> 9.700922e+01
<STATE> 3
<MEAN> 39
 -1.460221e+01 8.222427e-01 7.615447e-01 -1.871777e+00 2.406850e+00 7.929443e-01 6.555372e+00 -1.842978e+00 5.417657e-01 -9.584231e+00 -3.417879e-01 -2.647985e+00 7.092344e+01 -6.711324e-01 -1.669082e+00 6.835587e-01 1.634215e-01 -2.362086e-01 -4.718480e-01 8.421601e-01 1.158928e-01 -6.481231e-01 -7.602585e-01 6.539981e-01 7.280237e-01 1.141685e+00 3.123033e-01 9.904297e-02 5.967208e-02 2.045703e-01 4.795939e-01 1.755350e-01 -2.581982e-02 -6.137297e-02 -1.154104e-01 -1.858400e-01 -1.130811e-02 -1.284620e-01 4.429298e-04
<VARIANCE> 39
 9.191911e+00 1.537940e+01 1.812991e+01 1.528764e+01 1.929971e+01 1.626265e+01 1.344295e+01 1.993314e+01 3.772976e+01 2.545630e+01 1.327944e+01 9.687129e+00 1.767843e+01 1.437261e+00 1.484169e+00 2.046786e+00 2.222700e+00 1.752101e+00 1.701079e+00 1.863358e+00 2.720771e+00 3.050197e+00 1.748397e+00 8.732992e-01 1.502747e+00 9.049987e-01 2.052599e-01 2.704597e-01 3.752471e-01 3.483624e-01 2.620879e-01 2.309903e-01 3.140608e-01 5.058276e-01 5.810208e-01 6.954878e-01 2.493373e-01 2.097220e-01 2.508264e-01
<GCONST> 1.002136e+02
<STATE> 4
<MEAN> 39
 -1.660898e+01 -3.226135e+00 2.992552e+00 -1.193014e-01 4.064341e+00 -1.927686e+00 1.015092e+01 2.708039e+00 2.056544e+00 -1.064902e+01 1.135685e+00 -2.988230e-01 7.548052e+01 8.591895e-01 -3.735537e-02 -1.776210e-01 5.757237e-01 7.374884e-01 2.560786e-01 -1.784365e-01 1.933277e-01 -4.246752e-01 -4.362823e-01 -1.367193e-01 -2.205869e-01 5.897275e-02 3.393307e-01 4.224552e-01 -1.092909e-01 -7.448023e-02 5.453577e-02 1.622328e-01 -3.693428e-01 -2.127298e-01 -1.457119e-01 2.860753e-02 -1.187449e-01 -1.684498e-01 -2.407324e-01
<VARIANCE> 39
 4.006981e+01 2.546104e+01 3.669793e+01 3.881921e+01 4.551464e+01 2.580382e+01 2.156781e+01 5.422972e+01 4.864152e+01 4.106981e+01 1.945396e+01 2.949781e+01 1.932797e+01 2.812664e+00 3.150907e+00 1.816379e+00 1.922832e+00 1.873255e+00 2.314184e+00 1.665299e+00 3.562825e+00 3.560052e+00 3.740469e+00 1.344158e+00 2.194895e+00 1.222787e+00 3.428030e-01 3.771861e-01 3.316956e-01 3.866507e-01 3.582464e-01 4.064643e-01 3.207315e-01 6.605317e-01 5.611167e-01 4.183097e-01 2.242696e-01 3.465238e-01 1.894530e-01
<GCONST> 1.142193e+02
<TRANSP> 5
 0.000000e+00 1.000000e+00 0.000000e+00 0.000000e+00 0.000000e+00
 0.000000e+00 7.575115e-01 2.424885e-01 0.000000e+00 0.000000e+00
 0.000000e+00 0.000000e+00 6.006238e-01 3.993762e-01 0.000000e+00
 0.000000e+00 0.000000e+00 0.000000e+00 7.161982e-01 2.838017e-01
 0.000000e+00 0.000000e+00 0.000000e+00 0.000000e+00 0.000000e+00
<ENDHMM>
~h "e"
<BEGINHMM>
<NUMSTATES> 5
<STATE> 2
<MEAN> 39
 -1.525079e+01 2.010643e+00 4.996026e+00 -6.714692e+00 3.916078e+00 5.381073e+00 3.923731e+00 -7.031613e+00 3.103256e+00 -6.112432e+00 6.219395e-01 -3.114570e+00 7.110371e+01 -1.446319e+00 -2.432033e-01 -1.602682e-01 -9.452276e-01 -6.727442e-01 -5.926553e-01 -5.928389e-01 8.314251e-02 7.770599e-01 3.470739e-02 -1.523858e-02 2.540541e-01 3.426546e-01 -2.389439e-02 -2.415475e-01 5.729536e-02 1.081657e-01 8.287702e-02 -2.013979e-01 -1.315079e-01 -1.093025e-01 -3.188030e-01 -2.373251e-01 9.749433e-02 7.136870e-02 2.660168e-01
<VARIANCE> 39
 4.794608e+01 1.108361e+01 3.634010e+01 4.357705e+01 1.568363e+01 1.412989e+01 1.462426e+01 1.356992e+01 1.951107e+01 1.059417e+01 4.882448e+00 9.106067e+00 2.905678e+01 2.086849e+00 1.147329e+00 2.197167e+00 1.067757e+00 1.845453e+00 2.083302e+00 1.393642e+00 9.340370e-01 2.355017e+00 1.170645e+00 3.925748e-01 7.379483e-01 1.593956e+00 4.924900e-01 1.379081e-01 5.328312e-01 5.135412e-01 2.553478e-01 4.083954e-01 4.311599e-01 1.558492e-01 1.592896e-01 3.625429e-01 1.239564e-01 1.820204e-01 3.115153e-01
<GCONST> 9.532874e+01
<STATE> 3
<MEAN> 39
 -1.459229e+01 -1.776742e-01 5.493095e+00 -1.637463e+00 6.507572e+00 3.780870e+00 2.888682e+00 -8.695228e+00 -2.748067e+00 -9.907085e+00 6.992516e-01 -4.318617e+00 7.256561e+01 1.430714e+00 4.360669e-01 5.214422e-01 1.664490e+00 1.364830e+00 1.069638e+00 3.884260e-01 -3.446620e-01 -1.203559e+00 -7.511513e-01 -3.665002e-01 -4.453413e-01 -3.014329e-01 1.649550e-01 2.059818e-01 -1.225621e-01 -8.756641e-02 2.126172e-02 1.829193e-01 9.540326e-02 2.906709e-01 3.567564e-01 1.265268e-01 -1.538717e-01 -1.670852e-02 -2.562574e-01
<VARIANCE> 39
 4.941441e+01 1.035312e+01 1.426280e+01 4.312696e+01 4.037649e+01 2.871648e+01 9.577138e+00 9.287039e+00 4.139677e+01 7.807349e+00 1.040541e+01 1.876482e+01 5.964229e+00 2.715896e+00 1.388642e+00 2.191630e+00 1.474106e+00 1.291371e+00 2.760919e+00 1.215247e+00 1.291754e+00 1.253509e+00 1.630486e+00 2.071482e+00 1.638036e+00 1.665513e+00 6.910099e-01 2.342499e-01 3.405381e-01 5.392354e-01 6.676826e-01 7.383681e-01 2.520150e-01 1.640483e-01 3.532234e-01 2.008670e-01 3.819910e-01 2.999940e-01 2.008786e-01
<GCONST> 1.015616e+02
<STATE> 4
<MEAN> 39
 -6.481304e+00 6.849521e+00 1.031938e-01 5.213803e+00 1.250399e+01 6.926185e+00 6.356020e+00 -5.037415e+00 4.789982e-01 -6.171995e+00 -2.794105e+00 -8.524359e+00 6.727923e+01 -1.205925e-01 9.627819e-02 -1.117197e-01 -1.082947e-01 -4.303493e-02 -1.988990e-01 -2.945309e-02 4.140189e-01 4.414794e-01 6.849034e-02 -8.036271e-02 1.757170e-02 -1.853650e-01 -3.533449e-02 -7.185197e-02 -5.709549e-03 -5.115290e-02 -7.953272e-02 -8.959790e-02 -3.221642e-03 3.728310e-02 -3.773198e-02 -2.429760e-02 8.839439e-02 1.033498e-01 3.508430e-02
<VARIANCE> 39
 1.771418e+00 2.312737e+00 5.757436e+00 7.476049e+00 3.691233e+00 6.705567e+00 5.678551e+00 8.102526e+00 7.830719e+00 2.976202e+01 6.857624e+00 6.623485e+00 1.328000e+00 8.619110e-02 1.705529e-01 3.994105e-01 3.184455e-01 3.074878e-01 8.671184e-01 4.788884e-01 1.204107e+00 1.360350e+00 5.496934e-01 7.563472e-01 7.080397e-01 9.226224e-02 2.413910e-02 4.417391e-02 6.481711e-02 7.224438e-02 1.045827e-01 1.500570e-01 6.915775e-02 2.405298e-01 2.166441e-01 1.027223e-01 1.464389e-01 1.271009e-01 1.182839e-02
<GCONST> 4.930103e+01
<TRANSP> 5
 0.000000e+00 1.000000e+00 0.000000e+00 0.000000e+00 0.000000e+00
 0.000000e+00 7.329032e-01 2.670968e-01 0.000000e+00 0.000000e+00
 0.000000e+00 0.000000e+00 7.503579e-01 2.496421e-01 0.000000e+00
 0.000000e+00 0.000000e+00 0.000000e+00 9.068469e-01 9.315308e-02
 0.000000e+00 0.000000e+00 0.000000e+00 0.000000e+00 0.000000e+00
<ENDHMM>
~h "f"
<BEGINHMM>
<NUMSTATES> 5
<STATE> 2
<MEAN> 39
 -1.245377e+01 4.911223e+00 2.337937e+00 -2.273732e+00 7.546397e+00 1.840387e+00 5.846801e+00 -6.731493e-01 1.205212e+00 -7.387268e+00 7.586904e-01 -2.979428e+00 7.061207e+01 -1.574418e+00 -4.169939e-01 2.335580e-01 -6.526630e-01 -1.348307e-01 -1.146254e-01 3.940783e-01 -1.722972e-01 6.986465e-02 -7.582837e-02 2.924508e-01 5.739555e-01 2.269017e-01 -1.405526e-01 -2.737263e-01 5.269550e-02 2.193022e-04 8.823035e-02 -1.832275e-01 -1.418800e-01 -1.329713e-01 -1.177840e-01 -1.566526e-01 4.395064e-02 -5.723535e-02 1.382395e-01
<VARIANCE> 39
 2.552186e+01 1.208115e+01 1.467592e+01 2.457290e+01 1.346970e+01 2.011888e+01 1.676714e+01 1.079662e+01 2.674996e+01 2.273125e+01 9.393003e+00 1.764621e+01 1.619542e+01 2.057487e+00 1.780329e+00 1.288368e+00 2.277146e+00 1.406227e+00 2.181174e+00 1.938654e+00 1.702220e+00 4.070841e+00 3.084726e+00 8.146435e-01 1.882860e+00 9.579369e-01 2.316760e-01 2.075400e-01 2.376970e-01 2.111794e-01 2.380486e-01 3.512618e-01 1.975988e-01 2.520551e-01 6.938428e-01 6.461541e-01 1.795068e-01 3.816601e-01 1.360325e-01
<GCONST> 9.902125e+01
<STATE> 3
<MEAN> 39
 -2.263743e+01 2.173097e-01 3.197862e+00 -6.119913e+00 7.865328e+00 -7.772439e-01 6.106695e+00 -1.940762e+00 2.525621e+00 -8.128713e+00 1.882903e+00 -2.363531e+00 7.411657e+01 -7.521998e-01 -1.140933e+00 -5.602138e-01 -5.719425e-04 -2.863063e-01 -2.226271e-01 9.575955e-02 -7.475488e-02 3.184830e-01 1.045061e-01 2.402912e-01 1.445912e-01 1.684116e-01 6.755157e-01 -6.989106e-03 -1.344377e-01 3.786533e-01 -5.415380e-02 1.686398e-01 -1.304097e-01 -4.678218e-02 -4.204264e-02 1.994987e-03 -7.621229e-02 -8.258253e-02 -1.510159e-01
<VARIANCE> 39
 1.117502e+01 1.991756e+01 2.851952e+01 1.637090e+01 2.094052e+01 2.541515e+01 7.806168e+00 2.173864e+01 1.837814e+01 1.181302e+01 8.626433e+00 9.763692e+00 4.561137e+00 1.574732e+00 6.198200e-01 1.424729e+00 1.263620e+00 8.796530e-01 1.067564e+00 9.189489e-01 1.475358e+00 1.700092e+00 1.278908e+00 8.164279e-01 1.089427e+00 4.154516e-01 1.603410e-01 1.863239e-01 2.480825e-01 2.200887e-01 1.730545e-01 2.381595e-01 1.679895e-01 4.086901e-01 3.910552e-01 3.260487e-01 1.643665e-01 2.588007e-01 7.160444e-02
<GCONST> 8.641782e+01
<STATE> 4
<MEAN> 39
 -1.956779e+01 -4.349442e+00 -8.586027e-01 -3.028932e+00 5.846922e+00 -4.623109e-01 5.258654e+00 -1.823263e+00 3.484351e+00 -8.637541e+00 1.851318e+00 -1.630755e+00 7.282623e+01 2.405489e+00 4.099915e-01 5.962375e-01 1.214248e+00 4.790533e-01 5.991490e-01 -7.405607e-01 -2.150915e-01 -8.169346e-01 -5.774532e-01 -3.206234e-01 -7.639549e-01 -5.044826e-01 4.717268e-01 8.227622e-01 7.821117e-01 1.886787e-01 5.660009e-01 2.605669e-01 -2.232903e-01 -1.187241e-01 -3.785473e-01 -9.868332e-03 -8.757369e-02 -4.438665e-01 5.706361e-02
<VARIANCE> 39
 1.532470e+01 1.472609e+01 3.487930e+01 2.073083e+01 2.289839e+01 2.151800e+01 1.666018e+01 1.540736e+01 1.678435e+01 1.344820e+01 5.764641e+00 1.397929e+01 5.693814e+00 1.563751e+00 2.907900e+00 2.863639e+00 2.262893e+00 1.836454e+00 2.074035e+00 1.040956e+00 1.571994e+00 2.861516e+00 1.970762e+00 9.176689e-01 8.946145e-01 7.300478e-01 2.400935e-01 2.275842e-01 4.787767e-01 1.924345e-01 1.734838e-01 2.107959e-01 1.763706e-01 2.146061e-01 2.564817e-01 3.079719e-01 1.762584e-01 2.529506e-01 1.375317e-01
<GCONST> 9.389973e+01
<TRANSP> 5
 0.000000e+00 1.000000e+00 0.000000e+00 0.000000e+00 0.000000e+00
 0.000000e+00 7.450168e-01 2.549832e-01 0.000000e+00 0.000000e+00
 0.000000e+00 0.000000e+00 7.733663e-01 2.266337e-01 0.000000e+00
 0.000000e+00 0.000000e+00 0.000000e+00 5.989903e-01 4.010097e-01
 0.000000e+00 0.000000e+00 0.000000e+00 0.000000e+00 0.000000e+00
<ENDHMM>
~h "h"
<BEGINHMM>
<NUMSTATES> 5
<STATE> 2
<MEAN> 39
 -1.417754e+01 -8.550861e-01 6.044065e+00 -8.465931e-01 9.211599e+00 2.901432e+00 3.704104e+00 -2.771904e+00 1.075738e+00 -6.750379e+00 3.107334e+00 -6.357105e+00 7.514449e+01 -4.363348e-01 -5.221294e-01 -2.468278e-01 -7.796196e-01 -3.183213e-01 4.671672e-01 7.999642e-01 -2.171396e-01 -8.239518e-01 2.218905e-01 7.268274e-01 1.052713e+00 5.180578e-01 1.571662e-01 3.475172e-02 -1.877808e-01 1.140081e-01 -1.149654e-01 -1.409241e-02 1.004260e-01 -2.975170e-02 -3.182710e-02 -5.453108e-02 -3.879050e-02 8.586562e-02 -1.229085e-01
<VARIANCE> 39
 3.071671e+01 1.497663e+01 2.020807e+01 4.264570e+01 3.818719e+01 3.666778e+01 3.215105e+01 2.474063e+01 2.685480e+01 2.666117e+01 1.394708e+01 2.544128e+01 9.140038e+00 1.243128e+00 1.207159e+00 1.816027e+00 1.856532e+00 1.197116e+00 1.863272e+00 2.557383e+00 1.157038e+00 2.798097e+00 1.785853e+00 1.119487e+00 2.222734e+00 6.351694e-01 2.622536e-01 2.501918e-01 3.375505e-01 3.593569e-01 1.527188e-01 2.961752e-01 4.603455e-01 2.984179e-01 5.815639e-01 3.439103e-01 3.025573e-01 5.170494e-01 1.006624e-01
<GCONST> 1.030488e+02
<STATE> 3
<MEAN> 39
 -1.100719e+01 -1.530401e+00 1.764284e+00 -3.625484e+00 6.344992e+00 2.434076e+00 5.605334e+00 -2.975128e+00 -1.077576e+00 -3.760652e+00 6.260315e+00 -4.815082e-01 7.686430e+01 1.649220e-01 -1.161663e-01 -1.054817e-01 -4.667563e-03 -1.012174e-01 -5.099024e-02 2.340632e-01 -7.142931e-02 -3.641853e-01 -7.503448e-02 1.696126e-01 4.894004e-01 2.514586e-01 8.340403e-02 2.401735e-01 1.559331e-01 1.709628e-01 9.843048e-02 -4.233064e-02 -2.093180e-02 9.886944e-02 1.365077e-01 -1.280077e-01 -2.862132e-01 -3.987900e-01 -9.989494e-02
<VARIANCE> 39
 1.226578e+01 1.178483e+01 9.407108e+00 1.090308e+01 2.095303e+01 2.552041e+01 4.764231e+01 2.456613e+01 2.535223e+01 2.964199e+01 1.654857e+01 1.952176e+01 1.310146e+01 1.085735e+00 8.281685e-01 9.237038e-01 1.797581e+00 1.438455e+00 1.054028e+00 2.066796e+00 1.505087e+00 1.100924e+00 1.676118e+00 1.042170e+00 1.985897e+00 4.344802e-01 4.848039e-02 1.214522e-01 1.960547e-01 1.546248e-01 1.870731e-01 2.552747e-01 5.692690e-01 1.723765e-01 2.299513e-01 2.983305e-01 1.781996e-01 2.060572e-01 7.409869e-02
<GCONST> 8.947871e+01
<STATE> 4
<MEAN> 39
 -9.019051e+00 4.529652e-01 1.552818e+00 -3.766453e+00 3.343735e+00 8.065614e-01 9.377139e+00 -3.564894e-01 1.104804e+00 -6.386708e+00 6.095104e+00 -7.709462e-01 7.660010e+01 1.844169e-01 9.436111e-02 -1.620992e-02 9.181961e-02 9.727645e-02 4.327273e-02 -2.339991e-01 2.148109e-02 -2.075289e-01 -5.807529e-01 -1.787984e-01 -1.084147e-01 -1.151567e-01 1.759916e-02 1.971331e-02 9.831650e-03 1.463554e-02 -1.124471e-02 -5.029653e-02 -1.903918e-01 -3.845602e-02 1.604691e-02 -3.545540e-02 -9.579674e-02 -4.251441e-02 -1.113409e-02
<VARIANCE> 39
 5.949553e+00 9.957072e+00 8.842957e+00 1.404240e+01 3.283299e+01 2.017408e+01 3.306618e+01 2.788068e+01 3.312416e+01 2.377958e+01 1.490566e+01 1.900957e+01 1.491260e+01 4.728733e-01 8.290637e-01 6.241049e-01 8.624917e-01 1.006239e+00 1.100117e+00 1.786204e+00 1.001897e+00 1.431984e+00 1.567750e+00 1.232119e+00 1.036513e+00 3.218295e-01 4.852333e-02 1.271653e-01 9.423239e-02 8.843688e-02 1.331233e-01 1.311082e-01 1.523688e-01 1.420141e-01 2.246296e-01 2.225057e-01 1.484504e-01 1.525171e-01 7.866351e-02
<GCONST> 8.088463e+01
<TRANSP> 5
 0.000000e+00 1.000000e+00 0.000000e+00 0.000000e+00 0.000000e+00
 0.000000e+00 6.757814e-01 3.242185e-01 0.000000e+00 0.000000e+00
 0.000000e+00 0.000000e+00 6.215842e-01 3.784159e-01 0.000000e+00
 0.000000e+00 0.000000e+00 0.000000e+00 8.270999e-01 1.729001e-01
 0.000000e+00 0.000000e+00 0.000000e+00 0.000000e+00 0.000000e+00
<ENDHMM>
~h "i"
<BEGINHMM>
<NUMSTATES> 5
<STATE> 2
<MEAN> 39
 -1.446600e+01 -3.665817e+00 -4.601835e+00 -2.843399e+00 1.875695e+00 8.899387e-02 5.902899e+00 7.776797e-01 3.343578e+00 -7.233475e+00 3.622736e+00 9.380438e-01 6.721760e+01 -6.728061e-02 -1.090424e-01 -1.178774e-01 -1.648196e-01 -6.782210e-02 1.692182e-01 1.759090e-01 2.249024e-01 2.087441e-01 2.186557e-01 1.446569e-01 1.536656e-01 -1.203216e-01 1.339538e-02 3.685057e-02 1.272079e-02 1.754161e-02 3.697851e-02 2.429497e-02 -2.601413e-02 -2.468303e-02 2.648618e-02 1.302753e-02 -2.170857e-02 -3.818116e-02 7.930924e-03
<VARIANCE> 39
 5.658142e+00 3.920760e+01 8.089437e+00 6.477989e+00 1.247418e+01 7.315661e+00 1.010201e+01 1.850310e+01 1.111147e+01 1.605509e+01 1.380117e+01 3.060501e+01 8.793646e+00 2.035818e-01 8.322683e-01 4.033349e-01 4.685893e-01 6.419643e-01 5.593405e-01 4.744889e-01 1.056658e+00 7.279514e-01 9.455863e-01 1.030963e+00 1.049722e+00 1.866423e-01 2.844127e-02 6.308661e-02 7.114542e-02 7.869428e-02 1.295221e-01 1.196564e-01 7.789151e-02 2.212494e-01 1.134798e-01 1.527139e-01 2.227095e-01 1.674839e-01 1.553926e-02
<GCONST> 6.581274e+01
<STATE> 3
<MEAN> 39
 -1.469671e+01 2.263274e+00 -6.662729e+00 -5.930450e+00 1.495450e+00 6.751895e-01 6.564088e+00 1.820528e+00 8.804408e+00 -1.169069e-01 4.256915e+00 -2.442225e+00 6.287233e+01 -3.420250e-02 -1.849052e-02 -3.917929e-02 -7.898888e-02 -3.594916e-02 2.053352e-02 2.927612e-02 3.062361e-02 9.874395e-02 1.252066e-01 2.628148e-02 -5.985752e-02 -3.457012e-02 9.135422e-03 -2.741876e-02 3.936504e-02 3.456184e-02 -5.268913e-03 -2.245789e-03 5.000920e-03 1.076016e-02 -3.197731e-02 -4.428071e-02 -2.028176e-02 9.849690e-03 3.341479e-02
<VARIANCE> 39
 2.134142e+00 2.652744e+00 5.036436e+00 3.610397e+00 5.853795e+00 4.653933e+00 5.992382e+00 9.469507e+00 9.723445e+00 1.182326e+01 7.223292e+00 8.551023e+00 3.642604e+00 7.766750e-02 1.994121e-01 2.948319e-01 3.041455e-01 3.461784e-01 3.917205e-01 6.376686e-01 8.173024e-01 7.731462e-01 9.268153e-01 7.876813e-01 9.050691e-01 3.925785e-02 1.359081e-02 4.121657e-02 5.994519e-02 5.449345e-02 8.361638e-02 5.572618e-02 1.294079e-01 1.688046e-01 1.402128e-01 1.753630e-01 1.779621e-01 1.877346e-01 1.335266e-02
<GCONST> 4.685280e+01
<STATE> 4
<MEAN> 39
 -7.150285e+00 4.247095e+00 -1.250143e+00 -3.693057e+00 -1.536654e-01 -3.353384e-01 4.710207e+00 -6.400657e-01 4.925978e+00 -7.924004e+00 2.481575e+00 -5.677656e+00 7.299841e+01 1.886931e-01 -9.469933e-02 2.942900e-01 2.476348e-01 1.654844e-01 -4.872324e-02 -3.208269e-02 -3.823671e-02 -2.340483e-01 -3.306077e-01 -1.570044e-01 1.183278e-01 4.222018e-01 -7.888266e-02 -9.895686e-02 1.015417e-01 1.252301e-01 -3.138569e-02 -3.440578e-02 -2.866484e-02 -1.193015e-01 -1.411455e-01 -4.105602e-02 7.030712e-02 1.910031e-01 9.296768e-02
<VARIANCE> 39
 2.162266e+01 8.415924e+00 1.471502e+01 7.013044e+00 3.497738e+01 3.675786e+01 1.318943e+01 2.413995e+01 2.101183e+01 4.002925e+01 2.398438e+01 1.087757e+01 4.053833e+01 5.934604e-01 1.498076e+00 9.048832e-01 8.986865e-01 1.747496e+00 3.559227e+00 9.437033e-01 2.102865e+00 2.374123e+00 2.393332e+00 1.970414e+00 1.127778e+00 9.111024e-01 7.020828e-02 2.311424e-01 1.998899e-01 1.575704e-01 2.364869e-01 7.648411e-01 1.865185e-01 2.397483e-01 5.486193e-01 3.491001e-01 2.352195e-01 2.524518e-01 1.890517e-01
<GCONST> 9.653405e+01
<TRANSP> 5
 0.000000e+00 1.000000e+00 0.000000e+00 0.000000e+00 0.000000e+00
 0.000000e+00 8.635310e-01 1.364690e-01 0.000000e+00 0.000000e+00
 0.000000e+00 0.000000e+00 9.285638e-01 7.143626e-02 0.000000e+00
 0.000000e+00 0.000000e+00 0.000000e+00 7.788852e-01 2.211148e-01
 0.000000e+00 0.000000e+00 0.000000e+00 0.000000e+00 0.000000e+00
<ENDHMM>
~h "j"
<BEGINHMM>
<NUMSTATES> 5
<STATE> 2
<MEAN> 39
 -6.900199e+00 9.223642e-01 3.747652e-01 4.347008e-01 8.183055e+00 1.374834e+00 7.782296e-01 -5.722498e+00 -9.195554e+00 -1.350659e+01 5.632406e+00 2.484259e-01 7.580363e+01 -1.193457e-01 3.505993e-01 2.852642e-01 1.029145e+00 5.874035e-01 3.635364e-01 -9.350946e-02 -3.440840e-01 1.370419e-01 1.638475e-01 -1.153202e-01 -1.391347e-01 -4.479510e-01 -5.382551e-02 1.610851e-01 5.398741e-02 7.463516e-02 -1.220769e-02 1.772532e-02 1.805816e-01 1.011669e-01 3.963301e-01 1.813174e-01 -2.494990e-01 -2.602988e-01 -1.749276e-01
<VARIANCE> 39
 8.066470e+00 7.149390e+00 6.768712e+00 1.702953e+01 1.003075e+01 1.982834e+01 3.738826e+01 2.605881e+01 1.314933e+01 1.599338e+01 2.115730e+01 1.882039e+01 1.118201e+01 5.126867e-01 8.796795e-01 7.787066e-01 5.543455e-01 6.262328e-01 1.292102e+00 1.673100e+00 9.890918e-01 2.275083e+00 6.881328e-01 1.778962e+00 1.332246e+00 3.506437e-01 9.981386e-02 1.399479e-01 8.153569e-02 1.711530e-01 1.115743e-01 2.685757e-01 2.913263e-01 1.231486e-01 3.949834e-01 1.976844e-01 2.261047e-01 1.860978e-01 5.427368e-02
<GCONST> 8.131203e+01
<STATE> 3
<MEAN> 39
 -7.663177e+00 3.683268e+00 3.029175e+00 4.585149e+00 1.156411e+01 6.270248e+00 2.364849e+00 -4.559961e+00 -3.067695e+00 -1.076427e+01 1.904211e+00 -4.848173e+00 7.055244e+01 -3.510054e-01 -4.355163e-01 4.724800e-01 2.163195e-01 -6.801236e-02 5.739937e-02 4.994409e-02 2.675420e-01 2.980594e-01 1.235399e-02 -1.781796e-01 5.194820e-03 2.442931e-02 -8.848256e-02 -1.659193e-01 -4.980676e-03 -5.853375e-02 -1.373911e-01 -9.781335e-02 3.126593e-02 6.078669e-02 5.737216e-02 1.270145e-02 2.613265e-02 8.837606e-02 7.261811e-02
<VARIANCE> 39
 6.606650e+00 1.713420e+01 1.692719e+01 8.724253e+00 1.333072e+01 1.533919e+01 1.984356e+01 1.481466e+01 2.326375e+01 3.995656e+01 1.290876e+01 1.152111e+01 1.150575e+01 3.722151e-01 1.268726e+00 8.100621e-01 7.335099e-01 1.820095e+00 8.782507e-01 1.426575e+00 8.618926e-01 2.025611e+00 2.114556e+00 1.333477e+00 1.229129e+00 5.510778e-01 5.221576e-02 1.672701e-01 1.359048e-01 1.517220e-01 3.342551e-01 1.632163e-01 2.613604e-01 1.407706e-01 3.805951e-01 4.102899e-01 2.621914e-01 2.262059e-01 7.333858e-02
<GCONST> 8.531521e+01
<STATE> 4
<MEAN> 39
 -1.385483e+01 -3.874806e+00 5.636197e+00 5.100226e+00 8.261225e+00 3.102531e+00 3.540656e+00 -2.319348e+00 1.539632e+00 -8.913112e+00 1.280770e+00 -1.873094e+00 7.263617e+01 4.452564e-02 8.356547e-02 -4.399697e-02 -1.985087e-02 -6.533466e-03 7.407975e-02 1.393029e-01 -1.448336e-01 -1.120164e-02 1.261563e-01 -1.611753e-02 -7.989056e-02 -3.185570e-02 7.853391e-02 1.085654e-01 -4.811394e-02 -2.248275e-02 5.995784e-02 3.855038e-02 -2.534760e-02 -7.881453e-02 -1.075410e-01 -4.577458e-02 3.488464e-02 -4.178233e-02 -1.060442e-02
<VARIANCE> 39
 1.587261e+01 4.400745e+01 1.941554e+01 2.463423e+01 1.919637e+01 1.484959e+01 1.572428e+01 2.499424e+01 2.304032e+01 1.846576e+01 1.814016e+01 2.211790e+01 6.638669e+00 1.265915e+00 2.489043e+00 8.287867e-01 1.261556e+00 1.186749e+00 1.189185e+00 1.433115e+00 1.741073e+00 2.428545e+00 1.563316e+00 1.244549e+00 1.810375e+00 3.646149e-01 1.493440e-01 2.792519e-01 1.322234e-01 1.924631e-01 1.851134e-01 1.943460e-01 2.315816e-01 2.566599e-01 3.337320e-01 2.921695e-01 2.308252e-01 3.240542e-01 4.947487e-02
<GCONST> 9.262903e+01
<TRANSP> 5
 0.000000e+00 1.000000e+00 0.000000e+00 0.000000e+00 0.000000e+00
 0.000000e+00 7.983145e-01 2.016855e-01 0.000000e+00 0.000000e+00
 0.000000e+00 0.000000e+00 8.949306e-01 1.050694e-01 0.000000e+00
 0.000000e+00 0.000000e+00 0.000000e+00 9.472323e-01 5.276774e-02
 0.000000e+00 0.000000e+00 0.000000e+00 0.000000e+00 0.000000e+00
<ENDHMM>
~h "k"
<BEGINHMM>
<NUMSTATES> 5
<STATE> 2
<MEAN> 39
 -1.891674e+01 -6.711651e+00 3.047732e+00 -3.259058e-01 4.410904e+00 1.526398e-01 2.312901e+00 -1.093154e+00 1.909972e+00 -7.612891e+00 8.292069e-01 -5.880393e-01 7.339318e+01 8.117343e-02 -3.573695e-01 1.206138e-01 1.128247e-01 2.979973e-01 9.710862e-02 -2.222892e-01 2.262115e-01 -3.044297e-01 -1.369540e-01 3.774335e-02 -3.155431e-01 2.015322e-01 5.063594e-01 5.861864e-01 -2.465012e-02 1.368190e-01 2.611759e-01 1.328350e-01 3.191991e-02 -1.676785e-01 -1.421000e-01 4.599131e-03 -8.076673e-04 -2.837571e-01 -1.453627e-01
<VARIANCE> 39
 2.122925e+01 4.369756e+01 1.056254e+01 2.957640e+01 2.882651e+01 2.145475e+01 2.454068e+01 1.654295e+01 1.949372e+01 2.928821e+01 1.438256e+01 2.134944e+01 1.084143e+01 3.528647e+00 4.815009e+00 1.702900e+00 1.591425e+00 3.220959e+00 1.460334e+00 2.205435e+00 1.271829e+00 3.383089e+00 2.149066e+00 1.445745e+00 1.602373e+00 1.280306e+00 2.363769e-01 4.182384e-01 3.207560e-01 2.027038e-01 4.009285e-01 2.966865e-01 2.477943e-01 2.783393e-01 6.160375e-01 3.807085e-01 1.999047e-01 3.690987e-01 1.480683e-01
<GCONST> 1.048087e+02
<STATE> 3
<MEAN> 39
 -9.388665e+00 8.782053e-01 4.711651e+00 2.598459e+00 9.189347e+00 2.871447e+00 2.968224e+00 -3.811893e+00 -3.509048e+00 -1.000424e+01 4.223825e-01 -5.526420e+00 7.353381e+01 1.617724e+00 1.528931e+00 2.847253e-01 -2.895479e-02 5.758520e-02 2.158045e-01 1.450261e-02 -9.033866e-01 -1.218862e+00 2.194120e-01 -4.550487e-01 -6.237931e-01 2.151344e-01 -5.821942e-01 -4.984346e-01 -3.622086e-01 -1.996065e-01 -5.905606e-01 -5.388551e-01 9.119198e-02 2.312493e-01 3.612505e-01 2.415500e-01 1.506157e-01 3.727568e-01 2.515059e-02
<VARIANCE> 39
 1.137925e+01 1.676414e+01 5.484691e+00 1.099516e+01 1.628181e+01 2.236415e+01 2.937454e+01 1.965934e+01 3.974907e+01 2.864962e+01 1.849900e+01 1.286406e+01 1.257319e+01 2.478455e+00 2.360333e+00 1.315067e+00 6.016288e-01 1.074986e+00 1.107579e+00 1.326279e+00 1.500604e+00 5.671944e+00 2.618387e+00 1.483944e+00 1.550944e+00 5.076610e-01 1.727505e-01 1.806624e-01 1.297322e-01 1.595244e-01 1.905456e-01 9.046368e-02 3.447569e-01 2.973566e-01 6.376740e-01 4.052491e-01 2.959518e-01 1.366896e-01 1.405991e-01
<GCONST> 9.336803e+01
<STATE> 4
<MEAN> 39
 -7.962040e+00 5.419062e+00 1.825341e+00 2.853771e+00 9.024146e+00 1.796915e+00 4.323891e+00 -1.337291e+00 1.322089e+00 -6.503263e+00 -8.827821e-01 -5.974963e+00 7.033052e+01 -1.472876e-01 -8.477560e-02 -2.095159e-01 -1.784974e-01 -2.102516e-01 -1.267896e-01 -2.736058e-02 1.110809e-02 -5.478494e-02 -1.023818e-01 -1.875709e-02 1.836059e-01 -6.452429e-02 -6.740905e-02 -1.357054e-01 -3.517629e-02 -7.998041e-02 -8.598431e-02 -2.266907e-02 -6.279251e-02 2.301589e-02 2.564444e-02 -5.247038e-02 3.337647e-02 7.092831e-02 3.410428e-02
<VARIANCE> 39
 1.643188e+01 5.481251e+00 6.624013e+00 7.909620e+00 7.209932e+00 1.895768e+01 1.904873e+01 1.398951e+01 2.064686e+01 2.158823e+01 1.215808e+01 9.374108e+00 6.510487e+00 3.001100e-01 6.475455e-01 5.130554e-01 7.818474e-01 6.894514e-01 8.414899e-01 1.544600e+00 1.084069e+00 1.058078e+00 1.974379e+00 1.013293e+00 9.849744e-01 3.875273e-01 4.344273e-02 9.463695e-02 1.119014e-01 9.206519e-02 6.209669e-02 1.400649e-01 2.490443e-01 2.594480e-01 2.375134e-01 2.703990e-01 2.300792e-01 1.681884e-01 5.765217e-02
<GCONST> 7.415065e+01
<TRANSP> 5
 0.000000e+00 1.000000e+00 0.000000e+00 0.000000e+00 0.000000e+00
 0.000000e+00 7.835959e-01 2.164041e-01 0.000000e+00 0.000000e+00
 0.000000e+00 0.000000e+00 5.644512e-01 4.355488e-01 0.000000e+00
 0.000000e+00 0.000000e+00 0.000000e+00 8.723371e-01 1.276629e-01
 0.000000e+00 0.000000e+00 0.000000e+00 0.000000e+00 0.000000e+00
<ENDHMM>
~h "l"
<BEGINHMM>
<NUMSTATES> 5
<STATE> 2
<MEAN> 39
 -6.647606e+00 2.588025e+00 1.856133e+00 3.438629e+00 8.640343e+00 1.059624e+00 1.522239e+00 -5.009673e+00 -3.532860e+00 -1.285033e+01 -1.648601e-01 -4.796203e+00 7.236775e+01 -6.923220e-02 6.011966e-01 -6.879418e-02 1.765828e-01 1.789253e-01 3.100579e-01 2.969425e-01 1.540983e-01 5.058559e-01 3.424061e-01 -5.046239e-01 -2.983868e-01 -6.288680e-01 -4.710507e-02 -4.272202e-02 -6.188431e-02 -1.102707e-01 -7.293372e-02 -4.550204e-02 4.396792e-02 8.580331e-02 9.888633e-02 1.384492e-01 7.964769e-02 -2.423225e-02 1.668615e-03
<VARIANCE> 39
 9.182944e+00 1.647659e+01 1.797163e+01 2.787882e+01 2.988865e+01 2.488171e+01 2.986299e+01 2.374426e+01 3.276126e+01 3.193077e+01 2.445247e+01 3.462450e+01 1.048789e+01 2.770265e-01 1.237760e+00 9.147905e-01 1.286419e+00 1.641202e+00 1.228387e+00 1.912369e+00 1.431767e+00 2.365908e+00 2.133126e+00 2.306975e+00 1.629156e+00 7.973349e-01 4.005526e-02 1.759048e-01 1.422142e-01 1.622868e-01 2.171144e-01 1.890682e-01 3.046049e-01 2.638436e-01 3.762802e-01 3.311647e-01 3.851741e-01 3.048911e-01 9.538716e-02
<GCONST> 9.463771e+01
<STATE> 3
<MEAN> 39
 -7.692863e+00 6.921932e+00 2.974258e-01 1.844446e+00 7.695409e+00 2.489035e+00 5.040263e+00 -2.649521e+00 9.010031e-01 -8.706010e+00 -1.566671e+00 -6.610945e+00 6.791067e+01 -2.620537e-01 1.135689e-01 -1.661656e-01 -1.101909e-01 -4.808621e-02 2.537667e-02 1.473292e-01 1.708342e-01 4.459899e-01 3.850927e-01 -3.753303e-02 -1.403231e-01 -3.332309e-01 -2.919592e-02 -2.140936e-01 3.863239e-02 -5.765251e-02 -3.567807e-02 -7.583339e-02 -1.019871e-01 -8.578123e-05 -1.212839e-01 -1.136101e-01 1.100183e-01 8.194305e-02 1.914102e-01
<VARIANCE> 39
 1.163116e+01 1.091887e+01 1.050972e+01 1.691358e+01 2.084230e+01 2.258055e+01 1.534982e+01 1.416999e+01 2.057260e+01 2.896578e+01 1.461303e+01 1.567830e+01 1.025916e+01 2.210196e-01 5.659879e-01 6.446547e-01 7.520931e-01 9.421532e-01 1.074692e+00 1.071081e+00 9.570711e-01 1.472990e+00 1.421587e+00 1.052288e+00 1.002339e+00 3.339040e-01 4.097983e-02 1.054748e-01 9.802817e-02 1.373718e-01 1.664932e-01 1.777636e-01 1.953112e-01 1.823586e-01 2.542462e-01 2.834639e-01 2.077015e-01 1.918194e-01 6.199617e-02
<GCONST> 7.908041e+01
<STATE> 4
<MEAN> 39
 -7.314380e+00 4.003538e+00 8.225998e-01 5.378744e-01 6.681868e+00 6.544317e-01 3.577680e+00 -3.029109e+00 -1.522242e+00 -1.123245e+01 -1.201977e+00 -4.744178e+00 7.092218e+01 -2.088292e-01 -2.781401e-01 -3.157738e-02 -2.894880e-01 -8.285730e-02 -2.701257e-01 -1.565398e-01 4.567908e-02 3.914396e-02 1.256811e-01 3.251457e-01 1.356878e-01 2.359237e-01 -1.412890e-02 -7.268592e-02 2.404290e-02 -2.369443e-02 -3.419868e-02 -7.386015e-02 -6.853480e-02 1.938359e-02 -4.973881e-02 -2.578663e-02 4.865400e-02 4.578975e-02 9.351355e-02
<VARIANCE> 39
 1.232053e+01 1.859303e+01 2.389055e+01 1.878704e+01 3.635136e+01 3.122752e+01 2.335274e+01 2.214659e+01 3.105816e+01 4.884567e+01 2.569892e+01 3.435747e+01 1.490928e+01 6.761509e-01 1.108598e+00 1.349814e+00 1.312074e+00 2.255978e+00 1.691322e+00 1.805447e+00 1.597254e+00 2.934987e+00 2.692410e+00 2.009914e+00 1.783199e+00 8.067448e-01 1.256762e-01 1.940950e-01 2.112020e-01 2.058958e-01 3.408510e-01 2.914456e-01 3.140268e-01 3.218082e-01 5.032586e-01 4.577218e-01 4.207957e-01 2.805978e-01 1.641800e-01
<GCONST> 1.022596e+02
<TRANSP> 5
 0.000000e+00 1.000000e+00 0.000000e+00 0.000000e+00 0.000000e+00
 0.000000e+00 6.578476e-01 3.421525e-01 0.000000e+00 0.000000e+00
 0.000000e+00 0.000000e+00 7.240206e-01 2.759794e-01 0.000000e+00
 0.000000e+00 0.000000e+00 0.000000e+00 6.567089e-01 3.432911e-01
 0.000000e+00 0.000000e+00 0.000000e+00 0.000000e+00 0.000000e+00
<ENDHMM>
~h "m"
<BEGINHMM>
<NUMSTATES> 5
<STATE> 2
<MEAN> 39
 -8.145474e+00 6.692270e+00 -8.706975e-01 -1.144189e+00 4.697086e+00 -8.720008e-01 3.482218e+00 -9.378099e-01 4.569471e+00 -5.004802e+00 3.095301e-01 -4.310237e+00 7.039082e+01 6.991161e-02 5.197074e-01 3.468699e-01 5.039819e-01 3.059604e-01 7.205370e-01 2.354072e-01 -6.255410e-01 -6.306901e-02 6.700615e-01 -1.527605e-01 -4.011861e-01 -5.233407e-01 2.875825e-02 -1.678459e-01 1.424649e-01 1.125571e-01 1.377374e-01 9.350841e-02 5.438486e-02 -1.461056e-01 -3.089030e-01 -2.337485e-01 -8.445414e-02 5.625235e-02 6.064967e-02
<VARIANCE> 39
 3.293162e+01 1.924580e+01 2.489886e+01 1.246063e+01 1.795779e+01 4.513284e+01 1.847029e+01 1.965694e+01 2.956874e+01 2.797219e+01 1.751601e+01 1.048052e+01 1.212111e+01 6.022775e-01 3.885081e-01 6.645830e-01 1.157078e+00 9.591950e-01 1.437731e+00 1.180142e+00 1.548461e+00 1.876919e+00 1.700654e+00 8.786585e-01 9.872245e-01 6.952648e-01 1.460370e-01 1.147007e-01 1.666354e-01 1.519690e-01 1.228266e-01 2.424121e-01 1.830764e-01 2.974731e-01 2.064649e-01 2.331330e-01 1.841048e-01 2.084968e-01 5.646757e-02
<GCONST> 8.739047e+01
<STATE> 3
<MEAN> 39
 -6.440146e+00 8.864556e+00 1.189883e+00 1.515125e+00 7.152910e+00 1.650986e+00 4.999884e+00 -2.663572e+00 3.349855e+00 -4.526164e+00 -1.664480e-01 -5.687619e+00 6.859297e+01 -1.528207e-01 -7.937898e-03 1.248449e-01 -7.090461e-02 2.937878e-01 3.064331e-01 2.014294e-01 9.464716e-02 -2.180120e-01 -2.686939e-01 -2.947602e-01 -7.886405e-02 -6.731480e-02 -6.728157e-02 -1.956350e-01 -3.423863e-02 -1.780699e-01 -3.184369e-02 -1.608563e-01 -1.287802e-01 8.729907e-02 -9.369780e-02 -2.420371e-01 3.612273e-03 9.188145e-02 1.707268e-01
<VARIANCE> 39
 1.107051e+01 8.491887e+00 1.369721e+01 9.149873e+00 1.877826e+01 2.046037e+01 1.285713e+01 1.595044e+01 1.257297e+01 1.907332e+01 1.066324e+01 1.029031e+01 6.012391e+00 5.487157e-01 2.885802e-01 5.232561e-01 8.775569e-01 5.367861e-01 1.298590e+00 1.409731e+00 1.307641e+00 1.170295e+00 1.428585e+00 9.822829e-01 8.969203e-01 3.408943e-01 5.839340e-02 6.607290e-02 7.343407e-02 1.273538e-01 1.220519e-01 1.841237e-01 2.649863e-01 2.972272e-01 1.713914e-01 2.399504e-01 1.802807e-01 1.645970e-01 4.603305e-02
<GCONST> 7.488486e+01
<STATE> 4
<MEAN> 39
 -8.203959e+00 3.655559e+00 2.460844e+00 3.130773e+00 1.077318e+01 2.240041e+00 2.599094e+00 -4.616280e+00 -3.462512e+00 -1.436778e+01 -2.626757e+00 -4.541091e+00 7.228888e+01 -8.596729e-02 -3.483188e-01 1.939769e-02 -5.995520e-02 -9.204602e-02 -1.202735e-01 -3.246238e-01 -1.336399e-01 -4.290594e-01 -3.904917e-01 9.868302e-02 2.211412e-01 2.307430e-01 -6.946877e-02 -4.045982e-02 -3.557484e-02 -4.485424e-02 -1.766237e-01 -7.526998e-02 3.579610e-02 3.232636e-02 9.813702e-02 1.171370e-01 1.060577e-01 4.618949e-02 4.241374e-02
<VARIANCE> 39
 1.295311e+01 1.651737e+01 1.051424e+01 2.477854e+01 2.481607e+01 9.304792e+00 3.580635e+01 2.137104e+01 2.289960e+01 3.586183e+01 2.117528e+01 8.481057e+00 8.137376e+00 5.773867e-01 8.302217e-01 7.311737e-01 1.042736e+00 1.510095e+00 1.214927e+00 2.437623e+00 1.527046e+00 1.981557e+00 1.931386e+00 1.138091e+00 1.031142e+00 5.975376e-01 9.020627e-02 1.605648e-01 1.261833e-01 1.833659e-01 1.710520e-01 1.906343e-01 4.232312e-01 2.380880e-01 3.463132e-01 3.619069e-01 2.240237e-01 1.548070e-01 1.323963e-01
<GCONST> 8.940816e+01
<TRANSP> 5
 0.000000e+00 1.000000e+00 0.000000e+00 0.000000e+00 0.000000e+00
 0.000000e+00 5.329399e-01 4.670601e-01 0.000000e+00 0.000000e+00
 0.000000e+00 0.000000e+00 7.759709e-01 2.240291e-01 0.000000e+00
 0.000000e+00 0.000000e+00 0.000000e+00 7.791337e-01 2.208664e-01
 0.000000e+00 0.000000e+00 0.000000e+00 0.000000e+00 0.000000e+00
<ENDHMM>
~h "n"
<BEGINHMM>
<NUMSTATES> 5
<STATE> 2
<MEAN> 39
 -7.479469e+00 5.924632e+00 2.371104e+00 5.134915e+00 9.716667e+00 3.445216e+00 4.370763e+00 -3.284703e+00 1.796587e+00 -6.259140e+00 -6.681457e-01 -7.791774e+00 6.876545e+01 -2.073964e-01 2.877916e-01 -7.555594e-02 -1.639952e-01 2.364471e-03 2.644001e-01 3.576365e-01 9.937334e-02 2.119647e-01 2.919103e-01 -5.550695e-03 -1.301050e-01 -3.657404e-01 -4.381754e-02 -1.083195e-01 -4.225456e-02 -8.734641e-02 -5.426866e-02 -6.444421e-02 -5.308551e-02 5.846216e-02 -3.991738e-03 -5.835348e-02 3.000602e-02 8.400819e-02 4.202973e-02
<VARIANCE> 39
 7.093056e+00 2.586900e+01 1.755803e+01 2.881663e+01 1.183986e+01 2.176748e+01 2.031310e+01 1.702221e+01 2.483675e+01 1.592616e+01 1.086075e+01 2.236321e+01 7.625179e+00 1.977363e-01 6.859157e-01 7.215185e-01 9.826195e-01 1.019129e+00 8.123767e-01 8.559991e-01 8.860079e-01 9.276024e-01 9.777696e-01 6.298376e-01 9.474676e-01 2.597152e-01 2.204373e-02 9.243703e-02 1.003051e-01 1.035702e-01 1.487857e-01 1.259823e-01 1.651997e-01 1.751969e-01 1.484614e-01 1.784662e-01 9.537102e-02 1.236447e-01 3.014338e-02
<GCONST> 7.339342e+01
<STATE> 3
<MEAN> 39
 -9.580256e+00 3.228110e+00 -5.013143e-01 4.429429e-01 7.633152e+00 2.254392e+00 5.711538e+00 -3.619198e+00 -3.290219e-01 -8.210934e+00 1.253888e-01 -4.654554e+00 6.951099e+01 -5.164665e-01 -5.303074e-01 -1.254060e-01 -5.360790e-01 -1.092398e-01 -1.610558e-01 -1.618190e-01 5.020922e-01 3.503614e-01 -2.509721e-02 1.482934e-01 3.549352e-01 8.658309e-02 -2.916522e-02 -1.941453e-01 1.225971e-02 -1.578411e-01 -1.446407e-01 -1.056366e-01 -1.161703e-01 1.560966e-02 -6.391064e-02 -6.709513e-02 8.169285e-02 1.540335e-01 1.860825e-01
<VARIANCE> 39
 1.684444e+01 2.403066e+01 9.499592e+00 1.622205e+01 2.152901e+01 1.618437e+01 1.622647e+01 2.002846e+01 3.639408e+01 2.489667e+01 2.035211e+01 1.692598e+01 1.368247e+01 4.790738e-01 1.518248e+00 1.087442e+00 1.961160e+00 1.338771e+00 1.109392e+00 1.477402e+00 1.045280e+00 2.248189e+00 2.058001e+00 1.904284e+00 1.712802e+00 9.124947e-01 8.829910e-02 2.597069e-01 1.789908e-01 4.048205e-01 2.226800e-01 2.472264e-01 3.034863e-01 2.311368e-01 4.083411e-01 3.698831e-01 3.562432e-01 3.056780e-01 1.527178e-01
<GCONST> 9.557103e+01
<STATE> 4
<MEAN> 39
 -1.608212e+01 -2.937701e+00 -3.884578e+00 -3.898143e+00 2.095732e+00 2.520261e-01 5.852819e+00 9.202143e-01 5.202482e+00 -4.062035e+00 4.010682e+00 -1.288536e+00 6.700056e+01 -6.000727e-02 -7.493447e-02 -1.275220e-01 -1.371231e-01 -9.473155e-02 -4.438825e-02 -2.276651e-02 6.182681e-02 4.894037e-03 1.042859e-02 5.659267e-02 9.895542e-02 -3.242697e-02 9.665973e-03 -2.575040e-03 2.771258e-02 3.154650e-02 2.019651e-03 1.913745e-03 -8.892909e-03 -3.442400e-02 -4.232512e-02 -4.198643e-02 -3.582967e-02 -1.099492e-02 2.749634e-02
<VARIANCE> 39
 1.066011e+01 3.464806e+01 8.200339e+00 8.533252e+00 1.052594e+01 1.009872e+01 9.454250e+00 1.189321e+01 1.707141e+01 2.326578e+01 1.189010e+01 1.640315e+01 1.008214e+01 1.110998e-01 5.962257e-01 3.664393e-01 4.904706e-01 4.633151e-01 5.620563e-01 7.301053e-01 8.489021e-01 1.010284e+00 1.018819e+00 8.375634e-01 1.031986e+00 1.310003e-01 2.403640e-02 6.430645e-02 6.366771e-02 8.146954e-02 8.243113e-02 1.141153e-01 1.386819e-01 1.717013e-01 1.928523e-01 1.947260e-01 1.660161e-01 2.127556e-01 1.913829e-02
<GCONST> 6.567088e+01
<TRANSP> 5
 0.000000e+00 1.000000e+00 0.000000e+00 0.000000e+00 0.000000e+00
 0.000000e+00 8.401019e-01 1.598981e-01 0.000000e+00 0.000000e+00
 0.000000e+00 0.000000e+00 6.916823e-01 3.083177e-01 0.000000e+00
 0.000000e+00 0.000000e+00 0.000000e+00 9.055793e-01 9.442071e-02
 0.000000e+00 0.000000e+00 0.000000e+00 0.000000e+00 0.000000e+00
<ENDHMM>
~h "q"
<BEGINHMM>
<NUMSTATES> 5
<STATE> 2
<MEAN> 39
 -1.300481e+01 2.372739e+00 3.695458e+00 -6.638205e+00 -2.530392e+00 -4.215918e+00 5.404777e+00 1.156637e+00 2.657055e+00 -6.599223e+00 7.614556e-01 -4.485503e+00 7.404496e+01 -1.075147e+00 -4.713382e-01 3.724733e-01 -1.079717e+00 -4.160240e-01 6.067979e-01 1.233936e-01 4.254517e-01 1.703749e-01 -2.230455e-01 1.456183e-01 3.548143e-01 1.208069e-01 3.488436e-02 -1.693266e-01 -1.436869e-01 -1.529806e-02 1.291366e-01 9.241532e-02 5.516019e-02 4.187778e-02 1.441085e-02 -3.737187e-02 6.479465e-03 -6.000622e-03 -2.991162e-02
<VARIANCE> 39
 3.466924e+01 2.263808e+01 2.182893e+01 2.904397e+01 2.111862e+01 3.168921e+01 3.302347e+01 3.272107e+01 2.746463e+01 2.128122e+01 2.369848e+01 2.862555e+01 7.786200e+00 2.422809e+00 2.279447e+00 2.244689e+00 1.471765e+00 3.458848e+00 3.371701e+00 2.694111e+00 5.367482e+00 2.743962e+00 4.072622e+00 1.975446e+00 2.502542e+00 1.154014e+00 5.921134e-01 4.419551e-01 4.488917e-01 3.921202e-01 5.634100e-01 4.826723e-01 5.715907e-01 1.003012e+00 4.211027e-01 6.493589e-01 4.380532e-01 5.331641e-01 1.633000e-01
<GCONST> 1.159162e+02
<STATE> 3
<MEAN> 39
 -1.717843e+01 -4.687771e+00 2.616434e-01 -9.571666e+00 -2.506860e+00 1.565221e-01 7.361961e+00 4.130187e+00 3.277187e+00 -8.790610e+00 1.396278e+00 -2.452983e+00 7.367166e+01 9.460672e-01 -6.031530e-01 -5.864313e-01 1.496497e+00 7.151809e-01 3.464371e-01 2.301751e-01 -2.279554e-01 -2.324189e-01 5.876829e-01 -3.565838e-02 4.907654e-02 -5.184913e-01 4.092627e-01 5.877504e-01 3.586530e-01 5.775620e-01 3.499058e-01 -1.426080e-01 -4.041850e-01 -3.499721e-01 -1.981492e-02 -5.949871e-04 -1.845510e-01 -1.880472e-01 -8.838189e-02
<VARIANCE> 39
 9.660286e+00 3.514108e+01 1.548767e+01 1.882377e+01 1.542041e+01 3.229300e+01 3.737057e+01 4.031080e+01 1.874896e+01 3.196281e+01 1.541184e+01 1.681484e+01 7.859075e+00 2.146045e+00 2.801078e+00 1.807943e+00 1.586741e+00 1.732370e+00 1.400723e+00 6.674072e+00 2.761168e+00 1.849556e+00 1.984915e+00 1.532253e+00 1.706368e+00 7.867390e-01 4.709492e-01 4.643227e-01 2.878337e-01 2.778171e-01 3.031525e-01 3.760281e-01 1.311762e+00 5.687200e-01 5.472269e-01 5.566441e-01 3.409130e-01 4.773993e-01 1.982249e-01
<GCONST> 1.082587e+02
<STATE> 4
<MEAN> 39
 -9.890763e+00 -2.287493e+00 4.210754e+00 1.937016e+00 6.439374e+00 1.663953e+00 5.069397e+00 2.306043e+00 3.139790e+00 -6.531449e+00 -1.140157e+00 -7.563335e+00 7.149027e+01 2.335234e+00 2.098597e+00 1.157257e+00 2.793538e+00 1.733857e+00 -2.515662e-01 -2.334884e+00 -1.044894e+00 -1.639928e-03 -7.964776e-01 -1.248841e+00 -1.951809e+00 3.524071e-02 -4.067481e-01 -1.539384e-01 -2.872005e-01 -5.353746e-01 -3.021425e-01 -2.941199e-01 -5.591379e-01 -2.380880e-01 -1.304858e-01 -2.586833e-01 5.529857e-02 3.270428e-01 2.470261e-01
<VARIANCE> 39
 1.392607e+01 3.520710e+01 1.608377e+01 3.789586e+01 3.839812e+01 2.149621e+01 5.993254e+01 1.641857e+01 2.192253e+01 1.361989e+01 2.395616e+01 2.308992e+01 4.412742e+00 2.151397e+00 7.949419e-01 2.130358e+00 1.559353e+00 3.563030e+00 2.009070e+00 3.129366e+00 1.427310e+00 2.867082e+00 1.326497e+00 1.614148e+00 3.158811e+00 5.301787e-01 2.922944e-01 4.197739e-01 2.836916e-01 3.026397e-01 2.591976e-01 4.140511e-01 1.081796e+00 1.561706e-01 2.884221e-01 3.856239e-01 4.010036e-01 6.162990e-01 8.987477e-02
<GCONST> 1.043573e+02
<TRANSP> 5
 0.000000e+00 1.000000e+00 0.000000e+00 0.000000e+00 0.000000e+00
 0.000000e+00 8.879385e-01 1.120614e-01 0.000000e+00 0.000000e+00
 0.000000e+00 0.000000e+00 8.038895e-01 1.961105e-01 0.000000e+00
 0.000000e+00 0.000000e+00 0.000000e+00 5.493651e-01 4.506348e-01
 0.000000e+00 0.000000e+00 0.000000e+00 0.000000e+00 0.000000e+00
<ENDHMM>
~h "r"
<BEGINHMM>
<NUMSTATES> 5
<STATE> 2
<MEAN> 39
 -5.665338e+00 1.268872e+00 5.107534e-01 -3.410711e+00 6.105072e+00 9.251801e-01 -1.114889e+00 -3.196279e+00 -5.572262e+00 -1.452131e+01 1.227889e+00 -1.619365e+00 7.486960e+01 2.947829e-02 2.743326e-01 -2.471104e-01 -2.649757e-01 3.266014e-01 2.476338e-01 -2.566138e-01 -1.164718e-01 -1.016213e-01 -4.471336e-01 -6.929981e-02 9.681036e-02 -1.688385e-01 -1.527523e-01 2.222562e-01 -2.226407e-02 1.742861e-01 -7.660717e-02 -4.316865e-02 2.982297e-01 9.189823e-02 2.783585e-01 1.823760e-01 -1.813752e-01 -1.904497e-01 -2.829164e-01
<VARIANCE> 39
 6.461442e+00 1.331816e+01 1.158029e+01 4.344738e+01 2.649965e+01 2.611194e+01 1.359405e+01 1.391492e+01 3.186325e+01 3.950244e+01 2.083203e+01 2.512668e+01 3.303605e+00 4.622756e-01 1.470249e+00 7.182015e-01 9.898745e-01 1.583762e+00 1.661649e+00 1.606517e+00 2.020409e+00 1.795934e+00 2.425936e+00 1.717243e+00 1.323023e+00 8.139690e-01 8.916327e-02 1.690924e-01 1.242555e-01 2.607670e-01 3.306646e-01 3.170866e-01 2.162982e-01 4.418013e-01 3.885312e-01 4.510957e-01 3.411109e-01 1.740122e-01 8.249137e-02
<GCONST> 9.294453e+01
<STATE> 3
<MEAN> 39
 -6.267801e+00 5.999020e+00 -8.493646e-01 -2.631564e+00 6.335181e+00 1.112299e+00 6.524579e-01 -4.150798e+00 -2.311353e+00 -1.282024e+01 -1.917505e+00 -5.042143e+00 7.057932e+01 -3.718950e-01 3.189445e-01 -1.492344e-01 7.749261e-01 3.061166e-01 6.137772e-03 5.130666e-01 3.645649e-01 5.588182e-01 -1.196264e-01 -5.502053e-01 3.736269e-02 -7.992044e-01 -1.479136e-01 -4.627547e-01 2.325859e-01 1.541934e-02 2.154584e-02 -3.478232e-02 -8.469784e-02 2.689835e-01 -5.827684e-02 3.385300e-02 2.573597e-01 2.038932e-01 3.410734e-01
<VARIANCE> 39
 9.355502e+00 7.480997e+00 9.598934e+00 1.896022e+01 2.327290e+01 1.921683e+01 8.168313e+00 1.993522e+01 2.183035e+01 3.300362e+01 1.658898e+01 2.189181e+01 6.152112e+00 2.367914e-01 1.291866e+00 7.743850e-01 1.761773e+00 2.030164e+00 1.223821e+00 1.526656e+00 2.468981e+00 1.716516e+00 3.405339e+00 1.595362e+00 1.761404e+00 7.878998e-01 6.132287e-02 1.998869e-01 1.465254e-01 2.695169e-01 2.996552e-01 4.038141e-01 1.951258e-01 3.951657e-01 3.011293e-01 5.057244e-01 2.696117e-01 2.260432e-01 1.508411e-01
<GCONST> 9.166145e+01
<STATE> 4
<MEAN> 39
 -6.613128e+00 1.845599e+00 -2.114868e-01 3.272331e+00 9.552208e+00 1.425861e+00 2.502635e+00 -8.542763e-01 -6.243556e+00 -1.814924e+01 -9.953240e-01 -5.462531e-01 7.111493e+01 -3.031777e-01 -1.335764e-01 2.768484e-01 -5.048045e-02 2.328323e-02 2.747005e-01 4.246516e-02 -4.773026e-02 7.507858e-02 2.552044e-01 1.897875e-01 -1.822327e-01 1.587302e-02 -4.887677e-02 -1.049488e-02 5.725323e-02 -6.777027e-02 -1.463171e-01 6.079952e-02 -1.543064e-02 -1.889150e-01 8.768397e-02 2.355061e-01 9.717563e-02 -4.387220e-02 2.505776e-02
<VARIANCE> 39
 5.671656e+00 1.431790e+01 1.490714e+01 1.767132e+01 1.919469e+01 2.007901e+01 2.862555e+01 2.433340e+01 4.094799e+01 5.071004e+01 1.906588e+01 2.831698e+01 8.577810e+00 4.710961e-01 1.684960e+00 1.338330e+00 1.378480e+00 1.618613e+00 2.023150e+00 2.121602e+00 2.315811e+00 2.617812e+00 3.449774e+00 2.264760e+00 2.318181e+00 9.384039e-01 6.967907e-02 2.665511e-01 2.829392e-01 2.568480e-01 3.525112e-01 2.845277e-01 4.208577e-01 5.473539e-01 3.928178e-01 7.007335e-01 4.062932e-01 4.073631e-01 1.725937e-01
<GCONST> 1.019612e+02
<TRANSP> 5
 0.000000e+00 1.000000e+00 0.000000e+00 0.000000e+00 0.000000e+00
 0.000000e+00 7.520193e-01 2.479807e-01 0.000000e+00 0.000000e+00
 0.000000e+00 0.000000e+00 6.268734e-01 3.731266e-01 0.000000e+00
 0.000000e+00 0.000000e+00 0.000000e+00 7.953160e-01 2.046840e-01
 0.000000e+00 0.000000e+00 0.000000e+00 0.000000e+00 0.000000e+00
<ENDHMM>
~h "s"
<BEGINHMM>
<NUMSTATES> 5
<STATE> 2
<MEAN> 39
 -1.648965e+01 -1.202604e+00 7.639777e+00 -3.753973e+00 4.316740e+00 3.007430e+00 7.409594e+00 -4.071361e+00 -8.793208e-01 -8.214571e+00 4.050891e-01 -2.423407e+00 7.363768e+01 -2.528196e+00 -1.025116e+00 1.511878e+00 -1.192204e+00 -1.010256e+00 -1.423529e-01 4.774643e-01 -3.057159e-01 5.101207e-01 5.210092e-01 -1.070194e-01 5.664589e-01 8.907291e-01 -7.968153e-02 1.579709e-01 -1.718526e-01 -2.298800e-01 -6.355324e-03 -7.573888e-02 -1.480146e-01 4.724183e-02 1.503750e-01 1.040062e-01 -3.540309e-02 -1.672138e-01 -5.506883e-02
<VARIANCE> 39
 3.598235e+01 1.449175e+01 2.801591e+01 3.377245e+01 2.524244e+01 2.621616e+01 2.198549e+01 2.874086e+01 2.830286e+01 3.166373e+01 1.505249e+01 1.226533e+01 1.687075e+01 1.635941e+00 1.310625e+00 1.629236e+00 1.690802e+00 1.637365e+00 2.092324e+00 2.641683e+00 1.418572e+00 2.802903e+00 2.243055e+00 1.727027e+00 1.613536e+00 7.499953e-01 4.043267e-01 2.083090e-01 3.351402e-01 2.406892e-01 3.018853e-01 3.742342e-01 3.654518e-01 2.774006e-01 4.291983e-01 4.888295e-01 2.718166e-01 2.642829e-01 1.363512e-01
<GCONST> 1.038273e+02
<STATE> 3
<MEAN> 39
 -2.644612e+01 -5.248627e+00 1.173679e+01 -8.919697e+00 1.041818e+00 1.933703e-01 9.000868e+00 -2.055093e+00 3.660691e-01 -4.856583e+00 4.895618e-01 -1.242266e+00 7.559124e+01 -3.825865e-01 -2.187153e-01 -4.403543e-01 -3.814729e-01 -8.314694e-02 -2.433386e-01 -6.597667e-02 2.338729e-01 4.279757e-01 2.296117e-01 1.560489e-01 9.357895e-02 -9.357613e-02 4.506916e-01 5.097444e-02 -3.418961e-01 3.335758e-01 1.453026e-01 -4.778147e-02 1.036079e-02 4.779708e-02 -4.901007e-02 -9.928098e-02 5.888686e-02 -1.923149e-02 -1.416510e-01
<VARIANCE> 39
 1.154567e+01 1.823755e+01 1.908799e+01 2.621036e+01 9.735910e+00 3.144457e+01 2.372000e+01 3.657515e+01 3.088804e+01 2.040233e+01 1.211863e+01 9.660043e+00 8.297504e+00 8.090504e-01 6.819636e-01 1.157601e+00 1.041603e+00 7.249002e-01 1.076399e+00 8.838528e-01 1.478795e+00 1.235104e+00 1.136554e+00 8.507962e-01 7.611012e-01 2.429881e-01 1.165878e-01 1.163184e-01 1.975789e-01 1.576740e-01 1.578415e-01 2.260745e-01 1.632681e-01 3.085868e-01 2.771623e-01 1.809473e-01 1.721275e-01 1.963975e-01 5.781605e-02
<GCONST> 8.383772e+01
<STATE> 4
<MEAN> 39
 -2.186039e+01 -2.513714e+00 4.089547e+00 -7.895730e+00 2.636828e+00 1.983185e+00 7.004825e+00 -3.200703e+00 4.771719e+00 -4.196041e+00 1.983738e+00 -1.966443e+00 7.196557e+01 1.725332e+00 6.578651e-01 -1.143107e+00 1.104124e+00 5.365069e-01 -2.563264e-01 -1.447783e-01 2.617515e-01 -2.116015e-01 -4.805168e-01 -1.548318e-01 -2.953172e-01 -6.715153e-01 2.462719e-01 1.550682e-01 2.166706e-01 8.188956e-02 5.027025e-02 -5.286747e-02 -1.013389e-01 -1.073689e-01 -2.723705e-01 -1.944569e-01 -1.490899e-01 -1.486221e-01 1.241168e-01
<VARIANCE> 39
 3.423811e+01 2.516748e+01 2.318057e+01 3.433530e+01 1.377644e+01 2.167154e+01 1.505769e+01 2.052081e+01 2.710550e+01 1.874323e+01 1.454656e+01 1.378686e+01 2.033761e+01 2.244737e+00 2.070688e+00 2.253426e+00 1.478309e+00 1.387369e+00 2.060633e+00 1.542518e+00 1.646390e+00 2.358248e+00 2.087910e+00 1.009541e+00 1.533918e+00 1.212937e+00 4.727334e-01 4.486925e-01 4.730771e-01 3.958548e-01 3.159426e-01 3.796281e-01 2.878959e-01 3.808207e-01 3.227829e-01 3.272731e-01 2.171931e-01 2.868256e-01 2.695594e-01
<GCONST> 1.041470e+02
<TRANSP> 5
 0.000000e+00 1.000000e+00 0.000000e+00 0.000000e+00 0.000000e+00
 0.000000e+00 7.779572e-01 2.220428e-01 0.000000e+00 0.000000e+00
 0.000000e+00 0.000000e+00 8.113815e-01 1.886186e-01 0.000000e+00
 0.000000e+00 0.000000e+00 0.000000e+00 7.730248e-01 2.269752e-01
 0.000000e+00 0.000000e+00 0.000000e+00 0.000000e+00 0.000000e+00
<ENDHMM>
~h "t"
<BEGINHMM>
<NUMSTATES> 5
<STATE> 2
<MEAN> 39
 -6.629884e+00 -3.531979e+00 -1.257416e+00 -3.370932e+00 6.241433e-01 -4.202036e+00 6.561909e+00 -4.832919e+00 -5.570438e+00 -1.132678e+01 3.843777e+00 -2.984076e+00 8.027741e+01 1.323305e-01 -1.160194e-01 -1.063934e-01 -2.121666e-01 -1.326053e-01 -7.324625e-02 -6.309225e-02 -1.612572e-01 -2.354226e-01 2.514353e-03 2.432684e-01 8.599462e-02 1.619146e-01 7.481264e-03 1.265127e-01 6.184528e-02 6.699976e-02 1.011311e-01 1.514874e-01 -6.138620e-03 3.112145e-02 7.512713e-02 1.439817e-02 -1.220117e-01 -3.298290e-02 -1.447918e-01
<VARIANCE> 39
 1.922221e+01 1.220170e+01 1.393776e+01 1.860692e+01 3.364119e+01 2.091714e+01 4.098124e+01 2.583332e+01 5.218188e+01 2.651122e+01 2.408149e+01 2.473377e+01 2.308714e+01 4.045466e-01 6.693346e-01 8.105479e-01 8.140211e-01 1.073999e+00 9.743385e-01 1.287563e+00 1.138835e+00 1.055484e+00 1.376497e+00 1.025431e+00 9.570063e-01 5.481371e-01 9.230297e-02 1.395414e-01 9.788281e-02 1.311187e-01 1.778043e-01 1.759729e-01 2.437522e-01 2.625501e-01 2.111755e-01 2.628826e-01 1.849112e-01 2.197364e-01 9.226528e-02
<GCONST> 8.803609e+01
<STATE> 3
<MEAN> 39
 -7.101735e+00 -7.106773e-01 1.644513e-01 -4.455991e+00 3.949013e+00 4.860644e-01 3.933812e+00 -7.437722e+00 -8.661249e+00 -1.200242e+01 2.246518e+00 -2.541268e+00 7.836283e+01 2.226183e-01 6.215400e-01 2.016034e-01 3.751422e-01 6.946369e-02 4.651066e-01 -7.088269e-02 -4.622545e-02 1.189981e-01 2.097735e-01 -1.361528e-01 4.576780e-02 -6.959196e-01 -2.389628e-02 1.847612e-01 -1.798854e-01 1.299144e-01 5.503148e-03 -1.072646e-01 1.413391e-02 1.181557e-01 3.987507e-01 1.372136e-01 -6.340383e-02 -1.308547e-02 -2.927987e-01
<VARIANCE> 39
 1.648238e+01 1.435726e+01 2.880714e+01 2.235922e+01 1.679389e+01 2.160858e+01 2.474702e+01 3.287754e+01 3.871757e+01 2.149025e+01 1.559532e+01 3.180313e+01 2.061507e+01 9.553918e-01 1.066295e+00 1.151416e+00 1.506582e+00 1.675565e+00 1.724042e+00 2.294987e+00 1.903694e+00 4.163362e+00 2.357183e+00 1.236920e+00 1.646786e+00 2.093993e+00 1.195697e-01 2.019640e-01 2.701574e-01 2.231051e-01 3.375418e-01 3.759270e-01 3.181455e-01 3.543553e-01 5.087197e-01 3.977437e-01 2.363156e-01 2.487371e-01 2.382131e-01
<GCONST> 1.023569e+02
<STATE> 4
<MEAN> 39
 -9.824554e+00 3.029910e+00 -1.229437e+00 -2.167001e+00 4.362740e+00 4.339499e-01 5.075375e+00 -3.972383e+00 -1.673560e+00 -9.156124e+00 2.082779e+00 -1.419922e+00 7.035753e+01 -2.974809e-01 2.908146e-02 -1.320980e-01 8.372755e-02 -7.772007e-03 -1.202401e-02 1.147188e-01 4.197346e-01 5.381050e-01 2.670450e-01 -5.928696e-02 -5.089554e-02 -2.071407e-01 -2.157382e-02 -1.725537e-01 1.065561e-01 -5.623630e-02 6.451346e-03 3.843742e-02 1.700048e-02 -9.895607e-03 -1.782658e-01 -8.205125e-02 -1.215022e-02 -5.586576e-02 2.738560e-01
<VARIANCE> 39
 1.669584e+01 1.996137e+01 9.269230e+00 1.304801e+01 1.311596e+01 1.211331e+01 1.742176e+01 2.184510e+01 2.142424e+01 2.200723e+01 1.516620e+01 1.783517e+01 1.505224e+01 1.598609e+00 1.450385e+00 1.430774e+00 1.326641e+00 1.326229e+00 1.383216e+00 1.492765e+00 1.716567e+00 2.211140e+00 1.722535e+00 1.245108e+00 1.485558e+00 1.623556e+00 2.550995e-01 3.024089e-01 2.394487e-01 2.189918e-01 2.878732e-01 2.489907e-01 3.184526e-01 3.609947e-01 3.290514e-01 3.369599e-01 2.344568e-01 2.597337e-01 2.659895e-01
<GCONST> 9.659429e+01
<TRANSP> 5
 0.000000e+00 1.000000e+00 0.000000e+00 0.000000e+00 0.000000e+00
 0.000000e+00 7.958091e-01 2.041909e-01 0.000000e+00 0.000000e+00
 0.000000e+00 0.000000e+00 7.236912e-01 2.763089e-01 0.000000e+00
 0.000000e+00 0.000000e+00 0.000000e+00 8.370609e-01 1.629391e-01
 0.000000e+00 0.000000e+00 0.000000e+00 0.000000e+00 0.000000e+00
<ENDHMM>
~h "u"
<BEGINHMM>
<NUMSTATES> 5
<STATE> 2
<MEAN> 39
 -6.019518e+00 1.023633e+00 4.169803e+00 9.174078e+00 1.536160e+01 6.933384e-01 -7.330113e+00 -5.034649e+00 1.203918e-01 -1.194831e+01 -5.082466e+00 -8.742551e+00 7.194254e+01 2.345022e-01 7.983001e-01 -3.309645e-01 -1.151863e-02 -1.146798e-01 -6.581026e-01 -3.985502e-01 -7.942313e-01 3.884354e-01 2.971449e-01 -2.589763e-01 -4.694480e-01 -1.202302e-01 -2.436525e-01 1.020859e-02 2.993271e-03 -4.231416e-01 -5.283520e-01 -2.169770e-01 2.388718e-01 5.688649e-02 1.470303e-01 4.368491e-01 2.565570e-01 1.275050e-01 -6.740349e-02
<VARIANCE> 39
 4.738614e+00 8.236100e+00 1.127340e+01 4.192986e+01 4.833975e+01 6.429891e+00 1.864238e+01 1.199334e+01 1.016021e+01 4.918286e+00 3.017657e+00 1.172499e+01 2.163440e+00 1.168092e+00 4.670160e-01 5.041133e-01 3.958641e+00 4.873232e+00 1.448470e+00 2.718805e+00 1.313933e+00 2.412169e+00 2.331189e+00 1.091706e+00 1.284642e+00 3.452217e-01 1.340479e-01 9.752983e-02 1.217936e-01 2.840603e-01 1.430156e-01 2.048585e-01 2.055215e-01 2.946527e-01 2.579435e-01 1.431911e-01 1.287587e-01 3.470614e-01 3.688208e-02
<GCONST> 8.147001e+01
<STATE> 3
<MEAN> 39
 -1.282610e+01 3.882707e+00 4.500277e+00 -7.375617e+00 2.123786e+00 -6.676368e+00 1.160330e+00 -9.302074e-01 5.345581e+00 -3.423071e+00 -7.534109e-01 -2.805201e+00 6.987224e+01 4.825343e-01 8.532336e-01 6.365756e-01 6.853539e-01 1.608480e-03 -8.738236e-01 -4.010710e-01 -1.596213e-01 -1.987305e-01 8.076535e-01 8.361790e-02 -6.238819e-02 -2.170909e-01 2.519984e-01 1.136477e-01 3.864313e-02 1.606555e-01 8.303163e-02 2.161938e-01 -1.973065e-01 -1.489875e-01 -2.960470e-01 -2.694971e-01 -5.208428e-02 3.196987e-02 2.071669e-02
<VARIANCE> 39
 3.720911e+01 1.576138e+01 2.997602e+01 5.177720e+01 1.269220e+01 3.035179e+01 3.389110e+01 2.007142e+01 4.187526e+01 2.143828e+01 9.288093e+00 8.300651e+00 3.079123e+00 3.493919e+00 2.969724e+00 1.463019e+00 5.494536e+00 1.107003e+00 2.226346e+00 3.559846e+00 2.883505e+00 4.864018e+00 3.867856e+00 1.133376e+00 3.932506e-01 6.494840e-01 3.301447e-01 3.480553e-01 2.761279e-01 6.747181e-01 1.215684e-01 5.151201e-01 8.294441e-01 6.181292e-01 9.696096e-01 6.447122e-01 1.732278e-01 1.255434e-01 4.993625e-02
<GCONST> 1.049162e+02
<STATE> 4
<MEAN> 39
 -4.970848e+00 1.123337e+01 4.252208e+00 1.765753e+00 4.478521e+00 -5.404610e+00 -2.481531e+00 -4.555762e+00 5.086326e+00 -6.026533e+00 -1.319138e+00 -4.609714e+00 6.848380e+01 -8.450664e-03 -1.532715e-01 -2.463677e-01 -2.196303e-01 -1.810853e-01 1.959895e-01 2.969963e-01 1.060177e-01 1.585371e-01 2.146854e-02 -1.897213e-01 -2.767532e-01 2.030944e-03 -5.333023e-02 -2.360492e-01 -6.520147e-02 -8.358482e-02 8.946253e-02 1.030139e-01 1.147068e-01 1.926595e-01 -8.235070e-02 -1.188575e-01 -2.325220e-03 1.322417e-02 7.512026e-02
<VARIANCE> 39
 5.288060e+00 6.849141e+00 1.605755e+01 1.282794e+01 2.667025e+01 4.115751e+01 2.281539e+01 1.615764e+01 5.902353e+00 3.940999e+01 1.347891e+01 1.988782e+01 2.977355e+00 2.802401e-01 6.373338e-01 1.281478e+00 5.805314e-01 1.088086e+00 3.771828e+00 3.248925e+00 1.968975e+00 1.127160e+00 2.409410e+00 1.862227e+00 2.051297e+00 2.750514e-01 5.617834e-02 1.216102e-01 2.101124e-01 1.009122e-01 2.152412e-01 5.349672e-01 5.390903e-01 3.361252e-01 2.543880e-01 4.630286e-01 4.439967e-01 4.542251e-01 3.727410e-02
<GCONST> 8.819611e+01
<TRANSP> 5
 0.000000e+00 1.000000e+00 0.000000e+00 0.000000e+00 0.000000e+00
 0.000000e+00 7.690423e-01 2.309577e-01 0.000000e+00 0.000000e+00
 0.000000e+00 0.000000e+00 8.235325e-01 1.764676e-01 0.000000e+00
 0.000000e+00 0.000000e+00 0.000000e+00 9.316470e-01 6.835300e-02
 0.000000e+00 0.000000e+00 0.000000e+00 0.000000e+00 0.000000e+00
<ENDHMM>
~h "w"
<BEGINHMM>
<NUMSTATES> 5
<STATE> 2
<MEAN> 39
 -1.157672e+01 1.375373e+00 4.964604e+00 -3.862655e-01 4.357503e+00 -2.001834e+00 6.377238e+00 -3.025002e-01 -4.589910e-01 -9.289372e+00 -1.668888e+00 -4.615702e+00 7.247729e+01 4.445117e-01 4.552092e-01 2.794831e-01 2.659980e-01 -1.343559e-01 -6.988832e-01 -3.442709e-01 7.347517e-02 1.712770e-01 -1.383000e-01 -4.406843e-01 -4.180949e-01 3.522081e-01 -2.194862e-02 1.021032e-02 -8.702283e-02 -7.410508e-02 -6.043608e-02 -1.352679e-01 -2.236907e-01 7.116220e-03 2.453327e-01 1.326391e-01 1.222575e-01 2.514549e-02 -6.379223e-03
<VARIANCE> 39
 4.717335e+01 5.035075e+01 6.790208e+01 2.046289e+01 2.809829e+01 2.352164e+01 4.688899e+01 1.953972e+01 3.431875e+01 3.421786e+01 1.690424e+01 2.103692e+01 2.226621e+01 4.373453e+00 3.321964e+00 3.032171e+00 1.360222e+00 2.036293e+00 2.711696e+00 3.201096e+00 1.824482e+00 3.512601e+00 3.271806e+00 1.554068e+00 2.457404e+00 1.472740e+00 4.103961e-01 3.867125e-01 4.330605e-01 2.582380e-01 3.003848e-01 3.540349e-01 4.161651e-01 3.211139e-01 5.140790e-01 5.754895e-01 2.967823e-01 3.730310e-01 2.115886e-01
<GCONST> 1.145243e+02
<STATE> 3
<MEAN> 39
 -9.838324e+00 3.416961e+00 2.880846e+00 -1.019127e+00 4.185995e+00 -3.966496e+00 1.092983e+00 -5.428911e-01 4.087106e+00 -8.470716e+00 -2.508473e+00 -5.087377e+00 7.227351e+01 1.209669e-01 2.709960e-01 -1.969436e-02 -2.251592e-01 -1.131562e-01 -1.290396e-01 -5.124484e-01 -1.932364e-01 5.018401e-01 2.831538e-01 1.554242e-01 -2.178997e-01 -3.439529e-02 -2.445383e-02 -1.541425e-02 -2.427857e-02 1.128088e-02 9.726560e-02 1.567730e-01 1.043016e-01 -1.405106e-01 -2.170314e-01 5.498648e-02 2.321442e-01 3.285820e-02 -1.136515e-01
<VARIANCE> 39
 4.737476e+01 6.946829e+01 2.262833e+01 3.583202e+01 4.075055e+01 4.521615e+01 2.351409e+01 2.715427e+01 2.902155e+01 2.624455e+01 2.099715e+01 3.335244e+01 1.560241e+01 2.563160e+00 2.700980e+00 1.958428e+00 3.066533e+00 1.634210e+00 3.909202e+00 3.604197e+00 3.013431e+00 3.013704e+00 2.452960e+00 1.181913e+00 1.778486e+00 9.897801e-01 3.768460e-01 3.903711e-01 3.635931e-01 4.191965e-01 2.648965e-01 5.485607e-01 4.716758e-01 5.771797e-01 4.123044e-01 3.791914e-01 2.926019e-01 4.339132e-01 1.213772e-01
<GCONST> 1.140310e+02
<STATE> 4
<MEAN> 39
 -6.481413e+00 7.967282e+00 2.433511e+00 -1.954552e+00 2.035996e+00 -6.969264e+00 -1.319659e+00 -2.019426e+00 5.307727e+00 -5.452105e+00 -1.454360e+00 -8.047826e+00 7.082978e+01 -1.700758e-01 -1.537467e-01 -7.848611e-02 -1.213576e-01 1.174128e-01 2.074571e-01 8.097760e-02 -2.856599e-02 -1.544125e-01 -6.561116e-02 1.910024e-01 1.939274e-01 1.566802e-02 -8.955387e-02 -1.555200e-01 -2.586602e-02 -1.016445e-02 9.100833e-02 1.442581e-01 1.160732e-01 -2.059021e-03 -1.684417e-01 -9.278379e-02 -1.087492e-03 8.307577e-02 3.800825e-02
<VARIANCE> 39
 2.200940e+01 2.324966e+01 1.669815e+01 2.395485e+01 2.003232e+01 2.614981e+01 1.725339e+01 2.313846e+01 1.730076e+01 3.023499e+01 1.628998e+01 2.113556e+01 7.979997e+00 1.079555e+00 1.445486e+00 1.031025e+00 1.388339e+00 1.389922e+00 1.687012e+00 1.893012e+00 2.045234e+00 1.603177e+00 2.012001e+00 1.136071e+00 1.315344e+00 4.506105e-01 1.214454e-01 1.853378e-01 1.729194e-01 1.870618e-01 1.979827e-01 2.768624e-01 2.804436e-01 3.482978e-01 2.617678e-01 3.310730e-01 1.968256e-01 2.429063e-01 5.209395e-02
<GCONST> 9.322458e+01
<TRANSP> 5
 0.000000e+00 1.000000e+00 0.000000e+00 0.000000e+00 0.000000e+00
 0.000000e+00 6.353921e-01 3.646079e-01 0.000000e+00 0.000000e+00
 0.000000e+00 0.000000e+00 4.816951e-01 5.183049e-01 0.000000e+00
 0.000000e+00 0.000000e+00 0.000000e+00 8.554113e-01 1.445887e-01
 0.000000e+00 0.000000e+00 0.000000e+00 0.000000e+00 0.000000e+00
<ENDHMM>
~h "y"
<BEGINHMM>
<NUMSTATES> 5
<STATE> 2
<MEAN> 39
