~o
<STREAMINFO> 1 39
<VECSIZE> 39<NULLD><MFCC_D_A_0><DIAGC>
~s "silst"
<MEAN> 39
 -1.658479e+01 -8.206234e-01 -1.469382e+00 -4.395643e+00 2.154541e+00 9.058207e-01 7.145414e+00 8.848141e-01 5.610489e+00 -4.064500e+00 2.420526e+00 -8.290650e-01 6.891460e+01 -5.709385e-02 -6.404461e-02 -5.484136e-02 -9.002735e-02 -6.066964e-02 -3.330130e-02 6.803618e-02 1.051586e-01 8.183520e-02 7.484389e-02 8.162820e-02 8.960208e-02 -4.353579e-02 8.311567e-02 3.099865e-02 1.128913e-02 4.190420e-02 3.541386e-02 9.994577e-03 -2.560490e-02 -3.665172e-02 -7.288613e-02 -3.906636e-02 7.141063e-03 -5.837468e-02 -5.866135e-03
<VARIANCE> 39
 3.003376e+01 3.006638e+01 3.527715e+01 1.912994e+01 1.554689e+01 2.045663e+01 1.463172e+01 1.970136e+01 3.288198e+01 2.522712e+01 1.578938e+01 1.927683e+01 1.766450e+01 1.618324e+00 1.196679e+00 1.166230e+00 1.066272e+00 1.073992e+00 1.427373e+00 1.142403e+00 1.264968e+00 1.744292e+00 1.472526e+00 1.325394e+00 1.454809e+00 7.233775e-01 2.616630e-01 1.993317e-01 1.936467e-01 1.767736e-01 1.826431e-01 2.697523e-01 2.218662e-01 2.407367e-01 3.302954e-01 2.745440e-01 2.600252e-01 2.875385e-01 1.286265e-01
<GCONST> 9.537158e+01
~h "A"
<BEGINHMM>
<NUMSTATES> 5
<STATE> 2
<MEAN> 39
 -9.322947e+00 1.519068e+00 1.288514e+00 -9.403080e-01 5.093699e+00 5.722042e-01 3.960661e+00 -2.586226e+00 -1.845579e+00 -9.767085e+00 7.345862e-01 -3.370869e+00 7.272950e+01 5.360194e-01 -3.180469e-02 6.877801e-02 8.596603e-02 -6.079510e-02 -2.980183e-01 -1.970796e-01 -2.601943e-01 -6.948218e-01 -5.793644e-01 9.359943e-02 1.710277e-01 5.051132e-01 -6.792239e-02 -7.471788e-02 -6.249388e-02 -2.561622e-02 -3.742528e-02 -9.972003e-02 -1.000904e-02 -5.025733e-02 7.385034e-02 8.669242e-02 6.873468e-02 5.024242e-02 -2.414310e-02
<VARIANCE> 39
 2.522805e+01 2.440347e+01 1.997538e+01 2.358106e+01 3.585535e+01 3.437361e+01 2.263576e+01 2.270478e+01 4.393299e+01 3.874170e+01 2.273791e+01 2.658184e+01 3.385214e+01 2.359026e+00 2.705923e+00 1.571797e+00 2.038517e+00 2.126396e+00 2.774222e+00 1.947065e+00 1.963151e+00 3.288731e+00 2.919577e+00 1.907554e+00 2.272851e+00 1.398689e+00 3.067025e-01 3.584736e-01 2.629882e-01 3.092336e-01 2.897940e-01 4.720860e-01 3.184465e-01 3.288462e-01 5.231520e-01 5.265024e-01 2.937717e-01 3.777878e-01 2.055774e-01
<GCONST> 1.111453e+02
<STATE> 3
<MEAN> 39
 -7.310219e+00 8.059673e-01 6.447435e-01 -1.140223e+00 4.536296e+00 -9.927558e-01 2.993183e+00 -2.891164e+00 -3.482401e+00 -1.110663e+01 1.511882e+00 -2.768319e+00 7.401054e+01 1.052835e-01 -7.448759e-02 -2.416856e-01 -9.273241e-02 -3.080334e-01 -3.856828e-01 -1.075823e-02 -2.050560e-01 -6.589101e-02 1.028381e-01 2.589056e-01 3.514745e-01 3.577566e-02 -1.740470e-01 8.000590e-02 -3.660697e-03 3.373887e-02 6.403377e-02 1.534277e-01 8.653657e-02 1.879733e-02 2.750854e-01 1.898493e-01 -9.066272e-02 -1.226733e-01 -2.027611e-01
<VARIANCE> 39
 1.994360e+01 2.100075e+01 1.874248e+01 2.867297e+01 3.877007e+01 3.665665e+01 2.641300e+01 2.280503e+01 4.796980e+01 4.324523e+01 2.562897e+01 2.985795e+01 4.325560e+01 6.318185e-01 1.337865e+00 1.130510e+00 1.298589e+00 1.456555e+00 1.634580e+00 1.627331e+00 1.306118e+00 2.213292e+00 1.671110e+00 1.522754e+00 1.400280e+00 7.384648e-01 1.723406e-01 2.573969e-01 1.860440e-01 2.423310e-01 2.749783e-01 3.434423e-01 2.893569e-01 2.252075e-01 4.151133e-01 4.148048e-01 2.825138e-01 3.425917e-01 1.322163e-01
<GCONST> 1.018826e+02
<STATE> 4
<MEAN> 39
 -5.883613e+00 -4.613514e-01 -3.620325e-01 -1.472798e+00 3.001439e+00 -2.437685e+00 3.221547e+00 -4.097728e+00 -5.370626e+00 -1.083046e+01 3.513909e+00 -2.015224e+00 7.531248e+01 -7.806288e-02 2.931375e-01 -2.302616e-02 1.484559e-01 1.159892e-01 1.165636e-01 4.299181e-02 -1.177158e-01 2.145760e-01 8.404236e-02 -1.180579e-01 -9.952397e-02 -3.380947e-01 -6.778566e-02 1.099592e-01 3.927669e-02 6.459405e-02 9.908804e-02 1.255651e-01 1.788455e-02 3.299381e-02 1.205754e-01 5.023428e-02 -1.136777e-01 -8.820548e-02 -1.140976e-01
<VARIANCE> 39
 1.412856e+01 1.953489e+01 1.820757e+01 2.409430e+01 3.659047e+01 2.783247e+01 2.563102e+01 2.652193e+01 4.074221e+01 3.368319e+01 2.746434e+01 3.220238e+01 2.308217e+01 3.484547e-01 1.030436e+00 8.390488e-01 9.648944e-01 1.151275e+00 1.273778e+00 1.235180e+00 1.027829e+00 1.425036e+00 1.410904e+00 1.183954e+00 1.234055e+00 5.568025e-01 5.640610e-02 1.487070e-01 1.301598e-01 1.447453e-01 1.697536e-01 2.110185e-01 2.073170e-01 1.829114e-01 2.513002e-01 2.490865e-01 1.950496e-01 2.217662e-01 7.230044e-02
<GCONST> 8.996272e+01
<TRANSP> 5
 0.000000e+00 1.000000e+00 0.000000e+00 0.000000e+00 0.000000e+00
 0.000000e+00 5.071496e-01 4.928504e-01 0.000000e+00 0.000000e+00
 0.000000e+00 0.000000e+00 1.121115e-01 8.878884e-01 0.000000e+00
 0.000000e+00 0.000000e+00 0.000000e+00 7.411613e-01 2.588387e-01
 0.000000e+00 0.000000e+00 0.000000e+00 0.000000e+00 0.000000e+00
<ENDHMM>
~h "D"
<BEGINHMM>
<NUMSTATES> 5
<STATE> 2
<MEAN> 39
 -1.046263e+01 1.192893e+00 6.305027e-01 -4.821957e-01 5.510118e+00 3.635251e-01 3.368382e+00 -2.087046e+00 1.058523e+00 -7.760965e+00 1.078395e+00 -3.910955e+00 7.106615e+01 -8.002754e-04 2.112335e-03 2.165078e-03 -1.564994e-03 -4.300685e-04 -6.324079e-04 -1.138046e-03 -8.787271e-04 1.271468e-03 1.846282e-03 -1.804322e-04 -1.278623e-03 8.343531e-04 -4.475967e-05 -7.284283e-05 6.230097e-05 -2.442853e-04 -2.338257e-04 -5.949535e-05 4.124621e-05 -3.071028e-04 -1.978394e-04 -1.140548e-04 -8.069598e-05 -8.477430e-05 4.232170e-05
<VARIANCE> 39
 3.765159e+01 3.402439e+01 3.148469e+01 4.143038e+01 4.410116e+01 3.300908e+01 3.624625e+01 2.761554e+01 4.947715e+01 4.012057e+01 2.551658e+01 3.113912e+01 4.344355e+01 1.430533e+00 1.639362e+00 1.207966e+00 1.426063e+00 1.597724e+00 1.687130e+00 1.852222e+00 1.504564e+00 2.150095e+00 1.829018e+00 1.449835e+00 1.662362e+00 8.789857e-01 2.020932e-01 2.530756e-01 1.999116e-01 2.097155e-01 2.506926e-01 2.923805e-01 3.142056e-01 2.754931e-01 3.601594e-01 3.260430e-01 2.625300e-01 2.975152e-01 1.394317e-01
<GCONST> 1.059066e+02
<STATE> 3
<MEAN> 39
 -1.046263e+01 1.192893e+00 6.305027e-01 -4.821957e-01 5.510118e+00 3.635251e-01 3.368382e+00 -2.087046e+00 1.058523e+00 -7.760965e+00 1.078395e+00 -3.910955e+00 7.106615e+01 -8.002754e-04 2.112335e-03 2.165078e-03 -1.564994e-03 -4.300685e-04 -6.324079e-04 -1.138046e-03 -8.787271e-04 1.271468e-03 1.846282e-03 -1.804322e-04 -1.278623e-03 8.343531e-04 -4.475967e-05 -7.284283e-05 6.230097e-05 -2.442853e-04 -2.338257e-04 -5.949535e-05 4.124621e-05 -3.071028e-04 -1.978394e-04 -1.140548e-04 -8.069598e-05 -8.477430e-05 4.232170e-05
<VARIANCE> 39
 3.765159e+01 3.402439e+01 3.148469e+01 4.143038e+01 4.410116e+01 3.300908e+01 3.624625e+01 2.761554e+01 4.947715e+01 4.012057e+01 2.551658e+01 3.113912e+01 4.344355e+01 1.430533e+00 1.639362e+00 1.207966e+00 1.426063e+00 1.597724e+00 1.687130e+00 1.852222e+00 1.504564e+00 2.150095e+00 1.829018e+00 1.449835e+00 1.662362e+00 8.789857e-01 2.020932e-01 2.530756e-01 1.999116e-01 2.097155e-01 2.506926e-01 2.923805e-01 3.142056e-01 2.754931e-01 3.601594e-01 3.260430e-01 2.625300e-01 2.975152e-01 1.394317e-01
<GCONST> 1.059066e+02
<STATE> 4
<MEAN> 39
 -1.046263e+01 1.192893e+00 6.305027e-01 -4.821957e-01 5.510118e+00 3.635251e-01 3.368382e+00 -2.087046e+00 1.058523e+00 -7.760965e+00 1.078395e+00 -3.910955e+00 7.106615e+01 -8.002754e-04 2.112335e-03 2.165078e-03 -1.564994e-03 -4.300685e-04 -6.324079e-04 -1.138046e-03 -8.787271e-04 1.271468e-03 1.846282e-03 -1.804322e-04 -1.278623e-03 8.343531e-04 -4.475967e-05 -7.284283e-05 6.230097e-05 -2.442853e-04 -2.338257e-04 -5.949535e-05 4.124621e-05 -3.071028e-04 -1.978394e-04 -1.140548e-04 -8.069598e-05 -8.477430e-05 4.232170e-05
<VARIANCE> 39
 3.765159e+01 3.402439e+01 3.148469e+01 4.143038e+01 4.410116e+01 3.300908e+01 3.624625e+01 2.761554e+01 4.947715e+01 4.012057e+01 2.551658e+01 3.113912e+01 4.344355e+01 1.430533e+00 1.639362e+00 1.207966e+00 1.426063e+00 1.597724e+00 1.687130e+00 1.852222e+00 1.504564e+00 2.150095e+00 1.829018e+00 1.449835e+00 1.662362e+00 8.789857e-01 2.020932e-01 2.530756e-01 1.999116e-01 2.097155e-01 2.506926e-01 2.923805e-01 3.142056e-01 2.754931e-01 3.601594e-01 3.260430e-01 2.625300e-01 2.975152e-01 1.394317e-01
<GCONST> 1.059066e+02
<TRANSP> 5
 0.000000e+00 1.000000e+00 0.000000e+00 0.000000e+00 0.000000e+00
 0.000000e+00 6.000000e-01 4.000000e-01 0.000000e+00 0.000000e+00
 0.000000e+00 0.000000e+00 6.000000e-01 4.000000e-01 0.000000e+00
 0.000000e+00 0.000000e+00 0.000000e+00 7.000000e-01 3.000000e-01
 0.000000e+00 0.000000e+00 0.000000e+00 0.000000e+00 0.000000e+00
<ENDHMM>
~h "E"
<BEGINHMM>
<NUMSTATES> 5
<STATE> 2
<MEAN> 39
 -5.480076e+00 -4.695741e-01 -4.408356e+00 -2.474971e+00 1.146826e+00 -4.533348e+00 7.523919e+00 -1.875234e-01 -2.902607e+00 -9.233274e+00 4.894871e+00 -9.640829e-01 7.610059e+01 3.359676e-01 -2.041568e-01 -8.741737e-01 -5.513815e-01 -1.073962e+00 -8.037077e-01 4.625890e-01 3.184370e-01 5.384703e-01 7.944301e-01 4.834111e-01 -3.162643e-01 1.023008e-01 -1.060976e-01 5.435097e-02 2.169854e-01 -3.343895e-02 1.743802e-01 2.280240e-01 -5.663264e-04 6.420205e-02 1.943403e-02 1.458243e-02 -5.536902e-02 -8.628108e-02 -1.066807e-01
<VARIANCE> 39
 1.536809e+01 1.397306e+01 1.194820e+01 1.329157e+01 2.420599e+01 2.017664e+01 1.546963e+01 1.834666e+01 4.908097e+01 1.493835e+01 2.012271e+01 2.190965e+01 5.078528e+00 3.611215e-01 4.725346e-01 7.123452e-01 7.835477e-01 1.107010e+00 1.097705e+00 1.314944e+00 9.487819e-01 9.093060e-01 1.340908e+00 1.141884e+00 1.274379e+00 2.588687e-01 6.677432e-02 1.308177e-01 1.314586e-01 1.138298e-01 2.056321e-01 2.093057e-01 1.915870e-01 1.748941e-01 1.981146e-01 2.038871e-01 1.469436e-01 2.566194e-01 7.001689e-02
<GCONST> 8.092169e+01
<STATE> 3
<MEAN> 39
 -5.042241e+00 -7.409776e-01 -5.233153e+00 -4.463028e+00 -3.012464e+00 -5.942268e+00 1.104496e+01 2.509402e+00 1.156422e+00 -6.404676e+00 6.829286e+00 -3.398507e+00 7.677859e+01 -4.518055e-02 7.773115e-02 3.430101e-01 -1.838095e-01 2.123367e-01 3.550384e-01 4.189449e-02 -2.738266e-01 -1.905664e-01 -1.613492e-01 1.803022e-01 1.098905e-01 4.851071e-02 -3.011341e-02 1.125562e-01 1.437762e-01 6.628250e-02 1.987861e-01 1.197995e-01 -1.972957e-01 -1.783710e-01 -7.562778e-02 -1.650396e-01 -9.820127e-02 6.029639e-02 -5.154582e-02
<VARIANCE> 39
 1.373634e+01 1.035320e+01 9.834216e+00 6.421831e+00 1.766513e+01 2.157064e+01 2.593311e+01 1.974090e+01 3.976515e+01 1.270422e+01 1.638179e+01 1.399830e+01 6.626561e+00 2.550341e-01 4.498121e-01 4.617115e-01 5.409703e-01 7.522785e-01 7.801140e-01 1.425519e+00 1.269238e+00 9.104542e-01 9.120787e-01 7.384422e-01 1.185067e+00 9.884416e-02 2.888033e-02 7.913673e-02 8.326590e-02 1.021695e-01 1.057743e-01 1.348635e-01 1.961523e-01 1.700151e-01 1.438059e-01 1.713630e-01 1.586858e-01 1.806927e-01 2.192263e-02
<GCONST> 7.081247e+01
<STATE> 4
<MEAN> 39
 -5.652777e+00 4.129757e+00 -2.501961e+00 -4.428216e+00 1.392304e+00 -2.757558e+00 6.949320e+00 -1.959813e+00 -1.578808e+00 -8.233888e+00 4.378834e+00 -4.268500e+00 7.312208e+01 -2.688944e-01 5.381238e-01 6.460392e-01 2.715542e-01 6.862160e-01 5.795544e-01 -6.540114e-01 -2.805495e-01 7.042912e-02 -2.026420e-01 -6.592801e-01 -1.424410e-01 -5.053017e-01 -3.347941e-02 -5.745284e-02 4.167352e-03 2.232367e-02 -5.378404e-02 -3.246228e-02 -3.007513e-02 4.548212e-02 8.622351e-02 3.112641e-02 -1.291414e-01 2.323405e-02 -1.059102e-02
<VARIANCE> 39
 2.047323e+01 2.186647e+01 1.157068e+01 2.124643e+01 2.323162e+01 2.140096e+01 2.538669e+01 1.810875e+01 3.013921e+01 1.974609e+01 2.520658e+01 3.383931e+01 1.398060e+01 3.204865e-01 1.238925e+00 9.902082e-01 1.552147e+00 1.692342e+00 1.538535e+00 1.325411e+00 1.314153e+00 1.860309e+00 1.475893e+00 1.770307e+00 1.249434e+00 7.650328e-01 3.894188e-02 1.581145e-01 1.306172e-01 1.824033e-01 2.043552e-01 2.221706e-01 2.010937e-01 2.603507e-01 2.703632e-01 2.611921e-01 2.796520e-01 2.632412e-01 1.152636e-01
<GCONST> 9.166571e+01
<TRANSP> 5
 0.000000e+00 1.000000e+00 0.000000e+00 0.000000e+00 0.000000e+00
 0.000000e+00 7.508167e-01 2.491834e-01 0.000000e+00 0.000000e+00
 0.000000e+00 0.000000e+00 8.506759e-01 1.493240e-01 0.000000e+00
 0.000000e+00 0.000000e+00 0.000000e+00 7.214290e-01 2.785710e-01
 0.000000e+00 0.000000e+00 0.000000e+00 0.000000e+00 0.000000e+00
<ENDHMM>
~h "H"
<BEGINHMM>
<NUMSTATES> 5
<STATE> 2
<MEAN> 39
 -5.692564e+00 2.699159e+00 -8.517271e-01 -5.143717e+00 2.216803e+00 -2.686491e+00 5.834822e+00 -3.243738e+00 -3.081558e+00 -7.237791e+00 2.682844e+00 -3.412641e+00 7.475107e+01 -8.945587e-02 -1.290932e+00 -9.273052e-01 -7.347016e-01 -6.790398e-01 2.159870e-01 1.324406e+00 1.726335e-01 -6.684727e-03 1.064825e+00 1.391971e+00 9.293425e-01 4.045005e-01 -2.696401e-01 -1.724142e-01 -1.328081e-01 3.070085e-01 3.398643e-01 2.522492e-01 -1.227851e-01 7.092283e-02 2.578553e-01 -5.696021e-02 2.852287e-02 1.285513e-01 -2.113785e-01
<VARIANCE> 39
 7.769716e+00 2.617203e+01 1.824821e+01 1.704401e+01 2.028127e+01 2.668060e+01 4.209496e+01 1.969694e+01 6.280751e+01 2.409090e+01 3.249698e+01 1.308627e+01 1.330741e+01 6.556281e-01 1.358701e+00 1.098647e+00 1.813060e+00 1.342420e+00 2.033958e+00 3.359016e+00 1.266252e+00 3.404494e+00 1.760213e+00 1.289745e+00 1.622595e+00 8.620422e-01 1.702446e-01 1.728136e-01 2.698768e-01 3.019058e-01 2.345563e-01 3.401719e-01 9.462345e-01 2.264135e-01 5.795766e-01 5.341470e-01 2.691149e-01 3.036334e-01 1.193503e-01
<GCONST> 1.012099e+02
<STATE> 3
<MEAN> 39
 -8.270449e+00 -3.841987e+00 -5.220212e+00 -5.514058e+00 4.419029e+00 -5.826700e-01 6.488719e+00 -1.975394e+00 -2.190878e+00 -6.008063e+00 7.840467e+00 1.042036e+00 7.485868e+01 -5.301906e-01 -1.360822e+00 -1.242338e+00 -2.552169e-02 4.221227e-01 3.016047e-01 -8.423178e-01 4.344527e-02 1.967131e-01 -3.652769e-01 2.261876e-01 6.849482e-01 -1.824252e-01 -3.296385e-03 9.641746e-02 6.452722e-02 -1.172526e-02 -4.272160e-02 -3.052255e-02 -2.067765e-01 -1.722101e-01 -1.292292e-01 -1.735013e-01 -2.476867e-01 -1.003085e-01 -2.706887e-02
<VARIANCE> 39
 1.122827e+01 2.806164e+01 1.920177e+01 9.999866e+00 1.675271e+01 2.031617e+01 2.314513e+01 2.867958e+01 4.402021e+01 2.465542e+01 1.592891e+01 1.294891e+01 5.955247e+00 5.264200e-01 1.329910e+00 8.423910e-01 6.967757e-01 1.034443e+00 1.805218e+00 2.763319e+00 8.786857e-01 1.852906e+00 1.942523e+00 1.774904e+00 7.718579e-01 2.455171e-01 5.265523e-02 1.705276e-01 1.328804e-01 1.329548e-01 1.610922e-01 2.703011e-01 5.818285e-01 1.872931e-01 2.139098e-01 3.304661e-01 3.031174e-01 1.284368e-01 4.002414e-02
<GCONST> 8.671886e+01
<STATE> 4
<MEAN> 39
 -1.084838e+01 -6.042315e+00 -8.753723e+00 -6.296736e+00 3.190002e+00 5.050406e-02 5.659366e+00 -1.871983e+00 1.089973e+00 -5.663501e+00 7.681219e+00 9.838029e-01 7.155170e+01 -2.018346e-01 4.008406e-01 1.920545e-01 1.343264e-01 -7.616179e-02 1.219225e-01 8.638331e-02 -5.953536e-02 3.270795e-01 3.451555e-01 -2.104261e-01 -1.576326e-01 -4.837055e-01 2.342045e-02 1.674169e-01 1.711979e-01 6.810944e-02 2.429712e-02 -1.433366e-02 8.242583e-02 2.869863e-02 3.001329e-02 2.902658e-02 -6.881957e-02 -1.183647e-01 3.625293e-02
<VARIANCE> 39
 5.767449e+00 3.601927e+01 1.568650e+01 9.118685e+00 1.188019e+01 1.840088e+01 3.549198e+01 1.610205e+01 2.258752e+01 2.363519e+01 1.967397e+01 1.754820e+01 1.447902e+01 4.431444e-01 2.059250e+00 1.418135e+00 8.525836e-01 8.016959e-01 1.521165e+00 1.713230e+00 1.156593e+00 1.644087e+00 1.572261e+00 1.519529e+00 1.286825e+00 5.762832e-01 9.330254e-02 2.519743e-01 2.064270e-01 1.765348e-01 1.696812e-01 2.936783e-01 3.284218e-01 1.770378e-01 2.641835e-01 3.137188e-01 2.676860e-01 2.342748e-01 1.020666e-01
<GCONST> 9.011098e+01
<TRANSP> 5
 0.000000e+00 1.000000e+00 0.000000e+00 0.000000e+00 0.000000e+00
 0.000000e+00 6.748353e-01 3.251647e-01 0.000000e+00 0.000000e+00
 0.000000e+00 0.000000e+00 7.600695e-01 2.399305e-01 0.000000e+00
 0.000000e+00 0.000000e+00 0.000000e+00 9.005195e-01 9.948052e-02
 0.000000e+00 0.000000e+00 0.000000e+00 0.000000e+00 0.000000e+00
<ENDHMM>
~h "K"
<BEGINHMM>
<NUMSTATES> 5
<STATE> 2
<MEAN> 39
 -7.295445e+00 3.573438e+00 2.734213e+00 4.376431e+00 9.740098e+00 4.517251e+00 3.947979e+00 -3.527117e+00 -4.457828e+00 -1.482176e+01 -1.523094e+00 -2.881042e+00 7.125007e+01 -1.139139e-01 -5.697093e-02 -8.431103e-02 -3.035591e-01 -2.076782e-01 -2.318768e-01 2.588558e-01 3.570434e-01 7.302906e-02 -1.369915e-01 -2.528096e-02 3.010435e-01 3.623518e-02 -2.205946e-01 -1.814900e-01 1.040344e-02 -1.564059e-01 -1.947936e-01 -3.042456e-07 8.891771e-02 1.237891e-02 1.660193e-01 2.825657e-01 1.600294e-01 -8.363789e-02 6.850859e-02
<VARIANCE> 39
 3.936730e+00 1.221866e+01 4.528003e+00 6.151844e+00 3.920517e+00 4.798070e+00 1.281096e+01 7.419373e+00 8.439923e+00 2.251528e+01 2.609869e+01 3.630699e+01 8.613375e+00 8.153023e-01 5.899667e-01 2.464384e-01 4.769818e-01 8.152080e-01 7.111471e-01 5.106209e-01 7.031558e-01 1.453794e+00 2.891423e+00 9.843029e-01 9.534955e-01 3.809872e-01 2.355247e-01 1.166185e-01 4.253027e-02 1.026898e-01 1.884190e-01 1.254344e-01 2.094570e-01 1.700745e-01 1.969880e-01 6.740230e-01 1.784646e-01 2.542730e-01 7.223116e-02
<GCONST> 7.273808e+01
<STATE> 3
<MEAN> 39
 -9.983911e+00 -2.942643e-01 2.931210e+00 -2.630323e+00 6.013804e+00 1.290372e+00 5.107815e+00 -1.239388e+00 -3.635431e+00 -1.012364e+01 2.981048e+00 -9.636602e-01 7.553589e+01 -1.269280e+00 -3.391512e-01 3.862700e-02 -1.377750e+00 -6.873927e-01 2.297705e-01 7.168328e-01 8.734515e-01 6.959732e-01 5.214350e-01 4.186499e-01 1.627214e-01 3.236203e-01 -3.905061e-02 1.542059e-01 -4.857034e-03 1.106544e-01 9.463955e-02 1.835635e-01 -2.230770e-03 -8.441302e-03 1.377911e-01 -9.626967e-02 -2.054236e-01 -2.049213e-01 -2.051820e-01
<VARIANCE> 39
 1.879675e+01 2.776519e+01 5.939009e+00 1.624134e+01 4.870342e+00 1.597303e+01 1.523014e+01 2.554741e+01 3.761251e+01 3.869244e+01 1.923973e+01 5.371558e+00 2.328789e+01 1.497772e+00 2.197886e+00 3.449890e-01 8.743461e-01 1.512869e+00 1.846354e+00 3.100286e+00 8.588063e-01 1.932012e+00 4.200538e+00 1.547443e+00 1.203589e+00 1.044476e+00 2.355359e-01 3.137814e-01 7.508068e-02 1.690177e-01 1.667302e-01 2.277600e-01 4.819812e-01 1.606330e-01 3.113174e-01 7.514170e-01 1.687774e-01 1.240280e-01 9.013855e-02
<GCONST> 9.212254e+01
<STATE> 4
<MEAN> 39
 -1.689145e+01 -1.244174e+00 2.432910e-01 -7.962299e+00 2.665016e+00 -1.041416e-01 7.166915e+00 4.596046e+00 1.021365e+00 -1.203057e+01 1.917599e+00 -1.352618e+00 7.309518e+01 -2.103190e-01 -2.501127e-01 -1.968776e-01 -8.642595e-02 -4.233174e-01 -1.135588e-01 5.022473e-01 5.325757e-01 6.202464e-01 5.343339e-01 1.943868e-01 1.040174e-01 -3.557249e-01 3.273584e-01 3.235064e-01 6.121935e-02 4.606971e-01 2.703466e-01 6.709766e-02 -3.926722e-02 -2.031272e-01 1.173013e-02 3.054340e-01 -1.316205e-02 -4.882262e-02 -2.257778e-01
<VARIANCE> 39
 1.999058e+01 8.697852e+00 8.977077e+00 2.501105e+01 1.479850e+01 4.904002e+01 8.221431e+00 1.463374e+01 2.211296e+01 5.131304e+01 2.233080e+01 9.056734e+00 1.962337e+01 6.895452e-01 1.124634e+00 7.387626e-01 1.611670e+00 1.231717e+00 2.234538e+00 8.383920e-01 1.083683e+00 1.151437e+00 1.929374e+00 1.244029e+00 1.598283e+00 4.689271e-01 1.224385e-01 1.170518e-01 1.544235e-01 1.344804e-01 2.544603e-01 3.504575e-01 3.180526e-01 1.703479e-01 2.248254e-01 3.117999e-01 3.423649e-01 2.502453e-01 1.176945e-01
<GCONST> 8.980509e+01
<TRANSP> 5
 0.000000e+00 1.000000e+00 0.000000e+00 0.000000e+00 0.000000e+00
 0.000000e+00 8.028440e-01 1.971560e-01 0.000000e+00 0.000000e+00
 0.000000e+00 0.000000e+00 6.719194e-01 3.280806e-01 0.000000e+00
 0.000000e+00 0.000000e+00 0.000000e+00 7.028911e-01 2.971089e-01
 0.000000e+00 0.000000e+00 0.000000e+00 0.000000e+00 0.000000e+00
<ENDHMM>
~h "S"
<BEGINHMM>
<NUMSTATES> 5
<STATE> 2
<MEAN> 39
 -9.384645e+00 3.494032e+00 1.576626e+00 -2.741943e+00 9.061771e+00 2.151685e+00 1.175914e+00 7.416782e-01 1.252838e-01 -1.215230e+01 -1.473703e+00 -2.466373e-01 7.355319e+01 4.195732e-02 -7.563519e-02 1.842722e-01 -4.676225e-02 -6.467028e-01 -6.352078e-01 4.502565e-01 2.525380e-01 5.076834e-02 3.727629e-02 -7.075904e-02 2.189329e-01 4.885351e-02 -1.232771e-01 -5.930721e-02 6.179852e-02 2.701995e-03 -2.217078e-02 9.203764e-03 7.722107e-02 -5.524121e-03 5.092875e-03 2.389969e-02 1.130425e-01 3.931586e-02 1.634827e-02
<VARIANCE> 39
 3.927890e+01 2.222997e+01 8.130686e+00 1.847190e+01 4.043519e+01 3.846779e+01 5.229606e+01 2.187660e+01 2.897036e+01 3.633889e+01 2.923168e+01 3.213251e+01 1.439781e+01 2.383478e+00 1.844290e+00 7.477837e-01 2.061956e+00 3.506107e+00 4.617057e+00 3.613692e+00 1.602515e+00 2.476007e+00 2.430855e+00 2.195980e+00 2.134189e+00 1.721306e+00 3.761929e-01 3.002914e-01 1.092508e-01 3.184933e-01 3.763362e-01 8.626752e-01 4.385639e-01 3.135069e-01 4.490341e-01 4.703911e-01 3.548827e-01 3.687038e-01 2.909197e-01
<GCONST> 1.111900e+02
<STATE> 3
<MEAN> 39
 -2.062970e+01 -1.462671e+00 8.862305e+00 -7.246259e+00 3.221197e-01 -1.267578e+00 9.599462e+00 -1.366163e+00 1.073761e+00 -8.355921e+00 -8.154678e-01 -6.708947e-01 7.542512e+01 -2.009355e+00 -8.881999e-01 6.840850e-01 -8.267945e-01 -4.510573e-01 4.656193e-01 -6.960054e-02 -4.422681e-01 1.207784e-01 4.749985e-01 1.891318e-01 1.826164e-01 4.571428e-01 2.552778e-01 4.988132e-02 -1.723180e-01 1.059742e-01 1.871819e-01 2.700584e-02 -2.608870e-01 5.133459e-02 1.840850e-02 6.247106e-02 -5.563173e-02 -1.299160e-01 -5.606253e-02
<VARIANCE> 39
 5.836845e+01 2.389028e+01 1.493082e+01 4.235328e+01 5.852551e+00 4.142914e+01 1.676717e+01 3.775190e+01 3.122672e+01 1.928456e+01 1.010297e+01 1.333389e+01 5.766756e+00 2.647631e+00 7.971928e-01 2.089099e+00 1.710392e+00 1.433339e+00 4.222255e+00 2.468038e+00 2.847912e+00 2.292151e+00 2.007061e+00 1.496858e+00 1.468735e+00 5.702749e-01 4.403825e-01 1.957797e-01 1.846187e-01 4.128430e-01 1.416277e-01 7.074781e-01 2.200414e-01 3.879532e-01 2.671194e-01 3.978296e-01 3.525853e-01 3.112880e-01 1.281129e-01
<GCONST> 1.015946e+02
<STATE> 4
<MEAN> 39
 -2.368127e+01 -5.074512e+00 9.243179e+00 -7.513617e+00 -1.540619e+00 8.177965e-01 9.886762e+00 -4.467234e-01 1.961791e+00 -3.179835e+00 1.329466e+00 -1.469174e+00 7.380627e+01 1.095504e+00 2.013609e-01 -7.834628e-01 8.498382e-01 4.413028e-01 -5.075388e-02 -8.356950e-02 2.208396e-01 3.134342e-01 -1.406073e-01 -8.581192e-02 -4.225698e-01 -5.208183e-01 2.424744e-01 1.642104e-01 -5.490462e-02 8.871689e-02 1.681241e-01 4.778509e-02 -1.040933e-01 -9.766841e-02 -8.790666e-02 -1.319571e-01 -5.285734e-02 -2.638400e-02 -2.232680e-02
<VARIANCE> 39
 3.358815e+01 1.720029e+01 2.618063e+01 3.716930e+01 1.425942e+01 1.313268e+01 1.687462e+01 1.996049e+01 2.729276e+01 2.581922e+01 1.041276e+01 1.413076e+01 1.785163e+01 1.406518e+00 1.864434e+00 1.731253e+00 1.387600e+00 1.137961e+00 1.259564e+00 1.095714e+00 1.341943e+00 2.456907e+00 2.827714e+00 1.149794e+00 1.042092e+00 6.284917e-01 1.581146e-01 3.111677e-01 4.789723e-01 1.259661e-01 1.868924e-01 2.069248e-01 2.382058e-01 2.761180e-01 5.247955e-01 5.334339e-01 2.391724e-01 1.946509e-01 1.016039e-01
<GCONST> 9.622005e+01
<TRANSP> 5
 0.000000e+00 1.000000e+00 0.000000e+00 0.000000e+00 0.000000e+00
 0.000000e+00 9.150661e-01 8.493389e-02 0.000000e+00 0.000000e+00
 0.000000e+00 0.000000e+00 8.449756e-01 1.550244e-01 0.000000e+00
 0.000000e+00 0.000000e+00 0.000000e+00 8.649440e-01 1.350559e-01
 0.000000e+00 0.000000e+00 0.000000e+00 0.000000e+00 0.000000e+00
<ENDHMM>
~h "T"
<BEGINHMM>
<NUMSTATES> 5
<STATE> 2
<MEAN> 39
 -9.192775e+00 5.167931e+00 4.291600e+00 4.101272e+00 7.920076e+00 2.737425e+00 4.849163e+00 -3.088190e+00 1.470148e+00 -6.812642e+00 -7.512060e-01 -7.393447e+00 6.970881e+01 2.002719e-01 7.843839e-02 1.250506e-01 1.748277e-01 -9.529775e-02 1.507890e-01 -1.387830e-01 -2.457313e-01 -8.416905e-02 5.741110e-02 1.708205e-02 -1.816127e-01 1.485219e-01 8.910815e-02 3.443480e-02 5.662251e-02 2.588209e-02 -4.550585e-02 -1.443461e-01 4.399640e-03 1.480118e-02 -6.190326e-02 -3.549593e-02 -7.780859e-02 -3.303975e-02 1.627344e-02
<VARIANCE> 39
 2.559731e+01 5.409834e+01 2.184464e+01 2.830741e+01 2.584406e+01 2.316642e+01 2.725392e+01 4.608232e+01 1.706779e+01 2.598666e+01 1.596690e+01 1.813814e+01 1.622728e+01 2.943418e+00 4.113927e+00 1.718591e+00 1.736378e+00 1.785160e+00 2.027130e+00 2.669326e+00 2.841197e+00 1.811787e+00 1.822360e+00 1.853011e+00 1.725866e+00 1.682764e+00 4.577412e-01 5.394817e-01 3.006572e-01 2.071685e-01 2.051086e-01 3.545533e-01 4.772183e-01 4.967243e-01 3.433138e-01 4.242615e-01 3.895853e-01 2.536429e-01 2.524107e-01
<GCONST> 1.093419e+02
<STATE> 3
<MEAN> 39
 -7.618390e+00 2.694942e+00 4.216739e+00 2.255257e+00 2.598606e+00 -3.053505e+00 4.579142e+00 -1.910625e+00 5.851074e-01 -8.239842e+00 -4.319491e+00 -9.277987e+00 7.349012e+01 6.326310e-01 3.722437e-01 8.243706e-02 -6.112029e-02 -7.147508e-01 -1.603826e+00 -1.977641e-01 7.792972e-01 4.496892e-01 -7.139514e-02 -2.111921e-01 8.804283e-02 7.834166e-02 -1.880850e-01 -1.254318e-01 -1.529556e-01 -1.363342e-01 8.034418e-02 7.247818e-02 -2.080003e-01 -1.058644e-01 2.100143e-02 -1.792285e-02 2.051520e-01 2.032973e-01 1.781929e-02
<VARIANCE> 39
 3.587511e+01 1.662694e+01 1.411837e+01 3.789776e+01 4.579585e+01 4.788211e+01 1.076167e+01 2.437619e+01 1.138616e+01 1.833164e+01 5.787053e+00 2.285251e+01 6.563073e+00 4.141610e+00 2.334984e+00 2.251352e+00 1.606526e+00 1.362277e+00 1.718637e+00 1.427150e+00 6.353357e-01 9.025427e-01 2.193372e+00 1.069423e+00 1.256217e+00 6.430630e-01 4.688043e-01 4.745007e-01 4.415204e-01 2.086373e-01 2.614496e-01 2.581779e-01 1.866123e-01 1.255940e-01 2.509626e-01 2.866463e-01 1.305315e-01 2.753687e-01 1.212796e-01
<GCONST> 9.616025e+01
<STATE> 4
<MEAN> 39
 -3.831301e+00 5.002959e+00 4.408002e+00 1.006206e+00 -3.044646e+00 -1.005608e+01 4.645376e-01 -1.085846e+00 3.164882e+00 -6.821450e+00 -1.443029e+00 -5.059347e+00 7.320538e+01 -2.291656e-01 3.324564e-02 -7.860733e-03 -2.373595e-01 -4.331346e-02 6.184656e-02 -2.315968e-02 -1.235670e-01 3.024907e-02 -2.094327e-02 5.745992e-02 1.032851e-01 -9.965759e-02 -7.026585e-02 -2.993562e-02 7.126601e-04 -1.149826e-02 4.260997e-02 1.051293e-01 3.011851e-02 -2.273535e-02 1.077040e-03 -1.041269e-02 -2.235509e-02 -3.413691e-02 -1.800928e-03
<VARIANCE> 39
 2.018588e+01 3.122980e+01 7.890197e+00 3.106195e+01 2.898150e+01 5.842215e+01 2.907833e+01 2.191629e+01 1.567282e+01 2.393198e+01 1.991511e+01 2.002025e+01 1.246503e+01 1.061595e+00 1.442366e+00 5.392704e-01 1.370714e+00 1.687521e+00 2.018112e+00 1.393940e+00 2.077853e+00 7.591043e-01 1.146093e+00 1.070639e+00 1.012742e+00 4.851249e-01 9.678688e-02 2.082606e-01 7.947257e-02 1.560385e-01 2.034463e-01 2.470669e-01 2.125274e-01 3.292355e-01 1.424186e-01 2.285949e-01 1.673798e-01 2.042391e-01 5.776890e-02
<GCONST> 8.998975e+01
<TRANSP> 5
 0.000000e+00 1.000000e+00 0.000000e+00 0.000000e+00 0.000000e+00
 0.000000e+00 9.402390e-01 5.976108e-02 0.000000e+00 0.000000e+00
 0.000000e+00 0.000000e+00 8.404884e-01 1.595117e-01 0.000000e+00
 0.000000e+00 0.000000e+00 0.000000e+00 9.605142e-01 3.948580e-02
 0.000000e+00 0.000000e+00 0.000000e+00 0.000000e+00 0.000000e+00
<ENDHMM>
~h "Z"
<BEGINHMM>
<NUMSTATES> 5
<STATE> 2
<MEAN> 39
 -1.046263e+01 1.192893e+00 6.305027e-01 -4.821957e-01 5.510118e+00 3.635251e-01 3.368382e+00 -2.087046e+00 1.058523e+00 -7.760965e+00 1.078395e+00 -3.910955e+00 7.106615e+01 -8.002754e-04 2.112335e-03 2.165078e-03 -1.564994e-03 -4.300685e-04 -6.324079e-04 -1.138046e-03 -8.787271e-04 1.271468e-03 1.846282e-03 -1.804322e-04 -1.278623e-03 8.343531e-04 -4.475967e-05 -7.284283e-05 6.230097e-05 -2.442853e-04 -2.338257e-04 -5.949535e-05 4.124621e-05 -3.071028e-04 -1.978394e-04 -1.140548e-04 -8.069598e-05 -8.477430e-05 4.232170e-05
<VARIANCE> 39
 3.765159e+01 3.402439e+01 3.148469e+01 4.143038e+01 4.410116e+01 3.300908e+01 3.624625e+01 2.761554e+01 4.947715e+01 4.012057e+01 2.551658e+01 3.113912e+01 4.344355e+01 1.430533e+00 1.639362e+00 1.207966e+00 1.426063e+00 1.597724e+00 1.687130e+00 1.852222e+00 1.504564e+00 2.150095e+00 1.829018e+00 1.449835e+00 1.662362e+00 8.789857e-01 2.020932e-01 2.530756e-01 1.999116e-01 2.097155e-01 2.506926e-01 2.923805e-01 3.142056e-01 2.754931e-01 3.601594e-01 3.260430e-01 2.625300e-01 2.975152e-01 1.394317e-01
<GCONST> 1.059066e+02
<STATE> 3
<MEAN> 39
 -1.046263e+01 1.192893e+00 6.305027e-01 -4.821957e-01 5.510118e+00 3.635251e-01 3.368382e+00 -2.087046e+00 1.058523e+00 -7.760965e+00 1.078395e+00 -3.910955e+00 7.106615e+01 -8.002754e-04 2.112335e-03 2.165078e-03 -1.564994e-03 -4.300685e-04 -6.324079e-04 -1.138046e-03 -8.787271e-04 1.271468e-03 1.846282e-03 -1.804322e-04 -1.278623e-03 8.343531e-04 -4.475967e-05 -7.284283e-05 6.230097e-05 -2.442853e-04 -2.338257e-04 -5.949535e-05 4.124621e-05 -3.071028e-04 -1.978394e-04 -1.140548e-04 -8.069598e-05 -8.477430e-05 4.232170e-05
<VARIANCE> 39
 3.765159e+01 3.402439e+01 3.148469e+01 4.143038e+01 4.410116e+01 3.300908e+01 3.624625e+01 2.761554e+01 4.947715e+01 4.012057e+01 2.551658e+01 3.113912e+01 4.344355e+01 1.430533e+00 1.639362e+00 1.207966e+00 1.426063e+00 1.597724e+00 1.687130e+00 1.852222e+00 1.504564e+00 2.150095e+00 1.829018e+00 1.449835e+00 1.662362e+00 8.789857e-01 2.020932e-01 2.530756e-01 1.999116e-01 2.097155e-01 2.506926e-01 2.923805e-01 3.142056e-01 2.754931e-01 3.601594e-01 3.260430e-01 2.625300e-01 2.975152e-01 1.394317e-01
<GCONST> 1.059066e+02
<STATE> 4
<MEAN> 39
 -1.046263e+01 1.192893e+00 6.305027e-01 -4.821957e-01 5.510118e+00 3.635251e-01 3.368382e+00 -2.087046e+00 1.058523e+00 -7.760965e+00 1.078395e+00 -3.910955e+00 7.106615e+01 -8.002754e-04 2.112335e-03 2.165078e-03 -1.564994e-03 -4.300685e-04 -6.324079e-04 -1.138046e-03 -8.787271e-04 1.271468e-03 1.846282e-03 -1.804322e-04 -1.278623e-03 8.343531e-04 -4.475967e-05 -7.284283e-05 6.230097e-05 -2.442853e-04 -2.338257e-04 -5.949535e-05 4.124621e-05 -3.071028e-04 -1.978394e-04 -1.140548e-04 -8.069598e-05 -8.477430e-05 4.232170e-05
<VARIANCE> 39
 3.765159e+01 3.402439e+01 3.148469e+01 4.143038e+01 4.410116e+01 3.300908e+01 3.624625e+01 2.761554e+01 4.947715e+01 4.012057e+01 2.551658e+01 3.113912e+01 4.344355e+01 1.430533e+00 1.639362e+00 1.207966e+00 1.426063e+00 1.597724e+00 1.687130e+00 1.852222e+00 1.504564e+00 2.150095e+00 1.829018e+00 1.449835e+00 1.662362e+00 8.789857e-01 2.020932e-01 2.530756e-01 1.999116e-01 2.097155e-01 2.506926e-01 2.923805e-01 3.142056e-01 2.754931e-01 3.601594e-01 3.260430e-01 2.625300e-01 2.975152e-01 1.394317e-01
<GCONST> 1.059066e+02
<TRANSP> 5
 0.000000e+00 1.000000e+00 0.000000e+00 0.000000e+00 0.000000e+00
 0.000000e+00 6.000000e-01 4.000000e-01 0.000000e+00 0.000000e+00
 0.000000e+00 0.000000e+00 6.000000e-01 4.000000e-01 0.000000e+00
 0.000000e+00 0.000000e+00 0.000000e+00 7.000000e-01 3.000000e-01
 0.000000e+00 0.000000e+00 0.000000e+00 0.000000e+00 0.000000e+00
<ENDHMM>
~h "_"
<BEGINHMM>
<NUMSTATES> 5
<STATE> 2
<MEAN> 39
 -1.046263e+01 1.192893e+00 6.305027e-01 -4.821957e-01 5.510118e+00 3.635251e-01 3.368382e+00 -2.087046e+00 1.058523e+00 -7.760965e+00 1.078395e+00 -3.910955e+00 7.106615e+01 -8.002754e-04 2.112335e-03 2.165078e-03 -1.564994e-03 -4.300685e-04 -6.324079e-04 -1.138046e-03 -8.787271e-04 1.271468e-03 1.846282e-03 -1.804322e-04 -1.278623e-03 8.343531e-04 -4.475967e-05 -7.284283e-05 6.230097e-05 -2.442853e-04 -2.338257e-04 -5.949535e-05 4.124621e-05 -3.071028e-04 -1.978394e-04 -1.140548e-04 -8.069598e-05 -8.477430e-05 4.232170e-05
<VARIANCE> 39
 3.765159e+01 3.402439e+01 3.148469e+01 4.143038e+01 4.410116e+01 3.300908e+01 3.624625e+01 2.761554e+01 4.947715e+01 4.012057e+01 2.551658e+01 3.113912e+01 4.344355e+01 1.430533e+00 1.639362e+00 1.207966e+00 1.426063e+00 1.597724e+00 1.687130e+00 1.852222e+00 1.504564e+00 2.150095e+00 1.829018e+00 1.449835e+00 1.662362e+00 8.789857e-01 2.020932e-01 2.530756e-01 1.999116e-01 2.097155e-01 2.506926e-01 2.923805e-01 3.142056e-01 2.754931e-01 3.601594e-01 3.260430e-01 2.625300e-01 2.975152e-01 1.394317e-01
<GCONST> 1.059066e+02
<STATE> 3
<MEAN> 39
 -1.046263e+01 1.192893e+00 6.305027e-01 -4.821957e-01 5.510118e+00 3.635251e-01 3.368382e+00 -2.087046e+00 1.058523e+00 -7.760965e+00 1.078395e+00 -3.910955e+00 7.106615e+01 -8.002754e-04 2.112335e-03 2.165078e-03 -1.564994e-03 -4.300685e-04 -6.324079e-04 -1.138046e-03 -8.787271e-04 1.271468e-03 1.846282e-03 -1.804322e-04 -1.278623e-03 8.343531e-04 -4.475967e-05 -7.284283e-05 6.230097e-05 -2.442853e-04 -2.338257e-04 -5.949535e-05 4.124621e-05 -3.071028e-04 -1.978394e-04 -1.140548e-04 -8.069598e-05 -8.477430e-05 4.232170e-05
<VARIANCE> 39
 3.765159e+01 3.402439e+01 3.148469e+01 4.143038e+01 4.410116e+01 3.300908e+01 3.624625e+01 2.761554e+01 4.947715e+01 4.012057e+01 2.551658e+01 3.113912e+01 4.344355e+01 1.430533e+00 1.639362e+00 1.207966e+00 1.426063e+00 1.597724e+00 1.687130e+00 1.852222e+00 1.504564e+00 2.150095e+00 1.829018e+00 1.449835e+00 1.662362e+00 8.789857e-01 2.020932e-01 2.530756e-01 1.999116e-01 2.097155e-01 2.506926e-01 2.923805e-01 3.142056e-01 2.754931e-01 3.601594e-01 3.260430e-01 2.625300e-01 2.975152e-01 1.394317e-01
<GCONST> 1.059066e+02
<STATE> 4
<MEAN> 39
 -1.046263e+01 1.192893e+00 6.305027e-01 -4.821957e-01 5.510118e+00 3.635251e-01 3.368382e+00 -2.087046e+00 1.058523e+00 -7.760965e+00 1.078395e+00 -3.910955e+00 7.106615e+01 -8.002754e-04 2.112335e-03 2.165078e-03 -1.564994e-03 -4.300685e-04 -6.324079e-04 -1.138046e-03 -8.787271e-04 1.271468e-03 1.846282e-03 -1.804322e-04 -1.278623e-03 8.343531e-04 -4.475967e-05 -7.284283e-05 6.230097e-05 -2.442853e-04 -2.338257e-04 -5.949535e-05 4.124621e-05 -3.071028e-04 -1.978394e-04 -1.140548e-04 -8.069598e-05 -8.477430e-05 4.232170e-05
<VARIANCE> 39
 3.765159e+01 3.402439e+01 3.148469e+01 4.143038e+01 4.410116e+01 3.300908e+01 3.624625e+01 2.761554e+01 4.947715e+01 4.012057e+01 2.551658e+01 3.113912e+01 4.344355e+01 1.430533e+00 1.639362e+00 1.207966e+00 1.426063e+00 1.597724e+00 1.687130e+00 1.852222e+00 1.504564e+00 2.150095e+00 1.829018e+00 1.449835e+00 1.662362e+00 8.789857e-01 2.020932e-01 2.530756e-01 1.999116e-01 2.097155e-01 2.506926e-01 2.923805e-01 3.142056e-01 2.754931e-01 3.601594e-01 3.260430e-01 2.625300e-01 2.975152e-01 1.394317e-01
<GCONST> 1.059066e+02
<TRANSP> 5
 0.000000e+00 1.000000e+00 0.000000e+00 0.000000e+00 0.000000e+00
 0.000000e+00 6.000000e-01 4.000000e-01 0.000000e+00 0.000000e+00
 0.000000e+00 0.000000e+00 6.000000e-01 4.000000e-01 0.000000e+00
 0.000000e+00 0.000000e+00 0.000000e+00 7.000000e-01 3.000000e-01
 0.000000e+00 0.000000e+00 0.000000e+00 0.000000e+00 0.000000e+00
<ENDHMM>
~h "a"
<BEGINHMM>
<NUMSTATES> 5
<STATE> 2
<MEAN> 39
 -1.516090e+01 -7.101029e-02 1.455333e+00 -3.572299e+00 3.390978e+00 1.666223e+00 4.814147e+00 -1.569572e+00 9.161832e-01 -8.255961e+00 1.921036e+00 -1.436058e+00 7.222655e+01 3.519963e-01 -3.587972e-01 6.093652e-02 6.948960e-02 -2.265246e-01 -5.644271e-01 -2.064765e-01 7.519018e-02 -5.910771e-01 -6.121609e-01 1.462981e-01 2.514623e-01 8.072922e-01 1.699110e-01 -6.110775e-03 -8.276638e-02 1.555328e-01 -1.407711e-02 -1.923286e-01 9.166651e-02 8.617258e-02 1.386942e-02 5.529680e-02 7.065105e-02 -7.422181e-02 -2.060607e-02
<VARIANCE> 39
 5.613380e+01 2.072990e+01 3.709507e+01 2.646350e+01 2.665090e+01 3.339392e+01 2.530097e+01 2.776876e+01 5.528708e+01 3.671667e+01 1.539560e+01 2.466965e+01 2.205019e+01 5.502323e+00 1.724973e+00 2.531829e+00 2.146259e+00 2.119654e+00 4.008740e+00 1.963309e+00 2.049128e+00 2.968368e+00 3.227585e+00 1.542431e+00 2.225307e+00 1.910220e+00 6.123466e-01 2.769391e-01 3.549819e-01 3.858303e-01 4.914933e-01 6.275448e-01 3.862307e-01 3.321986e-01 4.735578e-01 4.424969e-01 2.484589e-01 3.312605e-01 3.036856e-01
<GCONST> 1.149916e+02
<STATE> 3
<MEAN> 39
 -7.489682e+00 -1.961844e+00 -6.153065e-01 -8.464151e-01 4.752687e+00 -3.709825e+00 2.710250e+00 -3.291234e+00 -6.409131e+00 -1.315174e+01 3.815280e+00 7.921907e-01 7.493095e+01 1.259743e-01 1.681069e-01 -1.847608e-01 -2.592760e-01 -4.899091e-01 -6.667411e-01 4.895332e-01 3.884411e-01 4.581822e-01 4.155700e-01 1.891734e-01 -3.204073e-01 -8.384086e-02 -2.036437e-02 2.097391e-01 7.471738e-02 2.340960e-02 1.059616e-02 1.250122e-01 7.301500e-02 -3.023508e-03 3.289940e-01 2.055927e-01 -1.377730e-01 -2.777733e-01 -1.504043e-01
<VARIANCE> 39
 1.860814e+01 1.378788e+01 2.037031e+01 4.247755e+01 2.148406e+01 2.634213e+01 2.213509e+01 3.297395e+01 5.016328e+01 4.416606e+01 1.836085e+01 2.615624e+01 1.442349e+01 6.113144e-01 1.529849e+00 1.707162e+00 1.415854e+00 1.791222e+00 1.828609e+00 1.151251e+00 1.928282e+00 2.417463e+00 1.608576e+00 1.220553e+00 2.477648e+00 1.164657e+00 1.635617e-01 2.460683e-01 2.968495e-01 1.771058e-01 1.836630e-01 2.375542e-01 2.278125e-01 2.926296e-01 3.454240e-01 3.869258e-01 1.951547e-01 4.158729e-01 1.583278e-01
<GCONST> 1.005168e+02
<STATE> 4
<MEAN> 39
 -4.951500e+00 3.548527e+00 -1.285535e+00 -2.786097e+00 -1.035995e+00 -8.520678e+00 3.714079e+00 -7.711190e-01 9.151234e-01 -7.386371e+00 2.153132e+00 -3.126867e+00 7.293443e+01 1.645295e-02 4.660118e-01 1.857575e-01 8.705649e-02 -6.137868e-02 -5.410601e-02 -2.347762e-01 -2.623964e-01 3.015176e-01 7.208103e-02 -2.331610e-01 -2.431948e-01 -2.014681e-01 -5.518425e-02 -1.966308e-02 6.530353e-02 3.015919e-02 1.153091e-01 1.874533e-01 -4.612244e-02 -7.314433e-02 -8.064836e-02 -1.099115e-01 -6.825317e-02 2.114986e-02 1.057977e-02
<VARIANCE> 39
 1.772040e+01 2.001058e+01 2.133977e+01 2.088069e+01 3.142230e+01 4.341886e+01 4.504182e+01 2.512396e+01 2.067274e+01 4.248842e+01 1.863410e+01 1.860903e+01 1.357641e+01 3.374855e-01 1.054150e+00 6.209081e-01 6.162420e-01 1.333254e+00 1.482567e+00 1.312447e+00 9.984373e-01 1.202670e+00 1.594050e+00 8.624134e-01 1.140851e+00 5.270549e-01 6.854452e-02 1.333778e-01 9.084920e-02 1.235252e-01 1.845035e-01 2.103016e-01 1.853890e-01 2.415405e-01 1.641275e-01 1.908126e-01 1.682134e-01 2.352758e-01 7.597739e-02
<GCONST> 8.727367e+01
<TRANSP> 5
 0.000000e+00 1.000000e+00 0.000000e+00 0.000000e+00 0.000000e+00
 0.000000e+00 6.304485e-01 3.695516e-01 0.000000e+00 0.000000e+00
 0.000000e+00 0.000000e+00 6.615824e-01 3.384176e-01 0.000000e+00
 0.000000e+00 0.000000e+00 0.000000e+00 7.421672e-01 2.578327e-01
 0.000000e+00 0.000000e+00 0.000000e+00 0.000000e+00 0.000000e+00
<ENDHMM>
~h "b"
<BEGINHMM>
<NUMSTATES> 5
<STATE> 2
<MEAN> 39
 -1.098236e+01 5.673059e+00 1.263301e+00 9.013780e-01 7.884319e+00 2.589924e+00 5.319819e+00 -1.134837e+00 2.832045e+00 -6.327478e+00 -1.297856e-01 -5.766953e+00 7.020733e+01 3.334206e-01 2.458930e-01 4.665120e-01 8.548047e-01 8.091860e-01 5.953963e-01 -2.385633e-01 -1.936431e-01 -1.369390e-01 -4.727793e-01 -7.294034e-01 -6.197625e-01 4.333394e-02 5.523939e-02 -1.657079e-01 4.989066e-02 3.950221e-02 1.875924e-01 -1.098686e-01 -3.740115e-01 -1.096920e-01 -1.811095e-01 -3.739854e-01 -9.659258e-02 -2.294248e-02 2.174860e-01
<VARIANCE> 39
 3.208593e+01 2.251370e+01 1.049516e+01 1.266712e+01 1.427784e+01 1.429098e+01 1.797158e+01 1.050507e+01 1.461992e+01 1.600313e+01 1.043271e+01 8.140591e+00 7.280268e+00 1.144426e+00 2.358350e+00 1.011402e+00 9.322607e-01 1.484507e+00 9.720373e-01 2.587898e+00 9.820567e-01 1.660876e+00 1.985353e+00 1.127354e+00 1.162423e+00 1.006130e+00 5.346977e-02 1.884686e-01 1.287193e-01 1.152476e-01 1.774861e-01 1.851423e-01 3.190151e-01 1.731067e-01 2.566149e-01 3.346865e-01 2.550268e-01 1.774160e-01 1.129888e-01
<GCONST> 8.644300e+01
<STATE> 3
<MEAN> 39
 -8.263415e+00 2.665810e+00 2.492352e+00 4.818134e+00 1.454280e+01 3.913201e+00 -1.712215e+00 -3.158381e+00 -3.696507e-02 -1.303400e+01 -1.928127e+00 -8.594717e+00 7.215044e+01 4.623577e-01 3.005107e-01 4.464952e-01 5.848562e-01 7.431526e-01 -1.436997e-01 -8.118201e-01 -7.043315e-02 1.053219e-01 -5.238068e-01 -5.049639e-01 -5.322115e-01 1.713208e-01 -2.321184e-01 -1.614054e-01 -1.257449e-01 -1.797038e-01 -4.984135e-01 -2.281023e-01 3.183063e-01 1.439853e-01 1.840103e-01 4.793862e-01 2.536259e-01 2.686878e-01 -7.573647e-02
<VARIANCE> 39
 8.684903e+00 1.782451e+01 1.418274e+01 2.478462e+01 4.098429e+01 1.756247e+01 3.427541e+01 1.375902e+01 2.884573e+01 2.547783e+01 1.563886e+01 9.796333e+00 8.791622e+00 6.808050e-01 3.130236e+00 1.058848e+00 8.561870e-01 3.790565e+00 1.383342e+00 2.867029e+00 1.261075e+00 2.219853e+00 3.191050e+00 1.148414e+00 1.345232e+00 1.344708e+00 1.182368e-01 3.380189e-01 2.440309e-01 1.567243e-01 2.269523e-01 2.944920e-01 3.528994e-01 1.845405e-01 2.835792e-01 3.247860e-01 2.202080e-01 2.114033e-01 1.730773e-01
<GCONST> 9.628526e+01
<STATE> 4
<MEAN> 39
 -9.410254e+00 3.835507e+00 3.168013e+00 6.746669e+00 1.322982e+01 2.333314e+00 -6.919528e-02 -2.485506e+00 3.447423e+00 -8.963874e+00 -1.940271e+00 -7.925431e+00 7.067382e+01 -1.192549e-01 -1.659258e-02 -2.532559e-01 -3.254165e-01 -2.484681e-01 -3.053004e-02 6.750688e-02 -1.319669e-01 -1.870003e-01 2.446704e-02 1.283406e-01 3.265405e-03 -7.008115e-02 -3.821987e-02 -1.021564e-01 -7.377938e-02 -1.200528e-01 -1.958102e-02 3.356487e-02 2.169370e-02 -4.484363e-02 -1.290302e-01 -6.647970e-02 6.944967e-02 9.862428e-02 7.069604e-02
<VARIANCE> 39
 7.176725e+00 2.002587e+01 1.662810e+01 2.612993e+01 2.352348e+01 1.355766e+01 4.131746e+01 1.569508e+01 2.683379e+01 1.458129e+01 2.213777e+01 1.419235e+01 1.417143e+01 3.718895e-01 9.803253e-01 6.253538e-01 1.131353e+00 1.011627e+00 9.926134e-01 2.321606e+00 1.100637e+00 2.061964e+00 1.242944e+00 1.346351e+00 9.930988e-01 5.178313e-01 7.680633e-02 1.721544e-01 9.940313e-02 1.576704e-01 2.355613e-01 1.522628e-01 3.965844e-01 2.112799e-01 3.284659e-01 2.466620e-01 2.473140e-01 2.135929e-01 1.108889e-01
<GCONST> 8.754811e+01
<TRANSP> 5
 0.000000e+00 1.000000e+00 0.000000e+00 0.000000e+00 0.000000e+00
 0.000000e+00 7.096831e-01 2.903168e-01 0.000000e+00 0.000000e+00
 0.000000e+00 0.000000e+00 5.752476e-01 4.247524e-01 0.000000e+00
 0.000000e+00 0.000000e+00 0.000000e+00 8.504841e-01 1.495158e-01
 0.000000e+00 0.000000e+00 0.000000e+00 0.000000e+00 0.000000e+00
<ENDHMM>
~h "d"
<BEGINHMM>
<NUMSTATES> 5
<STATE> 2
<MEAN> 39
 -1.040577e+01 5.247348e+00 1.359164e+00 6.131152e-02 7.025512e+00 4.075948e+00 3.433531e+00 -4.033299e+00 -2.098917e+00 -1.243238e+01 -1.884117e+00 -4.340367e+00 7.075400e+01 -4.519753e-01 -6.824490e-02 -3.072750e-01 -1.255502e-01 -8.259465e-01 -5.073123e-01 2.929112e-01 5.439489e-01 8.442236e-01 4.530758e-01 -2.485951e-01 -6.976777e-02 -3.900955e-01 -1.333028e-01 -4.088145e-01 1.481989e-01 8.061222e-02 -1.721445e-03 -1.907044e-01 1.751478e-01 1.669600e-01 -4.201026e-02 9.516032e-02 2.280794e-01 5.026268e-02 2.328010e-01
<VARIANCE> 39
 1.309536e+01 1.158394e+01 7.286689e+00 9.297619e+00 2.340436e+01 1.674286e+01 1.934925e+01 1.261071e+01 3.972271e+01 3.732899e+01 7.320342e+00 1.300431e+01 2.144453e+01 8.847671e-01 2.312056e+00 1.368611e+00 9.702403e-01 1.313892e+00 8.969051e-01 1.614981e+00 1.045113e+00 2.562820e+00 3.481373e+00 1.175809e+00 1.402342e+00 1.721841e+00 2.499665e-01 3.696902e-01 2.506045e-01 2.188807e-01 2.970784e-01 2.192714e-01 3.336610e-01 2.130070e-01 6.329552e-01 8.564526e-01 1.814655e-01 3.118777e-01 3.906045e-01
<GCONST> 9.714095e+01
<STATE> 3
<MEAN> 39
 -1.482932e+01 4.474400e-01 7.809797e-01 -1.961672e+00 2.312877e+00 1.006753e+00 7.095721e+00 -1.646348e+00 4.817613e-01 -9.801412e+00 -3.748117e-01 -2.529239e+00 7.141150e+01 -5.445843e-01 -1.625927e+00 6.004277e-01 -3.518320e-02 -1.516472e-01 -4.324305e-01 8.234158e-01 8.574231e-02 -7.362947e-01 -7.995472e-01 7.060745e-01 8.001892e-01 1.104602e+00 3.651846e-01 1.799482e-01 6.436532e-03 1.803834e-01 5.070845e-01 1.317210e-01 -1.231229e-01 -7.361966e-02 -1.140325e-01 -1.708972e-01 -1.308717e-02 -1.146980e-01 -5.018521e-02
<VARIANCE> 39
 9.972552e+00 1.819840e+01 1.736305e+01 1.547103e+01 1.928146e+01 1.489543e+01 1.259089e+01 1.899109e+01 4.384586e+01 2.474157e+01 1.280477e+01 9.355718e+00 1.656863e+01 1.386428e+00 1.506894e+00 2.027598e+00 2.153020e+00 1.723562e+00 1.771590e+00 1.796858e+00 2.887368e+00 3.184850e+00 1.917079e+00 8.923513e-01 1.442423e+00 9.230869e-01 2.344682e-01 2.673729e-01 3.470594e-01 3.543221e-01 2.741616e-01 2.409200e-01 3.045057e-01 4.810002e-01 6.121797e-01 6.814460e-01 2.485072e-01 1.767196e-01 2.395263e-01
<GCONST> 1.002136e+02
<STATE> 4
<MEAN> 39
 -1.645856e+01 -3.062172e+00 3.209612e+00 4.728485e-02 4.181969e+00 -1.872972e+00 1.011245e+01 2.587504e+00 1.899278e+00 -1.057340e+01 1.300523e+00 -2.387740e-01 7.533272e+01 8.838918e-01 -4.510544e-02 -1.563252e-01 6.739605e-01 7.537720e-01 1.664693e-01 -1.461872e-01 1.869643e-01 -4.801335e-01 -4.377949e-01 -1.302878e-01 -2.577501e-01 1.060341e-01 3.300203e-01 4.093954e-01 -1.282564e-01 -7.704967e-02 4.445336e-02 1.468416e-01 -3.683728e-01 -2.079940e-01 -1.285340e-01 2.426537e-02 -1.323732e-01 -1.757660e-01 -2.315608e-01
<VARIANCE> 39
 3.923147e+01 2.496987e+01 3.678143e+01 3.807658e+01 4.532762e+01 2.595268e+01 2.100571e+01 5.603197e+01 4.763462e+01 4.192375e+01 1.997588e+01 2.949342e+01 1.985632e+01 2.988705e+00 3.277929e+00 1.930788e+00 1.957716e+00 1.906300e+00 2.419816e+00 1.762532e+00 3.551065e+00 3.520282e+00 3.825555e+00 1.375418e+00 2.187409e+00 1.243899e+00 3.364054e-01 3.734519e-01 3.243265e-01 3.883242e-01 3.423721e-01 3.996522e-01 2.967364e-01 7.158145e-01 5.552474e-01 4.082526e-01 2.329899e-01 3.482601e-01 2.000480e-01
<GCONST> 1.145215e+02
<TRANSP> 5
 0.000000e+00 1.000000e+00 0.000000e+00 0.000000e+00 0.000000e+00
 0.000000e+00 7.698534e-01 2.301466e-01 0.000000e+00 0.000000e+00
 0.000000e+00 0.000000e+00 5.733691e-01 4.266309e-01 0.000000e+00
 0.000000e+00 0.000000e+00 0.000000e+00 7.094210e-01 2.905790e-01
 0.000000e+00 0.000000e+00 0.000000e+00 0.000000e+00 0.000000e+00
<ENDHMM>
~h "e"
<BEGINHMM>
<NUMSTATES> 5
<STATE> 2
<MEAN> 39
 -1.524774e+01 2.015572e+00 4.986371e+00 -6.709464e+00 3.913064e+00 5.378368e+00 3.922583e+00 -7.029344e+00 3.104460e+00 -6.113224e+00 6.167144e-01 -3.117977e+00 7.109044e+01 -1.444165e+00 -2.441016e-01 -1.659876e-01 -9.450639e-01 -6.713910e-01 -5.937065e-01 -5.923861e-01 8.429472e-02 7.756917e-01 3.538589e-02 -1.395044e-02 2.528409e-01 3.411654e-01 -2.456164e-02 -2.417792e-01 5.872824e-02 1.072245e-01 8.326607e-02 -2.011590e-01 -1.308454e-01 -1.089751e-01 -3.188189e-01 -2.374171e-01 9.738071e-02 7.150651e-02 2.670970e-01
<VARIANCE> 39
 4.788410e+01 1.107785e+01 3.633192e+01 4.353862e+01 1.566794e+01 1.409994e+01 1.459573e+01 1.355023e+01 1.947410e+01 1.057934e+01 4.888491e+00 9.101470e+00 2.910158e+01 2.087216e+00 1.144658e+00 2.206976e+00 1.066323e+00 1.842720e+00 2.079758e+00 1.391635e+00 9.330463e-01 2.350443e+00 1.168343e+00 3.924338e-01 7.375739e-01 1.592994e+00 4.920927e-01 1.376795e-01 5.331721e-01 5.133541e-01 2.551098e-01 4.074608e-01 4.301128e-01 1.557303e-01 1.589526e-01 3.619999e-01 1.238144e-01 1.815987e-01 3.116329e-01
<GCONST> 9.529286e+01
<STATE> 3
<MEAN> 39
 -1.575044e+01 -4.204180e-01 5.221804e+00 -2.391928e+00 5.497280e+00 2.644998e+00 2.529174e+00 -8.159577e+00 -1.102347e+00 -9.238934e+00 9.003282e-01 -3.855739e+00 7.258892e+01 1.550476e+00 3.415830e-01 7.844475e-01 1.758557e+00 1.548922e+00 1.237736e+00 4.624982e-01 -4.717406e-01 -1.389099e+00 -5.516208e-01 -5.605859e-02 -6.726519e-01 -2.343539e-01 2.458540e-01 2.099580e-01 -1.148557e-01 -9.951403e-02 9.688705e-02 3.576759e-01 1.331232e-01 2.008821e-01 1.671300e-01 9.332313e-02 -1.406363e-01 -4.888899e-02 -2.488412e-01
<VARIANCE> 39
 4.584897e+01 1.131194e+01 1.563535e+01 4.478937e+01 3.799464e+01 2.262180e+01 9.915819e+00 8.101983e+00 2.326205e+01 5.221201e+00 1.107109e+01 1.970490e+01 6.791356e+00 2.994184e+00 1.507676e+00 1.954165e+00 1.605543e+00 1.204267e+00 2.920508e+00 1.344090e+00 1.325783e+00 1.000231e+00 1.519159e+00 1.594144e+00 1.456176e+00 1.869374e+00 7.377753e-01 2.670987e-01 3.856279e-01 6.146134e-01 7.121048e-01 6.030313e-01 2.747994e-01 1.206053e-01 1.093092e-01 2.191555e-01 4.258102e-01 3.225134e-01 2.283996e-01
<GCONST> 9.958533e+01
<STATE> 4
<MEAN> 39
 -6.487420e+00 6.609606e+00 4.333978e-01 5.148802e+00 1.256640e+01 7.158686e+00 6.316436e+00 -5.333834e+00 -2.055816e-01 -6.576908e+00 -2.686545e+00 -8.430993e+00 6.750887e+01 -8.929346e-02 1.424661e-01 -1.688068e-01 -7.269766e-02 -4.355844e-02 -2.030710e-01 -4.005739e-02 4.242640e-01 4.207121e-01 -3.377213e-02 -1.958526e-01 6.159994e-02 -2.121120e-01 -5.016755e-02 -6.348934e-02 -1.576512e-02 -4.913868e-02 -9.771990e-02 -1.352572e-01 -1.301244e-02 6.753319e-02 4.204225e-02 -9.924415e-03 6.645026e-02 1.000563e-01 2.116286e-02
<VARIANCE> 39
 1.714551e+00 3.521772e+00 7.775258e+00 7.231021e+00 3.553504e+00 7.317244e+00 5.479356e+00 1.028351e+01 1.753699e+01 3.170000e+01 7.095682e+00 6.282932e+00 2.425748e+00 1.051367e-01 2.092431e-01 4.431916e-01 3.707624e-01 3.019429e-01 8.229846e-01 4.525656e-01 1.162203e+00 1.363468e+00 7.575375e-01 9.720966e-01 7.225622e-01 1.017859e-01 2.898166e-02 4.535665e-02 6.414852e-02 6.918120e-02 1.095185e-01 1.783692e-01 6.783636e-02 2.678534e-01 3.373073e-01 1.065621e-01 1.513350e-01 1.263183e-01 1.675553e-02
<GCONST> 5.416768e+01
<TRANSP> 5
 0.000000e+00 1.000000e+00 0.000000e+00 0.000000e+00 0.000000e+00
 0.000000e+00 7.332251e-01 2.667749e-01 0.000000e+00 0.000000e+00
 0.000000e+00 0.000000e+00 7.142565e-01 2.857435e-01 0.000000e+00
 0.000000e+00 0.000000e+00 0.000000e+00 9.108790e-01 8.912108e-02
 0.000000e+00 0.000000e+00 0.000000e+00 0.000000e+00 0.000000e+00
<ENDHMM>
~h "f"
<BEGINHMM>
<NUMSTATES> 5
<STATE> 2
<MEAN> 39
 -1.236296e+01 4.787970e+00 2.254656e+00 -2.360171e+00 7.674004e+00 1.894214e+00 5.691740e+00 -2.829678e-01 1.240088e+00 -7.678328e+00 6.472418e-01 -3.148889e+00 7.069228e+01 -1.545557e+00 -3.384967e-01 2.646281e-01 -7.686248e-01 -2.065271e-01 -1.145529e-01 3.959153e-01 -2.353412e-01 1.252369e-01 -7.783782e-02 2.875993e-01 6.062058e-01 2.253389e-01 -1.319531e-01 -2.445598e-01 6.148288e-02 3.188753e-02 9.278975e-02 -2.054570e-01 -1.336341e-01 -1.664802e-01 -9.619509e-02 -1.086204e-01 4.921816e-02 -5.078794e-02 1.150708e-01
<VARIANCE> 39
 2.681185e+01 1.248042e+01 1.507550e+01 2.469872e+01 1.574480e+01 2.017163e+01 1.811561e+01 1.412991e+01 2.749806e+01 2.394665e+01 9.147908e+00 1.698738e+01 1.625375e+01 1.984431e+00 1.896582e+00 1.453339e+00 2.288524e+00 1.511929e+00 2.216696e+00 2.110850e+00 1.305959e+00 3.966460e+00 3.254527e+00 8.499027e-01 1.798100e+00 9.032094e-01 2.611350e-01 2.105543e-01 2.356689e-01 2.126056e-01 2.234765e-01 3.892372e-01 2.109692e-01 3.054220e-01 6.960273e-01 6.632767e-01 1.824915e-01 3.822942e-01 1.394412e-01
<GCONST> 1.001868e+02
<STATE> 3
<MEAN> 39
 -2.259146e+01 1.922146e-01 3.266732e+00 -6.068049e+00 7.955525e+00 -1.048055e+00 6.024282e+00 -2.189671e+00 2.386405e+00 -8.231030e+00 1.995577e+00 -2.265816e+00 7.414381e+01 -8.036894e-01 -1.123871e+00 -5.121003e-01 5.532271e-03 -2.300650e-01 -1.800290e-01 1.258464e-01 -7.952516e-02 3.313124e-01 1.139681e-01 2.354013e-01 1.737252e-01 1.600587e-01 6.648342e-01 -2.418261e-02 -1.500867e-01 3.750289e-01 -6.257441e-02 1.873527e-01 -1.169484e-01 -1.642169e-02 -4.720471e-02 -4.152181e-03 -9.317387e-02 -1.014514e-01 -1.439555e-01
<VARIANCE> 39
 1.168288e+01 1.987814e+01 2.859547e+01 1.648696e+01 2.040370e+01 2.521159e+01 8.128134e+00 1.744796e+01 1.826433e+01 1.197949e+01 8.416108e+00 1.051500e+01 4.448503e+00 1.625581e+00 6.586711e-01 1.292345e+00 1.237962e+00 8.172255e-01 1.023266e+00 8.829820e-01 1.492746e+00 1.719256e+00 1.292595e+00 8.146833e-01 1.074596e+00 4.533700e-01 1.648328e-01 1.844892e-01 2.466322e-01 2.354316e-01 1.844311e-01 2.367720e-01 1.675410e-01 3.480882e-01 3.991502e-01 3.402116e-01 1.664470e-01 2.554476e-01 7.562727e-02
<GCONST> 8.630358e+01
<STATE> 4
<MEAN> 39
 -1.948086e+01 -4.117321e+00 -6.386267e-01 -3.239713e+00 5.851017e+00 -1.003443e-01 5.410053e+00 -1.970996e+00 3.187359e+00 -8.711601e+00 1.812975e+00 -1.754747e+00 7.292661e+01 2.358499e+00 3.654538e-01 5.112162e-01 1.143244e+00 3.545552e-01 5.275748e-01 -6.967455e-01 -2.738894e-01 -9.435102e-01 -6.266757e-01 -2.749843e-01 -7.252173e-01 -4.206482e-01 4.588070e-01 7.888971e-01 7.390049e-01 1.898442e-01 5.321795e-01 2.169356e-01 -2.078194e-01 -1.059134e-01 -3.520855e-01 -1.200245e-02 -7.485858e-02 -4.061033e-01 4.615813e-02
<VARIANCE> 39
 1.777981e+01 1.591455e+01 3.402795e+01 2.061255e+01 2.240204e+01 2.176726e+01 1.648537e+01 1.595369e+01 1.830926e+01 1.557903e+01 6.027777e+00 1.302465e+01 5.601377e+00 1.544351e+00 2.807525e+00 3.149225e+00 1.957158e+00 1.899329e+00 2.028908e+00 1.088991e+00 1.527973e+00 3.018170e+00 1.965998e+00 8.693792e-01 9.307902e-01 7.902690e-01 2.802230e-01 2.584305e-01 4.862674e-01 1.857301e-01 1.864994e-01 2.455231e-01 1.698669e-01 2.240106e-01 2.652462e-01 2.982981e-01 1.648312e-01 2.619937e-01 1.357246e-01
<GCONST> 9.479581e+01
<TRANSP> 5
 0.000000e+00 1.000000e+00 0.000000e+00 0.000000e+00 0.000000e+00
 0.000000e+00 7.511446e-01 2.488554e-01 0.000000e+00 0.000000e+00
 0.000000e+00 0.000000e+00 7.628139e-01 2.371861e-01 0.000000e+00
 0.000000e+00 0.000000e+00 0.000000e+00 6.201642e-01 3.798358e-01
 0.000000e+00 0.000000e+00 0.000000e+00 0.000000e+00 0.000000e+00
<ENDHMM>
~h "h"
<BEGINHMM>
<NUMSTATES> 5
<STATE> 2
<MEAN> 39
 -1.439457e+01 -9.496982e-01 6.078103e+00 -1.610271e+00 8.593820e+00 2.789141e+00 4.408191e+00 -2.171167e+00 1.198085e+00 -6.354007e+00 3.161809e+00 -6.043350e+00 7.516163e+01 -5.182520e-01 -4.725352e-01 -2.584179e-01 -7.427204e-01 -2.571932e-01 4.543973e-01 8.012904e-01 -2.049421e-01 -7.574905e-01 1.697680e-01 6.812056e-01 1.166148e+00 5.025249e-01 1.544372e-01 4.553932e-02 -2.038000e-01 1.439672e-01 -1.332967e-01 -5.401668e-02 8.691803e-02 -7.727871e-02 -2.684374e-03 -9.160590e-02 -4.115979e-02 6.263345e-02 -1.233654e-01
<VARIANCE> 39
 3.110629e+01 1.477798e+01 2.064073e+01 4.276950e+01 3.994116e+01 3.836702e+01 3.221211e+01 3.081004e+01 2.795724e+01 2.470067e+01 1.450303e+01 2.549158e+01 8.982491e+00 1.516984e+00 1.197780e+00 1.925515e+00 1.905232e+00 1.259800e+00 1.915323e+00 2.341254e+00 1.274634e+00 2.834875e+00 1.943170e+00 1.138536e+00 2.546422e+00 5.609731e-01 2.837887e-01 2.515953e-01 3.496474e-01 3.866263e-01 1.523739e-01 3.095207e-01 4.257306e-01 3.327041e-01 6.235120e-01 3.092882e-01 2.925086e-01 5.205903e-01 9.871328e-02
<GCONST> 1.040423e+02
<STATE> 3
<MEAN> 39
 -1.151238e+01 -1.550907e+00 1.844467e+00 -3.391450e+00 6.432219e+00 2.882715e+00 5.927701e+00 -2.905860e+00 -1.233094e+00 -3.748539e+00 6.363627e+00 -8.836017e-01 7.658288e+01 1.653110e-01 -9.373062e-02 -1.484139e-01 -5.971059e-02 -2.325051e-01 -1.387710e-02 3.689550e-01 -3.212752e-02 -4.184069e-01 -9.952541e-02 2.414103e-01 5.387822e-01 1.900236e-01 1.043852e-01 2.213696e-01 1.664312e-01 1.388560e-01 7.530554e-02 -6.557655e-02 -7.162061e-02 1.073468e-01 1.755840e-01 -1.014293e-01 -2.404825e-01 -3.670046e-01 -9.175888e-02
<VARIANCE> 39
 1.309336e+01 1.152772e+01 9.907167e+00 1.267528e+01 2.068935e+01 2.538143e+01 4.485265e+01 2.595584e+01 2.467136e+01 2.719957e+01 1.727129e+01 1.938813e+01 1.323974e+01 1.020342e+00 7.516592e-01 8.947642e-01 1.728086e+00 1.446827e+00 1.091153e+00 2.150913e+00 1.492074e+00 1.132868e+00 1.574013e+00 9.786491e-01 1.796575e+00 4.556530e-01 5.484120e-02 1.242803e-01 1.878525e-01 1.505485e-01 2.028824e-01 2.365580e-01 5.443973e-01 1.706276e-01 2.346547e-01 2.981259e-01 1.953862e-01 2.150570e-01 6.860866e-02
<GCONST> 8.942999e+01
<STATE> 4
<MEAN> 39
 -8.730576e+00 1.083393e-03 1.654583e+00 -2.514587e+00 4.452290e+00 8.338925e-01 7.002047e+00 -1.752004e+00 2.902327e-01 -6.957262e+00 6.478040e+00 -1.164200e+00 7.713905e+01 2.142300e-01 1.463001e-01 1.773772e-02 1.630293e-01 9.304189e-02 -3.878150e-02 -2.370324e-01 -6.444942e-02 -1.707571e-01 -5.449573e-01 -1.975490e-01 -1.345298e-01 -1.228991e-01 -5.598523e-03 1.435723e-02 -4.547183e-03 -2.046132e-02 -2.107362e-02 -3.916040e-02 -1.191870e-01 -4.188031e-02 1.587384e-03 2.271525e-02 -1.212438e-01 -3.768943e-02 -1.391395e-02
<VARIANCE> 39
 6.570728e+00 9.910538e+00 8.586346e+00 2.511193e+01 3.470470e+01 1.810138e+01 7.115519e+01 3.713749e+01 3.526268e+01 2.401064e+01 1.540916e+01 1.875360e+01 1.478517e+01 5.617568e-01 8.599339e-01 6.023325e-01 9.961592e-01 9.584745e-01 9.945951e-01 1.913685e+00 9.590894e-01 1.541414e+00 1.541600e+00 1.402600e+00 1.030442e+00 3.114807e-01 7.907014e-02 1.406450e-01 9.588429e-02 1.019574e-01 1.272651e-01 1.263604e-01 1.971032e-01 1.377561e-01 2.408122e-01 2.421051e-01 2.361182e-01 1.468182e-01 7.047890e-02
<GCONST> 8.431938e+01
<TRANSP> 5
 0.000000e+00 1.000000e+00 0.000000e+00 0.000000e+00 0.000000e+00
 0.000000e+00 6.503184e-01 3.496816e-01 0.000000e+00 0.000000e+00
 0.000000e+00 0.000000e+00 6.412728e-01 3.587272e-01 0.000000e+00
 0.000000e+00 0.000000e+00 0.000000e+00 8.421966e-01 1.578034e-01
 0.000000e+00 0.000000e+00 0.000000e+00 0.000000e+00 0.000000e+00
<ENDHMM>
~h "i"
<BEGINHMM>
<NUMSTATES> 5
<STATE> 2
<MEAN> 39
 -1.466007e+01 -4.926015e+00 -3.763801e+00 -1.739829e+00 -6.896050e-01 3.446122e-01 5.841710e+00 -3.962854e-01 3.486001e+00 -7.224258e+00 3.591656e+00 1.085545e+00 6.983646e+01 3.101505e-02 -3.051101e-02 -1.745331e-01 -1.313604e-01 9.441302e-02 1.249770e-01 2.422881e-01 -8.296428e-03 7.723048e-02 1.477409e-01 1.707303e-01 2.516176e-01 -9.360318e-02 1.205365e-02 9.799673e-02 6.312557e-02 -1.507877e-02 5.270426e-02 6.006614e-02 -3.320029e-02 1.626707e-02 -2.965952e-03 -1.322913e-02 -5.811789e-02 -7.842012e-02 -1.703126e-02
<VARIANCE> 39
 4.194781e+01 3.636996e+01 9.108950e+00 1.361413e+01 1.565849e+01 3.762997e+01 1.095391e+01 2.413665e+01 9.367431e+00 2.236153e+01 1.745596e+01 3.734766e+01 1.360645e+01 1.696849e-01 7.908227e-01 3.863147e-01 4.414329e-01 7.030388e-01 7.787665e-01 5.642530e-01 1.364043e+00 1.097645e+00 9.440002e-01 1.143823e+00 1.016969e+00 1.961876e-01 2.827370e-02 5.395880e-02 5.924472e-02 9.813964e-02 1.430580e-01 1.734371e-01 9.022287e-02 3.020599e-01 1.931988e-01 1.322670e-01 2.460834e-01 1.752030e-01 1.506579e-02
<GCONST> 7.419758e+01
<STATE> 3
<MEAN> 39
 -1.508647e+01 2.302906e+00 -6.661588e+00 -5.395234e+00 1.324649e+00 5.894740e-01 7.066313e+00 1.161293e+00 8.243489e+00 -3.804089e-01 4.356080e+00 -3.022061e+00 6.329096e+01 3.767545e-03 1.670846e-02 -2.929264e-02 -1.036691e-01 -4.200921e-02 1.333756e-02 -5.696515e-05 4.280150e-02 1.171447e-01 1.078979e-01 8.293656e-03 -4.853940e-02 -1.059385e-01 5.685267e-03 -4.022818e-02 4.476178e-02 3.887224e-02 -3.081892e-02 -8.724099e-03 -1.074723e-02 -3.637438e-03 -4.913607e-02 -4.222188e-02 -2.763515e-02 -9.285998e-03 4.772771e-02
<VARIANCE> 39
 7.814645e+00 3.888252e+00 5.214048e+00 7.176347e+00 6.534935e+00 7.301323e+00 8.719558e+00 1.126403e+01 1.115517e+01 1.374100e+01 8.283657e+00 8.369794e+00 7.556020e+00 1.295423e-01 2.654120e-01 2.569431e-01 4.014984e-01 3.844284e-01 4.864996e-01 6.542784e-01 7.747582e-01 7.453560e-01 1.020054e+00 6.905170e-01 9.462214e-01 7.578950e-02 1.333126e-02 5.432422e-02 4.866983e-02 7.353599e-02 9.401270e-02 7.875602e-02 1.421116e-01 1.667196e-01 1.271511e-01 2.063142e-01 1.625473e-01 1.849980e-01 1.671683e-02
<GCONST> 5.443452e+01
<STATE> 4
<MEAN> 39
 -8.991362e+00 2.972815e+00 -1.526465e+00 -3.122757e+00 -1.649944e+00 -3.876355e+00 4.686615e+00 -1.609624e+00 3.965121e+00 -4.967038e+00 2.519303e+00 -5.134820e+00 7.046573e+01 1.305141e-02 3.346255e-02 1.138818e-01 4.556763e-02 8.239307e-02 1.889115e-03 -2.934012e-02 -5.808679e-02 -2.891483e-02 9.783458e-03 -4.159649e-02 -6.725428e-02 1.378331e-01 -4.547154e-02 -4.608119e-02 2.065684e-02 2.613175e-02 3.314659e-02 3.069184e-02 -4.140610e-03 -1.060755e-02 -4.502488e-02 -5.987453e-03 3.239452e-02 6.540737e-02 3.936481e-02
<VARIANCE> 39
 2.966898e+01 2.239051e+01 1.405830e+01 8.844690e+00 2.714911e+01 4.496758e+01 2.007992e+01 1.522544e+01 2.312463e+01 3.224765e+01 1.856081e+01 1.465750e+01 3.549871e+01 5.265413e-01 1.440081e+00 1.169174e+00 9.182051e-01 1.757430e+00 1.976174e+00 1.200096e+00 1.324955e+00 1.543735e+00 1.696538e+00 1.396605e+00 9.549165e-01 7.930348e-01 5.953673e-02 2.299436e-01 2.160973e-01 1.610858e-01 2.788656e-01 3.971125e-01 2.343171e-01 1.794730e-01 3.537429e-01 2.533461e-01 2.029800e-01 1.991058e-01 1.273596e-01
<GCONST> 9.344083e+01
<TRANSP> 5
 0.000000e+00 1.000000e+00 0.000000e+00 0.000000e+00 0.000000e+00
 0.000000e+00 7.356794e-01 2.643206e-01 0.000000e+00 0.000000e+00
 0.000000e+00 0.000000e+00 9.005955e-01 9.940455e-02 0.000000e+00
 0.000000e+00 0.000000e+00 0.000000e+00 9.022778e-01 9.772216e-02
 0.000000e+00 0.000000e+00 0.000000e+00 0.000000e+00 0.000000e+00
<ENDHMM>
~h "j"
<BEGINHMM>
<NUMSTATES> 5
<STATE> 2
<MEAN> 39
 -6.910346e+00 1.441815e+00 3.371662e-01 5.931223e-01 8.187870e+00 1.826562e+00 1.392348e+00 -5.570300e+00 -8.568672e+00 -1.333286e+01 5.488760e+00 -1.085652e-01 7.521529e+01 -1.414323e-01 4.020714e-01 2.884581e-01 9.718546e-01 5.880060e-01 3.404087e-01 -6.212740e-02 -2.739194e-01 2.102920e-01 1.167324e-01 -1.967592e-01 -2.699538e-01 -4.569468e-01 -3.960659e-02 1.020862e-01 7.101876e-02 5.783636e-02 -1.525896e-02 -1.371037e-03 1.519192e-01 1.037731e-01 2.990078e-01 1.778798e-01 -2.208025e-01 -2.237554e-01 -1.506393e-01
<VARIANCE> 39
 8.298923e+00 7.050074e+00 6.390821e+00 1.616372e+01 9.650210e+00 1.846089e+01 3.691063e+01 2.740714e+01 1.316730e+01 1.680586e+01 1.990479e+01 2.057805e+01 1.147625e+01 5.099072e-01 8.476816e-01 8.017187e-01 6.630763e-01 5.716200e-01 1.152315e+00 1.647934e+00 8.609116e-01 2.291609e+00 8.582010e-01 1.685083e+00 1.321107e+00 3.852541e-01 8.429445e-02 1.098503e-01 8.057004e-02 1.662883e-01 1.149291e-01 2.653448e-01 2.882485e-01 1.256001e-01 2.549208e-01 2.027805e-01 2.278794e-01 2.109264e-01 5.951740e-02
<GCONST> 8.070267e+01
<STATE> 3
<MEAN> 39
 -7.701359e+00 3.767546e+00 3.124915e+00 4.689842e+00 1.174608e+01 6.367627e+00 2.169021e+00 -4.776986e+00 -3.120137e+00 -1.070278e+01 1.886692e+00 -4.975946e+00 7.053950e+01 -3.365219e-01 -4.600795e-01 4.816641e-01 2.376116e-01 -7.185952e-02 4.987260e-02 7.916230e-02 2.801068e-01 2.614878e-01 -1.518223e-02 -1.421822e-01 5.030525e-02 3.519687e-02 -8.738396e-02 -1.699162e-01 -1.226011e-02 -5.603598e-02 -1.329570e-01 -9.276595e-02 3.595550e-02 6.981795e-02 7.180086e-02 3.549471e-03 3.823764e-02 9.196461e-02 7.461869e-02
<VARIANCE> 39
 6.215263e+00 1.692021e+01 1.641264e+01 8.482159e+00 1.378050e+01 1.541820e+01 1.987943e+01 1.419558e+01 2.381568e+01 4.129548e+01 1.262327e+01 1.137628e+01 1.196038e+01 3.611661e-01 1.219141e+00 8.089120e-01 6.709449e-01 1.840879e+00 8.367268e-01 1.475467e+00 8.446951e-01 2.073678e+00 2.105467e+00 1.391289e+00 1.206866e+00 5.307353e-01 5.201377e-02 1.717703e-01 1.404595e-01 1.551633e-01 3.475825e-01 1.595990e-01 2.739692e-01 1.431045e-01 4.086302e-01 4.173711e-01 2.696338e-01 2.263620e-01 7.588404e-02
<GCONST> 8.537103e+01
<STATE> 4
<MEAN> 39
 -1.344112e+01 -3.161108e+00 5.395225e+00 4.878374e+00 8.297085e+00 3.285149e+00 3.659842e+00 -2.641743e+00 6.111661e-01 -9.110573e+00 1.391416e+00 -2.068042e+00 7.273536e+01 4.304247e-02 1.016325e-01 -6.470324e-02 -6.301379e-02 -3.230203e-02 4.512816e-02 1.005412e-01 -1.309551e-01 -3.320611e-03 9.876076e-02 1.309918e-03 -7.697467e-02 -3.144329e-02 6.693541e-02 8.098339e-02 -4.558862e-02 -2.212805e-02 4.343934e-02 2.694912e-02 -1.696667e-02 -6.042688e-02 -8.307961e-02 -3.996922e-02 2.406046e-02 -2.989914e-02 -7.956604e-03
<VARIANCE> 39
 1.641206e+01 4.524129e+01 1.846959e+01 2.315976e+01 1.766445e+01 1.511716e+01 1.502865e+01 2.421472e+01 3.120419e+01 1.789703e+01 1.720925e+01 2.061687e+01 6.979733e+00 1.185873e+00 2.391144e+00 7.770634e-01 1.189498e+00 1.159493e+00 1.170508e+00 1.361271e+00 1.655012e+00 2.519935e+00 1.557252e+00 1.181978e+00 1.697006e+00 4.023570e-01 1.435907e-01 2.808580e-01 1.200372e-01 1.815365e-01 1.889344e-01 2.024858e-01 2.223863e-01 2.437133e-01 3.593952e-01 3.032646e-01 2.159474e-01 3.137714e-01 5.883445e-02
<GCONST> 9.224699e+01
<TRANSP> 5
 0.000000e+00 1.000000e+00 0.000000e+00 0.000000e+00 0.000000e+00
 0.000000e+00 8.063763e-01 1.936238e-01 0.000000e+00 0.000000e+00
 0.000000e+00 0.000000e+00 8.885769e-01 1.114231e-01 0.000000e+00
 0.000000e+00 0.000000e+00 0.000000e+00 9.534768e-01 4.652316e-02
 0.000000e+00 0.000000e+00 0.000000e+00 0.000000e+00 0.000000e+00
<ENDHMM>
~h "k"
<BEGINHMM>
<NUMSTATES> 5
<STATE> 2
<MEAN> 39
 -1.791043e+01 -5.729986e+00 2.387049e+00 -6.338291e-01 4.718929e+00 3.213167e-01 3.705813e+00 -1.542516e+00 2.072802e+00 -8.826668e+00 7.119911e-01 -1.402533e+00 7.308123e+01 -4.516763e-03 -1.511558e-01 -9.338813e-02 -1.177315e-01 2.710578e-03 -1.822645e-01 2.541022e-01 1.405148e-01 -5.508046e-01 -1.370302e-01 6.529246e-02 -5.114841e-02 5.365572e-02 4.391107e-01 5.127710e-01 2.159610e-02 1.321171e-01 2.208239e-01 1.313325e-01 -3.910585e-02 1.048863e-02 -1.489842e-01 4.080962e-02 -2.453370e-02 -2.224531e-01 -1.332182e-01
<VARIANCE> 39
 2.299663e+01 4.890612e+01 1.308392e+01 3.312394e+01 3.676093e+01 3.176346e+01 2.360653e+01 1.343700e+01 2.055124e+01 1.903640e+01 1.542615e+01 2.418611e+01 9.452571e+00 2.522672e+00 3.649423e+00 2.014492e+00 1.183845e+00 3.115316e+00 1.452738e+00 1.573366e+00 1.332163e+00 3.337017e+00 2.210567e+00 1.230515e+00 1.260257e+00 8.453934e-01 1.644698e-01 2.984083e-01 3.448243e-01 1.450219e-01 3.575801e-01 3.431948e-01 2.099446e-01 1.867919e-01 5.629944e-01 3.126607e-01 2.564557e-01 3.132773e-01 1.511021e-01
<GCONST> 1.018469e+02
<STATE> 3
<MEAN> 39
 -9.773240e+00 1.099250e+00 3.452176e+00 4.207633e-01 7.000718e+00 4.390506e-01 5.675616e+00 -2.727705e+00 -1.801605e+00 -1.010609e+01 -6.155746e-01 -4.909207e+00 7.332450e+01 1.560211e+00 1.680088e+00 4.092660e-01 2.912844e-01 2.089509e-01 7.376205e-01 2.403222e-01 -6.202601e-01 -1.104164e+00 1.857055e-01 -8.488502e-01 -2.873273e-01 -3.580547e-03 -3.729048e-01 -3.069739e-01 -2.843594e-01 7.207542e-02 -4.601953e-01 -3.016525e-01 -2.001787e-01 1.205075e-02 4.258758e-01 1.986075e-01 1.000453e-01 3.411311e-01 -1.208530e-02
<VARIANCE> 39
 1.618853e+01 2.067813e+01 6.735133e+00 3.118618e+01 1.083585e+01 3.211895e+01 8.879941e+00 4.496718e+01 2.244933e+01 2.647261e+01 1.189385e+01 1.936587e+01 9.181932e+00 2.592145e+00 2.800920e+00 9.069704e-01 7.489650e-01 1.879266e+00 1.667074e+00 2.251153e+00 1.819676e+00 4.555806e+00 3.243693e+00 8.203928e-01 3.268690e+00 1.075106e+00 3.019437e-01 5.490904e-01 1.854383e-01 1.670646e-01 3.081947e-01 1.815858e-01 1.771467e-01 5.735889e-01 7.214826e-01 4.641635e-01 2.453201e-01 3.911178e-01 2.074543e-01
<GCONST> 1.011719e+02
<STATE> 4
<MEAN> 39
 -8.623211e+00 4.340622e+00 1.381885e+00 2.208146e+00 9.791552e+00 1.893449e+00 2.979964e+00 -2.205733e+00 -3.017697e-01 -8.385796e+00 1.081678e-01 -5.482112e+00 7.079520e+01 -2.317760e-01 -1.350713e-01 -1.408150e-01 -4.959647e-02 1.868702e-02 -3.036970e-02 -1.121313e-01 -2.932040e-02 4.811114e-02 3.146755e-02 5.413331e-02 1.541968e-01 -7.685004e-02 -9.182860e-02 -1.270534e-01 -1.224203e-03 -1.085612e-01 -8.566453e-02 -4.953166e-02 -2.854682e-02 3.146865e-02 1.248520e-02 4.401294e-02 4.368498e-02 1.551888e-02 2.681525e-02
<VARIANCE> 39
 1.704029e+01 8.879443e+00 9.614554e+00 7.934875e+00 2.021964e+01 1.639356e+01 2.596382e+01 1.716264e+01 3.458878e+01 3.675515e+01 1.594862e+01 2.359669e+01 6.954641e+00 3.399251e-01 8.631302e-01 7.215011e-01 8.586232e-01 1.563741e+00 8.229007e-01 1.727498e+00 1.336419e+00 1.641634e+00 2.410517e+00 1.299678e+00 1.360535e+00 4.892758e-01 5.841793e-02 1.313106e-01 1.253260e-01 9.208599e-02 2.466308e-01 1.268636e-01 3.662799e-01 2.841139e-01 3.142242e-01 4.235040e-01 2.389229e-01 2.232597e-01 1.025566e-01
<GCONST> 8.628156e+01
<TRANSP> 5
 0.000000e+00 1.000000e+00 0.000000e+00 0.000000e+00 0.000000e+00
 0.000000e+00 7.355093e-01 2.644907e-01 0.000000e+00 0.000000e+00
 0.000000e+00 0.000000e+00 5.950024e-01 4.049976e-01 0.000000e+00
 0.000000e+00 0.000000e+00 0.000000e+00 8.976750e-01 1.023249e-01
 0.000000e+00 0.000000e+00 0.000000e+00 0.000000e+00 0.000000e+00
<ENDHMM>
~h "l"
<BEGINHMM>
<NUMSTATES> 5
<STATE> 2
<MEAN> 39
 -6.777291e+00 2.376261e+00 2.360852e+00 3.471618e+00 8.309472e+00 1.346140e+00 1.743332e+00 -4.781398e+00 -3.239588e+00 -1.252807e+01 -7.508245e-01 -4.699437e+00 7.218949e+01 -5.405920e-02 4.427570e-01 -5.665931e-02 2.278083e-01 2.097122e-01 2.010394e-01 2.549421e-01 1.706129e-01 3.296847e-01 1.755658e-01 -4.645434e-01 -2.780669e-01 -4.903664e-01 -3.488601e-02 -3.352695e-02 -7.191104e-02 -1.000869e-01 -2.947562e-02 -4.936192e-02 1.983722e-02 6.481853e-02 7.080650e-02 9.384900e-02 9.980088e-02 3.076581e-04 3.462564e-03
<VARIANCE> 39
 9.689565e+00 1.956213e+01 1.952474e+01 2.791650e+01 2.772324e+01 2.341005e+01 2.956716e+01 2.449429e+01 3.272337e+01 3.428644e+01 2.371119e+01 3.364974e+01 2.006542e+01 2.839838e-01 1.219571e+00 8.884884e-01 1.191386e+00 1.367800e+00 1.197350e+00 1.778364e+00 1.444583e+00 2.234930e+00 2.178692e+00 2.045866e+00 1.504855e+00 7.300877e-01 3.943543e-02 1.646529e-01 1.370256e-01 1.584188e-01 2.150712e-01 1.809101e-01 2.762040e-01 2.681148e-01 3.565679e-01 3.713851e-01 3.534444e-01 2.723745e-01 8.743642e-02
<GCONST> 9.429752e+01
<STATE> 3
<MEAN> 39
 -7.618320e+00 6.225013e+00 3.918215e-01 2.107408e+00 7.869595e+00 2.050381e+00 4.670264e+00 -2.500188e+00 4.253587e-01 -9.598939e+00 -2.209663e+00 -6.599644e+00 6.830678e+01 -2.734948e-01 9.928950e-02 -2.285621e-01 -2.257058e-01 -7.771971e-02 -5.037187e-02 1.262989e-01 1.542556e-01 4.093159e-01 3.854331e-01 7.755840e-02 -4.491332e-02 -3.205374e-01 -3.468982e-02 -1.930504e-01 3.136216e-02 -9.732476e-02 -7.663031e-02 -5.814252e-02 -1.024158e-01 -1.856728e-02 -7.203841e-02 -1.601308e-02 1.775833e-01 1.036717e-01 1.810157e-01
<VARIANCE> 39
 1.234886e+01 1.353679e+01 1.133560e+01 1.914713e+01 2.118172e+01 2.313420e+01 1.704210e+01 1.512133e+01 2.480190e+01 3.421239e+01 1.950252e+01 1.928135e+01 2.082936e+01 2.813722e-01 6.462244e-01 6.859462e-01 8.138799e-01 1.077964e+00 1.112320e+00 1.150279e+00 9.982213e-01 1.559092e+00 1.410565e+00 1.204377e+00 1.163545e+00 4.392283e-01 4.771286e-02 1.147259e-01 1.055109e-01 1.600675e-01 1.616995e-01 1.974762e-01 2.175916e-01 1.963156e-01 2.728131e-01 2.902918e-01 2.457885e-01 2.244858e-01 7.049936e-02
<GCONST> 8.399565e+01
<STATE> 4
<MEAN> 39
 -7.375485e+00 3.941346e+00 1.668610e-01 7.408793e-01 5.958176e+00 -6.861093e-01 2.760052e+00 -3.536890e+00 -1.680893e+00 -1.073334e+01 -8.085291e-01 -5.100391e+00 7.055198e+01 -1.683255e-01 -2.455191e-01 -7.250454e-02 -2.962784e-01 -1.591810e-01 -1.839617e-01 -6.216826e-02 8.577082e-02 6.477479e-02 1.962120e-01 3.334859e-01 1.309303e-01 1.631914e-01 -2.542717e-03 -6.329370e-02 4.297150e-02 1.264919e-02 -3.018991e-02 -2.680322e-02 -2.840456e-02 1.135539e-02 -6.546684e-02 -5.418139e-02 -3.441893e-03 2.602383e-02 8.223823e-02
<VARIANCE> 39
 1.366776e+01 2.357188e+01 1.963762e+01 1.905507e+01 3.202074e+01 3.462622e+01 2.837661e+01 2.179410e+01 3.310231e+01 4.378640e+01 2.256744e+01 3.329004e+01 2.675960e+01 5.707511e-01 1.240261e+00 1.108513e+00 1.250872e+00 2.127441e+00 1.855715e+00 1.938047e+00 1.519369e+00 2.638627e+00 2.556787e+00 1.961643e+00 1.724669e+00 7.737770e-01 1.018996e-01 2.092321e-01 1.880982e-01 1.809321e-01 3.508597e-01 3.124292e-01 3.219355e-01 3.006702e-01 4.359136e-01 4.169523e-01 3.700531e-01 2.962036e-01 1.426620e-01
<GCONST> 1.016712e+02
<TRANSP> 5
 0.000000e+00 1.000000e+00 0.000000e+00 0.000000e+00 0.000000e+00
 0.000000e+00 6.758695e-01 3.241304e-01 0.000000e+00 0.000000e+00
 0.000000e+00 0.000000e+00 6.519162e-01 3.480838e-01 0.000000e+00
 0.000000e+00 0.000000e+00 0.000000e+00 6.359907e-01 3.640094e-01
 0.000000e+00 0.000000e+00 0.000000e+00 0.000000e+00 0.000000e+00
<ENDHMM>
~h "m"
<BEGINHMM>
<NUMSTATES> 5
<STATE> 2
<MEAN> 39
 -9.175941e+00 5.920773e+00 -8.058636e-01 -1.449664e+00 4.490731e+00 7.554318e-02 4.639929e+00 -9.380020e-01 4.755963e+00 -5.122007e+00 2.702702e-02 -5.007632e+00 6.968333e+01 1.882143e-01 6.105020e-01 4.955025e-01 4.608766e-01 4.673005e-01 4.226882e-01 1.648877e-01 -1.749578e-01 -1.536266e-01 4.021215e-01 -6.069891e-02 -1.586564e-01 -4.123812e-01 7.453229e-02 -1.331278e-01 1.073856e-01 1.200266e-01 1.258428e-01 -4.053179e-02 -1.416123e-01 -1.284442e-01 -3.332054e-01 -3.259121e-01 -7.266991e-02 1.310570e-01 1.624133e-01
<VARIANCE> 39
 2.745239e+01 1.720643e+01 2.698111e+01 2.088393e+01 2.212638e+01 3.367912e+01 1.644030e+01 2.142361e+01 3.373140e+01 3.346630e+01 1.507455e+01 9.954369e+00 1.164816e+01 1.006215e+00 4.168011e-01 5.311882e-01 1.127104e+00 9.513750e-01 2.046391e+00 1.492823e+00 1.515360e+00 1.860603e+00 1.651494e+00 9.662454e-01 1.142480e+00 7.771657e-01 1.623625e-01 1.431515e-01 2.049208e-01 2.056700e-01 1.272250e-01 1.902620e-01 2.520047e-01 3.476569e-01 2.195690e-01 1.917290e-01 1.783314e-01 1.631761e-01 5.473119e-02
<GCONST> 8.951751e+01
<STATE> 3
<MEAN> 39
 -7.680987e+00 8.273464e+00 2.051912e+00 3.429640e-01 6.474260e+00 1.410199e+00 4.805114e+00 -1.259869e+00 3.587930e+00 -5.406666e+00 -3.566783e-01 -5.817914e+00 6.841558e+01 7.376262e-02 -1.598894e-02 1.266986e-01 8.252261e-03 3.398409e-01 -1.665757e-02 -1.387175e-01 -9.061319e-02 -4.452544e-01 -3.980417e-01 -1.674570e-01 8.407074e-02 5.887439e-02 -6.746245e-02 -2.358210e-01 -1.101236e-01 -1.413421e-01 -3.605113e-02 -1.144175e-01 -1.035436e-01 -2.308149e-02 -9.027120e-02 -2.361101e-01 -1.362866e-02 6.700356e-02 1.598589e-01
<VARIANCE> 39
 8.478479e+00 9.031447e+00 1.742135e+01 8.984528e+00 1.970441e+01 2.319360e+01 1.823668e+01 2.150509e+01 1.499557e+01 2.734654e+01 1.157188e+01 1.097434e+01 6.776772e+00 9.837114e-01 4.422650e-01 6.034023e-01 9.494166e-01 6.281887e-01 1.489811e+00 2.370789e+00 1.512629e+00 1.397388e+00 1.751660e+00 9.787831e-01 7.913830e-01 5.321758e-01 8.202442e-02 6.533451e-02 8.629969e-02 1.444079e-01 1.458388e-01 2.325159e-01 3.383351e-01 2.587557e-01 2.309948e-01 2.333520e-01 1.943249e-01 1.408013e-01 4.890740e-02
<GCONST> 8.079882e+01
<STATE> 4
<MEAN> 39
 -6.483515e+00 5.797965e+00 1.561484e+00 1.941884e+00 9.121099e+00 6.047084e-01 1.759467e+00 -4.676992e+00 -1.500400e+00 -1.106827e+01 -1.844057e+00 -5.151417e+00 7.178498e+01 -7.455960e-02 -3.178691e-01 -1.026628e-01 -4.425040e-03 4.853096e-02 9.236918e-02 -6.414508e-02 -1.249622e-01 -3.318561e-01 -2.674738e-01 2.382060e-03 3.767037e-02 1.499385e-01 -9.365479e-02 -6.244146e-02 8.764453e-04 -4.421255e-02 -1.366360e-01 -1.458198e-02 1.023571e-01 5.183068e-02 5.027812e-02 7.010149e-02 6.929206e-02 3.188714e-03 3.118633e-02
<VARIANCE> 39
 1.686923e+01 1.843031e+01 1.097266e+01 2.394601e+01 3.715273e+01 3.403306e+01 3.619206e+01 2.316486e+01 2.676715e+01 4.260606e+01 2.023248e+01 9.331820e+00 7.804347e+00 4.479291e-01 7.764165e-01 7.100496e-01 1.012548e+00 1.512706e+00 1.704275e+00 2.329008e+00 1.374409e+00 2.022404e+00 1.786357e+00 1.285100e+00 1.042487e+00 6.379789e-01 8.751617e-02 1.502014e-01 1.183061e-01 1.688285e-01 1.817695e-01 2.793028e-01 3.729285e-01 2.244224e-01 3.651694e-01 3.473463e-01 2.488900e-01 1.716521e-01 1.250452e-01
<GCONST> 9.204510e+01
<TRANSP> 5
 0.000000e+00 1.000000e+00 0.000000e+00 0.000000e+00 0.000000e+00
 0.000000e+00 4.700599e-01 5.299402e-01 0.000000e+00 0.000000e+00
 0.000000e+00 0.000000e+00 7.225197e-01 2.774803e-01 0.000000e+00
 0.000000e+00 0.000000e+00 0.000000e+00 7.995440e-01 2.004560e-01
 0.000000e+00 0.000000e+00 0.000000e+00 0.000000e+00 0.000000e+00
<ENDHMM>
~h "n"
<BEGINHMM>
<NUMSTATES> 5
<STATE> 2
<MEAN> 39
 -7.317718e+00 5.936898e+00 1.854882e+00 5.081869e+00 9.919098e+00 3.679767e+00 4.731161e+00 -3.462904e+00 1.279132e+00 -6.362602e+00 -4.650678e-01 -7.337016e+00 6.878576e+01 -1.980100e-01 3.177185e-01 -4.835533e-02 -1.287507e-01 4.185915e-02 3.528040e-01 4.325639e-01 1.176443e-01 2.369177e-01 3.212401e-01 -5.091783e-02 -2.402904e-01 -3.702843e-01 -5.029152e-02 -1.090469e-01 -3.689198e-02 -9.031929e-02 -8.400179e-02 -7.497527e-02 -5.814065e-02 6.705404e-02 2.363015e-02 -5.684247e-02 2.047919e-02 7.485711e-02 4.383050e-02
<VARIANCE> 39
 7.180693e+00 2.546883e+01 1.750037e+01 2.615043e+01 1.176698e+01 2.212313e+01 2.180622e+01 1.840461e+01 2.618517e+01 1.671334e+01 1.119838e+01 2.215840e+01 7.474184e+00 1.990823e-01 8.070371e-01 7.095657e-01 9.160280e-01 9.911367e-01 8.841611e-01 9.391190e-01 9.129936e-01 1.026333e+00 9.928427e-01 6.979356e-01 9.233077e-01 2.667470e-01 2.859360e-02 1.144402e-01 1.061421e-01 9.943211e-02 1.620169e-01 1.335502e-01 1.680292e-01 1.720184e-01 1.608881e-01 1.720177e-01 1.048850e-01 1.410815e-01 3.631833e-02
<GCONST> 7.512197e+01
<STATE> 3
<MEAN> 39
 -8.286480e+00 4.389529e+00 -2.827152e-01 1.273349e+00 8.625603e+00 3.553471e+00 5.937314e+00 -4.014283e+00 -7.230794e-01 -8.361432e+00 -1.241251e-01 -5.459465e+00 6.941092e+01 -4.481836e-01 -3.728417e-01 -1.436844e-01 -3.499907e-01 -1.285458e-01 -2.161828e-01 -1.233810e-01 6.407992e-01 3.040043e-01 -1.469899e-01 -1.587699e-01 6.480780e-02 1.385585e-02 -9.279098e-02 -2.779657e-01 -1.947086e-02 -1.980206e-01 -1.745397e-01 -2.204891e-01 -1.735620e-01 3.321745e-02 -7.840424e-02 -9.511421e-02 8.188629e-02 2.678301e-01 2.261616e-01
<VARIANCE> 39
 1.057471e+01 1.521101e+01 9.983925e+00 1.689136e+01 1.829969e+01 1.592985e+01 1.750902e+01 1.956503e+01 3.481544e+01 2.420452e+01 1.835885e+01 1.549135e+01 1.143441e+01 5.373700e-01 1.205981e+00 1.326522e+00 1.925712e+00 1.362953e+00 1.145935e+00 1.440718e+00 1.127557e+00 2.216971e+00 1.945464e+00 1.707304e+00 1.536080e+00 8.237365e-01 7.938683e-02 2.015670e-01 1.912194e-01 3.950603e-01 2.024605e-01 2.726805e-01 3.014677e-01 2.227327e-01 3.740245e-01 4.028177e-01 3.367433e-01 2.499322e-01 1.275256e-01
<GCONST> 9.314489e+01
<STATE> 4
<MEAN> 39
 -1.584106e+01 -2.667210e+00 -3.704023e+00 -3.548556e+00 2.217753e+00 3.256080e-01 5.902548e+00 7.426035e-01 5.038546e+00 -4.086078e+00 3.761813e+00 -1.602318e+00 6.695309e+01 -1.183115e-01 -1.539116e-01 -1.342268e-01 -1.893273e-01 -1.341928e-01 -8.492310e-02 -4.635141e-02 7.316145e-02 4.826178e-02 1.912861e-02 1.030990e-01 1.710639e-01 4.699042e-03 1.803409e-02 -2.007690e-03 4.093099e-02 2.510745e-02 2.209438e-02 1.308547e-02 -1.148374e-02 -4.131660e-02 -4.328361e-02 -3.910733e-02 -2.026551e-02 -5.332279e-03 4.648958e-02
<VARIANCE> 39
 1.090337e+01 3.543310e+01 8.313641e+00 1.007362e+01 1.117731e+01 9.910739e+00 9.183784e+00 1.217893e+01 1.941879e+01 2.341010e+01 1.349965e+01 1.690294e+01 9.496822e+00 1.750304e-01 7.819416e-01 4.593942e-01 5.585181e-01 5.275223e-01 6.719192e-01 7.509650e-01 8.393571e-01 1.155710e+00 1.188928e+00 9.203844e-01 1.039678e+00 1.967631e-01 2.955417e-02 8.826698e-02 7.521421e-02 8.949631e-02 8.980576e-02 1.191461e-01 1.378681e-01 1.747472e-01 2.171905e-01 2.061668e-01 1.833646e-01 2.046666e-01 3.192277e-02
<GCONST> 7.004066e+01
<TRANSP> 5
 0.000000e+00 1.000000e+00 0.000000e+00 0.000000e+00 0.000000e+00
 0.000000e+00 8.430071e-01 1.569929e-01 0.000000e+00 0.000000e+00
 0.000000e+00 0.000000e+00 6.168474e-01 3.831526e-01 0.000000e+00
 0.000000e+00 0.000000e+00 0.000000e+00 9.012276e-01 9.877238e-02
 0.000000e+00 0.000000e+00 0.000000e+00 0.000000e+00 0.000000e+00
<ENDHMM>
~h "q"
<BEGINHMM>
<NUMSTATES> 5
<STATE> 2
<MEAN> 39
 -1.496363e+01 6.328760e-01 4.629085e+00 -6.807854e+00 -8.193963e-01 -3.112121e+00 6.718457e+00 1.174682e+00 2.360169e+00 -6.575332e+00 1.515128e+00 -3.347038e+00 7.349593e+01 -1.246658e+00 -7.761988e-01 5.344126e-01 -8.412372e-01 -3.940406e-01 5.867192e-01 4.804114e-01 1.205440e-01 2.032848e-02 -1.553454e-01 2.143908e-01 3.836060e-01 3.378320e-01 7.016357e-02 -6.350106e-02 -1.269248e-01 4.600006e-02 9.838687e-02 9.331632e-02 -1.396713e-02 5.817982e-03 3.706492e-02 -1.506318e-02 -4.449331e-02 -2.371634e-02 -6.081259e-02
<VARIANCE> 39
 4.444838e+01 2.029813e+01 2.627117e+01 3.701269e+01 2.405015e+01 2.971355e+01 3.293196e+01 3.773365e+01 3.070031e+01 2.082154e+01 2.547895e+01 2.730599e+01 1.008214e+01 2.574997e+00 2.314321e+00 2.541514e+00 1.716896e+00 2.667046e+00 3.666804e+00 3.382834e+00 5.845908e+00 2.555766e+00 3.074910e+00 2.178275e+00 2.625436e+00 1.195444e+00 5.898209e-01 3.906172e-01 4.808317e-01 4.356616e-01 5.283282e-01 6.340981e-01 5.815282e-01 1.091052e+00 4.456735e-01 5.617164e-01 4.826108e-01 5.219877e-01 2.004432e-01
<GCONST> 1.179310e+02
<STATE> 3
<MEAN> 39
 -1.962504e+01 -4.699861e+00 2.936471e+00 -8.468520e+00 -4.876648e-01 1.000856e+00 8.688091e+00 1.540826e+00 2.293322e+00 -7.556182e+00 1.626152e+00 -1.475519e+00 7.407177e+01 1.097180e+00 -3.849635e-01 -7.616680e-01 1.437666e+00 7.153445e-01 2.131392e-01 -2.501848e-01 -1.178682e-01 -2.906989e-01 1.756365e-01 5.431153e-02 -1.944416e-02 -5.053697e-01 5.136073e-01 4.594275e-01 2.183419e-01 4.779045e-01 3.779701e-01 -8.772563e-02 -3.591518e-01 -2.259227e-01 -7.160410e-02 -8.408485e-02 -1.773603e-01 -3.046416e-01 -4.310752e-02
<VARIANCE> 39
 2.401105e+01 3.319057e+01 3.518157e+01 1.746875e+01 2.405064e+01 2.696255e+01 3.486072e+01 4.710169e+01 1.900679e+01 2.505958e+01 1.622191e+01 1.829533e+01 7.449512e+00 2.465812e+00 2.373559e+00 1.568984e+00 1.685122e+00 1.965934e+00 1.910810e+00 4.574175e+00 2.284918e+00 2.119578e+00 2.123200e+00 1.442180e+00 1.853735e+00 7.356584e-01 5.596086e-01 4.943980e-01 3.831875e-01 2.443620e-01 4.083858e-01 4.527866e-01 1.036506e+00 5.092680e-01 4.920356e-01 3.968951e-01 3.364695e-01 5.304500e-01 1.784370e-01
<GCONST> 1.100542e+02
<STATE> 4
<MEAN> 39
 -1.012911e+01 -2.965406e+00 4.663209e+00 2.743422e+00 8.846788e+00 1.802640e+00 3.152485e+00 -4.427840e-01 3.654273e-03 -8.964911e+00 -1.502708e+00 -7.369273e+00 7.295621e+01 2.673447e+00 1.601700e+00 6.339242e-01 2.066241e+00 2.078115e+00 -2.696036e-01 -2.121668e+00 -1.082467e+00 -7.341111e-01 -9.344177e-01 -1.304974e+00 -1.992942e+00 3.010255e-01 -4.355319e-01 -9.856738e-02 -2.484544e-01 -4.978671e-01 -3.743203e-01 -2.687440e-01 -1.922502e-01 -2.921706e-01 -8.275776e-02 -2.254972e-02 7.858282e-02 3.975602e-01 2.186896e-01
<VARIANCE> 39
 1.799472e+01 2.660176e+01 1.741813e+01 4.289199e+01 3.722576e+01 2.067764e+01 5.906766e+01 2.198575e+01 4.174709e+01 2.037540e+01 2.299695e+01 2.541218e+01 9.382203e+00 3.325100e+00 1.498443e+00 2.837491e+00 2.341413e+00 4.146677e+00 2.956372e+00 2.500047e+00 1.502534e+00 4.331811e+00 2.221381e+00 2.103540e+00 3.291288e+00 5.056202e-01 3.586054e-01 4.393562e-01 2.872133e-01 2.952169e-01 3.939976e-01 3.880224e-01 9.330697e-01 2.458109e-01 3.338778e-01 5.223768e-01 4.384539e-01 7.524683e-01 8.870184e-02
<GCONST> 1.115375e+02
<TRANSP> 5
 0.000000e+00 1.000000e+00 0.000000e+00 0.000000e+00 0.000000e+00
 0.000000e+00 8.764718e-01 1.235282e-01 0.000000e+00 0.000000e+00
 0.000000e+00 0.000000e+00 7.936612e-01 2.063387e-01 0.000000e+00
 0.000000e+00 0.000000e+00 0.000000e+00 6.092312e-01 3.907688e-01
 0.000000e+00 0.000000e+00 0.000000e+00 0.000000e+00 0.000000e+00
<ENDHMM>
~h "r"
<BEGINHMM>
<NUMSTATES> 5
<STATE> 2
<MEAN> 39
 -5.561743e+00 1.410424e+00 5.062688e-01 -3.219335e+00 5.891767e+00 1.094634e+00 -1.155579e+00 -3.479842e+00 -5.446418e+00 -1.427246e+01 1.497506e+00 -1.642132e+00 7.474026e+01 6.077179e-02 2.720965e-01 -2.933457e-01 -3.352866e-01 4.165768e-01 3.621933e-01 -3.552338e-01 -1.660787e-01 -1.952911e-01 -5.923538e-01 -1.815192e-01 1.814946e-01 -1.528861e-01 -1.613297e-01 1.700407e-01 -2.678034e-02 1.242221e-01 -5.331546e-02 -4.621118e-02 2.954506e-01 1.382118e-01 2.392233e-01 1.557705e-01 -1.570200e-01 -1.719484e-01 -2.365621e-01
<VARIANCE> 39
 6.008848e+00 1.474979e+01 1.053240e+01 4.367491e+01 2.689241e+01 2.434288e+01 1.393209e+01 1.357066e+01 3.327379e+01 3.877013e+01 1.948869e+01 2.345725e+01 3.860851e+00 4.463170e-01 1.483067e+00 7.087939e-01 8.810584e-01 1.480897e+00 1.719022e+00 1.572237e+00 2.088591e+00 1.893681e+00 2.415905e+00 1.998611e+00 1.310589e+00 8.149119e-01 9.537789e-02 2.056663e-01 1.143555e-01 2.481849e-01 3.128040e-01 3.328346e-01 2.210379e-01 4.405707e-01 4.364553e-01 4.664019e-01 3.764640e-01 1.818528e-01 1.133069e-01
<GCONST> 9.364046e+01
<STATE> 3
<MEAN> 39
 -6.187668e+00 5.892877e+00 -6.169307e-01 -2.639455e+00 6.706184e+00 7.388507e-01 1.030667e+00 -3.092940e+00 -2.135402e+00 -1.275691e+01 -1.899197e+00 -4.806292e+00 7.095601e+01 -3.918685e-01 3.227136e-01 1.454707e-02 7.794257e-01 3.049154e-01 3.926143e-02 5.030080e-01 1.937972e-01 4.461193e-01 4.306870e-02 -3.586183e-01 -5.694349e-02 -7.242678e-01 -1.164989e-01 -3.175590e-01 2.044002e-01 7.053315e-03 -8.055519e-02 -3.066632e-02 -3.097965e-02 1.283312e-01 -1.429634e-02 1.594657e-01 2.599466e-01 1.660518e-01 2.149556e-01
<VARIANCE> 39
 8.368347e+00 9.369645e+00 1.018798e+01 2.212612e+01 2.299656e+01 1.807990e+01 1.084060e+01 1.915759e+01 2.301989e+01 3.553738e+01 1.584163e+01 1.948931e+01 7.738290e+00 2.461886e-01 1.226041e+00 8.774198e-01 1.639103e+00 2.167511e+00 1.238129e+00 1.525257e+00 2.047976e+00 1.622469e+00 2.871574e+00 1.702905e+00 1.616646e+00 8.896178e-01 5.888630e-02 2.730304e-01 1.875251e-01 3.108028e-01 3.601301e-01 4.024311e-01 2.248888e-01 4.281524e-01 3.086866e-01 4.676485e-01 2.622426e-01 2.434808e-01 2.195550e-01
<GCONST> 9.358759e+01
<STATE> 4
<MEAN> 39
 -6.634961e+00 1.887029e+00 5.797610e-02 3.236012e+00 9.835335e+00 1.504338e+00 2.453893e+00 -9.774294e-01 -6.417284e+00 -1.788036e+01 -5.721115e-01 -3.040191e-01 7.111581e+01 -2.874006e-01 -2.615828e-01 3.040602e-01 -6.817356e-02 -3.161727e-02 1.914834e-01 9.961943e-03 -2.406972e-02 1.876750e-02 2.545570e-01 2.547491e-01 -8.479204e-02 1.019775e-01 -4.974410e-02 -2.903044e-02 5.051744e-02 -2.317786e-02 -1.286472e-01 5.110417e-02 -2.170398e-02 -1.510002e-01 9.506056e-02 1.746635e-01 5.274203e-02 -5.282065e-02 4.432756e-02
<VARIANCE> 39
 5.431415e+00 1.556844e+01 1.586922e+01 1.691851e+01 1.952384e+01 2.226900e+01 2.834303e+01 2.578486e+01 3.984512e+01 5.177442e+01 1.939261e+01 2.869990e+01 8.964360e+00 4.449531e-01 1.788177e+00 1.317855e+00 1.394308e+00 1.678073e+00 2.184726e+00 2.132371e+00 2.451107e+00 2.931800e+00 3.562788e+00 2.136553e+00 2.528992e+00 9.162755e-01 7.145587e-02 2.799531e-01 2.626373e-01 2.370801e-01 3.432568e-01 2.876972e-01 4.212806e-01 5.308616e-01 4.616469e-01 6.894994e-01 3.776189e-01 4.236414e-01 1.659313e-01
<GCONST> 1.025272e+02
<TRANSP> 5
 0.000000e+00 1.000000e+00 0.000000e+00 0.000000e+00 0.000000e+00
 0.000000e+00 7.579615e-01 2.420385e-01 0.000000e+00 0.000000e+00
 0.000000e+00 0.000000e+00 6.999778e-01 3.000222e-01 0.000000e+00
 0.000000e+00 0.000000e+00 0.000000e+00 8.042993e-01 1.957007e-01
 0.000000e+00 0.000000e+00 0.000000e+00 0.000000e+00 0.000000e+00
<ENDHMM>
~h "s"
<BEGINHMM>
<NUMSTATES> 5
<STATE> 2
<MEAN> 39
 -1.845096e+01 -2.324856e+00 8.637378e+00 -3.745199e+00 3.699609e+00 1.685869e+00 8.052604e+00 -2.827316e+00 -8.702965e-01 -7.996216e+00 2.069799e-01 -2.100192e+00 7.360835e+01 -2.186034e+00 -8.904537e-01 1.181890e+00 -1.247512e+00 -9.875425e-01 -2.004864e-01 2.133319e-01 -3.069023e-01 5.150401e-01 4.963888e-01 -9.301804e-02 4.259569e-01 6.436432e-01 3.869256e-02 1.441724e-01 -1.513765e-01 -1.384802e-01 8.933105e-02 -1.180754e-02 -2.051225e-01 1.637319e-02 7.312047e-02 3.406927e-03 -3.279086e-02 -1.106031e-01 -6.718709e-02
<VARIANCE> 39
 4.652827e+01 1.944417e+01 3.546500e+01 2.825020e+01 2.049805e+01 3.499951e+01 2.085975e+01 3.979443e+01 2.556000e+01 2.392839e+01 1.435005e+01 1.082596e+01 5.884734e+01 1.813046e+00 1.058525e+00 1.757861e+00 1.538416e+00 1.422208e+00 1.746384e+00 1.835807e+00 1.743101e+00 1.718366e+00 1.658871e+00 1.216827e+00 1.251767e+00 6.633016e-01 3.338870e-01 1.691282e-01 2.627114e-01 2.159595e-01 2.540608e-01 3.302385e-01 2.876101e-01 2.908006e-01 3.255530e-01 3.562172e-01 2.397559e-01 2.252539e-01 1.096072e-01
<GCONST> 1.010191e+02
<STATE> 3
<MEAN> 39
 -2.372294e+01 -6.018082e+00 8.364227e+00 -9.011271e+00 1.045762e+00 1.741450e+00 8.075901e+00 -2.329235e+00 5.865631e-01 -5.679319e+00 1.608461e+00 -3.268137e-01 7.430518e+01 -3.738807e-01 -1.012982e-01 -4.280419e-01 -3.583516e-01 -3.555132e-02 -1.189379e-01 -6.172654e-02 2.413950e-01 4.396104e-01 2.583936e-01 1.074674e-01 4.781542e-02 -1.647988e-01 3.598809e-01 4.652232e-02 -2.789046e-01 3.189527e-01 1.099586e-01 -8.103794e-02 5.691828e-02 1.091701e-01 -1.401983e-03 -3.797303e-02 6.685206e-02 -3.951990e-02 -1.055605e-01
<VARIANCE> 39
 3.304431e+01 2.777189e+01 5.304231e+01 2.235678e+01 8.225867e+00 2.339805e+01 1.930595e+01 2.701243e+01 2.490838e+01 2.136602e+01 1.477305e+01 1.002418e+01 5.076685e+01 6.107489e-01 6.636687e-01 1.069328e+00 7.819005e-01 5.420942e-01 9.580082e-01 7.483089e-01 9.547457e-01 1.107962e+00 1.099734e+00 8.103057e-01 6.625649e-01 2.453203e-01 1.368290e-01 1.135303e-01 2.167170e-01 1.456513e-01 1.397104e-01 2.229181e-01 1.261778e-01 2.128549e-01 2.350663e-01 1.681742e-01 1.558153e-01 1.544069e-01 5.527272e-02
<GCONST> 8.383281e+01
<STATE> 4
<MEAN> 39
 -2.125951e+01 -8.083488e-01 1.261646e+00 -7.855097e+00 1.750444e+00 2.198993e+00 7.545809e+00 -1.237328e+00 6.347466e+00 -2.401750e+00 3.061766e+00 -1.261388e+00 6.929668e+01 6.341710e-01 1.801321e-01 -5.197309e-01 5.105586e-01 2.031394e-01 -1.939862e-01 4.085024e-02 1.160783e-01 -1.326417e-01 -1.338029e-01 3.066673e-02 -1.259225e-01 -2.315030e-01 1.630474e-01 2.051885e-02 9.159498e-02 1.260239e-01 3.404219e-02 -5.803082e-02 -4.514942e-02 -6.246787e-02 -2.024203e-01 -1.813966e-01 -7.282729e-02 -7.469337e-02 8.055639e-02
<VARIANCE> 39
 3.013813e+01 1.761559e+01 4.306629e+01 2.199092e+01 9.722925e+00 1.403250e+01 1.165523e+01 1.965285e+01 2.426958e+01 1.457980e+01 1.472173e+01 1.204552e+01 4.704480e+01 2.201531e+00 1.405039e+00 2.343955e+00 1.283159e+00 9.765406e-01 1.333884e+00 1.092873e+00 1.261179e+00 2.013310e+00 1.552025e+00 1.123595e+00 1.106910e+00 1.248372e+00 3.583272e-01 2.675197e-01 3.912012e-01 2.313748e-01 2.063518e-01 2.408464e-01 2.102035e-01 2.672395e-01 3.605497e-01 2.786023e-01 2.185212e-01 2.355685e-01 2.141168e-01
<GCONST> 9.701370e+01
<TRANSP> 5
 0.000000e+00 1.000000e+00 0.000000e+00 0.000000e+00 0.000000e+00
 0.000000e+00 7.664925e-01 2.335075e-01 0.000000e+00 0.000000e+00
 0.000000e+00 0.000000e+00 7.821731e-01 2.178269e-01 0.000000e+00
 0.000000e+00 0.000000e+00 0.000000e+00 8.505379e-01 1.494621e-01
 0.000000e+00 0.000000e+00 0.000000e+00 0.000000e+00 0.000000e+00
<ENDHMM>
~h "t"
<BEGINHMM>
<NUMSTATES> 5
<STATE> 2
<MEAN> 39
 -6.498572e+00 -3.592202e+00 -1.388467e+00 -3.303196e+00 5.677333e-01 -4.274148e+00 6.275039e+00 -5.021598e+00 -5.397597e+00 -1.082891e+01 3.888359e+00 -3.052639e+00 8.052006e+01 1.734007e-01 -1.053407e-01 -1.599050e-01 -1.703004e-01 -1.789303e-01 -1.203001e-01 -2.249380e-02 -1.856005e-01 -2.348407e-01 -5.351194e-02 2.161478e-01 1.464582e-01 1.596876e-01 -2.927026e-02 1.316737e-01 5.838914e-02 7.229982e-02 1.076595e-01 1.386754e-01 -1.850365e-02 3.033553e-02 8.251598e-02 1.870791e-02 -1.341500e-01 -4.285076e-02 -1.456807e-01
<VARIANCE> 39
 1.816316e+01 1.253064e+01 1.392088e+01 1.870680e+01 3.086135e+01 1.908523e+01 4.700159e+01 2.629844e+01 4.959048e+01 3.204356e+01 2.319115e+01 2.246831e+01 2.273604e+01 4.336458e-01 6.979418e-01 7.794060e-01 9.578661e-01 1.082803e+00 8.993561e-01 1.268343e+00 1.138684e+00 1.123339e+00 1.418853e+00 1.147147e+00 9.788539e-01 5.136307e-01 9.310940e-02 1.359846e-01 1.037439e-01 1.423363e-01 1.507887e-01 1.584854e-01 2.205257e-01 2.416026e-01 1.997660e-01 2.451875e-01 1.701200e-01 1.992429e-01 8.654884e-02
<GCONST> 8.758672e+01
<STATE> 3
<MEAN> 39
 -7.033805e+00 -5.126342e-01 -5.317419e-01 -3.811676e+00 3.645709e+00 -3.323501e-01 3.708236e+00 -7.812005e+00 -8.165920e+00 -1.153596e+01 1.386034e+00 -3.052526e+00 7.900150e+01 1.975102e-01 4.055021e-01 2.401095e-01 2.172484e-01 7.075451e-02 4.835872e-01 -4.070435e-02 -5.776912e-02 -1.103540e-01 7.335971e-02 -1.274937e-01 -1.083926e-01 -4.898134e-01 -1.050749e-02 1.590658e-01 -9.354775e-02 1.004015e-01 -3.924064e-03 -1.675029e-02 3.937223e-02 9.778716e-02 3.515050e-01 1.063966e-01 -4.472864e-02 -2.821318e-02 -2.593196e-01
<VARIANCE> 39
 1.440371e+01 1.533030e+01 2.854264e+01 2.298255e+01 1.803564e+01 2.227658e+01 2.590615e+01 3.112548e+01 3.719430e+01 2.071261e+01 1.932112e+01 2.916672e+01 1.854382e+01 1.001429e+00 1.051122e+00 1.256656e+00 1.350172e+00 1.470163e+00 1.768614e+00 2.267107e+00 1.763624e+00 3.260686e+00 2.166166e+00 1.356082e+00 1.345910e+00 1.951066e+00 1.199116e-01 1.963187e-01 2.775999e-01 2.282962e-01 2.946922e-01 3.836187e-01 3.236575e-01 3.361766e-01 5.065678e-01 3.843470e-01 2.990440e-01 2.229830e-01 2.634278e-01
<GCONST> 1.017127e+02
<STATE> 4
<MEAN> 39
 -8.599316e+00 2.703429e+00 -9.030552e-01 -1.706367e+00 4.982037e+00 3.818093e-01 4.954410e+00 -4.446541e+00 -2.452134e+00 -1.029035e+01 1.730855e+00 -1.507692e+00 7.142963e+01 -2.511883e-01 1.640734e-01 -2.244166e-01 1.315067e-02 1.318976e-02 -5.174593e-02 9.246568e-02 4.082148e-01 7.198715e-01 2.833640e-01 -4.769553e-02 -1.527767e-02 -4.012412e-01 -6.011403e-02 -1.558307e-01 4.390037e-02 -7.791420e-02 -1.245067e-02 1.105309e-02 -3.211919e-03 2.258015e-02 -1.312986e-01 -4.002997e-02 -6.089410e-03 -4.090608e-02 2.091994e-01
<VARIANCE> 39
 1.598621e+01 2.185798e+01 1.188179e+01 1.706131e+01 1.424480e+01 1.391252e+01 1.691994e+01 1.912265e+01 1.880482e+01 2.580450e+01 1.855427e+01 2.132721e+01 1.651346e+01 1.130619e+00 1.243562e+00 1.239999e+00 1.334769e+00 1.263365e+00 1.347650e+00 1.435172e+00 1.596368e+00 1.976007e+00 1.806268e+00 1.221884e+00 1.488544e+00 1.292433e+00 1.564940e-01 2.497280e-01 2.223872e-01 2.008038e-01 2.522162e-01 2.787553e-01 2.908967e-01 3.432305e-01 2.960305e-01 3.650239e-01 2.282166e-01 2.747071e-01 2.050369e-01
<GCONST> 9.532713e+01
<TRANSP> 5
 0.000000e+00 1.000000e+00 0.000000e+00 0.000000e+00 0.000000e+00
 0.000000e+00 8.018264e-01 1.981736e-01 0.000000e+00 0.000000e+00
 0.000000e+00 0.000000e+00 7.483199e-01 2.516800e-01 0.000000e+00
 0.000000e+00 0.000000e+00 0.000000e+00 8.443061e-01 1.556939e-01
 0.000000e+00 0.000000e+00 0.000000e+00 0.000000e+00 0.000000e+00
<ENDHMM>
~h "u"
<BEGINHMM>
<NUMSTATES> 5
<STATE> 2
<MEAN> 39
 -6.015765e+00 1.010825e+00 4.188675e+00 9.143146e+00 1.533237e+01 6.935943e-01 -7.330411e+00 -5.020599e+00 1.171491e-01 -1.194677e+01 -5.064401e+00 -8.740469e+00 7.194843e+01 2.373475e-01 8.016936e-01 -3.294463e-01 -9.690923e-03 -1.060482e-01 -6.446047e-01 -3.975850e-01 -7.918937e-01 3.882979e-01 2.975212e-01 -2.563630e-01 -4.655545e-01 -1.217698e-01 -2.444738e-01 1.097435e-02 -2.379101e-03 -4.181822e-01 -5.265527e-01 -2.198786e-01 2.387050e-01 5.034073e-02 1.440729e-01 4.377172e-01 2.556888e-01 1.289418e-01 -6.708039e-02
<VARIANCE> 39
 4.678389e+00 8.122511e+00 1.111309e+01 4.286275e+01 4.918095e+01 6.444517e+00 1.858167e+01 1.202134e+01 1.013702e+01 4.913390e+00 3.122136e+00 1.170349e+01 2.115168e+00 1.169534e+00 4.664051e-01 5.055213e-01 3.976547e+00 4.888099e+00 1.469994e+00 2.725634e+00 1.300303e+00 2.410662e+00 2.332690e+00 1.088735e+00 1.308417e+00 3.483171e-01 1.342354e-01 9.622898e-02 1.205308e-01 2.890733e-01 1.431363e-01 2.067409e-01 2.053573e-01 2.884246e-01 2.588702e-01 1.431960e-01 1.292624e-01 3.443578e-01 3.695938e-02
<GCONST> 8.150230e+01
<STATE> 3
<MEAN> 39
 -1.282147e+01 3.895834e+00 4.467865e+00 -7.360577e+00 2.122431e+00 -6.662474e+00 1.158921e+00 -9.522618e-01 5.346063e+00 -3.467488e+00 -7.672887e-01 -2.796377e+00 6.986277e+01 4.700328e-01 8.516670e-01 6.280236e-01 6.802912e-01 1.910757e-03 -8.730742e-01 -4.028716e-01 -1.738437e-01 -1.939832e-01 8.040129e-01 7.702699e-02 -5.696065e-02 -2.184020e-01 2.513354e-01 1.097112e-01 4.081589e-02 1.586015e-01 7.977878e-02 2.133682e-01 -1.968254e-01 -1.430555e-01 -2.935754e-01 -2.661104e-01 -5.168361e-02 2.725684e-02 2.242176e-02
<VARIANCE> 39
 3.703619e+01 1.572406e+01 3.004859e+01 5.157710e+01 1.263656e+01 3.024514e+01 3.372371e+01 2.007038e+01 4.166875e+01 2.175204e+01 9.283644e+00 8.276823e+00 3.082555e+00 3.509612e+00 2.955719e+00 1.471119e+00 5.472891e+00 1.101575e+00 2.217102e+00 3.544016e+00 2.910422e+00 4.846264e+00 3.851280e+00 1.136606e+00 3.978546e-01 6.466621e-01 3.286460e-01 3.494815e-01 2.761104e-01 6.724374e-01 1.232520e-01 5.143577e-01 8.254848e-01 6.225401e-01 9.660749e-01 6.438475e-01 1.724564e-01 1.296197e-01 5.028058e-02
<GCONST> 1.049414e+02
<STATE> 4
<MEAN> 39
 -5.023176e+00 1.114791e+01 4.206624e+00 1.614314e+00 4.333569e+00 -5.505039e+00 -2.172305e+00 -4.400250e+00 5.114952e+00 -5.715771e+00 -1.091828e+00 -4.421168e+00 6.850259e+01 -2.415219e-02 -1.691428e-01 -2.446764e-01 -2.230051e-01 -1.873117e-01 2.334073e-01 2.954027e-01 1.150908e-01 1.880783e-01 1.609699e-02 -1.676845e-01 -2.367652e-01 -5.071404e-03 -5.072026e-02 -2.387113e-01 -6.966583e-02 -6.217875e-02 9.169715e-02 9.543818e-02 7.914450e-02 1.856543e-01 -6.721522e-02 -1.499559e-01 -9.324516e-03 4.817471e-03 7.124228e-02
<VARIANCE> 39
 5.281381e+00 7.624383e+00 1.653120e+01 1.447012e+01 2.880802e+01 4.219696e+01 2.487572e+01 1.721406e+01 6.125537e+00 4.248645e+01 1.173730e+01 1.780716e+01 3.030991e+00 2.902285e-01 7.188582e-01 1.283482e+00 5.960875e-01 1.111249e+00 3.922406e+00 3.259833e+00 2.006907e+00 1.085292e+00 2.480931e+00 1.813017e+00 2.092109e+00 2.683036e-01 5.545314e-02 1.230874e-01 2.106334e-01 1.085434e-01 2.194901e-01 5.283985e-01 5.677823e-01 3.408833e-01 2.314654e-01 4.947391e-01 4.337730e-01 4.425698e-01 3.702480e-02
<GCONST> 8.887360e+01
<TRANSP> 5
 0.000000e+00 1.000000e+00 0.000000e+00 0.000000e+00 0.000000e+00
 0.000000e+00 7.692322e-01 2.307678e-01 0.000000e+00 0.000000e+00
 0.000000e+00 0.000000e+00 8.244249e-01 1.755751e-01 0.000000e+00
 0.000000e+00 0.000000e+00 0.000000e+00 9.314075e-01 6.859250e-02
 0.000000e+00 0.000000e+00 0.000000e+00 0.000000e+00 0.000000e+00
<ENDHMM>
~h "w"
<BEGINHMM>
<NUMSTATES> 5
<STATE> 2
<MEAN> 39
 -1.130442e+01 1.960844e+00 4.810938e+00 -2.917067e-01 4.552173e+00 -1.716516e+00 6.156022e+00 -5.311544e-01 -2.717114e-01 -9.110420e+00 -1.390316e+00 -4.721500e+00 7.214702e+01 3.351314e-01 5.525624e-01 3.935785e-01 1.774658e-01 -2.409502e-01 -7.024685e-01 -2.688451e-01 1.270814e-01 2.556855e-01 -6.582864e-02 -4.454332e-01 -4.141181e-01 3.577592e-01 -3.030605e-02 -1.156778e-02 -9.148651e-02 -8.560438e-02 -5.583565e-02 -1.443158e-01 -2.232952e-01 3.553802e-03 2.294761e-01 1.060840e-01 6.570290e-02 1.020561e-02 2.633723e-02
<VARIANCE> 39
 4.153760e+01 4.836210e+01 6.786301e+01 2.050879e+01 2.845483e+01 2.574549e+01 4.852007e+01 1.954398e+01 3.515683e+01 3.472910e+01 1.722348e+01 2.122909e+01 2.200680e+01 4.471744e+00 3.235065e+00 2.766207e+00 1.380349e+00 2.252770e+00 2.700395e+00 2.990660e+00 1.710086e+00 3.286991e+00 2.951330e+00 1.454117e+00 2.504197e+00 1.322829e+00 4.095429e-01 3.562350e-01 3.910071e-01 2.558296e-01 3.011631e-01 3.529781e-01 4.016747e-01 2.847191e-01 5.026019e-01 5.437335e-01 2.764674e-01 3.642237e-01 1.961304e-01
<GCONST> 1.135072e+02
<STATE> 3
<MEAN> 39
 -9.933240e+00 4.567651e+00 2.890347e+00 -1.200977e+00 3.784524e+00 -4.371848e+00 4.678915e-01 -9.605505e-01 4.644569e+00 -7.615580e+00 -2.568069e+00 -5.562602e+00 7.236765e+01 1.645485e-01 3.665694e-01 7.665991e-02 -2.851563e-01 -3.141946e-01 -1.152401e-01 -3.663693e-01 -9.000418e-02 5.141729e-01 4.280997e-01 4.979638e-02 -2.909188e-01 2.654644e-02 -8.280143e-03 -1.143913e-01 -4.287600e-02 7.439615e-03 1.407650e-01 1.855102e-01 1.690033e-01 -1.437597e-01 -2.904712e-01 -3.263767e-03 2.407871e-01 5.029410e-02 -1.101744e-01
<VARIANCE> 39
 4.460111e+01 6.816165e+01 2.111036e+01 3.399480e+01 3.852957e+01 5.161098e+01 2.400976e+01 2.592007e+01 2.739177e+01 3.190648e+01 2.561968e+01 3.272620e+01 1.376404e+01 2.628888e+00 2.695957e+00 2.051919e+00 2.835379e+00 1.876656e+00 3.440460e+00 3.428567e+00 2.894100e+00 2.817393e+00 2.603231e+00 1.383572e+00 1.695282e+00 9.378820e-01 3.812523e-01 4.808281e-01 3.320793e-01 3.928711e-01 2.735154e-01 5.401829e-01 4.864571e-01 5.212103e-01 4.031551e-01 3.783888e-01 3.327683e-01 4.507115e-01 1.045292e-01
<GCONST> 1.140348e+02
<STATE> 4
<MEAN> 39
 -7.046728e+00 7.762501e+00 2.162911e+00 -2.136775e+00 2.326217e+00 -6.238791e+00 -9.495748e-01 -2.312472e+00 5.374771e+00 -5.470418e+00 -1.186725e+00 -7.617781e+00 7.107355e+01 -2.273842e-01 -2.180902e-01 -3.958055e-02 -1.361654e-01 1.462167e-01 3.088247e-01 1.701728e-01 -2.500303e-02 -1.759741e-01 -1.073485e-01 1.833636e-01 2.266300e-01 -1.855877e-02 -7.570931e-02 -1.419385e-01 -1.057065e-02 2.219078e-02 8.044957e-02 1.161816e-01 1.118932e-01 -8.277742e-03 -1.445014e-01 -8.001233e-02 1.723566e-03 7.518257e-02 3.001552e-02
<VARIANCE> 39
 2.406476e+01 2.575682e+01 1.787853e+01 2.480725e+01 2.532224e+01 2.857965e+01 1.693155e+01 2.512439e+01 1.801089e+01 3.147426e+01 1.746585e+01 2.112717e+01 8.699189e+00 1.154764e+00 1.412928e+00 1.075137e+00 1.443527e+00 1.522807e+00 1.704548e+00 1.813499e+00 2.092754e+00 1.754649e+00 2.093353e+00 1.209293e+00 1.435745e+00 4.824231e-01 1.423566e-01 1.911449e-01 1.815605e-01 2.046074e-01 2.326970e-01 2.675202e-01 2.653640e-01 3.619943e-01 2.883188e-01 3.693298e-01 2.196536e-01 2.619214e-01 6.300905e-02
<GCONST> 9.571751e+01
<TRANSP> 5
 0.000000e+00 1.000000e+00 0.000000e+00 0.000000e+00 0.000000e+00
 0.000000e+00 6.110426e-01 3.889575e-01 0.000000e+00 0.000000e+00
 0.000000e+00 0.000000e+00 5.079281e-01 4.920718e-01 0.000000e+00
 0.000000e+00 0.000000e+00 0.000000e+00 8.660783e-01 1.339217e-01
 0.000000e+00 0.000000e+00 0.000000e+00 0.000000e+00 0.000000e+00
<ENDHMM>
~h "y"
<BEGINHMM>
<NUMSTATES> 5
<STATE> 2
