~o
<STREAMINFO> 1 39
<VECSIZE> 39<NULLD><MFCC_D_A_0><DIAGC>
~h "A"
<BEGINHMM>
<NUMSTATES> 5
<STATE> 2
<MEAN> 39
 -1.033124e+01 1.127179e+00 6.335325e-01 -4.925334e-01 5.398605e+00 4.583331e-01 3.361825e+00 -2.200886e+00 8.523320e-01 -7.867643e+00 1.175270e+00 -3.744350e+00 7.113739e+01 6.259135e-03 3.594146e-03 5.223313e-04 2.182930e-03 -1.466756e-03 -2.723230e-03 5.614035e-04 6.836733e-04 -1.283593e-03 -5.549736e-03 -1.724218e-03 3.347142e-04 4.144130e-03 -9.690043e-04 -1.224839e-03 3.829084e-05 -1.056305e-03 5.616559e-05 5.857303e-06 2.078031e-04 -8.279696e-04 -1.217697e-03 5.269096e-05 -9.584679e-04 -1.312187e-03 3.802027e-04
<VARIANCE> 39
 3.793162e+01 3.335218e+01 3.058829e+01 4.101956e+01 4.440499e+01 3.382274e+01 3.572368e+01 2.787309e+01 5.006146e+01 4.005481e+01 2.610573e+01 3.129369e+01 5.144267e+01 1.412117e+00 1.634496e+00 1.187217e+00 1.425495e+00 1.618392e+00 1.701608e+00 1.835547e+00 1.484525e+00 2.194272e+00 1.784277e+00 1.458316e+00 1.639930e+00 9.006006e-01 1.996272e-01 2.526509e-01 1.955813e-01 2.077293e-01 2.519666e-01 2.938157e-01 3.111166e-01 2.701356e-01 3.641453e-01 3.152126e-01 2.623642e-01 2.910017e-01 1.418544e-01
<GCONST> 1.059722e+02
<STATE> 3
<MEAN> 39
 -1.031769e+01 1.132818e+00 6.358555e-01 -4.872097e-01 5.391203e+00 4.470821e-01 3.364629e+00 -2.202344e+00 8.455227e-01 -7.884269e+00 1.163286e+00 -3.754174e+00 7.115530e+01 1.282825e-03 1.436554e-03 7.889572e-04 -1.325292e-03 -2.989701e-03 -2.969098e-03 9.422698e-04 -3.622285e-04 -8.372209e-04 -2.473790e-03 -3.060095e-03 -3.394196e-03 4.586467e-03 -1.306211e-03 -2.468985e-04 1.339163e-04 -1.045558e-03 -6.245777e-04 2.070262e-04 2.103703e-04 -1.192596e-04 5.289320e-04 1.404778e-03 3.066754e-04 -7.176135e-04 1.317385e-04
<VARIANCE> 39
 3.791274e+01 3.336482e+01 3.057673e+01 4.077503e+01 4.428502e+01 3.397416e+01 3.568824e+01 2.783994e+01 5.006929e+01 3.988548e+01 2.598452e+01 3.129281e+01 5.054513e+01 1.411202e+00 1.634887e+00 1.182867e+00 1.420572e+00 1.610327e+00 1.709278e+00 1.832673e+00 1.478104e+00 2.190060e+00 1.780265e+00 1.456207e+00 1.638137e+00 8.949630e-01 1.997220e-01 2.523796e-01 1.952672e-01 2.076347e-01 2.510101e-01 2.957634e-01 3.109672e-01 2.691607e-01 3.642306e-01 3.145233e-01 2.626590e-01 2.914491e-01 1.413955e-01
<GCONST> 1.059056e+02
<STATE> 4
<MEAN> 39
 -1.029580e+01 1.114827e+00 6.009731e-01 -4.836086e-01 5.315668e+00 3.895573e-01 3.408165e+00 -2.169598e+00 8.419857e-01 -7.852847e+00 1.178708e+00 -3.799570e+00 7.114523e+01 -3.383813e-03 9.489208e-04 4.809676e-04 -5.844860e-03 -5.239272e-03 -6.966534e-04 1.355110e-03 -6.578524e-04 1.798852e-03 4.389143e-03 8.719285e-04 -3.846090e-03 2.498357e-03 -7.746101e-04 8.709262e-05 -1.093716e-04 -1.247925e-03 -4.457930e-04 1.068316e-03 4.026362e-04 -5.625055e-05 3.676211e-04 1.624287e-03 1.166032e-03 -7.190975e-05 -1.271109e-04
<VARIANCE> 39
 3.797761e+01 3.343798e+01 3.071614e+01 4.098096e+01 4.412831e+01 3.407130e+01 3.549973e+01 2.788344e+01 5.008447e+01 4.011940e+01 2.579983e+01 3.122325e+01 4.595065e+01 1.380850e+00 1.609700e+00 1.166922e+00 1.401783e+00 1.582923e+00 1.690702e+00 1.807694e+00 1.461563e+00 2.155514e+00 1.766783e+00 1.438753e+00 1.624683e+00 8.634339e-01 1.933455e-01 2.471724e-01 1.924385e-01 2.046266e-01 2.459937e-01 2.920003e-01 3.062774e-01 2.652445e-01 3.580648e-01 3.113388e-01 2.587919e-01 2.889034e-01 1.359311e-01
<GCONST> 1.053836e+02
<TRANSP> 5
 0.000000e+00 1.000000e+00 0.000000e+00 0.000000e+00 0.000000e+00
 0.000000e+00 7.518382e-01 2.481618e-01 0.000000e+00 0.000000e+00
 0.000000e+00 0.000000e+00 7.518375e-01 2.481625e-01 0.000000e+00
 0.000000e+00 0.000000e+00 0.000000e+00 8.794482e-01 1.205518e-01
 0.000000e+00 0.000000e+00 0.000000e+00 0.000000e+00 0.000000e+00
<ENDHMM>
~h "D"
<BEGINHMM>
<NUMSTATES> 5
<STATE> 2
<MEAN> 39
 -1.046263e+01 1.192893e+00 6.305027e-01 -4.821957e-01 5.510118e+00 3.635251e-01 3.368382e+00 -2.087046e+00 1.058523e+00 -7.760965e+00 1.078395e+00 -3.910955e+00 7.106615e+01 -8.002754e-04 2.112335e-03 2.165078e-03 -1.564994e-03 -4.300685e-04 -6.324079e-04 -1.138046e-03 -8.787271e-04 1.271468e-03 1.846282e-03 -1.804322e-04 -1.278623e-03 8.343531e-04 -4.475967e-05 -7.284283e-05 6.230097e-05 -2.442853e-04 -2.338257e-04 -5.949535e-05 4.124621e-05 -3.071028e-04 -1.978394e-04 -1.140548e-04 -8.069598e-05 -8.477430e-05 4.232170e-05
<VARIANCE> 39
 3.765159e+01 3.402439e+01 3.148469e+01 4.143038e+01 4.410116e+01 3.300908e+01 3.624625e+01 2.761554e+01 4.947715e+01 4.012057e+01 2.551658e+01 3.113912e+01 4.344355e+01 1.430533e+00 1.639362e+00 1.207966e+00 1.426063e+00 1.597724e+00 1.687130e+00 1.852222e+00 1.504564e+00 2.150095e+00 1.829018e+00 1.449835e+00 1.662362e+00 8.789857e-01 2.020932e-01 2.530756e-01 1.999116e-01 2.097155e-01 2.506926e-01 2.923805e-01 3.142056e-01 2.754931e-01 3.601594e-01 3.260430e-01 2.625300e-01 2.975152e-01 1.394317e-01
<GCONST> 1.059066e+02
<STATE> 3
<MEAN> 39
 -1.046263e+01 1.192893e+00 6.305027e-01 -4.821957e-01 5.510118e+00 3.635251e-01 3.368382e+00 -2.087046e+00 1.058523e+00 -7.760965e+00 1.078395e+00 -3.910955e+00 7.106615e+01 -8.002754e-04 2.112335e-03 2.165078e-03 -1.564994e-03 -4.300685e-04 -6.324079e-04 -1.138046e-03 -8.787271e-04 1.271468e-03 1.846282e-03 -1.804322e-04 -1.278623e-03 8.343531e-04 -4.475967e-05 -7.284283e-05 6.230097e-05 -2.442853e-04 -2.338257e-04 -5.949535e-05 4.124621e-05 -3.071028e-04 -1.978394e-04 -1.140548e-04 -8.069598e-05 -8.477430e-05 4.232170e-05
<VARIANCE> 39
 3.765159e+01 3.402439e+01 3.148469e+01 4.143038e+01 4.410116e+01 3.300908e+01 3.624625e+01 2.761554e+01 4.947715e+01 4.012057e+01 2.551658e+01 3.113912e+01 4.344355e+01 1.430533e+00 1.639362e+00 1.207966e+00 1.426063e+00 1.597724e+00 1.687130e+00 1.852222e+00 1.504564e+00 2.150095e+00 1.829018e+00 1.449835e+00 1.662362e+00 8.789857e-01 2.020932e-01 2.530756e-01 1.999116e-01 2.097155e-01 2.506926e-01 2.923805e-01 3.142056e-01 2.754931e-01 3.601594e-01 3.260430e-01 2.625300e-01 2.975152e-01 1.394317e-01
<GCONST> 1.059066e+02
<STATE> 4
<MEAN> 39
 -1.046263e+01 1.192893e+00 6.305027e-01 -4.821957e-01 5.510118e+00 3.635251e-01 3.368382e+00 -2.087046e+00 1.058523e+00 -7.760965e+00 1.078395e+00 -3.910955e+00 7.106615e+01 -8.002754e-04 2.112335e-03 2.165078e-03 -1.564994e-03 -4.300685e-04 -6.324079e-04 -1.138046e-03 -8.787271e-04 1.271468e-03 1.846282e-03 -1.804322e-04 -1.278623e-03 8.343531e-04 -4.475967e-05 -7.284283e-05 6.230097e-05 -2.442853e-04 -2.338257e-04 -5.949535e-05 4.124621e-05 -3.071028e-04 -1.978394e-04 -1.140548e-04 -8.069598e-05 -8.477430e-05 4.232170e-05
<VARIANCE> 39
 3.765159e+01 3.402439e+01 3.148469e+01 4.143038e+01 4.410116e+01 3.300908e+01 3.624625e+01 2.761554e+01 4.947715e+01 4.012057e+01 2.551658e+01 3.113912e+01 4.344355e+01 1.430533e+00 1.639362e+00 1.207966e+00 1.426063e+00 1.597724e+00 1.687130e+00 1.852222e+00 1.504564e+00 2.150095e+00 1.829018e+00 1.449835e+00 1.662362e+00 8.789857e-01 2.020932e-01 2.530756e-01 1.999116e-01 2.097155e-01 2.506926e-01 2.923805e-01 3.142056e-01 2.754931e-01 3.601594e-01 3.260430e-01 2.625300e-01 2.975152e-01 1.394317e-01
<GCONST> 1.059066e+02
<TRANSP> 5
 0.000000e+00 1.000000e+00 0.000000e+00 0.000000e+00 0.000000e+00
 0.000000e+00 6.000000e-01 4.000000e-01 0.000000e+00 0.000000e+00
 0.000000e+00 0.000000e+00 6.000000e-01 4.000000e-01 0.000000e+00
 0.000000e+00 0.000000e+00 0.000000e+00 7.000000e-01 3.000000e-01
 0.000000e+00 0.000000e+00 0.000000e+00 0.000000e+00 0.000000e+00
<ENDHMM>
~h "E"
<BEGINHMM>
<NUMSTATES> 5
<STATE> 2
<MEAN> 39
 -1.017938e+01 1.748590e+00 3.664486e-01 -1.024325e+00 5.623525e+00 1.380022e-01 4.451961e+00 -1.541082e+00 5.049122e-01 -8.665895e+00 1.729004e+00 -3.125222e+00 7.240055e+01 -4.607330e-03 2.146854e-02 1.022825e-02 1.015578e-03 -8.701053e-03 -9.201710e-03 -1.075130e-02 -2.986087e-03 -6.995699e-04 1.290934e-03 -5.461416e-03 -6.602840e-03 -5.283590e-03 -1.222898e-03 -9.959491e-04 -3.444192e-04 -3.476276e-05 -3.524231e-04 -7.124691e-04 3.359488e-04 -2.831661e-05 -5.500238e-04 9.017939e-04 1.396055e-03 1.803063e-04 4.158140e-04
<VARIANCE> 39
 3.429945e+01 2.643150e+01 3.025778e+01 3.110840e+01 3.874876e+01 2.775727e+01 3.595565e+01 2.045043e+01 4.665987e+01 3.421025e+01 2.354155e+01 2.494336e+01 2.230523e+01 1.057717e+00 1.358167e+00 1.071073e+00 1.318919e+00 1.514026e+00 1.672688e+00 1.814326e+00 1.238341e+00 1.906786e+00 1.760041e+00 1.277416e+00 1.495784e+00 7.528004e-01 1.463645e-01 2.153995e-01 1.791292e-01 2.001795e-01 2.361800e-01 2.815900e-01 2.990632e-01 2.254588e-01 3.013599e-01 3.112552e-01 2.247303e-01 2.754473e-01 1.184937e-01
<GCONST> 1.003173e+02
<STATE> 3
<MEAN> 39
 -1.021114e+01 1.818348e+00 3.998556e-01 -1.020624e+00 5.585641e+00 9.314099e-02 4.414209e+00 -1.551751e+00 4.996107e-01 -8.651569e+00 1.720532e+00 -3.147310e+00 7.238349e+01 -8.029124e-03 1.726045e-02 7.535021e-03 1.188337e-03 -8.552145e-03 -1.078798e-02 -9.711432e-03 -4.108103e-03 -1.816783e-03 4.322874e-03 -6.753628e-04 -6.046857e-03 -2.868693e-03 -8.157786e-04 -1.101413e-03 -6.687770e-04 5.710275e-06 1.217338e-05 -2.886504e-04 3.126607e-04 -3.049956e-04 -2.190347e-04 7.609106e-04 1.138569e-03 1.406062e-04 6.320127e-04
<VARIANCE> 39
 3.471386e+01 2.651801e+01 3.005449e+01 3.088658e+01 3.895650e+01 2.748405e+01 3.532383e+01 2.046056e+01 4.660023e+01 3.454007e+01 2.346173e+01 2.490717e+01 2.220375e+01 1.058494e+00 1.366704e+00 1.077922e+00 1.323577e+00 1.517812e+00 1.680996e+00 1.809115e+00 1.241962e+00 1.892824e+00 1.769566e+00 1.288823e+00 1.505310e+00 7.500084e-01 1.455238e-01 2.172986e-01 1.798401e-01 2.012996e-01 2.369599e-01 2.834272e-01 2.981299e-01 2.264270e-01 2.989802e-01 3.131349e-01 2.280325e-01 2.780578e-01 1.178874e-01
<GCONST> 1.003703e+02
<STATE> 4
<MEAN> 39
 -1.026848e+01 1.852188e+00 4.302847e-01 -1.017189e+00 5.520672e+00 3.391952e-02 4.362706e+00 -1.611160e+00 4.890493e-01 -8.616879e+00 1.726719e+00 -3.221856e+00 7.240212e+01 -9.625248e-03 9.166206e-03 -3.401268e-04 -2.552764e-03 -9.374741e-03 -8.946030e-03 -4.797194e-03 -3.039765e-03 1.236526e-03 9.178933e-03 3.545309e-03 -5.385397e-03 -1.368925e-03 -1.289665e-04 -1.087315e-03 -9.370924e-04 -4.941539e-04 -2.744695e-05 4.097786e-04 6.377952e-04 -5.036637e-05 2.681448e-04 5.905849e-04 5.963331e-04 4.336431e-05 4.051832e-04
<VARIANCE> 39
 3.530737e+01 2.721807e+01 2.943129e+01 3.046298e+01 3.915948e+01 2.698839e+01 3.471399e+01 2.036136e+01 4.558429e+01 3.473564e+01 2.324891e+01 2.480170e+01 2.199365e+01 1.053386e+00 1.372180e+00 1.079514e+00 1.316393e+00 1.512539e+00 1.671924e+00 1.797744e+00 1.254096e+00 1.868389e+00 1.772217e+00 1.301075e+00 1.505493e+00 7.493855e-01 1.427837e-01 2.175039e-01 1.801192e-01 2.009003e-01 2.364970e-01 2.827029e-01 2.959847e-01 2.294314e-01 2.942623e-01 3.139724e-01 2.322179e-01 2.784888e-01 1.174087e-01
<GCONST> 1.002764e+02
<TRANSP> 5
 0.000000e+00 1.000000e+00 0.000000e+00 0.000000e+00 0.000000e+00
 0.000000e+00 7.469043e-01 2.530957e-01 0.000000e+00 0.000000e+00
 0.000000e+00 0.000000e+00 7.469035e-01 2.530964e-01 0.000000e+00
 0.000000e+00 0.000000e+00 0.000000e+00 8.720316e-01 1.279684e-01
 0.000000e+00 0.000000e+00 0.000000e+00 0.000000e+00 0.000000e+00
<ENDHMM>
~h "H"
<BEGINHMM>
<NUMSTATES> 5
<STATE> 2
<MEAN> 39
 -9.859845e+00 7.807886e-01 2.955046e-01 -4.165566e-01 5.999952e+00 4.694968e-01 3.813696e+00 -2.422903e+00 -2.772942e-01 -8.334743e+00 2.004507e+00 -2.611213e+00 7.187947e+01 -2.463155e-02 -5.380517e-02 -2.106826e-02 -1.005635e-02 3.566567e-02 2.448178e-02 2.284457e-03 1.508888e-02 -3.980504e-03 -1.227079e-02 3.040646e-02 2.423034e-02 1.485270e-03 6.117646e-04 3.476714e-03 2.355232e-05 -1.152782e-03 -1.097927e-03 -5.387153e-04 -6.392261e-04 1.271102e-03 3.700662e-03 1.748483e-03 -1.007008e-03 -1.240241e-03 -2.740359e-03
<VARIANCE> 39
 3.601540e+01 4.694786e+01 3.036889e+01 4.246001e+01 4.417751e+01 3.289731e+01 3.806358e+01 2.710314e+01 4.352344e+01 3.158886e+01 3.176151e+01 3.541034e+01 1.862304e+01 1.211851e+00 1.734838e+00 1.238389e+00 1.354221e+00 1.493025e+00 1.642586e+00 1.886498e+00 1.341420e+00 2.179446e+00 2.006598e+00 1.608542e+00 1.594138e+00 9.145203e-01 1.770539e-01 2.616787e-01 1.966297e-01 1.979605e-01 2.347779e-01 2.848988e-01 3.306791e-01 2.446728e-01 3.591489e-01 3.535921e-01 2.736618e-01 2.756884e-01 1.388154e-01
<GCONST> 1.049221e+02
<STATE> 3
<MEAN> 39
 -9.934313e+00 6.088403e-01 2.030324e-01 -4.761352e-01 6.128973e+00 5.623968e-01 3.826621e+00 -2.336968e+00 -2.606695e-01 -8.384508e+00 2.105171e+00 -2.535316e+00 7.185703e+01 -2.271829e-02 -4.310728e-02 -1.675831e-02 -1.193696e-02 2.770890e-02 2.316719e-02 2.700360e-03 1.682212e-02 3.938830e-03 -1.012096e-02 2.355852e-02 1.751294e-02 -4.561629e-03 3.285382e-04 3.155878e-03 1.804620e-03 -1.346772e-04 -2.146475e-03 -5.699371e-04 3.246315e-04 1.654735e-04 1.346032e-03 -1.037840e-04 -2.469485e-03 -2.055480e-03 -1.339765e-03
<VARIANCE> 39
 3.505193e+01 4.694146e+01 3.151162e+01 4.218089e+01 4.321790e+01 3.194781e+01 3.804493e+01 2.862654e+01 4.312625e+01 3.151460e+01 3.216581e+01 3.561460e+01 1.847157e+01 1.190963e+00 1.743233e+00 1.242924e+00 1.360316e+00 1.477165e+00 1.618211e+00 1.885239e+00 1.331541e+00 2.134017e+00 2.034126e+00 1.646031e+00 1.612586e+00 8.998954e-01 1.740699e-01 2.637545e-01 1.957921e-01 1.997499e-01 2.340604e-01 2.812680e-01 3.312155e-01 2.429820e-01 3.502467e-01 3.615461e-01 2.794485e-01 2.787613e-01 1.359063e-01
<GCONST> 1.048821e+02
<STATE> 4
<MEAN> 39
 -1.010146e+01 3.357038e-01 -2.648162e-02 -5.441056e-01 6.163995e+00 4.934342e-01 4.040646e+00 -1.963948e+00 -1.233314e-01 -8.493185e+00 2.207126e+00 -2.430642e+00 7.168771e+01 -2.269637e-02 -2.626731e-02 -7.953255e-03 -1.148407e-02 1.361186e-02 1.868692e-02 5.309573e-03 1.618587e-02 9.892927e-03 -9.276596e-03 1.203836e-02 4.733492e-03 -8.334658e-03 -3.054804e-04 2.588869e-03 2.527026e-03 6.142523e-04 -2.193467e-03 -8.179200e-04 2.733436e-04 -9.766000e-04 2.013193e-05 -2.394723e-04 -2.350901e-03 -1.918422e-03 -2.648538e-04
<VARIANCE> 39
 3.334467e+01 4.662786e+01 3.359600e+01 4.203432e+01 4.217866e+01 3.056169e+01 3.939875e+01 3.295848e+01 4.220948e+01 3.138725e+01 3.262092e+01 3.627606e+01 1.836959e+01 1.144804e+00 1.717390e+00 1.219207e+00 1.365424e+00 1.432654e+00 1.559982e+00 1.865811e+00 1.288516e+00 2.071085e+00 2.073953e+00 1.657420e+00 1.608413e+00 8.722061e-01 1.661668e-01 2.596196e-01 1.900507e-01 2.023507e-01 2.282644e-01 2.702159e-01 3.279807e-01 2.350112e-01 3.401359e-01 3.734078e-01 2.826976e-01 2.776090e-01 1.321036e-01
<GCONST> 1.045713e+02
<TRANSP> 5
 0.000000e+00 1.000000e+00 0.000000e+00 0.000000e+00 0.000000e+00
 0.000000e+00 7.526859e-01 2.473141e-01 0.000000e+00 0.000000e+00
 0.000000e+00 0.000000e+00 7.526855e-01 2.473145e-01 0.000000e+00
 0.000000e+00 0.000000e+00 0.000000e+00 8.806990e-01 1.193009e-01
 0.000000e+00 0.000000e+00 0.000000e+00 0.000000e+00 0.000000e+00
<ENDHMM>
~h "K"
<BEGINHMM>
<NUMSTATES> 5
<STATE> 2
<MEAN> 39
 -1.036822e+01 4.271499e-01 7.113374e-01 -2.656740e-01 6.450382e+00 9.011777e-01 3.776952e+00 -2.673354e+00 -1.235492e+00 -8.970053e+00 1.129564e+00 -4.064245e+00 7.192546e+01 -7.916715e-03 2.879424e-04 1.428738e-02 -7.393638e-03 -3.239810e-02 2.028821e-02 3.715583e-02 1.708187e-02 2.559928e-02 4.875847e-02 2.239878e-02 1.763652e-02 -1.538039e-03 6.863116e-04 7.463397e-04 5.726652e-04 -6.971110e-04 -1.246403e-03 -1.433057e-03 2.021703e-03 9.496064e-04 1.381206e-03 1.795930e-03 -1.598111e-04 2.988176e-04 -1.305240e-04
<VARIANCE> 39
 3.958437e+01 3.101409e+01 2.437694e+01 4.254258e+01 3.475969e+01 2.195776e+01 3.169168e+01 3.026599e+01 4.946825e+01 4.549554e+01 2.260052e+01 3.784744e+01 2.538843e+01 1.290519e+00 1.346933e+00 1.037675e+00 1.312399e+00 1.499882e+00 1.475823e+00 1.739792e+00 1.492663e+00 1.949605e+00 1.995398e+00 1.247588e+00 1.554746e+00 1.090153e+00 1.747759e-01 1.858130e-01 1.924569e-01 1.774449e-01 2.303753e-01 2.696599e-01 3.101442e-01 2.403454e-01 2.941478e-01 3.854799e-01 2.238449e-01 2.774723e-01 1.656335e-01
<GCONST> 1.027276e+02
<STATE> 3
<MEAN> 39
 -1.038893e+01 4.289963e-01 7.831522e-01 -3.209231e-01 6.300969e+00 9.610130e-01 3.952201e+00 -2.585709e+00 -1.118180e+00 -8.747866e+00 1.216996e+00 -3.991485e+00 7.192758e+01 -4.758039e-03 2.746332e-03 1.664091e-02 -1.003021e-02 -3.562970e-02 1.276021e-02 4.258448e-02 1.994685e-02 3.012481e-02 5.368605e-02 2.106670e-02 1.832923e-02 -5.460421e-04 8.550230e-04 6.332906e-04 5.567381e-04 -5.954434e-04 -6.497897e-04 -1.917665e-03 1.039380e-03 4.267990e-04 9.900391e-04 1.075630e-03 -4.681971e-04 -2.019044e-05 3.310285e-04
<VARIANCE> 39
 4.003019e+01 3.169474e+01 2.460667e+01 4.202935e+01 3.469927e+01 2.271823e+01 3.109628e+01 3.012610e+01 4.949641e+01 4.553590e+01 2.243087e+01 3.671893e+01 2.505824e+01 1.292566e+00 1.350846e+00 1.010289e+00 1.305648e+00 1.525148e+00 1.472832e+00 1.748910e+00 1.507010e+00 1.955044e+00 1.992755e+00 1.244004e+00 1.546925e+00 1.107675e+00 1.784450e-01 1.860726e-01 1.871535e-01 1.763994e-01 2.361794e-01 2.676381e-01 3.110225e-01 2.415745e-01 2.957998e-01 3.873949e-01 2.242917e-01 2.762794e-01 1.687500e-01
<GCONST> 1.027690e+02
<STATE> 4
<MEAN> 39
 -1.052359e+01 3.873719e-01 1.003125e+00 -4.626000e-01 5.977158e+00 9.168537e-01 4.402533e+00 -2.434120e+00 -8.462461e-01 -8.079036e+00 1.415315e+00 -3.924718e+00 7.181663e+01 -3.635013e-03 -3.239454e-04 2.148940e-02 -1.566086e-02 -3.624560e-02 -2.411554e-03 4.051996e-02 2.020908e-02 3.293045e-02 5.523070e-02 1.675121e-02 1.641921e-02 5.908175e-03 2.995174e-04 9.483426e-05 3.315663e-04 4.472865e-05 2.786432e-04 -1.870638e-03 -6.678078e-04 -5.313586e-04 3.731645e-04 -7.978799e-05 -7.621320e-04 -4.769554e-04 5.452760e-04
<VARIANCE> 39
 4.137138e+01 3.310780e+01 2.638917e+01 4.336897e+01 3.577307e+01 2.407739e+01 3.035870e+01 3.009015e+01 4.887686e+01 4.378687e+01 2.189382e+01 3.410503e+01 2.459490e+01 1.265614e+00 1.316446e+00 9.565467e-01 1.334975e+00 1.495720e+00 1.419734e+00 1.753457e+00 1.543329e+00 1.966171e+00 1.948659e+00 1.253000e+00 1.533723e+00 1.087682e+00 1.747334e-01 1.801266e-01 1.753290e-01 1.788341e-01 2.312367e-01 2.524531e-01 3.056690e-01 2.450604e-01 2.990341e-01 3.789899e-01 2.279662e-01 2.748056e-01 1.660613e-01
<GCONST> 1.024925e+02
<TRANSP> 5
 0.000000e+00 1.000000e+00 0.000000e+00 0.000000e+00 0.000000e+00
 0.000000e+00 7.560641e-01 2.439358e-01 0.000000e+00 0.000000e+00
 0.000000e+00 0.000000e+00 7.560641e-01 2.439359e-01 0.000000e+00
 0.000000e+00 0.000000e+00 0.000000e+00 8.840470e-01 1.159529e-01
 0.000000e+00 0.000000e+00 0.000000e+00 0.000000e+00 0.000000e+00
<ENDHMM>
~h "S"
<BEGINHMM>
<NUMSTATES> 5
<STATE> 2
<MEAN> 39
 -1.152382e+01 6.450883e-01 2.665059e+00 5.099120e-01 7.310338e+00 1.399769e+00 2.277568e+00 -1.935009e+00 2.058203e+00 -8.857140e+00 -2.208872e-01 -3.611060e+00 7.244490e+01 9.766523e-03 5.584493e-04 -2.343141e-03 1.218017e-02 1.351338e-02 2.340601e-04 -1.550238e-02 2.596861e-02 3.255747e-02 7.221940e-03 -6.373997e-03 -1.515630e-02 -1.913801e-02 9.417291e-04 -4.006083e-04 -6.810270e-04 -2.409560e-04 -1.071567e-03 -9.651033e-04 2.081260e-04 -4.396627e-06 -7.555463e-04 -3.545082e-04 3.414940e-04 3.277311e-05 -9.378574e-05
<VARIANCE> 39
 4.290617e+01 3.684221e+01 2.727118e+01 4.688819e+01 5.077608e+01 3.263892e+01 4.991329e+01 2.445782e+01 3.804484e+01 3.380962e+01 2.447613e+01 3.539628e+01 1.834550e+01 1.914729e+00 1.878519e+00 1.384051e+00 1.630047e+00 1.848463e+00 2.437441e+00 2.302316e+00 1.845446e+00 2.278544e+00 1.826821e+00 1.675802e+00 1.839652e+00 1.012591e+00 2.446996e-01 2.926372e-01 2.280169e-01 2.298567e-01 2.793897e-01 4.351639e-01 3.336220e-01 3.352460e-01 4.037386e-01 3.170301e-01 3.068461e-01 3.259703e-01 1.622424e-01
<GCONST> 1.091002e+02
<STATE> 3
<MEAN> 39
 -1.147631e+01 6.425251e-01 2.651693e+00 5.593597e-01 7.354491e+00 1.391483e+00 2.214777e+00 -1.831423e+00 2.182806e+00 -8.828918e+00 -2.424627e-01 -3.674198e+00 7.236803e+01 1.318855e-02 -1.061297e-03 -5.249846e-03 1.105789e-02 9.129735e-03 -3.698897e-03 -1.436729e-02 2.560568e-02 2.938280e-02 5.955517e-03 -4.969343e-03 -1.491467e-02 -1.940176e-02 7.865272e-04 -3.185879e-04 -7.612657e-04 -4.164651e-04 -1.203924e-03 -1.055189e-03 4.404332e-04 -1.143555e-04 -8.095723e-04 -2.589921e-04 3.314861e-04 8.680541e-05 -7.595999e-05
<VARIANCE> 39
 4.199286e+01 3.639938e+01 2.753832e+01 4.812339e+01 5.124508e+01 3.249749e+01 5.059797e+01 2.481549e+01 3.784539e+01 3.381466e+01 2.423054e+01 3.545362e+01 1.853903e+01 1.857841e+00 1.857546e+00 1.364975e+00 1.605862e+00 1.829682e+00 2.422659e+00 2.272225e+00 1.867233e+00 2.277905e+00 1.816812e+00 1.646782e+00 1.796186e+00 9.966368e-01 2.370320e-01 2.887538e-01 2.232847e-01 2.251144e-01 2.739783e-01 4.318631e-01 3.269100e-01 3.383726e-01 4.041613e-01 3.160972e-01 3.015887e-01 3.168570e-01 1.591455e-01
<GCONST> 1.087892e+02
<STATE> 4
<MEAN> 39
 -1.135298e+01 5.918606e-01 2.519282e+00 6.402990e-01 7.387018e+00 1.335988e+00 2.086663e+00 -1.718030e+00 2.344687e+00 -8.715752e+00 -2.922878e-01 -3.876040e+00 7.217830e+01 1.670287e-02 -3.478132e-03 -9.568021e-03 8.630904e-03 1.946980e-03 -1.023099e-02 -1.209002e-02 2.353618e-02 2.389107e-02 5.424384e-03 -2.426780e-03 -1.477442e-02 -1.862188e-02 5.100684e-04 -1.817989e-04 -8.631053e-04 -7.072683e-04 -1.281880e-03 -1.127293e-03 6.861105e-04 -2.423967e-04 -8.353746e-04 -7.805173e-05 3.045241e-04 1.607955e-04 5.610957e-07
<VARIANCE> 39
 4.004274e+01 3.592619e+01 2.833263e+01 4.994976e+01 5.172007e+01 3.185025e+01 5.173385e+01 2.537182e+01 3.777379e+01 3.390701e+01 2.387093e+01 3.547169e+01 1.930914e+01 1.735913e+00 1.814441e+00 1.326293e+00 1.548991e+00 1.775320e+00 2.339388e+00 2.205940e+00 1.884572e+00 2.262952e+00 1.780653e+00 1.579812e+00 1.717010e+00 9.561951e-01 2.202022e-01 2.796785e-01 2.146750e-01 2.149146e-01 2.616073e-01 4.156987e-01 3.152038e-01 3.404518e-01 4.024650e-01 3.109529e-01 2.886331e-01 3.007579e-01 1.505487e-01
<GCONST> 1.079803e+02
<TRANSP> 5
 0.000000e+00 1.000000e+00 0.000000e+00 0.000000e+00 0.000000e+00
 0.000000e+00 7.530724e-01 2.469276e-01 0.000000e+00 0.000000e+00
 0.000000e+00 0.000000e+00 7.530723e-01 2.469277e-01 0.000000e+00
 0.000000e+00 0.000000e+00 0.000000e+00 8.786504e-01 1.213497e-01
 0.000000e+00 0.000000e+00 0.000000e+00 0.000000e+00 0.000000e+00
<ENDHMM>
~h "T"
<BEGINHMM>
<NUMSTATES> 5
<STATE> 2
<MEAN> 39
 -9.104802e+00 1.900686e+00 1.295903e+00 1.370466e+00 3.853743e+00 -1.733419e+00 3.206170e+00 -2.628288e+00 1.330137e+00 -6.770093e+00 -7.396781e-01 -6.054864e+00 7.110975e+01 -1.982378e-02 3.034520e-03 -3.260928e-02 -1.976134e-02 -4.919488e-02 -2.916466e-02 1.662258e-02 1.850669e-02 1.200093e-02 2.493473e-02 2.654199e-02 1.909844e-02 -2.093195e-02 2.008170e-04 1.254214e-03 9.015460e-04 -1.166323e-05 1.432074e-03 -4.957787e-04 -3.937535e-04 7.944016e-04 1.331595e-03 -1.424638e-04 -4.902282e-04 -3.913852e-04 8.657762e-05
<VARIANCE> 39
 4.561509e+01 2.913689e+01 2.469687e+01 3.825666e+01 5.415227e+01 4.897601e+01 3.451858e+01 2.470757e+01 4.119160e+01 2.879185e+01 3.138599e+01 2.914827e+01 1.946951e+01 1.877088e+00 2.004415e+00 1.143854e+00 1.440571e+00 1.711033e+00 1.989423e+00 2.051637e+00 1.829652e+00 2.011564e+00 1.541995e+00 1.643052e+00 1.466806e+00 1.070661e+00 2.836195e-01 3.339214e-01 2.136413e-01 2.079779e-01 2.237370e-01 3.091467e-01 3.639321e-01 3.515834e-01 3.651514e-01 3.022606e-01 2.852921e-01 2.671380e-01 1.886881e-01
<GCONST> 1.070263e+02
<STATE> 3
<MEAN> 39
 -9.204982e+00 1.925807e+00 1.146868e+00 1.255245e+00 3.622846e+00 -1.882023e+00 3.292431e+00 -2.538552e+00 1.393158e+00 -6.649609e+00 -6.230397e-01 -5.967077e+00 7.102062e+01 -1.843984e-02 7.264069e-03 -2.876485e-02 -1.996352e-02 -4.295746e-02 -3.054482e-02 1.468408e-02 2.088560e-02 1.656132e-02 2.344935e-02 2.458235e-02 1.800119e-02 -2.025470e-02 4.504642e-04 9.555102e-04 9.896931e-04 -1.514220e-06 1.533519e-03 -3.446190e-04 -5.245095e-04 6.512027e-04 1.239324e-03 -3.315363e-04 -5.136589e-04 -2.658616e-04 2.591123e-05
<VARIANCE> 39
 4.647428e+01 2.898919e+01 2.551725e+01 3.699339e+01 5.346925e+01 5.071052e+01 3.375476e+01 2.417875e+01 4.106008e+01 2.894348e+01 3.154294e+01 2.989693e+01 1.954795e+01 1.864684e+00 1.986503e+00 1.123212e+00 1.436950e+00 1.710767e+00 1.993715e+00 1.975703e+00 1.817900e+00 1.989203e+00 1.540116e+00 1.631342e+00 1.451526e+00 1.051229e+00 2.798662e-01 3.292558e-01 2.109056e-01 2.070324e-01 2.219016e-01 3.082214e-01 3.519184e-01 3.515927e-01 3.604486e-01 3.038658e-01 2.816799e-01 2.648919e-01 1.822367e-01
<GCONST> 1.067735e+02
<STATE> 4
<MEAN> 39
 -9.446757e+00 1.995091e+00 9.199004e-01 1.071704e+00 3.091700e+00 -2.456135e+00 3.302624e+00 -2.268868e+00 1.845333e+00 -6.324663e+00 -3.620332e-01 -5.707135e+00 7.077628e+01 -1.868847e-02 9.907041e-03 -2.846840e-02 -2.951407e-02 -4.008355e-02 -3.188115e-02 1.629642e-02 2.211853e-02 1.760717e-02 2.275373e-02 2.611229e-02 2.061482e-02 -1.917915e-02 8.131359e-04 3.844839e-04 1.012932e-03 -4.513079e-05 1.838049e-03 4.497897e-04 -6.666566e-04 2.493425e-04 4.868179e-04 -6.422728e-04 -1.836055e-04 -1.800530e-05 -7.014412e-05
<VARIANCE> 39
 4.873041e+01 2.932298e+01 2.777441e+01 3.605116e+01 5.256706e+01 5.422713e+01 3.402348e+01 2.318583e+01 3.949546e+01 2.933231e+01 3.145127e+01 3.115802e+01 1.968881e+01 1.770632e+00 1.910354e+00 1.059843e+00 1.446996e+00 1.669710e+00 1.960094e+00 1.845162e+00 1.790101e+00 1.855318e+00 1.498378e+00 1.574631e+00 1.405368e+00 9.638537e-01 2.543986e-01 3.117216e-01 1.973111e-01 2.054775e-01 2.155040e-01 2.994332e-01 3.266034e-01 3.492293e-01 3.370760e-01 2.964013e-01 2.689262e-01 2.565361e-01 1.608196e-01
<GCONST> 1.057496e+02
<TRANSP> 5
 0.000000e+00 1.000000e+00 0.000000e+00 0.000000e+00 0.000000e+00
 0.000000e+00 7.701517e-01 2.298483e-01 0.000000e+00 0.000000e+00
 0.000000e+00 0.000000e+00 7.701519e-01 2.298482e-01 0.000000e+00
 0.000000e+00 0.000000e+00 0.000000e+00 9.000751e-01 9.992494e-02
 0.000000e+00 0.000000e+00 0.000000e+00 0.000000e+00 0.000000e+00
<ENDHMM>
~h "Z"
<BEGINHMM>
<NUMSTATES> 5
<STATE> 2
<MEAN> 39
 -1.046263e+01 1.192893e+00 6.305027e-01 -4.821957e-01 5.510118e+00 3.635251e-01 3.368382e+00 -2.087046e+00 1.058523e+00 -7.760965e+00 1.078395e+00 -3.910955e+00 7.106615e+01 -8.002754e-04 2.112335e-03 2.165078e-03 -1.564994e-03 -4.300685e-04 -6.324079e-04 -1.138046e-03 -8.787271e-04 1.271468e-03 1.846282e-03 -1.804322e-04 -1.278623e-03 8.343531e-04 -4.475967e-05 -7.284283e-05 6.230097e-05 -2.442853e-04 -2.338257e-04 -5.949535e-05 4.124621e-05 -3.071028e-04 -1.978394e-04 -1.140548e-04 -8.069598e-05 -8.477430e-05 4.232170e-05
<VARIANCE> 39
 3.765159e+01 3.402439e+01 3.148469e+01 4.143038e+01 4.410116e+01 3.300908e+01 3.624625e+01 2.761554e+01 4.947715e+01 4.012057e+01 2.551658e+01 3.113912e+01 4.344355e+01 1.430533e+00 1.639362e+00 1.207966e+00 1.426063e+00 1.597724e+00 1.687130e+00 1.852222e+00 1.504564e+00 2.150095e+00 1.829018e+00 1.449835e+00 1.662362e+00 8.789857e-01 2.020932e-01 2.530756e-01 1.999116e-01 2.097155e-01 2.506926e-01 2.923805e-01 3.142056e-01 2.754931e-01 3.601594e-01 3.260430e-01 2.625300e-01 2.975152e-01 1.394317e-01
<GCONST> 1.059066e+02
<STATE> 3
<MEAN> 39
 -1.046263e+01 1.192893e+00 6.305027e-01 -4.821957e-01 5.510118e+00 3.635251e-01 3.368382e+00 -2.087046e+00 1.058523e+00 -7.760965e+00 1.078395e+00 -3.910955e+00 7.106615e+01 -8.002754e-04 2.112335e-03 2.165078e-03 -1.564994e-03 -4.300685e-04 -6.324079e-04 -1.138046e-03 -8.787271e-04 1.271468e-03 1.846282e-03 -1.804322e-04 -1.278623e-03 8.343531e-04 -4.475967e-05 -7.284283e-05 6.230097e-05 -2.442853e-04 -2.338257e-04 -5.949535e-05 4.124621e-05 -3.071028e-04 -1.978394e-04 -1.140548e-04 -8.069598e-05 -8.477430e-05 4.232170e-05
<VARIANCE> 39
 3.765159e+01 3.402439e+01 3.148469e+01 4.143038e+01 4.410116e+01 3.300908e+01 3.624625e+01 2.761554e+01 4.947715e+01 4.012057e+01 2.551658e+01 3.113912e+01 4.344355e+01 1.430533e+00 1.639362e+00 1.207966e+00 1.426063e+00 1.597724e+00 1.687130e+00 1.852222e+00 1.504564e+00 2.150095e+00 1.829018e+00 1.449835e+00 1.662362e+00 8.789857e-01 2.020932e-01 2.530756e-01 1.999116e-01 2.097155e-01 2.506926e-01 2.923805e-01 3.142056e-01 2.754931e-01 3.601594e-01 3.260430e-01 2.625300e-01 2.975152e-01 1.394317e-01
<GCONST> 1.059066e+02
<STATE> 4
<MEAN> 39
 -1.046263e+01 1.192893e+00 6.305027e-01 -4.821957e-01 5.510118e+00 3.635251e-01 3.368382e+00 -2.087046e+00 1.058523e+00 -7.760965e+00 1.078395e+00 -3.910955e+00 7.106615e+01 -8.002754e-04 2.112335e-03 2.165078e-03 -1.564994e-03 -4.300685e-04 -6.324079e-04 -1.138046e-03 -8.787271e-04 1.271468e-03 1.846282e-03 -1.804322e-04 -1.278623e-03 8.343531e-04 -4.475967e-05 -7.284283e-05 6.230097e-05 -2.442853e-04 -2.338257e-04 -5.949535e-05 4.124621e-05 -3.071028e-04 -1.978394e-04 -1.140548e-04 -8.069598e-05 -8.477430e-05 4.232170e-05
<VARIANCE> 39
 3.765159e+01 3.402439e+01 3.148469e+01 4.143038e+01 4.410116e+01 3.300908e+01 3.624625e+01 2.761554e+01 4.947715e+01 4.012057e+01 2.551658e+01 3.113912e+01 4.344355e+01 1.430533e+00 1.639362e+00 1.207966e+00 1.426063e+00 1.597724e+00 1.687130e+00 1.852222e+00 1.504564e+00 2.150095e+00 1.829018e+00 1.449835e+00 1.662362e+00 8.789857e-01 2.020932e-01 2.530756e-01 1.999116e-01 2.097155e-01 2.506926e-01 2.923805e-01 3.142056e-01 2.754931e-01 3.601594e-01 3.260430e-01 2.625300e-01 2.975152e-01 1.394317e-01
<GCONST> 1.059066e+02
<TRANSP> 5
 0.000000e+00 1.000000e+00 0.000000e+00 0.000000e+00 0.000000e+00
 0.000000e+00 6.000000e-01 4.000000e-01 0.000000e+00 0.000000e+00
 0.000000e+00 0.000000e+00 6.000000e-01 4.000000e-01 0.000000e+00
 0.000000e+00 0.000000e+00 0.000000e+00 7.000000e-01 3.000000e-01
 0.000000e+00 0.000000e+00 0.000000e+00 0.000000e+00 0.000000e+00
<ENDHMM>
~h "_"
<BEGINHMM>
<NUMSTATES> 5
<STATE> 2
<MEAN> 39
 -1.046263e+01 1.192893e+00 6.305027e-01 -4.821957e-01 5.510118e+00 3.635251e-01 3.368382e+00 -2.087046e+00 1.058523e+00 -7.760965e+00 1.078395e+00 -3.910955e+00 7.106615e+01 -8.002754e-04 2.112335e-03 2.165078e-03 -1.564994e-03 -4.300685e-04 -6.324079e-04 -1.138046e-03 -8.787271e-04 1.271468e-03 1.846282e-03 -1.804322e-04 -1.278623e-03 8.343531e-04 -4.475967e-05 -7.284283e-05 6.230097e-05 -2.442853e-04 -2.338257e-04 -5.949535e-05 4.124621e-05 -3.071028e-04 -1.978394e-04 -1.140548e-04 -8.069598e-05 -8.477430e-05 4.232170e-05
<VARIANCE> 39
 3.765159e+01 3.402439e+01 3.148469e+01 4.143038e+01 4.410116e+01 3.300908e+01 3.624625e+01 2.761554e+01 4.947715e+01 4.012057e+01 2.551658e+01 3.113912e+01 4.344355e+01 1.430533e+00 1.639362e+00 1.207966e+00 1.426063e+00 1.597724e+00 1.687130e+00 1.852222e+00 1.504564e+00 2.150095e+00 1.829018e+00 1.449835e+00 1.662362e+00 8.789857e-01 2.020932e-01 2.530756e-01 1.999116e-01 2.097155e-01 2.506926e-01 2.923805e-01 3.142056e-01 2.754931e-01 3.601594e-01 3.260430e-01 2.625300e-01 2.975152e-01 1.394317e-01
<GCONST> 1.059066e+02
<STATE> 3
<MEAN> 39
 -1.046263e+01 1.192893e+00 6.305027e-01 -4.821957e-01 5.510118e+00 3.635251e-01 3.368382e+00 -2.087046e+00 1.058523e+00 -7.760965e+00 1.078395e+00 -3.910955e+00 7.106615e+01 -8.002754e-04 2.112335e-03 2.165078e-03 -1.564994e-03 -4.300685e-04 -6.324079e-04 -1.138046e-03 -8.787271e-04 1.271468e-03 1.846282e-03 -1.804322e-04 -1.278623e-03 8.343531e-04 -4.475967e-05 -7.284283e-05 6.230097e-05 -2.442853e-04 -2.338257e-04 -5.949535e-05 4.124621e-05 -3.071028e-04 -1.978394e-04 -1.140548e-04 -8.069598e-05 -8.477430e-05 4.232170e-05
<VARIANCE> 39
 3.765159e+01 3.402439e+01 3.148469e+01 4.143038e+01 4.410116e+01 3.300908e+01 3.624625e+01 2.761554e+01 4.947715e+01 4.012057e+01 2.551658e+01 3.113912e+01 4.344355e+01 1.430533e+00 1.639362e+00 1.207966e+00 1.426063e+00 1.597724e+00 1.687130e+00 1.852222e+00 1.504564e+00 2.150095e+00 1.829018e+00 1.449835e+00 1.662362e+00 8.789857e-01 2.020932e-01 2.530756e-01 1.999116e-01 2.097155e-01 2.506926e-01 2.923805e-01 3.142056e-01 2.754931e-01 3.601594e-01 3.260430e-01 2.625300e-01 2.975152e-01 1.394317e-01
<GCONST> 1.059066e+02
<STATE> 4
<MEAN> 39
 -1.046263e+01 1.192893e+00 6.305027e-01 -4.821957e-01 5.510118e+00 3.635251e-01 3.368382e+00 -2.087046e+00 1.058523e+00 -7.760965e+00 1.078395e+00 -3.910955e+00 7.106615e+01 -8.002754e-04 2.112335e-03 2.165078e-03 -1.564994e-03 -4.300685e-04 -6.324079e-04 -1.138046e-03 -8.787271e-04 1.271468e-03 1.846282e-03 -1.804322e-04 -1.278623e-03 8.343531e-04 -4.475967e-05 -7.284283e-05 6.230097e-05 -2.442853e-04 -2.338257e-04 -5.949535e-05 4.124621e-05 -3.071028e-04 -1.978394e-04 -1.140548e-04 -8.069598e-05 -8.477430e-05 4.232170e-05
<VARIANCE> 39
 3.765159e+01 3.402439e+01 3.148469e+01 4.143038e+01 4.410116e+01 3.300908e+01 3.624625e+01 2.761554e+01 4.947715e+01 4.012057e+01 2.551658e+01 3.113912e+01 4.344355e+01 1.430533e+00 1.639362e+00 1.207966e+00 1.426063e+00 1.597724e+00 1.687130e+00 1.852222e+00 1.504564e+00 2.150095e+00 1.829018e+00 1.449835e+00 1.662362e+00 8.789857e-01 2.020932e-01 2.530756e-01 1.999116e-01 2.097155e-01 2.506926e-01 2.923805e-01 3.142056e-01 2.754931e-01 3.601594e-01 3.260430e-01 2.625300e-01 2.975152e-01 1.394317e-01
<GCONST> 1.059066e+02
<TRANSP> 5
 0.000000e+00 1.000000e+00 0.000000e+00 0.000000e+00 0.000000e+00
 0.000000e+00 6.000000e-01 4.000000e-01 0.000000e+00 0.000000e+00
 0.000000e+00 0.000000e+00 6.000000e-01 4.000000e-01 0.000000e+00
 0.000000e+00 0.000000e+00 0.000000e+00 7.000000e-01 3.000000e-01
 0.000000e+00 0.000000e+00 0.000000e+00 0.000000e+00 0.000000e+00
<ENDHMM>
~h "a"
<BEGINHMM>
<NUMSTATES> 5
<STATE> 2
<MEAN> 39
 -1.062705e+01 1.317459e+00 -8.390798e-02 -1.307166e+00 4.931080e+00 -5.014887e-01 4.109792e+00 -1.598432e+00 6.386608e-01 -8.569155e+00 1.371740e+00 -2.932577e+00 7.170197e+01 1.224841e-02 9.075426e-03 3.169351e-02 3.076935e-03 5.933354e-02 -1.086411e-02 9.257116e-04 7.001159e-03 1.392970e-02 3.648922e-03 -8.973110e-04 1.783077e-02 -1.345249e-03 -3.579019e-03 -3.633109e-03 -6.917353e-03 -9.049744e-03 -1.499605e-02 -6.339281e-03 -2.322191e-03 -6.358135e-03 -1.117198e-02 -5.109980e-03 -3.255836e-04 -3.652745e-03 -2.892530e-03
<VARIANCE> 39
 4.124329e+01 3.161788e+01 3.379558e+01 3.808791e+01 4.195119e+01 3.705324e+01 3.842051e+01 3.068261e+01 4.977695e+01 4.408478e+01 2.611037e+01 3.600697e+01 2.454107e+01 1.461044e+00 1.612008e+00 1.203678e+00 1.372666e+00 1.595292e+00 1.908184e+00 1.767823e+00 1.688085e+00 2.330606e+00 1.944655e+00 1.460602e+00 1.741943e+00 9.705948e-01 2.267648e-01 2.628896e-01 2.026058e-01 2.098049e-01 2.536704e-01 3.280681e-01 3.131748e-01 3.128760e-01 3.986475e-01 3.328505e-01 2.680065e-01 3.177308e-01 1.511346e-01
<GCONST> 1.069926e+02
<STATE> 3
<MEAN> 39
 -1.055135e+01 1.314025e+00 -1.533710e-02 -1.355217e+00 5.052540e+00 -5.661637e-01 4.098489e+00 -1.619169e+00 6.154320e-01 -8.617149e+00 1.385710e+00 -2.897327e+00 7.165560e+01 1.942252e-02 -1.250107e-03 1.198111e-02 -1.298219e-02 2.366308e-02 -1.277097e-02 -5.426226e-03 -1.099562e-02 -1.396560e-02 -1.617283e-02 4.142567e-03 6.079998e-03 -1.120299e-02 2.663231e-03 -1.818966e-03 -3.551734e-03 -2.318721e-03 -6.413290e-03 7.516844e-04 -1.217414e-03 -3.564103e-03 -5.051656e-03 -4.230401e-03 1.100301e-03 -2.527380e-03 -2.140057e-03
<VARIANCE> 39
 4.026578e+01 3.150089e+01 3.278731e+01 3.787919e+01 4.120492e+01 3.649630e+01 3.841985e+01 3.104959e+01 5.114471e+01 4.472554e+01 2.604265e+01 3.582457e+01 2.518681e+01 1.465825e+00 1.619938e+00 1.175796e+00 1.379968e+00 1.522187e+00 1.915731e+00 1.764254e+00 1.679021e+00 2.293834e+00 1.946816e+00 1.455772e+00 1.749650e+00 9.902638e-01 2.261239e-01 2.654544e-01 2.020416e-01 2.115307e-01 2.501760e-01 3.283799e-01 3.118523e-01 3.149016e-01 3.987509e-01 3.363469e-01 2.668378e-01 3.204679e-01 1.527006e-01
<GCONST> 1.069407e+02
<STATE> 4
<MEAN> 39
 -1.041106e+01 1.361525e+00 9.368131e-02 -1.376369e+00 5.175108e+00 -5.613597e-01 4.046848e+00 -1.739378e+00 4.883534e-01 -8.746371e+00 1.306620e+00 -2.951713e+00 7.153509e+01 1.413586e-02 2.784483e-03 1.054079e-02 -5.774674e-03 1.684116e-02 -2.898625e-03 -1.844771e-03 -1.731605e-02 -2.377959e-02 -2.153042e-02 1.000675e-03 3.708987e-03 -3.082019e-03 -1.019640e-03 7.849773e-04 5.480761e-05 1.191017e-03 -6.616152e-04 1.106585e-03 1.272805e-04 -9.762088e-04 -1.127192e-03 -2.437154e-04 -6.621121e-04 -4.501741e-04 1.169834e-03
<VARIANCE> 39
 3.828746e+01 3.185266e+01 3.222757e+01 3.806843e+01 4.147344e+01 3.623746e+01 3.920565e+01 3.087534e+01 5.192949e+01 4.501429e+01 2.625401e+01 3.589113e+01 2.604690e+01 1.356491e+00 1.608292e+00 1.167934e+00 1.382682e+00 1.509749e+00 1.900315e+00 1.740095e+00 1.653044e+00 2.283295e+00 1.964355e+00 1.445135e+00 1.755611e+00 9.638880e-01 2.046167e-01 2.596517e-01 1.979823e-01 2.122297e-01 2.450252e-01 3.263480e-01 3.044068e-01 3.108118e-01 3.941894e-01 3.377371e-01 2.626391e-01 3.210728e-01 1.467211e-01
<GCONST> 1.065420e+02
<TRANSP> 5
 0.000000e+00 1.000000e+00 0.000000e+00 0.000000e+00 0.000000e+00
 0.000000e+00 7.473452e-01 2.526547e-01 0.000000e+00 0.000000e+00
 0.000000e+00 0.000000e+00 7.473452e-01 2.526548e-01 0.000000e+00
 0.000000e+00 0.000000e+00 0.000000e+00 8.743363e-01 1.256637e-01
 0.000000e+00 0.000000e+00 0.000000e+00 0.000000e+00 0.000000e+00
<ENDHMM>
~h "b"
<BEGINHMM>
<NUMSTATES> 5
<STATE> 2
<MEAN> 39
 -1.066513e+01 1.522796e+00 9.938313e-01 -2.152044e-01 6.642390e+00 8.574061e-01 3.032975e+00 -2.582367e+00 9.885941e-02 -8.416154e+00 9.797885e-01 -4.846606e+00 7.192001e+01 -4.880870e-03 -1.816948e-03 -2.088794e-03 8.690766e-03 -3.389833e-03 -1.708731e-02 4.401514e-03 1.105202e-02 1.790171e-02 7.535283e-03 -1.034659e-02 -6.435270e-03 -2.009776e-03 3.002431e-04 5.343382e-04 -3.010288e-04 -1.001696e-04 -1.492452e-04 3.782574e-04 4.936088e-04 -9.105321e-05 3.693589e-04 7.566694e-04 1.235356e-04 -4.039616e-04 -1.224266e-04
<VARIANCE> 39
 3.827838e+01 3.448765e+01 2.778638e+01 3.605395e+01 4.268897e+01 2.886701e+01 3.680523e+01 2.236514e+01 4.943623e+01 3.186640e+01 2.856486e+01 2.882486e+01 2.151500e+01 1.496461e+00 1.658950e+00 1.299537e+00 1.285447e+00 1.726322e+00 1.785788e+00 1.871921e+00 1.464508e+00 2.451087e+00 1.965157e+00 1.449190e+00 1.654698e+00 9.555585e-01 2.090013e-01 2.542733e-01 2.183140e-01 1.945895e-01 2.755651e-01 3.137407e-01 3.153589e-01 2.739865e-01 3.956851e-01 3.629310e-01 2.654855e-01 3.007924e-01 1.553331e-01
<GCONST> 1.053838e+02
<STATE> 3
<MEAN> 39
 -1.068042e+01 1.520829e+00 9.816010e-01 -1.834436e-01 6.625676e+00 7.926331e-01 3.059875e+00 -2.536872e+00 1.743881e-01 -8.378425e+00 9.441416e-01 -4.869003e+00 7.191352e+01 -2.960795e-03 5.853403e-04 -2.733753e-03 9.033948e-03 -4.344388e-03 -1.587079e-02 6.988933e-03 1.119657e-02 1.949628e-02 1.038402e-02 -8.552917e-03 -5.886786e-03 -1.462279e-03 4.711289e-04 7.601123e-04 -6.107141e-05 4.972761e-05 -2.202053e-04 2.502653e-04 6.460809e-04 6.891200e-06 3.829726e-04 5.866982e-04 4.766798e-04 2.870377e-04 9.598819e-05
<VARIANCE> 39
 3.808021e+01 3.448700e+01 2.768630e+01 3.627195e+01 4.290454e+01 2.929947e+01 3.738012e+01 2.250658e+01 4.885823e+01 3.173622e+01 2.869430e+01 2.899590e+01 2.132818e+01 1.501377e+00 1.673239e+00 1.296032e+00 1.292345e+00 1.735804e+00 1.788488e+00 1.877453e+00 1.479370e+00 2.443418e+00 1.963676e+00 1.455515e+00 1.664782e+00 9.524146e-01 2.104579e-01 2.574573e-01 2.165868e-01 1.957597e-01 2.768186e-01 3.132995e-01 3.155018e-01 2.768673e-01 3.955341e-01 3.619617e-01 2.672485e-01 3.024695e-01 1.552417e-01
<GCONST> 1.054863e+02
<STATE> 4
<MEAN> 39
 -1.062773e+01 1.605790e+00 1.002538e+00 -5.042146e-02 6.633331e+00 6.781839e-01 3.089242e+00 -2.493857e+00 2.778562e-01 -8.354798e+00 8.540599e-01 -4.943816e+00 7.185469e+01 2.909284e-04 5.106292e-03 -1.128373e-03 9.797181e-03 -7.357165e-03 -1.689409e-02 8.743715e-03 9.190577e-03 1.930646e-02 1.062942e-02 -7.387308e-03 -4.519637e-03 -1.278702e-03 4.534292e-04 8.874954e-04 3.109307e-04 1.478670e-04 -3.391429e-04 -1.324580e-04 1.885951e-04 -3.596961e-04 -8.451099e-06 6.438501e-05 1.706863e-04 1.523699e-04 -2.708885e-06
<VARIANCE> 39
 3.733795e+01 3.479644e+01 2.751597e+01 3.699257e+01 4.320021e+01 3.014993e+01 3.831913e+01 2.283414e+01 4.785292e+01 3.157317e+01 2.866994e+01 2.886527e+01 2.057611e+01 1.491689e+00 1.677575e+00 1.290567e+00 1.307374e+00 1.732985e+00 1.777684e+00 1.872017e+00 1.498621e+00 2.425195e+00 1.966242e+00 1.461381e+00 1.651457e+00 9.367359e-01 2.083829e-01 2.585330e-01 2.141792e-01 1.982660e-01 2.765550e-01 3.097746e-01 3.115123e-01 2.797041e-01 3.949222e-01 3.616872e-01 2.696279e-01 2.994458e-01 1.537655e-01
<GCONST> 1.054436e+02
<TRANSP> 5
 0.000000e+00 1.000000e+00 0.000000e+00 0.000000e+00 0.000000e+00
 0.000000e+00 7.520832e-01 2.479168e-01 0.000000e+00 0.000000e+00
 0.000000e+00 0.000000e+00 7.520823e-01 2.479177e-01 0.000000e+00
 0.000000e+00 0.000000e+00 0.000000e+00 8.781182e-01 1.218818e-01
 0.000000e+00 0.000000e+00 0.000000e+00 0.000000e+00 0.000000e+00
<ENDHMM>
~h "d"
<BEGINHMM>
<NUMSTATES> 5
<STATE> 2
<MEAN> 39
 -1.232426e+01 8.695108e-01 1.328322e-02 -1.558005e+00 4.837216e+00 4.968120e-01 4.294303e+00 -1.764173e+00 1.167667e+00 -8.103731e+00 1.194219e+00 -2.128971e+00 7.141856e+01 -2.720040e-02 4.146525e-03 1.353932e-02 -1.597983e-02 3.332977e-02 2.652056e-02 1.748939e-02 -9.204090e-03 -4.198036e-04 1.984345e-02 3.315189e-02 3.165957e-02 3.007334e-03 -3.540945e-03 4.878562e-03 -6.252479e-03 -5.002013e-04 -3.062751e-03 -1.395368e-02 -8.621793e-03 -8.493233e-04 5.707757e-03 -3.779496e-04 -2.906838e-03 -1.328305e-02 -2.991101e-04
<VARIANCE> 39
 3.668330e+01 2.838304e+01 2.797198e+01 2.832057e+01 2.983439e+01 2.843198e+01 2.868520e+01 2.676319e+01 4.799237e+01 4.147123e+01 2.016435e+01 2.731598e+01 2.490790e+01 1.478793e+00 1.553153e+00 1.182429e+00 1.349545e+00 1.468073e+00 1.836049e+00 1.713062e+00 1.578237e+00 2.205476e+00 1.959714e+00 1.294767e+00 1.573322e+00 1.056857e+00 2.373718e-01 2.567987e-01 2.160987e-01 2.194062e-01 2.423056e-01 3.184499e-01 3.068204e-01 2.758342e-01 3.954779e-01 3.647583e-01 2.501692e-01 2.820559e-01 1.855570e-01
<GCONST> 1.041753e+02
<STATE> 3
<MEAN> 39
 -1.247040e+01 9.086607e-01 4.700426e-02 -1.622077e+00 4.929773e+00 4.951660e-01 4.311247e+00 -1.748149e+00 1.194698e+00 -8.095709e+00 1.299383e+00 -2.110318e+00 7.143712e+01 -2.990824e-02 9.952023e-03 4.331165e-03 -1.227530e-02 2.422110e-02 -4.226777e-03 1.050771e-03 6.253288e-03 1.586568e-03 -4.174680e-03 2.231557e-02 -1.250802e-03 7.521788e-03 4.813432e-04 1.315614e-03 -1.587259e-03 1.293873e-03 -2.120998e-03 -5.657190e-03 -2.125471e-03 4.930059e-03 -2.661245e-04 -6.799599e-03 -2.895933e-03 -6.510495e-03 7.098411e-04
<VARIANCE> 39
 3.698486e+01 2.818182e+01 2.844769e+01 2.882210e+01 2.962700e+01 2.785541e+01 2.829571e+01 2.664947e+01 4.741447e+01 4.278706e+01 2.082235e+01 2.838830e+01 2.458006e+01 1.507334e+00 1.549955e+00 1.184836e+00 1.365946e+00 1.495110e+00 1.804860e+00 1.769083e+00 1.602560e+00 2.271633e+00 1.992532e+00 1.299148e+00 1.638445e+00 1.026493e+00 2.408321e-01 2.596938e-01 2.165267e-01 2.214133e-01 2.503280e-01 3.181759e-01 3.159863e-01 2.787726e-01 4.116600e-01 3.714855e-01 2.507043e-01 2.961795e-01 1.807284e-01
<GCONST> 1.045741e+02
<STATE> 4
<MEAN> 39
 -1.270559e+01 9.152510e-01 2.078497e-01 -1.677043e+00 5.058651e+00 4.644697e-01 4.415415e+00 -1.545491e+00 1.303381e+00 -8.101352e+00 1.372503e+00 -2.247395e+00 7.148532e+01 -2.547881e-02 -1.025857e-03 4.721738e-03 -6.485990e-03 1.021231e-02 -1.013591e-02 5.560860e-03 3.073254e-02 1.652502e-02 1.098974e-02 1.895409e-02 -5.545026e-03 3.900833e-03 2.038067e-03 -8.143767e-04 -6.601634e-04 1.462680e-03 -1.859159e-03 -5.138929e-04 6.646057e-04 2.144847e-03 1.568238e-03 2.151171e-03 -1.121030e-03 -6.777706e-04 -9.360480e-04
<VARIANCE> 39
 3.728404e+01 2.743056e+01 2.910815e+01 2.925721e+01 2.905706e+01 2.689078e+01 2.859558e+01 2.795708e+01 4.704481e+01 4.274643e+01 2.198120e+01 3.057916e+01 2.543815e+01 1.526388e+00 1.517084e+00 1.182405e+00 1.358377e+00 1.492072e+00 1.783193e+00 1.802715e+00 1.584756e+00 2.324457e+00 2.004819e+00 1.326057e+00 1.714566e+00 9.726792e-01 2.319246e-01 2.545442e-01 2.120324e-01 2.196830e-01 2.511392e-01 3.162299e-01 3.168458e-01 2.743502e-01 4.188385e-01 3.751687e-01 2.524145e-01 3.017152e-01 1.685949e-01
<GCONST> 1.046495e+02
<TRANSP> 5
 0.000000e+00 1.000000e+00 0.000000e+00 0.000000e+00 0.000000e+00
 0.000000e+00 7.468272e-01 2.531728e-01 0.000000e+00 0.000000e+00
 0.000000e+00 0.000000e+00 7.468272e-01 2.531728e-01 0.000000e+00
 0.000000e+00 0.000000e+00 0.000000e+00 8.725397e-01 1.274603e-01
 0.000000e+00 0.000000e+00 0.000000e+00 0.000000e+00 0.000000e+00
<ENDHMM>
~h "e"
<BEGINHMM>
<NUMSTATES> 5
<STATE> 2
<MEAN> 39
 -1.008683e+01 2.595235e+00 1.343913e+00 -8.488788e-01 7.654762e+00 2.377692e+00 3.482001e+00 -3.858810e+00 6.807995e-01 -8.100698e+00 5.876018e-01 -4.305996e+00 7.009143e+01 8.460212e-03 -3.039850e-02 1.354741e-02 7.540713e-02 1.710962e-02 6.201895e-03 2.335599e-02 -1.478033e-02 -5.085970e-02 -9.894342e-03 -4.289121e-02 -3.456119e-02 6.432607e-03 -5.084833e-04 -3.873688e-04 2.060546e-04 -4.453295e-04 -2.112363e-03 -2.781586e-03 6.326947e-04 1.547342e-03 1.087817e-03 1.131888e-03 -4.854863e-04 -4.886790e-04 7.030460e-05
<VARIANCE> 39
 4.004706e+01 2.372959e+01 2.354726e+01 4.018357e+01 4.135223e+01 2.300145e+01 2.400310e+01 2.842187e+01 4.959226e+01 2.930674e+01 2.333948e+01 1.655970e+01 2.025709e+01 1.477937e+00 1.297490e+00 1.332284e+00 1.526655e+00 1.760758e+00 1.754276e+00 1.616303e+00 1.671634e+00 2.357062e+00 1.487993e+00 1.271599e+00 1.145100e+00 9.101651e-01 2.038343e-01 2.043584e-01 2.090716e-01 2.448599e-01 2.735238e-01 3.015944e-01 2.842310e-01 3.144862e-01 3.417753e-01 2.533766e-01 2.317520e-01 2.276629e-01 1.403012e-01
<GCONST> 1.016233e+02
<STATE> 3
<MEAN> 39
 -1.006806e+01 2.469450e+00 1.408684e+00 -5.897583e-01 7.692421e+00 2.375435e+00 3.561613e+00 -3.906535e+00 4.971228e-01 -8.129705e+00 4.488052e-01 -4.426727e+00 7.013291e+01 6.993718e-03 -3.180812e-02 1.443367e-02 7.323361e-02 8.678037e-03 -4.339334e-03 2.463003e-02 -8.748839e-03 -4.571051e-02 -5.253146e-03 -4.430637e-02 -3.582013e-02 6.872192e-03 -7.188083e-04 -5.010004e-04 3.937100e-04 -1.012349e-03 -2.742853e-03 -2.885034e-03 3.255789e-04 1.734845e-03 1.732525e-03 1.445344e-03 -1.777555e-04 -1.491109e-04 1.569955e-04
<VARIANCE> 39
 3.999552e+01 2.480143e+01 2.333150e+01 3.954173e+01 4.288092e+01 2.301223e+01 2.299485e+01 2.859731e+01 4.817034e+01 2.890600e+01 2.483953e+01 1.687900e+01 1.990800e+01 1.475572e+00 1.314370e+00 1.325122e+00 1.481816e+00 1.796310e+00 1.742327e+00 1.564035e+00 1.672928e+00 2.345829e+00 1.469859e+00 1.273828e+00 1.127622e+00 9.070553e-01 2.038961e-01 2.052355e-01 2.071945e-01 2.374247e-01 2.787214e-01 2.966837e-01 2.738858e-01 3.140689e-01 3.450402e-01 2.503364e-01 2.305434e-01 2.216406e-01 1.400369e-01
<GCONST> 1.014774e+02
<STATE> 4
<MEAN> 39
 -1.033708e+01 2.240885e+00 1.488781e+00 -4.901790e-01 7.411419e+00 2.276587e+00 3.902007e+00 -3.680388e+00 4.662907e-01 -7.677674e+00 7.708052e-01 -4.520865e+00 7.011366e+01 4.241704e-03 -3.511817e-02 1.932188e-02 6.009220e-02 -7.281288e-03 -1.959344e-02 1.946118e-02 -9.958990e-04 -3.575486e-02 1.936484e-03 -3.499910e-02 -3.027893e-02 1.339676e-02 -5.707368e-04 -5.023034e-04 4.366518e-04 -1.273817e-03 -2.857061e-03 -2.482635e-03 -4.890211e-05 1.681945e-03 2.135894e-03 1.591004e-03 1.227051e-04 2.066640e-04 2.102418e-04
<VARIANCE> 39
 4.076698e+01 2.706553e+01 2.391446e+01 4.003564e+01 4.421791e+01 2.272009e+01 2.118009e+01 2.943264e+01 4.810148e+01 2.913991e+01 2.823211e+01 1.767503e+01 2.073487e+01 1.483424e+00 1.325852e+00 1.270012e+00 1.439683e+00 1.761693e+00 1.687082e+00 1.477925e+00 1.675836e+00 2.395412e+00 1.432723e+00 1.292070e+00 1.104379e+00 8.831487e-01 2.034765e-01 2.039475e-01 1.951490e-01 2.272147e-01 2.701877e-01 2.845383e-01 2.608558e-01 3.147795e-01 3.586038e-01 2.457528e-01 2.295910e-01 2.139669e-01 1.364445e-01
<GCONST> 1.013282e+02
<TRANSP> 5
 0.000000e+00 1.000000e+00 0.000000e+00 0.000000e+00 0.000000e+00
 0.000000e+00 7.372721e-01 2.627279e-01 0.000000e+00 0.000000e+00
 0.000000e+00 0.000000e+00 7.372725e-01 2.627275e-01 0.000000e+00
 0.000000e+00 0.000000e+00 0.000000e+00 8.649697e-01 1.350303e-01
 0.000000e+00 0.000000e+00 0.000000e+00 0.000000e+00 0.000000e+00
<ENDHMM>
~h "f"
<BEGINHMM>
<NUMSTATES> 5
<STATE> 2
<MEAN> 39
 -1.235310e+01 1.112446e+00 1.164678e+00 -1.147106e+00 6.251783e+00 2.426984e-01 3.711532e+00 -2.224155e+00 1.651225e+00 -7.941796e+00 1.391482e+00 -3.947879e+00 7.171960e+01 8.454745e-03 7.483944e-03 1.631773e-02 3.431085e-02 -2.752386e-03 1.415570e-02 3.558262e-03 5.487198e-02 4.928658e-02 8.752208e-02 2.738078e-02 -1.709405e-02 1.152258e-02 -4.283119e-04 -5.206733e-03 -9.185384e-03 4.904447e-04 4.384174e-03 2.588473e-03 6.190185e-04 -1.314409e-02 -1.318830e-02 -1.014970e-02 -7.675440e-03 5.283919e-03 2.386970e-03
<VARIANCE> 39
 4.241777e+01 2.259024e+01 2.643983e+01 4.235382e+01 4.023700e+01 3.011177e+01 3.676188e+01 3.147440e+01 4.723712e+01 3.836597e+01 1.972594e+01 3.100517e+01 1.941975e+01 1.861348e+00 1.419947e+00 1.316734e+00 1.597358e+00 1.382333e+00 1.812854e+00 1.785909e+00 1.502109e+00 2.297172e+00 1.945806e+00 1.248543e+00 1.775777e+00 7.847160e-01 2.604457e-01 2.375774e-01 2.394342e-01 2.220706e-01 2.227511e-01 3.162206e-01 2.967514e-01 2.596034e-01 3.944622e-01 3.444227e-01 2.341169e-01 3.309557e-01 1.328959e-01
<GCONST> 1.047680e+02
<STATE> 3
<MEAN> 39
 -1.233232e+01 1.094532e+00 1.196082e+00 -1.030871e+00 6.251269e+00 2.778151e-01 3.720966e+00 -2.110037e+00 1.760669e+00 -7.770803e+00 1.428537e+00 -3.954857e+00 7.175325e+01 7.533057e-03 -5.966163e-03 5.605036e-03 2.914722e-02 3.086505e-03 6.700094e-03 -1.781366e-03 1.668314e-02 1.768606e-02 2.985617e-02 4.483710e-03 -4.355634e-05 5.911751e-03 8.117375e-05 -2.687855e-03 -1.110044e-03 -1.832809e-03 1.623104e-04 -3.374300e-03 -1.717454e-03 -7.894422e-03 -6.583508e-03 -1.454332e-02 -5.125619e-03 3.362480e-03 -2.130558e-03
<VARIANCE> 39
 4.231019e+01 2.285455e+01 2.668213e+01 4.248331e+01 4.040370e+01 3.031862e+01 3.687870e+01 3.182589e+01 4.845302e+01 4.029845e+01 2.045145e+01 3.144363e+01 1.919647e+01 1.847435e+00 1.431921e+00 1.346375e+00 1.603302e+00 1.383687e+00 1.825797e+00 1.812109e+00 1.473692e+00 2.261850e+00 1.898358e+00 1.276505e+00 1.794582e+00 7.946375e-01 2.573317e-01 2.415611e-01 2.457541e-01 2.243645e-01 2.243374e-01 3.190795e-01 3.022716e-01 2.608368e-01 3.878204e-01 3.534324e-01 2.418746e-01 3.365412e-01 1.346186e-01
<GCONST> 1.051144e+02
<STATE> 4
<MEAN> 39
 -1.224376e+01 1.045840e+00 1.226860e+00 -1.008504e+00 6.109316e+00 1.628905e-01 3.767187e+00 -2.058467e+00 1.722736e+00 -7.799774e+00 1.358805e+00 -3.972213e+00 7.174249e+01 1.670483e-02 -3.552303e-03 5.906645e-03 1.908858e-02 2.617410e-03 2.960531e-05 -6.434154e-03 1.443780e-03 -1.923024e-03 -3.972309e-03 -1.025576e-02 -8.092674e-03 -2.976518e-03 1.543681e-03 4.954281e-04 -7.104671e-04 -1.534836e-03 -3.753529e-04 -1.212685e-03 -9.245632e-04 -2.380240e-03 -3.509525e-03 -3.487073e-03 -1.832483e-03 -1.678274e-03 -7.270757e-04
<VARIANCE> 39
 4.287781e+01 2.343117e+01 2.546671e+01 4.239007e+01 4.027181e+01 3.023412e+01 3.635023e+01 3.169091e+01 4.838966e+01 3.971674e+01 2.032211e+01 3.110754e+01 1.879100e+01 1.815053e+00 1.453069e+00 1.299434e+00 1.601419e+00 1.389794e+00 1.753988e+00 1.851194e+00 1.488623e+00 2.202068e+00 1.828548e+00 1.309880e+00 1.781662e+00 7.854307e-01 2.492727e-01 2.450099e-01 2.359371e-01 2.254134e-01 2.263827e-01 3.046405e-01 3.128801e-01 2.631527e-01 3.726885e-01 3.441086e-01 2.476973e-01 3.330478e-01 1.324719e-01
<GCONST> 1.048066e+02
<TRANSP> 5
 0.000000e+00 1.000000e+00 0.000000e+00 0.000000e+00 0.000000e+00
 0.000000e+00 7.450154e-01 2.549846e-01 0.000000e+00 0.000000e+00
 0.000000e+00 0.000000e+00 7.450152e-01 2.549848e-01 0.000000e+00
 0.000000e+00 0.000000e+00 0.000000e+00 8.697647e-01 1.302353e-01
 0.000000e+00 0.000000e+00 0.000000e+00 0.000000e+00 0.000000e+00
<ENDHMM>
~h "h"
<BEGINHMM>
<NUMSTATES> 5
<STATE> 2
<MEAN> 39
 -1.155880e+01 8.446667e-01 5.922423e-01 -1.170665e+00 5.393782e+00 4.689237e-01 3.654444e+00 -2.100984e+00 1.747468e+00 -6.139951e+00 2.714156e+00 -3.263506e+00 7.225285e+01 1.323146e-02 4.766538e-03 1.714074e-02 9.444274e-04 8.071519e-03 4.764454e-03 2.973427e-03 -4.821464e-03 -1.894012e-02 -3.602876e-02 -4.497580e-03 1.978785e-02 7.379566e-03 -1.192901e-03 -5.924213e-04 2.992276e-03 2.115954e-03 1.481062e-03 -4.038830e-04 -1.325907e-03 -2.039497e-03 -8.812615e-04 -3.538130e-04 -1.415483e-03 -1.814445e-03 6.158393e-04
<VARIANCE> 39
 3.187809e+01 2.437328e+01 2.685512e+01 2.851657e+01 3.779462e+01 2.359346e+01 3.387132e+01 2.899534e+01 5.919309e+01 3.492107e+01 2.301764e+01 2.171823e+01 3.021875e+01 1.319983e+00 1.577920e+00 1.037105e+00 1.191433e+00 1.410253e+00 1.362438e+00 1.917274e+00 1.319768e+00 2.020046e+00 1.804077e+00 1.286650e+00 1.643147e+00 8.487606e-01 2.018816e-01 2.663928e-01 1.774972e-01 1.800016e-01 2.329025e-01 2.518047e-01 3.255752e-01 2.482956e-01 3.432074e-01 3.343634e-01 2.209538e-01 2.938850e-01 1.478326e-01
<GCONST> 1.017888e+02
<STATE> 3
<MEAN> 39
 -1.151188e+01 8.600214e-01 6.819859e-01 -1.145208e+00 5.452373e+00 4.980710e-01 3.666100e+00 -2.127882e+00 1.671782e+00 -6.276181e+00 2.689343e+00 -3.198440e+00 7.229033e+01 6.953327e-03 9.122140e-04 2.560032e-02 6.219870e-03 1.182856e-02 4.495907e-03 -9.634082e-04 -1.091303e-02 -1.857552e-02 -3.309251e-02 -5.450202e-03 1.482033e-02 7.658042e-03 -1.205486e-03 -1.526431e-03 2.018070e-03 2.089747e-03 8.924264e-04 3.685894e-04 -6.168620e-04 -1.449435e-03 -1.345849e-04 1.050620e-03 3.644916e-04 -2.136166e-03 9.689017e-05
<VARIANCE> 39
 3.250150e+01 2.490940e+01 2.629626e+01 2.951830e+01 3.788214e+01 2.314473e+01 3.405612e+01 2.845831e+01 5.956105e+01 3.437760e+01 2.266442e+01 2.173531e+01 2.996842e+01 1.325561e+00 1.591386e+00 1.033475e+00 1.195573e+00 1.391929e+00 1.320797e+00 1.959282e+00 1.301664e+00 2.007462e+00 1.797411e+00 1.259146e+00 1.629658e+00 8.584707e-01 2.027055e-01 2.671882e-01 1.769844e-01 1.805831e-01 2.295142e-01 2.416039e-01 3.324445e-01 2.462301e-01 3.428442e-01 3.353232e-01 2.169708e-01 2.918211e-01 1.497682e-01
<GCONST> 1.016823e+02
<STATE> 4
<MEAN> 39
 -1.143152e+01 8.997679e-01 9.310790e-01 -1.096987e+00 5.565504e+00 4.994874e-01 3.796863e+00 -2.114241e+00 1.548643e+00 -6.459185e+00 2.693145e+00 -3.110757e+00 7.235344e+01 -4.633726e-03 -8.338261e-03 2.911397e-02 1.109549e-02 1.215051e-02 4.066119e-03 1.369381e-03 -1.130432e-02 -1.044999e-02 -2.134405e-02 2.358315e-03 1.270079e-02 6.172549e-03 -2.373129e-03 -1.716312e-03 2.605638e-04 1.229021e-03 -1.420122e-03 4.796501e-04 8.551168e-04 -5.414674e-05 1.285622e-03 2.320518e-03 1.821248e-03 -1.181067e-03 2.231719e-04
<VARIANCE> 39
 3.268167e+01 2.560427e+01 2.560928e+01 3.073013e+01 3.809755e+01 2.309594e+01 3.419786e+01 2.784314e+01 5.805738e+01 3.428145e+01 2.208328e+01 2.172513e+01 2.916908e+01 1.326071e+00 1.590730e+00 1.028910e+00 1.223283e+00 1.352971e+00 1.289671e+00 2.002162e+00 1.301617e+00 1.966189e+00 1.801942e+00 1.232130e+00 1.584613e+00 8.434571e-01 2.012115e-01 2.648877e-01 1.777530e-01 1.888039e-01 2.234261e-01 2.328219e-01 3.408713e-01 2.485089e-01 3.375736e-01 3.397716e-01 2.140557e-01 2.843170e-01 1.466845e-01
<GCONST> 1.014757e+02
<TRANSP> 5
 0.000000e+00 1.000000e+00 0.000000e+00 0.000000e+00 0.000000e+00
 0.000000e+00 7.475490e-01 2.524509e-01 0.000000e+00 0.000000e+00
 0.000000e+00 0.000000e+00 7.475488e-01 2.524512e-01 0.000000e+00
 0.000000e+00 0.000000e+00 0.000000e+00 8.730025e-01 1.269975e-01
 0.000000e+00 0.000000e+00 0.000000e+00 0.000000e+00 0.000000e+00
<ENDHMM>
~h "i"
<BEGINHMM>
<NUMSTATES> 5
<STATE> 2
<MEAN> 39
 -1.078746e+01 -4.864613e-01 -8.537502e-01 -7.038626e-01 4.249003e+00 -1.257044e+00 3.519020e+00 -1.527371e+00 1.262776e+00 -7.952936e+00 1.638718e+00 -3.476775e+00 7.074242e+01 -8.839549e-03 5.570340e-03 -7.969464e-03 3.275700e-02 7.071143e-02 6.136455e-02 4.117141e-03 -3.644478e-02 4.873851e-02 7.163015e-02 -1.890641e-02 4.326627e-02 -3.075929e-02 -5.688421e-03 -3.743463e-03 -8.330053e-03 2.037947e-03 -4.942829e-04 -2.266910e-02 -2.493416e-02 -4.612758e-03 8.050723e-03 1.720304e-02 3.578755e-02 1.519206e-02 -4.863210e-03
<VARIANCE> 39
 3.880127e+01 3.423661e+01 3.931335e+01 3.480538e+01 4.456404e+01 3.071764e+01 2.896936e+01 2.738062e+01 3.559208e+01 3.248613e+01 2.450007e+01 3.230733e+01 2.475416e+01 1.234148e+00 1.245865e+00 1.040979e+00 1.244746e+00 1.443560e+00 1.388400e+00 1.689397e+00 1.361973e+00 1.975250e+00 1.574476e+00 1.496180e+00 1.612803e+00 7.127534e-01 1.474824e-01 1.904650e-01 1.513523e-01 1.643842e-01 2.085396e-01 2.385177e-01 2.974613e-01 2.776070e-01 3.679225e-01 2.809564e-01 2.878094e-01 2.867444e-01 1.060370e-01
<GCONST> 1.010498e+02
<STATE> 3
<MEAN> 39
 -1.083602e+01 -4.137481e-01 -8.751865e-01 -6.095519e-01 4.508843e+00 -1.015564e+00 3.492686e+00 -1.656277e+00 1.441042e+00 -7.684114e+00 1.726279e+00 -3.312593e+00 7.058519e+01 -1.319273e-02 2.424563e-02 -4.663586e-03 1.658502e-02 5.714810e-02 5.557049e-02 -9.973304e-03 -2.967224e-02 4.384040e-02 6.509341e-02 3.214478e-02 3.735674e-02 -4.094148e-02 -2.378326e-05 6.565622e-03 2.820672e-03 -5.190396e-03 -3.604209e-03 4.145449e-03 2.951076e-03 3.428566e-03 -3.611039e-03 -6.197918e-03 5.280948e-03 -6.642747e-03 -1.723493e-03
<VARIANCE> 39
 3.863725e+01 3.334539e+01 4.025762e+01 3.479713e+01 4.438830e+01 3.004076e+01 2.943324e+01 2.698044e+01 3.683572e+01 3.278564e+01 2.409471e+01 3.316745e+01 2.518031e+01 1.240104e+00 1.264192e+00 1.033697e+00 1.261743e+00 1.424475e+00 1.392823e+00 1.769451e+00 1.395285e+00 1.977262e+00 1.589748e+00 1.475102e+00 1.641151e+00 7.050653e-01 1.479111e-01 1.911064e-01 1.515824e-01 1.659473e-01 2.116384e-01 2.394509e-01 3.194009e-01 2.820868e-01 3.631621e-01 2.796127e-01 2.848860e-01 2.938620e-01 1.047633e-01
<GCONST> 1.012846e+02
<STATE> 4
<MEAN> 39
 -1.074911e+01 9.853450e-02 -5.871351e-01 -5.589796e-01 4.560433e+00 -6.543922e-01 3.400185e+00 -1.892136e+00 1.634832e+00 -7.372475e+00 1.636315e+00 -3.518646e+00 7.037513e+01 -1.106137e-02 4.336739e-02 1.040099e-02 -6.112496e-03 3.192383e-02 6.523823e-02 -1.138646e-03 -1.716741e-02 3.301035e-02 4.085245e-02 3.139029e-03 -1.074222e-02 -3.413283e-02 1.714046e-04 2.583911e-03 1.670685e-03 -2.509834e-03 -3.021804e-03 4.122389e-04 3.875815e-04 8.387394e-04 -2.551739e-04 -8.253059e-04 -2.854373e-03 -5.515820e-03 5.525246e-04
<VARIANCE> 39
 3.886039e+01 3.179210e+01 3.973010e+01 3.613285e+01 4.501176e+01 2.972623e+01 3.075907e+01 2.476214e+01 3.812093e+01 3.526887e+01 2.447927e+01 3.116883e+01 2.600241e+01 1.239341e+00 1.297766e+00 1.068419e+00 1.277505e+00 1.472898e+00 1.368056e+00 1.741814e+00 1.295302e+00 1.883703e+00 1.569003e+00 1.464982e+00 1.579374e+00 6.983504e-01 1.429103e-01 1.919589e-01 1.556486e-01 1.685021e-01 2.170964e-01 2.321879e-01 3.032014e-01 2.519572e-01 3.383936e-01 2.751122e-01 2.813829e-01 2.868602e-01 1.017069e-01
<GCONST> 1.008905e+02
<TRANSP> 5
 0.000000e+00 1.000000e+00 0.000000e+00 0.000000e+00 0.000000e+00
 0.000000e+00 7.672096e-01 2.327905e-01 0.000000e+00 0.000000e+00
 0.000000e+00 0.000000e+00 7.672096e-01 2.327903e-01 0.000000e+00
 0.000000e+00 0.000000e+00 0.000000e+00 8.972732e-01 1.027267e-01
 0.000000e+00 0.000000e+00 0.000000e+00 0.000000e+00 0.000000e+00
<ENDHMM>
~h "j"
<BEGINHMM>
<NUMSTATES> 5
<STATE> 2
<MEAN> 39
 -9.948244e+00 1.012190e+00 1.972464e+00 1.074362e+00 6.596208e+00 1.812457e+00 3.682090e+00 -2.458016e+00 -4.907952e-01 -9.461164e+00 1.162289e+00 -3.656741e+00 7.216526e+01 -2.035346e-02 1.115425e-02 1.073223e-02 -1.071048e-02 -3.834577e-03 1.401249e-02 -2.497123e-03 -2.150920e-02 1.353523e-03 2.745942e-02 -7.486587e-03 -1.331205e-02 -2.605685e-02 -9.664689e-04 -3.985207e-05 -1.260532e-03 -2.530999e-04 -5.047489e-04 -9.770016e-05 9.245326e-04 6.428774e-04 1.434086e-03 1.582956e-03 1.204210e-04 2.367291e-04 -1.002649e-03
<VARIANCE> 39
 2.826893e+01 3.299746e+01 2.724165e+01 3.873845e+01 3.349511e+01 2.865962e+01 2.756594e+01 2.204144e+01 4.552863e+01 3.905170e+01 2.481058e+01 2.746707e+01 2.856182e+01 1.065325e+00 1.618902e+00 1.126368e+00 1.359669e+00 1.341975e+00 1.532451e+00 1.439628e+00 1.421849e+00 2.229640e+00 1.894336e+00 1.361856e+00 1.500638e+00 9.270847e-01 1.504236e-01 2.403550e-01 1.815919e-01 2.089375e-01 2.273493e-01 2.782178e-01 2.447711e-01 2.620295e-01 3.590239e-01 3.387085e-01 2.383426e-01 2.750174e-01 1.349529e-01
<GCONST> 1.016675e+02
<STATE> 3
<MEAN> 39
 -1.004123e+01 1.058869e+00 2.010049e+00 1.040301e+00 6.588301e+00 1.869752e+00 3.675528e+00 -2.539916e+00 -4.568504e-01 -9.329826e+00 1.121514e+00 -3.720842e+00 7.204517e+01 -2.340407e-02 1.039537e-02 4.888861e-03 -1.237982e-02 -6.358421e-03 1.274578e-02 1.660918e-03 -1.869307e-02 6.626788e-03 3.304889e-02 -6.831721e-03 -1.178333e-02 -2.890733e-02 -6.797089e-04 -3.967226e-04 -1.360120e-03 -2.260535e-04 -5.632966e-04 -2.804532e-04 8.768528e-04 7.965069e-04 1.298998e-03 1.196789e-03 2.342370e-04 4.712180e-04 -5.907479e-04
<VARIANCE> 39
 2.888412e+01 3.252843e+01 2.727301e+01 3.816926e+01 3.321943e+01 2.830963e+01 2.671044e+01 2.164025e+01 4.472346e+01 3.938435e+01 2.457500e+01 2.728890e+01 2.761893e+01 1.087557e+00 1.652658e+00 1.157264e+00 1.373659e+00 1.364135e+00 1.526304e+00 1.441728e+00 1.420966e+00 2.256053e+00 1.907218e+00 1.358168e+00 1.500156e+00 9.412684e-01 1.532572e-01 2.456348e-01 1.875444e-01 2.103356e-01 2.295887e-01 2.773383e-01 2.456481e-01 2.617277e-01 3.641936e-01 3.403581e-01 2.385651e-01 2.741552e-01 1.375831e-01
<GCONST> 1.017788e+02
<STATE> 4
<MEAN> 39
 -1.022909e+01 9.479811e-01 2.159908e+00 1.150440e+00 6.653114e+00 1.979266e+00 3.707268e+00 -2.628633e+00 -4.518381e-01 -9.179458e+00 1.047046e+00 -3.772308e+00 7.183418e+01 -2.573558e-02 7.918158e-03 -5.219703e-03 -1.396868e-02 -7.783529e-03 9.086492e-03 7.235537e-03 -1.314052e-02 1.651048e-02 3.942440e-02 -7.183182e-03 -1.013639e-02 -3.146210e-02 -2.703913e-04 -6.800522e-04 -1.618294e-03 -4.775411e-04 -6.969678e-04 -5.222909e-04 8.286511e-04 1.098079e-03 9.640002e-04 5.549131e-04 5.507802e-04 9.233659e-04 -1.144924e-04
<VARIANCE> 39
 2.899732e+01 3.169471e+01 2.723667e+01 3.704845e+01 3.201697e+01 2.769060e+01 2.514680e+01 2.099548e+01 4.290053e+01 3.821669e+01 2.385097e+01 2.693740e+01 2.492173e+01 1.091828e+00 1.730446e+00 1.218015e+00 1.377365e+00 1.393300e+00 1.516556e+00 1.444915e+00 1.412862e+00 2.316159e+00 1.934571e+00 1.356705e+00 1.490181e+00 9.521514e-01 1.511913e-01 2.552567e-01 1.985757e-01 2.095290e-01 2.317840e-01 2.755726e-01 2.471932e-01 2.594237e-01 3.725580e-01 3.446582e-01 2.398333e-01 2.701952e-01 1.400169e-01
<GCONST> 1.016402e+02
<TRANSP> 5
 0.000000e+00 1.000000e+00 0.000000e+00 0.000000e+00 0.000000e+00
 0.000000e+00 7.531335e-01 2.468665e-01 0.000000e+00 0.000000e+00
 0.000000e+00 0.000000e+00 7.531335e-01 2.468664e-01 0.000000e+00
 0.000000e+00 0.000000e+00 0.000000e+00 8.801432e-01 1.198568e-01
 0.000000e+00 0.000000e+00 0.000000e+00 0.000000e+00 0.000000e+00
<ENDHMM>
~h "k"
<BEGINHMM>
<NUMSTATES> 5
<STATE> 2
<MEAN> 39
 -1.058773e+01 2.147644e+00 6.216080e-01 -7.118463e-01 6.422797e+00 -5.430121e-02 3.349192e+00 -2.007507e+00 1.176564e+00 -8.226089e+00 6.013176e-01 -4.158150e+00 7.142113e+01 3.184883e-02 2.099128e-02 7.894141e-03 3.533557e-02 3.236065e-05 -3.688293e-02 -1.871677e-02 -1.268933e-02 -7.338530e-03 -1.861255e-02 -1.666462e-02 -1.087129e-02 2.511816e-02 -8.018694e-04 -1.433964e-03 -8.036571e-04 1.087417e-04 -1.987459e-03 1.618580e-03 1.461533e-03 2.185947e-05 -1.803943e-04 5.584180e-04 -3.053512e-04 2.552639e-04 -4.214839e-04
<VARIANCE> 39
 3.034276e+01 2.870117e+01 2.642308e+01 3.550338e+01 4.973665e+01 3.507871e+01 3.125938e+01 2.114005e+01 4.179416e+01 3.745452e+01 2.373891e+01 2.582609e+01 2.323931e+01 1.777641e+00 1.885585e+00 1.194464e+00 1.293310e+00 1.805675e+00 1.684868e+00 1.969414e+00 1.460239e+00 2.516099e+00 2.158653e+00 1.606001e+00 1.558516e+00 8.358384e-01 2.551283e-01 3.049173e-01 1.913623e-01 1.943972e-01 2.921515e-01 2.939157e-01 3.406352e-01 2.749521e-01 4.481693e-01 3.891856e-01 2.975570e-01 2.756974e-01 1.403270e-01
<GCONST> 1.055335e+02
<STATE> 3
<MEAN> 39
 -1.046648e+01 2.206975e+00 6.527177e-01 -5.616614e-01 6.398143e+00 -1.780099e-01 3.294370e+00 -2.062772e+00 1.129591e+00 -8.307777e+00 5.201412e-01 -4.204767e+00 7.153251e+01 2.904508e-02 1.391149e-02 5.695370e-03 3.520318e-02 -7.350405e-03 -2.952796e-02 -1.293225e-02 -1.342757e-02 -1.098100e-02 -1.853101e-02 -1.895543e-02 -1.024752e-02 2.590542e-02 -6.276526e-04 -1.698376e-03 -5.020172e-04 -9.776829e-05 -1.568932e-03 1.918852e-03 1.333351e-03 -3.139907e-04 -1.137015e-03 -3.526741e-05 -4.143227e-04 2.246778e-04 2.734585e-04
<VARIANCE> 39
 3.021901e+01 2.884499e+01 2.517793e+01 3.437199e+01 4.906725e+01 3.585026e+01 3.156278e+01 2.147251e+01 4.241090e+01 3.735612e+01 2.378730e+01 2.563968e+01 2.308084e+01 1.755834e+00 1.886868e+00 1.198369e+00 1.298207e+00 1.816750e+00 1.695807e+00 1.989139e+00 1.512481e+00 2.545261e+00 2.178170e+00 1.600632e+00 1.573346e+00 8.602034e-01 2.537558e-01 3.070370e-01 1.943386e-01 1.974523e-01 2.961583e-01 2.962918e-01 3.450300e-01 2.873796e-01 4.501848e-01 3.930381e-01 2.948017e-01 2.793347e-01 1.447626e-01
<GCONST> 1.057562e+02
<STATE> 4
<MEAN> 39
 -1.022692e+01 2.269424e+00 6.046503e-01 -5.064284e-01 6.085132e+00 -2.056198e-01 3.464465e+00 -2.091424e+00 8.601521e-01 -8.549687e+00 3.147934e-01 -4.144143e+00 7.175047e+01 2.921944e-02 3.345818e-03 4.478964e-03 3.318714e-02 -1.522290e-02 -1.606146e-02 -5.396250e-03 -1.758012e-02 -2.295656e-02 -2.401275e-02 -2.280425e-02 -8.931606e-03 3.463742e-02 4.327336e-05 -9.908460e-04 -4.281326e-04 -4.837027e-04 -6.815222e-04 1.654796e-03 7.297265e-04 -5.412006e-04 -1.281437e-03 -2.976863e-04 -1.147587e-05 4.265113e-04 6.841859e-04
<VARIANCE> 39
 3.010985e+01 2.857858e+01 2.291179e+01 3.119177e+01 4.644658e+01 3.581041e+01 3.184780e+01 2.199890e+01 4.524842e+01 3.757179e+01 2.358040e+01 2.514335e+01 2.323703e+01 1.674675e+00 1.838416e+00 1.208100e+00 1.282730e+00 1.846067e+00 1.682071e+00 1.988610e+00 1.585733e+00 2.667020e+00 2.217834e+00 1.565031e+00 1.572856e+00 9.074836e-01 2.463912e-01 3.014722e-01 2.001183e-01 2.018816e-01 3.113716e-01 2.918084e-01 3.477688e-01 3.064107e-01 4.657252e-01 3.990054e-01 2.849598e-01 2.808359e-01 1.521910e-01
<GCONST> 1.058323e+02
<TRANSP> 5
 0.000000e+00 1.000000e+00 0.000000e+00 0.000000e+00 0.000000e+00
 0.000000e+00 7.559256e-01 2.440744e-01 0.000000e+00 0.000000e+00
 0.000000e+00 0.000000e+00 7.559256e-01 2.440744e-01 0.000000e+00
 0.000000e+00 0.000000e+00 0.000000e+00 8.834898e-01 1.165102e-01
 0.000000e+00 0.000000e+00 0.000000e+00 0.000000e+00 0.000000e+00
<ENDHMM>
~h "l"
<BEGINHMM>
<NUMSTATES> 5
<STATE> 2
<MEAN> 39
 -9.970947e+00 1.394902e+00 9.069226e-01 -1.052778e-01 5.577885e+00 1.484202e-01 3.152542e+00 -2.233360e+00 6.292312e-01 -8.393820e+00 9.101657e-01 -4.307039e+00 7.123238e+01 -6.671296e-03 -1.436534e-03 5.039565e-03 -3.322048e-03 1.466096e-03 -3.087648e-03 -4.355725e-03 -6.984428e-04 4.069367e-03 9.637905e-03 -1.635007e-03 -7.306187e-03 -5.109122e-03 -2.952600e-04 -4.950172e-04 -5.888648e-04 -5.464155e-04 -3.241471e-04 3.753142e-04 3.837885e-04 2.334656e-04 1.014708e-04 4.146400e-04 5.692646e-04 4.851103e-04 -4.936766e-04
<VARIANCE> 39
 3.618918e+01 3.112866e+01 3.023459e+01 4.158698e+01 4.648643e+01 3.834492e+01 3.737077e+01 2.874711e+01 4.900333e+01 4.137672e+01 2.715662e+01 3.194991e+01 4.673299e+01 1.342728e+00 1.563342e+00 1.207829e+00 1.435079e+00 1.652065e+00 1.725035e+00 1.917438e+00 1.521451e+00 2.213867e+00 1.837490e+00 1.532632e+00 1.661052e+00 8.075765e-01 1.906194e-01 2.433530e-01 1.976109e-01 2.097442e-01 2.576593e-01 2.967551e-01 3.242865e-01 2.776286e-01 3.703275e-01 3.223940e-01 2.749819e-01 2.975882e-01 1.285605e-01
<GCONST> 1.061519e+02
<STATE> 3
<MEAN> 39
 -1.000052e+01 1.385518e+00 9.246302e-01 -1.238481e-01 5.581932e+00 1.406169e-01 3.138453e+00 -2.236455e+00 6.438320e-01 -8.353249e+00 9.072419e-01 -4.333823e+00 7.121017e+01 -7.679905e-03 -2.917620e-03 2.510863e-03 -5.481048e-03 1.652427e-04 -1.731956e-03 -2.708428e-03 5.973918e-04 4.465154e-03 1.075880e-02 4.807117e-04 -5.203075e-03 -6.800375e-03 -2.768598e-04 -3.397945e-04 -6.285967e-04 -5.163172e-04 -2.904546e-04 3.608936e-04 4.292769e-04 2.461470e-04 6.914311e-05 2.164304e-04 4.923135e-04 5.522558e-04 -3.919538e-04
<VARIANCE> 39
 3.632652e+01 3.098100e+01 3.036671e+01 4.174718e+01 4.650385e+01 3.832119e+01 3.738991e+01 2.868169e+01 4.912026e+01 4.146028e+01 2.705681e+01 3.176529e+01 4.667960e+01 1.342641e+00 1.562843e+00 1.212689e+00 1.438674e+00 1.656260e+00 1.727273e+00 1.919618e+00 1.522033e+00 2.213199e+00 1.836464e+00 1.533384e+00 1.660841e+00 8.076150e-01 1.905553e-01 2.435387e-01 1.984139e-01 2.101495e-01 2.586574e-01 2.970152e-01 3.248905e-01 2.774543e-01 3.706036e-01 3.225991e-01 2.753413e-01 2.977640e-01 1.284990e-01
<GCONST> 1.061771e+02
<STATE> 4
<MEAN> 39
 -1.000613e+01 1.357458e+00 9.276573e-01 -1.127460e-01 5.554920e+00 1.404632e-01 3.138982e+00 -2.217852e+00 6.829291e-01 -8.278487e+00 8.865370e-01 -4.394483e+00 7.115224e+01 -8.845202e-03 -3.873449e-03 -1.950534e-04 -7.874797e-03 -1.533966e-03 -2.315038e-04 -1.981983e-04 2.773588e-03 5.025276e-03 1.128635e-02 2.636816e-03 -2.306508e-03 -7.147024e-03 -2.700920e-04 -1.920047e-04 -5.065684e-04 -3.473773e-04 -2.254949e-04 2.520106e-04 3.743754e-04 2.852106e-04 1.366518e-04 1.379086e-04 3.604537e-04 5.268968e-04 -1.896835e-04
<VARIANCE> 39
 3.647833e+01 3.090654e+01 3.101723e+01 4.263715e+01 4.627276e+01 3.800027e+01 3.722744e+01 2.850589e+01 4.892537e+01 4.172669e+01 2.685385e+01 3.140687e+01 4.326394e+01 1.318760e+00 1.548371e+00 1.212199e+00 1.437453e+00 1.641415e+00 1.709969e+00 1.901446e+00 1.512995e+00 2.188478e+00 1.835445e+00 1.521205e+00 1.645102e+00 7.986961e-01 1.846013e-01 2.403025e-01 1.978743e-01 2.093662e-01 2.570950e-01 2.932235e-01 3.216933e-01 2.752426e-01 3.665914e-01 3.227355e-01 2.731746e-01 2.946446e-01 1.260740e-01
<GCONST> 1.058651e+02
<TRANSP> 5
 0.000000e+00 1.000000e+00 0.000000e+00 0.000000e+00 0.000000e+00
 0.000000e+00 7.528521e-01 2.471479e-01 0.000000e+00 0.000000e+00
 0.000000e+00 0.000000e+00 7.528527e-01 2.471473e-01 0.000000e+00
 0.000000e+00 0.000000e+00 0.000000e+00 8.805901e-01 1.194099e-01
 0.000000e+00 0.000000e+00 0.000000e+00 0.000000e+00 0.000000e+00
<ENDHMM>
~h "m"
<BEGINHMM>
<NUMSTATES> 5
<STATE> 2
<MEAN> 39
 -1.080993e+01 2.132016e+00 -3.606621e-01 -1.479739e+00 5.541027e+00 1.671611e-01 3.761691e+00 -1.638974e+00 1.935226e+00 -6.798524e+00 1.582057e+00 -3.303720e+00 7.061140e+01 7.971101e-03 2.983669e-03 1.250389e-02 1.515948e-02 3.441753e-02 6.978518e-03 -1.773413e-02 -3.088204e-02 -2.609745e-02 5.842484e-03 2.928433e-03 -8.296748e-03 1.211686e-02 1.698887e-03 3.379876e-04 -2.949238e-03 2.522521e-03 -4.026331e-04 -3.422326e-03 -8.410690e-04 3.707437e-05 -1.007088e-03 -3.910803e-03 -5.542825e-03 -1.103970e-02 -6.088812e-04
<VARIANCE> 39
 3.346238e+01 2.574869e+01 3.167219e+01 3.549266e+01 3.485706e+01 2.770292e+01 3.223012e+01 2.520494e+01 4.738000e+01 4.310748e+01 2.432516e+01 2.592208e+01 2.781907e+01 1.250157e+00 1.359979e+00 1.166702e+00 1.318761e+00 1.343274e+00 1.481691e+00 1.639689e+00 1.367379e+00 2.018497e+00 1.679510e+00 1.270324e+00 1.429693e+00 7.281008e-01 1.809836e-01 2.162084e-01 1.950953e-01 1.982093e-01 2.172921e-01 2.570587e-01 2.864529e-01 2.411811e-01 3.431150e-01 2.999806e-01 2.336078e-01 2.580725e-01 1.095329e-01
<GCONST> 1.010405e+02
<STATE> 3
<MEAN> 39
 -1.074371e+01 2.149903e+00 -3.272936e-01 -1.413985e+00 5.653022e+00 1.889158e-01 3.682112e+00 -1.738307e+00 1.848850e+00 -6.818762e+00 1.573963e+00 -3.400362e+00 7.066254e+01 1.471723e-02 4.767048e-03 5.965217e-03 1.349451e-02 2.751191e-02 5.111243e-03 -2.514005e-02 -2.982157e-02 -2.029040e-02 -8.707707e-03 -6.326257e-03 -3.060010e-02 8.992576e-03 1.379772e-03 1.217368e-03 1.134290e-04 -5.623904e-04 -2.544640e-03 -3.295631e-04 -2.423947e-03 1.071170e-03 2.292566e-03 -3.087493e-03 -1.587087e-03 -3.245644e-03 -1.392422e-04
<VARIANCE> 39
 3.361351e+01 2.623822e+01 3.064215e+01 3.582528e+01 3.569038e+01 2.759202e+01 3.291166e+01 2.537976e+01 4.804334e+01 4.448818e+01 2.477383e+01 2.575759e+01 2.823618e+01 1.226926e+00 1.363753e+00 1.142847e+00 1.321910e+00 1.364611e+00 1.484403e+00 1.640871e+00 1.381953e+00 2.076588e+00 1.706799e+00 1.274143e+00 1.412857e+00 7.339728e-01 1.770497e-01 2.154507e-01 1.902113e-01 1.979073e-01 2.184376e-01 2.565324e-01 2.847350e-01 2.430649e-01 3.528799e-01 3.062937e-01 2.347840e-01 2.536414e-01 1.099107e-01
<GCONST> 1.011908e+02
<STATE> 4
<MEAN> 39
 -1.039023e+01 2.164124e+00 -2.060967e-01 -1.217699e+00 5.750715e+00 1.490084e-01 3.388888e+00 -1.999697e+00 1.562436e+00 -7.164269e+00 1.406353e+00 -3.547523e+00 7.088543e+01 2.203882e-02 6.997463e-03 7.879637e-03 1.390645e-02 1.825053e-02 1.695579e-03 -3.554151e-02 -2.479811e-02 -1.537173e-02 -2.362663e-02 -1.199298e-02 -2.825944e-02 9.225038e-03 8.132312e-04 1.590254e-03 2.000043e-03 1.592126e-03 -6.000884e-04 -3.205466e-03 -1.433122e-03 2.676770e-03 1.009148e-03 -9.598738e-04 -1.312651e-03 8.619434e-04 6.423172e-04
<VARIANCE> 39
 3.396705e+01 2.751287e+01 2.946745e+01 3.589526e+01 3.710635e+01 2.822079e+01 3.460638e+01 2.555808e+01 4.882986e+01 4.566831e+01 2.555716e+01 2.498506e+01 2.836258e+01 1.182591e+00 1.383376e+00 1.105822e+00 1.321792e+00 1.373354e+00 1.515034e+00 1.664352e+00 1.390944e+00 2.105968e+00 1.743041e+00 1.281804e+00 1.368718e+00 7.521065e-01 1.668970e-01 2.153985e-01 1.777688e-01 1.989397e-01 2.175226e-01 2.595893e-01 2.850976e-01 2.460216e-01 3.552387e-01 3.123509e-01 2.362708e-01 2.439628e-01 1.110268e-01
<GCONST> 1.013064e+02
<TRANSP> 5
 0.000000e+00 1.000000e+00 0.000000e+00 0.000000e+00 0.000000e+00
 0.000000e+00 7.513170e-01 2.486829e-01 0.000000e+00 0.000000e+00
 0.000000e+00 0.000000e+00 7.513171e-01 2.486829e-01 0.000000e+00
 0.000000e+00 0.000000e+00 0.000000e+00 8.786442e-01 1.213559e-01
 0.000000e+00 0.000000e+00 0.000000e+00 0.000000e+00 0.000000e+00
<ENDHMM>
~h "n"
<BEGINHMM>
<NUMSTATES> 5
<STATE> 2
<MEAN> 39
 -1.070483e+01 1.155509e+00 2.123040e-01 1.715074e-03 5.706282e+00 4.700435e-01 3.648709e+00 -1.850373e+00 1.636578e+00 -7.353518e+00 1.281675e+00 -3.600843e+00 7.090102e+01 3.652227e-03 -4.338146e-03 1.846744e-02 -1.141137e-02 -7.683598e-03 -4.276311e-03 1.214025e-02 -1.681131e-02 -2.579991e-02 -1.121367e-02 -2.193821e-03 -1.322926e-03 2.819000e-02 5.134083e-04 -2.904490e-05 -7.762703e-04 7.420501e-06 3.416083e-04 -9.049878e-04 -2.981492e-04 2.525764e-04 -7.105853e-04 -1.346296e-03 -1.081995e-03 -1.831712e-04 3.417375e-04
<VARIANCE> 39
 3.348196e+01 3.523588e+01 2.884456e+01 4.280697e+01 3.845681e+01 2.869774e+01 3.360087e+01 2.664314e+01 4.791849e+01 3.956200e+01 2.363441e+01 2.840108e+01 2.657140e+01 1.249762e+00 1.596280e+00 1.095848e+00 1.458236e+00 1.454741e+00 1.504380e+00 1.765113e+00 1.427061e+00 2.073126e+00 1.883709e+00 1.364105e+00 1.518605e+00 8.068146e-01 1.716074e-01 2.343550e-01 1.828946e-01 2.197797e-01 2.410300e-01 2.578427e-01 2.946716e-01 2.609317e-01 3.477554e-01 3.457122e-01 2.512857e-01 2.721011e-01 1.248692e-01
<GCONST> 1.030983e+02
<STATE> 3
<MEAN> 39
 -1.068281e+01 1.144017e+00 2.814275e-01 -3.872309e-02 5.689346e+00 4.469057e-01 3.698413e+00 -1.911400e+00 1.532368e+00 -7.416769e+00 1.259573e+00 -3.607176e+00 7.101649e+01 6.684420e-03 -4.228792e-03 1.624743e-02 -1.040861e-02 -5.451464e-03 -7.802501e-03 1.092782e-02 -1.498786e-02 -2.913513e-02 -1.790655e-02 -7.285840e-03 -3.690613e-03 3.010807e-02 7.686182e-04 4.429933e-04 -4.821693e-04 -5.346046e-05 3.085273e-04 -1.194773e-03 -8.294467e-04 -2.827983e-05 -5.946130e-04 -1.114900e-03 -1.124310e-03 -1.186486e-03 2.428155e-04
<VARIANCE> 39
 3.395241e+01 3.570549e+01 2.856664e+01 4.283057e+01 3.866626e+01 2.927502e+01 3.378222e+01 2.676308e+01 4.770607e+01 3.967012e+01 2.375757e+01 2.832541e+01 2.653199e+01 1.274811e+00 1.606186e+00 1.110304e+00 1.469769e+00 1.463759e+00 1.538861e+00 1.781141e+00 1.432137e+00 2.072249e+00 1.895979e+00 1.376463e+00 1.519331e+00 8.217469e-01 1.750975e-01 2.351630e-01 1.855558e-01 2.208232e-01 2.411389e-01 2.629457e-01 2.967891e-01 2.617976e-01 3.469802e-01 3.481188e-01 2.532155e-01 2.727820e-01 1.275192e-01
<GCONST> 1.033824e+02
<STATE> 4
<MEAN> 39
 -1.067775e+01 1.104034e+00 3.008514e-01 -1.029505e-01 5.622940e+00 3.431001e-01 3.831187e+00 -1.946169e+00 1.420742e+00 -7.529282e+00 1.195000e+00 -3.653098e+00 7.111258e+01 9.251351e-03 -1.910210e-03 1.533507e-02 -1.082892e-02 -4.247642e-03 -1.276984e-02 2.664465e-03 -1.622346e-02 -2.619408e-02 -2.061153e-02 -1.198396e-02 -1.226251e-02 2.985417e-02 -1.883610e-04 2.404171e-03 1.638157e-03 -9.331810e-04 -6.914140e-04 -6.809083e-04 -2.292618e-03 -3.407187e-03 2.937856e-03 3.664187e-03 2.297694e-06 -2.721573e-03 -7.370106e-04
<VARIANCE> 39
 3.525373e+01 3.640344e+01 2.841462e+01 4.318333e+01 3.916743e+01 3.022369e+01 3.368217e+01 2.675221e+01 4.710469e+01 3.965800e+01 2.384305e+01 2.809065e+01 2.618556e+01 1.297254e+00 1.614706e+00 1.124783e+00 1.484020e+00 1.472736e+00 1.580634e+00 1.789045e+00 1.450357e+00 2.055409e+00 1.916561e+00 1.383029e+00 1.504203e+00 8.407757e-01 1.758085e-01 2.356630e-01 1.887741e-01 2.207340e-01 2.399439e-01 2.685247e-01 2.963183e-01 2.647181e-01 3.434096e-01 3.513786e-01 2.524600e-01 2.693017e-01 1.305841e-01
<GCONST> 1.036238e+02
<TRANSP> 5
 0.000000e+00 1.000000e+00 0.000000e+00 0.000000e+00 0.000000e+00
 0.000000e+00 7.536005e-01 2.463995e-01 0.000000e+00 0.000000e+00
 0.000000e+00 0.000000e+00 7.536016e-01 2.463984e-01 0.000000e+00
 0.000000e+00 0.000000e+00 0.000000e+00 8.809710e-01 1.190290e-01
 0.000000e+00 0.000000e+00 0.000000e+00 0.000000e+00 0.000000e+00
<ENDHMM>
~h "q"
<BEGINHMM>
<NUMSTATES> 5
<STATE> 2
<MEAN> 39
 -1.268479e+01 3.265524e-01 4.022300e-01 -1.391479e+00 5.109477e+00 5.915698e-01 3.663046e+00 -1.703529e+00 2.760388e+00 -6.200151e+00 1.003642e+00 -4.686997e+00 7.075416e+01 -1.434533e-02 -1.124721e-02 2.546906e-02 -2.257230e-02 5.349954e-03 -1.229644e-03 -2.209833e-02 -3.390883e-03 1.765400e-02 -4.378853e-03 -2.037204e-02 -1.901725e-02 -3.939952e-03 2.126653e-03 7.031573e-04 -1.443011e-03 7.490582e-04 1.565938e-03 -3.467193e-04 -4.005931e-04 -2.067942e-03 -1.256999e-03 -1.621055e-03 -6.678178e-04 -2.146931e-04 1.644537e-03
<VARIANCE> 39
 5.005822e+01 2.495113e+01 3.740515e+01 5.233888e+01 4.762859e+01 2.939876e+01 3.671259e+01 2.844301e+01 4.558020e+01 3.463979e+01 2.251927e+01 3.440572e+01 2.586499e+01 2.173578e+00 1.593876e+00 1.318459e+00 1.618318e+00 1.793560e+00 1.671799e+00 2.284846e+00 1.907117e+00 2.001541e+00 1.721304e+00 1.473094e+00 1.840700e+00 8.522364e-01 3.096671e-01 2.641005e-01 2.081725e-01 2.365203e-01 2.847810e-01 3.032949e-01 3.998262e-01 3.651415e-01 3.570767e-01 3.254307e-01 2.945472e-01 3.383172e-01 1.390834e-01
<GCONST> 1.081780e+02
<STATE> 3
<MEAN> 39
 -1.271853e+01 2.970335e-01 4.790177e-01 -1.457371e+00 5.152681e+00 5.887302e-01 3.573097e+00 -1.740440e+00 2.816430e+00 -6.226573e+00 9.325497e-01 -4.758976e+00 7.075162e+01 -5.717285e-03 -6.730439e-03 1.873805e-02 -1.813512e-02 1.003254e-02 -3.443807e-03 -2.422405e-02 -1.049638e-02 1.308560e-02 -8.045977e-03 -2.086828e-02 -1.794304e-02 1.369746e-03 2.093741e-03 1.222738e-03 -1.645062e-03 1.313958e-03 1.347867e-03 -4.418776e-04 -4.935748e-04 -2.065297e-03 -1.372279e-03 -9.752469e-04 7.172558e-05 3.168691e-04 1.696130e-03
<VARIANCE> 39
 5.009222e+01 2.497447e+01 3.752351e+01 5.388612e+01 4.770311e+01 2.889797e+01 3.697342e+01 2.815468e+01 4.628979e+01 3.509594e+01 2.237248e+01 3.498486e+01 2.611242e+01 2.200863e+00 1.581842e+00 1.314816e+00 1.645189e+00 1.812417e+00 1.693097e+00 2.313365e+00 1.947986e+00 2.040277e+00 1.736782e+00 1.488412e+00 1.851782e+00 8.443497e-01 3.147308e-01 2.626035e-01 2.094416e-01 2.412695e-01 2.889139e-01 3.074469e-01 4.055389e-01 3.754151e-01 3.646809e-01 3.296200e-01 2.971309e-01 3.408518e-01 1.380218e-01
<GCONST> 1.085007e+02
<STATE> 4
<MEAN> 39
 -1.252687e+01 2.697347e-01 6.524233e-01 -1.227479e+00 5.341256e+00 5.750877e-01 3.300610e+00 -1.894761e+00 2.754403e+00 -6.439554e+00 7.692190e-01 -4.995770e+00 7.080451e+01 6.965014e-03 -6.937191e-06 6.946045e-03 -5.051428e-03 1.530236e-02 -5.110714e-03 -2.763204e-02 -2.091302e-02 6.726620e-03 -8.579900e-03 -1.836312e-02 -1.374202e-02 7.179629e-03 1.770695e-03 9.158738e-04 -1.218471e-03 1.594781e-03 7.069830e-04 -4.427241e-04 -5.998519e-04 -1.878534e-03 -1.468512e-03 -5.492405e-04 1.220344e-05 5.229838e-04 1.685310e-03
<VARIANCE> 39
 4.967781e+01 2.598792e+01 3.713727e+01 5.550229e+01 4.970237e+01 2.837576e+01 3.757299e+01 2.743445e+01 4.756314e+01 3.747969e+01 2.255320e+01 3.609295e+01 2.561904e+01 2.181443e+00 1.579131e+00 1.295403e+00 1.675325e+00 1.873631e+00 1.705922e+00 2.402361e+00 2.011153e+00 2.121676e+00 1.785661e+00 1.514403e+00 1.878781e+00 8.190216e-01 3.089031e-01 2.593779e-01 2.101784e-01 2.456712e-01 2.960207e-01 3.077490e-01 4.241622e-01 3.914204e-01 3.796243e-01 3.408718e-01 3.013167e-01 3.448517e-01 1.333435e-01
<GCONST> 1.090161e+02
<TRANSP> 5
 0.000000e+00 1.000000e+00 0.000000e+00 0.000000e+00 0.000000e+00
 0.000000e+00 7.446027e-01 2.553973e-01 0.000000e+00 0.000000e+00
 0.000000e+00 0.000000e+00 7.446028e-01 2.553972e-01 0.000000e+00
 0.000000e+00 0.000000e+00 0.000000e+00 8.707104e-01 1.292896e-01
 0.000000e+00 0.000000e+00 0.000000e+00 0.000000e+00 0.000000e+00
<ENDHMM>
~h "r"
<BEGINHMM>
<NUMSTATES> 5
<STATE> 2
<MEAN> 39
 -1.096024e+01 1.144441e+00 7.537564e-01 -5.011879e-01 5.643759e+00 6.955941e-01 2.953247e+00 -1.873525e+00 1.064068e+00 -7.806354e+00 1.083566e+00 -4.012481e+00 7.087318e+01 -1.660401e-02 -1.026724e-02 -2.680176e-02 -1.448220e-02 -1.678601e-02 -7.606664e-04 9.404375e-03 1.791505e-02 2.090034e-02 3.191608e-02 1.339374e-02 1.004053e-02 -2.792686e-02 -5.773309e-04 8.191172e-04 -4.556135e-04 -8.799656e-05 -3.750050e-04 1.647699e-04 5.944202e-04 -1.341681e-04 1.644682e-03 7.237783e-04 -9.130908e-05 6.131010e-04 -7.538264e-04
<VARIANCE> 39
 3.770893e+01 2.867348e+01 2.769209e+01 4.018377e+01 3.994240e+01 2.799629e+01 3.201324e+01 2.190192e+01 4.465006e+01 4.436205e+01 2.425801e+01 2.902674e+01 2.105769e+01 1.355461e+00 1.651903e+00 1.190554e+00 1.348495e+00 1.614105e+00 1.769141e+00 1.807902e+00 1.415047e+00 2.211932e+00 1.961861e+00 1.418790e+00 1.773840e+00 8.607771e-01 1.918153e-01 2.553385e-01 2.005132e-01 2.017122e-01 2.517849e-01 3.142774e-01 3.091506e-01 2.516552e-01 3.807189e-01 3.502527e-01 2.535558e-01 3.089803e-01 1.410701e-01
<GCONST> 1.041199e+02
<STATE> 3
<MEAN> 39
 -1.103263e+01 1.103340e+00 6.440948e-01 -5.606479e-01 5.573492e+00 6.911625e-01 2.993513e+00 -1.797597e+00 1.161331e+00 -7.668698e+00 1.138444e+00 -3.969850e+00 7.075470e+01 -1.863791e-02 -6.313982e-03 -2.884039e-02 -1.505369e-02 -1.803432e-02 2.804828e-04 1.174451e-02 1.722154e-02 2.783050e-02 3.490818e-02 1.301553e-02 1.254754e-02 -3.118796e-02 -4.267070e-04 9.382091e-04 -2.898051e-04 -1.832563e-04 -2.232507e-04 2.305786e-04 3.533819e-04 -2.623779e-04 1.237200e-03 5.207285e-04 -3.814184e-05 5.209487e-04 -5.600351e-04
<VARIANCE> 39
 3.702985e+01 2.836342e+01 2.749769e+01 4.001041e+01 3.976017e+01 2.745319e+01 3.185754e+01 2.176007e+01 4.575822e+01 4.522492e+01 2.416294e+01 2.887909e+01 2.157671e+01 1.343390e+00 1.640745e+00 1.190699e+00 1.329229e+00 1.609004e+00 1.752637e+00 1.777325e+00 1.399244e+00 2.220280e+00 1.946351e+00 1.409930e+00 1.756960e+00 8.555190e-01 1.932922e-01 2.539142e-01 2.009117e-01 1.991015e-01 2.515645e-01 3.125673e-01 3.035755e-01 2.488903e-01 3.824572e-01 3.472137e-01 2.537384e-01 3.071173e-01 1.400691e-01
<GCONST> 1.039449e+02
<STATE> 4
<MEAN> 39
 -1.106776e+01 1.088565e+00 3.927888e-01 -6.522344e-01 5.449997e+00 6.129892e-01 3.055397e+00 -1.690754e+00 1.281048e+00 -7.490525e+00 1.174501e+00 -3.965113e+00 7.050012e+01 -1.990830e-02 -6.807859e-04 -3.070099e-02 -1.642845e-02 -1.808781e-02 2.151665e-03 1.290894e-02 1.640109e-02 3.584561e-02 3.843476e-02 1.297538e-02 1.531461e-02 -3.471157e-02 -1.167140e-04 9.521589e-04 -3.679889e-05 -1.551206e-04 -1.458122e-06 1.423038e-04 -2.897799e-05 -4.731358e-04 4.223429e-04 -4.200535e-05 -1.429585e-04 2.556088e-04 -2.117586e-04
<VARIANCE> 39
 3.595530e+01 2.781204e+01 2.768823e+01 3.981306e+01 3.989268e+01 2.645425e+01 3.158640e+01 2.153611e+01 4.760818e+01 4.687400e+01 2.409809e+01 2.844824e+01 2.267384e+01 1.281210e+00 1.598087e+00 1.184613e+00 1.288660e+00 1.602793e+00 1.705579e+00 1.728281e+00 1.382841e+00 2.234968e+00 1.927920e+00 1.395013e+00 1.700505e+00 8.407651e-01 1.862551e-01 2.465866e-01 2.002832e-01 1.934898e-01 2.516816e-01 3.043973e-01 2.935864e-01 2.474664e-01 3.872100e-01 3.445725e-01 2.519720e-01 2.975972e-01 1.368048e-01
<GCONST> 1.034875e+02
<TRANSP> 5
 0.000000e+00 1.000000e+00 0.000000e+00 0.000000e+00 0.000000e+00
 0.000000e+00 7.535123e-01 2.464877e-01 0.000000e+00 0.000000e+00
 0.000000e+00 0.000000e+00 7.535124e-01 2.464875e-01 0.000000e+00
 0.000000e+00 0.000000e+00 0.000000e+00 8.814604e-01 1.185396e-01
 0.000000e+00 0.000000e+00 0.000000e+00 0.000000e+00 0.000000e+00
<ENDHMM>
~h "s"
<BEGINHMM>
<NUMSTATES> 5
<STATE> 2
<MEAN> 39
 -1.138096e+01 7.434371e-04 3.731721e-01 -1.366348e+00 4.790082e+00 9.668686e-01 4.463641e+00 -1.740295e+00 1.384039e+00 -6.767687e+00 1.849405e+00 -2.361728e+00 6.846808e+01 -3.085838e-02 9.290094e-03 -1.217142e-02 -1.957254e-02 2.430441e-03 3.695705e-02 3.561857e-02 3.707378e-02 6.679370e-02 3.249986e-02 -2.088289e-02 -2.981738e-02 -8.917047e-03 -5.846582e-03 2.950232e-03 -7.989224e-03 -1.464545e-02 -2.756434e-03 -1.158229e-02 -1.591294e-02 -1.844739e-02 -1.815141e-02 -7.711030e-03 -2.459456e-03 -5.698179e-03 -1.510888e-03
<VARIANCE> 39
 4.710589e+01 3.309795e+01 3.776253e+01 4.450663e+01 3.676720e+01 2.659431e+01 3.267664e+01 2.471755e+01 4.433233e+01 3.975494e+01 2.658346e+01 3.179946e+01 1.653742e+02 1.313580e+00 1.254705e+00 1.057212e+00 1.418448e+00 1.331030e+00 1.417215e+00 1.585961e+00 1.339609e+00 1.747114e+00 1.565700e+00 1.291138e+00 1.460477e+00 7.976341e-01 1.642431e-01 2.001308e-01 1.727586e-01 1.972790e-01 2.048770e-01 2.578207e-01 2.756431e-01 2.478001e-01 2.845558e-01 2.685797e-01 2.322635e-01 2.505644e-01 1.260653e-01
<GCONST> 1.031603e+02
<STATE> 3
<MEAN> 39
 -1.153170e+01 9.464566e-02 2.907156e-01 -1.513684e+00 4.801839e+00 1.046402e+00 4.511020e+00 -1.691851e+00 1.551221e+00 -6.692955e+00 1.778630e+00 -2.484052e+00 6.842406e+01 -4.372757e-02 2.604629e-02 -2.149745e-02 -4.412941e-02 2.246361e-03 1.574502e-02 5.687107e-03 3.698414e-03 3.452185e-02 1.244832e-02 -1.783337e-02 -3.217595e-02 -7.054940e-03 -1.946182e-03 4.465390e-03 -1.350946e-03 -3.433640e-03 5.172445e-04 -3.533177e-03 -5.001490e-03 -5.267555e-03 -5.810681e-03 -5.059501e-03 1.879975e-03 1.032042e-03 1.057151e-03
<VARIANCE> 39
 4.747872e+01 3.243016e+01 3.849104e+01 4.396824e+01 3.646326e+01 2.543180e+01 3.222324e+01 2.528597e+01 4.501659e+01 3.922515e+01 2.480182e+01 3.074074e+01 1.621493e+02 1.310886e+00 1.248507e+00 1.060521e+00 1.427041e+00 1.334861e+00 1.396295e+00 1.535655e+00 1.301949e+00 1.660044e+00 1.501286e+00 1.304384e+00 1.446347e+00 7.912481e-01 1.606211e-01 1.975552e-01 1.707049e-01 1.964716e-01 2.066210e-01 2.566974e-01 2.666878e-01 2.425657e-01 2.815368e-01 2.763631e-01 2.351620e-01 2.509503e-01 1.245209e-01
<GCONST> 1.027362e+02
<STATE> 4
<MEAN> 39
 -1.178111e+01 2.790527e-01 2.603287e-01 -1.548148e+00 4.928882e+00 1.083312e+00 4.513823e+00 -1.675021e+00 1.787753e+00 -6.488859e+00 1.757159e+00 -2.787601e+00 6.858600e+01 -3.549633e-02 2.801939e-02 -9.076969e-03 -2.578552e-02 6.777591e-03 1.377978e-02 6.264171e-03 -2.543271e-04 2.809859e-02 2.446838e-02 2.448596e-04 -2.377684e-02 -3.837727e-03 1.684790e-03 -2.527029e-04 1.342365e-03 3.089888e-03 6.756142e-04 -7.718903e-04 -1.505088e-04 -2.140174e-04 -1.320741e-03 1.383342e-03 2.310976e-03 7.243120e-04 9.440178e-04
<VARIANCE> 39
 4.744748e+01 3.169271e+01 3.919238e+01 4.421713e+01 3.754709e+01 2.418158e+01 3.254097e+01 2.556293e+01 4.495033e+01 3.788929e+01 2.345898e+01 3.058259e+01 1.362974e+02 1.295603e+00 1.246338e+00 1.056857e+00 1.409237e+00 1.329782e+00 1.375417e+00 1.539172e+00 1.301387e+00 1.618628e+00 1.452082e+00 1.268216e+00 1.427894e+00 7.708530e-01 1.541843e-01 1.938307e-01 1.665330e-01 1.897671e-01 2.059444e-01 2.526209e-01 2.622430e-01 2.405185e-01 2.700709e-01 2.652718e-01 2.325953e-01 2.490934e-01 1.193619e-01
<GCONST> 1.019858e+02
<TRANSP> 5
 0.000000e+00 1.000000e+00 0.000000e+00 0.000000e+00 0.000000e+00
 0.000000e+00 7.527408e-01 2.472592e-01 0.000000e+00 0.000000e+00
 0.000000e+00 0.000000e+00 7.527406e-01 2.472594e-01 0.000000e+00
 0.000000e+00 0.000000e+00 0.000000e+00 8.807553e-01 1.192447e-01
 0.000000e+00 0.000000e+00 0.000000e+00 0.000000e+00 0.000000e+00
<ENDHMM>
~h "t"
<BEGINHMM>
<NUMSTATES> 5
<STATE> 2
<MEAN> 39
 -1.033919e+01 1.181926e+00 -5.089267e-01 -1.640280e+00 4.589439e+00 -1.426789e-01 4.250597e+00 -2.779772e+00 6.324110e-02 -8.497343e+00 1.186180e+00 -3.849309e+00 7.249151e+01 2.230109e-02 -2.104134e-02 1.189626e-02 6.125469e-03 -6.573555e-03 -6.290611e-03 1.625007e-03 -4.655264e-02 -7.107546e-02 -5.397730e-02 -2.232235e-02 -4.819722e-03 3.650014e-02 -1.578588e-03 1.195317e-03 -9.874343e-04 1.042238e-03 6.420366e-04 1.545349e-03 -3.208960e-04 5.182026e-03 8.534567e-03 1.095375e-02 8.343382e-03 1.651845e-03 -1.544710e-03
<VARIANCE> 39
 3.090105e+01 2.775140e+01 2.887055e+01 2.943435e+01 3.347111e+01 2.443392e+01 2.839937e+01 2.902057e+01 5.082427e+01 3.827264e+01 2.386464e+01 2.492192e+01 3.943799e+01 1.229760e+00 1.417799e+00 1.106017e+00 1.310128e+00 1.402821e+00 1.703166e+00 1.745092e+00 1.592892e+00 2.188992e+00 1.846454e+00 1.344699e+00 1.360590e+00 1.056624e+00 1.747807e-01 2.272009e-01 1.949763e-01 2.024225e-01 2.319390e-01 3.058524e-01 3.031796e-01 3.039678e-01 3.605280e-01 3.400209e-01 2.469396e-01 2.532083e-01 1.646954e-01
<GCONST> 1.029459e+02
<STATE> 3
<MEAN> 39
 -1.027637e+01 1.105804e+00 -4.793552e-01 -1.615600e+00 4.573051e+00 -1.447039e-01 4.238838e+00 -2.930703e+00 -1.513208e-01 -8.640059e+00 1.154817e+00 -3.853473e+00 7.260058e+01 1.577359e-02 -1.894811e-02 5.697314e-03 4.892398e-03 -5.659689e-03 4.823991e-04 1.262945e-04 -3.074639e-02 -4.620158e-02 -2.719134e-02 -8.470796e-04 2.540821e-03 2.769266e-02 -1.511541e-03 4.439962e-04 -4.916741e-04 2.284584e-04 -3.456739e-04 1.339215e-03 -1.113693e-03 2.349899e-03 5.784429e-03 6.202269e-03 4.973072e-03 2.322047e-03 -2.222674e-03
<VARIANCE> 39
 3.051651e+01 2.779737e+01 2.939478e+01 2.960210e+01 3.359394e+01 2.442630e+01 2.859991e+01 2.931956e+01 5.017955e+01 3.724765e+01 2.344549e+01 2.505100e+01 3.969467e+01 1.244191e+00 1.429584e+00 1.118068e+00 1.291385e+00 1.394961e+00 1.717779e+00 1.751365e+00 1.582753e+00 2.184757e+00 1.845014e+00 1.349646e+00 1.372950e+00 1.076188e+00 1.787405e-01 2.287055e-01 1.971926e-01 1.996533e-01 2.300387e-01 3.092767e-01 3.042908e-01 3.024843e-01 3.606897e-01 3.422551e-01 2.510175e-01 2.552899e-01 1.687019e-01
<GCONST> 1.030621e+02
<STATE> 4
<MEAN> 39
 -1.021531e+01 9.451061e-01 -4.576662e-01 -1.593260e+00 4.590491e+00 -2.376031e-02 4.189975e+00 -3.098670e+00 -4.465755e-01 -8.759061e+00 1.233320e+00 -3.784427e+00 7.262032e+01 5.795320e-03 -1.480257e-02 1.033812e-02 1.244516e-02 2.305090e-03 1.199265e-02 -6.721579e-03 -2.598797e-02 -2.399965e-02 -4.627399e-03 1.129305e-02 1.385413e-02 8.219372e-03 -1.525212e-03 1.798478e-05 2.902966e-03 3.341423e-03 5.561944e-05 1.635961e-03 -2.122892e-03 -1.806614e-03 4.118527e-03 1.946053e-03 8.014203e-04 2.677113e-03 -2.159606e-03
<VARIANCE> 39
 2.945094e+01 2.770708e+01 3.027308e+01 2.999841e+01 3.397427e+01 2.427050e+01 2.891670e+01 3.014100e+01 5.007101e+01 3.628019e+01 2.285838e+01 2.519930e+01 4.016479e+01 1.231936e+00 1.441711e+00 1.130434e+00 1.256607e+00 1.377339e+00 1.709032e+00 1.743550e+00 1.555106e+00 2.181641e+00 1.818104e+00 1.324970e+00 1.366802e+00 1.088767e+00 1.800048e-01 2.293624e-01 1.990280e-01 1.943436e-01 2.276485e-01 3.094980e-01 3.029281e-01 2.967708e-01 3.550381e-01 3.393176e-01 2.461182e-01 2.517526e-01 1.719906e-01
<GCONST> 1.029084e+02
<TRANSP> 5
 0.000000e+00 1.000000e+00 0.000000e+00 0.000000e+00 0.000000e+00
 0.000000e+00 7.511812e-01 2.488188e-01 0.000000e+00 0.000000e+00
 0.000000e+00 0.000000e+00 7.511812e-01 2.488187e-01 0.000000e+00
 0.000000e+00 0.000000e+00 0.000000e+00 8.772107e-01 1.227893e-01
 0.000000e+00 0.000000e+00 0.000000e+00 0.000000e+00 0.000000e+00
<ENDHMM>
~h "u"
<BEGINHMM>
<NUMSTATES> 5
<STATE> 2
<MEAN> 39
 -9.347182e+00 -5.301038e-01 6.345379e-01 -1.056953e+00 4.294953e+00 -1.078745e+00 1.316427e+00 -1.564848e+00 2.268445e+00 -7.423386e+00 4.093826e-01 -3.548129e+00 7.119424e+01 -1.792858e-03 -1.056439e-02 -2.621096e-02 -3.387383e-02 -4.088004e-02 1.982001e-02 2.690808e-02 1.045366e-02 4.124869e-02 2.938963e-03 8.586789e-03 4.857625e-03 7.876641e-03 1.758307e-03 4.008384e-03 1.812833e-03 1.836627e-03 2.668494e-03 1.444122e-03 -1.322767e-03 -1.290417e-03 -1.391163e-03 -1.505048e-03 -4.688314e-04 -1.957071e-03 -9.788513e-04
<VARIANCE> 39
 2.803224e+01 5.813561e+01 2.630959e+01 3.733685e+01 4.279085e+01 3.819460e+01 3.836127e+01 2.126185e+01 3.139670e+01 2.706951e+01 2.895498e+01 2.249648e+01 1.594064e+01 1.573002e+00 2.745210e+00 1.547929e+00 2.250937e+00 1.840436e+00 2.426621e+00 2.036939e+00 1.552953e+00 2.690030e+00 2.324859e+00 1.381752e+00 1.801048e+00 7.928915e-01 2.304407e-01 3.563601e-01 2.889700e-01 3.704443e-01 2.464416e-01 4.021466e-01 3.517273e-01 2.742938e-01 4.721978e-01 4.293320e-01 2.650048e-01 3.436931e-01 1.239225e-01
<GCONST> 1.084673e+02
<STATE> 3
<MEAN> 39
 -9.341212e+00 -5.503175e-01 5.477635e-01 -1.166221e+00 4.165685e+00 -9.923282e-01 1.405363e+00 -1.533198e+00 2.410911e+00 -7.425479e+00 4.343905e-01 -3.546731e+00 7.122205e+01 5.249183e-03 5.180410e-03 -1.879898e-02 -2.629852e-02 -2.969196e-02 2.469629e-02 2.089202e-02 5.432513e-03 3.544634e-02 -3.248420e-03 6.007807e-03 -2.536651e-03 4.154788e-03 2.239734e-03 4.565528e-03 2.058390e-03 2.321156e-03 3.254156e-03 8.311783e-04 -1.893226e-03 -1.366535e-03 -1.843278e-03 -1.766976e-03 -9.384846e-04 -2.223237e-03 -1.097488e-03
<VARIANCE> 39
 2.837609e+01 5.916777e+01 2.653459e+01 3.656006e+01 4.251188e+01 3.905227e+01 3.840615e+01 2.108528e+01 3.120233e+01 2.688947e+01 2.919978e+01 2.245088e+01 1.595196e+01 1.548990e+00 2.751477e+00 1.565985e+00 2.228317e+00 1.829995e+00 2.480776e+00 2.068128e+00 1.571844e+00 2.676567e+00 2.311220e+00 1.383661e+00 1.821082e+00 7.860815e-01 2.276623e-01 3.579528e-01 2.949799e-01 3.700598e-01 2.470777e-01 4.087128e-01 3.591879e-01 2.799654e-01 4.665761e-01 4.261104e-01 2.629800e-01 3.478499e-01 1.230377e-01
<GCONST> 1.085621e+02
<STATE> 4
<MEAN> 39
 -9.185118e+00 -4.498270e-01 3.981203e-01 -1.292153e+00 4.039295e+00 -8.927455e-01 1.549989e+00 -1.477581e+00 2.560276e+00 -7.433136e+00 4.989484e-01 -3.635485e+00 7.124643e+01 1.696696e-02 2.732719e-02 -6.975835e-03 -1.235218e-02 -9.313750e-03 2.903291e-02 8.548778e-03 -1.595487e-03 2.442770e-02 -1.410099e-02 -1.718846e-03 -1.407917e-02 -1.233694e-04 2.607227e-03 4.975775e-03 2.304231e-03 2.600430e-03 3.678592e-03 -1.398773e-05 -2.361453e-03 -1.384570e-03 -2.330495e-03 -1.960574e-03 -1.560100e-03 -2.225175e-03 -1.147266e-03
<VARIANCE> 39
 2.890507e+01 6.028186e+01 2.686276e+01 3.552039e+01 4.292879e+01 4.040403e+01 3.899468e+01 2.091084e+01 3.098416e+01 2.677891e+01 2.956340e+01 2.255929e+01 1.558155e+01 1.487069e+00 2.724663e+00 1.569190e+00 2.184059e+00 1.826671e+00 2.550948e+00 2.113316e+00 1.595493e+00 2.644713e+00 2.295730e+00 1.386433e+00 1.849984e+00 7.666674e-01 2.179390e-01 3.546970e-01 2.989329e-01 3.665544e-01 2.479022e-01 4.143389e-01 3.678975e-01 2.873393e-01 4.548776e-01 4.214495e-01 2.588724e-01 3.548315e-01 1.199868e-01
<GCONST> 1.085445e+02
<TRANSP> 5
 0.000000e+00 1.000000e+00 0.000000e+00 0.000000e+00 0.000000e+00
 0.000000e+00 7.324997e-01 2.675003e-01 0.000000e+00 0.000000e+00
 0.000000e+00 0.000000e+00 7.324999e-01 2.675001e-01 0.000000e+00
 0.000000e+00 0.000000e+00 0.000000e+00 8.541801e-01 1.458199e-01
 0.000000e+00 0.000000e+00 0.000000e+00 0.000000e+00 0.000000e+00
<ENDHMM>
~h "w"
<BEGINHMM>
<NUMSTATES> 5
<STATE> 2
<MEAN> 39
 -1.051858e+01 1.405662e+00 7.989457e-01 -5.343899e-01 5.473547e+00 1.650106e-01 3.092505e+00 -1.696820e+00 1.519477e+00 -7.910253e+00 6.383560e-01 -4.176217e+00 7.117651e+01 -1.826984e-03 9.317937e-03 -2.119621e-03 -1.189055e-02 -1.039196e-02 -1.478315e-03 -1.601832e-02 -9.075021e-04 2.894423e-02 2.420144e-02 1.335142e-02 1.383592e-02 -1.289097e-02 -1.320645e-03 -9.599035e-05 6.853627e-04 -2.430274e-04 6.298285e-04 2.577239e-03 2.355168e-03 1.416737e-04 4.182131e-03 -6.286171e-04 -6.860047e-03 -5.496293e-03 -8.602799e-04
<VARIANCE> 39
 3.665688e+01 4.165138e+01 3.282692e+01 3.872946e+01 4.577020e+01 3.213877e+01 3.755901e+01 3.005596e+01 4.592026e+01 3.683959e+01 2.712890e+01 3.079330e+01 2.501916e+01 1.626546e+00 1.839357e+00 1.284236e+00 1.467275e+00 1.714280e+00 1.709470e+00 1.884675e+00 1.634432e+00 2.133588e+00 1.928657e+00 1.457487e+00 1.726149e+00 8.448680e-01 2.391054e-01 2.732408e-01 2.106861e-01 2.250518e-01 2.638115e-01 3.038106e-01 3.123420e-01 2.981094e-01 3.759177e-01 3.549391e-01 2.654822e-01 3.092115e-01 1.371398e-01
<GCONST> 1.067822e+02
<STATE> 3
<MEAN> 39
 -1.053828e+01 1.445601e+00 7.986135e-01 -5.712970e-01 5.439961e+00 1.822011e-01 3.059597e+00 -1.700854e+00 1.645748e+00 -7.833185e+00 6.478277e-01 -4.160553e+00 7.112066e+01 -6.463995e-03 8.234745e-03 -1.287855e-04 -9.192833e-03 -4.540252e-03 7.271806e-03 -6.463827e-03 -4.040115e-04 3.232513e-02 1.668772e-02 -1.597670e-03 6.383529e-04 -1.384095e-02 -8.164760e-04 -2.287882e-04 2.475415e-04 1.125848e-03 1.273610e-03 1.690584e-03 2.240261e-03 4.316169e-04 -2.764092e-04 -1.979648e-03 -2.598596e-03 -2.521800e-03 -1.107763e-04
<VARIANCE> 39
 3.664301e+01 4.129553e+01 3.310889e+01 3.911096e+01 4.615748e+01 3.179465e+01 3.720388e+01 2.997420e+01 4.605164e+01 3.723299e+01 2.691549e+01 3.042212e+01 2.496513e+01 1.617518e+00 1.832492e+00 1.295562e+00 1.477264e+00 1.724228e+00 1.719222e+00 1.864034e+00 1.638444e+00 2.122759e+00 1.915657e+00 1.420868e+00 1.702534e+00 8.383968e-01 2.374201e-01 2.723652e-01 2.127500e-01 2.271533e-01 2.663561e-01 3.062468e-01 3.110967e-01 2.994812e-01 3.726086e-01 3.540766e-01 2.598105e-01 3.071737e-01 1.353984e-01
<GCONST> 1.066935e+02
<STATE> 4
<MEAN> 39
 -1.044971e+01 1.527549e+00 8.675618e-01 -4.838642e-01 5.406390e+00 1.401552e-01 3.060644e+00 -1.732018e+00 1.668659e+00 -7.825939e+00 5.427422e-01 -4.286749e+00 7.104002e+01 -5.069425e-03 8.299160e-03 1.201867e-03 -5.355454e-03 -2.421642e-03 4.169555e-03 -3.693547e-03 -1.942169e-03 2.052955e-02 8.676661e-03 -7.370911e-03 -5.912796e-03 -1.030615e-02 5.558938e-04 3.011606e-04 -2.761421e-04 6.457096e-04 -1.327897e-04 -4.270152e-04 5.505369e-04 4.139259e-04 -1.707795e-03 -8.630506e-04 -5.348951e-04 -7.670145e-04 2.360686e-04
<VARIANCE> 39
 3.701865e+01 4.118103e+01 3.381754e+01 3.954500e+01 4.612305e+01 3.144793e+01 3.699137e+01 2.949296e+01 4.546978e+01 3.713851e+01 2.697181e+01 2.967215e+01 2.463817e+01 1.586413e+00 1.794881e+00 1.305298e+00 1.471934e+00 1.703539e+00 1.703090e+00 1.856634e+00 1.619379e+00 2.066782e+00 1.909302e+00 1.386017e+00 1.668060e+00 8.148697e-01 2.275132e-01 2.642079e-01 2.124473e-01 2.259823e-01 2.637338e-01 2.996052e-01 3.084228e-01 2.955693e-01 3.601261e-01 3.533289e-01 2.517227e-01 2.997866e-01 1.294519e-01
<GCONST> 1.062006e+02
<TRANSP> 5
 0.000000e+00 1.000000e+00 0.000000e+00 0.000000e+00 0.000000e+00
 0.000000e+00 7.526461e-01 2.473538e-01 0.000000e+00 0.000000e+00
 0.000000e+00 0.000000e+00 7.526464e-01 2.473536e-01 0.000000e+00
 0.000000e+00 0.000000e+00 0.000000e+00 8.801827e-01 1.198173e-01
 0.000000e+00 0.000000e+00 0.000000e+00 0.000000e+00 0.000000e+00
<ENDHMM>
~h "y"
<BEGINHMM>
<NUMSTATES> 5
<STATE> 2
<MEAN> 39
 -1.083229e+01 5.265189e-01 1.310226e+00 4.921958e-01 6.480729e+00 1.144387e+00 2.716588e+00 -2.532762e+00 7.359098e-01 -8.096564e+00 9.012733e-01 -4.047519e+00 7.116634e+01 -7.766719e-03 3.214183e-03 -5.710335e-03 -1.005830e-02 5.856765e-04 4.793320e-03 -5.961229e-04 6.748086e-03 1.083733e-02 1.344121e-02 3.163003e-03 1.705036e-03 -1.521950e-02 7.519439e-05 -2.268312e-05 -2.862113e-04 -2.371236e-04 -5.946387e-04 -3.883918e-04 8.460145e-04 6.490275e-04 2.770777e-04 1.059961e-03 9.168037e-04 3.530304e-04 -1.919541e-04
<VARIANCE> 39
 3.753627e+01 3.470444e+01 2.941483e+01 4.250003e+01 4.443676e+01 2.768478e+01 3.776600e+01 2.646742e+01 5.206289e+01 3.755279e+01 2.420944e+01 3.450875e+01 5.973244e+01 1.572859e+00 1.810318e+00 1.287531e+00 1.501448e+00 1.658067e+00 1.689092e+00 2.040645e+00 1.514894e+00 2.259806e+00 1.777861e+00 1.462394e+00 1.823519e+00 8.392909e-01 2.246802e-01 2.856284e-01 2.167688e-01 2.147530e-01 2.596104e-01 3.019232e-01 3.441299e-01 2.757805e-01 3.811716e-01 3.235521e-01 2.692093e-01 3.288077e-01 1.397090e-01
<GCONST> 1.072590e+02
<STATE> 3
<MEAN> 39
