~o
<STREAMINFO> 1 39
<VECSIZE> 39<NULLD><MFCC_D_A_0><DIAGC>
~h "proto"
<BEGINHMM>
<NUMSTATES> 5
<STATE> 2
<MEAN> 39
 -1.046263e+01 1.192893e+00 6.305027e-01 -4.821957e-01 5.510118e+00 3.635251e-01 3.368382e+00 -2.087046e+00 1.058523e+00 -7.760965e+00 1.078395e+00 -3.910955e+00 7.106615e+01 -8.002754e-04 2.112335e-03 2.165078e-03 -1.564994e-03 -4.300685e-04 -6.324079e-04 -1.138046e-03 -8.787271e-04 1.271468e-03 1.846282e-03 -1.804322e-04 -1.278623e-03 8.343531e-04 -4.475967e-05 -7.284283e-05 6.230097e-05 -2.442853e-04 -2.338257e-04 -5.949535e-05 4.124621e-05 -3.071028e-04 -1.978394e-04 -1.140548e-04 -8.069598e-05 -8.477430e-05 4.232170e-05
<VARIANCE> 39
 3.765159e+01 3.402439e+01 3.148469e+01 4.143038e+01 4.410116e+01 3.300908e+01 3.624625e+01 2.761554e+01 4.947715e+01 4.012057e+01 2.551658e+01 3.113912e+01 4.344355e+01 1.430533e+00 1.639362e+00 1.207966e+00 1.426063e+00 1.597724e+00 1.687130e+00 1.852222e+00 1.504564e+00 2.150095e+00 1.829018e+00 1.449835e+00 1.662362e+00 8.789857e-01 2.020932e-01 2.530756e-01 1.999116e-01 2.097155e-01 2.506926e-01 2.923805e-01 3.142056e-01 2.754931e-01 3.601594e-01 3.260430e-01 2.625300e-01 2.975152e-01 1.394317e-01
<GCONST> 1.059066e+02
<STATE> 3
<MEAN> 39
 -1.046263e+01 1.192893e+00 6.305027e-01 -4.821957e-01 5.510118e+00 3.635251e-01 3.368382e+00 -2.087046e+00 1.058523e+00 -7.760965e+00 1.078395e+00 -3.910955e+00 7.106615e+01 -8.002754e-04 2.112335e-03 2.165078e-03 -1.564994e-03 -4.300685e-04 -6.324079e-04 -1.138046e-03 -8.787271e-04 1.271468e-03 1.846282e-03 -1.804322e-04 -1.278623e-03 8.343531e-04 -4.475967e-05 -7.284283e-05 6.230097e-05 -2.442853e-04 -2.338257e-04 -5.949535e-05 4.124621e-05 -3.071028e-04 -1.978394e-04 -1.140548e-04 -8.069598e-05 -8.477430e-05 4.232170e-05
<VARIANCE> 39
 3.765159e+01 3.402439e+01 3.148469e+01 4.143038e+01 4.410116e+01 3.300908e+01 3.624625e+01 2.761554e+01 4.947715e+01 4.012057e+01 2.551658e+01 3.113912e+01 4.344355e+01 1.430533e+00 1.639362e+00 1.207966e+00 1.426063e+00 1.597724e+00 1.687130e+00 1.852222e+00 1.504564e+00 2.150095e+00 1.829018e+00 1.449835e+00 1.662362e+00 8.789857e-01 2.020932e-01 2.530756e-01 1.999116e-01 2.097155e-01 2.506926e-01 2.923805e-01 3.142056e-01 2.754931e-01 3.601594e-01 3.260430e-01 2.625300e-01 2.975152e-01 1.394317e-01
<GCONST> 1.059066e+02
<STATE> 4
<MEAN> 39
 -1.046263e+01 1.192893e+00 6.305027e-01 -4.821957e-01 5.510118e+00 3.635251e-01 3.368382e+00 -2.087046e+00 1.058523e+00 -7.760965e+00 1.078395e+00 -3.910955e+00 7.106615e+01 -8.002754e-04 2.112335e-03 2.165078e-03 -1.564994e-03 -4.300685e-04 -6.324079e-04 -1.138046e-03 -8.787271e-04 1.271468e-03 1.846282e-03 -1.804322e-04 -1.278623e-03 8.343531e-04 -4.475967e-05 -7.284283e-05 6.230097e-05 -2.442853e-04 -2.338257e-04 -5.949535e-05 4.124621e-05 -3.071028e-04 -1.978394e-04 -1.140548e-04 -8.069598e-05 -8.477430e-05 4.232170e-05
<VARIANCE> 39
 3.765159e+01 3.402439e+01 3.148469e+01 4.143038e+01 4.410116e+01 3.300908e+01 3.624625e+01 2.761554e+01 4.947715e+01 4.012057e+01 2.551658e+01 3.113912e+01 4.344355e+01 1.430533e+00 1.639362e+00 1.207966e+00 1.426063e+00 1.597724e+00 1.687130e+00 1.852222e+00 1.504564e+00 2.150095e+00 1.829018e+00 1.449835e+00 1.662362e+00 8.789857e-01 2.020932e-01 2.530756e-01 1.999116e-01 2.097155e-01 2.506926e-01 2.923805e-01 3.142056e-01 2.754931e-01 3.601594e-01 3.260430e-01 2.625300e-01 2.975152e-01 1.394317e-01
<GCONST> 1.059066e+02
<TRANSP> 5
 0.000000e+00 1.000000e+00 0.000000e+00 0.000000e+00 0.000000e+00
 0.000000e+00 6.000000e-01 4.000000e-01 0.000000e+00 0.000000e+00
 0.000000e+00 0.000000e+00 6.000000e-01 4.000000e-01 0.000000e+00
 0.000000e+00 0.000000e+00 0.000000e+00 7.000000e-01 3.000000e-01
 0.000000e+00 0.000000e+00 0.000000e+00 0.000000e+00 0.000000e+00
<ENDHMM>
