~o
<STREAMINFO> 1 39
<VECSIZE> 39<NULLD><MFCC_D_A_0><DIAGC>
~h "A"
<BEGINHMM>
<NUMSTATES> 5
<STATE> 2
<MEAN> 39
 -9.304358e+00 1.089627e+00 5.696582e-01 -7.118979e-01 5.149673e+00 3.538502e-01 3.713427e+00 -2.631077e+00 -6.311761e-01 -8.665283e+00 1.660280e+00 -3.647268e+00 7.231466e+01 5.002986e-02 -8.910575e-03 3.951278e-02 4.075629e-02 -4.901986e-02 -4.579085e-02 -3.813289e-02 -1.133952e-01 -9.603290e-02 -1.009584e-01 4.619100e-02 9.051201e-02 8.907936e-02 -3.615868e-02 -4.620373e-03 1.910971e-02 7.379532e-03 2.740211e-03 -3.230850e-03 -4.225903e-03 1.933036e-03 2.028622e-02 1.096432e-02 -7.307682e-03 1.595871e-02 -1.669725e-02
<VARIANCE> 39
 3.258278e+01 2.926289e+01 2.312231e+01 3.071510e+01 4.049532e+01 3.327345e+01 3.028210e+01 2.572467e+01 5.157607e+01 4.128211e+01 2.483050e+01 2.915448e+01 4.096380e+01 1.364800e+00 1.660209e+00 1.341755e+00 1.492551e+00 1.809429e+00 1.762756e+00 1.789560e+00 1.489957e+00 2.446156e+00 2.001659e+00 1.414931e+00 1.645538e+00 9.946170e-01 1.710173e-01 2.470360e-01 2.113781e-01 2.078438e-01 2.482491e-01 2.966389e-01 3.107171e-01 2.686601e-01 3.784824e-01 3.301650e-01 2.352718e-01 2.816061e-01 1.468015e-01
<GCONST> 1.049153e+02
<STATE> 3
<MEAN> 39
 -9.232079e+00 1.080329e+00 6.632987e-01 -6.624041e-01 4.935175e+00 2.039995e-01 3.746183e+00 -2.788540e+00 -7.993006e-01 -8.878879e+00 1.699469e+00 -3.359284e+00 7.247337e+01 -9.379718e-03 -7.761990e-03 3.830151e-02 4.690047e-02 -4.997206e-02 -6.182286e-02 2.488163e-02 -5.537648e-02 -3.617034e-02 -5.442118e-02 1.085242e-02 1.006549e-01 1.458766e-02 -2.887750e-02 7.386644e-03 1.863183e-03 6.313838e-04 2.284326e-02 5.742228e-03 1.492679e-03 2.801667e-02 3.678667e-02 3.066437e-02 -1.572305e-02 -1.688788e-02 -3.405369e-02
<VARIANCE> 39
 3.444422e+01 2.900445e+01 2.298154e+01 3.059758e+01 3.891677e+01 3.350141e+01 2.952817e+01 2.522515e+01 5.107910e+01 3.957588e+01 2.490513e+01 2.868129e+01 4.077139e+01 1.186714e+00 1.497576e+00 1.201611e+00 1.336770e+00 1.612061e+00 1.671731e+00 1.644722e+00 1.416527e+00 2.191682e+00 1.781564e+00 1.342947e+00 1.494311e+00 9.171432e-01 1.659422e-01 2.443816e-01 1.939193e-01 2.004812e-01 2.351773e-01 3.029127e-01 2.768708e-01 2.528082e-01 3.697704e-01 3.079804e-01 2.281493e-01 2.777540e-01 1.366500e-01
<GCONST> 1.029998e+02
<STATE> 4
<MEAN> 39
 -8.774959e+00 1.040729e+00 3.246383e-01 -7.102432e-01 4.347374e+00 -1.361714e-01 4.202894e+00 -2.779108e+00 -1.082097e+00 -8.805568e+00 1.962656e+00 -3.096197e+00 7.248432e+01 -7.001647e-02 6.525534e-02 3.292632e-02 3.370964e-02 5.757467e-02 2.714051e-02 1.372780e-02 1.010030e-02 7.870015e-02 2.167356e-02 -6.055707e-02 1.446548e-02 -9.911285e-02 -1.870437e-02 2.008138e-02 9.101689e-03 1.288264e-03 3.643565e-02 2.796671e-02 -1.854995e-02 1.095555e-02 3.535520e-02 2.288849e-02 -1.737494e-02 -2.769137e-02 -1.913825e-02
<VARIANCE> 39
 3.712106e+01 2.817540e+01 2.330674e+01 3.146803e+01 3.962912e+01 3.265094e+01 2.979981e+01 2.471135e+01 4.925539e+01 4.060524e+01 2.574922e+01 2.887465e+01 3.538769e+01 9.649797e-01 1.304318e+00 1.036426e+00 1.149900e+00 1.410249e+00 1.557976e+00 1.456615e+00 1.304380e+00 1.912851e+00 1.624703e+00 1.262927e+00 1.385700e+00 7.286108e-01 1.302219e-01 2.032645e-01 1.654199e-01 1.726464e-01 2.055818e-01 2.654513e-01 2.459255e-01 2.299884e-01 3.341386e-01 2.702248e-01 2.162167e-01 2.511447e-01 1.087809e-01
<GCONST> 9.948028e+01
<TRANSP> 5
 0.000000e+00 1.000000e+00 0.000000e+00 0.000000e+00 0.000000e+00
 0.000000e+00 4.344203e-01 5.655797e-01 0.000000e+00 0.000000e+00
 0.000000e+00 0.000000e+00 4.362602e-01 5.637398e-01 0.000000e+00
 0.000000e+00 0.000000e+00 0.000000e+00 6.096363e-01 3.903637e-01
 0.000000e+00 0.000000e+00 0.000000e+00 0.000000e+00 0.000000e+00
<ENDHMM>
~h "D"
<BEGINHMM>
<NUMSTATES> 5
<STATE> 2
<MEAN> 39
 -1.046263e+01 1.192893e+00 6.305027e-01 -4.821957e-01 5.510118e+00 3.635251e-01 3.368382e+00 -2.087046e+00 1.058523e+00 -7.760965e+00 1.078395e+00 -3.910955e+00 7.106615e+01 -8.002754e-04 2.112335e-03 2.165078e-03 -1.564994e-03 -4.300685e-04 -6.324079e-04 -1.138046e-03 -8.787271e-04 1.271468e-03 1.846282e-03 -1.804322e-04 -1.278623e-03 8.343531e-04 -4.475967e-05 -7.284283e-05 6.230097e-05 -2.442853e-04 -2.338257e-04 -5.949535e-05 4.124621e-05 -3.071028e-04 -1.978394e-04 -1.140548e-04 -8.069598e-05 -8.477430e-05 4.232170e-05
<VARIANCE> 39
 3.765159e+01 3.402439e+01 3.148469e+01 4.143038e+01 4.410116e+01 3.300908e+01 3.624625e+01 2.761554e+01 4.947715e+01 4.012057e+01 2.551658e+01 3.113912e+01 4.344355e+01 1.430533e+00 1.639362e+00 1.207966e+00 1.426063e+00 1.597724e+00 1.687130e+00 1.852222e+00 1.504564e+00 2.150095e+00 1.829018e+00 1.449835e+00 1.662362e+00 8.789857e-01 2.020932e-01 2.530756e-01 1.999116e-01 2.097155e-01 2.506926e-01 2.923805e-01 3.142056e-01 2.754931e-01 3.601594e-01 3.260430e-01 2.625300e-01 2.975152e-01 1.394317e-01
<GCONST> 1.059066e+02
<STATE> 3
<MEAN> 39
 -1.046263e+01 1.192893e+00 6.305027e-01 -4.821957e-01 5.510118e+00 3.635251e-01 3.368382e+00 -2.087046e+00 1.058523e+00 -7.760965e+00 1.078395e+00 -3.910955e+00 7.106615e+01 -8.002754e-04 2.112335e-03 2.165078e-03 -1.564994e-03 -4.300685e-04 -6.324079e-04 -1.138046e-03 -8.787271e-04 1.271468e-03 1.846282e-03 -1.804322e-04 -1.278623e-03 8.343531e-04 -4.475967e-05 -7.284283e-05 6.230097e-05 -2.442853e-04 -2.338257e-04 -5.949535e-05 4.124621e-05 -3.071028e-04 -1.978394e-04 -1.140548e-04 -8.069598e-05 -8.477430e-05 4.232170e-05
<VARIANCE> 39
 3.765159e+01 3.402439e+01 3.148469e+01 4.143038e+01 4.410116e+01 3.300908e+01 3.624625e+01 2.761554e+01 4.947715e+01 4.012057e+01 2.551658e+01 3.113912e+01 4.344355e+01 1.430533e+00 1.639362e+00 1.207966e+00 1.426063e+00 1.597724e+00 1.687130e+00 1.852222e+00 1.504564e+00 2.150095e+00 1.829018e+00 1.449835e+00 1.662362e+00 8.789857e-01 2.020932e-01 2.530756e-01 1.999116e-01 2.097155e-01 2.506926e-01 2.923805e-01 3.142056e-01 2.754931e-01 3.601594e-01 3.260430e-01 2.625300e-01 2.975152e-01 1.394317e-01
<GCONST> 1.059066e+02
<STATE> 4
<MEAN> 39
 -1.046263e+01 1.192893e+00 6.305027e-01 -4.821957e-01 5.510118e+00 3.635251e-01 3.368382e+00 -2.087046e+00 1.058523e+00 -7.760965e+00 1.078395e+00 -3.910955e+00 7.106615e+01 -8.002754e-04 2.112335e-03 2.165078e-03 -1.564994e-03 -4.300685e-04 -6.324079e-04 -1.138046e-03 -8.787271e-04 1.271468e-03 1.846282e-03 -1.804322e-04 -1.278623e-03 8.343531e-04 -4.475967e-05 -7.284283e-05 6.230097e-05 -2.442853e-04 -2.338257e-04 -5.949535e-05 4.124621e-05 -3.071028e-04 -1.978394e-04 -1.140548e-04 -8.069598e-05 -8.477430e-05 4.232170e-05
<VARIANCE> 39
 3.765159e+01 3.402439e+01 3.148469e+01 4.143038e+01 4.410116e+01 3.300908e+01 3.624625e+01 2.761554e+01 4.947715e+01 4.012057e+01 2.551658e+01 3.113912e+01 4.344355e+01 1.430533e+00 1.639362e+00 1.207966e+00 1.426063e+00 1.597724e+00 1.687130e+00 1.852222e+00 1.504564e+00 2.150095e+00 1.829018e+00 1.449835e+00 1.662362e+00 8.789857e-01 2.020932e-01 2.530756e-01 1.999116e-01 2.097155e-01 2.506926e-01 2.923805e-01 3.142056e-01 2.754931e-01 3.601594e-01 3.260430e-01 2.625300e-01 2.975152e-01 1.394317e-01
<GCONST> 1.059066e+02
<TRANSP> 5
 0.000000e+00 1.000000e+00 0.000000e+00 0.000000e+00 0.000000e+00
 0.000000e+00 6.000000e-01 4.000000e-01 0.000000e+00 0.000000e+00
 0.000000e+00 0.000000e+00 6.000000e-01 4.000000e-01 0.000000e+00
 0.000000e+00 0.000000e+00 0.000000e+00 7.000000e-01 3.000000e-01
 0.000000e+00 0.000000e+00 0.000000e+00 0.000000e+00 0.000000e+00
<ENDHMM>
~h "E"
<BEGINHMM>
<NUMSTATES> 5
<STATE> 2
<MEAN> 39
 -8.140105e+00 5.641634e-01 -2.490065e+00 -2.328069e+00 2.903516e+00 -1.711354e+00 7.948254e+00 -1.019698e+00 -8.448125e-01 -8.281768e+00 4.874555e+00 -1.721881e+00 7.377572e+01 1.268171e-01 1.083930e-01 -1.479432e-01 -1.367561e-01 -1.182992e-01 -1.304802e-01 -4.352277e-02 5.888290e-02 1.372071e-01 7.840422e-02 -1.417164e-02 -1.296218e-01 -1.048085e-02 -7.390620e-02 -1.024201e-03 3.946941e-02 -3.953382e-02 1.243600e-03 6.816450e-02 -5.829341e-02 -1.664612e-02 3.560540e-02 1.020165e-02 -2.501059e-02 -6.189094e-03 -3.138223e-02
<VARIANCE> 39
 3.114056e+01 1.513140e+01 1.932462e+01 1.567465e+01 2.576360e+01 2.246380e+01 3.127072e+01 1.916020e+01 4.914439e+01 2.521304e+01 2.135165e+01 1.594290e+01 2.184030e+01 6.389230e-01 8.883474e-01 8.804254e-01 9.314477e-01 1.350848e+00 1.409572e+00 1.327023e+00 8.971161e-01 1.648544e+00 1.448731e+00 9.403555e-01 1.218518e+00 4.042037e-01 7.703021e-02 1.416233e-01 1.190268e-01 1.378893e-01 2.074219e-01 2.470652e-01 2.176393e-01 1.548898e-01 2.481291e-01 2.363108e-01 1.632937e-01 2.185349e-01 6.353258e-02
<GCONST> 8.857834e+01
<STATE> 3
<MEAN> 39
 -8.458674e+00 1.353122e+00 -2.107626e+00 -2.724717e+00 3.030790e+00 -1.524630e+00 6.721180e+00 -8.608708e-01 -4.196062e-01 -8.379036e+00 4.098874e+00 -2.342402e+00 7.313831e+01 -8.493117e-02 7.331192e-02 4.642632e-02 -8.993872e-02 5.587444e-02 5.201378e-02 -1.676931e-01 -1.317892e-02 5.355502e-02 4.958465e-03 -7.157754e-02 -4.868801e-02 -8.700202e-02 -2.635275e-02 7.565261e-03 3.789920e-02 2.908336e-02 4.393866e-02 4.560709e-02 -4.046218e-02 -2.123617e-02 -1.715768e-02 -2.484687e-02 -1.448161e-02 6.585802e-03 -2.018658e-02
<VARIANCE> 39
 3.614637e+01 1.705300e+01 2.164222e+01 1.631836e+01 2.459374e+01 2.315324e+01 2.638843e+01 1.857651e+01 5.399505e+01 3.098502e+01 2.196208e+01 1.748950e+01 2.223044e+01 5.573378e-01 9.356303e-01 7.637280e-01 1.028959e+00 1.281897e+00 1.328448e+00 1.276682e+00 1.012569e+00 1.668002e+00 1.616728e+00 1.062438e+00 1.351920e+00 4.883037e-01 6.889596e-02 1.596645e-01 1.255720e-01 1.445449e-01 2.055744e-01 2.211059e-01 2.048526e-01 1.787155e-01 2.603130e-01 2.827060e-01 1.935267e-01 2.456759e-01 7.214349e-02
<GCONST> 9.031482e+01
<STATE> 4
<MEAN> 39
 -9.604299e+00 3.100219e+00 -6.709364e-01 -1.620665e+00 4.486968e+00 -8.170106e-01 5.182121e+00 -7.086708e-01 2.483579e-01 -8.879367e+00 2.681968e+00 -2.896780e+00 7.248189e+01 -6.299894e-02 1.908999e-02 2.184972e-02 1.029329e-02 4.315794e-02 3.471120e-02 -7.842398e-02 -1.586759e-02 9.576611e-03 2.115815e-03 -1.835803e-02 -5.153228e-03 -6.111285e-02 -1.554799e-03 4.683486e-03 9.893567e-03 1.010414e-02 6.879305e-03 7.900481e-03 -7.226100e-03 -4.888688e-03 1.150898e-02 8.258381e-04 -1.053059e-02 -7.729289e-04 -3.587509e-03
<VARIANCE> 39
 2.744220e+01 1.633776e+01 1.593260e+01 2.270600e+01 3.248857e+01 2.376200e+01 1.966782e+01 1.803066e+01 3.658830e+01 3.343399e+01 2.182641e+01 1.963869e+01 1.554400e+01 5.174786e-01 9.716995e-01 6.762345e-01 1.157436e+00 1.275780e+00 1.416282e+00 1.427140e+00 1.201433e+00 1.436228e+00 1.741659e+00 1.270943e+00 1.322821e+00 5.854086e-01 6.345354e-02 1.639712e-01 1.198855e-01 1.784801e-01 1.982197e-01 2.377743e-01 2.362628e-01 2.229045e-01 2.271618e-01 3.041813e-01 2.293828e-01 2.469453e-01 8.592669e-02
<GCONST> 9.080054e+01
<TRANSP> 5
 0.000000e+00 1.000000e+00 0.000000e+00 0.000000e+00 0.000000e+00
 0.000000e+00 8.031639e-01 1.968361e-01 0.000000e+00 0.000000e+00
 0.000000e+00 0.000000e+00 7.874829e-01 2.125171e-01 0.000000e+00
 0.000000e+00 0.000000e+00 0.000000e+00 9.578632e-01 4.213687e-02
 0.000000e+00 0.000000e+00 0.000000e+00 0.000000e+00 0.000000e+00
<ENDHMM>
~h "H"
<BEGINHMM>
<NUMSTATES> 5
<STATE> 2
<MEAN> 39
 -7.562951e+00 1.938383e+00 2.798356e-01 -1.657951e+00 6.303322e+00 -1.640589e-01 4.779822e+00 -3.627144e+00 -2.294431e+00 -8.682570e+00 3.155553e+00 -1.344281e+00 7.321565e+01 -3.271099e-02 -6.269309e-01 -4.701139e-01 -1.779522e-01 -3.526628e-02 1.963089e-01 4.319826e-02 -1.471883e-02 -8.658258e-02 3.042505e-02 5.729899e-01 3.922943e-01 2.245443e-01 -1.088648e-01 -3.700988e-02 -7.824715e-02 3.130929e-02 5.707247e-02 7.347390e-02 -3.748658e-02 7.505232e-02 1.249922e-01 3.925780e-02 6.469652e-03 -1.136531e-03 -8.079988e-02
<VARIANCE> 39
 1.164424e+01 3.337787e+01 2.593923e+01 3.354035e+01 3.271204e+01 3.139236e+01 2.815586e+01 1.181725e+01 4.252036e+01 2.431368e+01 3.209926e+01 2.459409e+01 1.310524e+01 6.169379e-01 2.002708e+00 1.417590e+00 1.604365e+00 1.559322e+00 2.139602e+00 2.746776e+00 1.110796e+00 3.137939e+00 2.655921e+00 2.153448e+00 1.735133e+00 1.163570e+00 1.047911e-01 2.565529e-01 2.036415e-01 2.697122e-01 2.721911e-01 3.642823e-01 5.234591e-01 2.074474e-01 5.100785e-01 4.586289e-01 3.698897e-01 2.965072e-01 1.839185e-01
<GCONST> 1.038736e+02
<STATE> 3
<MEAN> 39
 -8.199823e+00 -3.006998e-01 -1.904184e+00 -2.414673e+00 6.661324e+00 1.460101e+00 4.781442e+00 -3.569633e+00 -2.051406e+00 -8.390711e+00 4.931876e+00 -1.414252e-01 7.334644e+01 -2.516579e-01 -6.508304e-01 -5.807968e-01 -8.079232e-02 1.972344e-02 2.024303e-01 -1.388829e-01 1.187276e-01 1.593213e-01 3.386410e-02 3.336297e-01 3.553197e-01 -4.206570e-02 -2.983337e-02 4.489341e-02 1.600891e-04 2.129011e-02 3.401137e-04 -3.611826e-03 -4.434960e-02 2.967245e-03 6.386233e-02 -1.230584e-04 -1.058568e-01 -6.546124e-02 -7.863902e-02
<VARIANCE> 39
 1.324961e+01 4.209383e+01 3.569652e+01 2.858390e+01 3.776571e+01 2.868993e+01 3.094500e+01 1.081127e+01 3.416715e+01 3.003801e+01 2.499857e+01 2.162919e+01 1.313415e+01 5.508644e-01 2.232901e+00 1.450691e+00 1.354172e+00 1.351711e+00 2.037706e+00 2.941664e+00 9.027417e-01 1.956600e+00 2.342961e+00 2.075521e+00 1.605660e+00 9.329326e-01 8.283368e-02 2.927879e-01 2.324973e-01 2.215699e-01 2.391833e-01 3.382325e-01 6.021632e-01 1.706114e-01 3.242473e-01 4.556707e-01 3.313023e-01 2.665237e-01 1.586898e-01
<GCONST> 1.014053e+02
<STATE> 4
<MEAN> 39
 -9.621820e+00 -4.632253e+00 -6.335130e+00 -4.978234e+00 4.404040e+00 5.463959e-01 6.655328e+00 -2.244899e+00 -4.059292e-01 -7.211123e+00 7.046484e+00 5.939284e-01 7.280373e+01 -1.878899e-01 6.906676e-02 8.531827e-03 -9.469541e-03 -1.146275e-02 5.748518e-02 1.970439e-02 3.642158e-02 1.806275e-01 1.443476e-01 -7.688029e-02 -6.008979e-02 -2.027662e-01 -3.046909e-03 1.206313e-01 1.017877e-01 3.318555e-02 2.700862e-02 3.233731e-03 2.373143e-02 1.315254e-03 3.345599e-02 2.290505e-02 -7.599799e-02 -7.385756e-02 -8.116355e-03
<VARIANCE> 39
 1.152627e+01 4.137417e+01 3.671012e+01 2.283595e+01 2.702549e+01 2.272922e+01 3.920520e+01 1.319010e+01 2.538266e+01 3.178027e+01 2.253554e+01 1.834385e+01 1.385145e+01 5.391443e-01 2.320981e+00 1.541963e+00 1.261325e+00 9.651645e-01 1.395831e+00 2.150851e+00 9.140961e-01 1.782838e+00 1.957832e+00 1.638361e+00 1.437678e+00 7.333519e-01 8.126788e-02 2.434565e-01 2.157901e-01 2.036184e-01 1.739716e-01 2.344041e-01 3.921687e-01 1.685714e-01 2.957261e-01 3.602007e-01 2.675790e-01 2.403509e-01 9.714322e-02
<GCONST> 9.597164e+01
<TRANSP> 5
 0.000000e+00 1.000000e+00 0.000000e+00 0.000000e+00 0.000000e+00
 0.000000e+00 7.558138e-01 2.441861e-01 0.000000e+00 0.000000e+00
 0.000000e+00 0.000000e+00 7.584900e-01 2.415099e-01 0.000000e+00
 0.000000e+00 0.000000e+00 0.000000e+00 9.284064e-01 7.159368e-02
 0.000000e+00 0.000000e+00 0.000000e+00 0.000000e+00 0.000000e+00
<ENDHMM>
~h "K"
<BEGINHMM>
<NUMSTATES> 5
<STATE> 2
<MEAN> 39
 -8.129419e+00 9.489627e-01 3.151161e+00 4.802593e+00 8.958732e+00 1.447082e+00 1.312580e+00 -6.734444e+00 -4.954024e+00 -1.079325e+01 1.075270e+00 -5.171753e+00 7.318503e+01 2.062887e-01 1.000653e-01 1.589252e-01 7.177936e-02 7.455795e-02 -6.993755e-02 -1.316127e-01 -2.485694e-01 -3.633458e-01 -1.822236e-01 -1.181528e-02 7.498341e-02 9.461482e-02 -4.612993e-02 -5.820777e-03 -5.674173e-02 -1.039911e-01 -9.212525e-02 3.516043e-03 1.088729e-01 1.106336e-01 8.686745e-02 8.439343e-02 1.831286e-02 4.736136e-02 -6.544339e-02
<VARIANCE> 39
 1.894083e+01 1.357188e+01 2.094032e+01 5.343015e+01 4.036364e+01 1.359247e+01 1.623819e+01 2.669954e+01 4.061535e+01 2.817200e+01 2.610654e+01 4.302193e+01 1.737260e+01 1.373096e+00 9.705929e-01 8.801797e-01 8.968291e-01 1.339612e+00 8.419767e-01 1.206458e+00 1.047912e+00 1.467285e+00 2.397840e+00 1.126408e+00 1.196096e+00 1.051084e+00 3.215126e-01 1.316118e-01 1.431898e-01 1.418489e-01 2.147244e-01 1.568268e-01 2.076691e-01 1.780189e-01 2.603399e-01 4.354850e-01 1.790090e-01 1.581208e-01 1.175273e-01
<GCONST> 9.392803e+01
<STATE> 3
<MEAN> 39
 -8.948750e+00 1.530658e+00 2.706347e+00 1.387929e+00 6.250767e+00 1.240411e+00 3.220578e+00 -4.655734e+00 -5.028361e+00 -1.189615e+01 1.981382e+00 -2.913052e+00 7.352159e+01 -2.030316e-01 -1.653443e-02 5.213719e-02 -3.135454e-01 -2.537580e-01 4.730489e-02 2.111160e-01 2.769454e-01 1.008645e-01 1.499550e-01 2.134229e-01 1.762277e-01 -4.345420e-02 -7.312375e-02 -1.517977e-02 -1.691909e-02 -6.494200e-02 -2.558838e-02 3.332329e-02 2.254823e-02 5.681841e-02 7.279277e-02 9.925052e-02 4.749130e-02 -8.992849e-03 -3.341469e-02
<VARIANCE> 39
 2.547027e+01 1.973880e+01 1.448542e+01 3.361323e+01 2.460997e+01 1.530072e+01 1.597001e+01 4.109847e+01 4.377312e+01 3.785847e+01 2.114353e+01 2.544895e+01 1.970595e+01 1.846573e+00 1.108027e+00 5.190651e-01 9.871292e-01 1.008327e+00 1.045356e+00 1.725722e+00 1.104288e+00 1.810869e+00 3.569014e+00 1.625635e+00 1.093221e+00 1.185258e+00 3.544969e-01 1.639856e-01 9.422297e-02 1.425681e-01 2.075141e-01 1.895390e-01 3.635735e-01 1.885876e-01 2.813154e-01 7.266931e-01 2.575625e-01 1.841441e-01 1.383607e-01
<GCONST> 9.685604e+01
<STATE> 4
<MEAN> 39
 -1.335392e+01 1.051920e-01 3.734077e+00 -2.393835e+00 3.657218e+00 -2.332639e-01 5.283576e+00 -2.516222e+00 -2.919830e+00 -8.481414e+00 2.464123e+00 -3.406699e+00 7.381451e+01 -1.386356e-01 -6.356888e-02 -1.129258e-01 -2.406653e-01 -3.185243e-02 5.010242e-02 1.154494e-01 2.105464e-01 1.228373e-01 1.756577e-01 1.081040e-01 1.130101e-02 -1.524605e-01 4.107997e-02 2.699510e-02 7.233531e-03 3.632813e-02 4.609064e-02 4.476424e-02 -1.514535e-02 -2.316296e-02 1.617989e-02 1.595705e-02 -1.106744e-02 -5.511915e-02 -1.448418e-02
<VARIANCE> 39
 5.621856e+01 3.111675e+01 2.103339e+01 4.146114e+01 1.554100e+01 2.389376e+01 2.183645e+01 5.012803e+01 3.462065e+01 4.212125e+01 1.532845e+01 1.288451e+01 2.014254e+01 1.722317e+00 1.057689e+00 7.894107e-01 1.811183e+00 1.118738e+00 1.451244e+00 1.876341e+00 1.669374e+00 2.122107e+00 2.986365e+00 1.161952e+00 1.230811e+00 1.403803e+00 1.659409e-01 1.339455e-01 1.431424e-01 2.421195e-01 1.903022e-01 2.343090e-01 3.576829e-01 2.468092e-01 2.840746e-01 4.648607e-01 2.124885e-01 2.362831e-01 1.774810e-01
<GCONST> 1.000798e+02
<TRANSP> 5
 0.000000e+00 1.000000e+00 0.000000e+00 0.000000e+00 0.000000e+00
 0.000000e+00 8.049127e-01 1.950872e-01 0.000000e+00 0.000000e+00
 0.000000e+00 0.000000e+00 7.442245e-01 2.557755e-01 0.000000e+00
 0.000000e+00 0.000000e+00 0.000000e+00 9.126655e-01 8.733445e-02
 0.000000e+00 0.000000e+00 0.000000e+00 0.000000e+00 0.000000e+00
<ENDHMM>
~h "S"
<BEGINHMM>
<NUMSTATES> 5
<STATE> 2
<MEAN> 39
 -1.407327e+01 1.325238e+00 3.461200e+00 -3.232292e+00 5.455378e+00 1.857605e+00 4.780778e+00 -6.957302e-01 1.511399e+00 -9.576331e+00 -7.976524e-02 -1.478718e-01 7.390643e+01 -8.230632e-02 -3.604957e-01 2.894533e-01 5.408775e-03 -4.118329e-03 -2.560622e-01 -1.140108e-01 1.246853e-01 1.478310e-02 -8.919360e-02 -4.013923e-02 -4.923940e-02 2.394309e-01 8.091433e-02 9.014020e-02 -8.476096e-03 4.675914e-02 5.285742e-02 -1.758629e-02 -6.864580e-02 2.082857e-02 4.016525e-02 1.478900e-02 -2.478530e-02 -8.204761e-02 -4.313322e-02
<VARIANCE> 39
 7.639258e+01 3.907684e+01 2.690303e+01 3.518077e+01 3.738252e+01 4.150735e+01 4.937819e+01 2.375537e+01 2.892704e+01 3.540862e+01 1.488710e+01 2.030618e+01 1.373570e+01 3.449378e+00 2.219733e+00 1.828726e+00 2.662600e+00 2.707708e+00 4.548787e+00 3.053773e+00 1.961347e+00 2.002933e+00 2.116216e+00 1.422621e+00 2.021475e+00 1.592875e+00 4.098519e-01 3.721569e-01 2.447343e-01 3.645465e-01 3.512622e-01 8.409351e-01 4.410766e-01 3.458282e-01 3.625125e-01 3.837236e-01 2.792661e-01 3.597656e-01 2.383870e-01
<GCONST> 1.139933e+02
<STATE> 3
<MEAN> 39
 -1.576850e+01 -2.321449e+00 5.508639e+00 -2.178444e+00 5.369778e+00 5.805287e-01 3.585960e+00 2.885308e-01 2.604275e+00 -8.802643e+00 -4.681511e-01 -2.220818e+00 7.463772e+01 4.405067e-01 1.703535e-01 1.719377e-01 3.669197e-01 4.084429e-01 -1.582888e-01 -7.062826e-01 1.199841e-01 2.468753e-01 6.220601e-02 -1.669392e-01 -6.476933e-01 -3.054155e-02 8.828706e-02 8.200771e-02 -4.089326e-02 -2.474679e-02 -6.967323e-02 -5.838241e-02 -4.550608e-02 6.145189e-03 3.330352e-02 4.694963e-02 -2.504486e-03 -3.459173e-02 -3.998797e-02
<VARIANCE> 39
 8.429126e+01 2.660256e+01 3.202780e+01 7.438090e+01 5.802795e+01 3.105633e+01 6.196152e+01 2.491634e+01 2.913592e+01 3.576880e+01 1.776266e+01 2.909921e+01 8.691092e+00 3.908036e+00 2.804480e+00 2.508311e+00 2.465390e+00 2.588933e+00 3.255429e+00 3.739436e+00 2.832438e+00 2.147939e+00 2.612491e+00 1.571242e+00 1.371734e+00 1.057184e+00 3.167566e-01 4.637398e-01 4.470915e-01 2.795989e-01 3.439036e-01 6.062076e-01 4.483737e-01 4.293639e-01 4.001099e-01 5.108552e-01 2.969362e-01 2.094535e-01 1.826859e-01
<GCONST> 1.153443e+02
<STATE> 4
<MEAN> 39
 -1.078826e+01 7.323609e-02 5.926259e+00 4.893600e+00 1.079415e+01 3.985746e-01 1.202784e+00 1.277311e+00 3.751945e+00 -1.006109e+01 -2.014933e+00 -7.881855e+00 7.225748e+01 1.314012e-01 1.292422e-01 7.140185e-03 -2.700172e-02 -4.720697e-04 -5.856622e-02 -1.229793e-01 6.412350e-02 6.816304e-02 3.920346e-02 -6.806297e-02 -1.708292e-01 -5.046824e-02 -2.544892e-02 -8.065315e-03 -3.094158e-02 -3.398975e-02 -5.485167e-02 1.186911e-02 9.668720e-02 -1.325096e-02 -1.957779e-02 1.446902e-02 2.463562e-02 4.527139e-02 -9.264705e-03
<VARIANCE> 39
 2.210716e+01 3.100070e+01 3.045124e+01 6.400140e+01 7.295827e+01 3.611831e+01 1.465732e+02 1.914600e+01 2.831795e+01 2.950009e+01 1.932061e+01 3.522669e+01 7.575446e+00 8.446594e-01 1.221198e+00 1.279241e+00 1.025879e+00 1.878474e+00 1.786672e+00 2.765535e+00 1.949617e+00 1.911231e+00 1.729308e+00 1.063164e+00 1.440989e+00 3.898579e-01 7.654378e-02 1.623426e-01 1.959320e-01 1.389761e-01 2.671518e-01 2.672426e-01 3.472742e-01 3.169883e-01 3.159745e-01 2.919938e-01 2.187789e-01 2.215374e-01 5.748244e-02
<GCONST> 9.964914e+01
<TRANSP> 5
 0.000000e+00 1.000000e+00 0.000000e+00 0.000000e+00 0.000000e+00
 0.000000e+00 9.318322e-01 6.816784e-02 0.000000e+00 0.000000e+00
 0.000000e+00 0.000000e+00 8.479639e-01 1.520361e-01 0.000000e+00
 0.000000e+00 0.000000e+00 0.000000e+00 9.528362e-01 4.716387e-02
 0.000000e+00 0.000000e+00 0.000000e+00 0.000000e+00 0.000000e+00
<ENDHMM>
~h "T"
<BEGINHMM>
<NUMSTATES> 5
<STATE> 2
<MEAN> 39
 -1.034015e+01 2.023690e+00 1.481057e+00 8.585293e-01 4.506080e+00 1.970013e+00 3.464149e+00 -3.429833e+00 7.103373e-01 -5.789527e+00 -2.099673e-01 -7.200848e+00 7.119345e+01 2.793389e-02 -4.182990e-01 1.344345e-01 2.703603e-01 -2.666305e-01 -5.048839e-01 -2.841825e-01 1.109532e-01 2.910496e-01 2.057796e-01 -1.176151e-01 -7.653404e-02 3.039071e-01 4.023200e-02 2.154624e-02 2.377397e-02 -1.336741e-03 3.937146e-02 -1.003356e-01 -3.940527e-02 3.198047e-02 7.783832e-03 -6.038421e-02 -2.272443e-02 2.242991e-02 3.274368e-03
<VARIANCE> 39
 4.292162e+01 3.990524e+01 2.525436e+01 4.688276e+01 4.171532e+01 4.048270e+01 2.623259e+01 2.525751e+01 1.899451e+01 2.392795e+01 2.269865e+01 4.308305e+01 1.934206e+01 3.667953e+00 4.411768e+00 2.124108e+00 1.842928e+00 2.448190e+00 3.762418e+00 2.197406e+00 2.277583e+00 2.159291e+00 2.469376e+00 2.444043e+00 2.165323e+00 1.594677e+00 5.118584e-01 7.567152e-01 4.604461e-01 2.891976e-01 3.111529e-01 5.532134e-01 4.340180e-01 3.875012e-01 5.099554e-01 4.636812e-01 4.486189e-01 3.485288e-01 2.958700e-01
<GCONST> 1.168583e+02
<STATE> 3
<MEAN> 39
 -7.526077e+00 2.666863e+00 2.467414e+00 1.852127e+00 2.615941e+00 -2.368620e+00 3.097157e+00 -1.634586e+00 2.308599e+00 -6.077889e+00 -2.842777e+00 -8.962514e+00 7.226486e+01 3.423096e-01 2.991442e-01 3.612022e-01 1.994282e-01 -3.476440e-01 -1.019720e+00 -1.681363e-01 1.934660e-01 3.138029e-01 -1.913509e-01 -4.626744e-01 4.682937e-02 -1.643336e-01 -9.015788e-02 1.874873e-02 -1.346885e-03 -4.070624e-02 -1.636096e-02 6.086782e-02 -3.150861e-02 -1.130953e-01 -7.460620e-03 -1.108525e-01 4.628628e-02 7.255783e-02 -4.623488e-02
<VARIANCE> 39
 3.637551e+01 2.821540e+01 1.936059e+01 4.687780e+01 5.934874e+01 7.402856e+01 1.619151e+01 2.139899e+01 2.096173e+01 2.785287e+01 3.224338e+01 4.343277e+01 1.540038e+01 2.824272e+00 3.217042e+00 1.657022e+00 1.701901e+00 2.985139e+00 3.965433e+00 1.078610e+00 1.462959e+00 1.930552e+00 2.502527e+00 1.936150e+00 2.523161e+00 7.805036e-01 4.111765e-01 5.129362e-01 3.190709e-01 2.516030e-01 4.468820e-01 6.597263e-01 1.929920e-01 2.717153e-01 4.496069e-01 4.962067e-01 3.542485e-01 4.438652e-01 1.238809e-01
<GCONST> 1.114038e+02
<STATE> 4
<MEAN> 39
 -7.439244e+00 4.132761e+00 3.801966e+00 1.305608e+00 1.472349e+00 -4.885821e+00 2.228950e+00 -2.575663e+00 3.642020e+00 -6.182395e+00 -2.359556e+00 -6.556815e+00 7.119055e+01 -1.136808e-01 1.073782e-02 -4.166008e-02 -1.134418e-01 1.395854e-02 6.869093e-02 -5.965268e-03 -2.462328e-02 -2.993146e-02 -2.447000e-02 8.666206e-02 7.904978e-02 -6.954978e-02 -9.328975e-03 -1.817491e-02 -1.138761e-02 -7.326942e-03 2.774790e-02 3.437976e-02 5.116235e-03 7.911613e-03 -2.252827e-02 -2.096547e-03 2.239568e-03 -4.237494e-03 8.374698e-03
<VARIANCE> 39
 4.145485e+01 2.983605e+01 1.953312e+01 3.445669e+01 6.284803e+01 6.864590e+01 3.656548e+01 1.800235e+01 1.322331e+01 1.883015e+01 2.145349e+01 2.937041e+01 1.339882e+01 1.487949e+00 1.747108e+00 1.063413e+00 1.488834e+00 1.889076e+00 1.953799e+00 1.987083e+00 1.846787e+00 1.197692e+00 1.199428e+00 1.526115e+00 1.354567e+00 6.597686e-01 1.497560e-01 2.694681e-01 1.609119e-01 1.795865e-01 2.440064e-01 2.941467e-01 3.190017e-01 3.774187e-01 2.251294e-01 2.370528e-01 2.829193e-01 2.436119e-01 9.718303e-02
<GCONST> 9.997878e+01
<TRANSP> 5
 0.000000e+00 1.000000e+00 0.000000e+00 0.000000e+00 0.000000e+00
 0.000000e+00 8.462848e-01 1.537152e-01 0.000000e+00 0.000000e+00
 0.000000e+00 0.000000e+00 7.799947e-01 2.200053e-01 0.000000e+00
 0.000000e+00 0.000000e+00 0.000000e+00 9.762663e-01 2.373376e-02
 0.000000e+00 0.000000e+00 0.000000e+00 0.000000e+00 0.000000e+00
<ENDHMM>
~h "Z"
<BEGINHMM>
<NUMSTATES> 5
<STATE> 2
<MEAN> 39
 -1.046263e+01 1.192893e+00 6.305027e-01 -4.821957e-01 5.510118e+00 3.635251e-01 3.368382e+00 -2.087046e+00 1.058523e+00 -7.760965e+00 1.078395e+00 -3.910955e+00 7.106615e+01 -8.002754e-04 2.112335e-03 2.165078e-03 -1.564994e-03 -4.300685e-04 -6.324079e-04 -1.138046e-03 -8.787271e-04 1.271468e-03 1.846282e-03 -1.804322e-04 -1.278623e-03 8.343531e-04 -4.475967e-05 -7.284283e-05 6.230097e-05 -2.442853e-04 -2.338257e-04 -5.949535e-05 4.124621e-05 -3.071028e-04 -1.978394e-04 -1.140548e-04 -8.069598e-05 -8.477430e-05 4.232170e-05
<VARIANCE> 39
 3.765159e+01 3.402439e+01 3.148469e+01 4.143038e+01 4.410116e+01 3.300908e+01 3.624625e+01 2.761554e+01 4.947715e+01 4.012057e+01 2.551658e+01 3.113912e+01 4.344355e+01 1.430533e+00 1.639362e+00 1.207966e+00 1.426063e+00 1.597724e+00 1.687130e+00 1.852222e+00 1.504564e+00 2.150095e+00 1.829018e+00 1.449835e+00 1.662362e+00 8.789857e-01 2.020932e-01 2.530756e-01 1.999116e-01 2.097155e-01 2.506926e-01 2.923805e-01 3.142056e-01 2.754931e-01 3.601594e-01 3.260430e-01 2.625300e-01 2.975152e-01 1.394317e-01
<GCONST> 1.059066e+02
<STATE> 3
<MEAN> 39
 -1.046263e+01 1.192893e+00 6.305027e-01 -4.821957e-01 5.510118e+00 3.635251e-01 3.368382e+00 -2.087046e+00 1.058523e+00 -7.760965e+00 1.078395e+00 -3.910955e+00 7.106615e+01 -8.002754e-04 2.112335e-03 2.165078e-03 -1.564994e-03 -4.300685e-04 -6.324079e-04 -1.138046e-03 -8.787271e-04 1.271468e-03 1.846282e-03 -1.804322e-04 -1.278623e-03 8.343531e-04 -4.475967e-05 -7.284283e-05 6.230097e-05 -2.442853e-04 -2.338257e-04 -5.949535e-05 4.124621e-05 -3.071028e-04 -1.978394e-04 -1.140548e-04 -8.069598e-05 -8.477430e-05 4.232170e-05
<VARIANCE> 39
 3.765159e+01 3.402439e+01 3.148469e+01 4.143038e+01 4.410116e+01 3.300908e+01 3.624625e+01 2.761554e+01 4.947715e+01 4.012057e+01 2.551658e+01 3.113912e+01 4.344355e+01 1.430533e+00 1.639362e+00 1.207966e+00 1.426063e+00 1.597724e+00 1.687130e+00 1.852222e+00 1.504564e+00 2.150095e+00 1.829018e+00 1.449835e+00 1.662362e+00 8.789857e-01 2.020932e-01 2.530756e-01 1.999116e-01 2.097155e-01 2.506926e-01 2.923805e-01 3.142056e-01 2.754931e-01 3.601594e-01 3.260430e-01 2.625300e-01 2.975152e-01 1.394317e-01
<GCONST> 1.059066e+02
<STATE> 4
<MEAN> 39
 -1.046263e+01 1.192893e+00 6.305027e-01 -4.821957e-01 5.510118e+00 3.635251e-01 3.368382e+00 -2.087046e+00 1.058523e+00 -7.760965e+00 1.078395e+00 -3.910955e+00 7.106615e+01 -8.002754e-04 2.112335e-03 2.165078e-03 -1.564994e-03 -4.300685e-04 -6.324079e-04 -1.138046e-03 -8.787271e-04 1.271468e-03 1.846282e-03 -1.804322e-04 -1.278623e-03 8.343531e-04 -4.475967e-05 -7.284283e-05 6.230097e-05 -2.442853e-04 -2.338257e-04 -5.949535e-05 4.124621e-05 -3.071028e-04 -1.978394e-04 -1.140548e-04 -8.069598e-05 -8.477430e-05 4.232170e-05
<VARIANCE> 39
 3.765159e+01 3.402439e+01 3.148469e+01 4.143038e+01 4.410116e+01 3.300908e+01 3.624625e+01 2.761554e+01 4.947715e+01 4.012057e+01 2.551658e+01 3.113912e+01 4.344355e+01 1.430533e+00 1.639362e+00 1.207966e+00 1.426063e+00 1.597724e+00 1.687130e+00 1.852222e+00 1.504564e+00 2.150095e+00 1.829018e+00 1.449835e+00 1.662362e+00 8.789857e-01 2.020932e-01 2.530756e-01 1.999116e-01 2.097155e-01 2.506926e-01 2.923805e-01 3.142056e-01 2.754931e-01 3.601594e-01 3.260430e-01 2.625300e-01 2.975152e-01 1.394317e-01
<GCONST> 1.059066e+02
<TRANSP> 5
 0.000000e+00 1.000000e+00 0.000000e+00 0.000000e+00 0.000000e+00
 0.000000e+00 6.000000e-01 4.000000e-01 0.000000e+00 0.000000e+00
 0.000000e+00 0.000000e+00 6.000000e-01 4.000000e-01 0.000000e+00
 0.000000e+00 0.000000e+00 0.000000e+00 7.000000e-01 3.000000e-01
 0.000000e+00 0.000000e+00 0.000000e+00 0.000000e+00 0.000000e+00
<ENDHMM>
~h "_"
<BEGINHMM>
<NUMSTATES> 5
<STATE> 2
<MEAN> 39
 -1.046263e+01 1.192893e+00 6.305027e-01 -4.821957e-01 5.510118e+00 3.635251e-01 3.368382e+00 -2.087046e+00 1.058523e+00 -7.760965e+00 1.078395e+00 -3.910955e+00 7.106615e+01 -8.002754e-04 2.112335e-03 2.165078e-03 -1.564994e-03 -4.300685e-04 -6.324079e-04 -1.138046e-03 -8.787271e-04 1.271468e-03 1.846282e-03 -1.804322e-04 -1.278623e-03 8.343531e-04 -4.475967e-05 -7.284283e-05 6.230097e-05 -2.442853e-04 -2.338257e-04 -5.949535e-05 4.124621e-05 -3.071028e-04 -1.978394e-04 -1.140548e-04 -8.069598e-05 -8.477430e-05 4.232170e-05
<VARIANCE> 39
 3.765159e+01 3.402439e+01 3.148469e+01 4.143038e+01 4.410116e+01 3.300908e+01 3.624625e+01 2.761554e+01 4.947715e+01 4.012057e+01 2.551658e+01 3.113912e+01 4.344355e+01 1.430533e+00 1.639362e+00 1.207966e+00 1.426063e+00 1.597724e+00 1.687130e+00 1.852222e+00 1.504564e+00 2.150095e+00 1.829018e+00 1.449835e+00 1.662362e+00 8.789857e-01 2.020932e-01 2.530756e-01 1.999116e-01 2.097155e-01 2.506926e-01 2.923805e-01 3.142056e-01 2.754931e-01 3.601594e-01 3.260430e-01 2.625300e-01 2.975152e-01 1.394317e-01
<GCONST> 1.059066e+02
<STATE> 3
<MEAN> 39
 -1.046263e+01 1.192893e+00 6.305027e-01 -4.821957e-01 5.510118e+00 3.635251e-01 3.368382e+00 -2.087046e+00 1.058523e+00 -7.760965e+00 1.078395e+00 -3.910955e+00 7.106615e+01 -8.002754e-04 2.112335e-03 2.165078e-03 -1.564994e-03 -4.300685e-04 -6.324079e-04 -1.138046e-03 -8.787271e-04 1.271468e-03 1.846282e-03 -1.804322e-04 -1.278623e-03 8.343531e-04 -4.475967e-05 -7.284283e-05 6.230097e-05 -2.442853e-04 -2.338257e-04 -5.949535e-05 4.124621e-05 -3.071028e-04 -1.978394e-04 -1.140548e-04 -8.069598e-05 -8.477430e-05 4.232170e-05
<VARIANCE> 39
 3.765159e+01 3.402439e+01 3.148469e+01 4.143038e+01 4.410116e+01 3.300908e+01 3.624625e+01 2.761554e+01 4.947715e+01 4.012057e+01 2.551658e+01 3.113912e+01 4.344355e+01 1.430533e+00 1.639362e+00 1.207966e+00 1.426063e+00 1.597724e+00 1.687130e+00 1.852222e+00 1.504564e+00 2.150095e+00 1.829018e+00 1.449835e+00 1.662362e+00 8.789857e-01 2.020932e-01 2.530756e-01 1.999116e-01 2.097155e-01 2.506926e-01 2.923805e-01 3.142056e-01 2.754931e-01 3.601594e-01 3.260430e-01 2.625300e-01 2.975152e-01 1.394317e-01
<GCONST> 1.059066e+02
<STATE> 4
<MEAN> 39
 -1.046263e+01 1.192893e+00 6.305027e-01 -4.821957e-01 5.510118e+00 3.635251e-01 3.368382e+00 -2.087046e+00 1.058523e+00 -7.760965e+00 1.078395e+00 -3.910955e+00 7.106615e+01 -8.002754e-04 2.112335e-03 2.165078e-03 -1.564994e-03 -4.300685e-04 -6.324079e-04 -1.138046e-03 -8.787271e-04 1.271468e-03 1.846282e-03 -1.804322e-04 -1.278623e-03 8.343531e-04 -4.475967e-05 -7.284283e-05 6.230097e-05 -2.442853e-04 -2.338257e-04 -5.949535e-05 4.124621e-05 -3.071028e-04 -1.978394e-04 -1.140548e-04 -8.069598e-05 -8.477430e-05 4.232170e-05
<VARIANCE> 39
 3.765159e+01 3.402439e+01 3.148469e+01 4.143038e+01 4.410116e+01 3.300908e+01 3.624625e+01 2.761554e+01 4.947715e+01 4.012057e+01 2.551658e+01 3.113912e+01 4.344355e+01 1.430533e+00 1.639362e+00 1.207966e+00 1.426063e+00 1.597724e+00 1.687130e+00 1.852222e+00 1.504564e+00 2.150095e+00 1.829018e+00 1.449835e+00 1.662362e+00 8.789857e-01 2.020932e-01 2.530756e-01 1.999116e-01 2.097155e-01 2.506926e-01 2.923805e-01 3.142056e-01 2.754931e-01 3.601594e-01 3.260430e-01 2.625300e-01 2.975152e-01 1.394317e-01
<GCONST> 1.059066e+02
<TRANSP> 5
 0.000000e+00 1.000000e+00 0.000000e+00 0.000000e+00 0.000000e+00
 0.000000e+00 6.000000e-01 4.000000e-01 0.000000e+00 0.000000e+00
 0.000000e+00 0.000000e+00 6.000000e-01 4.000000e-01 0.000000e+00
 0.000000e+00 0.000000e+00 0.000000e+00 7.000000e-01 3.000000e-01
 0.000000e+00 0.000000e+00 0.000000e+00 0.000000e+00 0.000000e+00
<ENDHMM>
~h "a"
<BEGINHMM>
<NUMSTATES> 5
<STATE> 2
<MEAN> 39
 -1.157798e+01 2.865530e-01 1.880632e-01 -3.156254e+00 2.621071e+00 -3.063400e-01 5.264353e+00 -1.868147e+00 -1.493617e+00 -9.678117e+00 2.430378e+00 -1.358108e+00 7.261929e+01 1.173626e-01 -1.433881e-01 -4.484391e-03 1.123392e-02 7.980251e-03 -2.256212e-01 -5.077095e-02 3.704785e-02 -5.619804e-02 -5.145080e-02 -2.361051e-02 2.330322e-01 2.367443e-01 9.243334e-02 2.897714e-02 -1.563831e-02 6.733460e-02 7.155298e-02 -7.621165e-02 2.102684e-02 -1.644676e-02 -3.263531e-02 4.119036e-02 1.170246e-02 -7.638348e-02 -2.577444e-02
<VARIANCE> 39
 5.368719e+01 1.772597e+01 2.584697e+01 3.201868e+01 2.991261e+01 3.501312e+01 2.134081e+01 2.416230e+01 5.468642e+01 4.069077e+01 1.902538e+01 3.157549e+01 1.602161e+01 2.982346e+00 1.578698e+00 1.705031e+00 1.636936e+00 2.141105e+00 2.402992e+00 2.269937e+00 1.960765e+00 4.468916e+00 2.508692e+00 1.505930e+00 2.061553e+00 1.554071e+00 4.895784e-01 2.510529e-01 3.335140e-01 2.700222e-01 3.476720e-01 4.261362e-01 4.060839e-01 3.711608e-01 6.986651e-01 3.857652e-01 2.765624e-01 3.728888e-01 2.392089e-01
<GCONST> 1.117118e+02
<STATE> 3
<MEAN> 39
 -9.579406e+00 3.763935e-01 -3.943083e-01 -2.559565e+00 3.639503e+00 -1.710046e+00 5.453699e+00 -1.723797e+00 -2.236595e+00 -9.930377e+00 2.368661e+00 -7.657729e-01 7.331906e+01 3.543010e-01 1.321416e-01 -4.467993e-02 1.103432e-01 1.492122e-01 -3.196253e-01 -4.497100e-03 1.586373e-02 4.851353e-02 1.033585e-01 -1.628228e-02 -1.091785e-01 -7.694558e-03 1.905635e-03 5.024293e-02 1.714246e-02 1.552332e-02 1.090749e-02 3.505241e-02 6.415136e-03 -2.813298e-02 3.800786e-02 4.398396e-02 -1.624639e-02 -9.994683e-02 -6.935441e-02
<VARIANCE> 39
 4.870179e+01 1.966865e+01 2.371789e+01 3.087851e+01 3.390190e+01 3.834882e+01 2.437924e+01 2.517375e+01 4.916152e+01 4.781592e+01 2.026466e+01 2.879169e+01 1.433882e+01 2.175841e+00 1.577079e+00 1.460420e+00 1.478932e+00 2.135003e+00 2.168340e+00 2.087707e+00 1.873912e+00 4.081290e+00 2.279850e+00 1.605853e+00 2.195170e+00 1.234426e+00 3.461730e-01 2.664902e-01 2.603221e-01 1.877644e-01 3.181641e-01 3.888001e-01 3.844876e-01 3.750589e-01 7.647944e-01 3.861451e-01 2.897815e-01 4.298541e-01 2.137960e-01
<GCONST> 1.098496e+02
<STATE> 4
<MEAN> 39
 -6.275542e+00 3.084148e+00 -5.317546e-02 -6.271109e-01 4.888135e+00 -2.374852e+00 4.281304e+00 -1.691334e+00 -1.975966e+00 -1.102127e+01 1.008768e+00 -1.932776e+00 7.236568e+01 7.527065e-03 1.661016e-01 1.110478e-01 -5.540015e-03 3.034822e-02 1.794263e-02 -1.358192e-01 -2.195796e-02 6.809425e-02 -1.023148e-01 -1.041369e-01 -7.399966e-02 -9.057457e-02 -3.537100e-02 -2.648333e-03 4.621547e-03 -1.040149e-02 -1.618256e-03 5.451021e-02 1.000671e-03 6.674967e-03 -5.313260e-03 -7.026132e-03 -5.110336e-03 2.001698e-02 -1.978854e-02
<VARIANCE> 39
 1.985644e+01 2.384885e+01 2.015982e+01 3.570976e+01 5.313400e+01 6.466828e+01 3.298812e+01 1.841431e+01 3.282063e+01 6.446129e+01 2.289052e+01 2.945602e+01 1.593803e+01 5.825456e-01 1.321106e+00 8.425847e-01 8.822548e-01 1.717917e+00 2.340277e+00 1.438546e+00 1.375513e+00 2.219269e+00 2.208080e+00 1.295281e+00 1.982342e+00 1.022958e+00 1.000816e-01 1.995052e-01 1.584358e-01 1.311130e-01 2.724574e-01 3.903487e-01 2.571567e-01 2.824526e-01 4.257127e-01 3.585060e-01 2.606113e-01 3.559702e-01 1.542758e-01
<GCONST> 1.012003e+02
<TRANSP> 5
 0.000000e+00 1.000000e+00 0.000000e+00 0.000000e+00 0.000000e+00
 0.000000e+00 6.961497e-01 3.038503e-01 0.000000e+00 0.000000e+00
 0.000000e+00 0.000000e+00 6.690917e-01 3.309083e-01 0.000000e+00
 0.000000e+00 0.000000e+00 0.000000e+00 8.589532e-01 1.410468e-01
 0.000000e+00 0.000000e+00 0.000000e+00 0.000000e+00 0.000000e+00
<ENDHMM>
~h "b"
<BEGINHMM>
<NUMSTATES> 5
<STATE> 2
<MEAN> 39
 -1.000710e+01 3.818094e+00 1.900614e+00 1.000423e+00 9.261629e+00 2.145625e+00 2.557198e+00 -3.153538e+00 -1.309211e-01 -9.402048e+00 -5.497900e-01 -6.581448e+00 7.183572e+01 2.463980e-01 2.221072e-01 1.265460e-01 2.926059e-01 1.227918e-01 -2.666276e-01 -1.633282e-01 -1.275999e-01 -1.774359e-02 -1.184213e-01 -9.805888e-02 -2.551882e-01 9.539510e-02 -6.327087e-02 -1.105253e-01 2.065792e-02 -4.111120e-02 -3.563388e-02 -4.732763e-02 -5.873016e-02 2.031223e-02 2.721759e-02 2.703206e-02 3.539392e-02 1.443382e-02 3.651765e-02
<VARIANCE> 39
 3.282080e+01 3.074700e+01 1.766184e+01 1.856680e+01 3.471261e+01 2.215000e+01 3.679406e+01 1.671411e+01 4.255798e+01 2.834535e+01 2.382821e+01 2.090476e+01 1.564518e+01 2.297825e+00 2.654408e+00 1.782799e+00 1.087475e+00 2.295396e+00 1.879288e+00 2.643811e+00 1.467759e+00 3.032996e+00 2.139564e+00 1.593254e+00 1.529456e+00 1.581158e+00 3.111567e-01 3.553483e-01 3.059578e-01 1.549123e-01 3.718969e-01 3.263530e-01 3.669280e-01 2.760559e-01 5.865386e-01 3.685656e-01 3.178151e-01 2.815995e-01 2.495432e-01
<GCONST> 1.070334e+02
<STATE> 3
<MEAN> 39
 -1.001651e+01 3.892419e+00 2.230099e+00 1.543656e+00 9.788034e+00 1.421191e+00 1.811030e+00 -3.030960e+00 5.065221e-01 -9.458968e+00 -8.154930e-01 -7.181338e+00 7.209838e+01 2.840888e-02 2.660801e-02 6.819327e-02 8.335987e-02 -1.853583e-02 -2.042924e-01 -1.118698e-01 4.886842e-02 1.467082e-01 -1.073494e-02 -6.046287e-02 -1.011192e-01 7.799470e-02 -2.492853e-02 -5.899851e-02 -3.287188e-02 -6.753818e-02 -6.521931e-02 2.382565e-02 1.517918e-02 5.422903e-02 7.286452e-03 1.503495e-02 2.336637e-02 6.009385e-02 -3.649191e-03
<VARIANCE> 39
 2.891022e+01 3.606778e+01 1.810539e+01 1.618394e+01 3.787221e+01 2.697030e+01 3.656125e+01 1.683674e+01 4.383537e+01 2.769332e+01 2.416019e+01 2.030617e+01 1.562528e+01 2.144771e+00 2.531699e+00 1.500933e+00 1.046024e+00 2.624953e+00 2.285110e+00 2.356199e+00 1.539961e+00 3.236880e+00 2.106960e+00 1.496319e+00 1.579676e+00 1.624212e+00 3.418092e-01 3.683098e-01 2.850593e-01 1.699614e-01 3.965985e-01 4.231123e-01 4.020792e-01 2.922795e-01 6.121538e-01 3.975132e-01 2.734234e-01 2.956245e-01 2.569420e-01
<GCONST> 1.078798e+02
<STATE> 4
<MEAN> 39
 -9.389894e+00 4.721051e+00 2.087757e+00 2.163406e+00 1.003927e+01 1.459768e+00 1.473239e+00 -2.197931e+00 1.710775e+00 -9.796326e+00 -2.286505e+00 -7.755271e+00 7.167658e+01 1.848371e-02 -1.442285e-01 -1.270099e-01 -1.913151e-01 -2.399576e-01 -1.842134e-01 6.428561e-02 7.178883e-02 -8.516120e-02 -2.798337e-02 5.670609e-02 1.873997e-01 1.116163e-01 -1.745317e-02 -6.173761e-02 -1.279139e-02 -3.700147e-02 -4.734434e-02 -7.598971e-03 3.062674e-02 -1.229823e-02 -5.057032e-02 4.051894e-03 5.307981e-02 7.787881e-02 3.140153e-02
<VARIANCE> 39
 2.299317e+01 3.394397e+01 1.903135e+01 1.763384e+01 3.627961e+01 2.962725e+01 3.244643e+01 1.621447e+01 3.395765e+01 2.545107e+01 2.729945e+01 1.999787e+01 1.433450e+01 1.764695e+00 1.813476e+00 1.066726e+00 1.098314e+00 2.057590e+00 2.312133e+00 2.297907e+00 1.502195e+00 3.170979e+00 2.402934e+00 1.583393e+00 1.680022e+00 1.216287e+00 2.582887e-01 2.380187e-01 1.896629e-01 1.827006e-01 3.519571e-01 3.917501e-01 3.929451e-01 3.031370e-01 4.893880e-01 4.334300e-01 3.156013e-01 2.790087e-01 1.720705e-01
<GCONST> 1.044499e+02
<TRANSP> 5
 0.000000e+00 1.000000e+00 0.000000e+00 0.000000e+00 0.000000e+00
 0.000000e+00 6.754858e-01 3.245142e-01 0.000000e+00 0.000000e+00
 0.000000e+00 0.000000e+00 6.728392e-01 3.271609e-01 0.000000e+00
 0.000000e+00 0.000000e+00 0.000000e+00 8.472767e-01 1.527233e-01
 0.000000e+00 0.000000e+00 0.000000e+00 0.000000e+00 0.000000e+00
<ENDHMM>
~h "d"
<BEGINHMM>
<NUMSTATES> 5
<STATE> 2
<MEAN> 39
 -1.347615e+01 1.635789e+00 -1.674301e+00 -3.254390e+00 3.777830e+00 7.734939e-01 5.588546e+00 -1.196500e+00 2.310910e+00 -6.320856e+00 1.535848e+00 -1.210136e+00 6.893626e+01 -3.302326e-01 -5.416573e-01 7.608394e-02 -2.612907e-02 -1.558129e-01 9.699732e-02 2.743921e-01 1.366633e-01 -1.896394e-01 -3.740602e-01 1.676832e-01 3.895558e-01 1.659635e-01 4.990961e-03 -6.805582e-02 6.613428e-02 4.982393e-02 4.964036e-02 4.490317e-02 -6.405834e-02 -1.240544e-01 -1.723833e-01 -1.589135e-01 -2.768890e-02 -5.277866e-02 1.449816e-01
<VARIANCE> 39
 2.064861e+01 1.572671e+01 1.457189e+01 1.255446e+01 1.630620e+01 2.135121e+01 1.462317e+01 1.939790e+01 3.994140e+01 3.817068e+01 1.515456e+01 2.017109e+01 2.219718e+01 1.043696e+00 1.455341e+00 1.162025e+00 8.889078e-01 1.202808e+00 1.343289e+00 1.514444e+00 1.362083e+00 2.918445e+00 3.190686e+00 1.375629e+00 1.269189e+00 1.980299e+00 1.740581e-01 2.707116e-01 2.628349e-01 1.439591e-01 2.170366e-01 2.728935e-01 2.785106e-01 2.715918e-01 5.829515e-01 6.144770e-01 2.648365e-01 2.388756e-01 3.496298e-01
<GCONST> 9.887228e+01
<STATE> 3
<MEAN> 39
 -1.430144e+01 7.274126e-02 -1.066893e+00 -3.183323e+00 3.377288e+00 1.200184e+00 5.987312e+00 -1.207453e+00 6.893525e-01 -8.059561e+00 1.708725e+00 -5.763647e-01 7.016006e+01 -1.850840e-01 -5.595010e-01 2.157333e-01 7.538610e-02 -1.136638e-02 8.292184e-02 1.273640e-01 -9.020022e-02 -5.807232e-01 -5.448895e-01 1.156155e-01 1.313772e-01 4.032651e-01 1.228611e-01 6.493595e-02 -1.514597e-03 3.720361e-02 7.495133e-02 -6.912162e-03 -6.139970e-02 -3.639621e-02 -2.164569e-02 5.149208e-02 -2.010281e-02 -1.213525e-01 -1.607881e-02
<VARIANCE> 39
 2.301136e+01 1.555364e+01 1.939727e+01 1.527922e+01 1.321814e+01 2.182465e+01 1.445832e+01 2.115714e+01 5.123629e+01 4.487362e+01 1.309077e+01 1.953652e+01 2.147582e+01 1.591529e+00 1.709324e+00 1.499541e+00 1.134656e+00 1.229029e+00 1.775283e+00 1.421261e+00 1.824840e+00 3.612739e+00 3.013155e+00 1.197952e+00 1.594369e+00 1.965855e+00 2.946097e-01 3.164991e-01 2.562135e-01 2.381916e-01 2.270294e-01 3.379864e-01 2.742436e-01 3.250767e-01 6.457344e-01 6.102518e-01 2.323404e-01 3.381553e-01 3.452362e-01
<GCONST> 1.032720e+02
<STATE> 4
<MEAN> 39
 -1.619275e+01 -4.740124e-01 -6.528173e-01 -4.948293e+00 3.334699e+00 1.200896e+00 5.823009e+00 -5.757038e-01 1.785646e+00 -6.737542e+00 2.744426e+00 -6.775433e-01 6.979275e+01 1.581423e-01 -2.682097e-02 1.695589e-03 6.590474e-02 9.254715e-02 -3.004916e-02 -5.907450e-02 -3.205278e-02 -1.071122e-01 -1.141650e-01 1.539549e-02 2.214773e-02 9.686687e-02 8.970634e-02 9.846206e-02 -2.549246e-02 2.733922e-02 2.164726e-02 -1.267272e-03 -6.068350e-02 -9.320551e-03 6.128888e-02 6.013583e-02 -2.922092e-02 -3.909360e-02 -5.333985e-02
<VARIANCE> 39
 2.414396e+01 1.241454e+01 2.780410e+01 1.709585e+01 8.489885e+00 1.462143e+01 1.256016e+01 1.920391e+01 5.363527e+01 4.195353e+01 1.569488e+01 1.740828e+01 2.359411e+01 1.743278e+00 1.187099e+00 1.055206e+00 1.012387e+00 9.129236e-01 1.440591e+00 1.225005e+00 1.325520e+00 2.606540e+00 1.708810e+00 1.077712e+00 1.438953e+00 9.495665e-01 2.931886e-01 2.186415e-01 1.721271e-01 2.032694e-01 1.815999e-01 2.898949e-01 2.214153e-01 2.170554e-01 4.450498e-01 3.100453e-01 2.093645e-01 2.885358e-01 1.733894e-01
<GCONST> 9.515511e+01
<TRANSP> 5
 0.000000e+00 1.000000e+00 0.000000e+00 0.000000e+00 0.000000e+00
 0.000000e+00 6.565231e-01 3.434769e-01 0.000000e+00 0.000000e+00
 0.000000e+00 0.000000e+00 6.440427e-01 3.559573e-01 0.000000e+00
 0.000000e+00 0.000000e+00 0.000000e+00 8.349745e-01 1.650255e-01
 0.000000e+00 0.000000e+00 0.000000e+00 0.000000e+00 0.000000e+00
<ENDHMM>
~h "e"
<BEGINHMM>
<NUMSTATES> 5
<STATE> 2
<MEAN> 39
 -1.354367e+01 2.158699e+00 2.373925e+00 -2.519148e+00 6.651608e+00 4.147388e+00 2.895081e+00 -6.355229e+00 1.724144e+00 -7.824203e+00 -6.409435e-01 -4.086611e+00 6.996435e+01 1.748929e-01 4.991992e-02 -8.752211e-02 3.452747e-01 3.492241e-01 1.829389e-01 5.081695e-02 -2.322373e-01 -3.558908e-01 9.764663e-02 3.295509e-02 -3.048405e-01 -1.085509e-01 9.145601e-02 -2.755760e-02 1.351344e-02 3.852207e-02 4.911141e-02 1.619574e-02 6.126230e-02 1.121498e-02 -7.898701e-02 -9.947382e-03 3.956851e-02 1.394386e-02 1.039943e-02
<VARIANCE> 39
 4.989196e+01 1.317817e+01 2.563724e+01 5.367535e+01 4.431234e+01 1.257306e+01 1.001399e+01 1.096600e+01 1.883885e+01 1.250203e+01 8.628587e+00 1.135185e+01 1.824829e+01 2.545860e+00 9.307097e-01 2.236650e+00 2.818999e+00 2.639295e+00 2.120531e+00 9.151511e-01 1.202349e+00 1.276631e+00 1.194453e+00 1.005375e+00 8.426371e-01 1.459970e+00 3.977382e-01 1.737889e-01 4.378081e-01 4.864179e-01 5.423065e-01 4.010684e-01 1.794357e-01 1.838460e-01 1.737695e-01 1.994346e-01 2.296671e-01 1.538729e-01 2.251890e-01
<GCONST> 9.716933e+01
<STATE> 3
<MEAN> 39
 -8.520189e+00 3.728175e+00 1.305315e+00 3.339304e+00 1.356972e+01 5.994446e+00 2.791200e+00 -7.834104e+00 -2.857193e+00 -8.724413e+00 -1.402231e+00 -7.156738e+00 6.916145e+01 2.602726e-01 8.878053e-02 1.357165e-01 2.464340e-01 3.071566e-01 1.566736e-01 1.084898e-01 2.167863e-02 -2.910333e-01 -1.234696e-01 -5.696521e-02 -1.878157e-01 4.975761e-02 -2.156202e-02 -7.299433e-03 -6.212892e-02 -5.683436e-02 -1.401381e-01 -1.308714e-01 3.212871e-02 1.401532e-01 1.141379e-01 -1.137323e-02 -7.008145e-02 6.685830e-02 -2.226929e-02
<VARIANCE> 39
 1.973392e+01 9.819441e+00 1.910340e+01 2.367840e+01 4.052370e+01 1.323547e+01 2.037384e+01 1.382071e+01 2.597316e+01 2.390101e+01 7.735670e+00 1.133258e+01 7.189928e+00 1.345738e+00 6.107880e-01 1.415811e+00 1.236234e+00 2.065058e+00 1.717989e+00 9.984231e-01 1.278944e+00 1.839139e+00 1.131485e+00 1.055631e+00 9.582789e-01 6.627722e-01 2.286402e-01 1.181505e-01 2.279215e-01 2.055774e-01 3.352080e-01 2.820884e-01 1.592253e-01 1.902654e-01 3.119442e-01 1.868495e-01 2.063924e-01 1.766423e-01 1.160952e-01
<GCONST> 8.923351e+01
<STATE> 4
<MEAN> 39
 -7.617462e+00 5.794811e+00 1.104285e+00 4.855004e+00 1.252014e+01 5.666044e+00 4.262761e+00 -3.149518e+00 3.568259e-01 -9.216100e+00 -1.703830e+00 -6.939814e+00 6.767676e+01 -3.374399e-02 -3.451974e-02 -4.424619e-02 -4.249572e-02 -1.697130e-01 -2.769185e-01 -2.568061e-02 2.417585e-01 1.536568e-01 -8.798070e-02 -1.194896e-01 4.929249e-02 -1.914390e-02 -1.022946e-02 -4.908871e-02 9.106823e-03 -7.885990e-03 -4.034756e-02 -5.171473e-02 -1.345891e-02 6.111935e-03 5.722689e-03 3.582116e-03 1.764291e-02 1.369910e-02 2.412028e-02
<VARIANCE> 39
 2.435680e+00 1.016445e+01 5.149547e+00 9.021515e+00 9.612220e+00 1.076602e+01 1.428573e+01 1.796957e+01 1.681464e+01 2.921580e+01 9.280171e+00 1.392905e+01 4.108435e+00 2.356416e-01 6.435825e-01 5.640396e-01 5.769776e-01 9.655322e-01 9.468215e-01 1.012643e+00 1.108369e+00 1.318686e+00 8.780355e-01 8.481760e-01 1.027824e+00 1.862771e-01 4.547323e-02 1.025572e-01 9.130850e-02 8.785905e-02 1.384945e-01 1.485132e-01 1.437505e-01 1.908410e-01 2.582862e-01 1.214313e-01 1.397913e-01 1.677727e-01 2.320327e-02
<GCONST> 6.807814e+01
<TRANSP> 5
 0.000000e+00 1.000000e+00 0.000000e+00 0.000000e+00 0.000000e+00
 0.000000e+00 8.577926e-01 1.422074e-01 0.000000e+00 0.000000e+00
 0.000000e+00 0.000000e+00 8.462134e-01 1.537866e-01 0.000000e+00
 0.000000e+00 0.000000e+00 0.000000e+00 9.462233e-01 5.377669e-02
 0.000000e+00 0.000000e+00 0.000000e+00 0.000000e+00 0.000000e+00
<ENDHMM>
~h "f"
<BEGINHMM>
<NUMSTATES> 5
<STATE> 2
<MEAN> 39
 -1.662813e+01 1.563363e+00 3.117407e+00 -4.956179e+00 6.377182e+00 1.361658e+00 5.574840e+00 -2.708260e+00 6.503392e-01 -8.933918e+00 1.204207e+00 -2.558209e+00 7.319807e+01 -1.022887e+00 -2.318665e-01 1.504276e-01 -5.091211e-01 -1.429333e-01 -3.012867e-02 9.291579e-02 -7.215299e-02 3.980415e-01 2.631530e-01 5.605261e-02 1.362043e-01 1.606825e-01 1.068878e-01 -5.992179e-02 -5.985231e-02 1.151090e-01 -3.481379e-03 -6.007724e-02 -4.001097e-02 -4.396185e-02 -6.122092e-02 -1.876892e-02 1.743958e-02 -3.954094e-02 6.998161e-03
<VARIANCE> 39
 4.838127e+01 2.141571e+01 2.240232e+01 3.688037e+01 2.754886e+01 2.401065e+01 2.300663e+01 2.223494e+01 3.128797e+01 1.877906e+01 1.048345e+01 2.140454e+01 1.000128e+01 3.754020e+00 1.650708e+00 1.745331e+00 2.774554e+00 1.373699e+00 1.864989e+00 2.061578e+00 1.613651e+00 3.402208e+00 1.925287e+00 9.941995e-01 1.672569e+00 7.298361e-01 4.510805e-01 2.251820e-01 2.990237e-01 3.427438e-01 2.264080e-01 3.450077e-01 2.856167e-01 2.840183e-01 5.717748e-01 3.632979e-01 2.043817e-01 3.387218e-01 1.223906e-01
<GCONST> 1.038098e+02
<STATE> 3
<MEAN> 39
 -1.814543e+01 2.707722e-01 3.221984e+00 -4.734957e+00 6.569233e+00 1.204215e+00 5.536570e+00 -2.712629e+00 1.350617e+00 -8.011237e+00 1.495605e+00 -2.720215e+00 7.371291e+01 -1.229996e-01 -3.091687e-01 -9.629915e-02 1.951325e-02 -8.666027e-02 -1.135814e-01 -4.992713e-02 -2.120292e-01 -1.813836e-01 3.091362e-02 1.000689e-01 -9.721604e-02 1.052137e-01 2.706656e-01 3.966859e-02 -3.810411e-02 1.453997e-01 3.828429e-02 1.041582e-02 -4.398999e-02 -2.354859e-02 -1.016063e-01 -5.256648e-02 -1.756260e-02 -1.007894e-01 -4.669166e-02
<VARIANCE> 39
 5.052637e+01 2.177589e+01 2.765938e+01 2.895594e+01 2.800923e+01 2.208595e+01 2.000545e+01 2.386069e+01 3.640424e+01 1.986056e+01 1.350611e+01 2.262022e+01 9.601275e+00 4.038152e+00 2.012009e+00 1.977906e+00 2.225190e+00 1.432135e+00 1.695130e+00 1.626488e+00 1.758941e+00 3.609991e+00 1.848661e+00 1.039706e+00 1.971393e+00 8.797533e-01 4.277239e-01 3.244890e-01 3.641485e-01 2.687901e-01 2.490959e-01 3.318394e-01 2.597348e-01 3.144513e-01 5.473906e-01 3.433601e-01 2.055122e-01 3.820285e-01 1.374271e-01
<GCONST> 1.050343e+02
<STATE> 4
<MEAN> 39
 -1.607927e+01 6.849849e-01 3.161065e+00 -3.501469e+00 6.614225e+00 6.194290e-01 4.599082e+00 -2.724524e+00 9.400961e-01 -8.252542e+00 8.873349e-01 -4.172377e+00 7.307577e+01 3.140790e-01 -1.008736e-01 -4.799512e-02 1.368521e-01 -6.647845e-02 2.216617e-02 -1.021311e-01 -4.271682e-02 -1.093784e-01 -8.709596e-02 2.052012e-02 -1.748613e-01 -5.525823e-02 1.059725e-01 6.028901e-02 2.874421e-02 5.399546e-02 3.430700e-02 7.799818e-03 -2.793906e-02 8.351137e-03 6.737236e-03 -8.262175e-03 -2.178559e-02 -4.890481e-02 -1.858033e-02
<VARIANCE> 39
 5.260866e+01 2.564595e+01 2.514650e+01 2.870054e+01 2.470799e+01 1.641896e+01 2.007521e+01 2.663879e+01 3.426536e+01 2.334100e+01 1.493248e+01 2.291097e+01 9.023354e+00 3.152534e+00 2.066225e+00 2.071325e+00 1.979033e+00 1.421280e+00 1.520376e+00 1.366078e+00 1.974220e+00 2.726247e+00 1.848195e+00 9.783625e-01 1.892096e+00 7.049155e-01 3.526607e-01 3.494193e-01 4.318223e-01 2.473710e-01 2.288349e-01 2.942860e-01 2.309836e-01 3.214635e-01 3.695232e-01 3.384861e-01 1.814160e-01 3.690512e-01 1.299484e-01
<GCONST> 1.029517e+02
<TRANSP> 5
 0.000000e+00 1.000000e+00 0.000000e+00 0.000000e+00 0.000000e+00
 0.000000e+00 7.775849e-01 2.224152e-01 0.000000e+00 0.000000e+00
 0.000000e+00 0.000000e+00 7.253969e-01 2.746031e-01 0.000000e+00
 0.000000e+00 0.000000e+00 0.000000e+00 8.693807e-01 1.306194e-01
 0.000000e+00 0.000000e+00 0.000000e+00 0.000000e+00 0.000000e+00
<ENDHMM>
~h "h"
<BEGINHMM>
<NUMSTATES> 5
<STATE> 2
<MEAN> 39
 -1.224650e+01 3.599798e-01 7.433787e-01 -2.357425e+00 4.908307e+00 2.021079e+00 5.443258e+00 -2.014274e+00 1.180024e+00 -4.833501e+00 4.693643e+00 -2.788412e+00 7.325630e+01 1.448293e-01 -5.398197e-02 -1.930746e-01 -2.027822e-01 -2.764713e-01 3.487446e-02 2.707230e-02 6.758866e-02 -6.140066e-02 -7.537078e-02 1.741021e-01 3.957947e-01 1.242994e-01 3.552527e-02 2.399621e-04 -3.073587e-02 9.933452e-02 3.516850e-02 -5.219049e-03 -3.847117e-02 5.628636e-02 7.413684e-02 5.442563e-03 -5.885303e-02 -5.342856e-02 -8.959957e-02
<VARIANCE> 39
 2.200024e+01 1.137269e+01 1.585211e+01 1.836304e+01 2.765862e+01 1.917681e+01 3.240672e+01 1.475556e+01 5.064090e+01 2.499114e+01 2.561793e+01 1.648660e+01 2.334149e+01 8.009928e-01 9.218916e-01 9.100521e-01 1.202242e+00 2.089025e+00 1.190325e+00 2.091932e+00 1.076498e+00 2.005259e+00 1.683789e+00 1.417113e+00 1.344386e+00 9.865322e-01 1.278350e-01 1.984577e-01 1.513831e-01 1.337869e-01 2.182720e-01 2.218353e-01 3.225087e-01 1.703795e-01 3.449135e-01 3.181241e-01 2.134874e-01 2.647614e-01 1.490463e-01
<GCONST> 9.452416e+01
<STATE> 3
<MEAN> 39
 -1.097266e+01 7.507198e-01 1.368006e-01 -2.395043e+00 4.446716e+00 1.561388e+00 4.280583e+00 -2.077043e+00 8.127219e-01 -6.237927e+00 3.986833e+00 -1.890642e+00 7.314403e+01 1.122231e-01 8.773121e-03 -7.842898e-02 3.239045e-02 -2.563854e-02 -1.761763e-02 -6.390262e-02 2.533165e-02 1.820718e-02 -4.183143e-02 -3.760315e-03 1.361694e-01 -5.195244e-02 -1.006314e-02 1.576029e-02 4.281576e-03 3.221693e-02 2.490484e-03 -6.590332e-03 4.482926e-02 2.462814e-02 3.662607e-02 2.953180e-02 -2.123449e-02 -7.344855e-02 -6.490186e-02
<VARIANCE> 39
 3.240748e+01 1.339596e+01 1.677424e+01 2.506546e+01 3.376824e+01 1.810590e+01 4.000224e+01 1.993913e+01 5.851585e+01 2.900441e+01 1.989582e+01 1.522783e+01 2.885804e+01 9.467446e-01 1.236297e+00 9.201071e-01 9.636480e-01 1.270691e+00 1.047850e+00 1.983475e+00 1.029168e+00 2.150804e+00 1.787954e+00 1.285559e+00 1.260509e+00 9.916155e-01 1.623128e-01 2.249722e-01 1.511964e-01 1.296096e-01 1.920819e-01 1.807475e-01 3.561694e-01 1.868020e-01 3.793947e-01 3.313154e-01 2.182490e-01 2.389261e-01 1.920102e-01
<GCONST> 9.626949e+01
<STATE> 4
<MEAN> 39
 -9.727002e+00 6.086509e-01 5.669661e-01 -2.198715e+00 5.290890e+00 1.014918e+00 3.620476e+00 -3.298434e+00 -1.217655e+00 -7.749912e+00 3.660692e+00 -1.352246e+00 7.461346e+01 -1.449683e-01 -1.087637e-01 3.987190e-02 -1.917035e-02 -1.759701e-02 -4.503226e-02 2.770294e-02 1.351944e-02 1.158043e-01 1.911705e-02 1.313128e-02 4.261237e-02 -3.406173e-03 -1.782818e-02 -9.954234e-03 2.749135e-03 -3.107302e-04 -2.527269e-02 -2.439347e-02 -2.746665e-02 -6.585865e-03 1.574272e-02 1.577764e-03 -2.076715e-02 -2.125880e-02 6.264944e-03
<VARIANCE> 39
 3.320102e+01 2.111004e+01 1.357810e+01 2.733419e+01 3.464371e+01 2.016859e+01 3.681617e+01 3.154495e+01 5.162098e+01 2.639767e+01 1.671580e+01 1.268513e+01 2.993101e+01 9.383803e-01 1.677782e+00 7.284239e-01 7.789180e-01 9.522508e-01 1.067614e+00 2.091369e+00 1.179759e+00 2.090474e+00 1.753907e+00 1.089024e+00 1.101428e+00 1.007546e+00 1.341343e-01 2.481290e-01 1.189163e-01 9.531604e-02 1.599983e-01 1.749891e-01 3.139981e-01 2.243516e-01 3.687968e-01 3.150820e-01 2.074371e-01 1.967214e-01 1.664930e-01
<GCONST> 9.476575e+01
<TRANSP> 5
 0.000000e+00 1.000000e+00 0.000000e+00 0.000000e+00 0.000000e+00
 0.000000e+00 7.469409e-01 2.530592e-01 0.000000e+00 0.000000e+00
 0.000000e+00 0.000000e+00 7.419469e-01 2.580531e-01 0.000000e+00
 0.000000e+00 0.000000e+00 0.000000e+00 9.172676e-01 8.273236e-02
 0.000000e+00 0.000000e+00 0.000000e+00 0.000000e+00 0.000000e+00
<ENDHMM>
~h "i"
<BEGINHMM>
<NUMSTATES> 5
<STATE> 2
<MEAN> 39
 -1.185737e+01 -5.145155e+00 -4.192992e+00 -2.160568e+00 -3.678131e-01 -1.529304e+00 6.111942e+00 5.846305e-01 1.347506e+00 -8.073215e+00 4.767568e+00 3.787442e-01 7.072816e+01 -6.202614e-02 -2.396010e-01 -3.327409e-02 -5.240809e-02 -1.696522e-01 -7.517620e-02 7.979698e-02 -1.497838e-03 8.459066e-03 -9.591229e-02 -3.280076e-02 1.466192e-01 3.947239e-02 -7.266063e-03 3.950053e-02 5.274819e-03 3.043824e-02 4.745167e-02 2.217634e-02 -3.442281e-02 -3.452258e-02 1.872068e-02 3.380334e-02 -1.958549e-03 -2.628035e-02 -3.268251e-02
<VARIANCE> 39
 4.081644e+01 2.469094e+01 2.680391e+01 6.472669e+00 1.678385e+01 2.767009e+01 1.679749e+01 2.233101e+01 3.134269e+01 2.640948e+01 1.539854e+01 2.413434e+01 2.840208e+01 2.322662e-01 7.262350e-01 5.257190e-01 4.774156e-01 6.631639e-01 8.019612e-01 7.621880e-01 1.045366e+00 1.144673e+00 1.084411e+00 1.098037e+00 1.094642e+00 1.978234e-01 3.436721e-02 9.103695e-02 8.462525e-02 8.164756e-02 1.054951e-01 1.135033e-01 1.456499e-01 2.549757e-01 1.979292e-01 1.993420e-01 2.434412e-01 1.833631e-01 1.924442e-02
<GCONST> 7.780648e+01
<STATE> 3
<MEAN> 39
 -1.376041e+01 -5.561825e+00 -4.169644e+00 -2.132162e+00 1.665162e-01 -6.956311e-01 5.738264e+00 2.016864e-01 2.700094e+00 -8.049500e+00 4.086722e+00 1.657263e+00 6.914725e+01 -6.979022e-02 1.521310e-01 -1.182328e-01 -4.366063e-02 5.279570e-02 3.160480e-02 5.175931e-02 -7.916492e-02 1.035011e-01 1.725243e-01 4.962368e-02 4.041784e-02 -1.580025e-01 -8.902187e-03 3.341085e-02 1.027763e-02 -1.503383e-02 3.672371e-02 3.412161e-02 2.644395e-02 4.990001e-02 5.952845e-02 4.161862e-02 -9.769664e-03 -3.745411e-02 -1.914988e-02
<VARIANCE> 39
 2.951622e+01 2.535059e+01 2.217304e+01 9.394087e+00 1.819390e+01 2.506741e+01 1.542542e+01 2.261330e+01 2.183854e+01 1.900328e+01 1.054305e+01 2.392212e+01 1.937897e+01 2.596077e-01 7.666456e-01 4.586049e-01 4.891236e-01 7.457650e-01 8.290665e-01 1.023647e+00 1.408412e+00 1.144077e+00 1.065943e+00 1.104690e+00 1.214643e+00 2.275582e-01 3.522126e-02 8.488404e-02 7.524399e-02 8.308307e-02 1.398876e-01 1.329731e-01 2.136706e-01 2.954083e-01 2.052636e-01 1.744497e-01 2.069415e-01 1.874797e-01 1.778381e-02
<GCONST> 7.767879e+01
<STATE> 4
<MEAN> 39
 -1.325670e+01 2.845081e-01 -4.316728e+00 -3.114051e+00 2.980310e-01 -1.269511e+00 6.382935e+00 -1.121064e+00 4.370088e+00 -3.825214e+00 3.897914e+00 -2.317695e+00 6.740302e+01 -2.807418e-02 1.728336e-01 2.502338e-02 -1.058122e-01 -2.254455e-02 -8.111349e-03 2.898362e-02 3.724763e-02 1.380473e-01 1.795059e-01 -4.783323e-03 -1.107690e-01 -1.164057e-01 -4.463823e-03 -2.471127e-02 2.131359e-02 1.561407e-03 -4.384391e-03 7.126955e-03 9.294189e-05 2.084963e-02 -1.570719e-02 -2.854312e-02 2.842556e-04 6.930032e-03 2.352016e-02
<VARIANCE> 39
 2.727449e+01 2.292464e+01 1.756355e+01 1.032313e+01 1.830608e+01 2.561510e+01 1.710839e+01 1.548229e+01 2.706955e+01 2.668530e+01 1.287954e+01 1.571740e+01 2.391838e+01 3.435897e-01 1.048990e+00 9.211007e-01 7.386953e-01 1.107085e+00 8.108590e-01 1.095841e+00 8.061094e-01 1.097409e+00 1.234078e+00 8.371419e-01 8.501417e-01 4.365357e-01 4.642987e-02 1.465271e-01 1.570939e-01 1.312547e-01 1.900886e-01 1.538235e-01 2.180860e-01 1.421858e-01 1.862727e-01 2.103010e-01 1.541790e-01 1.471889e-01 4.624550e-02
<GCONST> 8.163282e+01
<TRANSP> 5
 0.000000e+00 1.000000e+00 0.000000e+00 0.000000e+00 0.000000e+00
 0.000000e+00 8.645298e-01 1.354702e-01 0.000000e+00 0.000000e+00
 0.000000e+00 0.000000e+00 8.016989e-01 1.983012e-01 0.000000e+00
 0.000000e+00 0.000000e+00 0.000000e+00 9.216987e-01 7.830134e-02
 0.000000e+00 0.000000e+00 0.000000e+00 0.000000e+00 0.000000e+00
<ENDHMM>
~h "j"
<BEGINHMM>
<NUMSTATES> 5
<STATE> 2
<MEAN> 39
 -6.380281e+00 1.546334e+00 2.744283e+00 3.647919e+00 7.927431e+00 1.678743e+00 1.496513e+00 -4.453665e+00 -5.723677e+00 -1.333031e+01 1.538726e+00 -2.597238e+00 7.478198e+01 5.282579e-03 -1.534363e-01 9.613197e-02 1.082903e-01 5.454846e-02 8.556297e-02 -1.117782e-01 -1.433824e-01 -2.413879e-01 -1.911308e-01 6.063872e-02 2.507606e-01 7.088512e-02 -5.118792e-02 2.114717e-02 -1.074648e-02 1.612220e-02 -3.393776e-03 -5.714741e-03 6.338111e-02 2.564235e-02 1.425532e-01 1.121115e-01 -1.832002e-02 -5.941542e-02 -6.500991e-02
<VARIANCE> 39
 1.101742e+01 1.931873e+01 1.541958e+01 4.603614e+01 3.227206e+01 2.752537e+01 2.386510e+01 1.475829e+01 2.935999e+01 3.220015e+01 2.360634e+01 2.499248e+01 1.628937e+01 3.188023e-01 1.062419e+00 8.053426e-01 1.222090e+00 1.056967e+00 1.172020e+00 1.552078e+00 9.970712e-01 2.156180e+00 1.878809e+00 1.533338e+00 1.569941e+00 7.317309e-01 4.060313e-02 1.496452e-01 9.939186e-02 1.596179e-01 1.559533e-01 2.108231e-01 2.366780e-01 1.700726e-01 2.919616e-01 3.419187e-01 2.754969e-01 2.751222e-01 1.024396e-01
<GCONST> 9.075884e+01
<STATE> 3
<MEAN> 39
 -7.121104e+00 1.203142e+00 2.855834e+00 4.110766e+00 8.736060e+00 2.660984e+00 1.404649e+00 -4.850602e+00 -4.795583e+00 -1.272158e+01 1.526068e+00 -2.421951e+00 7.393924e+01 -1.937470e-01 -5.602265e-02 1.307654e-01 1.362775e-01 1.450348e-01 9.795555e-02 6.330381e-02 4.466740e-02 2.478199e-01 1.134599e-01 -1.590004e-01 -9.356916e-02 -1.527931e-01 -2.815053e-02 1.927957e-02 3.364638e-03 -1.746051e-02 -1.920852e-02 -1.459763e-02 3.794656e-02 3.913222e-02 6.698714e-02 3.369710e-02 -2.486012e-02 -2.043063e-02 -2.894842e-02
<VARIANCE> 39
 1.285076e+01 2.729186e+01 1.877346e+01 3.616088e+01 3.060178e+01 2.788923e+01 2.306442e+01 1.767626e+01 3.564821e+01 3.488514e+01 2.191860e+01 2.078447e+01 2.153232e+01 3.531286e-01 1.243496e+00 9.590619e-01 1.298658e+00 1.308720e+00 9.763235e-01 1.505357e+00 1.121495e+00 1.822730e+00 1.524752e+00 1.583851e+00 1.545770e+00 6.403540e-01 4.981628e-02 1.765426e-01 1.275171e-01 1.788511e-01 2.168255e-01 1.604595e-01 2.397879e-01 2.000550e-01 2.973591e-01 3.008909e-01 2.860210e-01 3.077016e-01 9.763052e-02
<GCONST> 9.269086e+01
<STATE> 4
<MEAN> 39
 -1.048091e+01 -3.366610e-01 3.237074e+00 3.771920e+00 7.989964e+00 2.811534e+00 3.833995e+00 -3.399358e+00 -1.855419e+00 -9.822464e+00 1.778402e+00 -3.210944e+00 7.166199e+01 -2.943491e-02 1.692451e-02 -3.030222e-03 -1.858954e-02 -1.981365e-02 -2.989910e-05 3.909142e-02 -6.663427e-03 4.943552e-02 6.716296e-02 -3.026627e-03 -2.278295e-02 -4.370962e-02 -1.829613e-03 8.513118e-03 -1.189340e-02 -1.027529e-02 -8.480753e-03 -7.834513e-03 -6.132012e-03 -3.988266e-03 7.558613e-03 4.236742e-03 5.534107e-03 1.147903e-02 -4.512864e-03
<VARIANCE> 39
 2.269703e+01 3.558421e+01 2.141636e+01 2.298016e+01 2.083553e+01 2.409839e+01 1.765853e+01 2.117640e+01 3.722158e+01 2.557469e+01 1.924219e+01 1.937146e+01 1.336191e+01 8.394918e-01 2.017881e+00 1.103618e+00 1.250118e+00 1.429804e+00 1.528390e+00 1.444417e+00 1.466640e+00 2.415449e+00 1.954353e+00 1.395284e+00 1.370946e+00 7.759559e-01 1.047817e-01 2.770106e-01 1.732976e-01 1.957665e-01 2.497877e-01 2.720066e-01 2.545743e-01 2.605628e-01 3.795423e-01 3.775445e-01 2.505034e-01 2.644773e-01 1.108164e-01
<GCONST> 9.723074e+01
<TRANSP> 5
 0.000000e+00 1.000000e+00 0.000000e+00 0.000000e+00 0.000000e+00
 0.000000e+00 8.784865e-01 1.215135e-01 0.000000e+00 0.000000e+00
 0.000000e+00 0.000000e+00 8.213394e-01 1.786606e-01 0.000000e+00
 0.000000e+00 0.000000e+00 0.000000e+00 9.798534e-01 2.014658e-02
 0.000000e+00 0.000000e+00 0.000000e+00 0.000000e+00 0.000000e+00
<ENDHMM>
~h "k"
<BEGINHMM>
<NUMSTATES> 5
<STATE> 2
<MEAN> 39
 -1.352942e+01 9.606870e-01 1.440810e+00 -1.962688e+00 5.855494e+00 2.519642e-02 3.871645e+00 -2.537869e+00 7.061294e-01 -7.893146e+00 4.500056e-01 -4.152181e+00 7.162246e+01 8.780712e-01 8.490683e-01 3.283359e-01 3.200495e-01 7.311743e-01 -3.143358e-01 -3.292114e-01 -1.765055e-01 -5.066366e-01 -6.025218e-01 -4.993855e-01 -4.833395e-01 1.742879e-01 9.660382e-02 1.630393e-01 6.407359e-02 -3.080245e-02 5.822805e-02 -6.911583e-02 3.567673e-02 3.782619e-02 2.484332e-02 1.664916e-01 -6.470044e-02 -5.779395e-02 1.174453e-02
<VARIANCE> 39
 3.435077e+01 3.827187e+01 1.632644e+01 1.804455e+01 4.361545e+01 3.644516e+01 1.663228e+01 1.712951e+01 4.207069e+01 2.626259e+01 1.800014e+01 2.392684e+01 9.692620e+00 3.852312e+00 3.587448e+00 1.643626e+00 9.529969e-01 3.003003e+00 1.867308e+00 2.078967e+00 1.346779e+00 4.541842e+00 3.443351e+00 2.294528e+00 1.937592e+00 1.031104e+00 5.454516e-01 5.911453e-01 2.344608e-01 1.480014e-01 5.802673e-01 3.388023e-01 2.981487e-01 2.006924e-01 7.844524e-01 6.135739e-01 4.962767e-01 3.492749e-01 1.735084e-01
<GCONST> 1.098419e+02
<STATE> 3
<MEAN> 39
 -1.115592e+01 3.889544e+00 2.279564e+00 -1.315957e+00 7.475601e+00 -1.572797e+00 2.344481e+00 -2.552185e+00 9.256089e-01 -8.279975e+00 -4.484089e-01 -5.871113e+00 7.201273e+01 4.838192e-01 6.622182e-01 7.756840e-02 1.107272e-01 3.543123e-01 -2.178779e-01 -5.231955e-04 -1.441181e-01 -1.344078e-01 -8.028109e-02 -2.777954e-01 -2.716111e-01 7.596640e-02 -1.206193e-01 -1.140098e-01 -7.500611e-02 -4.091399e-02 -1.694517e-01 5.409781e-02 1.314155e-01 6.920031e-02 9.029859e-02 1.297883e-01 5.137922e-02 1.333824e-01 -2.855682e-03
<VARIANCE> 39
 3.114764e+01 3.222270e+01 1.441766e+01 2.046468e+01 4.920837e+01 3.786876e+01 2.037822e+01 1.754282e+01 3.716101e+01 3.186387e+01 2.010524e+01 2.518871e+01 1.005977e+01 3.294172e+00 2.517657e+00 1.407894e+00 1.107674e+00 3.256826e+00 2.025875e+00 2.574857e+00 1.349031e+00 3.926615e+00 3.035254e+00 2.320961e+00 2.001711e+00 7.984463e-01 5.718293e-01 4.599836e-01 1.919486e-01 2.224217e-01 5.559909e-01 3.257247e-01 4.471534e-01 2.455377e-01 8.001152e-01 6.628587e-01 4.637057e-01 4.200497e-01 1.457725e-01
<GCONST> 1.101756e+02
<STATE> 4
<MEAN> 39
 -9.884425e+00 4.514158e+00 9.466114e-01 -1.386891e+00 8.211392e+00 -6.993326e-01 3.119710e+00 -2.002587e+00 2.948882e-01 -8.366405e+00 -5.792559e-01 -4.635496e+00 7.186835e+01 2.007486e-01 -2.470075e-02 1.471952e-03 5.856674e-02 -4.798596e-03 6.531579e-03 1.438496e-02 -2.380897e-02 -3.090930e-01 -1.432169e-01 -3.236070e-02 1.015347e-01 1.764398e-01 -4.324839e-02 -7.344523e-02 -5.321044e-03 -3.854546e-02 -9.833438e-02 -7.804536e-03 4.334709e-02 2.043836e-02 -1.218297e-02 1.976698e-02 2.022864e-02 8.521938e-02 1.363247e-02
<VARIANCE> 39
 3.677115e+01 3.421563e+01 1.565781e+01 1.820492e+01 3.840850e+01 3.026611e+01 2.873545e+01 1.732706e+01 4.115067e+01 4.385411e+01 2.180761e+01 2.675889e+01 1.342033e+01 3.164026e+00 2.566454e+00 1.242252e+00 1.553793e+00 2.494308e+00 1.514438e+00 2.837788e+00 1.567704e+00 4.385351e+00 2.801646e+00 1.526057e+00 2.129029e+00 1.038558e+00 4.393244e-01 3.712342e-01 2.212917e-01 2.800329e-01 5.007835e-01 2.493527e-01 5.703718e-01 3.539406e-01 7.798266e-01 5.087031e-01 2.502384e-01 3.904306e-01 1.607992e-01
<GCONST> 1.101452e+02
<TRANSP> 5
 0.000000e+00 1.000000e+00 0.000000e+00 0.000000e+00 0.000000e+00
 0.000000e+00 6.750661e-01 3.249340e-01 0.000000e+00 0.000000e+00
 0.000000e+00 0.000000e+00 6.965572e-01 3.034428e-01 0.000000e+00
 0.000000e+00 0.000000e+00 0.000000e+00 8.783050e-01 1.216951e-01
 0.000000e+00 0.000000e+00 0.000000e+00 0.000000e+00 0.000000e+00
<ENDHMM>
~h "l"
<BEGINHMM>
<NUMSTATES> 5
<STATE> 2
<MEAN> 39
 -8.172121e+00 2.028476e+00 1.347103e+00 1.374805e+00 6.490388e+00 1.078942e-01 2.889271e+00 -2.857988e+00 -1.355453e+00 -1.079845e+01 1.707871e-01 -4.292181e+00 7.188617e+01 -2.888374e-02 1.415264e-01 1.008576e-02 7.757372e-02 9.560429e-02 -2.293721e-02 -2.106452e-04 6.922612e-03 1.161489e-01 2.097245e-02 -1.374086e-01 -8.244980e-02 -9.172186e-02 -3.184256e-02 -6.482082e-04 -2.864126e-02 -4.749615e-02 -5.925528e-03 2.185553e-02 1.061597e-02 1.357813e-02 4.009344e-02 6.779401e-02 2.112351e-02 -6.784072e-03 -1.403686e-02
<VARIANCE> 39
 2.487969e+01 2.553253e+01 1.993111e+01 3.727439e+01 4.241259e+01 3.718709e+01 3.455871e+01 2.637005e+01 4.908269e+01 4.443896e+01 2.925471e+01 3.213548e+01 3.349823e+01 8.673475e-01 1.318639e+00 1.061769e+00 1.271874e+00 1.652575e+00 1.607830e+00 1.737531e+00 1.550987e+00 2.415554e+00 1.991827e+00 1.810109e+00 1.645229e+00 7.156993e-01 1.214159e-01 1.913475e-01 1.737257e-01 2.027467e-01 2.707419e-01 2.656436e-01 2.976693e-01 2.880818e-01 4.130208e-01 3.326525e-01 3.303632e-01 3.034283e-01 1.175557e-01
<GCONST> 1.030736e+02
<STATE> 3
<MEAN> 39
 -8.403115e+00 2.302816e+00 1.381359e+00 1.369543e+00 6.674064e+00 9.610885e-02 2.890388e+00 -2.813473e+00 -9.040468e-01 -1.044908e+01 -7.023921e-02 -4.637692e+00 7.165619e+01 -8.446239e-02 1.121323e-01 -5.395316e-02 -7.568917e-02 5.671832e-03 -9.244323e-03 3.428254e-02 4.051240e-02 1.724850e-01 1.775702e-01 -1.639804e-02 -6.413158e-02 -1.104259e-01 -2.869686e-02 -2.943019e-02 -2.089579e-02 -5.104711e-02 -3.704571e-02 1.353608e-02 1.569343e-02 1.021957e-02 6.809413e-03 4.476481e-02 4.978752e-02 3.007236e-02 7.205155e-04
<VARIANCE> 39
 2.612321e+01 2.518771e+01 2.095455e+01 3.784215e+01 4.563848e+01 3.724006e+01 3.507715e+01 2.665790e+01 4.736894e+01 4.407899e+01 2.845800e+01 3.148954e+01 3.340800e+01 8.287618e-01 1.306729e+00 1.090639e+00 1.328870e+00 1.644706e+00 1.615996e+00 1.796518e+00 1.591804e+00 2.378562e+00 2.054255e+00 1.867511e+00 1.760200e+00 7.199695e-01 1.191347e-01 2.026080e-01 1.823700e-01 2.130549e-01 2.778297e-01 2.892350e-01 3.052858e-01 2.893125e-01 3.893036e-01 3.363649e-01 3.374228e-01 3.072271e-01 1.207110e-01
<GCONST> 1.036648e+02
<STATE> 4
<MEAN> 39
 -8.397586e+00 2.447895e+00 1.399567e+00 1.500963e+00 7.085803e+00 1.787298e-01 2.766314e+00 -2.523040e+00 -5.535079e-01 -1.025850e+01 -2.232245e-01 -5.142601e+00 7.136893e+01 -1.366660e-01 2.545410e-02 -1.197123e-01 -2.473584e-01 -1.879767e-01 -1.444612e-02 1.321547e-01 1.042263e-01 1.357720e-01 2.596934e-01 1.452543e-01 4.852564e-02 -9.300201e-02 -3.556176e-02 -4.505664e-02 3.025710e-03 -3.225959e-02 -3.925953e-02 7.279591e-03 1.968062e-02 6.356553e-03 -2.631051e-02 -5.379855e-03 2.386399e-02 4.566130e-02 2.991878e-02
<VARIANCE> 39
 2.365042e+01 2.299427e+01 2.161677e+01 3.746489e+01 5.074821e+01 3.628402e+01 3.544761e+01 2.766370e+01 4.211761e+01 4.502611e+01 2.632286e+01 3.105334e+01 2.864591e+01 7.697145e-01 1.221179e+00 1.203717e+00 1.326438e+00 1.706910e+00 1.673075e+00 1.860644e+00 1.654013e+00 2.133199e+00 2.126284e+00 1.805592e+00 1.738879e+00 7.031336e-01 1.181719e-01 1.943332e-01 2.092408e-01 2.031340e-01 2.696373e-01 2.833678e-01 2.959422e-01 3.014169e-01 3.483641e-01 3.564941e-01 3.184292e-01 2.963891e-01 1.171751e-01
<GCONST> 1.030604e+02
<TRANSP> 5
 0.000000e+00 1.000000e+00 0.000000e+00 0.000000e+00 0.000000e+00
 0.000000e+00 4.665946e-01 5.334054e-01 0.000000e+00 0.000000e+00
 0.000000e+00 0.000000e+00 4.621350e-01 5.378650e-01 0.000000e+00
 0.000000e+00 0.000000e+00 0.000000e+00 6.189677e-01 3.810323e-01
 0.000000e+00 0.000000e+00 0.000000e+00 0.000000e+00 0.000000e+00
<ENDHMM>
~h "m"
<BEGINHMM>
<NUMSTATES> 5
<STATE> 2
<MEAN> 39
 -1.167698e+01 3.749973e+00 -2.656440e+00 -2.603029e+00 3.238845e+00 1.855964e-01 5.703501e+00 5.404291e-01 6.104760e+00 -2.836834e+00 2.416212e+00 -3.237475e+00 6.634759e+01 -7.687161e-02 1.903252e-02 -5.157278e-02 -7.696714e-02 1.306051e-01 1.846593e-01 1.320085e-01 -9.765876e-03 -9.386319e-02 1.194166e-01 1.413224e-01 2.053641e-02 -9.696646e-02 8.581867e-03 -1.238611e-02 5.298682e-02 2.697122e-02 3.891909e-02 -1.614081e-02 -2.128602e-02 -2.608987e-02 -6.346114e-02 -5.844409e-02 -3.209364e-02 -7.964738e-03 3.031167e-02
<VARIANCE> 39
 2.045466e+01 1.294557e+01 2.948106e+01 1.873942e+01 1.515109e+01 1.637175e+01 1.199829e+01 1.608305e+01 2.957004e+01 2.802016e+01 1.617749e+01 1.257782e+01 1.900597e+01 4.206618e-01 4.810589e-01 7.645651e-01 6.415566e-01 6.943070e-01 9.013792e-01 1.007003e+00 1.144131e+00 1.256978e+00 1.037688e+00 9.167293e-01 9.006967e-01 3.832124e-01 7.825743e-02 8.624338e-02 1.316987e-01 1.087438e-01 1.123028e-01 1.640290e-01 2.006505e-01 2.377521e-01 2.101586e-01 1.693953e-01 1.816418e-01 1.691922e-01 5.167570e-02
<GCONST> 7.974275e+01
<STATE> 3
<MEAN> 39
 -1.107072e+01 3.703741e+00 -2.057338e+00 -1.946223e+00 5.080311e+00 1.356121e+00 5.542051e+00 -7.445726e-01 3.840295e+00 -4.299296e+00 2.136711e+00 -3.308536e+00 6.742177e+01 -1.585815e-02 7.890416e-02 6.552470e-02 -4.220016e-02 1.823646e-01 1.251714e-01 3.837096e-02 -1.448961e-01 -2.065681e-01 -7.779999e-02 -2.586162e-02 -4.519752e-02 -1.706921e-02 -6.957077e-04 -4.257856e-03 2.104082e-02 -1.030227e-02 -3.478555e-02 -4.226023e-02 -3.848919e-02 3.156345e-03 2.058595e-02 -3.449107e-02 -5.256808e-02 -2.094166e-03 3.664194e-02
<VARIANCE> 39
 2.437352e+01 1.640154e+01 1.762018e+01 2.253646e+01 1.829067e+01 1.664378e+01 1.367121e+01 1.946591e+01 3.864244e+01 3.833990e+01 1.958823e+01 1.290503e+01 1.918393e+01 6.075808e-01 5.404550e-01 7.908044e-01 7.066041e-01 6.911611e-01 1.024987e+00 1.072278e+00 1.258630e+00 1.668722e+00 1.345794e+00 9.547253e-01 1.004735e+00 4.575827e-01 8.544765e-02 9.002649e-02 1.396122e-01 1.125084e-01 1.141950e-01 1.838232e-01 2.094519e-01 2.223523e-01 2.897475e-01 2.156606e-01 1.779354e-01 1.760526e-01 5.970517e-02
<GCONST> 8.398131e+01
<STATE> 4
<MEAN> 39
 -7.750607e+00 5.588768e+00 -5.602282e-01 -9.261191e-01 5.361621e+00 7.198448e-01 4.653072e+00 -1.671882e+00 1.657742e+00 -8.426530e+00 5.303770e-01 -4.948098e+00 7.055395e+01 -7.897740e-02 -4.024034e-02 1.018990e-02 1.766306e-02 2.064310e-02 -2.534744e-02 1.205750e-02 6.229078e-02 -7.014536e-03 -6.373916e-02 -7.452231e-03 -1.448564e-03 3.886800e-04 -2.809500e-03 -3.199263e-02 -1.035069e-02 1.812020e-03 -2.536597e-02 -3.168792e-02 -1.105316e-02 1.071725e-02 1.552667e-02 -5.112684e-03 3.569758e-04 9.355525e-03 2.181518e-02
<VARIANCE> 39
 1.956965e+01 1.955936e+01 1.482981e+01 2.736274e+01 3.372540e+01 2.602418e+01 1.661823e+01 2.044265e+01 3.210635e+01 4.356518e+01 2.334500e+01 1.536061e+01 2.624742e+01 3.412705e-01 6.951603e-01 6.230869e-01 9.141175e-01 1.279895e+00 1.963276e+00 1.009418e+00 1.167560e+00 1.598359e+00 1.863548e+00 1.191484e+00 1.201303e+00 4.833844e-01 5.303513e-02 1.115835e-01 1.215745e-01 1.301261e-01 1.736560e-01 3.221467e-01 1.822869e-01 1.926343e-01 2.931484e-01 3.461198e-01 2.075693e-01 2.102446e-01 7.189738e-02
<GCONST> 8.887502e+01
<TRANSP> 5
 0.000000e+00 1.000000e+00 0.000000e+00 0.000000e+00 0.000000e+00
 0.000000e+00 8.259051e-01 1.740948e-01 0.000000e+00 0.000000e+00
 0.000000e+00 0.000000e+00 7.282025e-01 2.717975e-01 0.000000e+00
 0.000000e+00 0.000000e+00 0.000000e+00 8.713825e-01 1.286175e-01
 0.000000e+00 0.000000e+00 0.000000e+00 0.000000e+00 0.000000e+00
<ENDHMM>
~h "n"
<BEGINHMM>
<NUMSTATES> 5
<STATE> 2
<MEAN> 39
 -1.006960e+01 1.419401e+00 -3.814751e-01 -2.413541e-01 5.363476e+00 1.053898e+00 4.553165e+00 -1.337908e+00 1.944885e+00 -6.663467e+00 1.472331e+00 -3.481587e+00 6.968350e+01 -3.179941e-02 -5.412075e-02 -8.860242e-02 -5.786467e-02 -6.522810e-02 7.007584e-03 1.054243e-01 -6.978989e-02 -1.376957e-01 -5.635216e-02 7.975768e-02 -1.687431e-04 -3.513508e-02 1.097182e-03 -7.303853e-03 -1.895592e-03 1.463264e-02 2.696640e-02 2.224032e-02 -2.316385e-02 1.529238e-03 -4.042765e-05 -1.515218e-03 2.829388e-02 2.448586e-02 9.006107e-03
<VARIANCE> 39
 3.187496e+01 4.221416e+01 1.888682e+01 3.524837e+01 2.386172e+01 1.818006e+01 2.012550e+01 2.205317e+01 4.227487e+01 3.018952e+01 1.530145e+01 2.480931e+01 1.777664e+01 6.018874e-01 1.208220e+00 8.594260e-01 1.282691e+00 1.109883e+00 9.558792e-01 1.207431e+00 1.165649e+00 1.973035e+00 1.723877e+00 1.036181e+00 1.218690e+00 5.438775e-01 7.454909e-02 1.704547e-01 1.372695e-01 1.837428e-01 1.648170e-01 1.678203e-01 2.091346e-01 2.010512e-01 3.034290e-01 2.625773e-01 1.833301e-01 2.014242e-01 7.157897e-02
<GCONST> 9.127978e+01
<STATE> 3
<MEAN> 39
 -1.020489e+01 1.420303e+00 -6.377807e-01 -4.413252e-01 5.546590e+00 1.333431e+00 4.875466e+00 -2.120865e+00 8.405884e-01 -7.444309e+00 1.606847e+00 -3.402408e+00 6.993775e+01 -2.477253e-02 2.544912e-02 -6.512091e-02 -4.983616e-02 3.526317e-02 8.971764e-02 1.156881e-01 -1.152250e-03 -7.347300e-02 -5.202921e-02 7.889427e-02 7.221561e-02 -3.096026e-02 -1.392945e-02 -1.236329e-02 9.772572e-03 -1.498616e-02 1.167352e-02 1.198139e-02 -3.397870e-02 3.182766e-02 3.620492e-02 1.620438e-02 -2.021417e-03 2.230716e-02 1.208690e-02
<VARIANCE> 39
 3.314237e+01 4.221479e+01 1.860791e+01 3.142006e+01 2.378241e+01 2.055632e+01 1.796547e+01 2.081295e+01 4.244429e+01 3.324700e+01 1.629645e+01 2.206592e+01 1.956437e+01 5.670375e-01 1.079636e+00 9.110322e-01 1.393525e+00 1.230621e+00 1.047263e+00 1.271693e+00 1.108023e+00 1.839404e+00 1.683662e+00 1.251241e+00 1.273753e+00 5.369035e-01 7.965721e-02 1.741313e-01 1.467562e-01 2.082804e-01 1.987265e-01 1.862233e-01 2.174183e-01 2.017207e-01 2.879125e-01 2.909241e-01 2.215671e-01 2.206134e-01 8.755589e-02
<GCONST> 9.271506e+01
<STATE> 4
<MEAN> 39
 -1.120706e+01 6.310833e-01 -8.494081e-01 -1.815760e+00 4.828732e+00 1.182408e+00 5.730921e+00 -1.089083e+00 1.453820e+00 -7.437578e+00 1.654598e+00 -2.867737e+00 6.976164e+01 -1.157594e-01 -1.366256e-02 -1.807339e-02 -1.513868e-01 2.181183e-02 2.601719e-02 2.764945e-02 1.120380e-01 9.540971e-02 5.555765e-02 5.703275e-03 4.376294e-02 -3.780347e-02 -5.520019e-03 -3.586950e-02 1.515209e-02 -4.057519e-03 -4.760843e-03 -1.251214e-02 -4.745194e-02 -1.129846e-02 -2.717952e-03 4.542870e-03 -3.685637e-03 2.504242e-03 3.411284e-02
<VARIANCE> 39
 3.693060e+01 5.023196e+01 1.796597e+01 3.426191e+01 2.835009e+01 2.284216e+01 1.692790e+01 2.433114e+01 3.785390e+01 3.507333e+01 1.568862e+01 2.121994e+01 1.734250e+01 8.170668e-01 1.159390e+00 8.583942e-01 1.366171e+00 1.196166e+00 1.112561e+00 1.353797e+00 1.050079e+00 1.596498e+00 1.802737e+00 1.173943e+00 1.192530e+00 6.337247e-01 9.838715e-02 1.794371e-01 1.421206e-01 2.147532e-01 1.924171e-01 1.931272e-01 2.248450e-01 1.886241e-01 2.812188e-01 3.249702e-01 2.099596e-01 2.192352e-01 1.008514e-01
<GCONST> 9.390759e+01
<TRANSP> 5
 0.000000e+00 1.000000e+00 0.000000e+00 0.000000e+00 0.000000e+00
 0.000000e+00 7.202137e-01 2.797864e-01 0.000000e+00 0.000000e+00
 0.000000e+00 0.000000e+00 6.359723e-01 3.640277e-01 0.000000e+00
 0.000000e+00 0.000000e+00 0.000000e+00 7.875069e-01 2.124932e-01
 0.000000e+00 0.000000e+00 0.000000e+00 0.000000e+00 0.000000e+00
<ENDHMM>
~h "q"
<BEGINHMM>
<NUMSTATES> 5
<STATE> 2
<MEAN> 39
 -1.612036e+01 -5.269492e-01 3.768995e+00 -6.925370e+00 3.218018e-01 -2.780936e-01 6.379256e+00 -6.160800e-01 3.200891e+00 -5.761227e+00 1.561416e+00 -3.636976e+00 7.313462e+01 -8.155976e-01 -3.061623e-01 5.382057e-01 -4.131292e-01 2.451838e-01 4.368478e-01 1.581630e-01 3.068275e-02 2.151875e-01 1.343662e-02 1.248600e-01 3.375919e-01 1.326510e-01 8.711436e-02 9.486097e-02 -8.575948e-02 1.397396e-01 1.092807e-02 -1.774036e-02 -1.016301e-02 -4.687019e-02 6.271423e-02 7.794254e-02 5.790182e-02 1.925678e-02 -7.155119e-02
<VARIANCE> 39
 5.301876e+01 2.313482e+01 3.247546e+01 4.309215e+01 3.681450e+01 3.610529e+01 3.224412e+01 3.271431e+01 2.879830e+01 1.821618e+01 2.560746e+01 2.064364e+01 1.534153e+01 3.993316e+00 2.220328e+00 2.669111e+00 2.316850e+00 1.364428e+00 2.286123e+00 3.009164e+00 2.848103e+00 1.544711e+00 1.710163e+00 1.957363e+00 2.192477e+00 1.287956e+00 6.282786e-01 3.938627e-01 4.026907e-01 3.853586e-01 2.656513e-01 4.365849e-01 5.363311e-01 6.083361e-01 3.528398e-01 3.062028e-01 3.823170e-01 4.200311e-01 1.667665e-01
<GCONST> 1.130418e+02
<STATE> 3
<MEAN> 39
 -1.852808e+01 -7.044985e-01 2.937873e+00 -8.008753e+00 1.399384e+00 1.205210e+00 7.038909e+00 -4.973945e-02 5.092165e+00 -5.125592e+00 1.598052e+00 -1.721001e+00 7.204115e+01 4.123134e-02 1.520889e-02 -1.309250e-01 2.351761e-01 3.062801e-01 9.927367e-02 -4.727223e-02 -8.588482e-02 -1.368866e-02 2.569491e-02 -8.854023e-03 9.798283e-02 -1.022079e-01 1.603829e-01 2.861828e-02 -5.553264e-02 1.506716e-01 3.062052e-02 -3.666616e-02 -6.946716e-02 -3.164190e-02 -1.055638e-01 -5.011989e-02 -1.170232e-02 -8.583052e-02 8.986943e-03
<VARIANCE> 39
 4.407661e+01 2.046971e+01 3.464098e+01 4.764980e+01 3.181069e+01 2.662849e+01 3.468544e+01 3.606217e+01 2.609090e+01 2.232787e+01 2.136588e+01 2.052720e+01 1.964405e+01 4.254754e+00 2.244437e+00 2.099496e+00 2.487868e+00 1.568663e+00 2.188920e+00 3.080218e+00 3.118655e+00 1.888891e+00 1.826540e+00 1.549407e+00 1.922807e+00 1.169441e+00 6.838521e-01 4.298798e-01 3.567201e-01 3.805491e-01 2.819074e-01 4.166771e-01 5.966274e-01 6.552877e-01 3.736833e-01 3.388329e-01 3.394552e-01 3.589420e-01 2.197549e-01
<GCONST> 1.130965e+02
<STATE> 4
<MEAN> 39
 -1.368753e+01 -1.008330e-01 2.708620e+00 -3.096872e+00 4.848588e+00 1.048079e+00 3.928094e+00 -1.204146e+00 2.553412e+00 -7.302148e+00 -4.623718e-01 -5.511482e+00 7.270418e+01 5.793478e-01 5.185286e-02 2.860619e-02 6.472084e-01 4.308025e-01 4.997623e-02 -3.770799e-01 -1.238751e-01 -3.300757e-01 -1.765572e-01 -1.201479e-01 -4.088175e-01 4.854445e-02 -1.277165e-03 -8.924862e-04 1.865727e-03 -6.042857e-03 1.572548e-02 -1.684177e-02 -4.434206e-02 -1.768258e-02 -3.794915e-03 -4.265162e-03 1.755254e-02 -5.615153e-03 2.695335e-02
<VARIANCE> 39
 4.235331e+01 2.983108e+01 2.342062e+01 6.557117e+01 5.212734e+01 2.677597e+01 4.771786e+01 4.167702e+01 3.739970e+01 2.533958e+01 2.051487e+01 4.298647e+01 1.735810e+01 4.397376e+00 2.464153e+00 1.875972e+00 3.424243e+00 3.251936e+00 2.113388e+00 4.061375e+00 3.454062e+00 3.647932e+00 2.794704e+00 2.011385e+00 3.509258e+00 1.086897e+00 7.402419e-01 4.514578e-01 3.121532e-01 4.993994e-01 4.892136e-01 3.732094e-01 7.834605e-01 6.781011e-01 6.629388e-01 5.590277e-01 4.143766e-01 6.700105e-01 2.021328e-01
<GCONST> 1.214924e+02
<TRANSP> 5
 0.000000e+00 1.000000e+00 0.000000e+00 0.000000e+00 0.000000e+00
 0.000000e+00 7.463790e-01 2.536210e-01 0.000000e+00 0.000000e+00
 0.000000e+00 0.000000e+00 8.030772e-01 1.969229e-01 0.000000e+00
 0.000000e+00 0.000000e+00 0.000000e+00 8.998379e-01 1.001620e-01
 0.000000e+00 0.000000e+00 0.000000e+00 0.000000e+00 0.000000e+00
<ENDHMM>
~h "r"
<BEGINHMM>
<NUMSTATES> 5
<STATE> 2
<MEAN> 39
 -8.420794e+00 2.912786e+00 4.277766e-01 -1.530493e+00 5.577816e+00 2.723101e-01 2.348781e+00 -2.076479e+00 -1.799667e+00 -1.133045e+01 -6.687661e-01 -3.797134e+00 7.095918e+01 -2.589942e-01 1.520989e-01 -1.100272e-02 -1.089486e-01 4.118977e-02 2.052626e-01 9.824610e-02 -9.839615e-03 1.979129e-01 4.775151e-02 -1.541301e-02 1.179172e-01 -1.936908e-01 -9.897887e-02 -6.807586e-02 5.264977e-02 2.121765e-03 -6.708591e-02 -4.647088e-02 8.939673e-03 5.139119e-02 8.090604e-02 1.016456e-01 5.554094e-02 -1.126321e-02 3.727353e-02
<VARIANCE> 39
 2.904752e+01 1.986992e+01 1.543734e+01 1.844352e+01 2.538912e+01 2.744401e+01 2.333874e+01 1.655363e+01 4.347269e+01 4.412658e+01 2.412683e+01 2.958924e+01 1.463091e+01 1.604755e+00 1.939732e+00 1.220090e+00 1.146619e+00 1.955125e+00 2.031055e+00 1.989016e+00 1.590384e+00 2.710051e+00 2.536996e+00 1.862846e+00 1.931944e+00 1.221315e+00 1.768058e-01 2.755313e-01 2.478618e-01 2.093653e-01 3.184113e-01 3.854515e-01 3.095993e-01 3.367033e-01 4.902492e-01 4.891720e-01 3.145745e-01 3.064001e-01 2.090682e-01
<GCONST> 1.047420e+02
<STATE> 3
<MEAN> 39
 -1.044882e+01 2.233151e+00 6.841573e-01 -1.849681e+00 5.703656e+00 7.889178e-01 2.665448e+00 -1.627653e+00 -9.860018e-01 -1.056281e+01 -5.700156e-02 -3.171912e+00 7.073794e+01 -4.246906e-01 -1.368279e-01 1.524500e-01 -1.598686e-02 6.860875e-04 5.871784e-02 1.053157e-01 1.305378e-01 2.237431e-01 1.715491e-01 1.247072e-01 7.791477e-02 -5.923145e-03 5.585995e-03 -5.593908e-02 4.654296e-02 5.294004e-02 -1.410173e-02 -5.749493e-02 -1.077080e-02 2.454925e-02 -1.443437e-03 3.252541e-02 1.306972e-02 -4.480693e-02 3.425725e-02
<VARIANCE> 39
 4.301082e+01 2.648153e+01 1.650939e+01 1.904730e+01 2.473675e+01 2.586209e+01 2.058149e+01 1.688742e+01 4.256219e+01 4.674766e+01 2.250429e+01 2.554330e+01 1.518810e+01 1.451615e+00 1.997057e+00 1.339530e+00 1.112030e+00 1.720245e+00 1.934192e+00 1.851589e+00 1.665461e+00 2.577852e+00 2.159601e+00 1.647975e+00 1.953408e+00 1.132848e+00 1.867586e-01 2.761554e-01 2.514948e-01 1.879136e-01 3.151333e-01 3.638547e-01 2.898909e-01 2.802235e-01 4.765280e-01 4.379874e-01 3.397862e-01 3.294520e-01 1.913964e-01
<GCONST> 1.041472e+02
<STATE> 4
<MEAN> 39
 -1.217736e+01 8.791188e-01 1.012446e+00 -1.510769e+00 6.117660e+00 4.827783e-01 2.963491e+00 -8.930839e-01 -8.498175e-01 -1.033062e+01 5.468559e-01 -3.011862e+00 7.088188e+01 -2.458529e-01 -2.727168e-01 1.381375e-01 1.391888e-01 1.170302e-02 1.926595e-03 1.221986e-01 1.936526e-02 1.323334e-01 2.394404e-01 1.666682e-01 -5.000148e-02 7.560822e-03 6.035804e-02 -4.335353e-02 -9.101043e-03 5.276343e-02 -8.860678e-04 -2.632897e-02 -7.909546e-03 -3.472079e-02 -1.270445e-02 4.035352e-02 1.489945e-02 -2.788265e-02 1.328588e-02
<VARIANCE> 39
 5.209260e+01 3.464065e+01 1.673985e+01 1.884740e+01 2.470993e+01 2.388616e+01 1.891276e+01 1.800122e+01 4.452330e+01 5.163565e+01 2.224819e+01 2.703193e+01 1.566247e+01 1.117416e+00 1.638204e+00 1.272007e+00 1.077584e+00 1.765886e+00 1.768918e+00 1.608635e+00 1.560929e+00 2.446914e+00 2.253567e+00 1.683609e+00 1.782080e+00 8.232329e-01 1.732753e-01 2.562919e-01 2.109891e-01 1.700049e-01 2.931818e-01 3.090419e-01 2.717468e-01 2.585206e-01 5.235046e-01 4.346000e-01 3.091352e-01 3.352798e-01 1.542688e-01
<GCONST> 1.025067e+02
<TRANSP> 5
 0.000000e+00 1.000000e+00 0.000000e+00 0.000000e+00 0.000000e+00
 0.000000e+00 6.415916e-01 3.584085e-01 0.000000e+00 0.000000e+00
 0.000000e+00 0.000000e+00 6.072405e-01 3.927595e-01 0.000000e+00
 0.000000e+00 0.000000e+00 0.000000e+00 6.997514e-01 3.002486e-01
 0.000000e+00 0.000000e+00 0.000000e+00 0.000000e+00 0.000000e+00
<ENDHMM>
~h "s"
<BEGINHMM>
<NUMSTATES> 5
<STATE> 2
<MEAN> 39
 -1.686154e+01 -2.877092e+00 2.263880e+00 -3.474741e+00 3.235322e+00 2.290111e+00 7.732203e+00 -7.223329e-01 3.476616e+00 -4.780413e+00 3.400841e+00 1.238873e-01 6.938826e+01 -7.513928e-01 -2.318715e-01 -6.071858e-03 -7.899759e-01 -4.533946e-01 -1.792720e-01 6.374431e-02 9.941393e-02 3.432699e-01 4.157475e-01 -7.588287e-02 5.761533e-02 6.681900e-02 1.534139e-01 9.394335e-02 -1.415788e-01 -1.814514e-02 7.000600e-02 5.378265e-02 -1.185033e-01 -2.883841e-02 -1.040062e-01 -5.769828e-02 -2.574006e-02 -1.070620e-01 -7.675079e-02
<VARIANCE> 39
 3.743213e+01 2.183726e+01 6.661349e+01 2.674706e+01 1.223106e+01 1.663478e+01 2.019356e+01 2.270256e+01 2.854269e+01 1.933697e+01 1.914294e+01 1.474031e+01 1.004809e+02 1.599082e+00 5.818200e-01 9.575983e-01 1.056038e+00 9.761613e-01 1.100615e+00 9.122353e-01 1.261004e+00 1.529046e+00 1.242013e+00 8.397318e-01 1.127789e+00 3.288131e-01 1.609918e-01 8.641665e-02 1.367342e-01 1.448119e-01 1.309836e-01 1.856868e-01 1.937169e-01 1.939501e-01 2.305030e-01 2.238351e-01 1.576844e-01 1.527490e-01 4.733400e-02
<GCONST> 8.856755e+01
<STATE> 3
<MEAN> 39
 -1.822135e+01 -3.151805e+00 1.558765e+00 -5.401076e+00 2.360709e+00 2.019955e+00 7.513558e+00 -5.891351e-01 4.035986e+00 -4.274240e+00 2.851197e+00 -2.087365e-01 6.932299e+01 -3.800991e-01 -2.218890e-02 -2.158055e-01 -6.080103e-01 -2.414244e-01 -7.300528e-02 -5.529222e-02 2.251331e-02 1.400886e-01 2.115586e-01 -4.955331e-02 -4.334045e-02 -6.723157e-02 1.490334e-01 6.686522e-02 -6.175510e-02 1.233378e-01 7.137717e-02 3.082045e-02 -1.980387e-02 -1.095605e-02 -5.074917e-02 -3.465583e-02 2.592096e-02 -2.500360e-02 -4.499911e-02
<VARIANCE> 39
 4.332950e+01 2.614639e+01 7.188383e+01 2.304899e+01 9.440128e+00 1.349535e+01 1.734135e+01 1.942794e+01 2.868682e+01 1.911526e+01 1.422618e+01 1.169944e+01 8.967082e+01 8.388130e-01 4.708700e-01 7.035536e-01 9.035296e-01 5.924780e-01 7.575977e-01 6.871614e-01 9.871259e-01 1.252115e+00 9.925196e-01 8.812598e-01 8.302818e-01 2.267421e-01 1.277165e-01 7.187835e-02 1.305342e-01 1.350292e-01 1.211752e-01 1.610208e-01 1.416208e-01 2.054458e-01 2.461761e-01 1.898894e-01 1.519286e-01 1.463152e-01 4.131506e-02
<GCONST> 8.229813e+01
<STATE> 4
<MEAN> 39
 -1.744748e+01 -3.650829e-01 -4.109401e+00 -5.604361e+00 1.978909e+00 1.552269e+00 7.429145e+00 6.330246e-01 6.932160e+00 -1.241004e+00 4.260148e+00 -1.224799e+00 6.607080e+01 3.581244e-02 5.535932e-02 -9.167095e-02 -2.551028e-02 -2.131338e-02 -9.921962e-03 2.727212e-02 3.654234e-02 4.992870e-02 1.081130e-01 4.857099e-02 -4.266822e-02 -9.026975e-02 3.960162e-02 -7.594873e-04 3.708662e-03 4.049583e-02 9.634644e-03 -1.891172e-03 -2.557403e-03 -6.565971e-03 -1.372253e-02 -1.813589e-02 -5.800718e-03 -1.029188e-02 4.267741e-03
<VARIANCE> 39
 1.817791e+01 1.902304e+01 3.589800e+01 1.057080e+01 5.770977e+00 7.523764e+00 1.069016e+01 1.039917e+01 1.812168e+01 1.516585e+01 9.305286e+00 1.011946e+01 2.519580e+01 3.378517e-01 2.921779e-01 4.837774e-01 5.336871e-01 5.196913e-01 5.881993e-01 7.527546e-01 7.962983e-01 8.334462e-01 8.481759e-01 7.558845e-01 8.098906e-01 1.737369e-01 5.690966e-02 4.979822e-02 8.264137e-02 1.030977e-01 1.067122e-01 1.238593e-01 1.540395e-01 1.690541e-01 1.696760e-01 1.640974e-01 1.404255e-01 1.638416e-01 2.666105e-02
<GCONST> 6.779391e+01
<TRANSP> 5
 0.000000e+00 1.000000e+00 0.000000e+00 0.000000e+00 0.000000e+00
 0.000000e+00 5.296395e-01 4.703605e-01 0.000000e+00 0.000000e+00
 0.000000e+00 0.000000e+00 6.112447e-01 3.887553e-01 0.000000e+00
 0.000000e+00 0.000000e+00 0.000000e+00 9.490256e-01 5.097432e-02
 0.000000e+00 0.000000e+00 0.000000e+00 0.000000e+00 0.000000e+00
<ENDHMM>
~h "t"
<BEGINHMM>
<NUMSTATES> 5
<STATE> 2
<MEAN> 39
 -1.135224e+01 1.007024e+00 -3.516437e+00 -3.255088e+00 2.955223e+00 -5.887164e-01 6.055982e+00 -1.734591e+00 2.036315e+00 -6.126864e+00 2.632737e+00 -2.488700e+00 7.029404e+01 1.844718e-01 -1.115042e-01 -5.699966e-02 1.799282e-03 -1.391201e-01 -5.734960e-02 1.492738e-02 -2.838199e-01 -3.664044e-01 1.339263e-02 1.136012e-01 2.548869e-02 2.307478e-01 -4.577974e-02 -1.603660e-02 3.097018e-02 -1.332511e-03 -2.170624e-03 2.368201e-02 -3.029555e-02 6.804976e-03 1.892410e-02 4.356479e-02 -9.062556e-04 3.119144e-03 4.104855e-04
<VARIANCE> 39
 1.993876e+01 1.493495e+01 2.392422e+01 1.958802e+01 1.668302e+01 1.477516e+01 1.812848e+01 2.221167e+01 5.860136e+01 4.999537e+01 1.678662e+01 1.365099e+01 5.691862e+01 7.335083e-01 7.824389e-01 6.977920e-01 9.570469e-01 1.023514e+00 1.079629e+00 1.254068e+00 1.234345e+00 1.646824e+00 1.655797e+00 1.135540e+00 8.998816e-01 9.707090e-01 1.198441e-01 1.403463e-01 1.425996e-01 1.504256e-01 1.724292e-01 1.775789e-01 2.071824e-01 2.433215e-01 2.894560e-01 2.963743e-01 1.946799e-01 1.847930e-01 1.719386e-01
<GCONST> 9.111809e+01
<STATE> 3
<MEAN> 39
 -9.138464e+00 6.384996e-01 -1.656859e+00 -2.236880e+00 3.523017e+00 -1.082103e+00 5.447705e+00 -4.091403e+00 -2.245874e+00 -8.925626e+00 1.563913e+00 -3.020958e+00 7.457359e+01 1.797307e-01 -1.225791e-01 -9.034457e-03 -3.601050e-02 -1.882123e-01 3.266860e-03 -8.999776e-02 -2.336716e-01 -3.957644e-01 4.872360e-02 1.317257e-01 3.255950e-02 2.257928e-01 -4.524925e-02 2.498119e-02 1.098529e-02 -9.239779e-03 5.342357e-03 2.831068e-02 2.679454e-03 6.337322e-02 8.944669e-02 2.499638e-02 -2.579247e-02 -8.210227e-03 -6.113529e-02
<VARIANCE> 39
 2.180340e+01 2.131912e+01 2.204283e+01 1.790803e+01 2.215878e+01 2.237231e+01 2.518295e+01 2.843057e+01 6.116403e+01 3.747017e+01 1.747129e+01 1.803201e+01 5.118066e+01 1.070490e+00 1.109979e+00 1.096871e+00 1.094034e+00 1.233591e+00 1.383581e+00 1.609755e+00 1.582895e+00 2.465422e+00 1.954380e+00 1.232274e+00 1.172854e+00 1.359412e+00 1.887516e-01 1.970220e-01 2.000407e-01 1.798895e-01 2.378199e-01 2.528321e-01 2.976641e-01 3.089168e-01 4.051470e-01 3.584752e-01 2.151681e-01 2.271863e-01 2.355747e-01
<GCONST> 9.986690e+01
<STATE> 4
<MEAN> 39
 -7.695976e+00 -3.707347e-01 -1.319289e+00 -3.181951e+00 2.504639e+00 -8.231342e-01 5.463411e+00 -5.086714e+00 -4.395366e+00 -1.014954e+01 2.687147e+00 -3.014015e+00 7.605916e+01 -5.949340e-02 2.184740e-02 2.764611e-02 5.394148e-02 -1.267526e-02 4.778813e-02 -4.813761e-04 5.452801e-02 1.474165e-01 7.325072e-02 4.088170e-02 -3.341122e-02 -1.460106e-01 -1.581695e-02 6.104018e-03 1.102928e-02 2.398329e-02 3.832335e-02 3.550560e-03 1.110511e-02 3.339809e-02 5.606799e-02 1.864295e-03 -1.475602e-02 -1.126039e-02 -1.062677e-02
<VARIANCE> 39
 1.709125e+01 1.996571e+01 1.649393e+01 2.020260e+01 2.314495e+01 1.710133e+01 2.499011e+01 2.576009e+01 4.112609e+01 2.868794e+01 2.429953e+01 2.089104e+01 4.171450e+01 8.452496e-01 1.243451e+00 9.859444e-01 1.209841e+00 1.128307e+00 1.442979e+00 1.562397e+00 1.576553e+00 2.203386e+00 1.641195e+00 1.256155e+00 1.113197e+00 1.334323e+00 1.319667e-01 2.205460e-01 1.765160e-01 1.958075e-01 2.002981e-01 2.812112e-01 2.628065e-01 3.163070e-01 3.504634e-01 3.000225e-01 2.376551e-01 2.133227e-01 2.139519e-01
<GCONST> 9.728264e+01
<TRANSP> 5
 0.000000e+00 1.000000e+00 0.000000e+00 0.000000e+00 0.000000e+00
 0.000000e+00 7.649978e-01 2.350022e-01 0.000000e+00 0.000000e+00
 0.000000e+00 0.000000e+00 6.859825e-01 3.140175e-01 0.000000e+00
 0.000000e+00 0.000000e+00 0.000000e+00 9.128112e-01 8.718874e-02
 0.000000e+00 0.000000e+00 0.000000e+00 0.000000e+00 0.000000e+00
<ENDHMM>
~h "u"
<BEGINHMM>
<NUMSTATES> 5
<STATE> 2
<MEAN> 39
 -8.933740e+00 -5.103249e-02 2.921714e+00 1.732795e+00 6.236451e+00 -2.131985e+00 -2.688280e+00 -3.091492e+00 1.382139e+00 -8.804458e+00 -3.251977e+00 -4.989864e+00 7.192827e+01 1.453497e-01 -2.087281e-02 4.202667e-02 1.613699e-01 -5.474809e-02 -3.157684e-01 -6.324515e-02 -6.683205e-02 -8.686016e-02 -1.419930e-01 -1.243768e-01 -1.428186e-02 2.003532e-01 1.395415e-02 6.258237e-02 -4.473148e-02 -3.011993e-02 8.061900e-03 -1.737352e-02 4.367905e-02 -2.846746e-02 5.777446e-03 5.088599e-02 1.813649e-03 -1.227716e-02 -4.785825e-02
<VARIANCE> 39
 3.255482e+01 4.984216e+01 1.532741e+01 5.262704e+01 5.629972e+01 2.371970e+01 3.043410e+01 2.258677e+01 2.462208e+01 2.379765e+01 1.745244e+01 3.470290e+01 9.221248e+00 2.547863e+00 2.680351e+00 1.502392e+00 3.426028e+00 2.678530e+00 2.273567e+00 2.003515e+00 1.732134e+00 4.070481e+00 3.247678e+00 1.718932e+00 2.814681e+00 1.204705e+00 3.722060e-01 2.759731e-01 2.966036e-01 4.257202e-01 2.576967e-01 4.449504e-01 3.511133e-01 2.889664e-01 6.242250e-01 5.268141e-01 3.717845e-01 4.928721e-01 1.365503e-01
<GCONST> 1.118488e+02
<STATE> 3
<MEAN> 39
 -1.012339e+01 -6.318229e-01 1.751185e+00 -1.985598e+00 2.688922e+00 -4.172506e+00 -3.936945e-01 -2.114423e+00 2.740951e+00 -7.919500e+00 -2.759165e+00 -2.721696e+00 7.252198e+01 -2.809415e-02 2.698421e-01 1.043419e-01 -1.228360e-01 -5.764781e-02 -7.888659e-02 -5.392360e-02 -1.460098e-01 1.301950e-01 2.385066e-01 1.306850e-02 -4.468864e-02 -7.243599e-02 -7.031973e-03 1.960029e-02 8.053122e-03 -2.425275e-02 2.366676e-02 4.819670e-02 -2.432428e-02 -7.769648e-03 1.317073e-02 7.749848e-03 1.027861e-02 -1.230861e-03 -2.271773e-02
<VARIANCE> 39
 3.061091e+01 7.270197e+01 1.739235e+01 3.513361e+01 1.951135e+01 2.543128e+01 1.911663e+01 1.827208e+01 3.224025e+01 2.783825e+01 1.575920e+01 2.287344e+01 1.575651e+01 2.951784e+00 3.236151e+00 1.728744e+00 2.459561e+00 1.011439e+00 2.873942e+00 1.842330e+00 1.867714e+00 3.610482e+00 2.712144e+00 1.120931e+00 2.393259e+00 9.162352e-01 4.352828e-01 3.812103e-01 3.377400e-01 3.304198e-01 1.547873e-01 5.194884e-01 3.790972e-01 3.459401e-01 6.348982e-01 5.490436e-01 2.473796e-01 4.687308e-01 1.349316e-01
<GCONST> 1.087427e+02
<STATE> 4
<MEAN> 39
 -8.379342e+00 1.596465e+00 9.242745e-01 -2.323288e+00 2.443711e+00 -2.390664e+00 1.664166e+00 -1.185887e+00 4.491739e+00 -6.382489e+00 8.337766e-01 -3.165610e+00 7.117812e+01 1.082869e-01 5.776652e-02 -8.833349e-03 1.789867e-01 2.484362e-01 2.339560e-01 6.931248e-03 -1.166196e-02 -2.414988e-02 -8.675472e-02 1.889278e-02 -1.372087e-01 -2.545282e-02 6.656637e-03 -1.133572e-02 -1.255015e-02 3.424861e-03 1.535243e-02 2.394093e-02 2.219837e-02 -3.362988e-02 -5.428947e-02 -1.250954e-02 -4.607041e-03 -1.502989e-02 8.995011e-03
<VARIANCE> 39
 3.090492e+01 9.310989e+01 3.799088e+01 3.515503e+01 3.249725e+01 4.876016e+01 4.342447e+01 2.145199e+01 1.863305e+01 2.978106e+01 2.709407e+01 1.875356e+01 8.420778e+00 1.387870e+00 2.515311e+00 1.560781e+00 2.009883e+00 1.646564e+00 3.606371e+00 2.871427e+00 1.822318e+00 2.220057e+00 2.711484e+00 1.645983e+00 2.169250e+00 4.284049e-01 1.694527e-01 2.590726e-01 2.877428e-01 3.343744e-01 2.203444e-01 5.334629e-01 4.955901e-01 3.248189e-01 3.687350e-01 4.762395e-01 3.211150e-01 4.222768e-01 6.244050e-02
<GCONST> 1.078284e+02
<TRANSP> 5
 0.000000e+00 1.000000e+00 0.000000e+00 0.000000e+00 0.000000e+00
 0.000000e+00 9.260154e-01 7.398453e-02 0.000000e+00 0.000000e+00
 0.000000e+00 0.000000e+00 8.792206e-01 1.207793e-01 0.000000e+00
 0.000000e+00 0.000000e+00 0.000000e+00 9.684798e-01 3.152020e-02
 0.000000e+00 0.000000e+00 0.000000e+00 0.000000e+00 0.000000e+00
<ENDHMM>
~h "w"
<BEGINHMM>
<NUMSTATES> 5
<STATE> 2
<MEAN> 39
 -1.001691e+01 4.657930e+00 1.725638e+00 -1.041760e+00 4.844359e+00 -1.444785e+00 2.165897e+00 -2.143215e+00 2.396004e+00 -7.482495e+00 -1.011289e+00 -5.460108e+00 7.102645e+01 -1.174521e-01 1.620539e-02 1.314633e-01 -5.931040e-03 2.989700e-02 -3.365386e-02 -9.070380e-02 1.444465e-02 6.472831e-02 -1.107864e-01 -2.651598e-01 2.520430e-02 1.742851e-01 -8.344641e-02 -1.065539e-01 1.639296e-02 -4.531735e-02 9.645680e-03 4.512742e-03 6.344789e-03 4.310955e-03 -1.345855e-03 1.434010e-02 1.930367e-02 5.100267e-02 6.169196e-02
<VARIANCE> 39
 3.862122e+01 3.963513e+01 2.441829e+01 3.282961e+01 3.946562e+01 3.258439e+01 3.422123e+01 3.150876e+01 3.867946e+01 3.129392e+01 2.166622e+01 3.034937e+01 2.030580e+01 2.505562e+00 2.682106e+00 1.534935e+00 1.932226e+00 2.030210e+00 2.240364e+00 2.241981e+00 2.438051e+00 2.616590e+00 2.403121e+00 1.499972e+00 2.069703e+00 1.225107e+00 3.332198e-01 3.405477e-01 2.447838e-01 2.724990e-01 3.305103e-01 3.498541e-01 3.315159e-01 4.083848e-01 4.463302e-01 4.162490e-01 2.713451e-01 3.830510e-01 1.914912e-01
<GCONST> 1.111774e+02
<STATE> 3
<MEAN> 39
 -1.109734e+01 3.593258e+00 1.995845e+00 -1.614966e+00 4.769860e+00 -1.422621e+00 2.141900e+00 -1.422416e+00 3.249417e+00 -7.023898e+00 -1.033276e+00 -5.237076e+00 7.147913e+01 -2.115805e-01 -2.546529e-01 1.353777e-01 -6.985660e-02 7.206888e-02 1.065157e-01 -4.249615e-02 8.456784e-02 6.152676e-02 -9.432123e-03 -6.685343e-02 4.813306e-02 1.974574e-01 1.156813e-02 -1.815552e-02 1.773473e-02 7.757647e-03 2.161910e-02 2.633694e-02 2.173044e-02 -4.177682e-02 -2.723678e-02 -2.167659e-02 4.792061e-02 2.803426e-02 3.474789e-03
<VARIANCE> 39
 4.468739e+01 4.668586e+01 2.360195e+01 3.741027e+01 4.388741e+01 3.185733e+01 3.593787e+01 3.202784e+01 3.333638e+01 3.218262e+01 2.257295e+01 2.889327e+01 1.824912e+01 2.701900e+00 2.541306e+00 1.609568e+00 2.227525e+00 2.181289e+00 2.127532e+00 2.226025e+00 2.558906e+00 2.358043e+00 2.068128e+00 1.299345e+00 1.970122e+00 9.297176e-01 3.660425e-01 4.034689e-01 2.778657e-01 3.160897e-01 3.699313e-01 3.391087e-01 3.507585e-01 4.921522e-01 4.183659e-01 3.763647e-01 2.434783e-01 3.334440e-01 1.832816e-01
<GCONST> 1.114534e+02
<STATE> 4
<MEAN> 39
 -9.977634e+00 2.031757e+00 3.105594e+00 1.623260e-01 5.423133e+00 -1.373711e+00 2.585794e+00 -2.247656e+00 5.849154e-01 -7.670991e+00 -4.160201e-01 -5.021154e+00 7.192056e+01 -8.606554e-04 -9.355904e-02 2.562191e-02 2.744889e-02 6.768978e-02 7.526465e-02 -6.990518e-03 -6.304462e-02 -6.541687e-02 -7.867444e-02 2.995177e-03 3.947813e-02 3.464255e-02 9.239826e-04 -1.121693e-02 -3.932163e-03 1.305278e-02 4.228154e-03 -4.015918e-03 1.076363e-02 -1.551095e-02 -1.658195e-02 -2.048093e-02 1.007374e-02 1.554494e-02 2.259540e-03
<VARIANCE> 39
 5.268689e+01 4.772381e+01 2.498797e+01 5.856734e+01 6.582376e+01 3.920125e+01 4.167766e+01 2.745267e+01 4.184486e+01 3.079007e+01 2.162179e+01 2.945918e+01 1.171568e+01 1.805882e+00 1.407466e+00 1.149027e+00 1.892859e+00 2.105226e+00 1.638562e+00 1.909067e+00 1.771760e+00 1.958503e+00 1.955078e+00 1.262362e+00 1.826862e+00 7.161565e-01 2.127176e-01 2.019507e-01 1.947929e-01 2.231886e-01 2.916773e-01 2.519691e-01 2.785403e-01 3.149158e-01 3.227217e-01 3.550091e-01 2.171918e-01 3.083346e-01 1.174219e-01
<GCONST> 1.054441e+02
<TRANSP> 5
 0.000000e+00 1.000000e+00 0.000000e+00 0.000000e+00 0.000000e+00
 0.000000e+00 5.835156e-01 4.164844e-01 0.000000e+00 0.000000e+00
 0.000000e+00 0.000000e+00 5.801051e-01 4.198949e-01 0.000000e+00
 0.000000e+00 0.000000e+00 0.000000e+00 8.747932e-01 1.252067e-01
 0.000000e+00 0.000000e+00 0.000000e+00 0.000000e+00 0.000000e+00
<ENDHMM>
~h "y"
<BEGINHMM>
<NUMSTATES> 5
<STATE> 2
<MEAN> 39
 -1.200083e+01 -3.192279e-01 3.636515e+00 2.188563e+00 9.314349e+00 2.317918e+00 6.911721e-01 -3.175932e+00 2.563031e-01 -9.185050e+00 4.492762e-01 -4.532228e+00 7.225725e+01 -6.154624e-02 -8.890416e-02 1.398380e-01 1.204585e-01 1.324783e-01 7.401278e-02 -1.305766e-01 -1.050288e-02 -4.987687e-03 -5.164343e-02 -9.174941e-02 -3.306323e-02 9.640551e-02 1.171440e-02 -1.799507e-03 -5.627315e-02 -2.777486e-02 -6.466404e-02 -4.178701e-02 4.529026e-02 -2.799399e-03 2.149138e-02 2.699474e-02 5.673203e-03 6.895408e-03 -2.232821e-02
<VARIANCE> 39
 4.333317e+01 2.997730e+01 2.748783e+01 4.536139e+01 4.106591e+01 2.121066e+01 3.858363e+01 2.317224e+01 4.040257e+01 3.306236e+01 1.993676e+01 3.540051e+01 3.336534e+01 2.807489e+00 2.670421e+00 1.706757e+00 2.108293e+00 2.085717e+00 1.668921e+00 2.839486e+00 1.781881e+00 2.244345e+00 1.952084e+00 1.657527e+00 2.321127e+00 8.657652e-01 4.005124e-01 4.918710e-01 3.012942e-01 2.991019e-01 3.024758e-01 3.105902e-01 4.419885e-01 3.045475e-01 3.906488e-01 3.653187e-01 3.087269e-01 4.288904e-01 1.766960e-01
<GCONST> 1.115449e+02
<STATE> 3
<MEAN> 39
